1369 128
eat -0.094178885 -0.55038965 -0.04622437 0.33253896 0.40808496 0.23749508 -0.1574015 -0.08273765 -0.18366066 -0.3486117 -0.07902561 -0.41691372 -0.34319136 -0.37789068 0.36486503 0.37213448 -0.2887389 0.28855345 0.09751299 0.4708114 0.48711053 -0.11463287 -0.17231403 -0.76556224 -0.14641383 0.19006406 -0.5394176 0.0047887703 -0.64070904 -0.6040214 0.13920836 0.004370821 0.29313278 -0.12642774 0.3994483 0.24415281 0.45117936 -0.49505123 -0.17767625 0.06397699 0.035860416 0.11229763 -0.27500305 -0.15543921 0.5983015 -0.14851119 -0.21054983 0.15214999 -0.6860332 0.3944391 0.62821937 0.17979462 -0.21177101 0.43819892 -0.9048375 -0.30754107 -0.016943933 -0.3862778 -0.40096092 0.44515634 -0.06940822 0.026918849 0.5221337 0.25685582 -0.095666565 -0.18681255 0.06782663 0.20538846 -0.48264673 -0.051478606 -0.027136358 -0.30073965 -0.6971434 -0.59953815 0.036036216 -0.055183306 -0.3574147 -0.46188208 -0.30015898 0.011425519 -0.06215309 -0.14764497 0.6852033 0.2701879 0.61279553 0.22730002 0.6383649 0.25753847 0.17021601 0.409963 -0.16166893 -0.16888082 -0.107138455 -0.082718715 0.56092817 0.13436824 0.18830547 -0.40069607 -0.449625 0.019871699 0.012336159 -0.18184993 -0.31196913 0.23019893 0.18215366 -0.22728767 0.16327652 -0.08289973 0.17658874 -0.31196392 0.5676495 -0.041959282 0.438185 -0.11691939 -0.49002966 0.24601777 0.28174683 -0.07714956 0.27982706 -0.5160813 -0.2610778 -0.59106237 0.058099754 0.3465524 -0.53831923 -0.013325326 -0.543975 -0.047403958
like 0.25590453 0.065619625 0.39226404 -0.02771499 0.14516386 -0.2666 0.53290075 -0.2454662 0.30731413 0.05715557 0.27082995 0.11111754 0.013375642 -0.20450005 0.37213874 0.21445358 -0.4351469 0.08929488 -0.51782936 0.43853617 0.17292458 0.29484046 -0.08272032 -0.4029216 -0.4539452 -0.124703914 -0.12597905 0.23684922 0.4909269 -0.20801829 0.17556928 -0.28447682 0.05501007 0.2114008 -0.07799526 0.09885294 0.02779699 -0.4248881 -0.10944027 -0.08796114 -0.2956776 0.4748599 0.03414717 -0.34690422 -0.13058396 0.4550149 -0.03786075 -0.4231471 -0.1411045 0.33987463 0.12444629 0.21093401 -0.024489049 0.22477846 -0.18746437 0.13628373 0.81619835 -0.10174872 -0.26258785 -0.16375826 -0.22612497 0.061891895 0.111422375 -0.44510534 0.4357024 0.19811815 0.07039862 0.08355416 -0.01396258 -0.21988899 0.06310425 0.053486776 -0.57974315 0.019547569 -0.047358166 -0.31788388 -0.06878061 -0.3312088 -0.4698188 0.14465924 0.11895635 0.094930224 0.6005604 0.5742131 -0.11131582 0.65674233 -0.1764881 -0.61305267 0.1653536 -0.18019317 -0.26158753 -0.24218544 0.43305922 -0.11848188 0.32619163 0.15226366 -0.045912072 -0.47414446 -0.30688748 -0.12331386 -0.465324 0.30464876 -0.2068634 0.15073423 -0.1168205 -0.007013061 -0.30947477 0.54752797 0.02368197 -0.35282812 0.30006838 -0.033191066 -0.23936601 0.60048646 -0.19113307 -0.25503466 0.07157658 -0.051625483 -0.2914365 0.049934536 -0.17244413 -0.30150312 -0.17158246 0.08289268 0.018837353 -0.05175104 0.11075149 -0.09252301
get 0.18375607 -0.049851842 0.17764828 0.17727591 0.2844145 -0.01648099 0.35141775 -0.44951308 0.05134012 0.18134972 0.39691743 0.07262095 0.02607947 -0.2421776 0.28182888 0.2703638 -0.20416124 0.33816606 -0.5801533 0.32341215 -0.002660842 0.4887157 0.09607796 -0.45308888 -0.21032783 0.12058522 0.0066205766 0.047455464 0.29503968 -0.19347386 -0.13423206 -0.10193339 0.044205926 0.5478585 -0.35005757 0.2303373 0.277241 -0.27804777 0.2121755 -0.12520893 -0.41069275 0.09950027 -0.12699622 -0.09649421 0.019975157 0.33899638 -0.16727756 -0.39694718 -0.2654339 0.3145353 0.30193344 0.3572007 -0.08924795 0.076546624 -0.4860254 0.23080769 0.64412874 -0.08378311 -0.28882542 -0.13582473 -0.09851152 -0.16449712 0.13099459 -0.60554135 0.41275784 0.11390502 -0.06662504 0.15646693 -0.2179958 -0.50779474 -0.082704976 -0.21589126 -0.54466885 -0.106499456 0.12054213 -0.43715495 -0.334017 -0.44684824 -0.26001114 0.29487017 -0.037852667 -0.0935476 0.43963003 0.58231246 -0.21815178 0.49668348 0.053392623 -0.607986 0.099292666 0.225276 -0.16335481 -0.2733374 0.2073913 -0.00045512753 0.66191775 0.21591337 -0.23119171 -0.74321085 -0.10269884 -0.124022946 -0.55117404 0.05598782 -0.31482133 0.250913 0.006377152 0.044673756 -0.18558076 0.23062125 0.037499834 -0.29964972 0.4940019 -0.17400172 -0.08509803 0.4019526 -0.29173425 -0.10052833 0.16738562 -0.015272065 -0.11755447 -0.10879859 -0.14683327 -0.35078707 -0.01149301 0.22935392 0.053561028 -0.09420294 -0.16895963 -0.08759491
feel 0.12823279 -0.07485924 0.31138435 -0.067244075 0.102507606 -0.13848077 0.48509797 -0.24340186 0.11536418 0.039121628 0.14122276 -0.14615577 -0.04363276 -0.25718126 0.29477462 0.28488702 -0.45084766 0.13662776 -0.45835456 0.40622225 0.09325853 0.20158803 -0.18296333 -0.5853857 -0.32528365 -0.03801246 -0.20559463 0.06667803 0.3171491 -0.37373704 0.0961715 -0.10279443 -0.0245474 0.33669946 -0.08517327 0.11865864 -0.012665932 -0.4309481 -0.051386446 -0.06941045 -0.30080324 0.3699504 0.040623773 -0.22954367 0.095772795 0.25388002 0.10669299 -0.37507635 -0.13918763 0.30017695 0.20384505 0.13978462 -0.043522336 0.17469855 -0.20897685 0.19224027 0.70565677 -0.17113687 -0.22125944 0.0072471118 -0.14580004 -0.06019638 0.16921134 -0.40763482 0.22722837 0.04491706 0.14508735 0.13502559 -0.17695794 -0.25486648 0.00455589 -0.05860846 -0.5970834 -0.059022453 0.008499672 -0.28602383 0.018161157 -0.3080605 -0.35875326 0.2155535 0.027324265 -0.07959716 0.52590436 0.47318536 -0.037150625 0.49958798 -0.17217384 -0.35328326 0.13421974 0.015270158 -0.22686912 -0.25818875 0.2836615 -0.045555092 0.39106354 0.11816766 -0.021636149 -0.41055903 -0.32277775 -0.044988688 -0.28810337 0.13500436 -0.17182331 0.17273411 -0.06839227 0.1163418 -0.24378546 0.4119687 0.09007837 -0.34695587 0.22922312 -0.014238327 -0.096506126 0.53245836 -0.26648366 -0.26721612 0.088826984 -0.06735672 -0.026381548 0.019489838 -0.24541587 -0.31977838 -0.19600312 0.14677833 0.05356512 -0.09328299 0.1298399 -0.11880779
go 0.057663634 -0.2140547 0.11551961 0.06974532 0.34990147 -0.047366515 0.13613838 -0.35671058 -0.08135126 0.2950365 0.40558857 -0.077811055 -0.036229007 -0.31691715 0.2943219 0.42800462 -0.27765724 0.08497293 -0.2764723 0.23250756 -0.013800143 0.4064997 -0.125554 -0.5121864 -0.33129856 0.09513798 -0.042978425 0.22938983 0.06257346 -0.21850228 -0.2006399 -0.19100857 0.08346418 0.18985385 -0.28623125 0.15066941 0.17392042 -0.09351417 0.17238876 -0.030939367 -0.19408779 0.073552124 -0.06876458 -0.16250406 0.29046977 0.23087953 -0.2257622 -0.15918809 -0.087652355 0.2560055 0.21734856 0.30194587 -0.066835925 0.113069184 -0.27134004 0.11709748 0.53766996 -0.21137354 -0.24573183 0.058097616 -0.124504164 -0.13881546 0.27552083 -0.32268888 0.41521743 -0.15338399 -0.039390758 0.21737549 -0.06383302 -0.4074207 -0.028241888 -0.28833422 -0.4483291 -0.20592959 0.054773558 -0.21843535 -0.32958376 -0.25959432 -0.26972958 0.18428941 -0.0757669 0.08086657 0.2099586 0.48375556 -0.0749935 0.50583225 0.21749829 -0.44153506 -0.04786558 0.12079158 -0.24524617 -0.19660509 0.144326 -0.1311049 0.38051882 0.1946242 -0.21743998 -0.51849365 -0.057259534 -0.16309021 -0.5512588 0.13590586 -0.102406554 0.27170843 -0.0011743358 -0.043208055 -0.052180186 0.20988154 0.045622084 -0.33230886 0.2522597 -0.24809518 0.009138154 0.22296675 -0.4356274 -0.10511031 0.01792175 0.06646518 -0.08895886 0.058280524 -0.25259587 -0.29341486 0.111041784 0.085522495 -0.12776908 -0.040730603 -0.20958789 -0.11382312
know -0.09323095 0.045317072 0.029939245 0.27527612 0.48394823 0.10567139 0.20168671 0.11694629 0.09262652 0.28473872 0.16608524 -0.25879103 0.15877235 -0.18975665 0.19351077 0.15846837 -0.422398 0.6150695 -0.49530268 0.17984536 0.4146258 0.55543596 -0.22843485 -0.5835994 -0.20268022 0.11998749 -0.06145026 -0.10152151 0.5258164 -0.21027757 -0.0049998933 -0.18182355 0.16127503 0.2694998 -0.112030976 0.3189292 0.35823438 -0.30950484 0.15657443 0.072650805 -0.1676889 0.097925514 0.16361079 -0.0091936495 -0.2629502 0.27148038 -0.5947066 -0.13844687 -0.18949981 0.19331846 0.3021269 0.2581988 0.07799116 0.16826877 -0.2673761 0.26041904 0.5613345 0.32863533 -0.4625164 -0.12981191 -0.41545165 0.2915164 0.23679073 -0.37836528 0.89320785 0.18094069 0.12625563 -0.17176364 0.1190228 -0.3288336 -0.5150442 -0.035765994 -0.9014379 -0.13031533 0.19608912 -0.4614304 0.13248265 -0.106428035 -0.12619956 0.1991996 0.073364735 -0.07025125 0.30593908 0.21518193 0.18548982 0.2574965 0.24856004 -0.62989664 -0.040233593 0.20570636 -0.31349397 -0.16248877 0.43529975 -0.37931496 0.68759006 0.10804209 -0.010820291 -0.30139852 -0.30157104 -0.15597817 -0.47264704 0.10209731 -0.2900992 0.09539112 0.050859097 0.19164066 -0.3800909 0.45583537 0.22676045 -0.0058211526 0.0022193678 -0.24197617 -0.18138403 0.46935517 -0.21839929 -0.10825527 0.09868173 -0.042681757 0.36411196 0.2525624 -0.49978855 -0.6041583 -0.039357346 -0.29633433 0.0941422 0.055798624 0.057273608 0.13701618
want 0.15984008 0.12201455 0.30805302 0.26056215 0.29951823 0.03785379 0.49149874 -0.4161728 0.10023414 0.41148627 0.3797625 0.06426551 0.11982184 -0.31598303 0.01972719 0.30702442 -0.2794611 0.6442137 -0.787688 0.25095558 0.16123115 0.65295494 0.053418968 -0.50341254 -0.21398035 0.10900385 0.21222022 0.12981707 0.564816 -0.1172925 -0.2594132 -0.27047127 0.13207138 0.33240896 -0.45063838 0.24034216 0.2690131 -0.27023998 0.30750707 -0.13419394 -0.56127197 0.14687583 0.064295284 -0.09097028 -0.13160132 0.60650796 -0.2553677 -0.45934924 -0.38069558 0.4642121 0.29915068 0.2568046 -0.12637521 -0.0025834457 -0.34650946 0.4167712 0.957293 0.123065315 -0.39966172 -0.3199993 -0.3023477 -0.08362855 0.046269853 -0.82742643 0.92574 0.14277916 -0.23897517 0.039116785 0.0043336703 -0.49986225 -0.085925564 -0.03168452 -0.8271955 -0.09656843 0.32776058 -0.5871314 -0.20199227 -0.29544282 -0.25827917 0.16613764 0.04346 -0.018993123 0.59404373 0.49893278 -0.35430455 0.50835776 -0.073201604 -0.76497805 -0.0030545658 0.14446594 -0.3373184 -0.44468758 0.25547925 -0.1100808 1.0133522 0.33027053 -0.20986281 -0.8248486 -0.09683569 -0.20427625 -0.86706775 0.24305236 -0.5505312 0.32882497 0.0027112858 0.08445172 -0.14527643 0.17753722 0.07031409 -0.15438734 0.31032813 -0.29561368 -0.17254665 0.5717518 -0.2502572 -0.2651382 0.19700918 0.20170288 -0.08509206 0.12302097 -0.114080645 -0.50221056 -0.1554482 0.14275073 0.338145 0.0792732 -0.10173117 0.13773607
really 0.07984326 0.090203986 0.23584498 0.17873381 0.172123 0.016453106 0.4692033 -0.38408777 0.012282711 0.19173881 0.45067352 -0.004952487 0.035028763 -0.14042228 0.17519316 0.23371036 -0.34978524 0.4584156 -0.6176434 0.31124574 0.20175022 0.31251857 0.0014778918 -0.45585072 -0.23346186 0.052121464 -0.0058682016 -0.06174501 0.43218145 -0.2874821 -0.013266332 -0.100392535 0.19846775 0.45276323 -0.22671513 0.20066012 0.2756335 -0.24335971 0.15262203 -0.24487747 -0.36813125 0.17322055 -0.011930054 -0.06886091 -0.20031513 0.46815366 -0.1742002 -0.44309568 -0.25611636 0.34221518 0.36617157 0.29542884 -0.23515698 0.114738256 -0.48007235 0.19229625 0.60072654 0.07756092 -0.3080294 -0.22732577 -0.09555013 -0.12914635 0.15183282 -0.62715477 0.5845402 0.25737894 -0.08281844 0.20291266 -0.088111095 -0.4420804 -0.15765376 -0.11320456 -0.65876865 0.040675987 0.17013916 -0.5242978 -0.13250908 -0.5094764 -0.23637258 0.25388718 0.0043974924 -0.08305696 0.6138812 0.42360213 -0.14354911 0.48029608 -0.13685825 -0.6965377 0.05966301 0.064669326 -0.42317712 -0.33394262 0.2905626 0.061347824 0.7073555 0.14399952 -0.16124076 -0.58150953 -0.35574266 -0.010532393 -0.6679413 0.23045175 -0.41224322 0.111050315 -0.11732688 0.2038533 -0.1601086 0.287131 0.2177762 -0.2963499 0.38516384 -0.110092714 -0.21416941 0.58481187 -0.19429283 -0.23268183 0.24452205 0.112475835 -0.081752606 0.008963893 -0.13394614 -0.4196203 -0.18819277 0.18713024 0.091909476 -0.1314953 0.020348415 0.01666643
would 0.17065482 -0.16901472 0.17422606 0.12390569 0.2734579 0.09565087 0.2682203 -0.14056124 0.19503312 0.16256717 0.05358572 -0.14834273 -0.14484128 -0.20972228 0.1980327 0.30215025 -0.454812 0.1856698 -0.36102718 0.4059244 0.23034868 0.2211205 -0.2329563 -0.38540998 -0.44923633 0.03810457 -0.24912895 0.08736797 -0.00333446 -0.23864488 -0.020680003 -0.14143454 0.12578231 0.04772562 0.08533505 0.13207352 0.05665894 -0.29732588 -0.078106515 -0.022765223 -0.19888867 0.46936795 0.053232186 -0.23527205 0.101261854 0.21034877 -0.06115373 -0.07814447 -0.26930946 0.096241705 0.20035388 0.119977675 -0.03770692 0.28454813 -0.22268814 -0.15012327 0.37462074 -0.20442127 -0.26671332 0.06537091 -0.27468523 0.016405005 0.21059695 -0.17104994 0.37086865 0.15786938 0.021741344 0.10558419 -0.0028665694 -0.22669546 -0.117546916 0.06374845 -0.49932098 -0.21994564 -0.027124735 -0.25046644 -0.2299829 -0.2750777 -0.29912782 0.15747876 -0.013623142 -0.022308975 0.39404008 0.3970486 0.13987963 0.41350055 0.14625739 -0.3456429 0.16159265 -0.010348582 -0.26556242 -0.20443974 0.29025516 -0.17384775 0.30409163 0.18195093 -0.03963999 -0.47671485 -0.30902663 -0.12290927 -0.24182314 0.18693529 -0.31056297 0.19408898 -0.17479295 -0.1389175 0.028241841 0.39052057 0.0104407575 -0.34349722 0.34960836 -0.14917822 -0.015253036 0.21867228 -0.29800367 -0.22661036 0.2894228 -0.038615976 -0.12117863 -0.0063214595 -0.18245941 -0.2773796 -0.12912579 0.16410005 -0.16559304 -0.07484006 -0.10673554 0.010943634
try 0.20331573 -0.18808095 0.021595469 0.19057386 0.38477713 0.106321834 -0.14291187 -0.46977323 -0.039915964 0.35761294 0.1809221 -0.027760865 0.055001386 -0.45126897 0.1424438 0.65915203 -0.16744973 0.46707994 -0.21211375 0.50789946 -0.11445236 0.47064692 -0.05292803 -0.5011988 -0.23335066 0.121087514 -0.03895522 -0.0030941106 0.14887954 -0.31501514 -0.112990275 -0.117358826 0.15791611 0.20935586 -0.10036776 0.32137018 0.28658465 -0.23972623 0.21479933 0.082053885 -0.19529867 -0.013534619 -0.04019134 -0.24438792 0.2140973 0.22902368 -0.05489093 -0.20594957 -0.34666198 0.29732233 0.31730297 0.09155271 -0.09283683 0.17006049 -0.49410167 0.27696514 0.67233574 0.07168816 -0.2276558 -0.08058149 -0.18110135 -0.09189588 0.17620808 -0.25539297 0.5319745 -0.10791077 -0.019527454 0.05602152 -0.15309644 -0.37854114 -0.09816894 -0.22021315 -0.56577766 -0.24949166 0.19018087 -0.37544668 -0.25895816 -0.21861146 -0.24796177 0.30063665 -0.17733331 -0.18165965 0.51529086 0.29543516 -0.14863013 0.28753686 0.081648216 -0.2138145 0.015993211 0.24483426 -0.19595124 -0.32427996 -0.029299727 -0.19916168 0.5968201 0.040178943 -0.24573316 -0.67037755 -0.017552564 -0.08427922 -0.51694435 0.09712044 -0.46714061 0.27854574 0.009642879 0.09800469 -0.14956696 0.36532035 0.16460867 -0.15568155 0.2932424 -0.22662383 0.10339292 0.112319976 -0.34402946 -0.13258356 0.114444986 0.081837736 0.09051819 0.13974488 -0.24197812 -0.33081734 -0.14837776 0.19387439 -0.04665051 0.047326498 -0.08091506 -0.087674975
recovery 0.0130440965 -0.5722681 0.14347427 0.14648098 0.62378126 -0.08345356 -0.034110915 0.2605379 0.20539199 -0.41189364 -0.052822653 -0.17177814 -0.35396975 -0.4155104 0.6223952 0.13864368 -0.5360954 -0.15366216 -0.13672099 0.45425004 0.54048246 -0.19245446 -0.22156343 -0.38715687 -0.45786297 0.29152167 -0.5992985 0.36863747 -0.44531518 -0.4062492 0.37121028 0.044762276 -0.028556934 -0.100683264 0.28677806 0.12557206 0.27961585 -0.5180585 -0.3972773 0.12585463 0.12254884 0.68610567 -0.33990586 -0.2930079 0.36161137 -0.37879142 -0.24825504 0.2417911 -0.3720292 0.29417834 0.27181652 0.08287567 0.04324521 0.50728136 -0.44661418 -0.5277276 0.032366775 -0.65768033 -0.3760515 0.58987087 -0.26568666 0.24397615 0.3988768 0.21329029 -0.3423329 0.09426938 0.35931596 0.27740127 -0.2856472 0.0772108 0.104739085 -0.21188332 -0.3909519 -0.36672458 -0.22087896 0.056901142 -0.25340396 -0.18059522 -0.35368675 0.04191283 0.068873495 -0.20296213 0.1840994 0.5535108 0.57015586 0.5360409 0.7130434 -0.17414352 0.43653306 0.28639954 0.103006065 0.11286621 0.6109698 -0.1510566 -0.11186141 0.12270337 0.4484557 -0.16613042 -0.40490493 -0.101785466 -0.09377807 -0.20898545 0.067377895 -0.0062264563 0.12836649 -0.3956744 -0.08678447 0.018994872 0.14410056 -0.4685362 0.5878611 -0.15600058 0.41209897 -0.14648055 -0.30023187 0.38232487 0.2509115 -0.26485878 0.10313023 -0.46901357 -0.14545497 -0.4926617 0.17618878 0.13898395 -0.6398505 -0.15529323 -0.5121611 -0.15765026
weight 0.09809809 -0.40965205 -0.2651628 0.5241605 0.38934618 0.37184677 0.039656285 -0.022034992 -0.78671163 0.35191673 0.07390381 -0.22048572 0.15621462 -0.7883057 0.21021879 0.4212536 -0.20366827 0.91497105 -0.9338663 0.34383482 0.22400182 0.32616007 -0.20919026 -0.50566113 -0.17270257 0.43700796 -0.09453362 -0.17959145 0.8113752 -0.3977226 -0.86760086 0.2809095 0.10575645 0.46339875 -0.546737 1.0343988 0.50312024 0.02509731 0.423732 0.15656325 0.06621776 -0.26804182 0.31193417 0.13644624 0.07648436 0.0016049128 -0.34568638 -0.28463537 -0.25678784 -0.040804815 0.602347 -0.1917224 0.0747774 0.24493933 -0.2304345 0.39788413 0.5710055 0.64976037 -0.52699673 -0.46582586 -0.07356745 0.5249222 0.15528204 -0.2866594 1.2958056 -0.10526463 0.15551256 -0.115359254 0.00036007835 -0.8204088 -0.17213905 -0.03994503 -0.94308835 -0.35192192 0.5086138 -0.48206142 0.10455894 -0.23483992 0.09919524 0.9720429 -0.48601687 -0.64463663 0.7225802 -0.023408627 0.2956383 0.04084998 -0.05692973 -0.11053979 -0.086662754 0.2685393 0.16692661 -0.4229407 -0.057485048 0.3221214 0.96603274 0.14445503 -0.5402183 -0.6672638 -0.2395444 -0.119316705 -0.3948166 -0.23614863 -0.636046 0.3323252 0.48687804 -0.040801544 -0.26479188 0.2599798 0.68154633 0.28433666 0.04370911 -0.27212152 0.5664438 0.6175967 -0.12646393 -0.09823789 -0.07448377 0.32847926 1.1497384 0.18159911 -0.18395922 -0.66643304 -0.67772484 0.17986286 0.33255652 0.19218345 0.17897429 0.5786843
day 0.0520812 -0.7072462 0.16592793 0.03556821 0.5102019 0.369439 -0.20171264 -0.46110702 -0.5244648 -0.22867654 0.2470278 -0.56280005 -0.756576 -0.41385826 0.43673742 0.5635696 -0.45614573 -0.24691765 -0.12901641 0.3536421 0.35715535 -0.53798336 -0.28078648 -0.83691627 -0.60688764 0.25427425 -0.7671198 -0.23400123 -0.6672847 -0.6209398 -0.19081616 0.3947052 -0.004660001 0.081110254 0.16762105 0.43977416 0.47123656 -0.030744463 -0.107553154 0.2699036 0.16589586 0.18206792 -0.6893351 0.06752101 0.9528266 -0.5878386 0.04265716 0.06989483 -0.29078573 -0.08023561 0.5336364 0.2227186 -0.43204674 0.62386817 -0.60205 -0.25408116 -0.19125156 -0.8708706 -0.4437212 0.51349515 0.51480335 0.026456935 0.7360681 0.26979387 -0.18075153 -0.7398468 0.31453773 0.48767316 -0.18863955 -0.39195326 0.016300112 -0.60248333 -0.33722377 -0.5886547 0.15299541 0.21778655 -0.26838663 -0.38860714 -0.23557521 0.36510402 -0.27097273 -0.30989102 0.5275074 -0.013812282 0.4285068 0.23985459 0.44361895 0.3234969 0.11533526 0.5774851 -0.16496617 -0.28702846 -0.17498311 0.09137972 0.014393596 -0.1344261 -0.33472306 -0.5138797 -0.35490957 0.20467584 0.05408852 -0.04905501 0.008739286 0.12932743 0.2407714 -0.27388757 -0.27616522 0.16961248 0.5232726 -0.56788653 0.19278087 -0.33597836 0.55614436 -0.06638116 -0.3265712 0.41567454 0.2607541 0.033580933 0.6059904 -0.13827313 -0.28033674 -0.29577923 -0.2599908 0.4915849 -0.47541356 -0.34839892 -0.53095746 0.25606143
time -0.1007308 -0.4741163 -0.14458252 0.32447514 0.2535034 0.07589444 -0.26454327 -0.32266286 -0.5028117 -0.12233633 0.36102676 -0.24212334 -0.3655128 -0.4396359 0.52275735 0.63996136 -0.27444345 0.2035798 0.034139793 0.31497547 0.1463293 -0.01969446 -0.071355104 -0.535109 -0.20296451 0.2429441 -0.30560258 -0.24711135 -0.21726786 -0.57964283 -0.06246121 0.13583183 0.28395608 0.25086084 0.016278792 0.54467964 0.6008642 -0.116481856 0.048478335 0.043124575 0.18659109 -0.16457021 -0.4827081 0.009084155 0.50596917 -0.20600517 -0.110640585 -0.050046902 -0.28278714 0.08559078 0.57841814 0.15073662 -0.3894497 0.2528685 -0.79080486 -0.012415634 0.014732448 -0.27251044 -0.14399056 0.1856124 0.20255901 0.10221481 0.39178464 0.09516655 0.2746098 -0.33907363 0.22540344 0.32194242 -0.39129 -0.45009357 -0.13512182 -0.47452652 -0.5194787 -0.34211546 0.2233099 -0.18892969 -0.24425748 -0.51536036 -0.181507 0.39372686 -0.39546654 -0.3982302 0.5419101 0.14223775 0.3110273 0.19131756 0.36534405 -0.045658 0.017538242 0.3310585 -0.20353669 -0.19830295 -0.020570243 0.16141532 0.46179563 -0.017398052 -0.3800282 -0.38753825 -0.32440442 0.2770878 -0.30775806 -0.056587134 -0.21113992 0.11265155 0.113979846 0.14334987 -0.21518286 0.22978567 0.43334118 -0.33335936 0.35727912 -0.31138465 0.25528914 0.15135957 -0.33033708 0.34080267 0.0950798 0.084553085 0.41939008 -0.13482821 -0.3072653 -0.27467197 -0.36186957 0.31412733 -0.48426124 -0.3187059 -0.24641861 0.11219229
body 0.36644945 -0.008344639 0.25342563 0.16829164 0.28546184 -0.05202996 0.44044927 -0.4487797 0.17753148 0.34870523 0.18319704 0.10862905 0.25845766 -0.41480884 0.19670722 0.4158213 -0.32239303 0.41988906 -0.86638415 0.40253046 0.13588843 0.597145 -0.059255715 -0.39003992 -0.17081948 0.018221892 0.0051442254 0.159949 0.7843505 -0.20334554 -0.29970443 -0.2553771 0.025088314 0.45149976 -0.3567423 0.28776047 0.2292214 -0.22641122 0.30664366 0.0055088107 -0.42061433 0.16050087 0.074868925 -0.24281739 -0.028294781 0.4392279 0.07400903 -0.5873099 -0.37104544 0.24390715 0.38630274 0.1428419 0.018303188 0.016144007 -0.296402 0.44907376 1.0212218 0.049861375 -0.39684215 -0.38200197 -0.41678888 0.10187824 0.003941397 -0.52715546 0.7053651 0.051037144 0.05582369 -0.07245908 0.013584597 -0.37869605 -0.12978974 0.01851257 -0.7387715 0.05318391 0.26508746 -0.3893708 -0.12225817 -0.2652952 -0.16003379 0.22429799 -0.05488417 -0.019801665 0.61671853 0.34839416 -0.2110281 0.46582898 -0.16095558 -0.7157456 0.04214502 -0.0021229282 -0.21372747 -0.31799 0.44030067 -0.035479482 0.7630294 0.23792623 -0.21645509 -0.80728257 0.052932803 -0.20625077 -0.5874445 0.18578373 -0.35461482 0.14497057 -0.008300707 0.09520007 -0.30761287 0.52594763 0.17186251 -0.09135702 0.15327558 -0.28650692 -0.17679705 0.4907674 -0.0014201964 -0.2566012 0.13452116 0.05414704 0.16480614 0.29604572 -0.21725902 -0.2924587 -0.41957337 0.062724344 0.37793142 0.022167766 -0.017947825 0.031697266
disorder -0.038636133 -0.80906266 0.09277405 0.39411107 0.7155491 -0.09022106 -0.2914268 0.49495798 0.46570706 -0.6643993 -0.2629105 -0.3755778 -0.5122532 -0.19724643 0.8160243 0.36585686 -0.62511855 0.2821633 0.17211278 0.6533005 0.89128774 0.093828425 -0.34114608 -0.4651613 -0.33807042 0.22194472 -0.80465776 0.6934963 -0.8538888 -0.60761213 0.54343665 -0.19178158 0.22594623 -0.30521008 0.6886144 0.13237707 0.5129602 -0.7231285 -0.5245779 0.024338568 0.4941783 0.7258537 -0.42458484 -0.5645583 0.64171386 -0.45632172 -0.53103983 0.419862 -0.6955556 0.6072546 0.7659011 -0.15985286 0.117578685 0.44377378 -0.8317504 -0.6480795 0.105785504 -0.51744777 -0.60056823 0.79851264 -0.603759 0.24592456 0.47436953 0.4768573 -0.4438622 0.3918106 0.30081445 0.05367496 -0.5943249 0.16068241 -0.119887844 -0.074171565 -0.7735868 -0.5309368 -0.27953687 -0.10229508 -0.39980167 -0.28964317 -0.5470125 -0.24863665 0.09062268 -0.060259584 0.37199107 0.59637517 1.0071158 0.657017 1.3782103 0.025790492 0.6219678 0.5649904 0.013250623 -0.09405301 0.52614784 -0.13935585 0.04358229 0.3073749 0.7105394 -0.11366376 -0.7368309 0.00090770406 0.15712552 -0.37111804 -0.22103406 0.14507161 0.20918575 -0.47012973 0.30528727 -0.37549877 -0.009850312 -0.45810726 0.9704734 -0.031468082 0.48722896 -0.41280565 -0.47304586 0.49158552 0.18585785 -0.26156843 0.008008289 -0.7308491 -0.542848 -0.65150535 0.37482578 0.09796986 -0.80129695 0.12171763 -0.90162426 -0.14956886
year 0.0873958 -0.6845297 -0.2363024 0.37152267 0.3457899 -0.10600257 -0.25723976 0.11456271 -0.5183301 -0.3785916 0.24321939 -0.16925561 -0.35226572 -0.5519366 0.7840056 0.5151235 -0.34177825 0.08817524 0.32900748 0.5306185 0.29201612 -0.14668673 -0.0874256 -0.22399448 -0.19758476 0.49605712 -0.5639082 0.11468528 -0.5869252 -0.45525917 0.16579871 0.24942079 0.43801537 0.12503727 0.13554388 0.38359603 0.57234985 -0.29847047 -0.099979006 -0.016871199 0.35588297 0.13301389 -0.5428509 -0.10577578 0.50868833 -0.349046 -0.30661702 0.36508536 -0.16187568 0.22180617 0.582316 0.14092356 -0.3064485 0.3580404 -0.71896684 -0.4702847 -0.03541709 -0.40353748 -0.08904216 0.27520797 -0.025770778 0.033534158 0.39702117 0.19936742 -0.13577393 -0.15860648 0.5474158 0.32218105 -0.47312477 -0.3208437 0.030784681 -0.38541317 -0.39062083 -0.29424998 -0.24506986 -0.09574481 -0.48974732 -0.470004 -0.34003818 0.3339409 -0.3561404 -0.49451098 0.48652753 0.42211464 0.69485563 0.38026935 0.6015111 0.020185538 0.1750899 0.3582215 -0.008719098 0.18060431 0.084406935 0.2632472 0.041195728 0.0744962 -0.06912093 -0.043796733 -0.37540278 0.2352368 -0.2306988 -0.13467531 -0.17120937 0.29299137 0.25638723 -0.091591515 -0.002323361 0.19445626 0.20688221 -0.3691531 0.57199883 -0.05443346 0.35208988 0.020179708 -0.52832 0.571857 0.23989168 0.022911265 0.13985151 -0.6102792 -0.23072524 -0.44877467 0.05268379 0.2503994 -0.9721221 -0.17109478 -0.42592868 -0.119402856
food 0.12897703 -0.48438257 -0.021062365 0.1330581 0.24720041 -0.051036723 0.29637673 -0.20140666 -0.3367158 0.22514133 0.24272841 -0.14236666 0.011792027 -0.3621219 0.40842414 0.41901982 -0.21172228 0.13701186 -0.2756856 0.33484533 0.07992067 0.25946033 -0.35704753 -0.31163034 -0.22247548 0.1641936 -0.23544881 0.13331203 0.099415794 -0.12551673 -0.33217385 0.10921471 0.2103408 0.17521062 -0.36171713 0.24740091 0.014388307 -0.20569551 0.01783056 -0.028788231 -0.18912229 0.0825434 -0.0745422 -0.14488767 0.36509848 0.058909047 0.0022413866 -0.09743798 -0.12576708 0.311793 0.2796328 0.18728901 -0.024870507 -0.011480199 -0.35826647 0.10616437 0.4352351 -0.12976629 -0.1728269 0.011180291 -0.16082317 -0.06093525 0.22191094 -0.19927901 0.3023052 -0.074623026 0.047257032 -0.006963964 0.018688004 -0.44313654 -0.10178996 -0.29632917 -0.33784443 -0.18383849 0.22219269 -0.11378029 -0.19392744 -0.18785457 -0.31927723 0.25654778 -0.42273107 -0.14102577 0.36165008 0.25667343 0.13848184 0.43942627 0.17987359 -0.4943376 0.08742245 0.07565495 -0.026532007 -0.26945952 -0.100943305 0.18112612 0.32755905 0.3000054 -0.14598893 -0.5939496 0.0010657788 -0.14836381 -0.36342004 -0.0173024 -0.012532524 0.36955395 0.12629889 0.06032131 -0.15108413 0.20347454 0.1352104 -0.37503487 0.16138597 -0.3157084 0.074147515 0.1990223 -0.30552018 -0.050588276 -0.1082872 -0.089664064 0.15410711 0.06638013 -0.22583622 -0.251486 -0.048937388 0.22543934 -0.22321242 0.14179046 -0.3572956 0.07394987
help 0.2790986 0.09224187 0.2711145 0.18093051 0.38878745 -0.05879355 0.20732431 -0.20402877 0.3960793 0.40330282 -0.03061132 -0.1382612 0.026492545 -0.24560754 0.08244935 0.26276556 -0.37613425 0.49491903 -0.57378197 0.453899 0.18951087 0.5574135 -0.20434166 -0.5210212 -0.30451655 0.046930548 -0.09000748 0.13130596 0.49075505 -0.28754655 0.067001656 -0.24476561 -0.0007062578 0.1589224 0.058244985 0.16220659 0.105078496 -0.3046413 -0.04460033 0.12178716 -0.28640696 0.3460283 0.20531178 -0.28536984 -0.050017096 0.37570688 -0.1396962 -0.29903796 -0.3679992 0.062138464 0.24027139 0.10294706 0.10691108 0.15125574 -0.2040858 0.16760835 0.84428686 0.07688697 -0.5380797 -0.120822005 -0.4620075 0.022075402 0.14141007 -0.33243796 0.73570853 0.16216108 0.007854686 -0.13285756 -0.019722274 -0.24347444 -0.1668997 0.11806175 -0.7614253 -0.17226307 0.11199782 -0.46782684 -0.084616944 -0.26413488 -0.13745673 0.1709569 0.16078344 0.031329006 0.39306432 0.32338017 -0.12686124 0.42730364 0.10277564 -0.5778713 0.07691705 0.09084411 -0.4095394 -0.24157119 0.5158939 -0.3716769 0.6650576 0.19234747 0.07348482 -0.60112923 -0.26858774 -0.25277436 -0.43307078 0.08586378 -0.37845996 0.026719814 -0.14359476 0.09878531 -0.12520207 0.51518244 0.042464145 0.00948374 0.17813864 -0.19327052 -0.13643065 0.26454437 -0.2394256 -0.1784103 0.2961417 -0.012697878 0.026218025 0.35850614 -0.32278764 -0.49170664 -0.17316037 0.033046946 0.021905852 0.020894226 0.045262918 -0.10804754
think 0.15105581 -0.10080339 0.0045805573 0.35887226 0.25421616 0.041765537 0.19095524 -0.43359292 -0.108519 0.4296594 0.2805086 -0.045021787 -0.039415505 -0.31851077 0.12458877 0.4345288 -0.16914855 0.78403777 -0.4712032 0.4763367 0.01644895 0.45842502 -0.020748774 -0.3312103 -0.19500344 0.037981685 -0.17256396 -0.15671682 0.24290973 -0.27691647 -0.22941758 -0.056761518 0.2689872 0.47199634 -0.20808421 0.5461751 0.523036 -0.2043521 0.29166895 0.0179057 -0.12082067 0.025811581 -0.088575326 -0.018009871 -0.0351286 0.2060245 -0.019667549 -0.3726335 -0.2963525 0.24778156 0.45084 -0.11750523 -0.26929095 -0.12153498 -0.4240373 0.17011997 0.56238914 0.11072483 -0.20778972 -0.10820145 -0.27325538 -0.037455145 0.13535427 -0.28890282 0.68562436 0.02972512 -0.041248098 -0.028364094 -0.15895501 -0.6470138 -0.13538586 -0.0065965145 -0.64836824 -0.11755515 0.31853715 -0.37881887 -0.18324779 -0.36995488 -0.29359192 0.31227383 -0.3324684 -0.21199085 0.5263114 0.3971032 0.14938343 0.23744178 0.13647369 -0.46242127 0.17855878 0.073393755 -0.40342823 -0.30107757 0.025421003 0.010127242 0.74453264 0.10492661 -0.3322784 -0.5271896 -0.14909515 0.06391911 -0.4863058 0.17068414 -0.64611006 0.074318096 -0.1371551 0.32972494 -0.04121095 0.3857288 0.25314802 -0.056843136 0.15153354 -0.39037824 -0.16097273 0.4188713 -0.2686791 -0.07239411 -0.06363397 0.03110725 0.28637958 0.08934178 -0.28226107 -0.29473203 -0.36258474 0.18958576 -0.02875604 -0.00022624366 -0.22951297 0.113904335
even -0.12680137 -0.116360486 -0.16189392 0.20336999 0.47218484 0.34414005 0.24584045 -0.17579667 -0.31251743 0.3755296 0.2691259 -0.1982135 0.11207589 -0.5526023 0.16391736 0.32157227 -0.2812523 0.23675022 -0.3859034 0.33363834 0.19484949 0.13707331 -0.16569419 -0.5923157 -0.22073182 0.37024134 -0.01630943 -0.20508337 0.31378004 -0.34536213 -0.10646492 0.22267835 0.32908398 0.31867266 -0.22428907 0.3048034 0.32148468 -0.29931012 0.026053017 0.111265324 -0.21741208 0.034738854 0.20782392 0.022369433 0.21447359 0.13242927 -0.34930193 0.029366963 -0.053305574 -0.015395016 0.280123 0.256128 -0.14404342 0.42512038 -0.38699695 0.24016038 0.42936546 0.30519935 -0.1907843 -0.3255476 -0.24949713 0.23244862 0.12727156 -0.27090386 0.86858284 -0.013237183 0.23916274 -0.03537921 0.097019486 -0.5865693 -0.4714087 -0.20210312 -0.576766 -0.3159463 0.21301106 -0.42436576 0.021724073 -0.2565816 -0.14262724 0.68208945 -0.26100752 -0.45067862 0.43147868 0.12367044 0.07837242 -0.0035846455 0.018472524 -0.3121771 -0.21015541 0.1965336 -0.17522568 -0.2842634 0.05619848 -0.18329696 0.55825037 0.06895889 -0.069895096 -0.36948958 -0.20971479 -0.018196836 -0.2881877 0.021605585 -0.19793253 0.30592722 0.10763662 0.29515997 -0.29763255 0.27889684 0.3607378 -0.18794565 0.009586346 -0.37375084 -0.121208236 0.48490357 -0.2502889 -0.041326016 0.2452414 0.037233494 0.47675037 0.16557673 -0.3753532 -0.6336409 -0.21951865 -0.1637571 -0.22163694 -0.20781234 0.016229283 0.042716045
back 0.089524195 -0.18766865 -0.04485064 0.08209591 0.38263837 -0.09251051 0.15479314 -0.5055518 -0.4699354 0.187037 0.673073 0.10519211 0.053049404 -0.4309648 0.36781344 0.60161924 -0.15376201 0.09752648 -0.18147746 0.44136694 -0.028401326 0.33994448 0.08695703 -0.320026 -0.14935623 0.32651532 0.10015308 0.1828008 0.28705502 -0.232335 -0.21198845 -0.020449849 0.2365971 0.39733234 -0.43116346 0.27965513 0.4251042 0.03666224 0.22977658 -0.0947743 -0.11207265 -0.2026653 -0.16675586 0.012205679 0.22727321 0.3151724 -0.17249951 -0.15661448 0.081384555 0.36495978 0.2928889 0.40535435 -0.26217848 0.13411833 -0.41249526 0.28492245 0.65566117 -0.09250765 -0.08433154 -0.29261896 -0.05784492 -0.094905846 0.2811584 -0.51585233 0.4514461 -0.31077513 0.12510173 0.20906356 -0.021124315 -0.53612524 -0.13796814 -0.43232787 -0.48715076 0.002003632 0.039041553 -0.250375 -0.29390985 -0.35025188 -0.35027036 0.43130618 -0.26891226 -0.20486675 0.37417558 0.4573267 -0.07475646 0.38666567 0.053114418 -0.4995195 -0.11531897 0.21115427 -0.21599577 -0.31396905 -0.10638769 0.07438408 0.3099277 0.004359847 -0.41263834 -0.40668955 0.0083096735 0.093949184 -0.74437267 0.24019985 -0.19178313 0.3568734 0.15925492 0.1705868 -0.24016775 0.2145164 0.19468696 -0.33199817 0.33181483 -0.28953233 -0.07876053 0.3331855 -0.4421956 0.055224847 0.1288956 0.11196397 -0.072778456 -0.046142064 -0.28047952 -0.2795422 0.02439029 0.07687165 -0.25786304 -0.17273788 -0.2689811 -0.16990495
need 0.17008397 -0.09463289 0.31807035 0.15073265 0.26616254 -0.033783764 0.34372157 -0.0680692 0.18925866 0.3870407 0.1464453 -0.23822035 0.06517367 -0.19319105 0.12284547 0.22064884 -0.41532725 0.60755473 -0.5251468 0.3128185 0.2731 0.34882158 -0.3165018 -0.46753594 -0.34179464 -0.06982711 -0.084570065 -0.11256892 0.474917 -0.17391805 -0.10949534 -0.09183762 0.1688123 0.25637445 -0.09729065 0.4067661 0.3435336 -0.21017265 0.107318014 0.11616163 -0.19055074 0.30402017 0.12082157 -0.055154588 -0.034669016 0.18833667 -0.22291037 -0.33379933 -0.14575976 0.04126752 0.2213928 -0.051801763 -0.077908665 -0.001016326 -0.10202562 0.24668041 0.6783066 0.047850803 -0.492828 -0.18099812 -0.33593908 0.07761949 0.13431908 -0.4121456 0.76519066 0.026285287 -0.029678693 -0.21734981 0.07737191 -0.34008926 -0.10848488 0.02663055 -0.7177904 -0.14553735 0.26320955 -0.37862685 0.07126829 -0.17099313 -0.17433935 0.20945145 -0.1095446 -0.16586117 0.43604663 0.26443893 0.14838368 0.4246135 0.06316834 -0.61009 0.071099535 0.1619769 -0.3595918 -0.2448621 0.12847905 -0.12347529 0.6556456 0.19797692 -0.22016294 -0.5480834 -0.19219376 -0.12224948 -0.43262628 0.23578335 -0.44716555 0.010120297 -0.089337446 0.1969275 -0.21922638 0.46608236 0.0878161 0.051990006 -0.05724198 -0.34519997 -0.08561994 0.42064863 -0.11736289 -0.15274976 0.020850763 0.034036186 0.2862675 0.29096004 -0.3013467 -0.445591 -0.33368894 0.054127064 0.16627608 0.04951402 -0.039916772 0.22753389
start 0.09432545 -0.30083713 -0.054788068 0.2619494 0.36155155 -0.095492795 0.08631913 0.0548418 -0.26226297 -0.013014012 0.31134918 -0.10736587 -0.1864909 -0.30901462 0.36779937 0.30938333 -0.29155332 -0.031077426 -0.039468702 0.33181757 0.15679374 0.012855344 -0.17884977 -0.16890068 -0.25933382 0.20938659 -0.2827762 0.08820962 -0.1558816 -0.21652207 -0.09285779 0.13583353 0.05344846 0.212462 -0.028017478 0.31455484 0.34056175 -0.047210198 -0.03192664 0.03686116 0.07808296 0.25557688 -0.3267038 0.019519335 0.15868877 -0.058618087 -0.19589974 0.1651074 0.06348959 0.12845515 0.2590403 0.30643755 -0.12431746 0.33997107 -0.17363593 -0.16992696 0.2029491 -0.27752465 -0.18432921 0.20184581 -0.09525032 0.07823014 0.38398167 -0.14913982 0.05743978 -0.11028222 0.3491155 0.23784697 -0.12432483 -0.19706666 -0.09112419 -0.2670325 -0.3174594 -0.17609651 -0.13830063 -0.10467005 -0.297463 -0.24899636 -0.31015283 0.27301604 -0.1875965 -0.26212338 0.2423587 0.5067758 0.23040967 0.46640477 0.23044796 -0.2717102 0.10523469 0.15513277 -0.0764835 0.044756435 0.27729902 -0.02258885 0.008466003 0.017196845 -0.2106734 -0.15570168 -0.20562813 0.04482556 -0.29764724 0.08122641 -0.14540802 0.24162814 0.1794856 -0.1479245 -0.16497448 0.32663667 0.2318967 -0.3693608 0.42985064 -0.14344437 0.20725256 0.20940788 -0.32568228 0.17629021 0.1719776 -0.01078201 0.018078882 -0.17782964 -0.15626855 -0.18391442 0.11682279 0.16515195 -0.35908735 -0.17357755 -0.21140495 -0.1318896
make 0.15754938 -0.19623588 0.052915372 0.11819134 0.20848803 0.021944642 0.25383908 0.05700769 -0.23530373 0.2908477 0.08092949 -0.13860533 -0.018446434 -0.40431508 0.1612403 0.28710005 -0.33063692 0.21795113 -0.5522456 0.46559426 0.23485245 0.052738048 -0.24638885 -0.41094068 -0.44675124 0.17252088 -0.2489424 0.08926596 0.34536898 -0.2540141 -0.19229086 0.119952686 -0.009819699 0.18709633 -0.059868507 0.40191302 0.2439473 -0.095755786 -0.08909678 0.10496944 0.013650065 0.27092433 0.047324035 -0.072350346 0.3329419 0.122511216 -0.030005181 -0.10431265 -0.2249468 -0.09402088 0.2974483 0.114235565 -2.9707091e-05 0.2784743 -0.048810385 0.06334289 0.37932986 -0.058089167 -0.3584275 -0.058784362 -0.17142725 0.31724676 0.29742423 -0.13298316 0.47540343 -0.10309228 0.27550793 -0.15208897 0.1496627 -0.21728078 -0.1717536 -0.025286688 -0.48501992 -0.18404573 0.03241457 -0.065270014 0.067423716 -0.09397911 -0.117290884 0.4449854 -0.10854506 -0.13790147 0.4144765 0.18393052 0.22763886 0.27807766 0.03707849 -0.26928672 0.058705267 0.11715288 -0.11744547 -0.24104339 0.25026956 -0.049297724 0.22564355 -0.035811916 -0.03570085 -0.46331048 -0.22421852 -0.03429983 -0.23422913 -0.018735612 -0.193503 0.15632932 -0.059810285 -0.075346984 -0.28589693 0.34126425 0.36206922 -0.12766762 0.00643008 -0.20175964 0.15051278 0.43215138 -0.051336333 -0.06352842 0.036454044 -0.12217621 0.3963219 0.15133452 -0.28092152 -0.26502085 -0.4354103 0.11086476 -0.11783867 -0.011261241 -0.071283646 0.06709777
recover -0.062267497 -0.16618952 -0.12498542 0.3994002 0.16264834 0.03891208 -0.07344815 -0.0031580164 -0.38418272 0.020372842 0.15580703 -0.0012675538 0.07142563 -0.2940873 0.3009408 0.24839191 -0.16318376 0.5213384 -0.26751384 0.32522497 0.30420628 0.29468083 0.006072211 -0.40797272 -0.033381175 0.37272924 -0.20470342 -0.13531269 0.28343117 -0.40311763 0.07118648 0.14520396 0.44216567 0.25652605 -0.010091909 0.47513187 0.537273 -0.29809847 0.0889189 0.074254416 -0.003954194 -0.12279288 -0.0228563 -0.021243345 -0.11277065 0.10345381 -0.4916711 0.042351276 -0.31432563 0.097507216 0.38921362 0.025989005 -0.06632874 0.0820171 -0.43895194 0.11258854 0.14224842 0.32486588 -0.11461232 -0.19598436 -0.22179876 0.16013652 0.14382339 -0.07206443 0.7162947 0.15022293 0.23228122 0.029237054 -0.18555509 -0.5254996 -0.26204738 -0.15526937 -0.6392073 -0.20291542 0.19724146 -0.52322155 0.021228077 -0.32057452 -0.18998533 0.39488962 -0.26322168 -0.32580766 0.46561876 0.2173166 0.30046883 0.19625843 0.32023928 -0.29719293 0.018870229 0.14537819 -0.14529689 -0.04315792 0.23280092 0.054150097 0.6417157 0.07524508 -0.013810238 -0.20212586 -0.3143525 0.117750034 -0.55183494 -0.17523268 -0.3913508 0.13896805 0.07295457 0.2444852 -0.24413584 0.32644004 0.4378908 -0.0067669107 0.28129205 -0.092067204 0.0012438359 0.38503352 -0.33060402 0.21746832 0.056322232 0.11691507 0.36515668 -0.038951103 -0.3924021 -0.4722997 -0.1487011 -0.03986878 -0.38508007 -0.02323448 -0.00024311512 0.095670275
much 0.08921541 -0.16914193 0.085619435 0.23603506 0.1904005 -0.098351166 0.15615396 -0.31309336 -0.022757431 0.17657964 0.31036735 0.12349642 -0.050141446 -0.361617 0.30698705 0.37732214 -0.2530915 0.46355996 -0.37916765 0.4125173 0.070503205 0.4962071 -0.04243679 -0.35002238 -0.19169809 0.060709294 -0.084029265 0.08035645 0.16982338 -0.06406841 -0.13320711 -0.16904074 0.1459615 0.42768925 -0.28718457 0.38559723 0.45567426 -0.24913947 0.22212446 0.023521835 -0.23408122 -0.07707183 -0.12435215 -0.052427698 0.07390593 0.276895 -0.20448339 -0.341941 -0.34612396 0.29094797 0.3708579 0.15219106 -0.12288547 -0.16633105 -0.45922914 0.16108766 0.6219164 -0.03890859 -0.19689861 -0.06833024 -0.27023804 0.056083005 0.017238166 -0.46768346 0.51699036 0.02033977 -0.037101954 -0.1413312 -0.23966071 -0.43657392 -0.17506517 -0.14620899 -0.5969641 -0.13656934 0.22734316 -0.29678965 -0.28069472 -0.36109003 -0.35707337 0.2111001 -0.22251582 -0.17118916 0.43400487 0.5370812 -0.03742455 0.4827818 0.24398631 -0.48417467 -0.013319083 0.1652019 -0.16679025 -0.27457434 0.07425428 0.07770409 0.7305523 0.24460143 -0.24683328 -0.5333751 -0.050151978 -0.056836136 -0.5217139 0.16482596 -0.35657266 0.1956134 -0.03295673 0.12005899 -0.0871294 0.16218327 0.061506364 -0.09798529 0.23388058 -0.23584719 0.019672034 0.28515777 -0.26942924 0.008644511 -0.04310254 0.10130726 0.06049842 -0.05066248 -0.1681139 -0.27450135 -0.16339901 0.12831374 -0.011350873 0.042292733 -0.2467124 0.01743224
binge -0.00066216395 -0.67458147 -0.085609525 0.26246604 0.5329286 0.18167628 -0.24622366 -0.04271811 -0.10466715 -0.42411736 -0.04573266 -0.39056006 -0.41087994 -0.31874648 0.53887266 0.5087428 -0.3965494 0.26961976 -0.017869987 0.47567716 0.57474655 0.0031065566 -0.15810531 -0.36500424 -0.14175579 0.36091447 -0.60518605 0.37099382 -0.6500381 -0.56721365 0.027131584 -0.06321897 0.23641774 -0.15420955 0.22074644 0.3161746 0.37633452 -0.30768788 -0.16194515 -0.09529172 0.30519602 0.16750985 -0.35745856 -0.28779265 0.7550834 -0.3018003 -0.18223417 0.16871549 -0.6358672 0.6075319 0.74819875 0.07238002 -0.092022866 0.34881347 -0.85418373 -0.28661987 -0.009743961 -0.37662157 -0.4649267 0.45725897 -0.1357232 0.12692286 0.4739417 0.34077895 -0.20342828 0.052602954 0.13666584 0.12624489 -0.34724125 -0.19109231 -0.12003816 -0.10263616 -0.5936891 -0.49821857 0.07165885 -0.004093316 -0.39471266 -0.3974137 -0.3355478 0.030165868 -0.14164352 -0.115117155 0.52396756 0.2614838 0.6555678 0.25472146 0.84304214 0.2980124 0.37888214 0.44731322 0.071929954 -0.41471085 -0.09644313 0.11193098 0.30386707 0.2428212 0.22383328 -0.43021545 -0.51875335 0.1387751 0.18806618 -0.28767532 -0.3558862 0.2721097 0.23366283 -0.34882486 0.2191414 -0.4271624 0.21367657 -0.42487592 0.76728463 -0.09432145 0.48117167 -0.14503248 -0.41390544 0.3212682 0.046237625 -0.14674662 0.2791786 -0.5097648 -0.27788863 -0.379353 0.053773705 0.24005379 -0.42827255 0.10649472 -0.74508953 -0.0038959768
ed -0.045415748 -0.15714465 -0.20304789 0.3165478 0.31400254 0.098251246 0.006983398 -0.05545275 -0.30420735 0.10405845 0.41727093 -0.15492296 0.0076615997 -0.27704483 0.36033422 0.46069798 -0.13238432 0.22924687 -0.24986723 0.33140153 0.25192815 0.17054847 -0.074529566 -0.37293246 -0.0344649 0.12894326 -0.21700609 -0.08998179 0.15610012 -0.5006438 -0.007866869 0.025920823 0.4058623 0.30450678 -0.025733488 0.3489105 0.51768774 -0.23675855 0.10008965 0.0146355145 0.015678056 -0.11508368 -0.25409046 -0.13129461 0.06139734 -0.04026383 -0.32304403 -0.01810483 -0.03418148 0.23373647 0.41312563 0.20690645 -0.2690866 0.12884599 -0.3809121 0.095916994 0.337037 -0.01447099 -0.2908086 -0.100887 -0.22336262 0.129073 0.20598307 -0.059258882 0.46344933 -0.010977944 0.29326737 0.116351075 -0.14260991 -0.35766283 -0.40563008 -0.3568217 -0.60576594 -0.026379202 0.018493487 -0.33278173 0.008258885 -0.32402763 -0.3187486 0.16025609 -0.293708 -0.20375717 0.40598717 0.24992402 0.32542095 0.19232011 0.26788744 -0.38508502 0.153383 0.12014574 -0.1838393 -0.10781826 0.07153205 0.024363287 0.23523253 -0.012817326 -0.21084109 -0.24022266 -0.2556995 0.2207941 -0.4192691 0.06692721 -0.15319882 0.09890954 0.0997225 0.2944083 -0.32346153 0.5303017 0.37371448 -0.16359964 0.09886469 -0.20302248 -0.12971015 0.36535937 -0.21878636 0.26209244 0.17251837 -0.007858763 0.24319136 0.09511145 -0.50449836 -0.3361515 -0.02709627 -0.14070891 -0.37895545 -0.050504774 -0.14174813 -0.1306575
anyone 0.40446797 -0.057341114 0.8312223 -0.19239789 1.0144081 -0.24117644 0.199293 0.32117066 1.0011572 0.47996598 0.13555674 -0.21451199 -0.05523474 -0.22572711 0.1177853 0.38588986 -0.86045235 0.016047137 -0.3201992 0.53052115 0.29139045 0.44781184 -0.36729193 -0.5823243 -0.893514 0.1348112 -0.08674154 0.65701514 -0.0053518154 0.12771232 0.28425846 -0.34292665 -0.80447894 -0.24728298 -0.18136449 -0.26195902 0.018681085 -0.12129159 -0.005705798 0.30052567 -0.27908775 1.0432974 -0.14907826 -0.25003996 0.04267422 0.012396025 -0.6174611 -0.016028099 -0.007048223 -0.19920938 -0.057214394 0.31527448 0.52699655 0.3490756 0.4428128 -0.2466486 0.8386524 -0.5728724 -0.9441459 0.38853326 -0.7305792 -0.04054832 0.29483992 -0.26336062 0.3145897 0.121455446 0.031055579 -0.058243584 0.06979891 0.24492224 -0.16584125 -0.11731088 -0.55149066 -0.33611828 -0.08330772 -0.22106457 -0.5561385 0.13044819 -0.1255183 -0.1806922 0.72060466 0.37160295 -0.36506248 0.59871775 -0.14615127 0.9000138 0.5366676 -0.83489114 0.29695803 0.59189135 -0.23276785 0.04929501 1.2512935 -0.75649256 0.10354109 0.1247141 0.38365152 -0.5624713 0.06866249 -0.44349113 -0.6219692 0.12279299 0.16399395 -0.06750073 -0.0986125 -0.40248105 -0.075032875 0.27244493 -0.30179435 -0.36048427 0.21769178 -0.33700472 0.30276737 -0.27456287 0.15317698 -0.02337305 0.33180636 0.09922417 -0.14004032 0.5314749 -0.21682777 -0.38462287 0.46073186 -0.2276671 0.16693094 -0.10221671 -0.19023009 -0.33669335
gain 0.092782065 -0.36922058 -0.056917872 0.5342034 0.43459377 0.27242362 -0.16611663 -0.0039339457 -0.62562114 0.22668007 -0.013605167 -0.019305434 0.10277735 -0.6217615 0.09244694 0.48200804 -0.26178762 1.0476745 -0.7161919 0.3434826 0.42877918 0.35125634 0.012235483 -0.48096463 -0.06978035 0.6056842 -0.024272598 -0.23795766 0.7815123 -0.389192 -0.61095697 0.15812336 0.13079667 0.45180756 -0.42369175 0.91411567 0.47282624 -0.15546407 0.2980665 0.2409104 0.042140227 -0.22181858 0.15238029 0.04112279 -0.043843906 0.11683853 -0.5160919 -0.2542284 -0.42832205 0.08337076 0.4634054 -0.15671241 -0.046860967 0.22941448 -0.32993945 0.4100357 0.48896742 0.5307029 -0.53038067 -0.41696218 -0.050459728 0.5956739 0.30521974 -0.18200523 1.1254485 0.05154883 0.18194224 -0.17534287 0.13871954 -0.68473667 -0.27434552 -0.055141054 -0.8850638 -0.25277436 0.43067318 -0.44813654 0.010276596 -0.11211205 0.08226658 0.6668468 -0.27743715 -0.49074578 0.7245214 -0.0611578 0.21386294 0.17410061 -0.0034825285 -0.21865788 -0.122973554 0.33424896 -0.018345248 -0.313006 0.081839606 0.13005883 0.93126786 0.12073926 -0.46609265 -0.53548384 -0.1909709 -0.0912315 -0.59249485 -0.16393203 -0.5499962 0.27686697 0.36495227 -0.021846937 -0.35398862 0.38323104 0.72263795 0.24596494 -0.051709697 -0.3790237 0.44824225 0.49417415 -0.21386503 -0.038130697 0.0015012916 0.18062648 0.9541393 0.14328054 -0.31575358 -0.6900093 -0.49053305 0.09238761 0.21011578 0.16070862 0.067382835 0.561341
good 0.011265733 -0.24069099 0.16486758 0.099712275 0.49781793 0.03693548 0.7174536 -0.089693405 0.13448581 0.31190407 0.52862537 -0.23086983 -0.2504136 -0.26447824 0.3026597 0.011378543 -0.69863605 -0.4314825 -0.41499665 0.27852198 0.21138038 -0.12254652 -0.5300006 -0.20341754 -0.598169 -0.19593242 -0.43262398 0.29768944 -0.14784373 0.16881801 0.016830169 0.073980436 -0.00281911 0.07892231 -0.35421276 0.0015178424 -0.23267089 -0.096965864 -0.30538645 0.057976514 -0.32884598 0.7658248 -0.2356086 -0.08704368 0.13109803 0.054812193 0.06838169 0.010075692 0.1740155 0.41881475 0.11128293 0.2313691 0.060375832 0.011972947 0.09542903 -0.07334138 0.4397353 -0.736602 -0.13724197 0.14511608 -0.37049508 -0.051560737 0.3967066 -0.2935723 -0.09020196 -0.11214293 0.11071747 0.23361848 0.19963776 -0.2121616 0.12531193 -0.1379943 -0.11434878 -0.078932665 0.16329214 0.1564092 -0.093738966 -0.106822826 -0.6219837 -0.067162044 -0.18129973 -0.0015551033 -0.021085503 0.66053426 0.1461217 0.5597907 0.13647927 -0.57735413 0.2292197 -0.28627738 -0.3049875 -0.19561978 0.45730132 -0.10271677 -0.22839423 0.23610333 0.023591053 -0.26016042 -0.052404992 -0.34308177 -0.38627332 0.33181128 0.061279677 0.2773495 -0.10684823 -0.09482124 -0.32375464 0.17630817 0.15058833 -0.48307124 -0.027558709 -0.34756738 -0.2290129 0.40089494 -0.2794788 -0.21543837 -0.004143448 -0.15986905 -0.15154608 0.22002241 0.17779186 -0.030233523 0.2724032 0.2884034 -0.14839606 -0.02565524 -0.26153535 -0.14096566
way 0.35740495 0.10297882 0.17038077 0.22170106 0.23975438 -0.0026576892 0.28955397 -0.38313183 0.066191286 0.4563071 0.18207848 0.031554695 0.25506756 -0.46913216 0.13324638 0.31406102 -0.21347556 0.6849061 -0.8137828 0.48035514 0.13851829 0.5116204 -0.09647399 -0.39830524 -0.066085376 0.10178934 0.042242143 -0.03527416 0.8114552 -0.28219968 -0.23972091 -0.14445871 0.1275662 0.4700956 -0.34550306 0.50316805 0.26420972 -0.21306114 0.20122242 0.06291012 -0.39321905 0.13960543 0.114504054 -0.1622876 -0.13600764 0.4586127 0.022216588 -0.5858157 -0.4080441 0.15621096 0.44633088 0.11664015 0.037842523 0.07459458 -0.29095912 0.4757355 0.9852982 0.29950646 -0.37284452 -0.38333565 -0.42540187 0.029895127 0.004271662 -0.6095689 0.94413143 0.14766815 0.027637785 -0.14268678 0.048150618 -0.44618022 -0.21938902 -0.018510152 -0.78964347 0.05221834 0.20354655 -0.5526601 -0.036467906 -0.1795609 -0.16866931 0.37174788 -0.11366678 -0.14749756 0.6858184 0.3085526 -0.110065214 0.40990958 -0.20880027 -0.7193015 0.11318555 0.046781722 -0.38467708 -0.38670638 0.40619087 -0.051145233 0.8269448 0.23486212 -0.24351807 -0.76591355 -0.104517795 -0.092354394 -0.7184688 0.08946636 -0.5229619 0.14384508 -0.013389551 0.13839324 -0.35101643 0.5221651 0.27279246 -0.07609664 0.17015861 -0.22116718 -0.097488105 0.5758017 -0.08428615 -0.26457566 0.1495882 0.09613376 0.2417633 0.4195348 -0.3350678 -0.4080624 -0.57719105 0.055660766 0.4379263 0.0015636212 0.073590875 0.02305656
never 0.35143343 -0.20274384 0.11750681 0.3449424 0.31715003 0.19521546 -0.08198313 -0.29354998 0.19452177 0.59610075 -0.032953843 -0.1254782 -0.024299422 -0.4858611 0.067896694 0.48020914 -0.21277852 0.8922008 -0.53040904 0.5671904 -0.056946333 0.5539442 -0.058742113 -0.38476962 -0.30860674 -0.007956584 -0.17815764 0.025049515 0.15829505 -0.3724092 -0.15307903 -0.17646475 0.23124902 0.09569929 0.044232134 0.38375694 0.29364967 -0.24149568 0.19056231 -0.027912091 -0.27287325 0.13019942 -0.0048235543 -0.2243357 -0.0002783361 0.2771994 0.044157427 -0.18785915 -0.47330084 0.09727289 0.47446263 -0.32806572 -0.2203987 0.022089036 -0.50766957 0.28767243 0.59509915 0.18727131 -0.3064047 -0.056308378 -0.37552798 -0.057720415 0.011009495 -0.06228091 0.79302484 -0.010362241 -0.20036766 -0.08859902 -0.22698772 -0.41232577 -0.24411453 0.14070952 -0.67110085 -0.3093498 0.24950866 -0.3680302 -0.29550767 -0.26474464 -0.30356145 0.26537913 -0.24650723 0.008150453 0.45055836 0.31645852 0.11234315 0.26705694 0.19006929 -0.25828442 0.13197155 0.023880322 -0.3625055 -0.3769486 -0.058129985 -0.17662087 0.70924324 0.045751598 -0.16811354 -0.7790434 -0.046517123 -0.013987777 -0.32564956 0.06436689 -0.8501715 0.093821034 -0.06318899 0.09523802 0.14621738 0.53104603 0.058684103 -0.051510997 0.1522841 -0.33676222 -0.046963416 0.21352777 -0.2451685 -0.23481514 0.09961078 0.09485573 0.20798977 0.08125082 -0.2514294 -0.28749105 -0.46211365 0.23465466 0.015033768 0.20341474 -0.20651178 -0.018690018
work 0.24587731 -0.14210168 0.25889364 0.0251544 0.39031696 0.13020292 0.51725084 -0.5195241 -0.18460667 0.30538797 0.24390636 -0.10229697 -0.11519673 -0.30704767 0.17464036 0.22664173 -0.42294782 0.06946667 -0.6710669 0.20695333 0.20872766 0.2443942 -0.1541061 -0.46542177 -0.3458297 0.18952756 0.036294054 0.16217361 0.25123644 -0.102547474 -0.31252098 0.004347662 0.14071172 0.28113377 -0.33282936 0.12324633 0.04815593 -0.0484099 -0.013274314 -0.0118936645 -0.3788905 0.17453459 -0.04263465 -0.025877144 0.2787763 0.31449586 0.048134048 -0.2565723 -0.263472 0.25098163 0.16608648 0.37628254 -0.176651 0.1474239 -0.31003177 0.18104538 0.5866184 -0.28096047 -0.2651768 -0.15261033 0.049268186 -0.08107927 0.24434383 -0.5253426 0.39626554 -0.12035492 -0.098213084 0.18905196 0.11196823 -0.4080701 -0.005070449 -0.14285083 -0.3818549 -0.134848 0.19721213 -0.1252979 -0.22457123 -0.2347295 -0.18385594 0.33685917 -0.14268227 -0.12491739 0.3679599 0.29146788 -0.19038598 0.30941322 0.006474014 -0.5142075 0.027180104 0.053801145 -0.19651411 -0.38033262 0.06843991 0.010920525 0.5212492 0.2889475 -0.19576123 -0.74531364 -0.16335253 -0.20408805 -0.44110805 0.10825752 -0.22506449 0.22982322 -0.10318446 -0.011285435 -0.13108723 0.14386162 0.07277789 -0.29240495 0.2921284 -0.33130965 -0.0351928 0.3269817 -0.29074165 -0.1999013 0.2378478 0.07216061 -0.026427664 0.131731 -0.0016316741 -0.20014787 -0.20971088 0.2921967 -0.04949423 -0.11919958 -0.21086662 0.13732275
eating 0.15876327 -0.7684442 -0.0010705432 0.3104827 0.7571402 0.08493681 -0.4745354 0.33607826 0.44884595 -0.4391495 -0.35447472 -0.25605956 -0.5000283 -0.29940885 0.6639951 0.54638493 -0.58772844 0.21420449 0.0579487 0.827115 0.73697466 -0.061126847 -0.17133972 -0.49113292 -0.17905265 0.28162605 -0.82724315 0.7161656 -0.9801851 -0.47648743 0.52215 -0.10898572 0.36199415 -0.3509204 0.6317087 0.09787885 0.18816376 -0.6444593 -0.49341643 -0.026949354 0.34117174 0.521053 -0.3808058 -0.60813344 0.8612369 -0.3416763 -0.46455225 0.33785883 -0.81237185 0.6378998 0.78310233 -0.10936437 0.13543504 0.29895857 -0.93974525 -0.83675456 0.13363883 -0.67815113 -0.40852386 0.80072546 -0.65827245 0.21600829 0.22726388 0.6926382 -0.44983974 0.26965657 0.149541 0.04555748 -0.5638556 0.1042058 -0.0010911651 -0.09803675 -0.60432154 -0.402091 -0.24724509 -0.16435444 -0.54650724 -0.30315253 -0.62855417 -0.22096041 0.118096046 -0.11895076 0.3658424 0.720089 0.869114 0.566948 1.4252748 0.24267903 0.6449267 0.3136526 0.005032078 -0.20499049 0.43625095 -0.19225547 0.16133505 0.25555673 0.6219674 -0.35759348 -0.7796675 -0.16638443 0.15182818 -0.3171637 -0.3496006 0.107858695 0.18167362 -0.6572942 0.29448292 -0.342029 -0.026976889 -0.29037488 1.0567684 0.0130755985 0.4866594 -0.48168015 -0.46083793 0.4445551 0.026577912 -0.32745168 -0.04676562 -0.7179418 -0.35106942 -0.5068462 0.41622227 0.11888569 -0.844058 0.11334991 -1.0978823 -0.083539255
healthy 0.2758979 -0.25570807 0.021789929 0.2411647 0.33470806 0.05650052 0.15510452 -0.22192925 -0.48164544 0.65176374 0.27491322 -0.09710808 0.13603528 -0.6879236 0.18458752 0.48490715 -0.23384349 0.7480044 -0.72352684 0.35507217 -0.015960967 0.5279452 -0.2144123 -0.21057652 -0.0553522 0.20366712 0.07894107 -0.0666852 0.7167702 -0.15593639 -0.5988694 0.12099018 0.25698155 0.6239663 -0.69861805 0.7050368 0.3155472 -0.14243971 0.29649144 0.082718976 -0.30962065 -0.107354745 -0.011359219 -0.027893774 -0.04345493 0.2975672 0.045648236 -0.46141434 -0.20384423 0.21386805 0.41507876 -0.081165254 -0.047895234 -0.07298969 -0.27420637 0.63459516 0.82348406 0.22117291 -0.3568482 -0.49120128 -0.3394745 0.119278006 0.050697554 -0.4756445 1.1007962 -0.010075365 0.0072153816 -0.21977752 -0.006590844 -0.6822021 -0.093838714 -0.098613925 -0.6582063 -0.079206936 0.4707108 -0.4815397 -0.17845608 -0.14367267 -0.22133993 0.45015892 -0.54103273 -0.45447344 0.5395959 0.3212021 -0.10658824 0.3458758 -0.21955729 -0.6765946 0.046269756 0.14520684 -0.13401054 -0.29499722 0.047089517 0.23261671 0.94165057 0.2538685 -0.41558182 -0.81394005 0.09992788 -0.1734411 -0.7338984 -0.011965936 -0.6184207 0.3332114 0.2467258 0.21489538 -0.27912942 0.44808778 0.35350072 0.10912398 -0.060263455 -0.5571825 0.12035583 0.56270075 -0.11191658 -0.061786797 -0.05211696 0.23187661 0.45909333 0.33149552 -0.03605289 -0.3494849 -0.45885655 0.31376645 0.14741744 0.31307524 0.14437596 0.23567364
since -0.041916255 -0.4600854 -0.14639275 0.45960236 0.3938507 -0.24368043 -0.3482192 0.32417998 -0.27851892 -0.25760403 0.18407714 -0.11800224 -0.36712188 -0.46839526 0.678524 0.46436384 -0.33480784 0.22519025 -0.06494631 0.4993817 0.39792043 -0.0432788 -0.05234455 -0.38104764 -0.15234992 0.43720323 -0.4583957 0.20297888 -0.26887164 -0.47610462 0.0138568105 0.119516216 -0.081513345 0.3007968 0.13323352 0.6121794 0.53948474 -0.086583756 0.011136868 0.16747384 0.4605819 0.16030583 -0.52512723 -0.102561824 0.39473745 -0.423157 -0.40405476 0.14835675 -0.3674086 0.06737448 0.7445604 0.121216275 -0.055240937 0.3188478 -0.6391121 -0.5539535 0.015432611 -0.13531719 -0.42095673 0.438635 0.009556464 0.35982716 0.22461303 0.16816415 0.087317936 -0.049941603 0.35142383 0.19001663 -0.4809076 -0.20788573 -0.11488174 -0.4669844 -0.45681104 -0.33444527 -0.04990657 -0.15088947 -0.33058298 -0.41460413 -0.060339127 0.44522983 -0.26386616 -0.5068742 0.37483808 0.4506425 0.48634106 0.37356645 0.6465771 -0.2366182 0.18729424 0.4483386 0.21064968 0.109440036 0.46564582 0.2923713 0.2158297 0.022609632 -0.05193759 -0.2457687 -0.4166773 0.1432328 -0.2938013 -0.4764997 -0.012559645 0.083307266 0.23816082 -0.19658917 -0.07539598 0.088487804 0.482937 -0.31704512 0.6139769 -0.043732196 0.6678639 -0.11691432 -0.16434759 0.56231153 0.22276567 0.04676381 0.4170616 -0.36711994 -0.21570869 -0.5370967 -0.07985024 0.25228024 -0.58776295 -0.12271597 -0.33562934 0.054637637
take 0.24911807 0.031490386 0.18209411 0.028307606 0.5762745 -0.28126085 0.29309666 -0.11452576 0.50151724 0.2645555 0.4247486 0.16570485 0.039129093 -0.321285 0.49117777 0.3678909 -0.5743245 0.15654938 -0.58387494 0.41558197 0.18189602 0.44970888 -0.0028110326 -0.33749247 -0.4959067 -0.086803645 0.016664313 0.12146296 0.49711686 -0.13803127 -0.011598319 -0.39032117 -0.19129077 0.44851258 -0.3963 0.09115663 0.34985688 -0.34063336 0.18868247 0.018380893 -0.19311006 0.23688501 -0.16162966 -0.2829167 -0.041094728 0.06704351 -0.2502585 -0.5602134 -0.01971983 0.2608512 0.023892874 0.15088895 -0.0024629778 0.13137041 0.08857188 0.20932682 0.7881711 -0.3707306 -0.54818255 -0.22303411 -0.53375006 0.3040639 0.1288269 -0.4216113 0.47453842 0.2414832 0.21670094 0.084263705 0.014434918 -0.22519727 -0.11854366 -0.105991565 -0.6243476 0.031854242 0.054727145 -0.3660499 -0.11327829 -0.28755277 -0.277907 -0.11540085 0.097198136 -0.08081578 0.27805907 0.45825717 -0.18420105 0.58268875 0.12639372 -0.7451935 0.24804026 0.04912685 -0.23799612 -0.2619695 0.7513709 -0.34784237 0.37460783 0.0882532 -0.10492993 -0.6260505 -0.019165708 -0.23995176 -0.6564777 0.32292578 -0.08593738 -0.04769079 -0.096774645 0.14212275 -0.47407544 0.5955705 0.108969375 -0.2509902 -0.041536853 -0.4525209 -0.15737335 0.3390121 0.13169812 0.08252131 0.19061856 0.0065921973 0.036448 0.3403674 -0.29506612 -0.12273768 -0.2121594 -0.1629899 0.11425749 -0.15063344 0.0075531537 -0.015892426
one 0.06565548 -0.5733043 0.074457355 0.11489035 0.5086972 0.49149537 -0.26051083 -0.4858529 -0.4325795 -0.045012172 0.25989905 -0.4061132 -0.46855104 -0.23543243 0.37069625 0.5808765 -0.403674 0.09375469 -0.060228698 0.23591322 0.37871385 -0.230228 -0.24560934 -0.8157622 -0.42853212 0.06735079 -0.69995236 -0.1247678 -0.5202372 -0.49878195 -0.02307288 0.12508829 0.47284442 0.0025881934 0.3538137 0.28636518 0.5866633 -0.12921485 -0.029988347 0.25634548 0.24687159 0.106530614 -0.5225147 -0.022348857 0.8501906 -0.38555995 -0.04460843 0.28532848 -0.34483922 0.025619827 0.6205289 0.13639359 -0.61746246 0.5216213 -0.6615772 -0.13328199 -0.12527011 -0.7574287 -0.34104386 0.29154885 0.28562522 -0.0481948 0.57961965 0.26641434 -0.034670435 -0.7578524 0.23578271 0.4193388 -0.05990755 -0.36887282 -0.21686788 -0.57712245 -0.5189913 -0.4493944 0.037648674 0.11750927 -0.15181598 -0.3384259 -0.27794275 0.106763385 -0.28650686 -0.059696913 0.56522477 -0.07490886 0.587835 0.09146585 0.70732653 0.32587388 0.20637822 0.38541624 -0.26888683 -0.3978283 -0.15661673 -0.0029031897 0.12004138 -0.26127753 -0.2842702 -0.5298872 -0.20439675 0.2747693 -0.049741883 0.027016899 -0.23914374 0.018196508 0.054603886 -0.088816375 -0.22342055 0.36280003 0.5275151 -0.39060393 0.10204924 -0.2752025 0.14762475 -0.0662667 -0.37827235 0.4543236 0.33111215 -0.053756535 0.5321292 -0.1667475 -0.42898384 -0.13467313 -0.15596047 0.15029985 -0.5806602 -0.31692266 -0.5856963 0.12147521
thing 0.20356824 -0.25938728 0.051067606 0.13001746 0.28973508 0.093715355 0.25703457 -0.26714098 -0.06833286 0.31914178 0.3118916 -0.14551854 -0.15398769 -0.30954826 0.23616806 0.5388338 -0.5113252 -0.08568931 -0.3202933 0.33476302 0.023338716 0.16561368 -0.21143018 -0.41818395 -0.46622103 -0.010753433 -0.3109373 0.007164213 -0.019254124 -0.24558301 -0.095339105 0.033726186 0.18425156 0.081895 -0.0799774 0.15473644 0.10975489 -0.23161148 0.0088570295 0.21620321 -0.09894834 0.24245405 -0.20025493 -0.19651006 0.18796156 0.02840041 -0.026239365 -0.004775875 0.012822592 0.19002879 0.12505922 0.14820074 -0.1830816 0.20271829 -0.19672732 0.0014825817 0.35494947 -0.33615023 -0.23044069 -0.014193427 -0.21554855 -0.03867716 0.22220217 -0.14788075 0.37938976 -0.2449684 0.055578697 0.1522017 0.06810219 -0.39665753 -0.045048613 -0.36717373 -0.33066368 -0.16049242 0.1826192 -0.029451726 -0.08122642 -0.1954905 -0.43266597 0.12991899 -0.3228964 -0.16354837 0.23670033 0.33999756 0.084000975 0.39410076 0.16540135 -0.3325271 0.14799866 -0.014639672 -0.24356078 -0.24138325 0.17626974 -0.13023147 0.021612514 0.09282796 -0.20680006 -0.4871363 -0.09720051 -0.09560135 -0.31966975 0.15293474 0.047248445 0.22241195 0.0067245485 0.015196898 -0.245132 0.5162361 0.31980586 -0.30476364 0.013325461 -0.28556496 -0.038340643 0.16706982 -0.18621181 0.043302014 0.054380015 0.0007523354 0.114381224 0.29262608 -0.15726238 -0.08578809 -0.020397784 0.20149992 -0.23367319 -0.08764532 -0.1263375 0.060084254
last -0.1382864 -0.7019987 -0.20518716 0.28368023 0.44723517 -0.022676768 -0.22779536 0.054656636 -0.49268958 -0.25934502 0.2521388 -0.21693633 -0.5619966 -0.4564679 0.6805713 0.49643075 -0.30098903 -0.13613856 0.12990054 0.41190973 0.32417637 -0.20860362 -0.18518905 -0.40872508 -0.15493135 0.49336994 -0.61181223 0.0028400493 -0.63382936 -0.51414394 -0.13887902 0.34052587 -0.043792218 0.17113179 0.13959633 0.533798 0.6167647 -0.19606082 -0.08985729 0.07667126 0.33412686 0.14712407 -0.73578185 -0.06887128 0.6855222 -0.6449844 -0.31951723 0.18522969 -0.14929514 0.05074438 0.5866674 0.22488548 -0.20272309 0.42255452 -0.59429485 -0.53494054 -0.2553574 -0.5178584 -0.33471078 0.53330535 0.22666533 0.17738642 0.5238963 0.2649671 -0.20020899 -0.23380066 0.4001496 0.57038194 -0.39571133 -0.3793799 -0.0028499349 -0.6771665 -0.30506092 -0.3703307 -0.16979991 0.1636808 -0.42608428 -0.51793873 -0.12881067 0.51982784 -0.36129218 -0.47912782 0.33712563 0.30762246 0.4798242 0.27179116 0.5957662 -0.08680723 0.2528029 0.47957754 0.06706559 0.11876457 0.1468658 0.18532173 -0.022603933 0.05222257 -0.185112 -0.19168925 -0.4428126 0.2234799 -0.10365794 -0.31839612 0.13341004 0.09442339 0.38276026 -0.22319445 -0.08124899 0.1840613 0.53333104 -0.57704735 0.622437 -0.29492292 0.587263 -0.11314192 -0.22054769 0.60825217 0.1884959 -0.027368499 0.43572128 -0.45631915 -0.3331974 -0.47130612 0.06015502 0.26609668 -0.7003973 -0.31515163 -0.6084139 0.04543034
month 0.14963946 -0.41541642 0.0006557161 0.3093006 0.45016825 -0.029739251 -0.3147261 0.023307225 -0.49949133 -0.097580805 0.4477536 -0.20919678 -0.4154328 -0.62313634 0.66013104 0.63779604 -0.29462555 0.052908346 0.05275297 0.39464808 0.2157473 -0.19237716 -0.091012925 -0.2791414 -0.286668 0.569195 -0.3889496 -0.16940881 -0.34932885 -0.45878613 -0.096595146 0.30061272 0.054130066 0.3670636 -0.14474617 0.5769078 0.63291395 -0.13022819 0.15036896 0.0900736 0.21236347 -0.010850982 -0.6296405 -0.06345321 0.40720245 -0.56301904 -0.38357866 0.029772291 -0.029264737 -0.14097717 0.5340656 0.3130663 -0.32617605 0.38502494 -0.41294459 -0.33764222 -0.16909052 -0.42074862 -0.32952785 0.13811211 0.16492385 0.12206258 0.31757373 0.13458568 0.11321531 -0.15340964 0.54333836 0.39096254 -0.2287424 -0.54743576 -0.16669115 -0.5647038 -0.25514966 -0.27239347 -0.13232064 -0.018859282 -0.41593018 -0.38595852 -0.057060823 0.39217204 -0.21772715 -0.42129248 0.22209588 0.19629782 0.35364702 0.4058592 0.4497194 -0.089378715 0.23664528 0.6214838 0.060904503 0.11191091 0.27564567 0.23588659 -0.12206044 -0.06721486 -0.3831446 -0.3420752 -0.25712407 0.28907022 -0.34404293 -0.12598942 0.074847244 0.11121345 0.30828726 -0.09666347 -0.2311259 0.3810692 0.41414708 -0.41782224 0.29953927 -0.24121946 0.43201375 -0.012038895 -0.24295762 0.66312265 0.27248085 0.24528573 0.33632943 -0.12553036 -0.29362497 -0.25477207 -0.08105099 0.13013992 -0.5234057 -0.44171515 -0.20776244 0.032355137
lose 0.32726008 -0.31827894 -0.047629595 0.5297864 0.45828086 0.30831456 -0.049677286 -0.06332317 -0.5519772 0.4776373 -0.11685078 -0.21902378 0.051188808 -0.8107557 0.0068646185 0.3750858 -0.14420362 0.95090824 -0.90865535 0.4573626 0.2903155 0.30481434 -0.057564065 -0.42537522 -0.16444668 0.36726514 -0.18386059 -0.24189855 0.6941277 -0.39288372 -0.7630601 0.2682713 0.0917042 0.4994223 -0.52644044 0.8532783 0.39743933 -0.12568833 0.36860064 0.3585757 -0.07608315 -0.096650586 0.1506097 -0.0001913895 -0.016760547 0.08488753 -0.18790053 -0.26563817 -0.38337946 -0.05624707 0.48630702 -0.19400005 0.059014022 0.27111676 -0.2693216 0.4171804 0.5118525 0.44471708 -0.53854173 -0.33707994 -0.036826022 0.5739642 0.2193562 -0.055548336 1.1695558 -0.17221135 0.13754638 -0.26767597 0.20899622 -0.6112396 -0.2567353 0.07062732 -0.75157154 -0.42200994 0.4266373 -0.3974194 -0.07791637 0.017358968 -0.023259241 0.82345957 -0.45320898 -0.44117257 0.6453768 -0.039512243 0.28426132 0.108891696 -0.15246376 -0.1733432 -0.060907844 0.2860937 0.03614306 -0.4146514 -0.028686622 0.14895599 0.898677 0.10371007 -0.48325318 -0.723406 -0.037649527 -0.13729095 -0.30452704 -0.25989455 -0.6838169 0.2164271 0.30124882 -0.10042385 -0.30758175 0.51638734 0.6850581 0.28162983 -0.18547103 -0.38579324 0.48110345 0.5299418 -0.12606989 -0.16821687 0.040160928 0.26443818 0.99596274 0.29080334 -0.26208708 -0.6134335 -0.75233394 0.20237166 0.3426003 0.19529478 0.094983846 0.45876446
meal -0.04836335 -0.89030933 -0.10388382 0.26176026 0.44724756 0.58640194 -0.25492445 -0.36958146 -0.5527688 -0.25740412 0.013191912 -0.6077753 -0.7188391 -0.35792002 0.36964056 0.73909783 -0.46096382 0.11341344 -0.03233808 0.39348435 0.37747645 -0.49205807 -0.4788589 -0.8331915 -0.46409428 0.13004258 -0.8522894 -0.23504288 -0.8287389 -0.6518076 -0.095203 0.20045614 0.38295108 -0.20670213 0.46245575 0.55526334 0.5480614 -0.0634519 -0.061345134 0.16294037 0.34932473 0.2001869 -0.55841666 0.019367551 1.0016149 -0.52036977 0.22059447 0.22966017 -0.3950242 0.1429227 0.6613919 -0.07450016 -0.4135329 0.5903356 -0.8022535 -0.17834577 -0.32010984 -0.8152077 -0.42242187 0.4675479 0.23213235 0.05409858 0.9267554 0.5082561 -0.264615 -0.8102001 0.1905717 0.42499587 -0.20893174 -0.22586742 -0.09645575 -0.46560493 -0.43983522 -0.67675644 0.20837891 0.35958177 -0.09518186 -0.45475492 -0.52896327 0.18940187 -0.4004702 -0.16019577 0.7622423 -0.023555854 0.717747 0.06897667 0.6695687 0.6386523 0.21009885 0.4130094 -0.17028096 -0.584001 -0.4265059 0.0109097 0.067551285 -0.14131084 -0.36171755 -0.46414855 -0.34842286 0.18970464 0.23654674 -0.024375008 -0.2185182 0.19245595 0.09373347 -0.22954229 -0.07527912 0.17402107 0.5541801 -0.39678168 0.2737242 -0.2596031 0.42637697 -0.1311325 -0.43641856 0.27591228 0.24677283 -0.116794296 0.64283687 -0.1763188 -0.45829973 -0.14903332 -0.2919851 0.4454361 -0.5142875 -0.18355045 -0.5242928 0.17549007
look 0.21400046 -0.11716965 0.2330276 0.12007907 0.3735896 -0.18889597 0.34530833 -0.26764292 0.2549622 0.28436998 0.17077218 0.13287815 0.08341743 -0.18336153 0.212322 0.19506569 -0.42776018 0.2158088 -0.6584968 0.32672366 0.28403732 0.56447655 -0.1675308 -0.4878177 -0.28374633 -0.007270727 -0.10583655 0.511701 0.3503109 -0.0222652 -0.013868824 -0.1883877 0.035848845 0.26156294 -0.10796169 0.11713767 0.114375986 -0.17297545 0.09274285 0.23047878 -0.25153527 0.3457813 0.13089816 -0.14029811 0.052339952 0.23187357 -0.17334339 -0.1691962 -0.2661502 0.20963207 0.3024247 0.012290357 0.14548923 -0.0336106 -0.13497041 0.12588559 0.74345595 -0.17331104 -0.37680456 0.045004547 -0.506765 0.02402398 0.08102142 -0.45015192 0.3363557 0.13811079 -0.045632552 -0.07720987 -0.10223227 -0.25275907 -0.10110201 -0.20705381 -0.63776577 -0.064584695 0.069255985 -0.35582155 -0.27613306 -0.04899952 -0.20095225 0.029809875 0.14407721 0.007067453 0.1691273 0.5593331 0.04706238 0.60747963 0.36319986 -0.6953925 0.027593784 0.13951042 -0.2221275 -0.20638987 0.46836242 -0.16363162 0.4940854 0.17095526 0.09811567 -0.3757033 -0.114465915 -0.18336883 -0.611823 0.030827964 -0.21996209 0.023796568 -0.07089777 0.051257685 -0.049133264 0.17467366 0.03799872 -0.087024525 0.18264994 -0.19475003 -0.1847353 0.13382424 -0.23588258 -0.098296374 0.16133216 0.0015039468 -0.1098046 0.01578502 -0.26964015 -0.3880045 -0.06579834 0.054807868 -0.01787697 0.08621329 -0.23057836 -0.10708191
tell 0.14162183 -0.074333794 0.16242968 0.109628536 0.4662501 0.0709197 0.11387565 -0.08627523 0.31450075 0.4487209 0.08509402 -0.13990985 -0.034233984 -0.1720282 0.12704025 0.40241766 -0.42077908 0.4972825 -0.5895167 0.37277403 0.3033009 0.43047395 -0.09600483 -0.59960365 -0.31710634 -0.045515228 -0.11333402 0.23686053 0.35242015 -0.13083167 0.050843984 -0.3203048 -0.054079637 0.11671955 0.12847733 0.29653576 0.4068487 -0.13040417 0.14160158 0.2636203 -0.094412245 0.21931905 0.10149794 -0.078748114 0.03513884 0.26873696 -0.15401413 -0.12345671 -0.29796386 -0.022400752 0.3211324 -0.19696045 0.003970897 0.024543172 -0.07099119 0.20001599 0.66960096 -0.14781009 -0.5745868 0.044267856 -0.36944312 0.1458438 -0.040131103 -0.20319237 0.6602418 -0.059155032 -0.055472963 -0.24784881 0.015865974 -0.2900859 -0.2605259 -0.062296268 -0.85008353 -0.1474272 0.026773285 -0.2882577 -0.06098508 -0.08557035 -0.18463542 0.06912577 0.060977742 0.26598442 0.23900963 0.24397486 0.14223224 0.30404574 0.45300585 -0.3977284 0.10220313 0.16422132 -0.27438447 -0.3151368 0.2357367 -0.33276445 0.34017104 0.14672835 -0.10725685 -0.38912544 -0.042789273 -0.2504041 -0.31464717 0.12261415 -0.32644126 -0.05248415 0.0006955505 0.012629103 -0.044300806 0.32391977 0.16824849 0.047411714 0.007275218 -0.38519853 0.07418763 0.1358309 -0.07520911 -0.023324754 0.116827585 0.11889288 0.2456325 0.25140777 -0.46485138 -0.34417152 -0.32106486 -0.1357577 0.055593953 0.01077957 -0.2603494 0.12782925
still 0.18197697 -0.16162421 0.06317357 0.22936657 0.30203727 0.03626012 0.27515894 -0.08668095 -0.27015242 0.38254547 0.23464505 -0.040312648 0.10931178 -0.5519665 0.20735049 0.30242255 -0.34836525 0.29485562 -0.6921348 0.43597502 0.18449952 0.30198961 -0.17961827 -0.41458178 -0.29218352 0.30612952 -0.16629937 -0.0074402005 0.4940781 -0.18050274 -0.40458712 0.142689 0.007270011 0.3682218 -0.39632103 0.5011907 0.31575269 -0.060030393 0.16187748 0.10495781 -0.15108745 0.15162289 0.08606444 0.007673277 0.08514982 0.18158136 -0.25650534 -0.2686545 -0.06621119 0.08423052 0.22662841 0.13559303 0.05915264 0.13831083 -0.053823072 0.23793958 0.5542017 0.123433515 -0.32329792 -0.31958118 -0.3675305 0.19379863 0.17413582 -0.3500475 0.6477841 0.0038386912 0.26094565 -0.0506577 -0.009563522 -0.55685526 -0.20991844 -0.1979707 -0.56954384 -0.15140682 0.20863396 -0.32183918 -0.14129041 -0.22633934 -0.1188937 0.42070448 -0.19799076 -0.29593503 0.35346678 0.3297558 0.014515006 0.34135363 0.03151523 -0.54642344 0.04708395 0.121160164 -0.19070593 -0.15996951 0.29905215 0.025055889 0.44665015 0.24443679 -0.18637376 -0.47054338 0.014597242 -0.1256419 -0.59414226 0.035413515 -0.15644291 0.17395444 0.08750668 0.079732746 -0.23577982 0.36516458 0.22159748 -0.118260846 -0.043585457 -0.31157717 0.015821945 0.40613005 -0.121360615 -0.04566681 0.12201195 0.04871561 0.37388524 0.18106775 -0.22290666 -0.45850572 -0.23695718 -0.02209581 0.018307207 -0.02413274 0.031116745 0.06888053
every 0.1064765 -0.33330935 0.0073819286 0.13020714 0.3579801 -0.008447237 0.12182141 -0.62918544 -0.20842668 -0.24420731 0.30258194 -0.06849716 -0.3549868 -0.29072717 0.5173911 0.4638415 -0.21483693 0.03534203 -0.26987267 0.21542035 0.21508741 0.008467028 0.07020684 -0.68285894 -0.2519092 0.13561665 -0.29743767 -0.05378051 -0.10324409 -0.47235665 -0.055713814 -0.08717366 -0.08843657 0.37244934 -0.111081295 0.32613084 0.47673765 -0.123117626 0.2282889 -0.051146206 0.0106313145 -0.116912164 -0.36517152 -0.09845736 0.49146822 -0.15341304 0.14710215 -0.34570125 -0.41742128 0.2447885 0.5307612 0.25149384 -0.27915993 0.2288433 -0.75203854 0.1591168 0.1880038 -0.441407 -0.26207727 0.18627566 0.25215358 0.056308813 0.37780875 -0.19570398 -0.025652898 -0.41319612 -0.0041537937 0.37317556 -0.2772211 -0.43445525 0.04152424 -0.38925394 -0.4560667 -0.42584085 0.28662258 -0.112502694 -0.21735159 -0.5327881 -0.19074588 0.27568558 -0.14700232 -0.17933516 0.64122784 0.13455835 0.100519985 0.28746742 0.20232725 0.02094397 0.049136646 0.34551984 -0.13526735 -0.44177133 -0.032537412 0.056092005 0.47938296 -0.022623414 -0.33680764 -0.6237975 -0.18942316 0.10744826 -0.18963197 -0.045054074 -0.14962237 0.17506188 0.040052027 -0.015757011 -0.2580041 0.15368819 0.25734156 -0.42004153 0.38562584 -0.31137514 0.28715527 0.26414213 -0.2901191 0.19965328 0.18123318 0.10413803 0.29406425 -0.19912519 -0.10819645 -0.1494354 -0.33721513 0.38989654 -0.08786661 -0.33116743 -0.21836567 0.061363135
also 0.19342005 -0.14674045 0.17872004 -0.0070403963 0.53493613 0.10741101 0.15060882 -0.32524684 0.16713297 0.19897908 0.19740272 -0.27095002 -0.117705196 -0.34486166 0.37511036 0.32272154 -0.4609331 -0.032771874 -0.57266325 0.32697156 0.1491383 0.21011113 -0.27535608 -0.43797573 -0.25279793 -0.057484098 -0.28229263 0.063606076 0.089516714 -0.14587955 0.10361998 -0.06656907 0.12938613 0.20263292 -0.07674837 -0.00076369237 0.15349033 -0.32508582 -0.13131386 0.20693715 -0.19091056 0.3251282 -0.17724092 -0.23955667 0.26658565 0.029161034 0.0510482 -0.17105108 -0.21448378 0.2181711 0.19903111 0.21107292 -0.16449831 0.1696732 -0.21444044 0.014757169 0.623406 -0.45915136 -0.3287633 0.16781493 -0.3106047 0.110347375 0.09812331 -0.17836559 0.17377892 -0.18633021 0.21173333 0.15585227 0.04704081 -0.23450197 -0.02765627 -0.2012494 -0.535527 -0.20048459 0.10780608 -0.10310461 -0.09468836 -0.19390942 -0.2116307 0.057963233 -0.11714742 -0.24508378 0.17760375 0.27971655 0.05018535 0.29190275 0.22392239 -0.21453103 0.16348378 -0.056500662 -0.26726535 -0.17098624 0.33621675 -0.14133984 0.30502477 0.11626435 0.12206217 -0.41464496 0.0023027924 -0.21990578 -0.2765262 0.084613405 -0.1855033 -0.010594572 -0.04394844 0.14385316 -0.3090822 0.4129778 0.18290117 -0.18855046 0.11842038 -0.36903784 -0.012536579 0.21426572 -0.22004995 0.18037792 0.15925173 -0.16614209 0.18873416 0.2013578 -0.14887582 -0.18308531 -0.067572184 0.041740928 -0.14910714 -0.05454549 -0.16243479 -0.04627866
life 0.14403649 -0.34279594 -0.059362568 0.31869063 0.28876525 -0.017737156 0.1981897 0.15291026 -0.12611426 0.20327796 0.041309644 -0.11332988 0.011548311 -0.30336723 0.31639656 0.283881 -0.42588922 0.11932592 -0.09480006 0.3680463 0.19417536 0.30021262 -0.09463429 -0.28273726 -0.2987857 0.18812574 -0.32598683 0.12481293 -0.08314887 -0.25381836 0.04337316 -0.015369193 0.1959216 0.017366538 0.09498811 0.17390664 0.17577608 -0.38606176 -0.10886683 0.06976403 0.00010717835 0.35370812 -0.1286539 -0.2683352 0.0690746 0.0032357892 -0.39759022 0.09007644 -0.1338914 0.23597579 0.23914625 0.21563794 -0.0830078 0.23541392 -0.2856842 -0.09169476 0.24756642 -0.11661621 -0.13420336 0.0419046 -0.4558295 0.09230009 0.19151407 -0.056744713 0.34228164 0.09648771 0.18542325 0.06171378 -0.08982363 -0.2733646 -0.1068495 -0.064276926 -0.38781855 -0.23294789 0.056653623 -0.18199688 -0.24713841 -0.24329972 -0.37029976 0.2445128 -0.23666078 -0.24451664 0.28820062 0.5268063 0.3831169 0.4473741 0.26661408 -0.30448848 0.12547866 -0.061154786 -0.1384907 0.08067855 0.33146966 -0.13489138 0.2271129 0.09875692 -0.06078635 -0.35278192 -0.19603339 -0.092362024 -0.34580162 0.06841625 -0.13519582 0.32345235 -0.035661995 -0.034500897 -0.058442615 0.4733983 0.13917531 -0.31243744 0.295444 -0.16039214 0.03875895 0.23867197 -0.4046319 -0.028694907 0.10492102 -0.19230711 0.0048942394 -0.14948852 -0.097047634 -0.27246043 0.12321091 0.063842714 -0.45393544 -0.09014189 -0.241084 -0.030272268
could 0.1231935 -0.104745395 0.112493545 0.22096427 0.4319949 0.1816529 0.19902627 -0.24192943 0.070395224 0.6101387 0.2956205 -0.31208733 0.07793667 -0.23856847 0.046912406 0.34262064 -0.44212812 0.5885545 -0.42473343 0.39171803 0.16272108 0.45856878 -0.30257013 -0.518359 -0.29660556 -0.12878235 -0.17623074 -0.031883292 0.22819625 -0.22844142 -0.24243455 -0.081121504 0.23793793 0.2843766 -0.16491292 0.29112172 0.24303971 -0.15188615 0.21280877 0.2423662 -0.1180094 0.15772568 0.17502508 0.035936523 -0.09503793 0.21903674 -0.29688412 -0.13514334 -0.19600837 0.082089975 0.26467365 -0.022025393 -0.13957463 -0.022703888 -0.18255603 0.10097733 0.45185632 0.013109792 -0.43413943 -0.0497726 -0.3748097 0.0043361434 0.17036071 -0.31542394 0.7380753 -0.057408992 -0.16050322 -0.052126568 0.007674381 -0.53745264 -0.32789418 -0.14846408 -0.7833836 -0.297797 0.18996069 -0.31046215 -0.09884651 -0.20687838 -0.21366973 0.13735764 -0.19021805 0.071163066 0.21907264 0.33887482 0.27435702 0.32918864 0.2289588 -0.4971381 0.018301854 0.10273942 -0.47790876 -0.2063252 0.14201902 -0.23327436 0.5057911 0.14162244 -0.24892236 -0.43598944 0.00010991945 -0.12802304 -0.49811694 0.23644245 -0.49093103 0.11088926 -0.020719375 0.095639914 -0.013507247 0.35050592 0.31160712 -0.08227902 -0.0412587 -0.4129099 -0.05399311 0.27758208 -0.24130674 -0.14480856 0.0030863963 0.042651527 0.273674 0.19689205 -0.29285803 -0.41002277 -0.03354208 0.10300081 0.06615786 -0.04979354 -0.23717833 0.12614444
right 0.07253449 0.1723606 0.3005453 -0.026617693 0.3598545 -0.17901093 0.4970976 -0.6071823 0.3656251 -0.059405766 0.5433715 0.28267255 -0.04390554 -0.121273905 0.37090856 0.23368824 -0.35682106 0.10503393 -0.6795031 0.22090277 0.16022511 0.44365874 0.36294165 -0.6311073 -0.33402592 -0.077402405 0.007279162 0.17732058 0.45369223 -0.10841357 0.24247132 -0.4089829 -0.15877762 0.60288763 -0.27575105 0.08258553 0.3978926 -0.17713852 0.15252289 -0.06370239 -0.33849388 0.22605218 -0.12373809 -0.1516968 0.011406725 0.5863647 -0.07443815 -0.4487671 -0.34486017 0.38224468 0.26755467 0.38975295 -0.18053497 0.14977404 -0.51808727 0.2733261 1.0097181 -0.19696735 -0.37150612 -0.19074816 -0.0777742 0.0047194865 0.10639033 -0.7880895 0.39431134 0.101338685 -0.0933527 0.11668149 -0.14583637 -0.31611797 0.006020885 -0.18307449 -0.7718001 0.052480627 0.10259236 -0.62937605 -0.23456259 -0.42916512 -0.23889157 0.20729156 0.2061928 -0.012827377 0.56327915 0.6017153 -0.35978293 0.5752749 0.009684533 -0.63010126 0.035548802 0.10707586 -0.1837826 -0.49967882 0.36882085 -0.04642355 0.72168404 0.06330933 -0.0700547 -0.5211254 -0.18099158 -0.121934965 -0.6915894 0.26184806 -0.22855997 0.06735323 -0.023945287 -0.025352651 -0.40740848 0.19755578 -0.00060840277 -0.3782584 0.45168537 -0.08428649 -0.14975913 0.49749357 -0.057614755 -0.1695799 0.25809962 -0.040709548 -0.15924148 -0.13964741 -0.15859365 -0.50129336 -0.18764217 0.13258341 0.19421004 -0.2491867 -0.10135835 0.03239963
week -0.06039547 -0.74047583 -0.12771605 0.2755057 0.4217826 0.083967954 -0.15063503 -0.15105869 -0.56164813 -0.27491152 0.35209686 -0.36028627 -0.69735384 -0.4592856 0.66423947 0.62372184 -0.402214 -0.1858324 -0.03179612 0.32153407 0.409838 -0.4125278 -0.17822434 -0.5480553 -0.43312204 0.40922406 -0.6603953 -0.1118481 -0.6570259 -0.46209353 -0.08486691 0.34347758 0.040675372 0.12940216 0.13208771 0.5661561 0.56580573 0.04298401 -0.13417381 0.23257326 0.3889173 0.15917942 -0.79745406 -0.04787993 0.91531485 -0.6488 -0.20584707 0.2003213 -0.16283776 -0.118311435 0.5614084 0.29833475 -0.42617917 0.46673703 -0.5760229 -0.38996965 -0.25092578 -0.80787987 -0.38177115 0.454716 0.33429334 0.24560821 0.6029211 0.21428831 -0.18350726 -0.5251414 0.38129333 0.5131043 -0.29338276 -0.4434368 0.05649096 -0.7265362 -0.28476045 -0.46560827 0.061943486 0.14851753 -0.3296606 -0.4863681 -0.20301679 0.525838 -0.39034623 -0.45997983 0.48584938 0.22437167 0.5047216 0.3048207 0.56460714 0.08648982 0.13749401 0.49639127 0.045063548 -0.07069948 -0.013143028 0.27692544 -0.04543078 -0.06353514 -0.33879873 -0.38454166 -0.31898016 0.20678216 -0.029165247 -0.14038913 0.16748936 0.14991309 0.29379505 -0.2244234 -0.15622818 0.27579814 0.56706405 -0.59082353 0.44878292 -0.36288098 0.5682567 -0.058478758 -0.26456875 0.5969561 0.28077185 -0.08757496 0.6288502 -0.3199004 -0.32515752 -0.30728117 -0.15767951 0.36905494 -0.7175114 -0.33983868 -0.5392272 0.21771212
thought 0.18171369 -0.2643574 0.053701 0.24807876 0.41214576 0.08681785 0.19153161 -0.019076284 -0.064952135 0.30640343 0.15149048 -0.22184451 0.030553697 -0.4936481 0.28791517 0.33321354 -0.15683594 0.23867968 -0.58659124 0.36079422 0.16899978 0.23799759 -0.2686014 -0.47662693 -0.2776821 0.09010253 -0.30538136 0.26245025 0.093647994 -0.312579 -0.24602011 0.0015141681 -0.058784876 0.23104422 -0.040618688 0.34883964 0.14199875 -0.10669494 0.19540776 0.016220825 -0.10155332 0.099711105 -0.047742426 -0.1334107 0.2914547 -0.006350224 -0.12582172 -0.11578307 -0.18596256 0.16688906 0.5425794 0.12990983 -0.03375725 0.09570421 -0.38314188 -0.13870706 0.5087494 0.1104953 -0.4637543 0.18982075 -0.25772306 -0.0046278313 0.10465673 0.029623235 0.3669543 -0.13476698 0.056226563 -0.09856283 -0.15651917 -0.25296107 -0.27784595 -0.25190556 -0.5019098 -0.2673376 0.11884711 -0.103649125 -0.26732457 -0.23802513 -0.11815518 0.35213876 -0.04887528 0.028119681 0.41092622 0.36923876 0.23757298 0.3647864 0.34867385 -0.36341283 0.030017285 0.19649138 -0.17711264 -0.18685292 0.18649596 0.113620855 0.4532514 0.13870847 0.056809638 -0.55459464 -0.1167055 -0.017921545 -0.14234209 -0.19523562 -0.115918316 0.028192384 0.057778247 0.11040993 -0.0049418616 0.21087945 0.17702362 -0.15925135 0.20779896 -0.11028127 0.32486424 0.07477967 -0.18381996 0.118486516 0.057403017 0.03588895 0.33754194 0.15060447 -0.41488644 -0.4176198 -0.25226784 0.04604194 -0.060832765 0.12387357 -0.35008422 -0.15995292
trigger 0.13328847 -0.14765155 0.20427465 0.16049293 0.48898187 0.08170472 0.012287624 0.051823333 0.2940343 0.3005344 0.18441302 -0.07156253 0.028451547 -0.38883373 0.28994152 0.26099402 -0.4762824 0.076696195 -0.32670537 0.29585844 0.16099977 0.16462652 -0.2097128 -0.29797494 -0.487868 0.17037597 -0.15385084 0.2510329 -0.025757484 -0.052442 -0.07225402 -0.085882574 -0.10303789 0.10034566 -0.11968821 0.08788096 0.16675408 -0.293709 -0.12151679 0.11159877 -0.19369814 0.42711326 -0.124499895 -0.14217642 0.055737413 -0.037030153 -0.30525362 -0.012558163 -0.155429 0.26751631 0.10646517 0.18858533 -0.061910674 0.29281446 -0.1454033 -0.08904743 0.47255582 -0.18300346 -0.36253014 0.16637535 -0.36438882 0.21517988 0.22305416 -0.18567048 0.29071563 0.028972534 0.18285172 0.10259778 0.10336678 -0.1513817 -0.20325975 -0.10751855 -0.47128925 -0.08993393 0.056649912 -0.15540896 -0.27153978 -0.104712285 -0.25207865 0.08564163 0.11743116 -0.07671273 0.16401938 0.43444997 0.06303937 0.46435267 0.3373375 -0.40135872 0.1743311 0.18143639 -0.23535448 -0.029358068 0.5195067 -0.2832107 0.03926808 0.043236338 0.036834408 -0.36170435 -0.06692835 -0.17965999 -0.34953156 0.24848066 0.0103267515 0.16667643 0.17437893 -0.15646732 -0.24528192 0.31947798 0.14393826 -0.3950221 0.24750963 -0.2381637 0.05943024 0.05509837 -0.20290245 0.00966018 0.11883217 -0.22009468 0.12687786 -0.012804511 -0.25278386 -0.38575348 0.10635697 -0.17965518 -0.06677895 -0.052201122 -0.3376818 0.05725391
anorexia 0.33849862 -0.48611736 0.26921293 0.27611676 0.69593793 -0.39662662 0.1171556 0.53213114 0.5073946 -0.18341589 -0.38945773 0.21992888 -0.04663768 -0.35166052 0.7266366 -0.17224607 -0.29542726 0.06483731 -0.48463905 0.6107977 0.74923074 0.20062017 -0.048354376 -0.06384192 -0.5062658 0.3780699 -0.7650382 0.9034531 -0.1869558 0.013363189 0.49630782 -0.068378866 0.10298896 -0.1470392 0.44394657 -0.06082857 0.018345749 -0.5175684 -0.57134175 0.24395971 0.342099 0.6388217 -0.18307476 -0.50858 0.28725097 -0.02828183 -0.31671807 0.30642298 -0.41548038 0.2168599 0.42978147 -0.24715874 0.29408425 0.15164064 -0.0024210585 -0.6201115 0.2724684 -0.044792477 -0.1564571 0.6240321 -0.74651426 0.32383198 0.30609205 0.45562145 0.17438199 0.5717379 0.4046997 -0.20325272 -0.1878109 -0.023464907 -0.0753834 0.3711124 -0.38353047 -0.14382741 -0.17914425 -0.40939862 -0.20491616 0.19654132 -0.6361469 0.19697352 0.13491267 0.090709046 0.023461217 0.78993803 0.52817637 0.8201102 1.1086776 -0.15434119 0.69325584 0.072953574 0.21351308 -0.0056360164 0.87693363 -0.24169184 -0.24360123 -0.00043777633 0.5899853 -0.18711159 -0.6378975 -0.3084675 -0.08327353 -0.29266056 -0.26816142 -0.09702776 0.05986316 -0.52126974 0.1543485 0.13842615 0.11562788 -0.22562285 0.9318261 0.09352848 0.12099988 0.23082009 -0.43153954 0.29074967 -0.17605196 -0.41159284 -0.122857735 -0.19462979 -0.38555714 -0.44690824 0.12720121 -0.050717205 -0.5454781 0.19731611 -0.4897301 -0.024825694
find 0.10798129 -0.28292847 -0.02648254 0.18016796 0.34826496 -0.1223862 0.10610983 -0.1376412 0.033942908 0.3441386 0.21565859 -0.2073929 -0.17224863 -0.31010163 0.24699251 0.40960336 -0.4617764 -0.07438425 -0.1564464 0.38725683 0.2441623 0.19266957 -0.34011582 -0.3760733 -0.3008528 -0.025141012 -0.2888119 0.18356714 -0.070832916 -0.19745326 0.0045617158 -0.0438677 0.20065548 0.01432885 0.08533452 0.25091258 0.2954047 -0.13555083 -0.19730338 0.20059498 -0.0025601492 0.4693616 -0.18984298 -0.17902808 0.23849216 -0.039724566 -0.030064182 0.053231634 -0.012419709 0.15388186 0.37409583 0.12571932 -0.08746336 0.2727576 -0.27624643 -0.18516466 0.41015723 -0.33258364 -0.30356646 0.28770918 -0.3402451 -0.08618185 0.26288322 -0.081282154 0.11749746 -0.07547537 0.09710547 0.15344292 -0.16873068 -0.16717115 -0.053194024 -0.4355515 -0.5048166 -0.13013504 -0.0055508143 -0.09767975 -0.19108936 -0.24922627 -0.2660928 0.023802035 -0.112973414 -0.15891059 0.17405966 0.515158 0.29239103 0.44033828 0.50143933 -0.44922423 0.22572082 0.052272294 -0.36546955 0.010197772 0.42160964 -0.14838493 0.16604352 0.1477726 0.04821981 -0.22204597 -0.2126281 -0.036348578 -0.29716578 0.03851219 -0.04452172 0.114577 0.07299169 0.1109558 -0.04027285 0.2675603 0.33080375 -0.18419543 0.24580336 -0.29899013 0.084544696 0.088585585 -0.28958064 0.20636344 0.15690485 -0.11713346 -0.025189428 0.04291924 -0.27475932 -0.35903192 0.02633257 0.14302509 -0.43375725 -0.0063675004 -0.20953919 -0.2060804
experience 0.27179393 -0.3036078 0.6556977 0.03577634 0.81226337 -0.261035 0.052318607 0.6987724 1.0244222 0.06456838 -0.18015124 -0.38198322 -0.14429538 -0.19051445 0.36132544 0.16615717 -0.78537035 0.015282372 -0.2856392 0.6522559 0.53963214 0.3316214 -0.5227325 -0.45302436 -0.6936777 0.14813492 -0.3374088 0.7047316 -0.2745106 0.009281599 0.29123968 -0.33672822 -0.53540325 -0.28089285 0.13114695 -0.11489566 -0.036506213 -0.33248517 -0.20156324 0.25040615 -0.017536756 1.056771 -0.1080496 -0.44240543 0.020966297 -0.24766257 -0.57030714 0.17041433 -0.19078134 -0.012611777 0.239537 0.09578391 0.5321804 0.26291296 0.08884281 -0.47093713 0.33207017 -0.52686906 -0.9585539 0.58828354 -0.77295697 0.19327249 0.23567393 0.08711184 0.09355002 0.33839846 0.09558836 -0.14491768 -0.067078084 0.38786954 -0.19878067 -0.0047772154 -0.4467544 -0.36371562 -0.22898479 -0.07760834 -0.4084322 0.06739975 -0.119638026 -0.21348238 0.6212501 0.32262653 -0.27707127 0.59238416 0.20838685 1.0099586 0.88143086 -0.6003718 0.48522335 0.6057649 0.033881947 0.17281783 1.2459934 -0.55286497 -0.07031172 0.2306119 0.58027244 -0.35605332 -0.21241595 -0.47282025 -0.20011052 -0.17226976 0.17691645 -0.10665048 0.11129078 -0.5888771 0.12958007 0.044278696 -0.18212502 -0.27349234 0.4338211 -0.17046233 0.3720998 -0.31769186 0.11481127 0.20665373 0.33095136 -0.110676974 -0.072745524 0.18235196 -0.31308395 -0.5693729 0.52874506 -0.05564367 -0.11081685 0.11421507 -0.24056722 -0.25835416
old 0.015232266 -0.5040592 -0.3155908 0.06857539 0.34739128 -0.044953946 -0.1241405 -0.13152993 -0.5647421 0.018300297 0.45796716 -0.017430305 -0.09509733 -0.37116498 0.35672876 0.5869574 -0.36109012 -0.2855272 0.23618457 0.44729865 0.068114094 -0.017698815 -0.20011355 -0.21270004 -0.34871134 0.26931593 -0.19081105 0.41648605 -0.23820111 -0.1762017 0.05418405 0.18233943 0.3167843 0.10297616 0.04914063 0.30958614 0.4588286 -0.12779216 -0.07503052 -0.12267919 0.24814734 0.16742587 -0.12965629 -0.26049376 0.4143557 -0.0059424248 -0.17657909 0.15170453 0.21747261 0.34027654 0.10777817 0.076542586 -0.12523855 0.34613997 -0.21270095 -0.20030007 0.20861492 -0.4122043 -0.007403652 0.045292195 -0.1969528 -0.20784207 0.46409395 0.028136045 -0.1291427 -0.009755006 0.18185607 0.44501612 -0.34831932 -0.23087771 0.12484675 -0.32024592 -0.3451793 -0.20822603 -0.29058313 -0.028050663 -0.4614063 -0.24692371 -0.5671753 0.288125 -0.39097175 -0.20720378 0.2916213 0.60492605 0.2137843 0.47511467 0.51722294 -0.176515 0.1099781 -0.0756834 -0.04326695 0.13691437 0.03712454 -0.11815746 -0.17095006 0.24804138 -0.06365922 -0.07004911 -0.21448807 0.16137387 -0.4737806 0.24308062 -0.2391642 0.40262705 0.07211953 0.049823526 -0.10369227 0.26884952 0.23978531 -0.50986 0.5010093 -0.12589425 0.20565906 0.24948296 -0.59138846 0.06668966 0.21601073 0.03895429 -0.30880988 -0.32241207 -0.101118244 -0.29688188 0.31571716 0.31572944 -0.81556857 -0.1702832 -0.20037052 -0.40371996
bad 0.10087518 0.11709134 0.40712786 -0.05537055 0.24397026 -0.2098626 0.5766686 -0.6455786 0.42655057 -0.10467682 0.54234713 0.24473919 -0.1086508 -0.073801294 0.35775545 0.20876415 -0.36475113 0.05714186 -0.6454244 0.31102428 0.26924318 0.23611255 0.2988244 -0.5187129 -0.4089783 -0.07366862 -0.072414674 0.34514654 0.045718748 -0.052252065 0.19458915 -0.34987497 -0.074407354 0.4548939 -0.25163946 0.08263915 0.2605398 -0.09681526 0.06909175 -0.100209095 -0.3471169 0.26507834 -0.06790917 -0.15439416 0.09881526 0.39331198 0.033865456 -0.3912869 -0.34288722 0.5234945 0.38053757 0.32954183 -0.2399856 0.07704918 -0.6711736 0.06425681 0.6582777 -0.4044095 -0.29036546 0.16165252 -0.014639785 -0.07407401 -0.008398756 -0.75781465 0.07103649 0.1919682 -0.22058012 0.21969607 -0.3716333 -0.23981915 0.14504458 -0.27939975 -0.61432385 0.05853549 0.089638546 -0.5177626 -0.26104346 -0.447636 -0.26973566 0.25526705 0.24053359 0.027144134 0.46752062 0.74135375 -0.2697075 0.6187014 0.16482592 -0.6674405 0.24257581 0.06544815 -0.24649751 -0.5167162 0.40436375 0.02687128 0.52574956 0.19118743 -0.07022581 -0.503499 -0.49167946 -0.018978065 -0.6016302 0.12919265 -0.17220393 0.1696662 -0.08334963 -0.11844194 -0.13389066 -0.15367733 0.028188579 -0.46428072 0.6478795 0.026659869 -0.114629544 0.4930475 -0.1619145 -0.11623897 0.20396616 -0.0540328 -0.31436488 -0.41057447 0.0073635834 -0.36968747 -0.1365506 0.40845466 0.043470245 -0.34589106 -0.32506326 -0.006323096
around 0.071725555 -0.3222579 -0.008460057 0.29220554 0.24358307 -0.23652329 0.06508982 0.016337074 0.13106377 -0.2612781 0.018522605 0.04532562 -0.17941087 -0.1323196 0.61433864 0.25875372 -0.3617371 0.11800798 -0.16241577 0.5087265 0.32712272 0.26132455 -0.09596799 -0.2948805 -0.092195064 0.0049731233 -0.29925284 0.4250741 0.030791773 -0.29267192 0.26270038 -0.07196357 0.09158197 0.34754848 0.1850952 0.3559644 0.27112874 -0.25281456 -0.13373537 -0.042224236 0.1467417 0.21993251 -0.20947638 -0.23909387 0.1717815 0.015648106 -0.08857701 -0.10323523 -0.26723966 0.43984178 0.6014588 0.060887653 0.089029565 0.16399111 -0.5588702 -0.23380251 0.42381617 -0.17716727 -0.2084853 0.19970033 -0.2286533 0.16356038 0.268989 -0.18830872 -0.06287464 0.24737167 0.12550014 -0.0039742454 -0.4195311 -0.055222813 -0.052722093 -0.12251302 -0.50088334 -0.01494196 -0.03729766 -0.26738653 -0.23950687 -0.33420065 -0.39046386 0.22150761 -0.020165445 -0.3280096 0.4620609 0.6161443 0.3975996 0.55612105 0.53502965 -0.36902156 0.30973604 0.2171448 0.06597795 -0.2214761 0.38254055 0.050687175 0.32086354 0.16208921 0.016001375 -0.2308619 -0.5929885 0.06733774 -0.17711228 -0.084907494 -0.26200765 -0.018089632 0.024677884 -0.12783559 -0.1797693 0.121909626 0.21929897 -0.28489542 0.7018195 0.05125698 0.13267699 0.19318184 -0.24284613 0.140973 0.09069169 -0.18858868 -0.1506926 -0.30642912 -0.17195773 -0.32322633 0.033497263 0.19902535 -0.28951937 -0.16611572 -0.2736425 -0.07972585
struggle 0.17822021 -0.27177525 0.02348492 0.3474471 0.23818843 -0.07791088 -0.09237559 0.1064111 0.046824075 -0.19683905 0.114754885 -0.21337232 -0.13498005 -0.36515835 0.5440311 0.36612132 -0.35654858 0.18617207 -0.0677354 0.48629224 0.17032734 0.083498634 -0.16155201 -0.27300227 -0.17271566 0.20518497 -0.3662363 0.14469045 -0.16115493 -0.5772067 0.27632517 -0.01262565 0.14249459 0.08356516 0.2853449 0.2826885 0.37239236 -0.37507588 -0.048775192 -0.025672482 0.12574223 0.29508674 -0.2819966 -0.22345197 0.053972878 -0.16835335 -0.27594867 0.029014826 -0.30573535 0.1581603 0.50267446 0.022986593 0.0050866283 0.27548718 -0.46311164 -0.23436612 0.102223195 -0.24991249 -0.29692397 0.259061 -0.2632622 -0.08542177 0.28751445 0.059753828 -0.0423628 0.17016876 0.32241827 0.110075675 -0.33910236 -0.20594554 -0.13964103 -0.16986117 -0.3904589 -0.16556476 -0.18145165 -0.15649125 -0.26843753 -0.3954337 -0.2637677 0.043327954 -0.041525144 -0.18358748 0.30825782 0.33174545 0.45745638 0.4961715 0.52563894 -0.18023396 0.3073574 0.27465406 -0.11725927 0.051111095 0.30301237 0.015829077 0.16012496 0.11670177 0.16194685 -0.23953533 -0.34653208 0.12082793 -0.23329943 -0.14362527 -0.19131723 0.101835266 -0.07872914 0.062457003 0.007280099 0.30158454 0.12489259 -0.3527044 0.38319978 -0.006652324 0.033677276 0.07825956 -0.4047575 0.31815025 0.07424109 -0.048028164 -0.04005187 -0.22281274 -0.3977961 -0.31367922 0.068160586 0.11155249 -0.4723682 -0.09910343 -0.22129242 -0.2671315
hard 0.17946732 -0.20936276 0.14408869 0.13971904 0.36686763 0.11465345 -0.24799961 -0.61112744 -0.019537302 0.2814967 0.21927975 -0.15038028 -0.20997061 -0.28733587 0.1781799 0.6769395 -0.24193326 0.30686396 -0.1319275 0.2948567 -0.17406243 0.39629745 -0.17943285 -0.47331426 -0.17146963 0.023919264 -0.106096186 -0.011241307 0.121982016 -0.4146876 -0.11289681 -0.039525717 0.16289775 0.1730056 -0.08100753 0.2559831 0.3423305 -0.15852264 0.20765649 0.1774564 -0.115421176 -0.09928874 -0.26354936 -0.12723234 0.29840434 0.12294238 -0.042548146 -0.26902974 -0.1720542 0.12083152 0.32066977 0.20017134 -0.35308906 0.15493271 -0.41193336 0.20956703 0.5230001 -0.24230936 -0.28207192 0.03363044 0.05568009 -0.2539083 0.22225602 -0.24913988 0.30300504 -0.21312757 0.02014499 0.35788068 -0.065181345 -0.5314389 -0.013642726 -0.43344223 -0.45258388 -0.23549564 0.28626955 -0.19413432 -0.21917816 -0.3214694 -0.16621956 0.07541138 -0.1697441 -0.12554911 0.26756144 0.110821016 -0.2209732 0.17066832 0.12796761 -0.2031132 0.104800396 0.3596502 -0.34057337 -0.3482953 0.039695393 -0.15466683 0.5160908 -0.057719197 -0.304365 -0.5453123 0.011671653 0.06346727 -0.40318528 0.12003194 -0.19284265 -0.020930488 -0.019493539 0.18030566 -0.12900497 0.3048099 0.2749393 -0.15114735 0.22620629 -0.43853766 0.050054133 -0.000847137 -0.32766783 0.19026779 0.0707731 0.047428966 0.12709856 0.26782915 -0.23299831 -0.11047347 -0.070471905 0.1270529 -0.093627304 -0.13841836 -0.23731251 -0.09463895
fat 0.63866943 -0.31722027 0.28982338 0.18562132 0.30274776 0.31000158 0.23540957 -0.1487776 -0.32774886 1.2959975 -0.10288432 -0.4426874 -0.19781704 -0.99407357 0.015746316 0.70143425 -0.13596344 1.0578758 -0.6199616 0.6568176 -0.43609893 0.67387724 -0.33484375 -0.6177891 -0.8453955 -0.22702004 -0.21517761 -0.12822346 -0.055294715 -0.10585987 -0.583704 0.275231 0.3874051 0.36647177 -0.5809281 0.85857046 0.29202646 -0.2941847 0.15844059 0.27954102 -0.56280845 0.25942692 0.051720396 -0.08580886 0.11671855 0.13341336 0.3980287 -0.28372917 -0.20477964 -0.31353933 0.4458337 -0.66885835 -0.2559284 -0.085698046 -0.30728418 0.5064563 0.8764403 0.33138967 -0.31913877 -0.29818672 -0.45107937 -0.0995901 -0.064508736 0.010811818 1.3860719 -0.098073 -0.39006475 -0.63500285 0.10008335 -0.6635551 -0.13937262 0.13410561 -0.4008577 -0.6324772 0.75689346 -0.28751737 -0.305801 0.26051503 -0.3332025 0.6627956 -0.75497013 -0.5966576 0.30288693 0.28443974 0.3049804 0.4069449 -0.2880035 -0.35642835 0.1170704 0.013871999 -0.40883836 -0.35017714 -0.5426083 0.0036598493 0.8966088 0.12299822 -0.2499874 -1.1099731 0.41697907 -0.3075301 -0.08956998 -0.20065482 -1.1605862 0.3211604 -0.029764744 0.2453352 0.22269943 0.5563902 0.016332045 -0.06239701 -0.5006648 -0.6542738 0.17405714 0.27490777 0.20033771 -0.59487665 -0.009898548 0.17701364 0.81655616 0.28177714 -0.046195507 -0.14654775 -0.91162336 0.63372433 -0.09539952 0.47933632 -0.07598978 0.4435151
talk 0.25406414 0.08380544 0.16093232 0.23784024 0.5121397 0.07066387 0.2555775 -0.19353014 0.59780514 0.4136561 0.03711815 -0.31630462 0.020623693 -0.33099633 0.17677899 0.3332292 -0.41743392 0.31432 -0.30698943 0.49835178 0.054842573 0.42797503 -0.3397603 -0.4974209 -0.2566274 -0.12972449 -0.29868728 0.054298457 0.055713806 -0.26169622 0.20230715 -0.22679372 0.028042983 -0.004021646 0.17321819 -0.07293775 0.041291174 -0.40781507 -0.1066315 0.13395377 -0.17884938 0.447473 0.099433936 -0.2524706 -0.06712269 0.16034287 -0.1250007 -0.16422662 -0.17707875 0.24712895 0.3017351 0.1279058 -0.017732346 0.057936627 -0.26664802 -0.15850896 0.66782844 -0.06954836 -0.48464862 0.14994691 -0.5238036 -0.097925626 0.14392105 -0.16190985 0.51932687 -0.07697615 -0.024419736 0.037673336 -0.093804635 -0.11825677 -0.25963876 -0.005688792 -0.75388074 -0.29615137 0.09107659 -0.2710894 -0.19215289 -0.2389234 -0.36123303 -0.06807661 0.0929458 0.14961167 0.174609 0.5608235 -0.0029125137 0.36914596 0.23468184 -0.518448 0.28273392 0.03029767 -0.50594044 -0.14819078 0.52688026 -0.54872584 0.31035337 0.2417603 0.104053654 -0.37860283 -0.2306917 -0.2021654 -0.2370106 0.15923555 -0.22224039 -0.010829011 -0.15519816 0.12623101 -0.10324202 0.59717137 0.036938272 -0.17001806 0.17991923 -0.22960132 -0.08867972 0.25873414 -0.30924374 -0.13970542 0.22453254 -0.007037294 -0.034197956 0.34079614 -0.35125878 -0.38426813 0.08549233 0.015111506 0.07201657 -0.044077292 -0.15966558 -0.30550864
today 0.11799269 -0.24616972 0.12991351 0.20837043 0.43952456 -0.13400893 0.38799247 0.21522701 -0.12451314 0.4262856 0.37505555 -0.052992735 -0.115747765 -0.24239722 0.41848704 0.07667969 -0.36246455 -0.05283803 -0.37428242 0.2763877 0.16223505 0.09010613 -0.29604486 -0.36192107 -0.59944725 0.09390667 -0.31122997 0.14062521 0.09492452 -0.061342802 -0.16060895 0.036274668 0.071780495 0.20453742 -0.29851753 0.10738166 0.059965782 -0.28141496 -0.106669575 0.17855057 -0.07994041 0.25125384 -0.14705661 -0.013263504 0.2644962 -0.015206764 -0.33213794 0.04094158 0.14976873 0.123713195 0.016321346 0.25543725 -0.10093791 0.09919444 0.14478594 0.025769636 0.36455166 -0.25569 -0.18229513 0.1708561 -0.3552784 0.14055037 0.40128326 -0.0071553253 0.33143064 -0.118742354 0.30428624 0.07869598 0.080387324 -0.28393227 -0.0108751375 -0.17100726 -0.32030937 -0.18268451 0.13549626 -0.0019749328 0.04452221 -0.067772985 -0.43649656 0.25884777 -0.1170995 -0.054044496 0.036244083 0.5027934 0.25848663 0.40164185 0.26832747 -0.49746063 0.19544184 0.018698208 -0.27690002 -0.071544394 0.27993283 -0.21904558 -0.045150686 -0.00964016 -0.09632697 -0.38915431 0.0017536841 -0.19364356 -0.29297736 0.18689291 0.14935675 0.04932946 -0.04430342 -0.033264086 -0.38381886 0.44311017 0.18108952 -0.26930258 0.027531303 -0.3410591 -0.020695409 0.25618958 -0.17398386 0.14685364 -0.041785017 -0.2570841 0.17294446 0.13509832 -0.30025467 -0.11460844 0.11545132 -0.091946155 -0.18015267 -0.07935554 -0.25290933 -0.10606843
