1729 128
would 0.8225327 0.48310995 -0.0025427442 -0.2774589 0.18030529 0.118984655 -0.08670859 -0.0048686382 0.23859699 0.28795597 -0.18325192 -0.33363038 0.38994706 -0.68255734 -0.020508306 -0.14227606 -0.31382865 0.10898033 -0.83522075 0.2777115 -0.6478985 -0.25150928 -0.70271295 -0.43790817 -0.39320466 0.6522159 -0.18228646 0.48761985 -0.1285306 -0.08338491 0.8202582 -0.11111803 -0.38790452 0.90689176 0.31275657 0.53461075 0.32676706 -0.21838461 -0.0032550592 0.3039509 0.5613285 0.77598065 -0.15387376 -0.949307 1.0453615 -0.44605193 -0.44823825 0.39176413 0.024337769 0.35336864 0.2715418 0.13752773 0.35918102 -0.21770112 0.011114631 -0.38431 0.14705847 -0.468365 -0.12702695 -0.004579571 -0.43813884 0.58594346 -0.28669742 -0.95504344 0.42269024 -0.12693812 0.57328635 -0.10692837 0.2359003 -0.8212999 0.115553595 -0.19814654 -0.1391689 -0.3351294 0.76122093 0.27379534 -0.106498875 -0.6535153 0.07843525 0.07684151 -0.33865845 -0.3689821 0.23684922 0.41502735 -0.43694216 0.6049607 1.411437 -0.48911157 -0.37876937 0.42052716 -0.37598556 -0.35069558 0.7816323 0.56983 -0.5490865 0.13505538 -0.20711604 -0.20148379 -0.071673155 0.026915034 -0.21571483 -0.71310145 0.030152429 0.16758612 0.40700302 0.5003972 -0.29618245 0.13712615 0.67509526 -0.61032027 0.22322534 -0.12522435 -0.17921492 0.009181858 0.07898848 -0.23300774 0.12920575 0.80295455 0.6864103 0.46679816 -0.53900135 -0.57350945 -0.36740616 0.37953448 -0.30786088 0.14970866 -0.3226267 0.55808014
eat -0.15864743 -0.14734958 0.26921758 -0.012118195 0.6383287 0.40212303 -0.46342278 -0.5536626 0.2580822 0.8421532 -0.27796853 -0.48143277 0.17484103 -0.51396674 0.02438927 0.5444446 0.052795216 0.28047284 -0.54141957 1.0330744 -0.78729534 -0.04629457 -0.6382684 -0.75264686 -0.6168321 0.096980974 -0.18292998 -0.0049421056 -0.5147316 0.4192186 0.45362127 0.36383983 0.4316948 0.85557437 -0.08101799 0.18116052 -0.046845965 -0.03640029 -0.42277518 0.09826555 -0.23966253 0.46255437 -0.22552085 -0.8167187 0.14663376 0.4049278 -0.6594664 0.68153954 0.26612085 -0.18624358 0.2893427 0.05820885 0.34111658 0.31535944 0.086019546 -0.44321242 0.2739097 -0.3526053 0.030006254 -0.3640556 -0.3107633 0.69801974 0.38746923 -0.54867584 0.46316567 0.54899955 1.2285696 -0.15459761 0.2695051 -0.20567015 -0.05732008 -0.5154737 -0.0057206075 -0.55507106 0.43966088 0.20881139 -0.34411308 -0.24240315 -0.44684458 -0.25570324 -0.52926904 0.053161833 -0.101879634 0.9033525 -0.11088899 0.37669384 0.54114676 -0.1732046 0.043821577 0.3268073 0.18342797 -0.28279272 1.0655022 0.20975903 -0.0949941 0.5075831 -0.56510836 -0.24063487 -0.12955962 0.8875915 -0.15719756 0.4509421 0.05863362 -0.10464012 -0.08811777 0.3611814 -0.88170105 0.63870746 0.3045843 -0.15025133 0.31811067 0.15132871 0.083787866 0.14068435 -0.5039072 -0.22177298 -0.008558098 0.39878213 0.40597 0.12343435 -0.43846437 -0.25226513 0.1332485 -0.46490663 -0.4909682 0.19913428 -0.025043815 -0.20261258
help -0.27935305 -0.055826183 0.44660062 0.7107058 0.7528792 0.44514737 0.30010617 -0.4812735 0.53835773 -0.17281957 -0.2630452 -0.19376542 0.50276405 -0.16354264 0.43009934 0.7877909 -0.14824098 0.25280488 -0.07762806 0.6593296 0.48167744 0.118720554 -0.5872314 -0.27349958 -0.46077746 -0.15811919 -0.36847848 -0.6124448 0.31385288 0.15693726 -0.37049446 0.2099987 0.8630746 0.13946442 -0.26056945 0.13511424 -0.12750758 -0.04104559 0.11211898 -0.30483896 0.21942797 0.08027811 0.09008756 -0.41155756 0.44024923 0.02481155 -0.21135564 0.35645527 0.15360644 -0.39625472 -0.3121192 -0.0038088202 -0.033943582 0.12956056 -0.43437782 -0.3623201 -0.17171203 0.13801455 -0.061162833 -0.5351196 0.09653522 0.13971132 -0.25581923 0.8572161 1.0735388 -0.5803835 0.34496185 0.01260622 -0.05161104 -0.46685958 0.052192483 -0.068610184 -1.1499885 -0.730597 0.2993593 -0.81571305 -0.36167768 -0.26531294 -1.2021511 -0.13087627 -0.3852025 0.39307812 -0.013159492 -0.052377544 0.54368275 0.27415562 -0.036280908 -0.5112771 0.12027495 0.07634747 0.09826102 0.09236364 0.65455705 -0.09513898 0.17858239 0.41288805 -0.4016326 -0.8161295 -0.46076247 0.3458773 -0.0072271153 0.2456492 -0.24741788 -0.26648152 0.08978667 0.25049335 -0.5125999 0.3325832 0.49708912 -0.65987617 0.091032095 -0.18049552 -0.12633917 0.43318036 -0.08645856 0.25982344 0.21635121 -0.03858686 0.876627 0.58692133 -0.3512024 -0.22430024 -0.040742222 0.022873644 0.49192223 -0.5216584 -0.57694334 -0.43532157
like 0.4959748 -0.6404224 0.3292321 -0.27665573 0.43569398 -0.10346797 0.17506939 -0.006538322 -0.5713798 0.029711876 -0.20916905 0.10598337 -0.39685285 -0.58499855 -0.16973004 -0.21509379 -0.44833118 0.30141813 -0.2559 0.096388586 -0.44004434 -0.7206389 -0.25718448 -0.6759479 -0.53548545 0.6437864 -0.32985643 0.6012184 -0.17435169 -0.06264929 0.2111804 0.32992625 0.020940904 0.5015788 0.010458792 -0.33682072 0.8130392 -0.4285779 -0.50201577 0.43978947 0.3857163 0.90466464 -0.040134728 -0.6535082 0.34242034 -0.23599151 -0.06463177 -0.13435216 0.07121963 0.36166885 0.72938085 0.29865238 0.5722669 -0.0150627615 -0.6656906 -0.16669816 0.42510006 -0.3576617 -0.037332535 -0.2620493 -0.069032416 -0.1651434 0.78602654 -0.5171144 0.6652488 0.082467854 0.24712852 0.09728745 0.29334056 -0.52557623 -0.030311164 -0.7423734 -0.34793022 -0.39097214 -0.03945557 0.44234368 -0.5745405 -0.72114724 0.28693518 0.18066119 0.070405506 -0.4837825 0.51370114 0.65170497 -0.16799845 0.20788853 0.8242919 -0.6795551 0.3464945 0.23921882 -0.16049461 0.11674456 0.39996362 -0.049735304 0.095803775 0.11353915 -0.09004065 -0.16177014 0.11226916 -0.8026228 -0.24228343 -0.14508606 -0.026657786 -0.4916346 0.36371386 0.08712317 -0.282804 -0.2961473 0.55994266 0.1295748 -0.022013517 -0.27621883 0.15057954 -0.3373323 -0.11376061 0.03616819 0.62189406 0.453741 0.1036638 0.13253497 -0.3155011 -0.67108554 -0.386675 0.029190721 -0.7499545 0.30309948 -0.3204595 0.3455806
want -0.4984211 -0.39341983 0.19666176 0.5317565 0.534883 -0.12626858 0.3674728 -0.6473073 -0.31398344 -0.069323115 0.25682265 0.073040344 -0.3752469 -0.43500763 0.20702164 0.73265034 0.51964784 -0.02312668 -0.61159116 1.3152758 0.08030996 -0.064666 -0.37009346 -0.5528102 -0.7892463 -0.11480518 -0.7960232 0.22533272 -0.12064861 0.09696822 0.344294 -0.05843826 -0.13827382 -0.107182 -0.37878412 0.3259905 -0.5073369 -0.52872777 -0.71828514 0.09690792 0.16634554 0.19593404 -0.22240913 -0.24916334 0.13473481 -0.33145222 -1.1235696 -0.5266646 0.19903079 -0.35903454 0.50985366 -0.20606437 0.68501085 0.19021244 0.34270447 -0.34356526 -0.034395795 -0.14204437 -0.46838176 -0.1426383 -0.81067127 -0.29688486 -0.057770777 -0.2051943 0.501457 0.086095214 0.21844313 0.24038288 0.4778459 0.11737193 -0.0470018 -1.0674648 0.44631764 -0.703568 0.5995025 -0.3047273 -0.14853013 -0.2599581 -0.9998781 0.1689457 -0.9542668 -0.2401814 -0.5241438 0.17347573 0.2540663 0.35363504 0.45807275 -0.049882937 -0.010120764 0.89515096 0.107092515 -0.4059383 0.29664508 -0.009961002 0.33933628 0.36777675 -0.30451977 -0.7917293 -0.08059304 0.17295362 0.21457703 0.18547657 -0.28338236 -0.8491355 0.1571274 -0.030567085 -0.3257574 0.39190552 0.7905295 -0.47832146 -0.02211846 -0.3558596 -0.005070045 0.38869128 -0.81351125 -0.12200073 0.55639225 -0.04989577 -0.26072982 0.07968663 -0.5707576 -0.65929425 0.119289234 -0.11705949 -0.45549375 0.04825847 -0.48047504 -0.13446352
go 0.7521631 -0.21359512 0.29212135 0.2964888 0.5946198 -0.36096764 -0.2833585 -0.1314757 0.39979747 0.20836458 0.15293954 -0.06325797 -0.6409343 -0.12912592 -0.057194617 0.1110927 -0.1435154 0.125557 -0.6931811 0.8413876 0.033303954 -1.0422314 -0.93645316 -0.66948867 -0.39697793 0.6485803 -0.39064664 0.6387754 -0.3481842 -0.24306977 0.17165664 -0.021455962 -0.56186557 0.8092849 0.45860624 0.23101602 0.3258989 0.089157164 0.25662044 0.24972382 0.20609918 0.6860615 0.011554665 -0.3730926 0.3056368 -0.13717677 -0.39948672 0.28655353 0.20076507 0.19413431 0.2023116 -0.15096676 0.35298973 0.59916484 -0.09735349 -0.104976475 0.032719612 -0.2833561 -0.07229567 0.03163847 -0.3015754 0.112706766 0.44703138 -0.50692767 0.33442628 -0.07853948 0.07584537 0.53793687 0.32662117 -0.22886157 0.0022531876 -0.95613915 0.21434616 -0.46694222 0.59218097 -0.038708422 0.10897126 -0.72669345 0.06575689 0.109948404 -0.3752982 -0.35473278 0.07870891 0.24965551 -0.041868422 0.8141291 1.1501925 -0.46984202 -0.0024084817 0.31468603 0.018134205 -0.66797185 0.2618193 0.17523834 -0.1547745 -0.03148152 -0.1114662 -0.5551472 0.02795467 -0.1359326 -0.21441527 -0.19360855 -0.0044685695 -0.15509267 -0.011743901 0.41058695 -0.39274457 -0.034721963 0.43758503 -0.62679976 0.22633705 -0.053314272 0.28506348 -0.50128806 -0.19042708 -0.19978197 0.5723087 0.2973439 -0.022915402 -0.2378778 -0.46082908 -0.14240097 -0.13878354 0.03419297 -0.1356966 0.20484021 -0.02932649 0.21089256
eating -0.7139042 -0.9464319 0.59901184 0.65676093 1.4531417 0.489415 -0.34482154 -0.24789794 0.8913665 0.5457197 -0.20325255 -0.5447976 0.25431553 -0.39673564 0.67334265 0.8648789 -0.0975429 -0.32538062 -0.389779 1.577604 -0.30643865 0.54920197 -0.77582926 -0.88599414 -0.9374534 -0.22064142 -0.597207 -0.557088 -0.3790117 0.6278638 0.041037716 -0.17809746 1.4704796 0.62598634 -0.42702225 0.15357529 -0.24446088 0.030372687 0.13701922 -0.13211331 -0.14505675 0.25157708 -0.47201565 -0.30119088 0.15534575 0.44878992 -0.65259475 0.8920971 0.51256233 -0.36793536 -0.09784106 0.15065822 -0.15597305 0.4924831 0.3591507 -0.59470195 0.21345006 0.082144454 0.18934605 -0.18636812 -0.31272718 1.1402978 0.01961494 0.1117687 0.8974345 0.25956926 0.8171379 -0.14191766 0.017932512 -0.18988074 -0.44762623 -0.38504532 -0.77645034 -1.0713109 0.22023539 -0.3835738 -0.16912411 0.026754947 -1.3290297 -0.37426078 -0.7295666 0.6827098 -0.1093769 0.6234554 0.20917729 0.9687433 -0.54338515 -0.079239406 0.039031543 0.22754182 0.17498696 0.104632996 1.0944214 -0.16970453 0.87102145 0.5880313 -0.4499094 -0.3542804 -0.36366186 1.3054879 0.009853644 0.68529284 -0.3020274 0.26811793 0.35087714 0.49116066 -0.9264406 0.9551174 0.19604518 -0.62099904 0.4266984 -0.067611404 0.24405274 0.8742504 -0.10347094 -0.08896876 -0.27471733 -0.28748032 0.90598255 0.55336 -0.34858993 0.0645916 0.25735867 -0.19015922 0.06175653 -0.7042468 -0.55620414 -0.28261393
get 0.11847899 -0.28227 0.020708118 0.37752688 0.39195508 0.056753576 0.05659061 -0.44503564 -0.064547695 0.009488727 0.09905798 0.26097202 -0.3605709 -0.42766735 0.243781 0.5007368 0.44394854 0.24258186 0.09302784 0.03670211 0.20867975 0.20303665 -0.7622938 -0.5839939 -0.47073227 0.29385892 -0.71568716 0.17077348 0.17337595 0.18904047 0.021278428 0.030893914 0.35860464 0.15694797 0.104089506 0.11578554 0.24439321 -0.4688735 0.118150845 0.3768255 -0.020201346 0.29184854 -0.13058747 -0.18975686 0.34295058 -0.180029 -0.5591814 -0.0032617562 0.047439627 -0.035739303 0.39414215 -0.47811714 0.23817785 0.34627497 -0.1804125 0.150332 0.065698914 0.36881927 -0.26863953 -0.22807677 0.23340988 -0.20360672 -0.014660879 0.07671056 0.6381974 -0.50503695 -0.050824933 0.21171203 0.04011664 -0.1460961 -0.061640337 -1.1032385 -0.12976022 -0.33642307 0.05698803 -0.3690892 -0.26023328 -0.5309378 -0.48914182 0.02462204 -0.36972436 -0.5029474 -0.110543445 0.29411346 0.32189602 0.20531066 0.4621257 -0.37024665 0.14415084 0.33637953 0.02735263 -0.019992558 0.249997 -0.3657837 0.30863523 0.0016173818 -0.20197141 -1.0237167 -0.14113857 -0.26211798 0.058547273 -0.10717894 -0.24200815 -0.23729151 0.082445666 -0.20380948 -0.44924086 0.52104574 0.8236884 -0.3048936 -0.022789476 -0.34943628 0.10124676 0.1227374 -0.5114506 0.115560345 0.67547977 0.4727485 -0.07815011 -0.27621543 -0.33267754 -0.20190938 -0.09187917 -0.10933803 -0.6277301 0.049964063 -0.2884903 -0.06092036
disorder -0.8050096 -0.8434653 0.71734965 0.46596414 1.0724701 0.9068791 -0.29786938 -0.24144688 0.14912595 0.5237801 -0.37064674 -0.39405492 0.1964416 -0.37577122 0.486284 1.0056065 0.1655729 -0.03774496 -0.6223341 1.399638 -0.08641461 0.7174138 -0.5769109 -0.59569335 -0.9159159 -0.34993455 -0.36252543 -0.5130519 -0.53383803 0.5442684 0.19341852 -0.08925133 1.1597626 0.60110503 -0.4046647 0.3771878 -0.2861607 0.13999103 -0.16642493 -0.089556694 -0.20076501 0.37515202 -0.56200576 -0.5766001 0.3196199 0.3097413 -0.77289504 0.45561278 0.36274543 -0.88470685 -0.07336027 -0.093055055 -0.030080996 0.2385559 0.24634963 -0.9885912 0.21318215 0.1324512 -0.33451295 -0.5516948 -0.5901087 0.8788357 -0.1394102 0.040033177 0.576021 0.376659 1.2898861 -0.3424367 0.18312399 0.016443584 0.11518999 -0.23583001 -0.4447498 -1.1319709 0.34209394 -0.3802793 -0.2679782 -0.055112243 -1.4671713 -0.47386187 -0.5462505 0.73612285 -0.117024355 0.6431038 0.17128962 0.86700535 0.0040226737 0.13165225 0.074008696 0.17673488 0.0032033885 -0.08234641 1.0222844 -0.024831729 0.51030636 0.4404345 -0.3752375 -0.46175197 -0.28743124 1.3225838 0.08104404 0.5793917 -0.30607846 -0.016802454 -0.052926403 0.40919876 -0.94234186 0.7838381 0.38546428 -0.43171683 0.56521034 -0.2914506 -0.21351233 0.983495 -0.20350252 -0.258341 -0.38228768 0.04026431 0.5518981 0.2656605 -0.65645295 0.11228214 0.3394816 -0.31628528 0.118016355 -0.26948613 -0.43865442 -0.5202875
weight 0.615211 -0.5715111 0.3278893 -0.083463535 0.8589307 -0.6077463 -0.22608164 0.055025343 0.38536933 0.42908078 0.7098166 -0.15430348 -0.57700694 -0.7338623 0.55281126 0.004872833 -1.1565832 -0.44204205 -0.44592243 1.8731072 0.23698594 -0.88431644 -1.2033992 -1.0965875 -0.3573919 0.91369283 0.41709277 0.6466627 -0.8410747 -0.68094116 0.66350377 0.115731336 -0.70920974 -0.028258994 0.026800623 0.25332093 0.2573865 -0.02589554 -1.3317008 0.50858074 0.94024587 1.2034168 -0.4912722 0.6411997 0.8477192 -0.3884801 -0.3293297 0.7345429 -0.70929193 0.60992765 -0.044841655 0.19045559 -0.4033085 1.0101289 -0.7351734 0.37816414 0.71569806 -0.73013943 0.5207163 0.6547955 -0.24586767 -0.28748253 1.1818157 -0.3707064 0.3781753 -0.59136224 -0.9359679 1.0722209 -0.15957579 -0.3412819 -0.47608128 -1.2752043 -0.23491819 -0.7978088 0.7929271 -0.48332462 -0.22168088 -0.49029794 -0.24592815 0.100414425 -0.6691556 -1.0726858 0.14487989 0.26963198 0.2518673 0.8402791 1.1044896 -0.21817952 -0.01813042 0.83761925 0.12281841 -0.23756842 0.12031155 -0.11657669 0.46877873 0.048994318 0.11837716 -0.028008567 -0.10111372 -0.67144895 0.103641696 0.036904156 -0.05928615 -0.72757876 0.3790661 0.24181604 -0.19053526 -0.0111561455 0.5682196 -1.3806959 0.83986306 -0.76993173 1.2191615 -0.15528227 -0.076588735 -0.19156507 0.94459015 -0.72066945 0.21983999 0.66492766 0.28638986 -0.770287 -0.626009 0.8069011 -0.8032514 -0.06646335 -0.20661478 0.8582103
study -0.31261808 -0.8049965 0.85902435 0.63756484 1.2809782 0.17075689 0.62460965 0.15384325 0.13686076 -0.39969635 -0.29003903 -0.6600968 -0.006224352 -0.34648836 0.5391325 0.4862455 -0.6722679 -0.30536354 -1.1379333 0.5065002 0.8478285 0.4571465 0.41312492 -0.23261446 -0.4215662 -0.028709983 -0.57999533 -0.6558415 0.19928782 -0.5167597 -0.29403865 0.005279493 0.7595262 0.16278721 -0.17623541 0.03144999 0.23442757 0.25390813 0.35792506 -0.3420835 0.26536247 0.88450706 -0.09903409 0.32314 0.5699161 0.047305893 0.08014359 0.093951195 -0.01276012 -0.46391258 0.59939164 0.7296502 -0.5416335 -0.25087667 -0.20001897 -0.74900323 0.4904876 -0.4452428 -0.94924533 -0.17583258 -0.43925086 1.0406523 0.20293501 0.8563065 0.25383803 -0.635247 0.5288837 -0.46555206 -0.42903894 -1.107234 -0.16247134 1.1299634 -1.6722145 -0.7237996 -0.059908275 -0.4548087 -0.090869755 0.21834126 -1.0783802 -0.16285901 -0.29549378 0.6008081 0.69263226 0.54493123 0.12250169 0.9929704 -0.23300336 -0.5866318 0.13104676 -0.20407864 -0.54351294 0.14664923 -0.15067913 -0.13498658 0.5828713 0.7903646 -0.20838639 0.1543662 -0.39668462 0.29985428 -1.072471 0.097420424 0.03575202 0.5683841 0.17003413 -0.16827461 0.59708816 -0.11862464 -0.15910715 -0.08745504 0.28490525 -0.43752438 -0.94737244 0.76995856 0.83944124 0.03212572 -0.6144552 -0.48634037 0.4783699 0.5015093 -0.22751808 -0.59965515 -0.18745254 0.6129166 0.5548641 -1.1457193 -0.7357557 -0.5167702
think 0.42920002 0.03622348 -0.083931215 0.104517534 0.07804964 0.10254784 -0.16181432 -0.39520875 -0.5437739 0.7337989 -0.094159305 -0.1243329 -0.44814083 -0.53391993 0.17108072 0.4941067 0.26353288 -0.124467894 -0.50853115 0.7584305 -0.1809129 -0.14771056 -1.0382205 -0.4198969 -0.2626761 0.32554963 -0.10456985 -0.074220285 -0.24217463 0.2460654 0.34257126 0.2616851 -0.057645425 0.46867204 -0.22363763 0.45931906 0.00225888 -0.5601495 -0.37596524 0.5724454 -0.06659242 0.2481071 -0.27559265 -0.52141535 0.57591784 -0.1381218 -1.057672 0.100837484 0.2239194 0.019123927 0.19028765 -0.40312874 0.37756747 0.24953312 0.06584887 -0.21166962 0.34443334 -0.0727842 -0.34648004 0.076215886 -0.5367163 0.13035123 0.10267622 -0.35829028 0.37593013 0.16642627 0.4456435 -0.19945401 0.25627136 -0.006722607 0.4520955 -0.91175926 0.36982867 -0.7594789 0.560647 -0.016955633 -0.018467559 -0.5397373 -0.38489476 0.022562142 -0.47208366 -0.48142835 -0.20877333 0.4219259 -0.2220574 0.34915844 0.85047424 0.15208471 -0.10173579 0.92708683 0.07809384 -0.84543097 0.39792728 0.15638097 0.038349442 0.41730845 -0.34610975 -0.7530799 0.04744535 -0.13277772 -0.022197552 0.47593957 -0.14995079 -0.43087158 -0.019990018 -0.06850977 -0.6018695 0.06752216 0.54421335 -0.03485534 0.15347344 -0.09215547 0.010771996 0.23863041 -0.92792916 0.03948036 0.41205916 0.57932174 -0.038917635 -0.34965688 -0.8166883 -0.50433654 -0.08194514 -0.57826626 -0.60719234 0.50969875 -0.16791497 -0.42727312
people -0.353884 -0.52712446 0.3877739 0.40992412 0.7514047 0.22540665 0.4190644 -0.015465088 0.045068312 0.008784739 -0.0177282 -0.10128861 -0.18017332 0.07938414 0.70743984 0.8434905 0.396358 -0.17700037 -0.41047764 0.39515728 0.107828915 0.29177254 -0.4195303 -0.5259282 -0.34026554 0.008546879 -0.58851784 -0.4379857 -0.18592988 0.15516545 -0.04683287 0.27335876 1.07445 0.22784698 -0.3954431 0.65240145 0.0122509105 -0.40660426 -0.19239578 -0.21254149 0.19159798 0.30834672 -0.24896997 -0.24710913 0.32859835 -0.13862415 -0.06957141 -0.0022929604 0.24833713 -0.58752817 0.26613444 -0.20948553 0.23463082 -0.038125355 0.058068708 -0.38211712 -0.08833263 0.25362357 -0.39148402 -0.12936452 -0.2674374 0.30349907 -0.24365097 0.07989685 0.31327498 -0.11443774 0.633576 -0.010882951 0.17265797 0.0814661 0.23799938 -0.42134058 -0.47019354 -0.892759 0.44109422 -0.4309533 -0.10743436 -0.509787 -1.024453 -0.28603065 -0.6463814 0.11225985 -0.041302845 0.061330933 0.14666466 0.3989897 -0.009874825 0.13802189 -0.13023579 0.14117977 0.017570209 -0.23923573 0.3538564 -0.38307008 0.5117621 0.51989484 -0.33563325 -0.5308635 -0.23015606 0.2592013 -0.14029357 0.22169365 -0.2694089 -0.36461723 0.15589336 -0.10574533 -0.6368566 0.1185952 0.4082092 -0.46205768 0.25826713 -0.22304876 -0.20378545 0.07030018 -0.43773434 0.044084657 0.18089835 0.11336026 0.1979824 -0.010062034 -0.48351726 0.023687344 -0.1466915 -0.27408773 -0.12724984 -0.19524562 -0.41716436 -0.17707698
know -0.13788429 -0.95686567 0.36772293 0.49362963 0.70772964 0.13833886 0.34953132 0.24163139 -0.1347847 -0.10994768 0.023504954 0.014559515 -0.3368742 0.14092022 0.5913653 0.5698743 -0.06156678 -0.23497242 -0.5233614 1.2233101 0.6265275 0.16219896 -0.59306234 -0.46280822 -0.43967965 0.043401208 -0.254356 -0.27721545 -0.34006196 -0.26974925 0.3953186 -0.004263676 0.7333645 0.39768472 -0.28933164 0.51206285 -0.20194142 -0.5649476 -0.5022784 0.07863877 0.58176625 0.1278868 -0.39424565 0.15129822 0.6843692 -0.54541844 -0.20582147 0.07261401 -0.1775644 -0.3459411 -0.09347037 -0.021900889 -0.0009351219 0.17290615 -0.17225066 -0.4760294 -0.098537594 0.10751063 -0.2599206 -0.15069324 -0.4581315 -0.0445295 -0.077448905 -0.11226947 0.35790327 -0.26072055 0.015450008 0.30887678 0.2487758 0.0045263856 0.019833928 -0.34744033 -0.08716196 -1.2844242 0.6178727 -0.8108121 -0.10176231 -0.7524765 -1.0119843 -0.13992123 -0.573845 -0.28812027 -0.10752522 -0.001706485 0.47216213 0.36837223 0.43222198 0.21591067 -0.15397131 0.60444397 -0.09800005 -0.09461053 0.033567827 -0.23747094 0.7805303 0.46007043 -0.2924804 -0.58386904 0.0792317 -0.10084812 0.34865397 0.21399863 -0.33850077 -0.71495444 0.102437146 0.28701997 -0.3116418 0.2665222 0.71271086 -0.7462271 0.3161937 -0.32187927 0.08295919 0.34847435 -0.06435552 0.22095738 -0.025619613 -0.25078955 -0.06292176 0.4247731 -0.16446084 -0.45774636 0.14714934 0.04681031 0.13288765 -0.5053331 -0.6728717 0.12004306
feel 0.23527354 -1.007087 0.19795114 0.084406875 0.4720526 -0.090092935 0.12246933 0.32446173 -0.54661405 0.21580167 -0.008447846 -0.12868358 -0.52532005 -0.54934555 0.18050477 -0.1284991 -0.82759756 -0.048995238 -0.15451327 0.31300935 -0.26263422 -0.15794873 0.109512195 -0.3116812 -0.47660127 0.5202517 -0.18411678 -0.02885012 -0.8515704 -0.30058408 0.35403582 0.1330626 0.3104693 0.27579176 -0.26719877 -0.42613652 0.587916 -0.3950221 -0.40616706 0.51665956 0.5110652 0.47614804 -0.5069862 0.016366037 0.19246797 -0.27929652 -0.03916114 0.24928835 -0.40023234 0.2798749 0.5797135 0.38439983 0.10145277 -0.07997632 -0.70144147 -0.3144987 0.5787721 -0.2334025 0.035273295 -0.22502139 -0.20583941 -0.206949 0.61417204 -0.4755216 0.47307542 -0.20414875 0.07646769 0.0999709 -0.2124516 -0.2663682 -0.011177997 -0.37527207 -0.30263028 -0.7015388 -0.037175365 0.18594947 -0.41307524 -0.71153814 0.099928424 0.19966863 -0.32489145 -0.42117178 0.55702245 0.5355244 -0.008961957 -0.08052817 0.3877613 -0.24473374 0.10413879 0.64674777 -0.058540203 0.45074734 0.24978963 -0.3288361 0.60775626 0.24966115 -0.1735538 -0.061529797 0.2825833 -0.7047218 -0.34709933 0.09744788 -0.20780481 -0.266391 0.7091389 -0.34407452 -0.13400334 0.0789761 0.21406129 0.120110184 -0.19890197 -0.39159247 0.39841545 -0.09432013 0.067978136 0.49577293 0.65367043 0.19469875 0.477942 0.19820796 0.06785483 -0.7556556 -0.38873106 0.46413642 -0.7658855 0.13203631 -0.31827277 0.67823404
time 0.34250972 0.24637745 0.035565823 0.005885647 0.24872483 -0.039443657 -0.12736842 -0.34207502 0.12519696 0.31676176 -0.035789598 -0.3378199 -0.030786142 -0.6852051 0.046794225 0.07654999 -0.44707268 0.07815986 -0.33453795 0.3134163 -0.17604437 0.00071965833 -0.32451573 -0.44440696 -0.51156443 0.24174273 -0.20109265 0.35201052 -0.5543715 -0.3758938 0.12674832 -0.30307788 -0.020533994 -0.12615286 0.70968574 -0.33305928 0.049603876 -0.20218489 -0.3373509 0.31017467 0.13981324 0.322669 0.0571728 0.13881774 0.5015176 -0.061167013 -0.4602629 0.29761162 -0.41581523 0.26732576 0.3551402 0.18796189 -0.016797561 0.091688216 -0.000330085 -0.037440535 0.42256516 -0.5294967 0.009250119 0.017890917 -0.2474374 0.35570222 0.33012402 -0.26715228 0.40037397 -0.09108602 -0.126686 0.347792 0.021144027 -0.6157639 -0.19306648 -0.10444436 -0.5303043 0.1522521 0.21420652 0.12438859 -0.2136231 0.028505038 -0.24601765 -0.07927697 -0.20611566 -0.057613213 0.22904862 0.45837146 0.16189705 0.54661024 0.37225437 -0.53456116 0.08727044 0.014403393 -0.21543187 0.1933807 0.053046666 0.18941756 -0.049019147 -0.08432496 0.19252403 0.4358046 -0.36000213 0.056749526 -0.1089871 -0.22861578 0.17636235 0.46570686 0.35548422 0.044239014 0.3856613 0.33227208 0.33426067 -0.3307871 -0.09428615 0.26826692 0.121423215 0.19829571 0.03418137 -0.53525704 0.36985582 -0.12793247 0.205086 0.37979236 -0.09561418 -0.49225938 -0.066489555 0.36625162 -0.45903385 0.03351345 0.09046357 0.30118093
http 0.80001837 0.19175974 0.43292588 0.8394991 0.6480738 -0.40117964 0.5935468 -0.4795991 -0.028536351 -0.37319642 -0.5362817 -0.7253698 0.43089822 -1.089611 0.82167524 1.0170987 -1.4773991 -0.49524528 -1.2095752 -0.04662038 1.0419726 1.3058593 0.29111552 -0.9984338 -0.52428454 0.573373 0.08337306 0.3305594 1.3409787 -0.8104572 -1.0899059 -0.25575823 -0.11256703 -0.647014 -0.29249382 0.9765855 1.4661193 -0.17880428 1.2614412 0.6134816 -0.5331792 0.721652 -0.24057882 0.5894613 1.2540268 0.9970225 -0.27737272 -0.25120604 -0.5955686 -0.11409906 0.9116326 0.6766589 0.17443772 0.44316253 -0.8620666 0.21113993 1.5170932 -0.1636784 -0.7048351 0.11560891 -0.30875993 0.81049746 0.6279931 1.7055094 1.0469286 -0.59544885 0.1747329 -0.7610105 -1.0615885 -1.254607 0.33800977 1.1234598 -2.889227 0.25307623 -0.111190826 -0.018238995 -0.39961895 0.51359785 -0.06301117 1.155573 0.56334347 0.1582914 1.0367978 1.2052293 -0.051751863 0.95713615 0.0068640336 -0.9996849 0.18172036 -0.5316714 -0.51048845 -0.063747585 0.48379925 0.21395662 -0.014288852 0.31453753 -0.88033164 -0.73928213 -0.8751107 -0.7291098 -1.8686292 0.31905574 -0.2874377 1.35727 0.001211247 -0.64520246 1.0372179 0.28695258 0.11510014 -0.009792774 0.15921786 -0.94632375 -0.86579114 0.6249145 0.34687468 0.20943612 -0.20355798 0.21862069 0.8274313 0.18325715 -0.117773905 -0.7386165 -0.93038774 1.7985969 -0.2142393 -1.1753895 -0.33201504 -0.95919865
anorexia -1.0057468 -0.469204 0.19071285 0.72942656 1.1748282 0.57825845 0.18997796 -0.41424045 0.35560846 0.26859066 -0.45311373 -0.010691827 -0.22090273 -0.29434222 1.061868 1.225804 0.11127277 -0.08454402 0.49082 1.2767798 0.4702117 0.64666337 -0.9033357 -0.9667943 -1.2161764 -0.13553758 -0.85384375 -0.87447405 0.08641892 0.12370265 -0.49674085 -0.17668587 1.6130533 0.04287431 -0.15089211 0.053364776 -0.5765604 -0.7374418 0.02392225 0.05712622 0.21361537 -0.44512907 -0.5300045 0.04301489 0.726205 0.033155087 -1.3160928 0.3123948 -0.17935783 -0.28558782 0.1804931 -0.5945367 0.11304703 0.48425868 -0.012093934 -0.16983968 -0.2172415 0.73317397 0.2380391 -0.22769003 -0.41686764 0.33109093 -0.5239907 0.59723604 1.067819 -0.12996982 0.19038032 0.067220844 0.12337177 0.09656684 0.20980294 -0.3678025 -1.4153934 -1.2281394 0.37154657 -1.2731063 -0.3224496 -0.1382133 -1.8359749 0.25998834 -0.86840326 0.64870816 0.28696853 -0.28015837 0.82333386 0.43510306 -0.22854002 -0.5205591 -0.07463968 0.26362815 -0.32339302 0.4911875 0.54865414 -0.6011689 0.51288015 0.099427246 -0.39635363 -0.7640199 -0.94713956 0.6839308 0.43657336 0.86229897 -0.69562066 -0.3169525 0.15221438 -0.10687228 -0.5203802 0.78685546 0.3955068 -1.1869538 -0.14208573 0.15363869 -0.08580577 0.65151066 -0.6459843 0.09487068 0.38748813 -0.49180618 0.49262574 0.590533 -0.7006531 -0.52353615 -0.4259927 0.11526205 -0.11202537 -0.6531223 -0.74052835 -0.089224726
food 0.49244526 0.37432712 -0.087842576 0.03806585 0.2034987 -0.05436929 -0.25480232 -0.65509534 -0.18106452 0.8319546 0.10108329 -0.14869691 0.10129425 -0.67172754 -0.15685576 0.2199285 -0.011071256 0.36114454 -0.62701046 0.64406866 -0.13577513 0.09606136 -0.56565213 -0.8301215 -0.41636315 0.64693755 0.20003192 0.3453734 0.08320038 0.1676969 0.023661023 0.084886014 -0.53378874 0.7748874 -0.39970726 0.3370859 -0.06789115 -0.27054235 -0.2497676 0.44021282 -0.19696485 -0.08438427 -0.26491213 -0.64702284 0.85393184 0.27855214 -1.0758779 -0.08374427 -0.19320095 0.22886857 0.85648054 -0.70033836 0.5248506 0.12917696 -0.095075876 -0.0327271 0.7898254 -0.50997025 0.0954142 -0.0805848 -1.02349 0.38696066 0.09787118 -0.657961 0.013930598 0.15303099 0.3570813 -0.61836493 -0.103871554 -0.08702715 0.3886219 -0.33280593 -0.021112237 -0.1444171 0.34501222 -0.22742568 0.3720558 0.009955815 0.34385535 0.5433371 -0.20970684 -0.6240355 -0.12391739 0.51702625 -0.10941633 0.30301192 0.6333363 -0.013973395 -0.09707571 0.41847873 -0.1735767 -0.39425796 0.64371973 0.3387176 -0.49488655 0.07465082 -0.17763098 -0.51033896 0.038012248 0.17076848 -0.59503776 0.16076276 0.026708841 -0.16329594 -0.18646997 -0.17987709 -0.7280871 0.34485593 -0.12564978 -0.20576432 0.42098328 0.085973844 -0.34873262 -0.26344565 -0.4430353 0.16034615 0.18043658 0.49755934 -0.12068444 -0.6425772 -0.7439002 -0.6745272 -0.7231312 -0.18852372 -0.7457748 0.613 -0.22254464 -0.15415712
com 0.80000204 0.31338078 0.1966574 1.0171632 0.43418634 -0.33529243 0.31475705 -0.487955 -0.37185282 -0.07461755 -0.5411278 -0.77690417 0.20903601 -1.1260923 0.7017614 0.9846871 -1.6497477 -0.40109226 -1.1340557 0.06600954 1.0861043 1.3490531 0.182745 -0.5789407 -0.5155136 0.53177625 0.26947966 0.18002327 1.2060035 -0.4499784 -1.2675574 -0.15838146 -0.3310495 -0.945391 -0.5383233 0.70586896 1.4406868 0.06008494 1.553903 0.9167126 -0.66914546 0.1677315 -0.19586495 0.4925883 0.73255575 0.99680924 -0.8098382 -0.1662855 -0.61384875 -0.032627486 0.61114734 0.579953 0.33332556 0.574441 -1.1835395 0.32008326 1.2712152 0.03039582 -0.43544325 0.1250362 -0.13778946 0.5276345 0.7010637 1.7289013 1.3080531 -0.6112866 -0.36047795 -0.89649904 -1.036324 -1.0083249 0.30772164 0.69045806 -2.7560585 0.19244766 0.02995268 -0.38057074 -0.41056168 0.5899899 0.117545255 1.7293811 0.52582324 -0.06001452 1.0902473 1.1626345 -0.049732383 0.8391671 -0.016762666 -0.51549053 0.42122185 -0.17055847 -0.2161452 -0.17968784 0.14361744 0.2760721 -0.09337814 0.37621698 -1.1681457 -1.0311567 -0.68449193 -0.77640563 -1.7933192 0.66534865 -0.7320483 1.519298 -0.057125103 -0.54736406 0.9645571 -0.02572807 0.03459565 0.32508603 0.043750156 -0.97396374 -0.5006113 0.51786524 0.22946978 0.84727573 -0.32899132 0.47243983 0.78249604 -0.011221256 0.0063128504 -1.0160685 -0.92144364 1.678034 -0.3504906 -1.327401 -0.29890132 -1.3027275
make 0.097246006 -0.45420736 0.14635819 0.049002703 0.41650626 -0.15032355 0.089118436 -0.5033636 -0.28982443 0.10582823 0.16088992 0.09450694 -0.2827697 -0.7498642 -0.39987427 0.19611552 -0.054605372 0.088738576 -0.3847099 0.57238907 -0.16329437 -0.32638454 -0.35059428 -0.55198044 -0.4909497 0.23910917 -0.38624322 0.033328682 -0.28677046 0.19131437 0.3831482 0.24535976 -0.110058494 0.19270884 -0.13986754 -0.36404726 0.13978566 -0.41824672 -0.543379 0.28731623 0.15072085 0.65682137 0.07129138 -0.31059596 0.12234169 -0.07683859 -0.7366628 -0.04083108 0.3069486 0.11770316 0.50311893 0.055254012 0.31076255 0.24905275 -0.10469943 -0.14405169 0.44144326 -0.33515492 -0.48669162 -0.21882778 -0.1362503 -0.01886821 0.39062113 -0.19907752 0.53446096 0.09420351 0.22074111 0.17872798 0.35770738 -0.3268231 -0.30220154 -1.0861982 0.1571738 -0.37577966 0.1511235 0.17427307 -0.10964022 -0.38314056 -0.24348406 -0.087129675 -0.5356646 -0.7564416 -0.058828 0.4911793 -0.12334818 0.2876387 0.6055599 -0.21789405 0.18812217 0.70642775 0.11511477 -0.47883743 0.2431125 -0.19592848 0.028878892 0.26546925 -0.16376114 -0.66066825 0.24326622 -0.26570806 0.068635054 0.09589358 -0.16974027 -0.3803028 0.31659898 0.015307343 -0.4169912 0.12442911 0.6341218 0.031108437 0.036686875 -0.30789858 0.05299387 0.28841722 -0.25851044 0.16999105 0.5189808 0.28569055 -0.21655874 -0.021449987 -0.49746743 -0.61437815 0.017766016 -0.40187335 -0.5840582 0.271772 -0.21335237 0.073859915
year -0.070529036 -0.5532593 -0.029390661 0.4147075 0.8852151 -0.21917218 -0.6088523 -0.367633 0.28708056 0.8090412 -0.028170545 -0.30247772 -0.691104 -0.36501765 0.34431002 0.31056485 -0.19541608 -0.24959607 -0.14794363 1.6216013 0.08181674 -0.1974832 -1.026607 -0.5950903 -0.9444808 0.16513121 -0.67809296 -0.06668771 -0.7074705 0.38151026 -0.2128927 -0.122585826 0.58807176 0.42607144 0.22093655 -0.46614188 -0.45859072 -0.2185371 -0.062684715 0.15176134 0.16633451 0.28944775 -0.2130466 0.019811109 -0.22513084 -0.035421923 -1.1605426 0.5267779 0.38685927 -0.039693207 0.07436751 -0.23605895 -0.36489192 0.38338786 0.1852931 -0.15122348 0.077494256 -0.07164003 0.36630952 0.05073245 -0.459568 0.6593333 0.114464864 -0.32647744 0.33946347 0.22330897 0.09525194 0.3603429 0.5019255 0.16455632 -0.35799187 -1.012624 -0.16761555 -0.79695207 0.5238164 -0.43835658 0.1067235 -0.12469845 -0.8368104 0.02814157 -0.9615527 -0.10520328 0.32885507 0.09243039 0.2604975 1.0165784 0.046868168 -0.10680811 -0.10133143 0.6250123 0.11178044 -0.35382265 0.02216173 0.15427373 0.44501638 0.11858778 -0.41263005 0.1474642 -0.15126494 0.54667777 0.48161682 0.65509975 -0.5013492 0.041131586 0.40566123 0.21312235 -0.2677456 0.4587882 0.5116163 -0.56266636 0.21937498 0.2279496 0.44526035 0.50754035 -0.35151702 0.06508453 0.16524962 -0.279168 -0.14977686 0.026335603 -0.7311962 -0.22698797 0.0947164 -0.2122946 -0.026760591 -0.13374642 -0.27809533 0.1187743
day 1.2047141 0.27184483 -0.04877433 -0.15591301 0.5903669 -0.5575522 -0.84786415 -0.08248813 0.38675782 0.8061292 0.1035873 -0.45834473 -0.3825152 -0.8954213 -0.17733708 0.18645303 -0.8761186 0.4445698 -0.36232784 0.94108295 -0.3171917 -0.6821922 -0.80728716 -0.86484104 -0.59854203 0.91454446 -0.13610819 1.0620714 -0.8461873 -0.13313451 0.2788763 -0.15929861 -0.6033255 0.3922308 0.8514591 -0.40551865 0.20281227 0.19044997 -0.32262513 0.5114205 0.022861762 0.63689864 0.006899997 -0.1286246 0.23718436 -0.17057166 -0.8658454 0.814737 -0.5279882 0.7096208 0.60543436 -0.010574186 0.105817944 0.5064169 -0.3695892 0.077249676 0.8085045 -0.66340137 0.3470149 0.22223184 -0.17110988 0.6038897 0.66608036 -0.71687925 0.70932066 -0.14685942 -0.33142143 1.0571562 0.3198246 -0.39487004 -0.703747 -0.98185754 -0.2988887 0.2379316 0.56020224 -0.07765527 0.18642847 -0.42464507 0.16639087 0.0043427744 -0.62207067 -0.6890726 0.27688915 0.7575546 0.09762922 0.73151755 0.89299273 -0.7243917 0.04383425 0.433536 -0.09321915 0.016613578 0.43086028 0.26349393 -0.55151695 -0.2211606 0.0006927886 -0.03960289 0.13235383 -0.09220434 -0.22270218 -0.21725008 0.11462565 0.24051969 0.46529478 0.014603023 -0.25665316 0.48630103 0.6215255 -0.78455156 0.30325806 0.16508515 0.6812019 -0.556939 -0.29956585 0.006283315 0.7077986 0.06367558 0.40604666 0.25765064 -0.30566007 -0.8839772 -0.5977829 0.5562574 -0.9255373 0.674624 0.10568461 0.7984864
much 0.68227476 0.22339246 0.06759138 -0.75780934 -0.2704978 -0.03320321 0.3152483 0.21707302 -0.470717 0.18596254 -0.049310062 -0.16059925 0.1329741 -0.6584254 0.49814075 -0.2014066 -0.57056195 -0.33979872 -0.13471249 -0.24325448 -0.4327105 0.59387636 -0.115549386 -1.0489743 -0.24175897 0.6395669 0.08620481 0.5842982 -0.18603033 -0.71559244 0.8192609 -0.12835784 -0.348664 0.0393808 0.12849516 0.69220626 0.814132 -0.63349074 -0.31936014 0.73048395 0.21776028 0.76925254 -0.5492847 -0.16476928 1.1671937 -0.2671225 0.14474812 -0.0936107 -0.6327576 0.519867 0.38229996 0.40861505 0.41905168 -0.04330138 -0.031639356 0.03260324 0.8036113 0.0022762157 -0.11419863 0.31933293 -0.16206813 0.0028383287 0.3976566 -0.27769837 0.28756025 -0.10930245 -0.042523216 -0.08156413 -0.44136596 -0.88726467 0.3049968 0.040719125 -0.44197375 -0.11547401 0.11239582 0.50692546 -0.5722929 -0.5076361 0.093468554 0.30889592 0.36208776 -0.13045311 0.04838793 0.54662323 -0.28458032 -0.0010263573 0.747922 -0.42345303 -0.039779834 0.024424534 -0.2140331 0.1609266 0.59197944 0.22523187 0.06097295 -0.17297038 -0.19939755 -0.09351092 -0.50034875 -0.9037242 -0.44350967 -0.3430033 0.16774604 0.09189433 0.12420606 -0.2703188 0.46177942 0.15426236 0.6255868 -0.33005193 -0.00039204277 -0.48757172 0.120163664 0.27501106 -0.38265696 -0.42826572 0.19762675 0.72074294 0.36245278 0.47038424 0.078135505 -0.5243311 -0.7617136 1.0645468 -0.9507064 -0.09142743 0.033618905 0.44349393
look 0.28438705 -0.792085 0.2581324 -0.23328157 0.68403786 -0.0890519 0.40937933 0.0016736406 -0.38396597 0.074250124 0.1490384 0.17105037 -0.65620655 -0.23214905 0.63472134 0.0753735 -0.32290816 -0.37425873 -0.54793847 0.80393213 0.22695246 0.037642993 -0.3808153 -0.5133507 -0.038953166 0.701279 -0.076687425 0.311209 -0.11378805 -0.24873896 0.37403524 0.052557487 0.032686323 0.14422919 -0.21220227 0.6462569 0.16545771 -0.39044654 -0.8795833 -0.03837021 0.47560403 0.80327857 -0.61684066 0.012694925 0.83341867 -0.23561238 -0.04148843 -0.19066732 0.14996578 -0.1363376 0.30146062 -0.22177596 0.07003444 0.18226244 -0.36818033 -0.17668606 0.5643088 0.042692814 -0.072933115 0.034622654 -0.4986157 -0.17921568 0.33968386 -0.33459955 -0.07880547 -0.3268495 -0.019914303 -0.014738684 -0.06853871 -0.3040489 0.35817295 -0.33400062 0.028122192 -0.865734 0.038933106 -0.13472024 -0.30673695 -0.44629338 -0.40968743 0.07975847 -0.24752861 -0.36234462 -0.020031402 0.09316156 0.08359223 0.23085977 0.47843283 0.11086111 0.11664475 0.50574833 0.029926235 -0.27788696 0.13317516 0.19418941 0.90181893 0.25591418 -0.057781726 -0.08166971 -0.32544604 -0.8094552 -0.08036661 -0.025244862 -0.0034490149 -0.614217 0.4393875 0.03411448 0.016089134 -0.14925934 0.21607678 -0.29416737 0.5337544 -0.47990528 0.19895872 0.14547944 -0.1787673 0.09111818 0.46489376 -0.16107783 0.09571912 -0.04017615 -0.13947868 -0.47380212 -0.08104556 0.3904381 -0.44958475 -0.30901355 -0.38012776 0.383963
please 0.7386472 -0.5073329 0.55898315 0.5392322 0.5939956 0.20852676 0.4643327 0.43590286 -0.451972 -0.30257007 -0.4453825 -0.64010733 -0.011728064 -0.37954965 0.68540776 0.21722645 -1.1119272 -0.3379347 -1.1368132 -0.14488797 0.58922184 0.40441528 0.3234533 -0.007839407 -0.050053153 0.31114662 -0.18490842 -0.4940089 -0.13527077 -0.6102146 -0.26323724 0.3035245 0.6181229 0.4210983 -0.2559476 0.38117182 0.89686555 -0.024686193 0.52151227 0.20612122 0.6447124 0.67644227 -0.50740206 0.088817835 0.85055214 -0.20375738 0.6352954 -0.0070827543 -0.482081 -0.18783307 0.1676799 0.79542613 -0.17823206 -0.47675857 -0.7350194 -0.64019614 0.58167124 -0.3728717 -0.6571889 -0.062914744 -0.080434844 0.6082226 0.47884387 0.5546909 0.4841069 -0.72380656 0.49608928 -0.64154226 -0.54584694 -1.1953505 0.32078797 1.1707982 -1.3033401 -0.79685575 0.15892653 -0.091691 -0.1455028 -0.47183943 -0.42262733 0.16934904 -0.02032063 0.11139311 0.8304221 0.6031779 -0.067886464 0.44658378 0.21584609 -0.06748551 -0.03145617 0.004562974 -0.67206407 -0.034167197 -0.13095091 -0.01488743 0.34063983 0.65774053 -0.43413886 -0.18453047 -0.25510544 -0.6451061 -1.0623279 -0.00030715886 -0.058901325 0.5033313 0.3670339 -0.34868085 0.30643576 -0.4629856 0.09239376 0.06720172 0.032653056 -0.70354635 -0.49598974 0.18069413 0.665683 0.5702182 -0.3470596 0.21095163 0.7705566 0.5963912 0.13277645 -0.7049338 -0.48644978 1.0061241 0.28602007 -0.88817394 -0.8248876 -0.22865874
need -0.072998546 -0.32332662 0.63434196 0.25624463 0.878734 0.6134395 -0.11978436 -0.38077202 0.5334605 0.14913316 -0.2531894 -0.11618315 0.55300933 -0.42624164 0.54253674 0.23537344 -0.575243 -0.03828725 -0.08368235 0.828905 0.08823819 -0.2037482 -0.543577 -0.044957936 -0.20833401 0.22858615 0.1089694 -0.24018423 -0.34319726 -0.17671673 -0.12308088 0.23551579 0.3694007 0.09322533 0.12437341 -0.10166523 0.106343016 -0.081102505 -0.40461147 -0.26249963 0.46830663 0.56655896 -0.053674396 -0.13077112 0.6569839 0.10577568 0.12665834 0.7686733 -0.10721541 -0.10398851 -0.45042473 -0.09658531 -0.37514386 0.4306983 -0.67656934 -0.32596612 0.3811098 -0.1818095 0.34704643 -0.25365683 0.17654242 0.2271574 0.2953056 0.49663934 0.7051892 -0.6580613 0.4502998 0.13011633 -0.3898642 -0.79755396 0.13474569 0.021336377 -0.8489399 -0.37452066 -0.07854032 -0.2848842 -0.31424132 -0.031556804 -0.8883906 -0.29400712 -0.11364228 0.15798116 0.21368784 0.028964287 0.4439964 0.43003795 -0.124773175 -0.30033952 0.29493326 -0.002059404 0.3321177 0.30954415 0.58925515 -0.0755223 0.64387584 0.2791611 -0.102807194 0.012549326 -0.5891543 0.0017808252 0.13261472 0.215657 0.0150905065 -0.064833835 0.45469037 0.20610568 -0.368902 0.3208293 0.1782428 -0.77462226 0.23504156 -0.11230549 0.23349018 0.32059267 0.4098201 -0.2547945 0.23792091 -0.6020863 1.2764926 0.7517911 0.12557308 -0.121622816 0.1649757 0.389841 0.23882902 -0.35389608 -0.39657167 -0.11053253
life 0.15618137 -0.67552817 -0.15906678 0.110776156 0.775092 -0.70879966 -0.2793364 -0.29514307 0.02805486 0.7464556 0.29784754 -0.20418678 -1.0076249 -0.69639015 0.39738572 -0.068921365 -0.25848457 -0.3997113 -0.37926376 1.2850127 0.16505392 -0.30289924 -0.56201255 -0.46802688 -0.74747 0.65910834 -0.62056684 0.59015954 -0.76575714 -0.18685007 -0.25504932 -0.3184122 -0.26985055 0.4450555 0.30455658 0.010114931 -0.3885636 -0.34398973 -0.39733297 0.2822209 0.27264267 0.83283764 -0.23961455 0.25975567 0.11536857 -0.19421391 -1.0011625 -0.13824552 0.27322087 0.11537877 0.377003 -0.40934357 -0.10448757 0.1842372 0.14969768 -0.24909745 0.53552365 -0.087550655 0.14502324 0.37308007 -0.997732 0.09544638 0.5140335 -0.6356596 -0.38081208 0.15975457 0.048403278 -0.43535838 -0.16885735 0.15395543 0.041729543 -0.73615426 -0.014158455 -0.30996662 0.074692935 -0.032214914 0.33913162 -0.09740358 -0.32092875 0.47384006 -0.64365196 -0.057295486 0.50050205 -0.09216927 0.03610574 0.67837155 0.09467717 -0.024003958 0.013075947 0.8843684 -0.26558 -0.3771693 -0.3647569 0.22514054 0.3779623 -0.45846868 0.21274066 0.19235304 -0.25310174 -0.2833683 -0.19550441 0.36433014 -0.25930166 0.045089677 0.5629412 -0.028426247 0.3441031 0.04067625 -0.0420709 -0.3651053 0.06869851 0.14038517 -0.043436915 0.12760644 0.31663355 -0.30043387 0.34837952 -0.71209973 -0.124581076 -0.35688242 -0.71065974 -0.6844075 -0.039982405 0.5349318 -0.09259884 0.0011135897 0.014546448 0.103848584
really -0.575776 -0.57691836 0.49270463 0.55191356 0.94971156 -0.20124125 0.46384376 -0.2956743 0.30911204 -0.051863894 0.28467202 0.2773864 0.042931776 -0.07178164 -0.11704462 0.5296163 -0.0764661 -0.17609227 -0.11819166 0.9679088 0.92763793 -0.0654902 -0.13237232 -0.35004708 -0.7923191 0.016535893 -0.7542573 -0.6528167 0.07244081 -0.46629158 -0.1782933 -0.386014 0.2329045 -0.23454247 0.09077331 -0.45418847 -0.8761334 -0.48447424 0.16733103 -0.058912233 0.55397993 0.02167518 0.19295977 0.14289919 0.31393814 -0.47784373 -1.0405254 -0.14140183 0.040263873 -0.15185449 0.24446645 -0.16783354 -0.12165125 0.45865896 0.34663615 -0.0994893 -0.16933954 -0.0023168165 -0.555398 -0.09511042 -0.23755413 0.2631479 -0.4594642 0.66091377 0.64463675 -0.6249931 -0.5897911 0.2838685 0.16126387 -0.28685847 -0.24210972 -0.21724643 -0.8976331 -0.98126376 0.35862708 -1.2551899 0.0706021 -0.009710196 -0.95601517 0.23442863 -0.67240864 -0.17300105 0.09743841 -0.3236262 0.4680936 0.91627955 -0.036594566 -0.4090516 -0.051618215 0.6910983 -0.35257638 0.18794009 -0.15339664 -0.56266546 0.5910267 0.43527338 0.03454151 -0.6494006 -0.14685364 0.045595452 0.42671964 0.007648447 -0.5315674 -0.41204646 0.27930036 0.049072593 0.2811334 0.5216158 0.52321494 -0.76226974 -0.14292769 -0.121633716 -0.33611673 0.4387509 0.081697784 0.2209739 0.03739071 -0.7567945 0.14344557 0.80615836 -0.5236892 -0.7612038 0.077572 0.14795583 0.39448282 -0.47417176 -0.7417303 0.18499754
binge -0.7575283 -0.26064283 0.53653467 -0.035033513 1.1008008 0.6786195 -0.6000837 -0.76144093 0.6225667 0.711003 -0.1395959 -0.5479758 0.5006719 -1.1151057 -0.44127154 0.5150258 -0.062641375 0.13442537 -0.16826732 0.8922738 -1.046605 0.112873904 -0.70466185 -0.8236558 -1.0102595 -0.54814154 -0.3865419 -0.27378702 -0.7965656 0.6699303 0.51577324 0.21837968 0.57134515 0.31161878 0.13505915 -0.6445569 -0.05395239 0.39623362 -0.22232611 0.21893317 -0.4702049 0.39307672 -0.08866974 -0.733376 -0.20538089 0.38325575 -0.81577045 1.0701913 0.2368414 0.2692608 0.5058334 0.5168069 -0.16436063 0.63184595 0.17349596 -0.4670331 0.5357907 -0.28682068 0.022809504 -0.7470984 0.48096785 0.91405815 0.4673716 -0.2686962 0.9558299 0.5413095 1.1387026 0.26304623 0.1809226 -0.5713565 -0.6849156 -0.8433062 -0.7245482 -0.41443935 0.23515895 0.40518987 -0.48774102 0.4335997 -0.8469291 -0.24521184 -0.5833308 0.43503085 0.25748664 1.1088139 -0.38748348 1.013792 0.0010900057 -0.76045686 0.21942836 0.43453607 0.3721372 0.15661566 1.2829251 -0.45586622 0.39448404 0.5447416 -0.5632326 -0.016562277 -0.21927473 1.3194628 0.3123517 0.7136062 -0.49353486 0.38677764 0.4049304 0.29005483 -0.9810098 1.2017468 0.59849846 -0.20556751 0.32044145 0.0024963645 0.38277704 0.56561303 -0.17364933 -0.50185955 0.04976445 0.0028663294 1.0472943 0.97885805 -0.29424712 -0.17524864 0.022133574 -0.44787827 -0.7242799 -0.03379499 -0.14516212 0.04746046
experience -0.46316963 -0.4354612 0.30095118 0.46331128 0.62931687 0.76173335 0.2560037 0.17769939 -0.08293285 0.29473397 -0.39196154 -0.28794986 0.119263545 -0.21097524 1.0603616 0.9617002 -0.22957101 -0.13930991 -0.18928336 1.0837175 0.3261735 0.9491719 -0.615532 -0.6940769 -0.6371736 -0.10651981 -0.41546205 -0.77003175 -0.34355593 0.005308265 0.43058586 -0.3449067 1.3177146 0.29431382 -0.5835127 0.7870352 -0.34632432 -0.7210451 -0.20919685 0.11387557 0.5100585 -0.22933936 -0.9575937 -0.27602336 0.94367445 -0.35863036 -0.6162277 0.12843694 -0.37079215 -0.8823913 -0.3499031 -0.03830247 0.35917744 0.19392186 -0.0070704436 -0.7909824 -0.22824809 0.5373815 -0.22252133 -0.395791 -0.5678463 0.25238553 -0.55544955 0.09800152 1.1613138 -0.25039834 0.5428 -0.31856504 0.04248586 -0.21287064 0.45475975 0.06220285 -0.38302276 -1.4788705 0.5167513 -1.1395924 -0.779877 -0.491702 -1.445448 -0.01759449 -0.5325598 0.39809415 -0.2927987 0.041296948 0.7113556 -0.112510845 0.29246008 0.3298932 -0.21056184 0.34916815 -0.38550368 0.44928536 0.67030394 -0.28581542 0.5079248 0.23537098 -0.5788069 -1.0605257 -0.10647843 0.21510282 0.15945849 0.27814317 -0.51352817 -0.4627011 0.03942342 0.2553391 -0.4869422 0.44226503 0.87771815 -0.9661529 0.1329786 -0.5490546 -0.089113496 0.6015313 -0.45274782 0.4108555 -0.08082351 -0.0067945714 0.94490194 0.6162718 -0.32466447 -0.72235626 -0.07934927 0.29415745 0.12095718 -0.5404696 -0.6806885 -0.15026605
say 0.4002043 -0.48836234 -0.053755715 -0.27665016 0.2656266 -0.09494213 0.18004617 0.08732653 -0.6475475 0.38230366 -0.068622 0.016684713 -0.8241981 -0.5055697 0.80618227 0.15499705 -0.22864956 -0.092248626 0.087032355 0.4876523 0.19699048 0.10032926 -0.30471474 -0.7557609 -0.25108227 0.8068252 -0.3302348 0.47160664 -0.31902567 -0.3253215 0.04049966 -0.12246506 0.121272296 0.0027148477 -0.24414508 0.4640046 0.21479009 -0.7633106 -0.58472663 0.39662695 0.40080085 0.28173274 -0.63987005 -0.021570448 0.56745785 -0.49832416 -0.3321896 -0.47271904 -0.37149933 -0.028358055 0.5598484 -0.46377045 0.38479528 0.08606498 -0.34257147 -0.09703102 0.37874684 0.16681917 -0.007316592 -0.015050187 -0.3612567 -0.46795502 0.29976374 -0.39046982 0.064305946 -0.15820509 -0.2256425 -0.027397111 -0.07928376 -0.14688185 0.3394068 -0.70597655 0.025261555 -0.63901 -0.004773615 -0.5307018 -0.3664193 -0.6125546 -0.28086847 0.40374532 -0.3717048 -0.3844336 0.19372715 0.14712942 0.21536343 -0.08562175 0.64613533 0.09624355 0.15331529 0.8512533 -0.2691726 -0.18348633 0.012705866 -0.08365749 0.7142126 0.033448238 -0.099288955 -0.47077706 -0.2006396 -1.0362215 -0.047061015 0.3212597 -0.33122084 -0.77009994 0.27020252 -0.3741178 -0.067924574 0.02916334 0.58338404 -0.3626834 0.11178708 -0.30330375 0.11975594 -0.05305005 -0.59251815 0.36004898 0.80532545 0.22971882 -0.23445316 -0.106229305 -0.50385445 -0.74497235 -0.529166 0.37300092 -0.85797 -0.06981445 -0.32895887 0.28120157
way -0.48540592 -0.391339 0.7263112 0.47551277 0.42251387 -0.034572814 0.027221378 -0.65088856 -0.16740362 -0.27763832 -0.20447513 0.14525309 -0.41848305 -0.17618869 -0.17168686 0.8186207 0.32683933 0.28034714 -0.49895296 1.011085 0.018336574 -0.36186087 -0.33091724 -0.87990946 -1.0729917 -0.40737653 -0.93481696 0.22127542 -0.062205736 0.16384391 0.06345278 0.016533248 0.45037264 0.16608074 0.11550284 -0.1966289 -0.09510624 -0.28922564 -0.4429009 0.08811282 -0.083406895 0.25649402 -0.120558 -0.441671 -0.17904419 -0.08946363 -0.84015244 -0.27948046 0.21172121 -0.47306427 0.4934758 0.21627212 0.79791635 0.35694912 -0.12052602 -0.31748727 -0.2640671 -0.118437566 -0.5692173 -0.41410565 -0.509134 -0.19579805 0.35621482 0.07065874 1.0894196 0.16313131 0.5966274 0.78759825 0.9849962 -0.19059123 -0.3799424 -1.1739804 0.17937544 -0.7186412 0.58682674 -0.24552383 -0.5797056 -0.41743776 -1.0066094 -0.33597386 -0.7097788 -0.33864984 -0.3076172 0.651732 0.46363327 0.3817179 0.87833273 -0.49827737 0.086931214 -0.044855807 0.2659228 -0.13680169 0.62875736 -0.04458996 0.045906477 0.37416035 -0.58779776 -0.8145036 0.34813643 0.38409424 0.2520312 0.030059004 -0.21665546 -0.634002 -0.07366293 0.20534174 -0.38720405 0.453357 1.0515952 -0.26464382 -0.044943374 -0.10698007 0.08273249 0.15993737 -0.9500003 0.052503802 0.499259 0.25778097 -0.26735964 -0.12690197 -0.33761805 -0.3917177 0.43158045 -0.6327055 -0.3203826 0.31157985 -0.17070407 -0.35229048
take 0.6342371 -0.052974913 0.37945768 0.06829611 0.1603072 -0.2742599 0.5738045 -0.26291373 0.021159848 -0.57884926 0.30254373 -0.47173235 0.1676281 -0.46001065 -0.18901785 0.15252262 -0.28802183 0.31263685 -1.0466402 -0.049192432 -0.13864806 -0.20730297 -0.17680636 -0.8354266 -0.44129205 0.11119031 -0.50784177 0.5372188 0.40242723 -0.77506024 0.5469816 0.106530316 -0.5330359 0.2659328 0.80408674 0.19531675 0.5206029 0.15224802 0.25560006 0.1961255 0.36106178 1.1846774 0.24294454 -0.12878132 0.6854909 -0.18903284 -0.119890444 -0.27178794 0.17784715 0.6139571 0.860887 0.6028908 0.1875011 -0.3182038 0.3149005 -0.26270327 -0.12237797 -0.6013186 -0.9808985 -0.0179846 -0.03682823 0.37403136 0.24463616 -0.16586886 0.19306426 -0.48960283 0.20770171 0.4070414 0.13043424 -1.2808975 -0.2744876 -0.18981661 -0.48866564 -0.0926015 0.40994647 0.26841345 -0.16628864 -0.47418135 -0.087151796 -0.17934819 -0.20268513 -0.11459914 0.39348444 0.89137405 -0.32573843 1.042741 1.2228979 -1.0600818 0.022331288 -0.011074879 -0.5679128 -0.7315947 -0.11731911 0.4056233 0.02349164 0.68535924 0.13664114 -0.0068511823 -0.16032799 -0.24842854 -0.6188914 -1.0769356 0.45235398 0.48759505 0.17366728 0.26832572 0.8000889 0.10015304 0.66054803 -0.109309204 0.05380716 -0.27554598 -0.2969296 0.21248442 0.13117771 -0.7499573 0.10969181 0.5527523 -0.027645549 0.7530895 -0.065976754 -0.35610744 0.297616 0.37807322 -0.041490797 -0.2556401 -0.19391514 0.28395736
treatment -0.89655095 -0.82831275 1.0571204 0.94641 1.7179002 0.8005653 0.28588045 -0.7208285 0.7732877 0.4053674 -0.86614853 -0.34874237 0.6866692 -0.34871915 1.5313321 1.4270799 -0.6137276 0.06538095 -0.38697597 1.6183515 0.6162765 0.56980336 -0.97124153 -0.8519087 -0.95229685 -0.09536527 -0.5148274 -0.9132694 0.19839936 -0.15116075 -0.95601034 0.08902659 1.8130249 0.32815918 -0.18510133 0.25328285 -0.012274727 -0.27483088 -0.34753358 -0.4890371 0.26841074 0.45018068 -0.6157229 -0.3186238 0.89512926 0.6761702 -0.53932285 0.7772386 -0.10382564 -0.95656216 -0.40395617 -0.16759868 0.05793678 0.45833087 -0.67656976 -0.524723 0.13822278 0.16823247 0.28936937 -0.5159814 -0.47708485 0.6792783 -0.13749585 1.0809172 1.6896145 -0.45462763 1.1761836 -0.148327 -0.37892753 -0.46821684 0.5655026 0.22560006 -2.2271855 -1.1290894 0.30799103 -1.2514924 -0.8948975 -0.08476527 -2.2975318 -0.35371903 -0.5286007 1.0635266 0.19130698 0.30744457 1.0623586 0.73639727 -0.37475514 -0.69195217 0.24755286 -0.4533162 0.12676817 0.4683526 1.5690053 -0.20651111 0.8859496 0.49874058 -0.68324506 -0.6781332 -1.3420234 0.9590335 -0.32116953 0.66721004 0.0019710413 -0.37843555 0.027296131 0.4062348 -1.0990454 0.7576749 0.30028751 -1.3343121 0.20993803 -0.26932356 -0.23652601 0.8868734 -0.2244059 -0.2561483 0.08023294 -0.5343492 1.7378443 0.78793544 -0.4810209 -0.30601266 -0.02888924 0.40292865 0.6057837 -0.70103526 -0.7840126 -0.7451226
start 0.34518716 -0.58326095 0.31348217 0.2608712 0.7796387 -0.51089174 0.13733695 0.17255247 0.29723978 -0.46237606 0.4003604 0.1149013 -1.1166811 0.117189154 0.5360007 0.35410947 -0.07589275 -0.16983928 -0.71612 0.81131834 0.47383645 -0.5032048 -0.6133838 -0.9917986 -0.39540675 0.5353544 -0.8398357 0.48225623 -0.32193297 -0.41808757 0.14015302 -0.16131632 -0.047909006 0.40867066 0.21989653 0.43088317 0.31486472 0.06455072 -0.2127249 0.20269966 0.6191982 1.0081538 -0.44060913 0.37334472 -0.043230463 -0.378734 -0.023670772 -0.078994 -0.18775696 0.06076199 0.53237194 -0.11081013 0.15013933 0.39967763 -0.1627214 -0.1899288 -0.18074554 -0.1064204 -0.5113378 0.39388293 -0.1968406 -0.21387662 0.40821713 -0.35453326 0.13507003 -0.38819903 -0.20882475 0.97085357 0.46629664 -0.1101359 -0.5524648 -0.9364078 0.49861658 -0.6677224 0.7916297 -0.42323497 0.24028967 -0.60122806 -0.6205541 0.05162067 -1.00736 -0.40225795 0.28221855 0.020134507 0.08457782 0.8893383 0.8570993 -0.16469206 -0.28567365 0.18525177 -0.38115162 -0.4501539 -0.12051996 -0.148932 0.507569 0.044467818 -0.13936533 -0.49078122 -0.060445677 -0.5675864 -0.18969625 -0.121118225 0.036387585 -0.7164364 0.10421231 0.04108989 -0.17539439 -0.07038708 0.9726961 -0.95758814 0.28602043 -0.69323486 0.2525057 -0.46906045 -0.23305131 -0.054013126 0.35291365 -0.1122151 -0.5964287 -0.0058779414 -0.18976356 -0.4860381 -0.45673683 0.54573774 -0.27404273 -0.3627608 -0.31838056 0.6863381
lose 0.2848497 -1.0420368 0.4742772 0.101954594 0.85710347 -0.47644767 0.4356618 -0.28936803 0.22786863 0.19971712 0.67096156 0.022748275 -0.9041691 -0.2780383 0.54719025 0.111032665 -0.424248 -0.46719936 -0.58116645 2.0128374 0.5382881 -0.9047598 -1.1618196 -1.053901 -0.42290154 0.6490125 -0.08720855 0.92795205 -0.5097069 -0.61783797 0.498247 0.28328174 -0.29487756 0.29519537 0.049377743 0.13191533 0.27884772 -0.36749154 -1.110497 0.14423592 0.47848487 0.78985685 -0.4814436 0.4967289 0.45547718 0.047147423 -0.33099955 0.8086955 -0.32064494 0.402915 0.048483144 -0.10266908 -0.08379453 0.960866 -0.50156575 0.3905805 0.39530793 -0.547381 0.3660983 0.59735584 -0.6040167 -0.3508725 1.0614038 -0.2960989 0.0851053 -0.08421598 -0.7150145 1.019999 0.24392533 -0.14681077 -0.41173592 -1.392842 0.16099642 -1.1377406 0.55120176 -0.4504298 0.14070085 -0.6804714 -0.60329324 -0.055943023 -0.46779588 -0.5795668 0.0021160126 0.10494257 0.4468523 0.85447824 0.7548397 -0.20283012 -0.11308743 0.8363126 0.28974968 -0.57607436 0.08500981 -0.092244774 0.73575056 0.21841738 0.15716435 0.21781027 -0.1227135 -0.3805184 0.20172751 0.24820659 -0.07473941 -0.9351307 0.07813819 0.13253418 -0.25390384 -0.12962648 0.39438272 -1.2461479 0.7558257 -0.5660801 1.1085496 -0.31305286 -0.45470005 -0.015307483 0.98071766 -0.65148926 -0.16363129 0.11194383 0.20753625 -0.45576477 -0.2216481 0.6259397 -0.62986 -0.089698054 -0.38823882 0.5057466
body -0.19104463 -0.4527678 0.17148753 -0.377538 0.30143726 -0.06542191 0.33493054 -0.059715994 -0.71608245 0.37021485 0.50437796 0.1503447 -0.404774 -0.58563673 0.08908021 0.13577026 -0.1747191 -0.46383145 -0.54083955 0.5015742 0.12971325 0.25061336 -0.4355173 -0.5703406 -0.3907295 0.7305588 -0.031270474 0.48503783 -0.3048499 -0.42124897 0.43781734 0.08012053 -0.3634197 -0.26516598 0.024525499 0.48412624 0.39213225 -1.0597624 -0.8819346 0.5833144 0.2857571 0.557464 -0.41639665 0.23831464 0.77353734 -0.2502754 -0.57301015 -0.35131192 -0.3487499 0.036629617 0.15657085 0.14253068 0.35541588 0.09297666 -0.2354991 -0.39850917 0.9007665 0.23896901 -0.20612602 0.07875306 -0.5672907 -0.52832305 0.4091054 -0.2569563 0.45881605 0.001326416 -0.14826426 0.05868619 -0.47598255 -0.4838191 0.4448766 -0.5431046 -0.01855853 -0.48693648 0.3068617 0.067627385 -0.47888672 -0.2858175 -0.26587722 -0.047810297 -0.0072592734 -0.50241303 -0.2828569 0.23288225 0.085749075 0.071569525 0.46779388 0.020478899 0.12230017 0.2741026 0.24374533 0.21180514 0.062605746 -0.13256125 0.5499756 -0.057283267 0.087731995 -0.3310909 -0.13586116 -0.7810704 -0.15682769 -0.13486156 -0.15035571 -0.0975779 0.41302478 -0.43356928 -0.046393637 0.47749445 0.66573447 -0.27061948 0.11776231 -0.50089 0.37371328 0.43297222 0.017803576 -0.14125165 0.37500048 -0.034667812 0.18496078 -0.18791966 0.20992544 -0.6416474 0.06689055 0.65612024 -0.84113187 0.22723724 -0.014847222 0.08948719
link 0.4557733 -0.010534423 0.6691052 0.65567696 0.95433587 0.3390432 0.8879048 0.00059685763 0.27728534 -0.3703996 -0.47713053 -0.87753665 1.0894372 -0.6757555 1.0850499 0.6501067 -1.1548193 -0.17149553 -1.0673962 -0.11117545 0.54226726 1.1518116 0.23612991 -0.6295984 -0.25935006 0.0031875146 -0.41166183 -0.46287298 0.46096373 -0.7948236 -0.24901702 0.048010483 0.9264637 0.35397875 -0.14118618 0.6880414 0.8027965 -0.08006409 0.56788385 -0.25788662 0.40148312 1.1243268 -0.34834263 -0.037115257 1.5824862 0.053806216 0.5424508 0.43855637 -0.30980235 -0.24039602 0.1445207 1.0939585 -0.20812353 -0.53321683 -0.42036188 -0.73584026 0.5852334 -0.42878857 -0.8449714 -0.12359681 -0.32815868 1.2513597 -0.0033225948 0.92573035 0.7787653 -0.9079746 1.1961411 -0.7051984 -0.8635038 -1.8936303 0.37070355 1.77903 -2.3914988 -0.5284274 0.16502863 -0.18745239 -0.5504933 -0.19605806 -1.1175809 -0.16554844 -0.20056753 0.6424472 0.6511983 0.91160256 0.20043488 0.58187944 0.2780829 -0.76595175 -0.044932466 -0.52867013 -0.83593965 0.19883046 0.43003872 0.18016829 -0.016860375 0.640157 -0.52602744 0.05188505 -0.9592917 -0.022584949 -1.3925177 -0.26872972 0.062747486 1.0427194 0.36694202 0.022673761 0.7617996 0.24217574 0.29897666 -0.3927051 0.03776203 -0.95253277 -1.0673357 0.7926322 0.76885605 -0.083330415 -0.5788919 0.11847492 1.3930825 1.1004324 -0.19534132 -0.6575479 -0.41284987 1.2530152 0.7008303 -1.1506916 -0.7009656 -0.46415493
learn -0.3604713 0.44328365 0.39929706 1.0457058 0.08997002 -0.16952199 -0.1447599 -1.1789716 -0.39168873 -0.55063134 -0.2146139 -0.15157275 0.27216464 -0.5882971 -0.3386668 1.1632974 0.25963116 1.0238601 -0.8093429 0.80418456 0.05348312 -0.005183266 -0.12450109 -0.994222 -1.2860123 -0.69913244 -1.2029043 0.45035407 0.48454762 0.53917176 0.1475026 -0.021138292 -0.08878946 -0.106452756 -0.33443412 -0.10387234 -0.3819222 0.1022898 -0.12962924 0.09203953 -0.5644936 0.019885307 0.14796317 -1.1705462 0.15013467 0.16978355 -1.532349 -0.7472129 0.3984482 -0.6596401 0.90878665 0.10913087 1.0470278 0.44767654 -0.2931197 -0.25156316 0.11106012 -0.6683982 -0.6177771 -0.79558057 -0.60625243 -0.19721967 0.19643846 0.22244002 1.7036521 0.09481554 0.6702482 0.37657583 1.1289138 -0.19496675 -0.3077978 -1.002255 -0.1579925 -0.038425036 0.59872615 -0.38116038 -0.74978757 -0.06477723 -0.96950835 0.23961988 -0.5134112 -0.61007005 -0.42111248 1.0256687 0.57787484 0.39127922 0.9003836 -0.6984492 0.21997444 -0.04993196 0.19802265 -0.15979953 0.7783768 0.29477468 -0.60336286 0.3769891 -0.7013805 -0.9193918 0.49875122 0.87450856 -0.28455102 -0.13235511 0.010737645 -0.4482203 -0.5715842 0.2549958 -0.5664712 0.28378922 0.9630094 0.035087366 -0.10011124 0.057770457 -0.2564022 0.36566138 -0.9403002 -0.009636422 0.6435097 0.5110684 -0.5343779 -0.22116697 -0.48138773 -0.5033571 0.100550264 -0.84366256 -0.60121083 0.1685195 -0.24295059 -1.0514137
ed 0.36059967 -0.037565432 0.019857256 0.32066792 0.042366628 -0.10645219 0.26976725 -0.15519689 -0.7613246 -0.1423595 -0.22244814 0.2976725 -0.5444657 -0.28465915 0.44388333 0.746269 0.46731582 -0.025354253 -0.3768394 0.08786603 0.26782194 0.28173238 -0.42192435 -0.51258814 -0.120609805 0.20316562 -0.96375644 -0.13478523 0.040001404 -0.036157686 0.124360554 0.07103782 0.41135684 0.27626708 -0.4914504 0.88780636 0.55657625 -0.80418557 0.18219632 0.4929294 0.27310824 0.52679664 -0.111666426 -0.36963886 0.478879 -0.4220419 -0.5143289 -0.65523064 0.15592252 -0.47216496 0.14955652 -0.23658465 0.83127385 0.39632732 -0.008087403 -0.23527862 0.2742227 0.4774346 -0.80358183 -0.006866813 -0.19163445 -0.2845973 -0.34834245 0.27118757 0.78374267 -0.36305377 0.4868435 -0.06803884 0.37833002 0.02838675 0.28747076 -0.9171166 0.4331739 -0.8206755 0.33495358 -0.07804371 -0.30331954 -1.0414186 -0.5706821 0.09792282 -0.4192233 -0.7340919 -0.2184702 0.47076812 0.102655515 0.23105614 0.64993244 0.2238283 0.13642028 0.43324256 -0.009454172 -0.55001336 0.2715949 -0.18400744 0.36193487 0.23630928 -0.59426814 -1.399 -0.09917702 -0.9288939 -0.0743954 0.04451133 -0.20475845 -0.70431685 -0.20424163 -0.03763679 -0.34674165 0.0031728658 1.0428998 -0.13286273 -0.012840751 -0.35036606 -0.36238438 0.2525257 -1.0024935 0.23951241 0.5418239 0.65513796 -0.24475385 -0.2997729 -0.57170343 -0.30942068 -0.3292453 -0.06814793 -0.609543 0.17876028 -0.29739636 -0.24037868
begin 0.46820593 -0.6419708 0.5757587 -0.027677543 0.97010833 -0.71038336 -0.056539737 -0.055914167 0.26774657 0.20051469 -0.008383441 -0.30073428 -0.39569837 -0.13757914 -0.34663916 0.47802925 -0.43468165 0.64340466 -1.0480574 1.106008 -0.31602588 -1.3128935 -0.09970741 -0.8976319 -1.0788207 0.46168113 -0.6320658 1.3141088 -0.20346223 -0.22484861 0.5737405 -0.1950517 -0.5540499 0.68332666 0.5309224 -0.44502604 0.43523884 0.12561731 -0.1732106 0.20984931 0.22304067 0.86088574 0.03271641 -0.29671004 -0.2122832 -0.078330345 -0.67395407 0.5224981 0.28281948 0.22968061 1.0598451 0.27526402 1.0476961 0.3247186 -0.4398308 -0.08682063 0.22801901 -0.6844097 -0.1581837 0.098697215 -0.72436655 0.18214495 0.7822046 -0.74263906 0.93312883 0.33341828 0.17634726 1.2519714 1.1238784 -0.6256885 -0.746453 -1.1819327 0.023699941 -0.47985 0.6037379 0.070650995 -0.05831774 -0.6988379 -0.012738456 -0.13024724 -0.6312252 -0.20968165 0.19808893 0.79349893 0.062443037 0.9541782 1.4000766 -1.2087878 0.043673635 0.08173185 -0.3411352 -0.18215236 0.82087487 0.13761598 -0.70494545 -0.023927595 -0.31182414 -0.34735912 0.4413348 0.20292155 -0.053178627 -0.34683004 0.32644027 -0.026753768 -0.018329388 0.49567276 -0.12319679 -0.041946772 0.76438963 -0.5051715 0.5467497 -0.2517411 0.23056027 -0.55647886 -0.41459906 0.18891163 0.4987995 0.2192234 -0.16735351 0.013790512 -0.35754487 -0.4394511 -0.0961248 0.14122899 -0.5307726 0.53880376 -0.04851503 0.33746937
good 2.973928e-06 -0.40520108 0.16844967 0.3194127 0.4765332 0.05442451 0.25030923 -0.35454863 -0.25157353 -0.07223651 0.060766235 0.20979191 -0.28760377 -0.4120167 0.033571158 0.09656372 -0.0067917826 -0.24382815 -0.41653052 0.22499235 -0.10582017 0.11493139 -0.48268384 -0.15222447 -0.46494618 0.2782196 -0.5107018 -0.23581345 -0.14118604 0.19006602 0.4070191 -0.23539989 0.2315825 0.26023275 -0.044451624 0.14096054 0.22674298 -0.45430297 -0.31435254 0.22749418 0.25328645 0.6701149 -0.12818646 -0.15018532 0.30876514 -0.20397085 -0.49402192 0.20546387 0.42072338 0.03589786 0.40961057 0.051929682 0.14489177 0.17811318 -0.122215554 -0.31549776 0.16626875 0.050978284 -0.14989398 -0.3239272 -0.080623664 0.19451517 0.20776607 -0.32281187 0.42585304 -0.08481549 0.3322594 0.21010043 0.20801699 -0.17857362 -0.05390085 -0.5958975 -0.3314016 -0.60913837 0.23456864 0.1880737 -0.16145588 -0.20450066 -0.31371653 -0.24541584 -0.4250221 -0.38739818 0.26132917 0.34831196 -0.13867523 0.47196272 0.31687534 -0.19650005 -0.048377465 0.35651848 0.03166888 -0.049407333 0.1956575 -0.1602174 0.32119593 0.13539252 -0.3402159 -0.34930828 -0.035799675 -0.39276767 0.08733256 -0.1221944 -0.4295999 -0.16575597 0.44790292 0.15462439 -0.28570104 -0.006999927 0.4229772 0.08495361 0.09609956 -0.4787884 0.09653044 0.14473875 -0.04387758 -0.0019395414 0.3201087 0.12940279 -0.030293418 -0.03081516 -0.23199007 -0.312643 0.044477165 -0.06901779 -0.1395231 0.09295336 -0.36302978 0.21418478
one 0.062853135 -0.018864114 0.11124092 0.42447403 0.49195626 0.054616857 -0.34965768 -0.56350666 -0.22236662 0.10673065 -0.13819233 0.084776595 -0.02728477 -0.5151908 -0.2535034 0.8846343 0.29957673 0.5267021 -0.17001855 0.75487983 -0.13607028 -0.0693444 -1.0275689 -0.7031758 -0.8414668 -0.15213317 -0.7669153 0.20121895 0.08593968 0.70645463 0.09056533 0.06461998 0.54295313 0.40257058 -0.074346885 0.046340242 -0.06531514 -0.23873052 -0.26772553 0.38896534 -0.36198166 0.33024898 0.2307073 -0.60809916 -0.05458132 -0.13537414 -0.9409325 0.22686508 0.2869438 -0.10208402 0.35702324 0.025667176 0.30466902 0.23329566 0.05060774 -0.30133584 0.11177957 0.054169316 -0.21552557 -0.46116897 0.2294256 0.124633536 -0.12727469 -0.15048383 0.90813166 -0.041225318 0.43468186 0.35945785 0.5873133 0.1203446 -0.455971 -1.31335 -0.124564 -0.30873486 0.52159834 -0.399388 -0.33287945 -0.505454 -0.76858634 0.034031693 -0.79855055 -0.45765117 -0.2667624 0.5068173 0.17584984 0.47575077 0.4339104 -0.35469875 0.070704736 0.34997907 0.38475886 -0.27930778 0.6326667 -0.15417627 0.06293484 0.16954252 -0.37278798 -1.1915123 0.044401497 0.47305885 0.21722828 0.19924605 -0.3318558 -0.44889137 -0.03458889 0.13603564 -0.7813631 0.64675444 0.8848949 -0.27120078 0.1605029 0.05100007 0.23942858 0.23369259 -0.6226785 -0.018503236 0.5187025 0.5623185 -0.0897565 0.0103104925 -0.68490386 -0.33144784 -0.077884324 -0.57339203 -0.7755361 0.26904905 -0.3828759 -0.12952332
still -0.7736958 -0.84205323 0.5735298 0.11049902 0.22557333 -0.09364119 0.29016858 -0.6386804 -0.62353134 0.13875769 0.7243018 0.17307001 -0.17600986 -0.77841175 -0.8104297 0.72770846 0.18554394 -0.34855783 -0.9164728 0.7788057 -0.28182918 0.59937793 0.11805137 -0.8453283 -1.1402905 0.26086614 0.16790107 0.40419555 -0.37906995 0.14947848 0.5179181 0.07562819 -0.4139857 -1.2324823 0.1988266 -0.062159706 0.4200002 -1.0433657 -0.7350691 0.27744156 -0.29435846 0.08379571 -0.47672507 0.24704328 -0.21537925 -0.27001488 -1.3063291 -0.7219801 -0.21408568 0.24288152 0.68865454 0.21473081 0.5460844 0.21236433 -0.1925983 -0.51731575 0.45054442 0.42979404 -0.7963346 -0.45264742 -0.48532316 -0.5247059 0.5727598 0.20193605 0.9447605 0.5357355 0.14016983 0.83927816 -0.18235475 -0.24886541 -0.2503035 -1.4181253 -0.30695468 -0.36755893 0.34617582 -0.0070978217 -0.9218786 0.24911585 -0.23494534 -0.22358528 -0.5162737 -0.38731852 -0.2260999 0.66702306 -0.09775697 0.42862526 0.44537216 -0.7431602 0.2064391 -0.06860797 0.6139479 0.29268083 0.2443292 -0.7652631 0.32671311 -0.10543811 -0.45494622 -0.96525633 0.6187407 -0.15957284 -0.2916907 -0.33235952 -0.5447651 0.17738575 0.49568474 -0.10404844 0.026537884 1.2132227 0.965455 0.35994193 -0.34140423 -0.9768112 0.24156424 0.3439417 -0.30034095 -0.09263021 0.02065506 0.42800075 0.11604711 -0.116160624 0.11163975 -1.2652936 1.0094162 0.030319916 -0.5322086 0.53873944 0.42067027 0.13230404
research -0.5289943 -0.4135158 0.7658037 0.7451408 1.1692882 0.3771136 0.36626613 -0.01775772 0.29539108 -0.15998814 -0.46761537 -0.7262574 0.38280296 -0.4225842 0.7909402 0.8719247 -0.4725578 -0.15438022 -0.7611073 0.7305287 0.75156295 0.731505 0.16436116 -0.41046453 -0.55274147 -0.18436101 -0.59482396 -0.8148805 0.50419456 -0.048875738 -0.47241446 0.0392865 1.1537937 0.31843573 -0.2690001 0.47627974 0.051796142 0.069155335 0.25398767 -0.3525812 0.1404111 0.43330607 -0.29772916 -0.045426395 0.8894665 0.22262011 -0.14314173 0.11916962 -0.0018407573 -0.8271044 0.2658646 0.4339391 -0.1371047 -0.13632765 -0.275364 -0.75217324 0.28679785 -0.16132437 -0.63784987 -0.4410334 -0.50189096 1.0095356 -0.19598973 1.0388105 0.7357041 -0.3544897 0.93513525 -0.7524421 -0.32895753 -0.9154128 0.10884642 0.9386984 -1.7444812 -0.6397287 0.054743335 -0.7440954 -0.22727104 0.30826277 -1.3590268 -0.15231128 -0.3378136 0.8266534 0.39041755 0.4369143 0.5684336 0.53438157 -0.27911013 -0.54878724 -0.006933323 -0.32341656 -0.6016011 0.18418385 0.48982865 -0.09865484 0.22679016 0.67223233 -0.3725548 -0.3959272 -0.5239894 0.7064839 -0.79295594 0.16882825 -0.014440353 0.257185 0.1242059 0.100508966 0.07352564 0.24657197 -0.14295553 -0.37570202 0.19428396 -0.179752 -0.90017384 0.822904 0.46729413 0.17240119 -0.6439406 -0.32780638 0.96573126 0.46986744 -0.3800525 -0.4268667 -0.14365111 0.54732525 0.5286634 -1.0061101 -0.6931061 -0.6985739
also 0.7154937 -0.6210269 0.4523346 0.5380991 1.0323635 -0.44258457 0.078930944 0.22327226 0.5144509 -0.109262966 0.069990814 -0.037828024 -0.7317328 0.15014625 0.31933564 0.31190202 -0.10841685 0.3841397 -0.93293375 0.62325937 0.31188792 -0.74314505 -0.25375178 -0.7263768 -0.5697393 0.5884841 -0.5968992 0.4793321 -0.20286788 -0.24881372 0.16252638 -0.15204386 -0.011266639 0.95488644 0.04840985 0.1599592 0.30341497 0.3014651 0.21915497 -0.0750973 0.43024638 0.38163358 -0.15450473 -0.22640458 -0.023126565 -0.31742427 -0.1828173 0.09145701 0.008359532 -0.25598812 0.5022333 -0.15631944 0.5064387 0.0036577522 -0.12772055 -0.23831762 -0.14340381 -0.2669063 -0.4011778 0.08392074 -0.6792946 0.3861458 0.38379282 -0.26369718 0.33232147 -0.10270028 0.13127552 0.63998955 0.7661407 -0.30232316 -0.3337957 -0.74199945 0.18278348 -0.92659867 0.73878276 -0.1317245 0.5612223 -0.76301634 -0.08507445 -0.12331513 -0.7010392 -0.05654098 0.028715631 0.044559527 0.24987987 0.62526256 0.6890899 -0.24718003 -0.14721173 0.25574547 -0.5524439 -0.13680345 0.42973047 -0.10579679 -0.23086865 -0.040187094 -0.0921763 -0.85653466 0.30780384 -0.1481847 -0.31268975 -0.29294217 0.095765 -0.3403967 0.15436992 0.03323013 -0.47235492 0.013114164 0.447853 -0.5277719 0.2771039 -0.45165014 0.040368535 -0.48385522 -0.17570321 0.4567016 0.45640144 0.14161685 0.014464696 -0.23747203 -0.5315396 -0.24178213 -0.37658033 0.15036759 0.028102914 0.08894058 -0.39650926 0.3580918
even 0.25321633 -0.8593304 0.4208275 0.3005522 0.9649055 -0.40293735 -0.019240484 0.12003331 0.10052421 0.61402607 0.43703204 0.020524658 -0.59485155 -0.037272174 0.243123 0.24908677 -0.32877156 0.071369156 -0.4537476 1.5600091 0.46538162 -0.46938664 -0.54437804 -1.0373868 -0.50491816 0.78871214 -0.08260077 0.6006873 -0.5557293 -0.36059928 0.4527941 -0.24532 -0.4416256 0.423721 -0.4179469 0.11786944 -0.30718037 -0.016923405 -0.6188368 0.31352568 0.54979104 0.20339204 -0.62151617 0.1482651 0.40198612 -0.40111795 -1.0695692 -0.038130697 -0.27325416 -0.11170555 0.36953688 -0.3700123 0.3969286 0.5277106 0.02647722 -0.03760008 0.31423923 -0.38959408 -0.12022718 0.37114626 -1.1624599 -0.25187674 0.46136773 -0.65455633 0.10710384 -0.24377334 -0.6486816 0.4245989 0.19441089 0.30982876 -0.10004574 -0.88736904 0.26472014 -1.2467754 0.6511748 -0.95001876 0.24457598 -0.7146418 -0.20308705 0.20563893 -0.71777886 -0.6521737 -0.20642544 0.026806224 0.49113777 0.4813305 0.9475934 0.036939114 -0.15697396 0.9850097 -0.42815673 -0.15572211 0.27893096 -0.2697287 0.3034242 0.043027446 0.36574885 -0.662443 0.40485033 -0.23635712 -0.06952362 -0.19997114 -0.0822284 -0.8011705 -0.042677935 0.054865763 -0.5649168 0.20241016 0.24959092 -0.87761074 0.60260695 -0.56054956 0.45990863 -0.29872203 -0.16987498 0.2878119 0.6393106 -0.30608428 -0.30419913 0.024864815 -0.105030306 -0.5091688 -0.52033937 0.08463003 -0.31295434 0.06116383 -0.52262104 0.26793307
thing -0.009758307 -0.4145116 0.39545617 0.27735376 0.36212912 -0.19262208 0.27438724 -0.06092244 -0.126995 0.02921078 -0.34515068 -0.29498675 -0.27984282 -0.40692827 -0.23782773 0.10776957 -0.2232746 0.3058559 -0.25795332 0.73546547 0.012201245 -0.53785634 -0.0014899411 -0.35604686 -0.41372848 0.02055706 -0.40460354 0.10528827 0.33254793 -0.061543632 0.17410377 -0.21330418 0.24587657 0.2324081 0.041309923 -0.42297673 -0.34253854 -0.22299461 -0.082579136 0.16434017 0.23652452 0.22381628 0.22950016 -0.07285062 0.042800967 -0.358864 -0.6615015 -0.038652495 0.17703585 -0.065891854 0.6543457 0.10221056 0.33611512 -0.13796963 0.066035345 -0.28329837 -0.11869401 -0.3081039 -0.41176376 -0.04433915 -0.39413443 0.050657153 0.041966103 0.08262748 0.40694898 -0.1373747 -0.05540953 0.272644 0.32542214 -0.34707248 -0.34527296 -0.39828995 -0.23638801 -0.4537909 0.10137941 -0.33350524 0.016107505 -0.16611402 -0.47048324 -0.1422613 -0.36856377 -0.17935868 0.084798105 0.19090927 0.11226457 0.20461203 0.39910537 -0.6581697 0.06471335 0.39982912 -0.28275636 0.13938524 0.20371914 -0.037889622 -0.069671735 0.28570154 0.036069542 -0.34294647 0.23579518 0.07182332 -0.003360992 -0.14765295 0.17357045 -0.47255886 0.15660048 0.11810392 -0.11406266 0.058845986 0.22983934 -0.10493253 -0.002923741 0.11259625 -0.12390588 0.20065849 -0.25891972 0.26394686 0.3371249 0.12658139 0.19552106 0.08035739 -0.45643508 -0.6335414 0.043766435 -0.10062627 -0.15828533 0.041202623 -0.5082138 0.029680306
well -0.15639652 -1.5395373 0.078476556 0.4602967 0.87230384 -0.25689876 -0.07214225 0.1844481 -0.35117954 0.3834076 0.19724967 0.24362381 -0.993131 -0.09827956 0.65341026 0.30970487 -0.06743051 -0.28404093 -0.14379787 1.0481626 0.300046 0.29734397 -0.2834769 -0.6636197 -0.89005184 0.5133622 -0.6924861 -0.16197188 -0.71726644 0.10176034 0.033656493 -0.21576534 0.62797606 0.29990914 -0.45711812 0.020312557 0.02712305 -0.49052745 -0.36512747 0.40023273 0.3869529 0.26639745 -0.7484162 0.18150699 0.054635543 -0.35582379 -0.7768482 -0.31191114 0.041831885 -0.47666898 0.2828198 -0.2772145 0.036921706 0.3784357 -0.28589854 -0.25768495 0.1965189 0.4844983 -0.019995129 -0.29219893 -0.52361614 -0.14346024 0.38750902 -0.33626968 0.40032956 0.088460915 -0.06516826 -0.0035961973 0.2492598 0.43411127 -0.11198944 -1.0378025 0.13702016 -1.2969269 0.11226911 -0.34359014 -0.14451154 -0.6004332 -0.45854595 0.2885218 -0.8022039 -0.36279756 0.19094433 0.24628182 0.26433954 0.206978 0.22537655 0.45811042 0.12691335 0.850498 -0.11986015 0.24914654 -0.07453805 -0.3511095 0.8178502 -0.05849448 -0.37826174 -0.7426203 0.40666845 -0.36481082 0.24900351 0.4323928 -0.6681273 -0.45402798 0.40774366 -0.035521094 -0.2862734 0.085795134 0.8737944 -0.36149105 0.09253922 -0.55540484 0.20623963 0.47942358 -0.059850007 0.60814273 0.5225176 -0.2498781 -0.3624041 -0.21481246 -0.54350615 -0.2967312 0.11899832 0.06518299 -0.46796453 -0.33031654 -0.42553648 0.204795
keep 0.3142476 -0.02609154 -0.023824463 0.39227623 0.35592312 -0.12449655 0.10376358 -0.7226735 0.47370744 0.3906985 0.3272187 -0.09280671 -0.112854354 -0.83178663 0.44837368 0.25424594 0.15852928 -0.29184303 -0.65736973 0.8855439 0.25437757 0.12873353 -0.9518988 -0.28788236 -0.007799085 0.69340086 -0.15496875 0.38099992 0.27713498 0.3222168 -0.5443921 0.10332654 -0.30237997 0.11708979 -0.22561409 0.65096855 -0.006865375 0.057722233 -0.41152862 -0.3422859 -0.24535722 0.5166228 -0.08248903 0.32280168 0.3083358 0.16601753 -0.41513744 0.17207439 0.09769566 -0.015691105 0.1590324 -0.26759118 -0.39958724 -0.040792007 -0.062266596 -0.39797986 0.49392742 -0.37431964 -0.110444464 0.19756512 -0.39191678 0.17883581 0.09182433 -0.10666923 -0.7999823 0.1249264 0.17615105 -0.13796617 -0.6477654 -0.48884606 -0.04238098 -0.41727728 -0.14080891 0.17660497 0.25380507 -0.08084942 0.37927085 0.36705115 -0.58928937 -0.3398959 -0.64685404 0.14239536 -0.32488143 -0.0752737 0.02628993 0.44041413 0.12011014 -0.19040962 0.08914889 0.3689048 0.20857003 -0.8858822 0.06608099 0.30038667 0.44917962 0.03243268 -0.13790692 -0.14615445 -0.56530845 0.30186835 -0.4561642 0.07438484 0.0017936996 -0.15012364 0.002928849 -0.054546285 -0.19633284 0.43137428 -0.050078604 -0.52396935 0.52149844 -0.2554217 -0.1305197 0.30021217 0.06140629 -0.20700777 -0.11415752 -0.022771152 -0.06219017 -0.44914606 -0.52331305 -0.24476472 -0.18132775 0.049107842 -0.21515806 -0.22915752 -0.035498556 -0.2986911
work 0.81174093 0.011105985 0.24681665 0.4085165 0.3907193 -0.5860195 0.054745506 -0.21879849 -0.13544078 -0.009090869 0.20617825 0.11216948 -0.34719962 -0.33663455 -0.33526284 0.008245736 -0.15652737 0.09642637 -0.9383189 0.5529897 0.13506778 -0.71019167 -1.0074359 -0.5639961 -0.2815269 0.79863995 -0.30407625 0.5554984 0.0049209264 0.065720595 0.16597012 -0.30556652 -0.65467143 0.49706477 0.43436134 0.2568281 0.061867632 0.020084588 -0.08768159 0.39382416 0.4963731 0.9805959 0.23801151 -0.110685036 0.49365872 -0.2814457 -0.67171705 0.061582945 0.47035176 0.40127805 0.42309803 0.12663884 0.00695646 0.082521796 0.029867139 -0.18833339 0.131492 -0.4826317 -0.33327228 0.21730295 -0.8325771 0.35010946 0.2086239 -0.68318814 -0.34893578 -0.35589597 0.05851358 0.15666772 0.28709358 -0.3412923 0.051167436 -0.63132495 -0.2272969 -0.31528226 0.66702366 -0.0016659074 0.066725366 -0.57558763 0.030651482 -0.16421197 -0.44944978 -0.48480043 0.08421881 0.2508178 -0.020235915 0.54571104 1.1795461 -0.69157535 -0.08226765 0.4601863 -0.19717026 -0.8798827 -0.09978894 0.5083806 -0.54613215 -0.14323598 0.1623993 -0.42701247 -0.07539608 -0.29165015 -0.31238666 -0.6181206 0.14808847 0.08498842 0.077442676 0.36072 0.14958206 -0.14303166 0.16154851 -0.18728867 0.14126696 0.0056152986 -0.07194716 0.01862849 0.09821393 -0.3616788 0.12492485 0.32699051 -0.25420552 -0.29632238 -0.7715587 -0.5643346 -0.040544175 -0.012429645 -0.03537988 0.3418069 -0.22771195 0.12765723
www 0.8594014 0.38150108 0.010310771 0.7125553 0.35323638 -0.26620823 0.3544421 -0.52563584 -0.2701449 -0.028106632 -0.48617393 -0.8484682 0.2994255 -1.115953 0.53333 1.0529236 -1.6649108 -0.48018628 -1.129637 -0.16882247 1.1387374 1.4703561 0.3427418 -0.7151365 -0.5234109 0.56700724 0.15383114 0.097008675 1.3778987 -0.7187693 -1.2307228 -0.4316553 -0.56573135 -0.92273813 -0.22785595 1.0689394 1.4692613 -0.04673655 1.5962379 0.88456535 -0.6362576 0.1796069 -0.26221412 0.59055525 0.955597 0.9072705 -0.6783596 -0.33150375 -0.78705627 -0.20775288 0.58265334 0.6354162 0.47235885 0.40007696 -1.0370563 0.33470744 1.44999 0.27375638 -0.6121704 0.12270145 -0.37914646 0.53817123 0.70633537 1.7313756 1.4711812 -0.6992108 -0.30721962 -0.8925532 -1.1552064 -1.3342012 0.30432382 0.82503635 -2.9584105 0.30315876 -0.15053856 -0.38972336 -0.5939507 0.5032232 0.09625326 1.8626813 0.6002748 0.0031611386 0.9234737 1.3195664 -0.03347199 0.9145705 0.158282 -0.6799922 0.43192926 -0.44611484 -0.2569595 -0.17360571 0.37819365 0.26798698 0.04522703 0.19666027 -1.1870035 -0.86054134 -1.0481249 -0.9461584 -1.8391243 0.42472607 -0.625196 1.4446982 -0.08514976 -0.6112687 1.1436174 -0.042001083 0.08670037 -0.07618354 0.01396032 -1.2621859 -0.66417193 0.55341095 -0.01626973 0.712415 -0.18145686 0.73620075 0.7403298 0.2485738 -0.054628327 -1.0193741 -1.1428362 1.9892637 -0.3867246 -1.3969035 -0.34315443 -1.1643139
gain 0.26187697 -0.7976668 0.34079716 -0.24888799 0.48731765 -0.45127746 0.11136032 -0.06893194 0.25145027 0.3564156 0.60828817 -0.17398006 -0.47747916 -0.70210975 -0.013058683 -0.048019137 -0.85306406 -0.42604753 -0.4595774 1.6591985 0.2799959 -0.42096207 -0.68558943 -1.0695174 -0.41588062 0.8144387 0.21499248 0.5267073 -0.93452513 -0.6613777 0.725857 0.17670798 -0.6335387 -0.2291938 0.1660016 -0.5213525 0.21719678 -0.18465562 -1.1029001 0.18667218 0.51804066 0.65622246 -0.47504562 0.52254945 0.37416777 -0.18974544 -0.49863383 0.53074396 -0.54214007 0.69184375 0.0923087 0.22287202 -0.53218085 0.87419397 -0.38510492 0.12379775 0.8162517 -0.58247507 0.14975446 0.44620812 0.06373447 -0.279791 1.1847129 -0.27406123 0.11566559 -0.20882167 -1.0169587 1.1082053 -0.07928551 -0.6384561 -0.68592644 -1.0157977 -0.03797773 -0.66220653 0.29970956 -0.27315953 -0.054573964 -0.23871292 -0.40436462 -0.18143965 -0.257245 -0.90376717 0.04049925 0.3383186 0.110533044 1.0715488 0.5281092 -0.12472813 0.19951168 0.66936505 0.32199585 0.10997314 -0.20310119 -0.23793496 0.75543535 0.26275015 0.079898104 0.45763847 0.23976178 -0.55185395 0.32164687 0.11124379 0.0790897 -0.1903247 0.51064795 0.0427881 0.058086634 0.17871515 0.8320929 -0.8021332 0.58228725 -0.43773338 0.9694286 0.1818945 -0.15678124 -0.13531455 0.77175945 -0.69907516 0.19000559 0.59516466 0.25887677 -0.7416047 -0.1630012 0.6724033 -0.7941165 -0.07962001 -0.28590006 0.5980537
everyone 0.5271833 -0.5001846 0.20178387 -0.05858281 0.4321435 -0.10121611 0.5472336 -0.07720118 -0.34429732 -0.3620923 -0.016315931 -0.06168402 -0.7552127 -0.19086497 0.363051 -0.020012796 -0.48268086 0.20879179 -0.17202258 0.528681 0.28240424 -0.22815764 -0.24081425 -0.5839368 -0.5787905 0.4795905 -0.08350283 0.8026728 0.145224 -0.4672295 0.17974377 -0.113453366 0.06335108 0.2265281 0.19052911 0.014439442 0.33241498 -0.15237208 -0.47053996 0.25802487 0.22940665 0.47864377 -0.18920614 0.20045881 0.6277528 -0.13322337 0.17870218 -0.07008889 -0.32039297 0.35011122 0.3109638 0.16878587 0.3078954 0.08744446 -0.5419833 0.15803903 0.27699786 -0.26802632 -0.14032716 -0.26978353 0.11617757 -0.33957043 0.63540035 -0.021974362 0.19515795 -0.4698285 -0.45542166 0.51634675 -0.059537213 -0.37935704 0.0042100376 -0.44036317 -0.38796064 -0.45125023 -0.11259071 0.110736735 -0.54587376 -0.45280746 -0.1860263 0.21770512 0.045956254 -0.27490553 0.32815552 0.20580532 0.2915789 0.18773748 0.8040233 -0.6169763 0.17963488 0.3570106 -0.18885736 0.027043177 0.02396292 0.16575745 0.33916318 0.095097184 0.10778397 -0.23511617 -0.2029207 -0.8523857 -0.028302332 -0.26982394 0.034089398 -0.48860556 0.045572516 -0.028932586 0.39749768 -0.21594207 0.27077952 -0.42263505 0.2854785 -0.49849683 0.38666347 -0.061986916 -0.25789177 -0.017955514 0.8074447 0.18128785 -0.10189633 0.34902996 0.020953774 -0.27612552 -0.19146039 0.6603254 -0.68450874 -0.3732214 -0.39053398 0.6007844
try -0.047401093 -0.6072397 -0.04733176 0.18745296 0.53252405 -0.1332179 -0.39897498 -0.4083422 -0.51170194 0.94213694 0.056464426 -0.16813013 -0.4869702 -0.5993818 0.16303802 0.112480916 0.025271665 -0.08754169 0.02154449 1.171663 -0.16441593 -0.33420435 -0.77680695 -0.8385797 -0.6397298 0.42149982 -0.35636792 0.5496388 -0.64382 0.03712046 0.15959762 0.060710162 0.20585752 0.33982643 -0.07476762 -0.19956289 -0.052278373 -0.84843355 -0.71807224 0.5107582 -0.18325098 0.0572745 -0.26526326 -0.20637289 0.39158836 -0.10928535 -1.145643 0.3548952 -0.07195626 0.20103805 0.5707792 -0.28835842 0.31964728 0.37341577 -0.30695593 0.056668248 0.5184269 -0.1704002 0.47182837 0.127512 -0.7173384 -0.17411445 0.53155035 -0.7592379 0.4050942 0.2955788 -0.16703516 0.23910078 -0.04218583 0.3359816 0.19092591 -1.2726667 -0.19777696 -0.717892 0.33914524 -0.3506125 -0.1307565 -0.57614076 -0.27050814 0.18442169 -0.55880845 -0.45916665 0.20689215 0.34031048 0.21396048 0.45521 0.45589152 -0.04287011 -0.02189106 0.7671788 0.021140104 -0.10231755 0.50896984 -0.23465961 0.4633596 0.17733148 -0.0312409 -0.2256852 0.015604035 -0.05019007 0.064547904 0.45285043 -0.26355442 -0.41225475 0.38953838 -0.17916636 -0.5647254 0.35360906 0.32349715 -0.42690304 0.25249916 0.08470331 0.62578225 -0.0034841127 -0.80573773 0.15486717 0.8478028 0.17847311 -0.17376284 -0.4998605 -0.16762018 -0.36599943 -0.1825946 0.0012405444 -0.86695933 0.37156743 -0.16043137 0.004586411
stop -0.50698215 -0.46337664 0.48617274 0.03378733 0.6690473 0.20259106 0.15910931 -0.43201035 0.022295121 -0.08767211 0.019983934 -0.28793925 0.1268094 -0.6788143 0.097460054 0.2861641 -0.1934675 -0.03627303 -0.37680474 1.0173824 -0.37351197 -0.32898203 -0.33276898 -0.7347319 -0.5044469 -0.2289562 -0.24595207 0.2599664 -0.49930245 -0.07178042 0.605966 0.35663164 0.03532198 0.18371987 0.11473698 -0.26547816 -0.13581617 0.07858602 -0.67390233 0.08620693 0.34484166 0.7292934 -0.022020742 -0.30733505 0.19567373 -0.010346783 -0.24025583 0.32721913 0.08842555 0.075261526 0.3748583 0.27952072 0.01780737 0.20260638 0.13017206 -0.16295059 0.07037551 -0.62869 -0.2069163 0.049827456 -0.051881194 0.08423232 0.3409599 -0.26353288 0.31430584 0.005704331 0.27304372 0.42212602 0.19233824 -0.23751569 -0.42378375 -0.71035993 -0.13797009 -0.606275 0.3909799 0.09619481 -0.45322186 -0.10229385 -0.80443025 -0.34342447 -0.52260005 -0.05255634 0.103370436 0.47845903 -0.108065285 0.7696474 0.5076473 -0.3384311 0.05217831 0.41798753 0.040204167 -0.31406933 0.47063366 -0.3103047 0.50257206 0.72922045 0.010916535 0.23464836 -0.08600964 0.38844937 0.07081641 -0.19078669 0.038672805 -0.5069161 0.14003123 0.31850207 -0.33518997 0.4276647 0.2991787 -0.4938831 0.19294167 -0.14132692 0.43632972 0.15686674 -0.16522281 -0.6049938 0.2626619 -0.030765763 0.33196402 0.85652316 0.16479215 -0.056959804 0.15837243 -0.10743521 -0.43271407 0.08270976 -0.26958984 0.32988822
never 0.50287974 0.29049084 0.14354505 -0.121476874 0.14416659 0.040894195 -0.2824114 -0.98085546 -0.24316125 0.3515964 -0.27120692 -0.23910373 -0.08975671 -1.1699295 -0.34818366 0.29398185 -0.1181585 0.05316256 -0.6269123 0.6214499 -0.8633821 -0.46083462 -1.1168119 -1.0592582 -0.5657181 0.31767333 -0.16637677 0.5563541 -0.053966653 0.34225118 0.5077868 0.25704092 -0.44202995 0.5455933 0.29918984 0.15222384 0.31535405 -0.23434618 -0.2734845 0.61294496 -0.264142 1.0166737 0.16854498 -0.76328975 0.29971632 0.33543435 -0.9564049 0.30791348 0.49961302 0.39938974 0.7551697 0.24092488 0.41554934 0.33390325 0.036778834 -0.08141321 0.34182766 -0.56752354 -0.10242611 -0.21131165 -0.05992035 0.5114245 0.45478278 -0.6949604 0.4139114 0.57038975 0.72002256 -0.09605463 0.27709928 -0.45416588 0.16869181 -1.3044964 -0.15427083 -0.13587618 0.45721197 0.7154332 -0.64105755 -0.22800261 -0.089899674 0.15466237 -0.10612902 0.038565774 0.20906045 0.79269546 -0.56863886 0.7216634 1.0228331 -0.7801593 0.045377444 0.4755501 0.29250044 -0.812948 0.76582426 0.32075113 -0.36951047 0.078393705 -0.23741716 -0.35392368 -0.30091953 0.21974571 -0.2203396 -0.022545764 -0.2084635 -0.18841706 -0.21698682 0.14488032 -0.38567907 0.1881283 0.36229965 -0.045206428 -0.042391457 0.19870612 0.29305348 0.027400035 -0.6802863 -0.7409375 0.41362265 0.8159157 -0.039889965 0.02783016 -0.5454983 -0.21814735 -0.06519434 -0.23315503 -1.1309721 0.5838814 -0.06333196 -0.23795722
see -0.096635774 -0.67852163 0.61558175 0.3963095 0.44400194 -0.21926475 0.4543756 0.02254239 0.106700525 -0.5394266 0.3887443 -0.22628838 -0.10045609 -0.29162872 -0.2661996 0.16644195 -0.5426006 -0.14293602 -1.0643461 0.350435 0.3742545 -0.05558491 0.2817041 -0.34832805 -0.32677802 -0.18400523 -0.510778 -0.0028569743 -0.07787013 -0.562064 0.5078381 0.32244 -0.36958548 -0.21202877 0.09648774 -0.31410104 0.60511506 0.32542214 0.04858005 0.14124838 0.37911853 1.01491 -0.057630014 0.37908736 0.08830487 -0.030609041 -0.018408615 0.0020741362 -0.007997026 0.2777331 0.70806426 0.7454609 -0.27818647 0.26678842 0.04550433 -0.30672404 0.109277226 -0.71175814 -0.9952626 0.07178045 0.12546982 0.19268127 0.40670416 0.26171836 0.28464746 -0.5191522 -0.072538346 0.72893643 0.28600165 -0.8466734 -0.6389017 -0.15366302 -0.21911749 -0.22419724 0.05411857 -0.012819551 0.019565213 -0.13172826 -0.4852838 -0.100843385 -0.45967266 -0.51245064 0.15216821 0.64286643 -0.2199377 1.024646 0.47800106 -0.54625076 0.17321222 0.012899718 -0.17589416 -0.088304766 -0.45169985 -0.28974274 0.37220776 0.6493255 -0.014712255 -0.11107559 0.18282904 -0.38869154 -0.46574238 -0.23656122 0.11160594 0.37960014 0.16686311 0.059704896 0.43435118 -0.09419111 0.5738265 -0.04807597 0.07854296 -0.63312125 -0.34605542 0.22783232 0.27648777 -0.024408713 -0.17308785 -0.065694794 -0.16340548 0.28031692 0.15226153 -0.5715692 0.13061155 0.31549826 -0.013563877 -0.5616829 -0.4621877 -0.003457091
could 0.18422067 -0.62246615 0.46848676 0.26705706 0.73700505 0.12898013 0.391604 0.37477744 0.12342759 -0.1649755 -0.1430824 -0.23439747 0.34818757 -0.0038671815 0.49309748 0.4209796 -0.56093556 -0.15598875 -0.6173798 0.36191523 0.18996158 0.3903296 0.020853152 -0.19156188 -0.34255397 -0.022701144 -0.35816482 -0.38284478 -0.16559753 -0.32598546 0.3830924 -0.28600073 0.62845314 0.5561591 -0.08538923 0.40036917 0.13957974 -0.2724708 -0.1930041 -0.07573152 0.4605525 0.5329613 -0.44115257 -0.10944604 0.7380816 -0.20945588 0.19108222 0.15861821 -0.0071515637 -0.21389645 -0.0783664 0.57499367 0.11085448 -0.3542641 0.045791984 -0.65125287 0.06498188 -0.1002514 -0.4781126 -0.15076762 -0.43464527 0.72824997 -0.17069738 -0.07618758 0.5077344 -0.18987219 0.6746888 -0.0128949 0.005645054 -0.62864506 0.068370774 0.47938478 -0.7057439 -0.71361715 0.34696954 -0.14908662 -0.12089727 -0.59713036 -0.5824605 -0.3455034 -0.41358426 0.18406591 0.14494936 0.40185484 0.10744755 0.361854 0.28959 -0.07174346 0.0032512872 0.07762592 -0.40419856 0.059262425 0.3442849 0.049487244 0.40538704 0.34661064 -0.18443552 -0.2670771 -0.030035336 -0.1770274 -0.20724589 -0.2933284 -0.12255541 0.1642049 0.37849742 0.40616596 0.031602465 0.23000044 0.2442541 -0.3408205 0.18691011 -0.35453108 -0.28214407 0.44897562 0.4024338 0.07653918 -0.45669228 -0.07439474 0.62366843 0.66529596 -0.06561701 -0.30294597 0.076619625 0.44186336 0.451043 -0.5279878 -0.49975553 0.30933747
win 0.6915923 0.8338982 -0.20329589 0.724848 0.538494 0.13968362 -0.27439377 -1.4328337 1.2240705 0.25255802 0.48530835 -0.37007073 0.6630058 -1.0888317 0.020217478 0.6460535 -0.27533096 0.36094224 -0.24909133 0.41140535 -0.020191753 0.22493793 -1.1214641 -0.40029186 -0.59311026 0.2646364 0.14058407 0.24424899 0.82867235 0.86384016 -1.0195365 0.52814907 -0.078035094 0.0057595335 -0.32138732 -0.031825054 0.4900197 0.7707595 0.5151369 -0.47121885 -0.93092525 0.2204981 0.34542277 -0.11807549 0.23785423 0.70557916 0.08779236 1.0538038 0.43908894 0.66855794 -0.04736096 -0.026698839 -0.64700145 0.13588971 -0.8149626 -0.13373417 0.5436686 -0.51677245 0.02102236 -0.68251896 0.7301277 0.6622535 0.23743442 1.050324 0.28313473 -0.088917986 0.24950382 -0.17525311 -0.9669543 -1.3266428 -0.23451094 -0.48022363 -1.4545964 0.72771186 -0.046186376 -0.11017653 0.24035263 0.68641126 -0.44004762 -0.19753699 -0.6083799 0.41672653 -0.09104149 0.12472347 0.07607672 0.6733818 0.18680379 -0.81157136 0.4468855 0.3237299 0.50856185 -0.62737334 0.4905435 0.0056810193 -0.52167636 0.12761709 -0.3864352 -0.9084273 -0.12821254 0.76568043 -0.8021188 0.6174601 -0.7747899 0.9685183 0.38168508 -0.33367294 -0.510501 1.4041232 0.09282448 -0.39799428 0.510813 -0.40248534 0.29739752 0.3768218 0.34531403 0.38035247 -0.0612068 0.7808348 0.6313545 -0.28431854 -0.7414706 0.3335594 -0.2903286 -0.30646122 0.1611118 -0.589873 0.06220906 -0.8175773
recovery -0.057215754 -0.4548826 -0.024748795 0.20455493 0.36284885 -0.2612047 0.14071448 0.26783806 -0.030163005 -0.21337429 0.15211858 0.26774508 -0.39191306 0.1545418 0.564603 0.51714575 -0.25535342 -0.45015368 -0.32825443 0.6173564 0.40960678 0.3865084 -0.025085073 -0.46762288 -0.4270064 0.37485912 -0.45323694 -0.055850808 -0.16443872 -0.35628048 0.3148732 -0.39245474 0.28709266 0.07856867 -0.002183864 0.7018953 -0.019296894 -0.28913134 0.09342798 0.170964 0.39866877 -0.08196478 -0.6376551 0.40204573 0.3021145 0.0043960023 -0.04386149 -0.045988254 -0.35753557 -0.2737379 -0.015946638 -0.08201758 0.08504183 0.51165044 -0.047931444 -0.12788707 0.014345527 0.36067352 -0.1377876 -0.03909571 -0.3861641 -0.16958536 -0.12521966 -0.027883029 0.2570302 -0.051172946 -0.25199154 0.2664722 0.17890103 0.14404182 -0.15982273 -0.335945 0.1904666 -0.76322955 0.3508377 -0.2153668 0.053649656 -0.6135548 -0.37068036 0.38516596 -0.53761613 -0.1142462 0.0065282313 -0.12737778 0.020581422 0.19251525 0.3162337 0.32056817 -0.0903564 0.2377155 -0.13898094 0.28816196 0.03362523 -0.21767494 0.53295994 0.08817291 -0.47212484 -0.71405226 0.037261058 -0.43068188 0.15117301 0.22084697 -0.35525244 -0.31296247 0.10467487 -0.07520857 0.060241118 0.25185204 0.88897765 -0.7454621 -0.05459181 -0.59997046 0.15517317 -0.032264747 -0.21412048 0.54396635 0.05176174 0.09327575 0.22544491 0.40221027 -0.072374776 -0.16862871 -0.23335129 0.6418324 -0.33230606 -0.46820608 -0.40379286 0.42204833
participate -0.07403858 -0.90293986 0.8948371 0.67312837 1.060324 -0.21743293 0.8259764 0.40526918 0.15310487 -0.4088521 -0.08142167 -0.6644854 -0.10958223 -0.18617618 0.98390865 0.66510403 -0.44557947 -0.20788224 -1.5089765 0.48536232 0.8402811 0.5371539 0.4225495 -0.43644252 -0.1890644 0.1891611 -0.926016 -0.4213444 0.022498552 -0.56935644 -0.0888186 0.13834168 0.8462206 0.54028475 -0.05306547 0.7207268 0.40949613 0.18964566 0.027357765 -0.54454476 0.5775771 1.2944268 -0.5103217 0.30133933 0.61652535 0.019082213 0.609563 -0.1594003 0.021661608 -0.62709546 0.64661205 0.7332462 -0.34845507 -0.56320655 0.008903352 -1.0466048 0.32771242 -0.5428315 -1.1624914 0.050213624 -0.541251 1.0182174 0.2229526 0.31734428 -0.20273131 -0.48186985 0.96874785 -0.39918685 -0.27792698 -0.8965892 -0.078210324 1.1514822 -1.0295677 -0.6867339 0.52902186 -0.2409996 0.24606134 -0.14265633 -1.1708419 -0.46025753 -0.86983705 0.44097272 0.45749232 0.61464345 -0.032547623 0.8725844 0.004086192 -0.318437 -0.102840014 -0.276129 -0.91107386 -0.32472813 -0.1985058 -0.012723316 0.55546504 0.8618662 -0.1116511 0.051296532 -0.44686785 0.16109405 -1.4328828 -0.25346932 0.25798255 0.31371427 0.18483013 -0.27166265 0.2865388 -0.06910316 0.13828416 -0.36156124 0.30440822 -0.8064335 -0.8506498 0.38264903 0.5617819 -0.029004788 -0.6149685 -0.20581613 0.2884082 0.48240232 -0.24603103 -0.48554304 -0.3934308 0.76228505 0.48169675 -0.9436906 -0.67303383 -0.15294708
love 0.28826708 0.08941062 -0.0618826 -0.20733961 0.15933101 -0.18310818 -0.08004067 -0.28159794 -0.54353213 0.29267648 -0.025323056 0.069627576 -0.18712685 -0.5528641 0.28402486 0.096479386 -0.16163842 0.111162685 -0.43867487 0.5469118 -0.29322073 0.20595808 -0.5750598 -0.69756293 -0.27901542 0.5953728 -0.34202832 0.5640736 -0.3111516 -0.09410371 0.20900239 -0.03565973 -0.1730964 0.13268422 -0.19020168 0.5189152 0.18403615 -0.47791708 -0.5760404 0.09562256 0.005464981 0.35667214 -0.5742524 -0.40462315 0.72701204 -0.24457881 -0.5314665 -0.22208552 -0.20745513 0.13545538 0.59257394 -0.17126122 0.3359837 0.085701846 -0.28602192 -0.17407654 0.691848 -0.2768241 0.20406274 -0.050227486 -0.48393932 -0.039679755 0.28325704 -0.6664897 0.09880661 -0.014967713 0.08550935 0.08177541 -0.15106331 -0.34773293 0.36976126 -0.36263654 -0.07586742 -0.18385322 0.18784942 -0.12646033 -0.43053222 -0.2360113 -0.25654233 0.16845873 -0.02607125 -0.4872219 -0.14790635 0.37008983 -0.04421103 0.2551761 0.639588 -0.058690023 0.08920965 0.41102654 0.15670884 -0.20297074 0.39255813 0.37609357 0.34059337 -0.00023164097 -0.35001004 -0.08275051 -0.18348034 -0.31477135 -0.17253429 -0.029865876 -0.076680236 -0.51443964 0.26300895 -0.017113123 -0.33465055 0.05552528 0.35799906 -0.29572347 0.23662221 -0.17532897 0.061306108 0.032545194 -0.6223723 0.00025896158 0.45995182 0.34215578 -0.015971554 -0.06890813 -0.31699264 -0.6643729 -0.4401888 0.28921163 -0.89060307 0.2649551 -0.07986818 0.10494905
self 0.21058019 0.609132 -0.115788005 -0.26945266 -0.20772171 0.8722272 0.2680116 0.32021356 -0.47492233 0.4528724 -0.5811913 -0.5824208 -0.34812117 -0.5747652 1.002613 0.84768194 0.061137304 0.030709324 0.2135531 -0.011750665 0.0071574016 0.97924024 -0.7383834 -0.6665355 -0.04923525 0.26167315 -0.45203093 -0.6600254 0.20686567 -0.12270067 0.3658374 -0.14307 0.7913269 -0.060225565 -0.26802978 1.245759 -0.16140516 -0.5881733 0.48167583 0.8637686 0.3290732 -0.33277574 -1.013127 -0.12412228 0.87959373 -0.41862696 -0.6594772 -0.14629272 -0.80145204 -0.6512802 0.2208114 -0.11391668 0.6974105 0.16659057 -0.020864235 -0.38445988 -0.44915113 0.80546117 -0.3296652 -0.20251045 -0.16277283 -0.14595534 -0.8755667 -0.051470485 0.89808226 -0.18711695 0.47655818 -0.64539593 -0.10638629 -0.15698469 0.6326628 -0.014406508 -0.014050027 -1.0732536 0.5231238 -1.0398844 -0.7822935 -0.6793484 -0.8396028 0.17068681 -0.27752197 0.2535791 0.06935326 0.015369001 0.40139905 -0.4603673 0.8991815 0.24112366 -0.45632207 0.66398674 -0.83439773 0.1061079 0.46937606 -0.2161642 -0.008313879 0.3444496 -0.6828116 -1.4072769 -0.32605314 -0.14175212 -0.045472015 0.38172495 -0.50230426 -0.49840298 -0.22339664 -0.4771017 -0.4234171 0.43580326 1.2446613 -0.87568676 0.05322634 -0.3408989 -0.24220811 0.36653844 -0.7937239 0.58972305 -0.101968855 0.78036094 0.86622334 0.32872447 -0.6618939 -0.9085079 -0.64122045 0.48463503 -0.5441358 -0.26637927 -0.24898094 -0.13354973
anyone -0.0399349 -0.70554864 0.47594357 0.7253371 0.58344036 0.36345103 0.57163084 0.28911138 -0.57467604 -0.46165633 0.08915912 0.18820612 0.10907785 0.26246968 0.34385356 0.9689263 0.022799551 -0.5725845 -0.79897046 0.8958639 0.88988113 0.6232925 -0.4812388 -0.1173993 -0.744357 -0.3031246 -0.3588603 -0.6603241 -0.21246618 -0.11046134 0.39114314 -0.3175985 1.0912981 -0.14343257 -0.47480524 0.89264756 -0.29539847 -1.0828577 -0.26931444 0.34531277 0.6503041 -0.16494738 -0.48865068 0.37289625 1.0112252 -0.6672005 -0.3099155 0.01979279 -0.27801916 -0.67069685 -0.22537543 0.31353763 0.2681862 0.06964322 0.08278002 -0.7940415 0.019173846 0.38486674 -0.48870245 -0.13661104 -0.63151515 0.03777578 -0.4797139 0.29443234 1.0298977 -0.3855695 0.25826243 0.15065093 0.15901478 -0.15684064 0.30881396 0.14583729 -0.41872716 -1.3512218 0.5628095 -0.872943 -0.43122864 -0.829652 -1.2547764 -0.031441156 -0.48266283 -0.088774115 -0.2668541 -0.013615343 0.49232993 0.09259799 0.056500815 0.4052732 -0.37408963 0.20711984 -0.026225014 0.27647564 0.015912807 -0.3209812 0.90064645 0.2904536 -0.43096456 -1.0900955 0.13337216 -0.22249065 0.048985217 0.2594652 -0.62327486 -0.18488537 0.16447106 -0.12191324 0.023252906 0.40205148 0.5528218 -0.7571715 -0.07446116 -0.55439734 -0.25482535 0.55757684 -0.22844516 0.26459843 -0.06477942 -0.054512773 0.30183408 0.337945 -0.14053583 -0.79706675 0.2028367 0.27073354 0.2314732 -0.48262036 -0.80118257 -0.09792917
question 0.5681805 -0.1982923 0.32297832 0.3721038 0.104899675 -0.1152291 0.6010812 0.36779293 -0.47718787 -0.3666292 -0.2128279 -0.3139433 -0.1421906 -0.44237658 0.44158497 0.43790475 -0.7122342 -0.10038729 -0.5704861 -0.54145676 0.30816132 1.1223804 0.30183297 -0.56472117 -0.25694525 0.26081914 0.08727747 -0.09025593 0.34472498 -0.56177735 -0.45487916 0.12333159 0.3182733 -0.29984534 -0.27952003 0.5748479 0.95396 -0.3918329 0.58507234 0.62789285 0.069615796 0.13658363 -0.28578046 0.09114423 0.9744247 -0.10090566 0.21143532 -0.4167398 -0.6231062 -0.10447437 0.33552545 0.56317604 0.37882924 -0.27424088 -0.57746375 -0.09045269 0.6755978 0.25779116 -0.64751923 -0.16696787 -0.05952598 0.0669584 0.26042086 0.5668977 0.8563994 -0.5654601 0.03073291 -0.28360483 -0.58808124 -0.89161867 0.39775297 0.6543241 -1.358005 -0.31428733 0.05715452 0.047760524 -0.3738704 -0.28218812 -0.05926722 0.67926913 0.18499859 0.080403574 0.37536314 0.64272296 0.119732104 -0.047618203 0.10606364 -0.5675731 -0.005132138 -0.34980723 -0.17018637 0.40938133 0.07214203 -0.116149746 0.25094563 0.15902686 -0.31073752 -0.49730968 -0.38596782 -0.8066665 -0.9052812 -0.15457341 -0.13241 0.52687347 0.21541753 -0.45579422 0.68307644 -0.17016229 0.47802806 -0.0028487411 -0.19819787 -0.41983557 -0.47471806 0.06804948 0.060975503 0.37962106 0.034011293 0.66809934 0.28402057 0.19118837 -0.048025634 -0.5901675 -0.6676483 0.8441243 -0.47583315 -0.6771333 -0.3360148 -0.20615804
back 0.1007002 -0.25802952 0.3192134 -0.25243205 0.42166552 0.08414217 -0.19306758 -0.2428294 0.2257035 0.25060672 -0.099778906 -0.011397913 -0.05908261 -0.38994983 0.09162707 0.1772954 -0.4399267 -0.25427017 -0.10725765 0.6654846 -0.53838587 -0.31681642 -0.63403714 -0.8263208 -0.28013453 0.12263953 -0.25044495 0.42664066 -0.7086825 -0.2782504 0.3380319 0.010847389 0.17836024 0.06898654 0.43010297 -0.29988196 0.25589716 -0.08645321 -0.39536566 0.21696493 0.033379428 0.6289743 -0.3956355 -0.1314576 0.028121207 0.04226939 0.011893383 0.55355644 -0.03732209 0.4393076 0.17644757 0.37171966 0.08534749 0.6361898 -0.12396151 0.018721007 0.16945991 -0.27267334 0.18097067 0.21661463 0.15271567 0.16259365 0.6358985 -0.3775074 0.44516993 0.036661725 0.04986647 0.85465443 0.20050757 -0.34787846 -0.25777465 -0.58913684 -0.06591304 -0.27595934 0.014068489 0.19885954 -0.5743949 -0.25483155 -0.3595402 -0.049249843 -0.16433111 -0.090601966 0.11188912 0.6235083 -0.19150764 0.7835542 0.3812743 -0.340795 0.20018631 0.0054212506 0.38802275 0.15341169 0.44149452 -0.09007042 0.46653935 0.1923908 -0.20949984 0.3113414 -0.28322044 0.05099291 0.3385604 0.12432502 -0.017806321 -0.056967877 0.17088838 0.24869365 -0.26398027 0.31661615 0.42576045 -0.45650154 -0.09055986 -0.15295078 0.54371 -0.052446384 -0.3993989 -0.52384514 0.5130564 -0.050741304 0.42198688 0.6707882 0.17804283 -0.1765137 -0.04488864 0.19115438 -0.48815897 0.035929717 -0.15891534 0.32067785
