75 128
foods 0.00054570835 -0.0065141525 0.009800937 0.006700091 -0.0008341312 -0.0076935296 -0.008619197 -0.0007751718 -0.0028664824 -0.0039857877 0.010129613 -0.0016276077 0.0027176994 -0.007355708 0.002971782 -0.002202341 -0.0052310773 0.0029576002 -0.005478119 -0.0024278099 0.0036458287 0.009898283 0.0011349964 -0.0021836613 -0.0051455293 0.0053318758 -0.0070684026 0.0068883835 -0.0056363065 0.00029574652 -0.0063445796 -0.0047703055 -0.00320165 0.0076462533 0.004651126 -0.003893399 0.004966182 -0.0063706976 0.009041907 0.008541881 -0.0031849365 0.00038467388 0.004049601 0.003719151 -0.004633758 0.0011936483 0.004330209 0.00042313032 -0.00045060387 -0.005892973 0.008911211 -0.0059603057 0.0015170287 0.004040752 8.8494264e-05 0.0033488008 0.00573923 -0.006116636 -0.009222627 0.008674671 0.00650906 -0.0069922744 0.0038460118 -0.00024125674 0.0061177933 -0.005966157 0.002738251 0.0047493926 0.0075366376 -0.006112479 0.00045877686 -0.007575872 -0.013002575 -0.010997228 0.0003671456 -0.00935108 0.0024993871 -0.0041030077 0.0015271022 0.0054375217 -0.0035501642 -0.002338279 0.01039654 0.012798629 -0.002009916 0.00921259 -5.9961085e-06 0.004377992 -0.00027020473 0.0055224127 0.001162506 0.0012482031 0.0005020736 0.008761624 0.00879859 -0.0075318627 -0.008441929 -0.0084519265 -0.0014540473 -0.0059748534 -0.007322821 -0.007779287 0.004838039 0.0023744307 -0.0077864747 -0.0048046317 0.0028061292 -0.003911814 0.005301868 -0.005530829 0.0032738748 -0.00764476 0.008361182 0.0056398306 -0.0022643197 -7.9176956e-05 -0.0056021693 0.0043927394 0.0012879161 -0.010051601 -0.009620518 -0.0028529787 0.002033604 0.0056926864 -0.0060184826 -0.0056537357 -0.0060213986 -0.0016051662
feel 0.0072041173 -0.0020294236 -0.0022141833 0.0031746645 0.0016455596 0.004555583 -0.004630316 -0.0021182017 -0.0013665949 -0.0018020321 0.003712479 -0.0035988428 -0.0072706244 0.0039710854 0.01232271 0.009402874 -0.006265477 0.0046062754 -0.0021081355 0.0064117843 0.0028091301 0.010648051 0.0017699329 0.00018135717 -0.0064448724 0.0055131475 -0.0042040115 0.00067022786 -0.00047745445 0.0062334924 -0.008159801 -0.0034860605 0.004343555 0.0037889678 -0.004768598 -0.0050257407 0.012523695 0.0054867323 0.007418899 -0.0012006676 -0.008448739 0.0023718472 0.010084986 -0.0051276726 -0.0032363327 -0.0012853314 -0.0055427193 -0.0032256974 -0.0030947665 -0.002410529 0.010232428 -0.008683179 0.008155945 0.005620587 -0.0002789636 0.009997458 0.013171823 -0.005218083 -0.0063028727 -0.003547959 -0.0043623256 -0.004104497 -0.003006599 -0.007173225 0.0035800592 0.0018782242 0.0041485336 -0.00037796752 -0.0038456914 -0.0019235918 0.0018313124 0.0042984677 -0.006667438 0.0011736163 -0.005182141 0.0014491787 -0.0031471823 0.008224664 -0.00645969 0.0071760947 -0.00053971255 -0.0016081772 -0.0010160151 -0.0005835674 -0.0034755454 -0.0037023083 0.007221935 6.3225176e-05 0.0010308195 0.009004607 -0.0030496703 -0.006689558 -0.003964651 -0.005649749 0.010222245 -0.0044404245 -0.0071130972 0.001390394 0.00048095625 -0.0099342745 -0.0010034364 -0.0062391916 -0.0008868695 -0.0022509198 -0.0030768465 0.0004997347 0.007033253 0.004946827 -0.0065125134 -0.007157154 0.007913334 -0.00014708276 0.0007078497 0.002972968 0.0040721046 -0.0038274624 -0.005767708 0.004509782 0.0073104524 0.001440006 0.0006247953 -0.006294676 -0.002123517 0.0033549499 0.0024846036 -0.0062835845 -0.008872519 0.00036554248
gym 0.008842716 -0.007270631 0.0054190764 0.007799929 0.0014600486 0.0038620313 -0.007887082 0.006766363 -0.0042006318 -0.0059203 0.006316164 0.006265665 -0.0069008623 -0.0009128772 0.0094656 0.0006999525 0.0010863949 0.009210602 0.00691085 -0.0061381226 -0.0019720886 0.0138792 -0.0003612304 -0.0123755215 -0.0022532113 -0.005853089 -0.0012527953 0.0047630495 -0.0023350664 -0.0052462136 0.004736202 0.0017447798 0.0011893881 0.004930786 0.0065040155 -0.003942229 0.009881757 -0.00037083024 -0.0027678404 -0.0063073905 -0.0024525789 0.0056843855 0.0061423318 -0.0076609533 0.0038413666 -0.0016678033 -0.0047561475 0.005146 0.0026816204 0.0018129462 0.004606639 -0.0005061977 -0.0031771243 0.003577985 0.006557413 0.0056024813 0.007092703 -0.0038744241 0.0005458506 -0.004396864 0.004930021 0.00024764944 0.0009264488 -0.0007847967 0.004842357 0.0015010956 0.0002347176 0.008795218 0.0023842696 -0.0014279968 -0.00077667617 -0.006662514 -0.013702439 -0.006627299 0.0045827413 0.0012322544 -0.001269833 -0.0023734295 0.0025548362 0.002440349 -0.0019892056 0.0055381986 0.009001396 0.0059830393 -0.0024943044 0.0051263594 0.013105705 0.006471513 0.0010319186 0.008608637 0.006236263 -0.012680699 0.009961893 0.0022053367 -0.0009604079 0.0031247737 0.0049588247 -0.008102525 0.00074793276 -0.0093110185 -0.007791753 0.0030108225 -0.0058615683 0.0046866587 0.005205036 0.0063559744 0.0047900877 -0.00720509 0.003518603 -0.009441823 0.0013564581 0.0058507677 -0.0003179185 0.005655348 -0.007849787 -0.009100193 0.007990739 0.0057104724 0.00796988 -0.0011846201 -0.0013780079 0.0010342796 -0.008184001 0.0083622215 -0.0047596693 0.0035597878 -0.0066981516 0.0010604099
still 0.0062091514 -0.0024675056 0.008874754 -0.0049939044 0.0026724662 -0.0011719838 -0.0004084144 -0.00016732966 -0.007344509 0.005318562 -0.00041032664 0.00025095444 -0.0071365 0.001684736 0.012734704 0.0011813075 0.005754123 0.0015935812 0.006733835 0.006992857 5.826862e-05 0.0039172065 -0.007733874 0.004085233 -0.0034980876 0.0012711408 -0.0031237265 0.0098083615 0.0073552025 0.00026040917 0.0002689226 0.0036327564 0.0008921051 0.008031559 -2.8536731e-05 -0.0020713957 0.007925962 -0.002350089 0.0006563698 0.007943446 -0.008220532 -0.0029843247 0.00085549185 0.0040832506 0.008422891 -0.00438788 0.0035361375 -0.0011728546 -0.008362194 -0.000645684 0.0008641867 -0.004397079 0.0028992079 -0.0031050835 0.005040575 0.009343407 0.0025822532 0.0022004396 -0.0016105674 0.0008710807 -0.0040472043 -0.00026670014 0.004158769 0.0049946876 0.0074844416 0.0024753392 0.0027417259 -0.0047483803 -0.0014072226 -0.006928469 0.006553968 0.004478436 -0.008326464 -0.002313436 0.0050030244 -0.0025032617 -0.00067473884 -0.004492582 0.007025415 -0.0013372912 -0.005691607 -0.0058434936 -0.0029999835 0.0021909985 -0.005820671 0.0026661633 0.0011577739 -0.002277274 0.006487141 0.00515486 0.00046692204 -0.005269291 0.00987935 0.0016029545 0.0062148864 0.007196246 -0.009069467 -0.009231979 0.004115921 -0.0012691949 -0.0027129871 0.0024034786 -0.004837921 -0.004032435 -0.007039743 0.0047292383 -0.0017076915 -0.0061199153 -0.0037048943 0.0030105866 -0.000695751 -0.005967127 0.0017975492 0.0008753623 -0.0053934497 -0.0037176001 0.0044410545 0.0034258454 -0.0008923139 -0.0004328287 0.0018446781 -0.00855568 -0.0071972697 0.007677502 -0.007972824 0.00023632411 -0.008866614 0.0065790913
day -0.0052023204 -0.0065541943 -0.0036060659 0.0035198843 0.0026167769 -0.001819574 -0.008113227 -0.00023450065 -0.003586064 0.0002790877 0.008669605 0.0029889743 0.004072637 -0.008741053 0.013483485 0.000951854 0.0073056608 0.004061012 0.003644445 -0.0086391065 -0.006876662 0.013746655 -0.0023352036 -0.0025942747 0.0031818014 -0.0008577037 0.005664924 0.0032338365 -0.006360049 -0.0070081363 -0.0030234768 -0.008671149 0.0048882943 0.0064831884 -0.007008772 0.006725459 0.0117390435 0.0049991384 0.008700251 -0.006249807 -0.0007635053 -0.007871081 0.0013332627 -0.0005011614 0.0024336993 0.0020667987 0.0011363706 0.0003459018 0.0023911824 0.0074949614 -0.0018298501 0.0049787126 0.009140787 0.008962922 0.0042271796 -6.229491e-05 0.0020882161 -0.0013185259 -0.0027699717 0.009264323 0.0025341033 0.0015896554 0.0040289727 -0.007640549 0.00804371 0.0061389725 -0.0021241566 0.0033867597 -0.0053379503 -0.0075078355 0.008014671 -0.0043490124 -0.0010665521 -0.0028036663 -0.0004013117 -0.0024100842 -0.0049696947 -0.00018961431 0.0006278736 0.009342558 -0.002312504 -0.0010425571 -0.00366088 0.0136580495 -0.0047254586 0.007587238 0.008344845 -0.005997371 -0.0017650105 -0.0031839341 -0.005121643 0.00042425536 0.01052275 0.0037491636 0.0036469165 0.0075475965 -0.005763575 -0.0034145715 -0.0020546566 -0.009440995 -0.00929274 -0.008801333 0.004784505 0.005037489 -0.0042931275 -0.007812139 0.001208198 0.0021259196 3.5319237e-05 -0.0012880744 -0.0017525669 0.0020440666 0.004908359 0.0093829 -0.011173599 -0.0069548343 -0.005421538 0.0026499783 -0.003811819 0.00063841627 -0.0075651053 -0.0064398237 0.0022953236 -0.0032523698 7.9020414e-05 -0.005863476 0.005404631 0.006991641
every 0.00263932 -0.0003229911 0.0067499033 0.009809322 -0.0049669603 -0.0042728954 0.0026772853 0.0010137655 -0.0073984917 -0.0012381155 0.0041491687 -0.0033921278 -0.0059375307 0.0025620162 0.012690543 -0.0035312562 0.0003999908 -0.00038211123 -0.0044842726 -0.0017845848 -0.0035936106 0.012561014 -0.004666548 -0.0008657376 -0.0019864251 0.0029854341 -0.00028659412 0.0112102665 0.0013776299 -0.005515638 -0.003258599 0.00013565551 -0.0035640032 -0.0030005833 -0.0045428895 -0.005341602 0.009196266 0.0034902703 0.009339564 0.0063032336 -0.0058525205 0.0016504896 0.010139102 0.0008907875 0.004621886 0.005379782 -0.007934474 0.005955017 0.00408193 0.007993245 -0.004448301 0.003894973 0.00888007 2.8740333e-05 -0.0043636076 0.006260833 -0.0012681352 -0.004840501 0.0014291983 0.0077438625 0.008565753 -0.0050935224 -0.0059790355 0.00706541 0.0074023143 -0.0035596353 -0.0074038426 -0.0025809438 -0.0032504585 -0.005080971 0.0020671466 -0.0017316323 -0.007792868 -0.008157372 0.008511754 -0.007928792 -0.0069623175 0.0069035734 0.0015613689 0.011525968 -0.004599743 -0.0068784347 0.0029649588 0.0042017084 -0.005816721 0.0005628892 0.0066316174 0.004998266 0.0074844807 0.0050110444 -0.004457891 -0.005737475 -0.00076099817 0.0062340926 -0.0024465988 0.0016475385 -0.0027988064 -0.0068107345 -0.009632786 0.0011516794 -0.008016601 -0.0017994428 0.0006762568 0.0069282427 -0.0063583157 0.0015342678 0.008016633 -0.005640487 -0.0016719786 0.0021606837 0.005231877 -7.3126714e-05 0.009613711 0.0026696413 -0.0015845031 -0.0034944161 -0.0051615774 0.005281639 0.003488611 -0.009591904 -0.0027608476 -0.0014480543 -0.001341057 0.009766145 -0.0030153673 -0.0048527224 0.0038356027 -0.005369589
bed 0.0033404212 0.0032698596 0.0069096033 0.0046113376 0.006800419 -0.0060010115 0.0042364947 0.0028965904 -0.0063207718 -0.0047588306 0.006455836 0.0037688066 -0.009168046 0.00013728242 0.0031251688 0.002369229 0.005653412 -0.004230652 0.007957212 -0.008151913 0.0052235583 0.011305153 -0.0031077655 -0.010172762 0.0039420743 -0.007433037 -0.007778917 0.001725153 -0.0044758637 0.006047872 0.004897602 -0.0003025244 0.0058781793 0.009792029 0.004191804 0.0033039087 0.00702498 0.005228059 0.005614115 0.0059742816 -0.006341565 0.006651783 0.009009122 0.007018274 -0.0055319024 -0.0021326174 -0.0012159685 0.0025562614 -0.007333307 0.0009936782 0.006285164 0.006709725 0.000245585 0.0021559384 0.0054313247 6.251587e-05 0.004410365 -0.007858815 -0.0003440638 0.0046803397 0.0044321767 -0.008448528 -0.0032640637 0.002062469 0.0028102044 -0.003796102 0.0040800064 0.003746559 -0.006277805 0.006161537 -0.0051398515 -0.0036101309 0.0040730378 -0.0016215605 -0.0035482298 -0.0017321304 -0.0041517518 -0.0045114057 -0.006322005 0.0067600044 -0.0077349595 0.0023111564 -0.0028767074 0.007871063 -0.0022698883 -0.002988694 0.007876552 -0.0070271404 0.0022910486 0.00016417721 -0.0058575068 -0.008843348 0.007153683 -0.002374379 0.0054534604 -0.0075451788 0.00035316966 -0.002915844 -0.0072433404 -0.004727684 -0.00772522 -0.0035469255 -0.0033828353 -0.0012240509 -0.004313401 -0.0078567695 0.004324684 -0.001088318 0.005474576 0.0011184419 0.0076848064 -0.003848357 -0.004825325 0.002374138 -0.009062207 0.0030370676 0.0076431637 0.002049738 0.007365198 0.0046344833 0.0018548502 0.0033063304 0.0060021575 0.0027462158 -0.007047088 -0.006413289 -0.002792145 -0.00047754377
bad 0.006937654 -0.011316125 0.0047214995 -0.0020841057 0.0007816005 0.006216218 -0.009902735 0.007880804 -0.009595829 0.0033155 -0.004676359 -0.0063544186 -0.0083849775 0.00357648 0.0028065955 0.0036821023 -0.00682273 0.009804598 0.0031053976 -0.0044221454 -0.0022660024 0.0117110135 0.002415313 -0.011702905 0.0015020779 -0.004928518 0.00012988974 0.009697888 -9.041263e-05 -0.0011950057 0.0032790345 -0.0061711725 0.0021190788 0.0059748753 -0.0074763163 -0.0028424968 0.010201656 0.001707083 0.009778528 -0.00029791228 0.0059030256 -0.0072393944 0.007646721 -0.0075581023 0.0042905905 0.00741206 -0.0033099507 0.004855598 -0.00868204 0.0006805793 0.005436183 -0.0051387427 0.009366022 -0.0047432166 -0.00025900177 0.009440624 0.010386024 -0.0002449888 0.006682737 -0.006331002 -0.0012618083 0.0009133448 -0.00089074415 0.0036319948 0.008169534 -0.0030711533 -0.0023385868 0.008869091 -0.005309597 -0.008867832 0.00069321087 -0.0076983534 -0.0043052994 -0.0017516967 -0.0051364917 -0.0043325783 -0.005072109 -0.0008887714 0.0017133075 0.0075331065 -0.0031265954 0.005679355 0.002556757 0.010779732 0.004468771 0.0053521735 0.012080778 -0.0035295591 0.002008203 -0.00071302796 0.0026001628 -0.009290541 0.00095197454 0.007680359 8.002504e-05 0.0029453337 -0.0014481312 -0.0005126372 -0.0040891515 -0.010343147 0.0055633113 0.00434301 -0.009498395 -0.004756405 0.0013800737 -0.0008003633 -0.0020412575 0.006778746 -0.006234387 -0.004164789 0.0071472838 -0.0021243314 -0.0012978051 0.008950401 0.0025428946 -0.0055883285 -0.0042202245 0.0016226759 0.008605293 -0.0047399313 0.0018016314 -0.0028376288 0.0018385708 0.0012675769 0.0040489943 0.007823727 -0.008463662 0.0048767705
happens -0.0023811331 -0.003283894 0.005399346 0.0061866804 -0.0004483789 -0.00023937465 -0.008212743 0.0035429038 -0.008175089 0.00097028894 -0.0010969974 -0.0072016343 0.0033711742 -0.0014056342 -0.0030187734 -0.0053811674 0.0009108791 -0.004867828 0.0036132412 0.0021977287 0.002844951 0.00037587626 0.0063019716 -0.010362226 0.0045672185 -0.00094624865 -0.0025208434 0.006279735 -0.0012236366 -0.0045065046 -0.0034441047 -0.0063468902 -0.0010594394 -0.0017010953 0.003395244 -0.0076665776 -8.212201e-06 -0.0070406855 -0.0052757664 0.00019852407 -0.0072620176 -0.0050093513 0.0051680645 -0.001751724 0.0045123184 0.0072352197 -0.00850531 0.0039048106 -0.0073739975 0.0061948383 0.007916886 0.0057883207 -0.003138042 0.003519569 -0.0056399293 0.00078441686 -0.0005147037 -0.007325001 0.0030811979 0.0047933925 -0.0020696295 -0.007167144 0.0036842374 -0.0035209237 -0.0050484748 -0.003592934 -0.0025106405 0.007814951 -0.0052985363 0.003955706 0.005934331 -0.0050010416 -0.0058929 -0.0048328456 0.0033306691 -0.0039902455 -0.0034923372 -0.0060746795 0.0046414803 -0.0035127935 -0.007830854 7.071361e-05 0.0041589784 0.0044085444 0.0018720028 0.0034650709 0.0051278276 0.0057178484 -0.0010226241 -0.0034524766 -0.007008678 0.002367719 0.0036777817 -0.0030226607 0.00709882 0.0067257625 0.0049302494 -0.0070437226 -0.007408421 -0.0045479406 -0.0063311476 0.0027150027 0.0028682845 -0.003947832 0.005083613 -0.006745477 0.004986453 -0.0035574108 0.0020429464 -0.0042764363 0.003778382 0.0048197834 0.0015658332 -0.0021061958 -0.009084958 0.00079766853 0.0047369483 0.007486823 -0.0017578107 -0.010125115 0.0034392704 -0.004816092 0.0021594064 0.008657156 -0.004047826 0.0010642858 -0.004579709 -0.005034628
time 0.0005432523 -0.012782528 0.004190715 0.00531176 -0.0067818314 -0.0031167525 -0.0045659193 -0.004020395 0.00061329064 -0.00067560415 0.0056460053 -0.0065878783 -0.007319683 0.0021874928 0.011410335 0.006959137 0.0042033037 -0.0038242743 0.0071788747 -0.0063344506 -0.0056304135 0.013236843 -0.0021008807 -0.011799657 -0.004068667 0.0041776197 -0.0042481814 0.008042678 0.0010927349 0.0021055804 -0.0016210846 -0.0091017345 -0.0040165177 0.010459869 0.0011061892 -0.0048835124 0.010170447 0.006070153 0.00907602 0.0012723212 -0.008455568 -0.003328542 0.008005086 -0.0056195217 0.0103575485 -0.0066262973 -0.0076715583 -0.0052829254 0.0032783665 -0.0045047607 0.009313431 -0.00898744 0.00672489 0.0037753584 0.0006134769 0.009914154 0.008736596 -0.00058590533 0.0024372651 0.0067842235 0.0040435856 0.0056429165 0.000278974 -0.007479367 -0.00077787566 -0.0015580582 -0.0068610506 0.0001428168 0.005975707 -0.006522958 0.005370332 0.0015478727 -0.006883931 -0.0032148832 0.005557592 -0.010086252 0.0013775734 0.008411347 -0.0034609945 -0.00074975216 -0.00863979 -0.008445717 0.00555332 0.009830595 0.007595665 0.00083856407 0.005754222 0.0022265639 -0.005635524 -0.0042697503 0.0025957788 -0.011845332 0.00010449866 -0.0016659518 0.007508633 -0.0028041613 0.0062029343 -0.0019997328 -0.00851973 -0.0067894245 -0.00046591237 -0.005514777 0.0038554878 0.008063286 0.002801086 -0.006921901 -0.004511725 -3.685269e-05 0.00022452847 -0.0067663896 0.007773059 0.003272827 0.00038647628 0.004290742 0.00068813056 -0.00065371266 0.008084138 0.0018912165 -0.0030543634 -0.0040264986 -0.009254209 0.0060610473 -0.008420707 0.0022467303 -0.0034086134 0.0023530077 0.0014988837 -0.0062542935
well -0.00020894453 -0.0042961533 -0.0038097447 -0.0028595286 -0.004542396 0.0071028234 -0.0028990728 -0.0064630136 0.0047121476 -0.0036290146 0.00022422544 -0.0013626133 0.0006406234 -0.004542831 0.0030984916 -0.0007444702 0.0071571665 0.0066833897 0.0013106258 -0.005330018 0.0026815052 0.0044457796 -0.004841283 -0.0070659053 -0.003326466 0.0014281884 -0.0074854796 -0.0016970129 0.0069763213 -0.003647963 0.0050698067 -0.0005236091 -0.0048533767 -0.0018222004 -0.00022814581 0.0035331543 -0.002009374 -0.0041271783 -0.0034754444 0.005995198 -0.0023997973 0.0028453004 0.0010070074 -0.0061331247 0.0005229866 0.0009148257 0.0020014658 -0.0074837687 -0.0063611707 -0.004270369 0.003782779 -0.0036214578 0.0031505658 0.0038772637 0.0038422204 0.0032993502 0.0003965092 9.262159e-05 -0.0049201995 -0.0041570375 0.0077425274 -0.004117757 -0.0065425048 0.0026589674 0.00818584 -0.00018491902 0.0012165979 -0.0019674308 -0.0034042338 -0.008303469 -0.005332535 -0.008226456 -0.008192442 0.004345814 0.00796831 -0.003928854 -0.00095480913 0.0068495004 0.0008004216 -0.0010417976 0.0014137275 0.00069457974 -0.0015638276 -0.00049355737 0.008699783 0.0072234506 -0.0037976084 -0.004532367 0.0023576973 0.0024955815 -0.0071198917 0.004442365 -0.0026580193 0.0046566525 0.008893968 0.00083308335 0.0022698038 -0.0034786838 -0.010065694 -0.0019003318 -0.0017067931 -0.008382821 0.004244255 -0.0053217225 0.003701994 -0.0040214504 -0.0070489696 -0.0072593414 0.0054710577 -0.005510581 0.0049167164 -0.0021972854 0.009602096 0.0068758586 0.005909178 0.0049314457 -0.0052535017 -0.0058293794 -0.0031708016 -0.0025367294 0.0024639894 0.0018394622 -0.0025467158 0.0057935896 -0.003355475 -0.0052063437 0.0022659118 -0.0075214733
eating -0.00014313945 0.0013967494 0.010102097 -0.0012002912 0.00032779985 -0.004466516 0.00095179904 0.002206146 0.0033490898 0.0031751574 0.009406294 0.006084787 0.0041575166 -0.006590152 -0.0025826627 0.0017074926 -0.0019823117 0.0077161603 0.005202649 -0.0017232813 0.0016796511 0.006295142 0.005990474 -0.010713154 -0.0016540049 0.0023441499 -0.0025416291 0.0096280305 0.007776805 0.0041545923 -0.002532657 0.004720681 -0.007440613 0.0051063676 -0.003590926 -0.0040419507 0.006521342 0.004354918 0.008703516 -0.0035249796 0.004877806 0.0048146043 0.00016534803 -0.007339907 0.0062466534 0.005748546 -0.0015283541 -0.0062161325 -0.0067449333 -0.0008677744 0.00613843 -0.0037246873 -0.00411648 0.003987847 0.0044098846 -0.0032207905 0.0045950967 -0.0022776355 -0.0009362351 -0.0062844353 0.0033405905 -0.005030335 0.0018934082 -0.0016398357 0.0037528204 -0.006382146 -0.0028002851 0.0032134678 0.0039737695 -0.0038756884 -0.006378915 0.0021309026 -0.0045857592 -0.0007347044 -0.004387286 -0.0047784783 0.0048468355 0.0067241155 -0.0033436688 0.006119169 -0.007565169 0.003698214 -0.0017036005 0.0021083134 0.0087812245 0.0021819794 0.009725324 -0.0050281608 0.005788458 0.010106788 -0.0074539534 -0.007999521 -0.0035468421 -0.0024465667 -0.000704653 -0.00667015 0.0047503496 -0.0058285533 0.0032774904 0.0010155919 -0.0063908217 0.0020496775 0.0028029107 -0.005029976 -0.006295326 -0.0027119976 -0.0065555116 -0.0013406058 0.000449734 0.0006384209 0.0022365148 -0.0019241945 -0.0016635134 0.0030964983 -0.0032569899 0.0033047737 0.004380953 0.0058326325 0.0028107394 -0.004476442 -0.005441306 -0.0020605666 -0.00024199019 0.0004650548 -0.006473749 -0.006204256 -0.009065242 -0.004430114
holding -0.0025858486 -0.0070646605 0.00026179812 0.00027220082 0.006326278 0.006915078 -0.0013535167 0.0020754673 0.0026596698 -0.00068652816 -0.003414559 -0.0010628426 0.0007777632 0.0058654854 -0.0004812049 -0.0066750846 0.004464915 0.008521826 -0.005325574 -0.0006759382 -0.0035668605 0.007596307 0.00751908 -0.0019236839 0.003133743 0.0049560885 0.0024484626 -0.004697245 0.0027889602 -0.0017275098 -0.002826639 0.0035827172 -0.0013693301 0.009260242 -0.0004697344 7.0052745e-05 2.4447741e-05 -0.0066233245 -0.0063411393 0.00454822 -0.0056625637 0.002252508 0.0036988007 -0.0056939255 -0.0015338574 -0.0042299237 -0.007069019 -0.00051887584 0.006934158 -0.0045218645 -0.0023523916 0.0061414377 0.009077523 0.008183609 -0.0075731496 0.004972983 -0.0033339264 0.005199833 0.004090409 -0.0018450327 0.006146954 -0.006867947 0.004196663 0.0034313046 0.0058304416 0.0043308036 -0.0024058346 0.0036580518 -0.004876829 -0.006307625 0.002834427 -0.008282313 -0.002697565 -0.00083303085 0.0067616524 -0.0074839583 -0.0025029655 -0.0030654634 -0.0044293804 0.0018473242 0.003270073 -0.004719735 -0.00027498478 0.009293836 -0.00030686983 -0.0018788626 0.0077804523 0.00073428015 0.0006995633 0.008642165 0.0058035553 0.0006913797 0.003773918 -0.0010038755 0.007530999 0.003983074 -0.0050801355 -0.0059621963 -0.0021577764 -0.007967753 0.0018302571 -0.007950395 -0.0019358828 0.0030145398 0.0020496699 0.0019473027 -0.0069455463 0.0026351686 0.004738704 0.0017811554 0.006673686 0.00064707454 0.006505847 0.007815876 -0.002187096 -0.0017424711 0.0023947589 -0.0047425614 0.0053497683 -0.005174992 -0.003743664 -0.002221613 0.0057506706 0.0030977847 -0.0011912569 -0.002388215 -0.0026033232 -0.0009829149
husband 0.005978266 -0.0059942 0.004642459 0.00618899 0.007602788 0.0042563686 0.005469826 -0.007614214 -0.008195753 -0.0069012223 -0.004104264 -0.0075822994 -0.007828572 -0.0033176555 0.0059075956 -0.0002495219 -0.0062866746 0.005230198 0.0011624397 0.0030475035 0.006104584 0.01091302 -0.0007291258 -0.00033001232 -0.005574705 0.0013152033 0.0021521817 0.010765372 -0.0016450481 0.0011546208 -0.0065986607 -0.0031853968 0.0056534186 -0.00024594244 -0.0012025066 -0.007329813 -0.0041064913 0.007333067 -0.0019609546 0.004972657 -0.006417872 -0.0022996769 -0.0033883755 0.005548985 0.006868787 0.004745069 0.0056941686 -0.0015028684 -0.008577171 0.008548294 -0.0021209735 0.005423895 0.00800264 0.00015201406 -0.0056717875 0.00074527843 0.008553374 -0.005789529 -0.00010888941 -0.004909438 0.008157107 -0.0034074013 0.008609113 -0.004900382 -0.005203253 -0.0072067846 -0.0038293812 0.0046286057 -0.00038340257 0.0050349403 0.0038738344 0.0015208464 -0.0021981432 0.003409843 -0.00096961367 0.0021099013 -0.008928333 0.0029342421 -0.0011752029 0.004663849 0.0044589117 -0.0036893587 -0.00020633868 0.0046305684 0.0010446697 -0.0013339177 0.008751976 -0.005541003 0.008064138 0.0020694493 0.001259871 -0.0013521722 0.001967024 0.0028552269 -0.0003152066 0.003900331 -0.0013434641 -0.0046142433 -0.01015045 -0.011163574 -0.001153374 -0.0059422213 -0.0024264043 -0.0025715535 -0.007260555 -0.00021892898 0.0047934293 -0.001861344 -0.0046590297 0.0009335026 0.00081808853 -0.0054404587 0.0020559612 0.0013951793 -0.0053371377 -0.009775808 0.007072385 0.0051401476 -5.224807e-05 0.0035487493 -0.0017650278 0.0042202612 -0.002569227 0.00840447 -0.00085163186 -0.005190159 -0.00539718 0.0077722548
back -0.0030508628 -0.0055209203 0.0017265285 0.0049021654 0.002021214 0.0052299914 -0.00076126715 -0.0023790791 -0.00715956 0.0037495762 0.0066484464 -0.005574813 0.0024584278 0.0066796676 -0.0020841185 -0.0010009456 -0.0067297807 0.0035720204 -0.0023753261 0.001374021 0.0076763243 -0.003444157 -0.007291107 -0.00076077157 -0.0073197284 -0.0073204357 -0.008366439 0.0018017323 -0.00037506828 -0.0001599429 -0.0022523724 0.006152634 0.0064542047 -0.0031386188 0.0066669676 -0.007243475 0.0011481858 0.0021119458 0.0014648677 -0.002330145 -0.00031789564 0.0006183216 -0.0055279066 -0.0041167117 -0.0047925445 0.0033051122 -0.0011852667 -0.006496291 0.003578131 0.0010623237 0.0033992247 0.0038461816 -0.0010364187 0.006760158 -0.0059194076 -0.0014600507 -0.0034184055 0.0006034666 -0.0064792503 0.0079183085 0.00519961 -0.0064365184 0.005618459 0.0049476745 -0.004331442 0.0034274918 -0.006433082 0.007984367 0.0035083336 -0.001646752 -0.006042232 -0.001644287 -0.0031114947 -0.0012402355 0.0073733977 -0.004599419 -0.007623323 -0.0067284033 -0.0012310895 0.0038300648 -0.0003745389 -0.002694674 0.007849456 0.003147488 0.0059084054 0.004168899 -0.003155312 -0.0019492791 -0.0048852335 -0.003854134 -0.0030630988 0.002694417 0.000749766 0.007880937 -0.0004042509 -0.0039933873 0.0020262422 0.00035014038 -0.0022819773 -0.004085611 -0.0056361197 0.0022817794 -0.0069241794 -0.0064548715 -0.0075174537 0.0060152803 0.0032737136 0.005503318 0.008313091 -0.0067062913 0.0038904136 0.0015323034 0.00662995 -0.0014909758 0.0055725686 -0.005885352 0.0064207404 0.006828038 0.0009360738 0.002511172 0.0037622282 0.00032061653 0.0049830433 0.0034449836 -0.0017343375 0.00551823 0.0025695853 -0.0024106856
food 0.0020827176 -0.0020868802 0.0051493053 -0.0029601078 -0.0027724202 -0.00077893503 0.0018594114 -0.005158095 0.0049751056 -0.003307366 0.005550148 0.0015245631 0.0043738154 -0.0041762404 8.21094e-06 0.0034454432 -0.0017801056 0.0054933205 -0.004393481 0.0017519839 -0.0003121042 0.0022019087 0.0019378344 -0.0035375108 -0.0042895847 -0.0068506985 0.0010012209 0.005818355 -0.004222119 0.006427574 0.002097623 -0.004802893 -0.0014507199 0.0046067894 -0.0055564726 0.0015010828 0.006268364 0.0050131623 0.005550316 0.0034584212 -0.0027043605 -0.0049228556 0.0080603035 -0.005932223 -0.00018770382 -0.0022141463 0.0046160715 -0.0055406387 0.0019571702 0.0023608545 -0.0021273722 -0.006839173 -0.004308589 0.003295623 -0.0072928057 0.0054970314 -0.0002554553 -0.0074021965 -0.0047581606 0.006768347 -0.0004926703 0.0042397184 -0.0065900353 -0.0073007746 -0.002770014 0.00048154124 -0.005958968 -0.006813478 -0.007120091 -0.0017079334 0.0065576034 -0.0074565914 -0.0067506093 -0.00047389316 0.0031326574 -0.008716804 0.005410714 -0.006244042 0.0034318992 0.009737682 0.004063874 0.0040572374 0.007485942 0.005332257 -0.0048763133 0.0054363036 -0.004345927 -0.004686106 0.0057750233 -0.0050034076 -0.005101163 -0.004876871 0.0038752055 0.004963707 0.0028338444 0.0041042077 -0.0029712107 0.0022200784 -0.0073581515 -0.0031419704 -0.0068725855 -0.0006216814 0.002836004 0.0042099427 -0.0039798254 0.00083058816 0.0062532355 -0.0044491086 -0.0024128582 -0.0014076179 -0.0030613693 0.006162113 0.0075736465 0.008196418 0.005770398 -0.0077836574 0.0003527674 -0.0047003785 -0.0027470859 -0.008239524 0.0015594825 -0.00069666165 -0.006083309 0.007647365 0.0002900084 6.2269814e-06 -0.0037034603 -0.0025452434
certain -0.00050124316 0.0042464226 0.006159854 -0.00477873 -0.0005531551 -0.0071247537 -0.0029318547 0.004373961 -0.007467005 0.0030686848 0.006338505 -0.003877715 -0.008907502 -0.002986806 0.0016336557 0.0045678276 0.0074511473 0.0028146992 -0.0012898991 0.0019156641 -0.00487076 0.0029033287 -0.0011997637 0.004864004 -0.005872222 -0.005678915 0.00044749313 0.004483906 -0.0049810708 -0.005565716 -0.0026345472 -0.003692109 -0.0075944327 -0.0008237807 -0.0024026418 0.005009312 0.0036314754 0.0014299264 0.002212745 -0.0017413109 0.0015339253 0.0002905388 0.007087873 -0.0009173902 -0.005462343 0.0011385861 0.0071173813 -0.0049944017 -0.005021938 -0.00092244707 0.008221337 -0.0012183149 0.010180143 -0.0057096006 0.0073833186 -0.0061166305 0.010094216 0.0011567483 0.001010003 -0.0035425357 0.007916503 0.003664119 -0.0033646917 -0.007706679 0.007249233 -0.004736117 -0.0076966267 0.002923321 -0.00413139 -0.0076522403 0.008756885 -0.0024533737 -0.004908144 -0.005642164 -0.0026348198 -0.006643055 -0.0053930557 -0.0038883123 -0.0067278105 0.01092227 0.0043831654 -0.004086164 0.0034864545 -0.0020965617 0.006933503 0.007829024 0.0036476725 -0.0056591593 -0.0007395345 0.005462435 -0.0030801892 -0.0005690957 0.009140439 0.004629827 -0.002200746 0.004413404 -0.0035712959 -0.006711795 0.0028107702 -0.009860044 -0.0020266979 -0.0021820758 -0.0076951063 -0.00019951814 0.0038792167 -0.004889752 -0.0052642045 0.0048277527 -0.0017707685 -0.0074224826 0.0010822944 -0.00092107087 0.008342692 0.0018118416 0.0039727706 -0.009304849 0.004126527 0.006728644 0.0022431489 -0.004106164 -0.0008826475 -0.0017166496 -0.0073237796 -0.0033259806 0.00023792466 -0.0019480453 0.0061137658 -0.0006524437
around 0.0060682334 -0.009641313 -0.0039929203 0.00023758813 0.0020473537 -0.000977396 -0.0054997364 0.0050949943 0.0053086146 -0.0069385427 0.009162522 0.0048748073 -0.007161626 -0.0023041037 0.006690189 0.0069565508 -0.0023989321 -0.0043159556 0.004058079 -0.007545242 -0.0041547013 0.0026368361 0.004223399 -0.0068133795 0.002581182 -0.0005609834 0.0008964544 0.007289408 0.001609549 0.005249516 -0.0017115126 -0.0074695046 0.006710547 -0.0016752105 0.0035818992 -0.00316568 -0.003245221 -0.004999007 0.0054988065 0.00028785178 0.0004838404 -0.0071550915 -0.0019098008 -0.005006629 0.007942468 -0.0064545735 0.0033408476 -0.0013702669 -0.00085587637 0.0078518335 -0.0012888173 -0.005975979 0.0031549474 0.0068062223 0.00739794 -0.0015498932 0.0047297077 0.0036886006 -0.0051236674 0.006413624 -0.004030064 0.0007889426 0.0044644014 0.0031211933 -0.0018618454 0.0017419233 0.005207491 0.0075928294 -0.0076330192 0.0026727759 0.0049169627 -0.0024151166 0.0038827152 -0.0055621453 -0.0006638314 -0.008045157 -0.0039046188 0.00038567203 -0.003001073 -0.0010931176 0.004575009 -0.0052411095 -0.0037370902 0.009438516 0.0085485205 0.004315389 0.002815948 0.00018014753 0.0005317101 0.0069980533 -0.005615532 -0.0023501706 0.005088107 -0.0005722812 0.00232832 0.0030478167 0.006418566 0.000119921795 0.0050431537 -0.0071166893 0.002701435 -0.0039623985 -0.004394794 0.0015527628 -0.0037291676 -0.00517865 0.002571519 0.0064818086 -0.0043376065 -0.008272154 -0.0018345972 0.004965077 -0.0054195984 0.008873414 -0.0024074868 0.00032130504 -0.00052749726 -0.0028546427 0.0038444728 0.0031222315 -0.0071420493 -0.0019412063 0.00024643182 0.005083367 0.0049510803 -0.0030583134 0.004450577 -0.0042867516
shame 0.006112504 -0.0033191876 0.007623321 0.0028942614 -0.0023464574 0.0062344014 0.0010220226 -0.0030921518 -0.005772133 -0.0034503646 -0.002713165 0.0018319164 -0.008455036 -0.0052904123 0.005735374 0.0014496065 0.0051226383 -0.001787694 0.0003653965 0.001582786 0.004638226 0.004481171 0.007588336 0.0007673117 -0.006717623 -0.0012719653 -0.0075807897 -0.0020529295 -0.0011668176 -0.008285126 0.0059240013 0.0006670444 -0.0013880866 -0.0024272916 -0.006816179 -0.0077544535 0.009283084 -0.0017818987 0.0052530486 -0.002860331 0.0071584056 0.0026401929 0.0027331745 -0.0034321316 0.0022471545 -0.001731104 0.005174591 0.0027665482 -0.00011072593 0.0036287832 0.004138924 -0.0057967044 0.009345349 0.0020693757 -0.004308207 0.007898012 0.0012631927 0.006195645 -0.0019865124 0.006342217 0.0030403216 -0.004198313 -0.0021847535 0.0069072326 0.0027928052 -0.0049587977 -0.00023739116 -0.00087836775 0.0010882963 -0.007516089 0.006731249 4.333318e-05 0.0031097452 0.0014495908 -0.0027646883 0.00046247162 -0.0014080605 -0.0073877824 0.006075141 0.010417815 0.007009892 -0.003968642 -0.0054566846 0.006921187 -0.00500266 0.0076643466 0.00465023 0.0039756144 0.0059614256 0.0017750461 -0.0022795664 -0.001885039 0.009141588 -0.004516584 0.00025102848 -0.0016692479 0.0027259055 0.0035619475 -0.005426831 0.0005869333 -0.0044177854 0.0016193672 0.0054217656 0.003299543 -0.0039675147 -0.0029828146 0.0063076126 0.0074011316 0.0052105864 -0.0035941938 -0.0007698942 -0.005667699 -0.0013970308 0.003844757 -0.006886343 -0.0065021487 0.0071407747 0.0089129 0.007584934 -0.00037394016 -0.008269558 -0.0068238406 0.00034874116 -0.0057628853 -0.0063938675 0.0013063176 -0.0034226307 -0.00697829
guilt 0.001337879 -0.0034321202 -0.005458173 0.010147191 -0.00055841863 -0.0040238136 0.00021118452 0.000693855 -0.006788284 0.0028973017 -2.8211703e-05 -0.0061526373 0.0039166403 0.004019361 0.011531147 0.0028707485 0.0009123589 -0.0048379516 0.0040241242 0.006779505 0.00013063013 0.003477406 -0.0030410516 -0.0036971546 -0.00757286 0.0042001954 -0.0004210267 0.010455211 -0.0043767667 -0.0050972127 -0.006930122 -0.0071555753 0.0015393617 0.0065555633 0.0009262445 0.00257585 -0.004116604 -0.0005913478 -0.0035300471 0.0034504929 -0.0029594414 0.0066542244 0.00018574929 0.0050510564 0.0051783533 0.0017513654 -0.00070523855 0.005487825 0.0004678204 0.007953496 0.00448637 0.0036157144 0.007609742 -0.004968249 -0.0041184486 0.0027674984 0.0037858533 0.0012765224 -0.00048745287 0.007499254 -0.002043609 -0.0009798693 0.0068008727 0.0014550994 0.005670351 0.0029590798 -0.0016261523 -0.0053634145 0.0021137067 -0.009109978 -0.0006084152 -0.0089604175 -0.0048505785 -0.009226092 0.0067645046 -0.007603287 0.0063464493 -0.006728356 -0.0039493055 0.005800445 -0.0030165347 -0.0002925284 -0.0012751353 0.004158771 -0.0030870824 -0.006039993 0.008852586 -0.00018668316 0.006995267 -0.0037299222 0.0019693112 -0.011440282 0.008239833 0.0061930143 -0.002571368 0.0066161654 -0.0060528647 -0.0088814795 -0.0022321031 -0.00090917025 -0.00791408 -0.008418292 0.0057046395 0.0020525379 7.4452015e-05 0.0008838127 -0.0025273296 0.0011875106 0.0025980908 0.0061278725 -0.0033047358 0.0005422621 0.007852149 -0.0033965053 -0.009906924 0.0048005963 0.006596612 -0.00087080244 0.006384575 -0.0017077052 -0.006084081 -0.0023953244 -0.0051026084 0.007384717 0.0006464608 -0.0069755507 -0.0018186081 -0.0019107724
feeling 0.009473382 -0.0059546423 0.004364893 0.00020303772 0.007883186 -0.00041485054 0.0022063302 0.0072311964 0.0011727387 -0.0073646414 0.000560151 -0.0005784721 -0.000127272 0.0009182773 0.012222801 0.005565847 0.008244416 -0.0051286914 -0.0039782813 0.0007619172 0.003473277 0.0043437113 -0.0054031187 -0.005949923 -0.008407766 0.007063533 0.0012625183 -0.0030553394 0.0033419703 0.0021479335 -0.0065465374 -0.0060645696 0.000117134936 0.009969631 -0.007772271 -0.00010342499 -0.0017163039 -0.0003087723 0.0049810177 -0.0028722724 -0.0031160093 0.00019216485 -0.001978436 0.0053499173 0.0054344037 -0.0061396915 -0.0026028838 0.0012994208 -0.007872207 -0.0040042344 -0.0048571792 -0.005005313 0.0106532 0.0066611203 0.0026661009 -0.0047757155 0.008305628 0.003299891 -0.0013588233 -0.0056171846 5.840349e-05 -0.0010890518 -0.004862181 0.0015417768 0.0027619412 -0.006062887 -0.006980042 0.0058361767 -0.006669848 -0.006724143 0.005888256 -0.00187327 -0.007147551 -0.007348112 3.226771e-05 0.0003322705 -0.006017563 -0.003277568 -0.0044106706 0.0007801316 -0.0069591277 -0.009197824 0.007810217 0.011221147 -0.0019426155 -0.00555939 0.0025270202 -0.003399734 0.009034563 0.0046146177 -0.005754151 -0.0065297517 -0.005447977 0.0031546648 -0.00086173567 -0.0020346034 0.0024211404 0.0036882213 -8.7569155e-05 -0.008922214 0.0037479454 -0.009067611 -0.007060653 -0.005445816 -0.0023167757 -0.0007011431 -0.0026213406 0.0012455529 0.008330828 0.0036394713 0.00023531586 0.0059048347 0.004303897 0.0002799902 -0.008120277 0.0028985913 -0.005929932 0.0008566045 0.008053631 -0.0043574357 -0.0009884804 -0.0072446796 0.0025803552 0.00834604 -0.008108522 -0.0029524458 0.004374232 0.0025385814
freedom -0.001546374 0.004574683 0.0027941598 -0.0031983503 0.004053585 0.0006109648 -0.002882111 0.0060711475 -0.003917624 0.005240853 -0.0024415592 -0.0061732447 -0.0042286413 -0.0035584983 0.0012717814 -0.0006497057 0.0042989985 0.004856582 -0.0011025645 0.002793063 -0.0014127517 0.0024247447 -0.001141418 -0.0031602692 -0.0043722666 -0.003470519 -0.00061303074 0.0025144548 -0.0071569327 0.0043117166 -0.0020732598 -0.0028911629 -0.0039936337 -0.0022868451 -0.003747052 -0.0077584563 0.0007645353 -0.0060653184 -0.0027757646 -0.0053695096 0.0073548914 -0.0010891873 -0.004957388 0.0041714404 -0.005510985 -0.0013184708 0.0018101552 -0.005978709 -0.0072764917 -0.0046599107 0.006614472 0.0068827323 0.0045426455 0.0023175103 0.0033909632 -0.002488936 0.008994953 0.0053075026 0.0027183706 0.007613175 -0.0060213055 0.0001841021 0.007456798 -0.0007999498 -0.004390835 -0.0019081975 -0.002426586 -0.0015527998 -0.0015465711 0.0047275024 0.00030575445 0.0026083332 -0.0047396626 0.005194358 -0.0047283773 -0.00883626 -0.0037498414 -0.005715417 -0.0040422874 0.002073442 0.0016355774 0.00075526803 0.004675839 0.00088196766 0.002300121 0.00089822314 0.007672575 0.0060790703 -0.00073947874 0.001876571 -0.005118689 -0.005227827 -0.004538159 0.0005802822 -0.0029964983 -0.003100573 0.00053460494 0.0011824793 -0.0082952455 1.7289858e-05 0.0033971218 0.0027309428 -0.0028512324 0.007749246 0.0071038026 -0.0003362873 0.00076719996 -0.007282532 -0.0033771952 -0.0008198035 0.0036457237 -0.0002850112 -0.005709909 0.0052175606 -0.0069219302 0.0058062947 0.0049158507 -0.004517047 0.0029016044 0.005127817 -0.005682185 -0.0057158237 0.0067493455 0.0023766763 0.0071944892 -0.007970589 -0.0018196434 0.005342869
someone 0.0015751139 -0.0018735998 0.008307524 -0.0031525237 -0.0007714157 -0.0065559507 -0.0067931735 -0.006833215 0.0017268343 0.0008555413 0.0057104887 0.0011708601 0.00046018086 0.0035817362 0.0017414876 0.0039646253 0.007066688 0.0012792688 0.0051924568 -0.0059476723 0.0055901934 0.0072519016 0.003931274 -0.010029691 -0.0014058354 0.0024380486 -0.0056816707 -0.003037947 0.00559188 -0.006188059 -0.005640916 0.0053773443 -0.0060308706 0.008681182 0.00036409945 0.0034824759 0.00025829926 -0.004110405 -0.005039189 0.00031279423 -0.004517165 -0.0027849972 0.008497725 -0.006170204 -0.0036103441 -0.0036991213 -0.005727348 -0.0076355087 -0.001800204 0.008339789 0.0074739377 -0.004779447 -0.003827612 -0.00096616044 -0.00690305 -0.002788219 -0.0020831712 0.0021029708 -0.007097527 0.001970951 0.0029152944 0.0033053525 -0.0006826575 -0.0079053715 0.0058546443 -0.0050259703 0.00339908 0.002265613 0.0067539564 -0.00052727584 -0.0003733683 0.00407516 -0.008862693 -0.008780398 0.0036500206 -0.004635063 -0.0042424803 -0.0010739268 -0.0080233915 0.0032500047 -0.0014608706 -0.0034095694 0.0031799502 0.0070100147 0.0059367907 -0.00489007 -0.001241721 -0.0070930775 -0.0057319626 -0.0013235782 -0.0016623324 -0.008970478 -0.0025105735 -0.00056918594 0.0065534865 0.0012748046 0.0053431136 -0.008059163 -0.0060328217 -0.0028569282 0.0059369477 -0.00012352098 0.00020763457 0.0016200035 0.0018822794 -0.008286542 0.0027303556 0.0042408495 0.0050757816 0.0024238802 -0.005724836 -0.0041892263 0.00868869 0.0009493903 -0.0095496215 0.0024159665 -0.0040994487 0.0070442674 0.005508369 -0.0056841876 0.00049016986 0.0032174205 -0.0037543362 0.00060242094 0.0066181733 0.0067628813 -0.008599088 0.0061514988
chat 0.004829063 -0.0024703413 0.00033411253 0.0044417307 -0.0004295338 -0.005092484 -0.00378459 -0.0040300363 -0.0011530087 -0.00062930025 0.007540373 0.0050605317 0.0015207344 -0.0008554194 0.003357906 0.0047962926 0.0042020367 -0.002324913 -0.0017666521 -0.0016553617 0.005064175 0.0003518488 -0.007106482 -0.0057632886 -0.0037684853 -0.0025693239 -0.002794124 -0.0020989464 0.0031191986 0.0010586476 -0.0027996842 -0.005929874 0.0018019887 0.0045182155 -0.0051427498 0.0039790124 0.0033520942 0.0029079618 -0.0035731564 -0.0028762983 -0.0005067835 0.005547088 0.006023069 -0.0025554707 -0.0031728004 -0.0024901046 -0.0065122372 -0.0053106956 -0.0034559537 -0.0069985427 -0.0068085864 0.0022472383 0.0044639055 -0.00028889003 0.000717789 -0.0040332824 0.0029786802 -0.0020661023 -0.0014433435 -0.0007233397 0.0031913798 -0.0040335436 -0.0050134524 -0.0039524413 0.0028067708 -0.00662355 0.0074049053 -0.0046960474 -0.0024279996 -0.008027392 -0.0019091376 -0.0022437978 -0.0023275295 -0.0057178023 0.0032394684 -0.0005230092 -6.69015e-06 0.0071209804 -0.0044100857 0.00031932048 -0.006116019 -0.0016877429 0.0061158817 0.0070782346 -0.004277346 0.0012400392 0.0047697895 0.0008668776 0.0067523303 -0.0034029463 -0.005596578 0.0052464125 0.0042113806 0.008004274 0.0018424569 -0.006682196 0.00087432895 -0.0028182357 -0.007987609 0.005059087 -0.0076787937 -0.005272653 -0.0011847612 0.003758198 0.002161039 0.0034307686 0.004331223 0.00220562 0.0075447117 -0.0028592767 -4.162449e-05 0.002208406 0.0015390782 0.0022031767 -0.0027402344 0.0032875796 0.0034890664 -0.0011621335 -0.0040148953 0.001758422 -0.0040057222 -0.0077001364 -0.0026392336 -0.0064402996 0.0056606904 -0.00485195 -0.00030275085 -0.0067372127
presence 0.0025497698 0.00152956 0.0053806873 -0.002752091 0.008342063 -0.007672647 0.0045980914 0.0021810618 -0.004001283 -0.0041468297 0.008538249 -0.00539721 0.005042119 -0.005612737 0.0103374375 0.0011870365 0.006618106 -0.0012092678 0.0050146785 0.0063235904 0.0024820168 0.0050157313 0.0039675096 0.0035021089 0.0053848242 0.006387615 0.0042779245 0.008721382 0.0074457144 -0.000993083 -0.002476162 0.00021437967 -0.0006237215 0.002733923 -0.0069705006 -0.0074690366 0.0010958675 0.007249677 -0.000776153 -0.0047131204 0.0031288438 0.00048313895 0.003934389 0.0025242008 0.004357065 0.0049851816 0.00013810408 -0.00016158122 0.0061211945 0.0033567294 -0.0021194003 0.0044410094 0.0069820727 0.0031496629 -0.0021749688 0.0041457233 0.0079208985 0.005180735 -0.00034121884 -0.00554172 0.0012413563 -0.00062273984 0.0039795195 -0.007780244 0.009366299 -0.005780428 0.004052584 -0.0065174177 0.0073715947 0.004007571 0.0021285305 -0.0038119701 -0.004160347 -0.002159419 -0.004178992 0.0014908271 0.0007767462 0.0034773974 -0.0060075102 0.010218651 -0.00024748058 -0.0013127826 -0.0056314967 0.0069953282 0.0065096356 0.006999928 -0.0018466039 -0.006490131 -0.0028108105 0.0012592424 -0.0072097103 -0.009540005 0.00022377049 0.0021486783 -0.0056148325 -0.0027625514 -0.0007457543 0.0036002067 -0.0014818839 -0.0030662927 -0.00700454 -0.006257308 -0.0017724292 0.0064811343 0.0039461697 -0.0019929828 0.0012001973 -0.007657878 -0.00037123353 -0.0048668087 0.0053856517 -0.0028493206 -0.0013965555 -0.005914754 -0.003201708 -0.0072615147 -0.00042806077 -0.0012228367 -0.0002687717 -0.0044779824 -0.007998397 -0.0019891444 0.00030518582 -0.0011582907 -0.0065039233 -0.0030385493 -0.008490879 -0.00035166036
dessert 0.00451628 0.000357838 0.0068457727 -0.003102685 0.0012865869 -0.0022446746 -0.006074556 0.0054330537 0.0012974739 -0.0040512295 -0.0048230547 -0.0051608714 -0.002052689 0.004981878 0.009048338 -0.004723551 -0.007081744 0.007075177 -0.0015117514 -0.003583729 0.004968849 3.1546562e-05 0.003949592 -0.0033512774 -0.00675454 -0.00059095066 0.003534584 0.010066032 0.0027022117 0.0029958664 -0.0057315025 -0.001731603 -0.0047901385 0.0034042583 -0.0015253572 -0.0028436154 -0.0020836 0.007991491 0.004746654 -0.00091287616 -0.004107871 0.0056623807 -0.0022361812 0.0020837262 0.0025714387 0.007157776 0.004316628 -0.0032300686 0.0008578604 -4.2217514e-05 -0.0056595523 -0.0028315426 0.004258311 0.0061305338 0.008245989 0.008887609 -0.0028034556 0.0046130903 -0.005684518 0.00041985867 0.0014863063 0.004102914 0.004443047 0.003187415 0.009475379 -5.0612674e-05 -0.0052868724 -0.0040471586 0.004895896 -0.0059992187 -0.0009903152 0.0019616163 -0.006165997 -0.007596399 -0.00091813825 -0.0023394956 0.00044603934 0.0057158163 -0.0044685574 0.0064661284 0.0047973255 0.00047245887 0.0060229115 0.0006370433 0.0062728142 -0.00439923 0.0063411845 -0.0076015126 -0.000377174 -0.0049806293 -0.002042843 -0.0077704233 -0.0011208103 0.0023157038 0.0043138736 -0.0011273883 -0.007798133 -0.0065600276 -0.0025652407 -0.006032175 -0.008699942 -0.0016836224 0.0036713309 0.0053985743 -0.00813707 0.0015531579 -0.004363306 -0.0073669152 0.00095640664 -0.0017995844 -0.0044538905 -0.0060440665 0.00075295 0.007273126 -0.008426629 0.0040783235 0.00065872783 0.0031516142 0.009103431 0.0015858788 -0.0045584505 0.0017005248 0.001479221 0.0072428943 -0.00057967793 -0.0036177116 -0.0006600821 -0.0040261806
try -0.0008671262 0.0014294737 -0.004881581 -0.00048610926 -0.0057798196 0.0038960024 -0.0034799578 -0.0070989775 0.0019154093 0.005895238 -0.0011305625 -0.005481407 0.0013445963 -0.0011876457 -0.004636952 0.007913532 -0.005460646 -0.0027829157 -0.0019066017 -0.0046832105 0.0016889047 0.0108524 0.0034781974 0.0040261024 -0.0014958391 0.0003348878 -0.003249095 -0.0047891755 0.0033001641 0.0008508951 -0.0088066375 -0.0047428957 -0.008098327 -0.002669168 0.00316818 0.0068605314 0.0057653757 0.002204557 0.008165962 -0.00011411433 -0.0017815558 -0.007071323 0.0019983763 -0.0021969464 0.0016907376 0.0061665955 -0.006201261 -0.0038615593 -0.0060266736 -0.0017970612 -0.0013950738 0.0012428673 0.0050556855 -0.0031702737 -0.0032056703 0.0021032705 0.006804227 0.003766023 -0.0032271885 -0.0024311598 -0.0033958396 -0.0013394817 0.0022666021 0.0009868179 0.007241503 -0.002356178 -0.00031504862 -0.0036861245 -0.0010303191 -0.007498791 0.0001358337 8.4443556e-05 -0.009870334 0.0047353427 -0.0064268033 -0.010032204 -0.0073998766 0.006318522 0.0039980053 0.010238834 0.0013200904 -0.00027461126 -0.00069974514 0.010507236 0.0031089908 0.0042668157 0.0018075998 0.00059924385 0.0065850946 0.0009835495 0.0020480298 -0.0030519306 0.0054966123 0.0038918934 0.0036054146 -0.0041090255 -0.004889451 0.00183833 -0.0069572087 -0.0022571792 -0.0015662732 0.0019042263 -0.0075877304 0.0073870253 -0.0014626588 -0.0048288726 0.0034189494 -0.0017801921 -0.00533978 -0.0045361673 0.00044067524 -0.0077760546 0.0024388824 0.0031641235 -0.004443389 0.0007050545 0.0026260428 0.009459841 0.0023301542 0.000117890384 0.0008365096 -0.0024522692 -0.00763268 0.007917131 -0.00201821 -0.007874189 -0.006388005 -0.0029009078
want 0.0062576868 -0.005424113 0.006879781 0.007368658 -0.0009956071 -0.0014606667 0.0012792998 -0.0055700163 0.0062384065 -0.008859014 -0.0038027493 0.0013336489 0.0038340613 -0.0051370393 0.0053578005 0.008514063 -0.005070292 -0.0036850157 -0.0037027493 -0.0032989653 0.0017895901 0.011016237 0.0050209775 -0.0019860002 0.0007646147 0.0064423447 0.005910382 0.0064552547 0.0052928184 -0.006750917 -0.004485063 -0.0052813273 0.0043305843 8.4103485e-05 -0.006883627 0.0059849164 0.009086831 -0.0022920112 0.008897277 0.00021158448 -0.0035208024 -0.0005698591 0.0022741396 -0.0030358883 0.0036207004 0.004957274 0.004720902 -0.007727355 -0.002629182 -0.003361421 0.007140112 0.004569686 -0.0009307895 0.0025652077 -0.004242584 0.0015325127 0.01004467 -0.0024499104 -0.0049794056 -0.004937475 -0.0012790712 -0.0015745407 0.0035416763 0.0073920893 -0.0011023335 0.0011342115 0.007268748 0.0019032976 0.0006589082 0.006188652 0.008206659 0.005187042 -0.008098795 0.0056632296 0.0052116704 0.004547448 -0.0024506184 0.0032848015 0.0050836317 3.5114783e-05 0.00452536 0.0009992508 0.00868294 0.0008923035 -0.0014081488 0.0059520747 -0.004379256 -0.0057866247 -0.0037337842 0.0010516085 -0.00241179 0.0026164004 0.00869103 0.00038500753 0.0026920296 0.0016045979 -0.0027552391 -0.0078008636 0.0034203723 -0.005627514 0.0025941497 0.0061770785 0.0013197666 0.0029568349 0.0028026036 -0.002811874 0.003221286 0.00014934498 0.0050603556 0.003183549 0.0021554637 0.0036690687 -0.004877635 0.0063875876 0.0052581388 -0.004777616 0.0020231279 -0.0023669347 0.0021139223 0.0006775629 0.0050667506 -0.0006153188 0.0010697644 0.0027776174 0.006018741 -0.0046801125 -0.006166521 -0.0026498865
secret 0.0011678959 0.00015022108 -0.005348188 0.008107143 0.0054802313 0.0039845263 0.0037822172 0.006547378 -0.00096963806 -0.0027933097 0.0020232855 -0.008304546 0.005243774 -0.006153584 0.010417756 -0.0016556164 0.0008236883 -0.005816258 -0.0071698884 -0.0067413175 -0.005733084 0.0042906646 -0.005671534 -0.0066888006 -0.005564028 -0.003567691 0.004078817 0.00618718 0.007522423 0.0046138647 -0.0061838487 0.004650333 -0.007918378 0.00019411893 -0.0061129536 0.0034090783 0.0046259724 0.006014924 0.0044975025 -0.0046645487 0.0052427943 -0.004927954 0.009643826 0.002014968 -0.0014219965 -0.0031404332 -0.004372747 -0.0057676863 0.006396498 -0.0009613551 0.007567361 -0.008266468 0.0044945474 2.9304583e-05 0.0063936156 -0.005573717 0.008897679 -0.004510064 -0.0058473605 -0.0033972953 -0.0015171558 -0.0037647358 -0.0016318166 -0.0061733 0.0022936005 -0.0007281677 -0.0017134412 0.0036994845 -0.00602883 -0.004300304 0.0050766203 0.005612976 -0.011537643 0.0030342694 0.00502711 -0.006010082 0.005814576 -0.0063601257 0.0053949575 0.007825484 0.00021731433 -0.0051237214 -0.0015384712 0.0012061541 0.002395145 0.0025393658 0.009055071 0.007618282 0.0085167065 -0.0012486745 0.0067747775 -0.0036214318 0.005516464 0.0033190306 0.0014313335 0.0028505144 -0.0055260677 -0.0062076496 -0.008768178 -0.0011140619 0.003835938 -0.000357786 -0.00023668585 0.0031543272 0.005972419 -0.00677396 0.0021019971 -0.0060288575 0.0036386352 0.0060459813 0.0067266817 0.0040599196 0.008693529 0.0066214055 0.003119487 0.0050699646 -0.002885256 0.009191355 0.0054372004 -0.0034426325 0.0051168967 0.0028653382 0.006537009 0.004241574 0.0071887043 0.0006481479 0.005667331 0.0029821985
eat 0.00812693 -0.009091546 -0.0048917774 0.009702401 0.00732536 -0.0037193971 -0.0074896887 0.005967883 0.0013119495 0.004571244 -0.0041563264 -0.008611669 -0.00017654439 -0.008973665 0.00041976935 -0.0008359261 0.0077720704 0.008230988 -0.0019932603 0.0037862828 0.0068742973 0.0028577833 0.0075206854 0.002456873 -4.080673e-06 -0.003138657 -0.005578508 0.00032652795 0.0070370324 -0.005836524 -0.004203702 0.005941859 0.0019755063 0.00734568 -0.0062403157 -0.00047410643 0.007815751 -0.0032562132 0.008250673 0.008394319 -0.001298601 -0.0019534498 0.002514506 -0.00489035 -0.004609381 -0.00055736117 -0.002965516 0.0023128581 -0.0065016076 0.005409817 -0.0035718908 -0.006908253 0.009837194 0.008063307 -0.0022982366 0.0045547206 -0.00091980526 -0.007414813 -0.0057405266 0.006394438 0.006312847 0.006123099 0.0065695834 0.0049149524 0.0031224566 -0.008063315 0.003173094 0.00039366155 0.0048421915 -0.00073282415 -0.0012176199 0.004674016 -0.003301606 -0.0029500264 -0.0026969383 -0.0100689335 -0.0071141636 0.0077503254 -0.0072546056 0.011154156 -0.008135078 -0.0014371935 0.00057566905 -0.0024869088 0.008022632 0.006861143 0.006020521 0.003597277 0.0018915943 0.009647497 0.004658979 -0.011185004 -0.0014742312 0.0004995853 0.004706405 -0.0034143692 -0.00050798885 -0.008131264 -0.0010626791 0.0005766744 0.0024541805 -0.0036963243 -0.008072033 -0.006521505 -0.0010651419 -0.0067133615 -0.0051060254 0.004580078 0.006493946 0.00011168247 -0.0051246737 -0.0056190123 0.009158069 0.0047835056 -0.0066895173 -0.0077956347 0.0015714798 0.0048725535 0.00328243 0.00020684117 -0.0061799884 -0.0091544455 -0.006753679 0.002540813 0.0030076553 0.003226308 -0.00039545796 0.004220295
tempted 0.008731075 -0.010036631 0.008818332 -0.0055072354 -0.0048384783 -0.0072390456 -0.006041697 0.0057847984 0.005930948 -0.0039612385 0.004307827 -0.0036698058 0.005062223 0.0035990174 0.0032052745 -0.0015002356 -0.005393096 0.004887465 0.0011828851 -0.0026027008 0.006508878 0.00025168198 -0.0071273847 -0.004175818 -0.0010280131 -0.0053119357 -0.0055375826 -0.0046580643 0.007848477 0.005071913 -0.0017367618 0.005004008 0.005688551 0.0013955135 0.0052052 0.002947935 0.006752427 0.0060402267 -0.0017330305 -0.0008230822 4.968791e-05 0.0031254003 0.0048318086 0.0038682974 0.0049623954 -0.006087306 -0.003202353 -0.006434585 0.0067484635 0.0047467602 0.0013699973 0.0025800115 -0.0035286944 -0.0040421793 0.0028817586 0.0065536243 0.005806661 0.004186736 -0.0025887357 -0.0017059497 0.0012295055 -0.0035126256 -0.0035954795 -0.006285064 0.006740832 -0.0011670735 -0.0017972427 -0.0053601707 0.00718625 -0.0009578486 0.0022430664 0.00082029396 -0.009166367 -0.0010731579 0.0030367025 -0.009230199 0.0030917656 0.0025975618 0.0056153154 0.0069983616 -0.0030056604 -0.0065366114 0.0070913546 0.004840393 0.0050200014 0.006279728 0.0042604976 -0.0048909513 0.0013397109 0.008198188 -0.005442774 0.0047383388 -0.004217742 0.0044076485 0.0033985751 0.0056739356 -0.005113143 -0.0050873593 -0.007162083 0.00033360254 -0.0046441643 0.005780875 -0.004416684 -0.0065776487 -0.004097159 0.0043105665 -0.0047808914 -0.004387283 -0.0049283244 0.0034745599 0.0033743382 0.0013290406 -0.0002826263 0.006002752 -0.006734786 -0.0029953085 -0.004077249 0.0009577395 -0.0003103414 0.004929648 -0.0012629072 -0.0077204728 -0.005073763 -0.0035388689 0.0015309135 0.007251133 -0.005788419 0.006588938
less -0.0052919346 0.0011926201 0.0017953606 0.0098979855 -0.0034729568 -0.0006729627 0.004083166 -0.0032480254 -0.0055738552 -0.00029211637 0.0039513498 -0.003025871 0.0035681617 -0.0071577756 0.006625386 0.002094971 0.0070575913 0.0062137144 0.005522746 0.0055307765 -0.0069412203 0.0117329825 -0.006049724 -0.0050538816 -0.0053115836 -0.0041138944 -0.007948573 -0.0035023263 -0.0027266687 -0.0019421476 -0.005916121 0.0038945586 -0.008146859 -0.0017036779 0.007584993 0.00542334 0.009528126 0.003770162 0.0027885719 -0.0035614257 0.003769091 0.0019121604 0.008867702 0.004758981 0.008003447 0.0073713674 -0.008696703 -0.0062615033 0.00011706211 0.0061792964 0.0074632317 0.0035824026 0.009019862 -0.0029608554 0.005720366 -0.0012548404 -0.0036442527 0.006536938 -0.00020171817 -0.0009561661 -0.000753223 -0.004514535 0.004762009 0.0032539736 -9.8677236e-05 -0.006147887 -0.003093061 0.0006602353 0.0046236045 -0.004137892 0.0009963516 -0.0006394876 -0.009846324 -0.0013597973 -0.00021221812 -0.0010517775 0.002825509 -0.0002496271 -0.002557082 0.0098066265 0.0031945126 0.0040308903 0.0055122613 0.011133081 0.006984768 0.0007539 0.010382194 0.0034059477 0.0059313336 0.0011989118 -0.0023854643 -0.0069410587 -0.0048631597 0.0036962093 0.0091246525 0.006906981 -0.003136326 0.0027771767 9.7460215e-05 -0.0062308307 0.00019025766 -0.0052730446 0.005081263 0.004974229 0.0021502597 0.0024805027 0.0070530754 0.0053064995 8.998006e-05 -0.007155935 0.0076782694 0.004583309 0.0039862012 0.00046008977 -0.0068962118 -0.0054554334 0.0077740154 -0.00038542808 -0.0033032158 0.005692897 0.004450066 0.0058852974 -0.00025633367 -0.0042649335 0.0059495005 -0.0031422998 0.0027109496 0.0034669086
helped -0.0034211676 -0.00058024673 0.0022725742 -0.00026568986 0.0062150834 0.0027727904 -0.005616986 0.00073942443 0.005224899 0.0042549567 0.0072582895 0.0022922002 0.00014046108 -0.0028855996 -0.00017665085 0.0018053809 -0.000954003 0.001433461 -0.0046540685 0.005146463 -0.004597062 -0.0004965956 -0.0021387504 -0.0048451093 -0.007824838 0.00014140422 -0.0061003347 0.0019394344 -0.00490536 0.00042706783 0.00016978104 -0.0011952206 -0.005171904 0.0016381707 0.005673905 0.0029710287 -0.002680368 -0.0021500646 0.004707333 0.0028118852 -0.008406183 0.0033259522 -0.0034633412 -0.006118401 0.004858392 -0.001976039 0.0016117385 0.0057236766 -0.00398676 0.008702838 0.003401161 0.0068333023 0.008103406 -0.0060297092 -0.0019423022 0.0074158288 0.0085781915 0.0061479784 0.004069895 0.0076253125 -0.0062267915 0.0019246633 -0.0028558008 0.0024031035 0.0071253483 0.0029087258 0.0055300384 0.002341374 -0.0010702413 0.0021702745 -0.0031116607 -0.001464454 0.0021955818 -0.0078066154 0.0041053644 -0.010290385 0.0064699985 0.0073053665 0.0005576206 0.008559171 0.0001501817 -0.006511 0.0012738595 0.010240568 -0.002236088 -0.0012064722 0.008167807 0.001966325 0.0006314352 0.00044080117 0.003671233 -0.008647413 -0.000501865 -0.0034014601 -0.000804864 -0.006760864 -0.00545999 -0.008925545 -0.0024428838 -0.010240304 -0.009412182 -0.007718773 -0.006861606 0.0060561704 0.0026383067 -0.0006197627 -0.0019312989 -0.0062792227 0.0013066785 -0.001559351 0.0014338583 -0.00058526295 0.0038378432 0.0017544522 -0.008998017 -0.006778881 -0.005483398 0.0014737097 0.0034319428 0.003464371 -0.003478828 -0.003327622 0.006067264 0.0027166686 -0.0026956275 0.006507409 8.242887e-05 -0.0039429134
others 0.0030455517 0.002808678 0.0062531885 -0.0025689602 -0.0034342953 -0.0053035077 -0.007820301 0.0064709433 -0.0028773816 -0.006646462 -0.0016633167 0.0032600674 -0.0034236175 -0.003932417 0.0044449605 -0.00073684874 -0.0010191773 0.0021270616 -0.0021503414 0.006154558 0.0034210563 -0.004289314 0.0049559693 -0.0077610374 -0.00057654304 0.0032032023 -0.0053818505 0.00035206147 0.006910009 -0.0041348753 -0.007497798 0.006426175 -0.0022573157 -0.0016893139 0.0068768035 0.003393212 0.0063332627 0.0076069734 -0.0046330113 0.00496359 0.0009301561 0.003101304 0.0036906598 0.0031883416 0.0049021286 0.0052579576 -0.003276373 -0.0043895473 -0.0011408321 0.0029133451 -0.001155217 0.004109047 0.0057182414 0.0068759895 0.0024968898 0.007849311 0.0017284983 0.005789747 0.0018965452 -0.005387308 -0.0020417073 -0.0029336375 0.004575269 -0.00084197306 -0.00060819066 0.0058219032 0.007081713 -0.00040065186 -0.004173919 -0.0052960953 -0.0028974484 -0.008626746 -0.0023942331 -0.0057100896 0.0026459915 0.0017570155 -0.0039351177 -0.006876585 0.0009280877 -0.0021144154 0.0013496996 -0.003859532 0.007118405 0.0040351497 0.0037056885 -0.0008070724 0.0015983449 0.0058836946 0.0025045248 -0.0027550063 -0.0067475005 -0.0018844143 0.006492087 0.0054508424 -0.0052234824 0.006628271 0.0018234059 0.0042913835 0.0052783107 -0.008051162 -0.008190338 0.0037114655 0.006250753 0.0033469556 0.0052749966 -0.0018455522 0.006513865 -0.007624007 -0.0056070206 -0.0065361992 -0.0023024564 0.003067674 -0.00079882226 -0.005270881 0.0047420156 -0.0044766385 0.007527889 -0.0020724265 0.0044091125 0.0021843563 0.00056889036 -0.0032286525 0.0012954198 -0.004713253 -0.0026875269 -0.0021779917 0.0042778216 -0.0026054536
front -0.00021537786 -0.0069904947 0.0037798104 0.0009711672 0.004030718 -0.0019482512 -0.004588659 0.0017465638 0.005397256 -0.004984799 0.0033580845 -0.006907842 -0.006344088 -0.0010890443 -0.0042812545 0.0032790678 0.0013723619 -0.0008447197 0.0039871964 0.007140209 0.006924136 0.0013444799 0.0016278229 -0.0051615955 -0.00735342 0.0046869107 -0.0027039975 0.001129151 -0.00088244403 -0.0041657775 0.0019438922 -0.0039548823 -0.007935569 0.008575126 0.0034418628 0.007289729 0.0075283614 0.0025052312 0.009263521 -0.0027481029 -0.0058298735 0.0031954069 0.004769248 -0.0046493066 0.008764683 -0.0023639065 0.0068142326 -5.3896015e-06 -0.0056127477 -0.0008044799 -0.004592735 -0.0028320984 0.0027425697 0.008054918 0.0077468627 -0.003936445 0.0048892694 0.001406434 -0.0027365931 -0.0063652 0.0015694483 -0.0072210953 0.005549693 -0.004675598 0.0055662896 0.0074981777 -0.0003811412 0.004157875 -0.001522378 0.004479668 0.0037431777 -0.007937394 -0.0047132415 0.000867357 0.0005438433 -0.0031162738 -0.0014603186 -0.0006863104 0.00024650912 0.0057208044 -0.0038256156 -0.0037016657 0.0012993991 0.0030746455 0.0007314047 -0.0026652573 0.0056391098 -0.001781626 0.0026220686 0.002091717 0.0040771337 -0.007506381 -0.0041664015 -0.0026193177 0.008900286 -0.0012828357 -0.008422492 -0.0016667737 -0.005425735 0.0028046125 -0.008395736 0.001609071 -0.0081209885 0.0014001317 0.0045047197 0.005243884 -0.0058078743 -0.00486943 -0.004803979 -0.007373898 -0.0067138774 -0.002388174 0.0010595255 -0.004669496 0.0037649458 -0.00036262829 0.0051621827 0.0025162252 0.0015764975 -0.007104535 -0.0027405522 0.0025824422 -0.0047432445 0.002344468 0.0018513037 -0.0012636998 0.0066302246 0.006646791
general 0.0068815937 -0.0071779788 0.008216839 -0.004053912 0.0031921808 0.0074001034 -0.0077731535 -0.0077724694 -0.0046739033 -0.003293259 0.0013917236 -0.007637797 -0.007971151 0.0012508954 -0.003387745 -0.005775349 -0.0017498526 -0.0054726717 -0.005430883 -0.007056932 0.00022161061 -0.00019568262 0.0052395207 -0.0011748754 -0.0037498432 0.0045597907 -0.006116768 -0.0018184716 -0.0050997688 -0.0040702 -0.0030223723 0.0044012866 -0.0026878172 0.005755104 0.0055574332 -0.005827005 0.006421356 0.0050759125 -0.00039660785 0.00597036 0.0041718264 -0.005153779 -0.0030737387 0.001693274 -1.7450076e-05 -0.0042437725 0.0067312904 -0.004819455 -0.005901181 0.00070487306 -0.0006736085 -0.00026864256 -0.0004912957 0.00035784594 1.3737717e-05 0.0022106022 0.009168738 -0.004981988 -0.0021768946 0.005210411 0.0074085877 -0.0044714552 0.00767108 0.0062569007 -0.0019101859 -0.000117456955 0.0031920816 -0.002173248 -0.0044437516 -0.0066423053 0.00022209022 -0.001216599 0.00012568344 -0.0042643556 0.0005175178 -0.0005836255 0.0031046388 0.00065980584 -0.0052014124 -0.0043231663 -0.00053191377 0.004328139 0.0027496065 -0.0036489184 -0.0053181713 0.0064314245 -0.0001526215 0.0047759535 -0.0039625145 0.008438027 -0.0057773995 -0.00010761147 0.00047321277 -0.0042756596 -0.00084090163 -0.0010409107 -0.0055894936 -0.0024747807 -0.008164878 -0.00022538005 0.0059997644 -0.0026286466 -0.0017478558 0.0033073192 0.006533648 -0.0051689628 -0.005161823 -0.0024878888 0.00778404 -0.0007548576 -0.0059544384 -0.0019608503 0.00944714 -0.004722286 -0.0059102257 0.005801894 -0.006342366 0.0046899375 0.0018082256 0.0037117328 0.0052603595 -0.0032187016 -0.0040239627 0.008665385 0.001094374 0.0048545417 -0.008768367 0.007661104
treat -0.0047559342 -0.010010808 -0.00057710556 -0.005037626 -0.004282454 -0.0045038764 -0.003346976 -0.0012550856 -0.008330524 -0.0017251042 0.007750322 0.0053681927 -0.006835157 -0.0037930964 0.0053002904 -0.0062409374 0.0013748701 0.0063332664 0.0045815627 -0.0071557076 -0.0032650211 -0.0032968603 7.522792e-05 0.0049796295 0.003583409 0.0037248426 0.0027420134 -0.00073294336 0.007956276 -0.0065360917 -0.0070421062 -0.0025439141 -0.0012553288 -0.0007513403 -0.0003913624 0.0058991676 0.002050836 -0.00097208546 0.0038924199 -0.005884361 0.005573484 0.006525403 -0.0054860343 0.0016627024 0.009091463 -0.0054765833 -0.0060682907 -0.0067082304 0.005908311 0.00030103076 0.008463646 -0.006937116 0.0051323045 0.0027308904 0.001036529 0.0033109381 -0.003250558 -0.0077112364 0.0010982238 0.005610872 0.00712173 0.0035324881 6.124104e-05 0.0063640554 -0.0058979904 0.0024796533 1.101826e-05 0.0038065168 0.0056182025 -0.0067181247 0.0051764944 -0.00847856 -0.0037891148 -0.009005421 -0.00333659 0.0048901383 -0.0021070112 0.0027751562 0.0069712796 0.009761147 -0.0068842205 -0.0031752104 0.009262642 0.007218572 -0.00043042007 -0.00555381 0.0049639633 -0.0052700476 0.0076509253 -0.0018233114 -0.0013856807 -0.0017741024 0.0011336899 0.0019241245 0.0063333246 5.2688106e-06 -0.0037110539 -0.002486364 0.0025404273 -0.0009656837 -0.0016415584 0.006610482 -0.0047720633 -0.00010776095 0.007038583 0.004871988 0.0013858142 -0.007221686 0.0014017337 -0.003140836 0.008097878 0.0002679454 0.0030998795 0.0029805866 -0.0029623297 -0.005364993 0.0008926007 -5.4148593e-05 0.006414916 0.005511791 -0.0017006411 0.0014057416 -0.005518165 0.0028985736 -0.005964143 -0.006869185 -0.0057845935 -0.0069137774
trigger -0.00068245834 -0.005492138 -0.0037895278 -0.0016657966 0.0038281449 -0.0030386585 0.0053557274 0.0012095616 -0.006806617 0.0064676236 0.007196733 0.0037461503 -0.0063638156 0.003945663 0.005545235 0.0050696516 0.0036482366 0.0024680065 -0.0023205783 0.006308217 0.00789923 0.0055548362 -0.0022094352 -0.0019273658 -7.5751154e-06 -0.006797963 -0.00754379 0.0013814253 0.0013480734 -0.005254383 -0.0048110527 -0.006442093 0.006120583 0.0016382443 -0.0033612303 0.004508388 0.009337944 -0.0029845433 0.007708598 0.0049261986 0.004141663 0.0003491751 0.008153563 -0.0057388 -0.0052973162 0.0077350084 -0.0005764967 -0.0021282856 0.0029144045 -0.0024428603 0.0032375457 0.005105137 0.00673846 -0.0052902466 0.00784964 0.0048639732 0.0052329684 -0.0052659065 0.0059295855 -0.0009451337 0.007752057 -0.0049885213 -0.0057060267 0.0054297103 0.002590684 -0.0018941058 0.0073376843 0.0081685595 -0.007884246 0.00069588446 0.005569569 0.0020764167 -0.0009826476 -0.0014762387 0.0010677573 -0.005010464 -0.006216372 -0.001356936 0.0028888767 0.009295059 0.006871438 -0.005382795 -0.0062546763 0.010405723 0.0034060162 0.005081665 0.00720027 -0.0023393962 0.0068939175 0.0035461218 0.0017666932 -0.0040232865 -0.0013716975 -0.0010146433 0.0047213533 0.00014647772 -0.008609752 -0.008876796 -0.0065301573 -0.0019309832 0.00053524505 0.0067891437 0.0035829796 -0.0029621758 3.769209e-05 0.0034673852 0.006205677 -0.0011580116 0.0039346847 -0.005639252 -1.0546031e-05 0.0058431383 -0.00024855745 -0.0066896747 0.0030904661 -0.0042964453 -0.00027529354 0.009141453 -0.00071817246 -0.004957303 -0.0051681967 0.004757876 -0.005239527 0.0030457473 -0.0046276134 0.00463958 0.002467952 0.0021806494
struggling 0.0010629888 -0.0051403698 0.006638804 -0.0021961406 0.002429685 -0.004992382 0.0069059916 -0.004383257 0.0022475803 0.0019417147 0.007517978 -0.004716658 -0.004009766 -0.0053162226 0.0063058613 -0.0029795156 0.0039352058 -0.00019183118 0.0058235293 -0.00495365 7.507411e-05 0.0015209869 -0.0067914533 0.0057629477 -0.0020486377 0.0048294473 -0.00047767037 0.0048455214 0.0020717334 0.0067172633 -0.0071350606 0.0063202297 0.0064856797 0.0017261497 0.003450937 0.0029572593 0.0043478454 -0.0021641378 0.0031300392 0.0009431907 0.0035417967 0.006536191 -0.0051090494 0.00013442208 -0.006231418 -0.0010354233 -0.0074211825 0.002180684 -0.0015655918 -0.00015426156 0.0057244776 -0.006609139 0.0018589133 -0.0015715993 -0.0028181465 -0.0050514066 -0.0051175384 0.006364322 -0.0062264293 0.0042117974 -0.0026110439 -0.0013947103 0.0025645385 -0.00693957 -0.0037468078 -0.006098954 -0.0075839786 -0.0033763277 -0.0024749709 -0.00034471916 -0.00020303119 -0.0066840914 -0.0045496253 -0.0031751038 -0.004744583 -0.006111253 -0.0023820172 -0.0059434343 -0.0066330275 -0.004684679 0.0025547424 -0.0063299392 -0.0023108474 0.0066271657 0.006268786 -0.004484858 0.0065647885 -0.0061959135 0.00063787895 0.0059529757 -0.0025084561 0.0059779757 0.00029861927 0.0039791525 0.0062037576 -0.006751705 -0.0051513645 -0.00632136 -0.0019835832 -0.0065327585 -0.00028685687 -0.006599206 -4.368285e-05 -4.614837e-05 0.0049642073 -0.0072505446 -0.0024014395 0.0044853254 0.007510778 -0.0019344304 0.0010276708 -0.005151492 0.001529447 -0.0057880236 -0.0068209786 0.00042816086 0.0002474104 0.005020068 -0.007090642 0.00052873587 0.0005545733 -0.004514815 -0.00025655408 0.005498011 -0.005399194 0.00026147917 0.0024782657 0.0013682251
admit -0.005530825 -0.0042556287 -0.0036412773 -0.0036343096 0.0022606205 -0.0026514507 0.0006349598 0.0029870998 -0.006147159 -0.0024445648 -0.0011437093 -0.0084424 -0.009021463 3.294088e-05 0.006387472 0.0015393137 -0.00361898 0.0039305524 0.001642982 -0.0077701285 0.005762733 0.0092571005 -0.0062026046 -0.002802681 0.003879304 -0.0025420308 -0.0013300319 -0.0013581504 0.005357898 0.005071889 0.0004103789 -0.0044565084 -0.002025233 -0.0012350411 -0.0076993047 0.0059861587 0.0017881623 -0.0002413895 0.007283282 -0.006387071 0.0043535745 -0.0060277297 -0.0023557576 0.00385252 -0.0014343563 -0.0023017286 -0.0056468328 -0.003588197 -0.0028557833 -0.0024300632 0.008703473 0.00678595 0.0017229789 0.0003468381 -0.004292397 0.0075674737 -0.0015244022 0.0043825293 0.006491823 0.0053225053 -3.0232997e-05 0.003482881 0.0061178277 -0.00344224 0.0018591662 0.0050125225 0.00408063 0.00048286217 0.0017751226 -0.006553269 -0.00663664 -0.00494497 -0.007323548 -0.0015673775 -0.002602502 -0.0026285213 0.005225879 0.008210182 0.0057129143 0.00438688 -0.0026467184 0.0011114451 -0.0008992863 -0.0040707933 0.0063486462 -0.005721468 0.005451012 -0.0032750766 -0.0033155035 0.00074443425 -0.0056354934 0.0041261665 -0.0041518677 -0.006313264 0.0059877797 0.0033601695 0.0029138464 0.0007214031 -0.005091916 -0.006074347 0.0007241749 0.00582026 -0.0053915796 -0.001366918 0.001321985 0.004731003 -0.0049349125 -0.0036819861 -0.0015909717 -0.00012583142 0.0050630094 0.0035620714 -0.0049751997 0.0067938273 -0.003538045 -0.0035247684 -0.0062183253 -0.0032711017 0.008466882 0.00084759516 -0.007676217 0.001363793 -0.006285642 -0.005413676 0.0025093984 0.0016016784 -0.00022344975 0.0069205207
years 0.007503499 -0.009302026 -0.0009450577 0.008098912 -0.00077473535 -0.0071567646 0.0006271943 -0.0046842718 -0.005253123 -0.0058679767 0.00092100044 0.0051479274 0.0021301094 0.0057820915 0.0090720635 0.0045653787 -0.0046345624 0.0063242796 -0.007173783 -0.0042028385 0.0064814165 0.008676593 -0.0042693666 -0.008018716 0.005789656 -0.0033568651 -0.004008776 0.0070688035 0.0047479277 0.0026829347 -0.0016621522 0.0062729097 0.0062311515 0.006959279 0.0071232924 -0.0045672767 0.0025204048 -0.0011143694 0.006333442 0.008345579 0.0037796514 0.003073278 0.006594962 0.004496285 0.0010673694 -0.0061568026 -0.0022186656 0.006689501 -0.0046844627 0.0013529402 0.004797717 -0.0059458744 0.007820684 0.0015976429 0.0021492294 0.0075941714 0.0028419432 0.000377539 -0.0078814225 0.008408042 -0.0072115315 0.006028803 0.004461953 -0.00022798199 -0.005085579 0.007310147 -0.0014230272 0.0047235438 -0.0024830243 -0.00486505 0.00064310204 -0.0071863076 -0.0074987654 -0.008982969 0.00453148 -0.0013552395 -0.0013440612 0.0044390094 -0.0017210293 -0.0038605633 0.001928391 -0.0051228516 0.0011672984 0.009657563 3.710908e-05 0.0056189196 0.005367134 -0.0029649446 -0.0033735991 0.008208206 0.001265369 -0.0022332962 0.0017645087 -0.0033893797 0.004043653 -0.0025438427 0.0026197033 -0.0044958894 -0.0023313777 0.0014616445 -0.006089105 -0.0023736686 -0.0076954826 0.0013961571 0.0014534857 0.0014480582 0.0008329885 -6.898385e-05 0.0021483426 -0.0016045982 0.0052490393 -0.0030011323 -0.002574795 -0.0033337036 -0.008824698 -0.00738911 0.0022124413 0.004085425 -0.0036724263 -0.008930069 -0.005807055 0.003049389 -0.007807903 0.005322457 0.0045205723 0.004986053 -0.006870056 0.0022862325
purged 0.0075309337 0.004015916 -0.004539709 -0.003724816 0.00094413006 -0.002467547 -0.0025118173 -0.004550346 -0.007902432 -0.0053971265 0.004201369 0.0018909934 -0.00850771 -0.007632092 -0.0011645143 0.0038340455 -0.006336749 0.0019346515 0.007582727 -0.007841297 -0.002563734 0.011233345 0.0054833624 -0.003486818 -0.0042429003 -0.0075184847 -0.0047533745 0.0033311907 0.0069246525 -0.0026293453 0.00618071 -0.007405461 0.0037295872 0.0066857915 -0.0038832014 0.005945561 -0.0019627754 0.0033778464 -0.0056511033 0.000116154726 -0.0023003784 0.0045982064 0.006036995 -0.007946538 4.9096518e-05 -0.0037566877 -0.007121606 0.0006088615 0.0045684404 -0.00381255 0.008882028 0.0015393277 -0.0027365095 0.0005327865 0.002736089 0.0067903916 0.0030734374 0.007018113 -0.004253139 -0.0058823307 -0.005768277 0.0029961078 -0.003035245 -0.007401406 -0.003062003 0.0005445311 0.0061154184 -0.0012436769 0.0027897477 -0.0017936981 0.008648841 0.0025997073 -0.009936334 -0.010333825 -0.0019330817 -0.00094553566 0.0029349902 0.0069018677 0.0027616557 0.009517336 0.0023900412 -0.00067566027 0.0053670653 0.00633921 0.0026741717 -0.0040131104 -0.0031112551 -0.0048771803 -0.004234457 0.009379252 -0.0074837003 -0.010607669 0.004400247 0.0078059216 0.007485386 -0.0035549 0.004069936 -0.0007081498 -0.0061127706 -0.007018162 -0.0024790803 -0.00726162 -0.0010020206 0.0062613823 -0.0028787674 0.0013895485 0.0036361124 0.006046611 -0.00468802 0.0005229389 -0.00020397796 0.0022412569 0.00018833487 -0.004359302 -0.0012552291 -0.009723622 0.00805956 -0.0046461723 0.000952244 0.003224546 -0.0060141655 -0.008421858 -0.0045083095 -0.0045006275 0.0044272193 -0.0060816384 -0.005311849 -0.0067460435
sometimes 0.004335876 0.00041370266 -0.0021239873 0.0029744923 0.0008682378 0.004351978 -0.0071087857 -0.00047650622 0.0013808076 -0.0053229574 -0.005397066 0.0034695147 -0.002195348 -0.00059536326 -0.0011518643 0.008275724 0.0010085222 0.0027846193 0.00020598924 -6.971216e-05 0.0047904556 -0.0032528192 0.0019214324 -0.0073756836 0.0064836694 0.0029522057 -0.0053421212 0.0015704305 -0.003529885 0.005657307 0.0060678455 0.00068075344 0.0071376753 -0.0015376676 0.002151802 -0.0040664636 -0.0040443297 -0.0030563676 0.00066664576 -0.0037742418 -0.0042878264 3.7929578e-05 0.0024877612 -0.007045631 0.0071627866 0.0018954946 -0.008439841 -0.0018541439 -0.0070554437 0.006913384 0.0008479018 0.0054179975 0.006548406 -0.002378763 -0.0067451303 -0.0033211454 0.009943193 -0.0017632479 -0.0009799049 0.0009379895 -0.0056397486 0.0024107539 -0.005601265 0.006928827 -0.004721971 0.0062260884 -0.002140252 -0.0006829144 -0.0019515391 -0.00068175123 0.002846262 0.00014864784 -0.004293329 0.0035589624 -0.0043754624 -0.009007089 -0.0068067107 0.0058029415 -0.0017852203 -0.00039116887 0.003123102 -0.006855691 0.0038167527 0.0112892855 0.006883129 -0.0011728982 0.005105071 0.003573224 0.008874896 -0.00025678906 0.00043954953 -0.006356923 -0.0006440657 0.0019609411 0.0036512245 -0.004051398 0.0022103551 -0.005329466 -0.0063284314 -0.0096911425 0.0049343263 0.0025951862 -0.0032799968 0.0070446115 0.0011242571 -0.008396416 -0.0059547503 -0.0033674715 -0.005242227 0.0043268707 0.0049310587 0.0005576157 0.0015889927 -0.004276323 0.002745558 -0.0059194653 -0.00088483485 -0.0027684183 -0.0004237055 -0.009391627 0.0010811186 -0.006937388 0.004303084 -0.004054696 -0.0052521275 4.5445875e-05 -0.007754605 0.0043689776
today -0.0022033504 -0.003460876 0.00814672 0.004645128 0.0005013244 0.006386771 -0.0023610962 0.004564823 0.0026168034 -0.008063249 0.0030526873 -0.008446276 -0.0028675343 0.0058149896 0.0023493778 -0.0018304291 0.0026606424 0.0072543323 0.0057836412 -0.0058597047 0.005754808 0.010516551 -0.004201113 -0.004397577 -0.0015580835 -0.0078511685 -0.0029602612 0.010617907 -0.0012952619 -0.0070768753 -0.0046130666 -0.008937748 0.0009901978 0.0071390336 0.0004338349 -0.0027721277 0.010703336 -0.007071266 -0.0015201481 -0.0068979776 0.0067713154 -0.002042193 -0.0011346405 -0.0067567243 0.008451366 -0.0015371639 -0.005653946 0.0020939752 -0.0066647003 0.008217739 0.006854537 -0.004102466 0.00072352064 0.0020576501 -0.0072036763 0.004943272 0.0068239407 0.0038972741 -0.0077910265 0.0010509156 -0.0039947014 0.0035925088 0.008570091 -0.001014946 -0.004271432 0.0037560402 -0.001010359 0.0031564382 -0.0052243466 -0.0022432301 -0.00091298285 0.004410652 -0.010452333 -0.005702702 -0.00016722527 -0.005540726 0.0033141978 0.0006467069 -0.002111917 -0.0030215317 -0.008529501 0.000572756 0.0011260463 -0.0030839911 0.007182077 0.00726386 0.008735563 -0.0026457172 0.0014722168 0.008027032 -0.0058272234 -0.009073732 -0.004081112 0.0050699934 -0.0052569844 0.0016033817 0.004995275 -0.00054580875 -0.010681704 0.0032467209 0.003143322 -0.0073862774 0.0027651053 0.007212133 0.0044011297 -0.004253514 0.0050632963 -0.004043597 -0.0053372406 0.0012640844 -0.00302144 -0.00252415 -0.0016172258 -0.0038449808 -0.0036757702 -0.0010954156 0.0022050817 0.007949978 0.004362859 -0.010182327 -0.008563863 -0.00284161 -0.0031138202 -0.0028666318 0.0060550882 0.0032666551 -0.0075056185 0.00472086
already -0.00019659186 -0.00943718 0.0019519916 0.0076354295 -0.003242714 -0.0025621213 -0.004040851 0.0040244483 0.0016934384 -0.007566099 -0.0052484185 -0.0015867264 0.00056707975 0.0013942918 0.0067609777 0.0018084658 -0.000509829 0.004679353 0.0002992562 0.0035744333 0.00097380165 0.011353993 -0.0030324145 -0.0011045014 0.001424124 -0.005515174 0.0059595 0.007298325 0.004469273 -0.002401019 0.0064219423 0.0015439526 -0.0015396143 0.0054444056 0.00433538 0.005973809 0.0044602808 0.0015432033 -0.0004092476 -0.0033745896 -0.0076379566 -0.0020556545 0.00090995285 0.0012477839 0.0020257498 0.0019257385 0.0029509529 -0.0055367076 0.004130023 0.006326017 0.006732038 0.00039419282 0.0030861704 0.0021536292 -0.0055186725 -0.0028446652 0.0051471577 -0.00079104985 0.0023954026 -0.0024363215 0.004861273 -0.0035659256 0.006001497 -0.0028709585 -0.0012770101 0.0017253966 -0.0016352856 -0.00091553247 -0.0030970438 0.004530965 -0.005907497 0.002376853 -0.0068324404 0.004732264 0.0040607853 -0.0016846299 -0.0037583634 -0.00033131818 -0.004456947 0.0022653453 0.004067479 -0.00816046 0.004022122 0.007726973 0.007519598 -0.0012805001 0.008067394 -0.007817191 0.0020689256 0.008557964 0.0025531747 -0.0076731388 0.00010736077 -0.004688798 0.0023388264 0.004081207 -0.007181406 0.0026304603 -0.006489492 0.0009630317 0.0031647163 0.000770375 -0.0027097284 -0.0067850007 -0.004816377 -0.00040814874 -0.007733182 0.0070618945 0.0031006604 -0.0024077436 0.007939024 -0.004458126 0.0034729165 0.0027381848 0.0032936712 -8.7805e-05 -0.0010427841 -0.0011013843 -0.0046429345 0.0016834763 0.002444212 0.004013733 0.003605167 -0.0053131133 0.0067234877 -0.006346515 -0.0011996665 0.00017655735
could -0.0046272296 -0.011044744 0.006456779 0.004010457 0.0050958334 -0.0072962833 0.0042530564 -0.0064442274 -0.007343927 -0.00044609464 -0.0017509375 0.0007741437 -0.005899316 -0.006124723 0.009294488 0.00044929018 0.0055030365 -0.000368647 0.00010655841 0.0025182148 0.0057356595 0.0035553758 -0.007864676 -0.0052920827 0.004474694 0.0045945384 -0.0061556553 0.005783115 0.008390678 -0.007155304 -0.0011400502 -0.0007123592 -0.005247748 -0.0018021103 0.0041087084 -0.0037444485 -0.00046955878 0.0021022544 0.009508882 0.006475388 -0.0052266424 -0.0027272734 0.010188247 -0.0001787453 -0.0016673523 -0.005861685 -0.00553438 0.0035646968 0.00063940656 -0.0038726053 0.0069553927 -0.0024423737 0.0031045713 -0.0025896896 0.0030927612 0.0022340089 0.0052874023 -0.003714196 -0.0030109673 0.0006103179 -0.0021720023 -0.0018999444 0.007265193 0.0013749597 0.0066086724 0.0029696673 0.0005285522 0.001657202 0.0065657157 0.002097093 -0.0049111973 0.0047263196 -0.008637707 -0.0034463261 -0.006456 -0.010645993 -0.004367166 0.005013347 0.0010204032 0.0033132804 -0.0055097467 0.003405241 0.0080026975 0.010132095 0.0009185184 -0.0051945676 0.01024737 -0.002009516 0.003630622 0.00593141 0.006882323 -0.0045567006 -0.0013090222 0.00079057744 0.004550623 4.5171888e-05 -0.002614905 0.006075183 -0.0014174074 -0.0074297735 0.0061398204 -0.0062962575 -0.004138821 0.0047805374 -0.005050557 0.0046035377 -0.004747419 -0.0072274455 -0.0067616785 0.00015553937 0.0060044536 0.004402176 0.004862769 0.005254661 -0.0027894597 -0.007755533 0.0092641255 -0.003158717 0.0070978655 -0.0032999755 -0.0026821506 -0.003302627 0.0050730184 -0.0030548591 0.0006059161 0.0001789468 -0.00080171286 -0.0047065923
make -0.005450764 -0.010452643 -0.0011601099 0.0021687846 -0.004411163 0.0072609684 -0.00021136038 -0.0054291785 -0.006182185 -0.0065438813 -0.0048183436 -0.00095175806 -0.0027687806 0.006044558 0.0076603005 0.0012685708 0.0076481616 -0.002930379 -0.006255226 0.00035145745 -0.0042966395 0.0019770805 0.001620171 -0.009478278 -0.0025088286 0.0015695696 -0.00022938091 0.0021128552 -0.0001412135 0.0060439324 0.001190561 -0.0034789788 -0.0046432223 -0.0028497304 -0.0013137275 -0.0028430829 -0.0044048084 -0.000112988 -0.0016197222 -0.002414176 -0.0022689784 -0.0018438678 0.008548599 0.002647035 0.009165647 0.004952615 0.002175138 0.00070719176 0.002157562 0.0008971553 0.008922995 -0.007014982 0.0045283423 0.0035601452 0.0076430873 -0.002352078 0.010672973 0.0031094467 -0.005562886 0.008359964 -0.0023577316 0.004575157 -0.006014217 -0.003941376 0.0062853587 -0.0006282068 -0.006634345 0.00016818935 -0.0069647226 0.002457528 0.0076650423 -0.002729819 0.00037256675 -0.005160401 0.004013049 -0.0020818347 -0.008201742 0.001912145 -0.0045167953 0.009231494 -0.0058637303 0.0056710034 0.0018014023 0.010158405 0.0056820675 0.009323246 0.003961862 0.0009295246 0.0031646818 0.00071685266 -0.0027553102 -0.00029087707 0.009170561 0.007512656 0.0040284237 0.0036076102 -0.0023253313 -0.00036998346 -0.006734958 -0.0085337255 -0.006832219 0.0024230438 -0.0068025775 0.0070684305 -0.0052121803 -0.0015932937 -0.00539467 0.0057807644 0.0049938774 -0.00017456844 0.00035390235 -0.0049778046 -0.0025095632 0.009326647 -0.009127868 0.0017000687 0.004354736 0.009638073 0.0036022663 -0.0008940878 0.001770852 0.002354129 -0.008532004 -0.0013984059 -0.00072317186 0.00029729653 0.0018852561 -0.0016439207
binged -0.0006236353 0.00021014454 0.0042811483 0.008522842 0.00741846 0.0011085027 -0.0005850798 -0.0076821516 0.0024314115 -0.0041955505 0.0037665316 -9.2410046e-05 0.0057788463 0.0038543853 0.0104818 0.0027476575 -0.0041577835 -0.0034813986 -0.0058419304 0.0010155233 0.006407645 0.009260842 -0.0013667865 -0.0021980668 -0.006066537 0.00496832 0.0035338267 0.0026552917 0.008193169 -0.0075517897 -0.00799408 0.0064950217 0.0037399582 -0.0053545306 0.0059291977 -0.0035122088 0.0034414958 0.0025870288 -0.0057900464 0.005511715 -0.004869148 -0.0048153433 0.007446884 0.005401696 0.0076867887 0.0037235362 0.00030986458 -0.006949606 -0.0018769945 3.9976727e-05 0.0035058649 0.0054107774 0.0081449635 -0.00014414688 -0.004129305 0.00698921 0.009606158 -0.005076429 0.0022384436 0.0066894833 0.00048237946 0.0024511064 -0.004614713 -0.0076684277 -0.0035065874 -0.006185766 -0.007243181 0.0044938363 -0.0048393365 0.004132661 0.0016140995 -0.0030100266 -0.0102678435 -0.005667819 0.0029151859 0.00512897 -0.003223456 0.006110042 -0.002848091 0.010472725 -0.0015502159 -0.005699323 0.0041909614 0.0032267384 0.007197125 -0.005162423 0.0044389144 0.0025261617 0.0074401554 2.218857e-06 -0.003298726 -0.009041894 0.0053014415 -0.0043694675 0.0066024135 0.006509476 0.004186626 0.004795953 -0.006586616 0.0048780693 -0.006472376 0.005521131 -0.00406759 0.0010133627 -0.0010067153 -0.0004273256 0.0061208876 0.0013225868 -0.006631768 0.0030635027 0.0037668792 -0.005617935 0.006497261 0.00038923093 0.0024791127 -0.003098373 0.0054546515 0.0059817205 -0.0009048962 -0.00886222 -0.0018684149 0.0012662974 -0.0066041676 -0.0049307565 0.00027562954 0.0007329246 -0.0048036515 -0.0042335317
ate 0.008853305 -0.006126369 -0.002630782 0.0035976833 0.0009897889 0.0066780956 -0.003743714 -0.0050704055 -0.0061506596 -0.008734185 0.009076429 0.006323973 0.00020591595 -0.0065966905 0.0023104283 0.0055873683 -0.004343488 0.00837037 0.0059918338 -0.0021867342 -0.00511939 0.011958845 0.00020165392 -0.0061106975 0.001273034 -0.0057535535 -0.008393732 0.008331787 0.0010474715 0.0015210188 0.0064610234 -0.00424936 -0.0044926126 -0.0048232344 0.006664268 -0.0032668696 0.007956467 0.0022252835 -0.0041728527 0.0019691195 0.0064187627 -0.0038979857 0.0033898759 -0.0017870093 0.006767707 -0.0018529262 -0.0042301132 -0.0073762643 -0.0037440588 0.00330185 0.0004395474 -0.00026224324 0.010158965 0.0065580993 0.005923511 0.0066295736 0.0072497735 -0.0021170834 -0.00071975787 0.0052081957 -0.004296673 0.0009973049 -0.0021053867 0.0062116664 0.0063373866 -0.0043524974 0.0013921269 -0.0019945244 -0.007717232 -0.0019407824 0.0013242513 -0.0069905724 -0.002859686 -0.0014848865 -0.0063063884 -0.00470679 -0.00263993 0.0046931496 0.0040597646 0.008251567 0.0006751314 -0.0071796183 0.00185934 0.011871952 0.008386329 0.0058990805 0.0058464315 0.0037221173 -0.0019470573 -0.0018597251 -0.0009308235 -0.0073633767 0.006761745 0.00722222 0.0013603624 -0.0069958186 -0.00455672 -0.00734701 -0.009357262 -0.0013520272 0.0013425495 -0.0050046877 -0.007430694 0.00094149343 0.00030113297 -0.0002112426 0.0061675888 -0.0016270757 -0.0069122924 0.003044073 0.0072858427 -0.0058289645 0.0086123515 0.005530932 -0.004120452 -0.0033327984 0.0061769364 0.008154107 0.008262119 -0.0076132673 -0.0013693217 -0.0053596497 -0.00851757 -0.0006568038 -0.0032575577 -0.0044590775 0.0008450464 -0.0029215862
several 0.004018395 -0.0051114126 -0.0041047204 -0.0027333384 -0.0071833483 0.007893945 -0.0053951144 -0.0006993752 -0.008898671 -0.005105628 -0.002502411 0.0012927365 0.00286285 0.0018941242 0.011468907 0.0031419022 0.008105381 0.0072705797 0.0026225485 0.001084725 -0.005640818 0.002128751 0.004490891 -0.009438992 0.00062168407 -0.006378205 0.00641934 0.0024894944 0.0014077955 -0.0048111407 0.0035834885 -0.006793241 -0.006458227 0.007387171 -0.0028575887 -0.00070785795 0.007143358 0.0038775478 0.006731579 0.0061891368 0.003830726 -0.007499327 0.0067301975 0.0066158054 -0.0013775544 0.0016126365 -0.0035095413 -0.00344657 0.0056458386 0.0009205921 0.004214549 -0.0050630188 0.007265987 -0.001813475 -0.0035529644 0.0032266278 0.01063099 -0.0054139853 0.0020464747 0.000309733 -0.0046765525 -0.004298523 -0.005587363 0.004106784 -0.0004936539 -0.0039702645 0.00013590103 0.0043897177 0.007222349 -0.009349201 0.0007969568 -0.0021021361 -0.0060537593 -0.002968514 0.007192936 -0.004598308 0.0062215817 0.0010624836 -0.0009683085 0.0088864565 0.004639362 -0.00035788023 0.001305894 0.008730758 -0.0016939857 0.0048653428 0.0032362978 -0.0048863455 0.0066355346 -0.0013931696 0.0010191352 -0.008548045 0.0039682533 0.0058398745 0.005820105 -0.0061610388 -0.0058386675 0.004123425 -0.0005808937 -0.0017143259 -0.006072178 -0.0018526679 -0.008647903 0.0015636334 -0.0039217267 -0.000120638426 0.003741381 0.0017222267 -0.0050138817 -0.0006571214 -0.004430864 -0.004065447 0.003848693 0.0077222143 -0.007265005 3.6839356e-05 0.0075779893 0.009685791 0.0062829535 -0.008071093 0.0014888353 0.0057234997 0.0021770317 0.00405968 -0.0020011014 0.0027554766 0.0017475175 0.007229919
going 0.0013741718 -0.004487367 0.0030544598 0.0059298794 0.008392072 0.0033489508 -0.004778998 0.00437045 0.0021315617 -0.0005615592 0.008999789 -0.003961979 0.0025485938 -0.006278572 0.0064951517 0.008588231 -0.006385649 0.0032411565 0.0049552987 -0.005345166 -0.00538262 0.00023368717 0.0029373183 -0.0014199066 0.0048809187 -0.0009460199 0.003557573 -0.005119689 0.0010842441 -0.0036120508 -0.0004694051 0.00012430319 0.007278288 0.0067628706 0.002395152 -0.004808111 0.00797415 -0.0038267628 -0.00043791768 -0.00050485466 -0.0021800755 -0.0036055632 0.008050353 0.004825093 0.0015232651 0.0012523262 -0.0033844544 -0.0050286674 -0.004813929 0.0006731221 -0.0052011884 -0.00054667436 0.0050076945 -0.0030463713 0.0036690184 0.0029943564 0.0031306553 0.0038232417 0.00014542256 -0.0037085533 0.003871371 -0.0036827838 0.0074264985 -0.0056862696 0.0039133066 -0.0029829699 -0.00086721324 0.005238192 0.0063671735 0.0025783025 0.0055496204 0.005648095 -6.437446e-05 -0.0038223914 -0.0011858091 -0.008567849 -0.00054916524 -0.004508052 0.0032639257 0.00287891 0.004847527 -0.006810671 -0.0038793662 0.006294996 0.0023005195 -0.001816577 0.004191281 -0.0006777123 0.0058253454 0.00016031499 0.0019291402 -0.004464859 0.0056299334 0.0064813127 -0.0021097062 -0.007139266 -0.0038750744 0.0048277695 -0.007315346 -0.008779717 0.003428996 -0.0066780415 -0.005763513 -0.004349059 -0.0030835224 0.005016483 -0.004447981 0.007413213 0.00791451 -0.0064615323 0.0054291943 -0.00024449182 0.005082769 0.002626177 0.0028575077 -0.006258856 0.005038897 0.004986226 0.006668985 -0.0024032868 -0.0053221164 -0.004963638 -0.0024945498 -0.00249532 -0.0036429812 0.0021103064 3.25836e-05 -0.0071812393
lets 0.0075544664 0.002337328 -0.00493168 0.006329381 0.002714387 0.0008307833 0.0011323353 -0.0074652643 -0.0021181146 0.0017391709 0.006088336 -0.0026347463 0.0061652027 -0.0075296857 0.0031723876 -0.0013855345 0.002740963 -0.0004286963 0.00069767534 -0.006639958 0.0016184073 0.01030706 0.005017176 -0.0035548548 -0.008352176 0.004478625 0.0015160933 0.0036012863 -0.006057639 -0.0024503637 -0.0062374063 -0.000817054 -0.003961032 0.0019000443 0.006867714 -0.0019411598 0.00085885223 -0.005777165 0.005102816 0.0059695523 0.0033542295 -0.00016493506 -0.0004961502 -0.000275323 0.00701757 -0.0003535285 -0.007817625 -0.0019266802 0.004417988 0.0073743444 -0.005791923 0.0059866738 -0.0011360269 0.0043883976 0.0009733067 -0.005719091 0.008377377 -0.0021656703 -0.007929384 0.0036422187 0.0064014522 0.00014359846 -0.0049362197 0.0046056164 0.003315306 -0.0035339596 0.006738957 0.0063843513 0.00049466355 -0.0043333354 -0.004764889 -0.001635804 0.0007031599 -0.005820362 -0.0009642244 0.0014289471 0.006041587 -0.004657246 0.005321935 0.00730592 0.002579452 0.0022445566 0.00675089 -0.0017222413 0.0036949138 0.0052271048 0.0050303694 -0.0069068023 -0.003543726 0.00044826049 -0.0034676902 0.00235758 0.009203763 -0.0028052276 -0.0049076867 0.0016730548 -0.0044231038 -0.001220471 0.0012404892 -0.010184959 0.0021896781 -0.0019923071 -0.0059510595 0.008203892 -0.002680123 -0.007626151 -0.0047429446 -0.005202302 -0.00027643016 -0.0087333815 -0.0037510418 -0.0004145172 0.002432846 -0.0024825938 -0.003960694 -0.008557746 0.0040022237 -0.0050487085 -0.0009580728 -0.008199817 -0.0038948054 0.0018193485 0.00028807583 -0.004344209 0.006771848 0.0071640797 0.0057913577 1.2294093e-05
hope 0.0039641364 -0.0048794528 -1.3798292e-05 0.0075856186 -0.004375023 0.0046412833 -0.006478646 -0.0023494663 -0.0052114557 0.00027827953 0.008629501 0.0015331783 -0.0019409934 0.0062992955 -0.00096105656 0.008308165 -0.005384274 0.0045287283 -5.9811784e-05 -0.0059141964 0.003144535 0.0037989863 -0.0012135395 -0.008316014 -0.0030204493 -0.0013471778 -0.002436206 0.005450142 0.00096841867 0.0045738453 -0.0038848093 -0.0028721073 -0.0031979587 -0.002166978 0.0018185512 0.0034581346 0.0018059155 0.00660753 0.0028720356 0.005626577 0.0046919747 0.0026539895 0.006211097 -0.0023097687 0.0050098007 -0.0025357255 -0.005181545 0.003489945 -0.0038445008 0.0030744446 -0.0043339576 -0.008198742 0.007917772 0.0005883392 0.0012438431 0.008508793 -0.004493645 -0.0036070144 0.0012342263 0.007821706 0.0007885328 0.0044696527 0.0015527203 0.0006071644 -0.00679284 -0.0054028616 0.0034682439 0.0004958145 0.0024599412 0.0062407837 0.0058465484 -0.008530409 -0.0033133305 -0.0037922694 0.007846661 -0.004017659 -0.0003305179 0.005233389 -0.0025610134 -0.0052507655 2.9127124e-05 -0.004439669 -0.0012902668 0.008532371 0.0011700159 0.0049483306 0.0029119544 -0.0035535516 -0.0015033848 0.005406479 0.002623506 0.0048696874 0.0060964995 0.008259479 0.00887388 0.0075803613 0.0012032003 -2.9387518e-05 -0.0026059027 -0.007838101 0.0034904452 -0.0002736933 -0.003098906 -0.0049908543 0.0067584934 0.00019997501 0.00046105424 -0.0066272384 -0.0057517667 0.0024060349 0.0044080466 -0.0075085317 0.002162331 -0.0025396168 0.004036773 0.0044862693 -0.0041395416 -0.0052495445 -0.004727142 -0.0057783513 0.0053476635 -0.0027688504 -0.0050476682 -0.0013605636 0.00064335146 0.004905193 -0.0037436087 -0.006569682
tomorrow 0.0067165005 -0.0030397098 0.006885406 0.0060576545 -0.0047225407 0.004652894 -0.007958225 0.0065209866 -0.0033240938 -0.008379706 -0.0043716994 0.0072824946 -0.0016179029 -0.0020498086 0.00033965512 0.007443024 -0.007334168 0.008588095 -0.0024987971 -0.0015207474 0.0053878543 0.0025337043 0.0008319282 -0.0022543226 0.007202788 0.007590858 0.0006492655 0.0014193361 0.0072714556 0.0021195046 -0.005701291 -0.0017577203 -0.0028682624 0.004755083 0.0011763575 0.003123334 -0.0037559536 0.0037459764 0.00072676013 0.0017254688 0.0046310453 -0.0007499711 -0.0017068193 -0.0031323167 -0.003729013 0.0010274802 0.0067207487 0.00033248338 -0.0047597117 0.0023403617 4.9032973e-05 -0.007474802 -0.006051577 -0.005818518 -0.00214053 0.004707923 0.0040010586 0.003501816 -0.002643517 -0.0053599975 0.00050910877 0.0036828506 0.006788758 0.0069304686 -0.0022796462 0.0069121416 0.00021246001 0.0016548153 0.0037731302 -0.0064735725 -0.000645227 0.0036290553 0.0012108645 -0.0012841016 0.0041719023 0.00477003 0.0047822464 0.0010399575 0.0073125707 -0.0025869964 0.0019166294 -0.0065472024 0.0060615884 -0.005255296 -0.005634637 0.007040327 -0.00489911 0.0064583644 -0.0016375598 -0.005271253 -0.0023625707 0.0010712484 0.00859766 -0.0024172657 0.003525991 0.0058773668 -0.0015216906 0.0065967957 -0.0057217693 -0.0024651932 -0.004342353 -0.0023624708 0.00086942606 0.0065835444 0.005717176 -0.0038792859 -0.0009808978 0.006153183 0.0075535895 0.0062978254 -0.0036392368 -0.005006515 0.004974987 -0.0008284916 -0.0022894605 0.002983695 0.0010904616 -0.0029999912 0.008526845 0.0017672757 -0.0030324173 -0.0017560803 -0.0008303499 0.0084103 0.0013811225 0.0057101157 -0.0007041071 0.0070225843
better 0.00011778078 -0.00024878504 0.007407578 0.005013166 0.0042603253 -0.0037684964 -0.0018602357 0.0031867996 -0.0022871024 -0.006665585 0.0005073381 -0.003576328 -0.0009416968 0.0023277279 -0.0035955664 0.006718209 -0.0038852966 -0.0042760335 0.004128929 -0.0040136264 -0.0024358144 -0.004465588 -0.002045264 -0.008966566 0.0026771307 -0.0036577238 -0.00055264635 0.0004251101 -0.0059005707 -0.0074944478 0.0018677822 -0.0061166254 0.005515123 0.0038739506 0.00330735 0.0055935048 0.0037646093 -0.007144848 -0.0012916679 0.0045957235 -0.0013544192 -0.003156197 0.0029714787 -0.0015637139 0.0054156915 0.00740626 -0.004312066 -0.002583712 0.0067467378 -0.004316196 0.002250645 0.004745135 0.004987269 -0.004063612 -0.0011365458 0.002723352 0.0063158786 0.0013452228 -4.078714e-05 -0.004775583 0.008358473 0.0041854056 0.006936969 0.002114189 0.00793317 -0.0064571407 -0.007043861 0.0043052346 0.0003585308 -0.0026857955 -0.0053331866 -0.0030225215 -0.002431804 0.002629653 0.0032008872 -0.008568127 -0.005397169 0.0046773837 -0.00016063217 0.0027310622 -0.0032876183 0.0028213076 0.002867111 0.0059801745 -0.00078810885 0.0063783783 -0.0033083474 0.005463491 0.0044091335 -0.0025156 0.003576218 -0.00047365425 0.0034160225 0.0010653175 -0.005357562 0.0035755832 -0.005192443 0.0043366435 0.0021769768 -0.0033132008 0.0017396775 0.0003841109 -0.0045248815 0.001976774 -0.0033573934 -0.0059516407 -0.0072504855 0.0062384238 0.0037212477 0.00038966574 0.005053584 -0.0063474495 -0.0005093102 -0.0033045125 -0.0075195204 -0.00810068 0.0039883805 -0.0023616035 -0.004771646 -0.0064548836 0.0056022177 0.004437818 -0.0027911223 0.004880784 -0.0045929337 -0.0035923792 0.0058051064 0.0007750659
place -0.0042029037 -0.00444437 -0.005754346 -0.007053522 -0.0015364734 -0.0018596901 0.0071754972 0.0026767235 -0.0003160612 0.0010286027 0.0045565874 0.00078734313 -0.0027022979 -0.0014210392 -0.0013581136 0.0049187797 0.0078214845 0.007527125 -0.006989899 -0.00676531 -0.00624976 -0.0051541193 -0.0042739427 0.002606387 -0.003561835 0.004309979 -0.0073251775 0.0005157573 0.0029827105 -0.005991505 0.0017769658 -0.0029055555 0.005438408 8.614816e-05 0.0018510309 0.00240338 0.006077471 -0.002089062 0.005964032 0.00035311238 -0.006406848 0.0037584095 0.0030425026 0.0028780422 0.00263397 -0.0036837524 -0.006155472 -0.004868848 0.004570623 0.0013607505 -0.0025698165 0.0054570767 0.0012943343 0.0075289113 -0.0071952986 -0.005668259 -0.0020960427 0.0036327248 -0.0055898535 -0.003538966 0.004422259 -0.0040501878 0.0036863713 0.0005325576 0.0008382291 0.006743219 -0.0076911002 -0.0031166035 0.0021796795 -0.0064638755 0.0008714765 -0.0031293272 0.005498075 -0.0036616789 0.0067806505 0.00542412 0.0057547204 0.0027623405 0.003831809 0.004418012 0.004561486 -0.0013294031 0.0057634483 0.0018314215 -0.0020642136 0.00423294 -0.0005413727 -0.007229576 -0.002159668 0.005813976 0.0039129364 0.0028085185 0.0052727354 -0.006859857 0.0013281583 0.0030126523 -0.0022562454 -0.002619973 0.0042801173 -0.0072743003 0.0023253202 0.0030532482 0.0012550936 0.003278136 -0.0053452617 0.0017918871 -0.0010897005 -0.0029414906 0.007295404 -0.0062008756 -0.0056826132 -0.004859158 -0.006430749 -0.0011425014 -0.0074687265 -0.003784063 0.0048596086 -0.0012642535 -0.0043664337 -0.0033894447 -0.0060635027 0.0063809254 0.0026387153 0.00041596408 0.0074572084 0.0058255075 -0.004631913 -0.006187739
times -0.0020160007 -0.010341678 0.007020249 -0.0027560352 0.00012042569 0.0013773693 -0.0030370306 -0.00305659 -0.0011551268 -0.009204613 0.0025406373 -0.0043054996 -0.006143141 0.0021326954 0.0051088696 0.0046512224 0.0011053836 -0.006029014 0.008449523 -0.0034895937 -0.0014069037 0.009935034 0.000101501384 -0.000818313 0.00072835234 0.0013601213 0.0041616885 0.010220538 0.00025966912 -0.0036533377 0.0022728678 -0.007851209 0.0061097513 0.0043127537 0.0045594596 0.0022188972 0.0020391708 0.0009019362 -0.0018017632 0.00785663 0.0032681893 0.0023120602 -0.0011576455 -0.0073515796 0.008007352 0.0030444767 -0.004302287 -0.0075614713 -0.004301295 0.0021206134 -0.005426061 -0.0008568548 0.0049946476 -0.006921996 0.00029153118 -0.0032614616 0.00035105122 -0.0019561022 -0.008642616 -0.0016870198 -0.0045184316 -0.006724913 0.0020985329 0.0013253517 0.00896387 0.0068912646 -0.005715665 -0.0062734266 0.0060011 0.0026089065 0.006437607 -0.0035285067 -0.008246729 -0.0062190555 -0.0056570126 0.0013586709 -0.003896451 0.007631003 -0.004762864 0.011018043 -0.0044885017 0.005939526 -0.0026659507 -0.0018389069 0.007540429 -0.0063131982 -0.0034906967 0.0035998924 -0.0061514485 0.0060658827 0.0021778606 -0.008818506 0.004437756 0.0026513487 0.008777313 0.0023139722 -0.005180773 -0.0034377596 0.0022171263 -0.007865136 0.006118767 -0.0034330057 -0.005127925 -0.0029412122 0.0020407257 -0.008605075 0.0026498884 -0.0034970453 0.008249409 -0.005449825 -0.0053157723 0.0015250798 0.009410051 0.0037922114 -0.0040499554 0.0009955283 -0.0058312183 -0.0011811452 -0.0021148247 -0.0008932202 -0.006604017 -0.007116188 -0.0062393574 0.006299334 0.0013099335 0.006859554 0.00017189293 0.004458535
skip 0.00011957239 -0.008247818 0.00015563915 0.00790097 -0.00030509412 -0.0037885385 -0.007926961 -0.004555456 -0.004053216 0.004686563 -0.0044763437 0.00033305428 -0.0014761887 0.0023561753 -0.0029130392 0.007661475 -0.0018140562 0.0051792017 -0.0070292633 0.0035319878 -0.0061615007 0.0008929397 -0.000880866 -0.0054473914 -0.0015088817 -0.00028226333 0.0025082696 0.00046342378 -0.0025519547 -0.005636876 0.0054137856 0.002648831 0.006693826 0.0062253047 -0.0036907003 0.006440657 -0.0029663935 0.0024870222 -0.0010318581 0.0009049452 0.002370642 -0.0026064708 -0.0011123826 -0.0019512407 0.001843355 0.0056444863 -0.005310211 0.003025731 -0.003883766 -0.0053614136 -0.0029740813 0.00077518646 0.009119655 0.006875669 0.0075319246 0.006542146 0.0003189994 -0.002486255 0.006229649 0.006032578 0.005510114 0.0044448595 0.001958108 0.001527637 -0.0050638905 0.0059235916 0.006812216 -0.004750551 0.0007141588 0.005518144 0.0037064077 0.004494505 0.0026231979 -0.0036725553 0.0076839365 0.0020099585 -0.0024850857 0.000700485 0.007384337 0.007401346 -0.0059576053 -0.0034114593 -0.0014234012 0.005696217 0.0020172514 -0.005659494 0.0044346713 0.007407482 0.0031251546 0.0050122673 0.00092537707 0.0037036112 0.008619705 0.0036549564 -0.00026411164 0.0028694961 -0.007013782 0.005005638 -0.0056774635 0.0054955953 -0.00847871 -0.0027062637 0.0057007703 -0.0028086777 -0.0018939017 0.0032521402 0.007355528 -0.00025615492 -0.004727512 0.0065593333 -0.0067093805 3.9480045e-05 0.0063284733 -0.0048304047 -0.006293262 -0.008663606 0.0009771942 0.0055548158 -0.0053133555 -0.0043398947 0.005244914 -0.004525713 0.0016179507 0.0045779 -0.0035450999 -0.004053869 0.005168422 -0.0016669199
embarassed -0.0035353296 0.00453413 -0.0020078202 -0.00041620288 0.0044817883 -0.00059388974 0.0026008731 -0.0034578156 0.0026716883 -0.008850343 0.005757967 -0.0016845069 -0.005772773 -0.0009163073 0.0019163564 0.00075267884 -0.0012448763 -0.006183088 -0.0057049473 -0.005845062 -0.0066124927 -0.0003773291 0.0071426327 -0.0036357113 -0.006697758 -0.0050407434 0.0018285555 -0.00022003755 -0.000688016 -0.0037320256 0.003610569 -0.0068721944 -0.0065095895 0.007680443 -0.0054633496 0.0015738561 0.0025153023 0.0077297282 0.0050190906 0.0022872016 0.0017004653 0.0015880495 0.003531812 -0.0022857161 0.004485498 0.0052840384 0.0062889773 -0.0011096903 -0.0017600182 0.0058635296 -0.0053490303 -0.0011962347 -0.003366928 0.0043601487 -0.0068804193 0.0038189888 0.009285607 -0.0019320775 -0.0075489404 -0.0055030724 0.0032505947 -0.0050271936 0.005707382 -0.0013009352 0.0074329455 -0.00039111724 -0.0053855083 -0.0037834554 0.0005230439 -0.00512434 0.00569588 -0.0038725545 -0.0074573765 -0.0013204035 -0.0033280065 -0.008692665 -0.004933663 -0.0007890895 4.0502306e-05 0.005261839 0.0049036285 0.004652635 0.0057417667 0.0030841134 -0.0035528373 0.008107255 0.0019523512 0.003535857 -0.0001833285 0.0061203097 0.0036037609 -0.008163356 -0.0008098988 0.00079428096 0.003055208 -0.0074580377 0.0030725214 0.0015488568 -0.0023336362 -0.0047944137 -0.0065793553 0.005339109 -0.00776121 -0.00535379 0.0032977185 -0.0072117145 -0.0025347031 -0.0017351612 -0.0010096582 -0.006571439 0.004127568 -0.00014033397 0.004706286 7.602006e-05 0.003863241 -0.0087948395 0.00528844 -0.0027611475 0.0023654818 -0.007113011 -0.0032875994 -0.0058736806 -0.003389699 0.0092761405 0.0015416759 0.0013669713 -0.0059082755 0.004378222
