542 128
like 0.043276485 -0.2323625 -0.12574382 0.03824339 0.13774331 -0.08130354 0.27671003 -0.2631983 0.29194066 0.65447843 -0.033459425 -0.09626124 0.0040398235 -0.43285316 0.17259187 0.628844 -0.2706323 -0.0019764989 -0.20286481 0.6172111 0.02995015 0.19123729 -0.44638035 -0.6847102 -0.6638718 0.26698348 -0.23422693 0.08729145 -0.24480169 -0.3616879 -0.21782906 -0.17125008 0.25473642 -0.07359763 -0.2055204 0.46879622 0.37153998 -0.03782499 -0.19744778 0.20483875 0.067561984 0.24868207 -0.15352404 -0.20233949 0.32114097 -0.022469278 -0.2395087 -0.18713984 -0.12431942 -0.15106004 0.29397076 0.13407697 0.1760381 0.004319674 -0.4106286 -0.121166244 0.54756594 -0.17656592 -0.39840618 0.06400962 -0.3074932 0.22605321 0.33238825 -0.15278395 0.27332634 -0.16502059 0.053537197 -0.15823905 0.15689674 -0.046526376 -0.01062792 -0.28733233 -0.451452 -0.26566175 -0.08704773 -0.14921802 -0.3764663 0.02087843 -0.36008862 0.0625763 -0.18931626 -0.20143017 -0.107311346 0.44314435 0.017869214 0.29562438 0.029255198 -0.20193693 0.1594696 0.33744627 -0.0356294 -0.2668747 0.04720482 -0.115884304 0.14927793 0.08967013 0.01739179 -0.63569206 -0.060484827 -0.2686882 -0.5859053 0.088222906 -0.22154376 -0.007525908 0.12968528 0.029428754 -0.029412132 0.2806986 0.38173217 -0.33984524 0.27454448 -0.10818244 0.08432775 0.060813848 -0.44053054 -0.056120154 -0.09007597 0.05913965 -0.02450869 0.026882757 -0.22303809 -0.42779887 -0.55614495 0.011157847 -0.57336456 -0.1801318 -0.40733442 0.09328382
bulimia 0.027346939 -0.20403856 -0.110053465 0.034777034 0.11616663 -0.064874746 0.25188187 -0.2183528 0.23579282 0.5779771 -0.027636353 -0.07184541 0.011024689 -0.39634123 0.16079345 0.55338913 -0.24346358 0.004876999 -0.17321514 0.5444455 0.010495876 0.16266525 -0.39125195 -0.61652637 -0.58823085 0.24552941 -0.20692588 0.074010044 -0.20685934 -0.32464975 -0.18510582 -0.13991542 0.21113205 -0.046195358 -0.17351997 0.4182913 0.3368291 -0.033252638 -0.18068334 0.18086848 0.055010866 0.21634214 -0.14008233 -0.16069917 0.3047791 -0.0064469147 -0.20470683 -0.14939235 -0.12472062 -0.13225564 0.2770534 0.12544927 0.16002838 0.0133392345 -0.34245747 -0.10167012 0.5001267 -0.16134708 -0.3652772 0.052523717 -0.27715337 0.19973046 0.30540943 -0.15360981 0.23045547 -0.15156892 0.053031657 -0.13427041 0.15209208 -0.031726543 -0.0062770583 -0.25470668 -0.37968582 -0.2407142 -0.09840212 -0.13111454 -0.32489565 0.018312061 -0.3122629 0.056154188 -0.1710469 -0.16061425 -0.10228245 0.38832423 0.0066061094 0.25951847 0.024546074 -0.183496 0.14128014 0.30803818 -0.017846541 -0.2350585 0.049817696 -0.10564587 0.12178252 0.06707582 0.01926244 -0.55663025 -0.050500292 -0.22689393 -0.52207977 0.06755351 -0.19917734 -0.007265139 0.107517995 0.020109529 -0.026734928 0.23684312 0.33656773 -0.3107621 0.24078627 -0.114019305 0.076200664 0.061940126 -0.36548316 -0.036392078 -0.0895463 0.04164437 -0.01106785 0.016818684 -0.21527545 -0.38079143 -0.50104696 0.020219214 -0.5100631 -0.14636874 -0.3596202 0.06934061
feel 0.048407707 -0.20860328 -0.1147388 0.03243898 0.113906905 -0.06663212 0.24098288 -0.22501415 0.25877684 0.5719848 -0.021835817 -0.09746316 -0.012189073 -0.39249992 0.15843453 0.541286 -0.25167835 0.0051546437 -0.16289175 0.5248187 0.0300844 0.16703665 -0.38810825 -0.6161214 -0.58981717 0.2505012 -0.21799357 0.063574255 -0.21150066 -0.3056129 -0.19325872 -0.14138103 0.2171552 -0.0628632 -0.16956365 0.40217653 0.32610926 -0.029093256 -0.17283441 0.19988787 0.056580707 0.21792628 -0.12651363 -0.16701977 0.28927037 -0.012484235 -0.21595956 -0.15354967 -0.11094797 -0.13085315 0.2593132 0.11895014 0.1558687 0.00043554517 -0.36554232 -0.09581997 0.4761541 -0.14374802 -0.35275015 0.052766606 -0.28119117 0.18551885 0.29764166 -0.13474295 0.23877779 -0.14331354 0.04657186 -0.1345989 0.14155725 -0.046562217 -0.0060817003 -0.24431962 -0.37599218 -0.24631836 -0.08311655 -0.14243665 -0.344472 0.022368671 -0.3255713 0.046446428 -0.17106377 -0.17508814 -0.10396968 0.39752218 0.011703241 0.2609428 0.035095543 -0.17525472 0.13826987 0.2966837 -0.036846958 -0.23492311 0.040059615 -0.098663405 0.13023612 0.08162589 0.019411877 -0.5530447 -0.046661373 -0.24419916 -0.5171505 0.07458624 -0.19695005 -0.0043285284 0.121706136 0.025809372 -0.016838241 0.23227571 0.32942906 -0.30274767 0.2392038 -0.11026139 0.0726928 0.050925687 -0.38127366 -0.04541475 -0.09037685 0.04714908 -0.016362952 0.013267144 -0.19690125 -0.38729784 -0.48726237 0.01571437 -0.4902863 -0.14243118 -0.3587784 0.08042568
recovery 0.02360467 -0.20786034 -0.11319977 0.02891943 0.12312134 -0.06410362 0.25589058 -0.23570271 0.2561663 0.5937724 -0.036262754 -0.069392644 -3.196089e-05 -0.40130112 0.16914546 0.55824435 -0.24425459 -0.0103440955 -0.1739664 0.55345833 0.008702731 0.14964864 -0.40924415 -0.6376154 -0.5904888 0.2517164 -0.22980061 0.07713212 -0.21693602 -0.33351496 -0.19253297 -0.1481253 0.2368555 -0.04312553 -0.16772464 0.4160313 0.3390476 -0.03718065 -0.19310778 0.19025265 0.048031263 0.22427593 -0.15386091 -0.1725526 0.30264157 -0.017334798 -0.20819347 -0.14407824 -0.11600619 -0.1165514 0.27451405 0.12620716 0.1624669 0.017010393 -0.35495263 -0.09860774 0.50259113 -0.15552317 -0.36355317 0.070002444 -0.2969275 0.21132612 0.31038263 -0.15463144 0.23558603 -0.14764605 0.048126552 -0.11737729 0.14960998 -0.052606445 0.007813338 -0.2550578 -0.39023954 -0.2560157 -0.106832825 -0.14435351 -0.3500054 0.012166651 -0.33784458 0.058354493 -0.18011256 -0.16567473 -0.11299928 0.40218723 -0.008523552 0.27227235 0.037275106 -0.18646935 0.15153521 0.31491232 -0.016558697 -0.23949428 0.040310204 -0.104232684 0.13373442 0.076894954 0.010621448 -0.55270016 -0.054873306 -0.23250164 -0.5325816 0.08139288 -0.19817072 -0.011531378 0.11235253 0.03395804 -0.014927593 0.23075621 0.33444974 -0.31406745 0.23853898 -0.116460964 0.06697735 0.06482353 -0.3812574 -0.04168864 -0.08363115 0.046345264 -0.0039915857 0.024206748 -0.22059417 -0.40384656 -0.5139751 0.008098795 -0.4999815 -0.14734955 -0.36591417 0.07750561
food 0.037073433 -0.18949562 -0.1094904 0.035627868 0.109995835 -0.074201204 0.241754 -0.23852067 0.23817502 0.56564647 -0.04321626 -0.07952899 0.007501197 -0.39149928 0.15883964 0.5415966 -0.23685758 0.0024130023 -0.16769998 0.5383715 0.010801868 0.16684845 -0.3891096 -0.6100565 -0.56555206 0.2392182 -0.2252781 0.06156852 -0.21718611 -0.3097541 -0.18692279 -0.14108045 0.22500286 -0.04428616 -0.1652079 0.41452 0.33936077 -0.035009876 -0.1733558 0.18873112 0.062233005 0.21570681 -0.12461721 -0.17662369 0.28118554 -0.016467428 -0.21152292 -0.1480971 -0.112918325 -0.12292332 0.26357278 0.11350035 0.16811019 0.006915835 -0.34813556 -0.09174514 0.48301455 -0.142035 -0.35210058 0.058270685 -0.29093698 0.20227163 0.28642687 -0.13318202 0.2342579 -0.14868483 0.056594104 -0.12904768 0.14814144 -0.029262219 -0.00026051828 -0.25953653 -0.37520874 -0.24361362 -0.09123501 -0.13495539 -0.33147022 0.009628845 -0.33708695 0.040948644 -0.1733103 -0.16888928 -0.10796393 0.40031505 -0.0010638783 0.26090923 0.024812633 -0.17736681 0.15190265 0.2950681 -0.022732692 -0.23915873 0.033138428 -0.097549535 0.12983932 0.07492188 0.010256101 -0.5416305 -0.057811316 -0.2413782 -0.50398755 0.06806457 -0.19826692 -0.020142771 0.103648014 0.034551848 -0.0056638666 0.23915204 0.31298864 -0.3014192 0.23371705 -0.10843204 0.05933583 0.04846059 -0.37188596 -0.048274115 -0.09225618 0.048334822 -0.021013787 0.017162116 -0.20341387 -0.37585834 -0.48951557 0.020643743 -0.49486434 -0.13635601 -0.34434587 0.08178184
way 0.031005828 -0.19454801 -0.11628636 0.041730132 0.10725076 -0.0677911 0.24885803 -0.22526534 0.24261138 0.5811631 -0.02355648 -0.08006596 -0.0109532485 -0.39588213 0.16859645 0.5431638 -0.23893993 -0.0013799911 -0.16927302 0.52683944 0.023958229 0.15788478 -0.39487082 -0.6240765 -0.5800612 0.24811202 -0.22052865 0.07769998 -0.21190524 -0.2989828 -0.19116507 -0.14595744 0.23276803 -0.042198114 -0.15924743 0.4127552 0.32827747 -0.040290195 -0.18243058 0.18732542 0.058701653 0.20984441 -0.12596168 -0.17508444 0.28929895 -0.017597668 -0.22251964 -0.16158536 -0.12775816 -0.13898242 0.25757766 0.12829004 0.17188463 0.0002513495 -0.3677261 -0.1002864 0.4782346 -0.13698868 -0.34990487 0.0696768 -0.29766545 0.20382297 0.2845797 -0.1388329 0.22666572 -0.15866482 0.06323432 -0.13591254 0.1537875 -0.032184184 0.0004117523 -0.24946295 -0.3746484 -0.24709582 -0.07911088 -0.1298278 -0.33382097 0.027486663 -0.33247295 0.043581944 -0.18850698 -0.16528313 -0.10267149 0.4035246 -0.0041446993 0.25638688 0.037993483 -0.19345963 0.14047645 0.31192422 -0.019693451 -0.2253289 0.035222232 -0.110224135 0.12612803 0.07248981 0.0071491683 -0.55065984 -0.048079517 -0.2454799 -0.5196609 0.088715546 -0.19425774 -0.017812803 0.1051561 0.021407546 -0.0069296416 0.23853187 0.3234006 -0.296659 0.2488094 -0.09759757 0.07352514 0.05761657 -0.3736585 -0.05145945 -0.084211044 0.066318974 -0.012246511 0.021155192 -0.20417798 -0.3783818 -0.48524114 0.016684009 -0.5012286 -0.15001006 -0.34403932 0.074925415
eating 0.04372489 -0.22567095 -0.11348197 0.051359195 0.13110183 -0.07947168 0.25933325 -0.25078946 0.25905612 0.6189616 -0.019792309 -0.07865721 0.0020330066 -0.4146086 0.17685588 0.59051996 -0.2583444 -0.00016203421 -0.18339202 0.56986135 0.036291003 0.17652869 -0.43625492 -0.6685265 -0.6309905 0.2572969 -0.24315558 0.074204534 -0.22017805 -0.3386622 -0.19614102 -0.16841954 0.24142992 -0.050309908 -0.17791322 0.44104186 0.36102024 -0.0362864 -0.19921452 0.2049818 0.06368124 0.24258693 -0.13295713 -0.19155717 0.3119828 -0.022588337 -0.24399428 -0.16905317 -0.13218063 -0.14758062 0.27718407 0.13074437 0.18587318 0.0061467886 -0.3782335 -0.10368335 0.51816237 -0.16946726 -0.38906622 0.06341723 -0.30697182 0.20528762 0.30457082 -0.14821386 0.25560412 -0.17160164 0.070281714 -0.14592113 0.14912602 -0.050705254 -0.00022358558 -0.27791813 -0.40743196 -0.2712354 -0.09294248 -0.14717884 -0.36205617 0.032745454 -0.36082652 0.061150793 -0.19023031 -0.18104832 -0.108653344 0.43441263 0.0016020081 0.28159314 0.03756532 -0.19694133 0.16878861 0.31707728 -0.0348893 -0.2303054 0.050429214 -0.10150136 0.14724638 0.07273681 0.019304939 -0.59628725 -0.06201318 -0.24850519 -0.5612875 0.07178471 -0.22214602 -0.006704228 0.1328265 0.03173783 -0.008354946 0.2594843 0.36428592 -0.3331351 0.2506642 -0.11472563 0.0708259 0.052870356 -0.39682233 -0.040874764 -0.0903432 0.052118134 -0.027324015 0.020086264 -0.22638933 -0.4203164 -0.5295593 0.008502747 -0.5266497 -0.16092609 -0.37704313 0.075284205
want 0.0319441 -0.13444233 -0.07936563 0.047835212 0.069789864 -0.044196136 0.17464943 -0.17454018 0.17985906 0.41833028 -0.024570888 -0.053807836 -0.006104223 -0.27798137 0.115271345 0.38049394 -0.15586779 0.019757112 -0.105763055 0.35777476 0.014463046 0.11929783 -0.27725354 -0.43695092 -0.41692373 0.16745025 -0.1607253 0.04639627 -0.14908154 -0.20428823 -0.13054739 -0.086894274 0.16130802 -0.023743434 -0.099707745 0.2874409 0.24347904 0.00049826055 -0.132734 0.14317304 0.03755757 0.14148696 -0.10258317 -0.11344457 0.1911188 -0.017097896 -0.14730085 -0.105914444 -0.08393547 -0.10381866 0.17631316 0.090159416 0.131657 0.007280772 -0.25108522 -0.06143658 0.31331527 -0.09034098 -0.23944934 0.036115758 -0.19987121 0.12532502 0.21051607 -0.103874974 0.17032292 -0.110987894 0.039816927 -0.098119736 0.09509777 -0.027346192 0.003058542 -0.17930964 -0.26602745 -0.18403327 -0.070044465 -0.09356841 -0.23690996 0.028627466 -0.23183416 0.0347431 -0.13363169 -0.11086664 -0.075036846 0.2806841 0.017398246 0.16261025 0.020569634 -0.1239925 0.1073316 0.2246523 -0.015450666 -0.14929971 0.0092601525 -0.08271022 0.09410641 0.048724756 0.031092785 -0.38076487 -0.025576854 -0.17162669 -0.3478399 0.07436458 -0.14415234 -0.01443802 0.08557503 0.017463565 0.00034100786 0.17095844 0.21578829 -0.20175251 0.17041247 -0.0777123 0.04257634 0.018697865 -0.24719289 -0.0188106 -0.062803105 0.03982249 -0.001574994 0.010548569 -0.1302067 -0.28267038 -0.3219668 0.0035512287 -0.35489577 -0.08639731 -0.24087943 0.06160617
anyone 0.027024494 -0.19245383 -0.09468964 0.034791395 0.11313286 -0.06273753 0.22180742 -0.21076517 0.22338228 0.547733 -0.033810418 -0.087027766 0.0087635275 -0.375811 0.14712721 0.50682884 -0.22828941 -0.006222504 -0.15843272 0.5138879 0.017053835 0.14326768 -0.3644953 -0.592623 -0.5430743 0.22509433 -0.20757724 0.0711874 -0.20458058 -0.30395305 -0.17786881 -0.1422107 0.2073382 -0.05094847 -0.15210985 0.3854752 0.31085008 -0.04558493 -0.17677246 0.1735042 0.044175368 0.19766432 -0.12635231 -0.16876861 0.28368688 -0.009897152 -0.21373641 -0.13646808 -0.12296576 -0.11371584 0.26726288 0.115616344 0.1456578 0.011136141 -0.3453261 -0.083930545 0.45387793 -0.15217459 -0.33144915 0.063952826 -0.2793071 0.17925107 0.27955586 -0.13874015 0.21198814 -0.14305182 0.04749026 -0.11252249 0.1272488 -0.027201971 0.009507362 -0.25153276 -0.36405274 -0.23367219 -0.07737196 -0.13223626 -0.3203395 0.006997792 -0.3044853 0.04513318 -0.1757854 -0.1520426 -0.092503324 0.37912273 0.0038052562 0.25080955 0.02594091 -0.16487586 0.13692027 0.27694622 -0.033637267 -0.21019003 0.04980236 -0.101375416 0.12765144 0.08560127 0.02333542 -0.524292 -0.055553764 -0.22473836 -0.4959713 0.080793604 -0.1834975 -0.018287458 0.117921434 0.019425714 -0.005277292 0.2207911 0.31447437 -0.30280498 0.22611564 -0.09259264 0.06715603 0.040529 -0.36236513 -0.037904892 -0.074317366 0.06167602 -0.0172181 0.008095085 -0.19504622 -0.37017545 -0.459363 0.02449476 -0.47556782 -0.13144214 -0.33018866 0.06508732
purging 0.033585474 -0.20289032 -0.10843339 0.032525655 0.13264503 -0.06702303 0.24258316 -0.23160183 0.25818267 0.58528984 -0.025113273 -0.079179995 0.0035901528 -0.39841235 0.15896134 0.5466764 -0.24869944 0.0060342844 -0.17440431 0.55085367 0.016059551 0.15958829 -0.4034994 -0.6251373 -0.5970728 0.24252872 -0.22308378 0.0667926 -0.21677983 -0.3159178 -0.18226065 -0.14724363 0.21676332 -0.05011323 -0.15775436 0.42281896 0.3297047 -0.035221655 -0.17762122 0.19220448 0.04863444 0.23092335 -0.14084761 -0.19232868 0.3010312 -0.020482901 -0.20980354 -0.14662649 -0.12124717 -0.12138167 0.27974695 0.122796394 0.17383608 0.005742117 -0.36328813 -0.083968885 0.4922512 -0.14468014 -0.34582618 0.06785815 -0.2969666 0.20153897 0.29032424 -0.14131561 0.24605301 -0.14238201 0.06274785 -0.13037984 0.14695494 -0.032065332 -0.0027056064 -0.2642959 -0.3813174 -0.2522711 -0.08620255 -0.15160142 -0.3279258 0.026197642 -0.33727908 0.059721973 -0.17570287 -0.17604376 -0.10569423 0.40994495 0.001668504 0.25671127 0.036549382 -0.18464981 0.14671718 0.30083403 -0.02539139 -0.24159203 0.04115604 -0.1098004 0.12628902 0.07383711 0.014898464 -0.56361175 -0.05286775 -0.25096044 -0.5306369 0.07043183 -0.21348645 -0.011608111 0.11588433 0.02533331 -0.015065512 0.23338386 0.32809064 -0.31271902 0.23572195 -0.107007794 0.07101699 0.050996713 -0.39177313 -0.052325826 -0.092522025 0.055755686 -0.018110495 0.02700562 -0.21816853 -0.394581 -0.48172185 0.01657317 -0.50413615 -0.13591641 -0.3461787 0.082610644
weight 0.031462155 -0.1487413 -0.08718539 0.038832437 0.08867092 -0.058375515 0.20187475 -0.17413124 0.1942201 0.45050177 -0.028585956 -0.06397284 0.005583914 -0.30348253 0.12838055 0.4150264 -0.18830281 0.008533046 -0.12901753 0.40911293 0.018999156 0.118020944 -0.3032565 -0.46996978 -0.4468924 0.17896304 -0.15832025 0.06254795 -0.17145777 -0.22877283 -0.15343928 -0.11338052 0.17808965 -0.040259793 -0.12435153 0.31417596 0.25557974 -0.015987542 -0.1487367 0.14827564 0.033391174 0.17115183 -0.10129007 -0.124587744 0.21252541 -0.014568909 -0.1707949 -0.12394636 -0.0766092 -0.102182366 0.19787964 0.088051416 0.12258526 0.0068743094 -0.29130247 -0.068650074 0.37432188 -0.10333131 -0.27866697 0.04337972 -0.21312536 0.14549118 0.24031231 -0.107327 0.19171381 -0.120277345 0.046767212 -0.11037659 0.11359188 -0.026083736 -0.0074571683 -0.18739323 -0.30681178 -0.19960545 -0.07592932 -0.11089809 -0.27146012 0.026075717 -0.25836515 0.039936733 -0.1375926 -0.12687545 -0.068717234 0.29935345 0.0152565325 0.19020769 0.012407066 -0.14453726 0.1039217 0.2370959 -0.010942455 -0.18334247 0.01859839 -0.092093356 0.092813335 0.06363263 0.017863153 -0.42840567 -0.03591208 -0.18053536 -0.4103334 0.07809657 -0.1594091 0.00097240304 0.095334694 0.017410254 -0.005255989 0.19079135 0.25534427 -0.22404775 0.19451298 -0.07792925 0.053258084 0.043632634 -0.29357454 -0.02255556 -0.06857146 0.034507006 -0.010511008 0.013710089 -0.154401 -0.30602136 -0.37274444 0.0034022671 -0.383995 -0.12053564 -0.2697774 0.06226412
people 0.028485697 -0.19847429 -0.102455385 0.04602059 0.11333429 -0.06718684 0.23413092 -0.23504017 0.24335133 0.5722311 -0.016451983 -0.08228837 0.0074714003 -0.39030838 0.16249618 0.5321316 -0.2273724 0.008779569 -0.1588499 0.5098279 0.028258946 0.15360959 -0.40382227 -0.5822339 -0.5719846 0.22712499 -0.2182169 0.074156016 -0.20893866 -0.30798203 -0.17599504 -0.13504547 0.22955635 -0.043477055 -0.17092857 0.39933264 0.32225752 -0.026116787 -0.18057908 0.18792364 0.04667956 0.20824994 -0.13636293 -0.17074084 0.28384346 -0.015737006 -0.19386472 -0.1381344 -0.11778191 -0.11193372 0.26074642 0.10941378 0.15240054 0.01389319 -0.3436962 -0.09544906 0.4668262 -0.15325245 -0.35069263 0.051620014 -0.27841732 0.1998859 0.29353806 -0.13869402 0.24153954 -0.14680588 0.05415189 -0.12329564 0.13746704 -0.033031456 -0.005847853 -0.25070822 -0.36721453 -0.24342604 -0.08590154 -0.1387206 -0.31889826 0.029521627 -0.32473606 0.062421218 -0.17141986 -0.16775854 -0.091630705 0.37315136 0.010768572 0.24324028 0.021216538 -0.17834973 0.15142164 0.28983256 -0.028488088 -0.22240156 0.033094443 -0.11413078 0.12116347 0.083912805 0.02756466 -0.5253693 -0.034972414 -0.2353644 -0.49143523 0.073333785 -0.208283 -0.003135451 0.103356734 0.030157637 -0.010863248 0.23827231 0.31110054 -0.2951442 0.23551905 -0.10222343 0.06546065 0.052116442 -0.37217548 -0.041773252 -0.09003987 0.0413929 -0.0048435223 0.0045578624 -0.20192003 -0.38304853 -0.4799526 0.025895579 -0.47718892 -0.14476474 -0.3379929 0.08162162
lot 0.032488193 -0.17975423 -0.10450375 0.026855234 0.10419308 -0.055804726 0.22494775 -0.21599287 0.23648253 0.53428626 -0.029980272 -0.08496359 0.0075819828 -0.3554024 0.13826443 0.50482047 -0.23320894 -0.0022590172 -0.15880132 0.4775356 0.022188902 0.1583406 -0.34767285 -0.549528 -0.5289976 0.21711546 -0.19795996 0.053580668 -0.18910837 -0.2783014 -0.18695629 -0.13806076 0.20277521 -0.061230987 -0.15705113 0.38052022 0.3006169 -0.028730473 -0.14769857 0.16990303 0.048645142 0.19095352 -0.11974829 -0.16317649 0.26458582 -0.008418928 -0.20630482 -0.14731376 -0.1034033 -0.12447717 0.23192696 0.104600154 0.15191995 -0.0012907218 -0.33111647 -0.0941503 0.4372362 -0.13141681 -0.33486843 0.056591887 -0.26126295 0.18059337 0.26954278 -0.12320813 0.22609669 -0.14332242 0.039072264 -0.12406304 0.12894742 -0.051932372 -0.0072235204 -0.22559306 -0.36180657 -0.21260928 -0.08811166 -0.13119464 -0.31333733 0.03474371 -0.29225996 0.06057102 -0.15565789 -0.1488526 -0.0931993 0.36987293 0.013516763 0.2378481 0.025096886 -0.16938157 0.14535218 0.27971408 -0.01936924 -0.2113024 0.04462677 -0.0892951 0.11944241 0.07133216 0.0051414995 -0.5033491 -0.049664184 -0.21816826 -0.47949305 0.07742412 -0.1907726 -0.003280157 0.10462922 0.016651101 -0.0067801843 0.21263964 0.29546294 -0.27508223 0.21626651 -0.10707711 0.06574141 0.049080964 -0.3419782 -0.029037112 -0.07532244 0.06694984 -0.0061541675 0.024952047 -0.186977 -0.35103843 -0.44947407 0.022279477 -0.45070237 -0.15218015 -0.32950887 0.0687587
could 0.03248102 -0.23528408 -0.11156921 0.045981336 0.13234848 -0.07024596 0.25432348 -0.25740457 0.2711172 0.6115403 -0.041496 -0.091819055 -0.011939028 -0.4370987 0.18669547 0.60011154 -0.2776524 0.014458947 -0.17612556 0.59129 0.015277726 0.18816876 -0.43512937 -0.67781776 -0.63329864 0.25136557 -0.24896066 0.08473545 -0.22239733 -0.34897524 -0.2004914 -0.14983048 0.2395156 -0.062406406 -0.17305027 0.44546533 0.3665011 -0.036642246 -0.18985838 0.20993555 0.07130485 0.22796221 -0.14738664 -0.19787775 0.32775876 -0.009001889 -0.23409139 -0.1703797 -0.115748115 -0.14292717 0.29576725 0.131564 0.16936494 0.010823812 -0.3861126 -0.09209697 0.53604454 -0.17232165 -0.39339384 0.060697056 -0.30105624 0.20221691 0.33059788 -0.14990106 0.25522056 -0.14370804 0.06883666 -0.12333291 0.16718227 -0.05794447 0.011084165 -0.2932901 -0.42305654 -0.27466998 -0.094044544 -0.14464591 -0.37314707 0.021045461 -0.3587689 0.05500336 -0.19036937 -0.1767424 -0.105769955 0.4302197 0.0014464745 0.28523543 0.027689017 -0.19083875 0.17292286 0.34062436 -0.04079521 -0.26003104 0.038787447 -0.11686444 0.14698777 0.07859493 0.021513615 -0.58383936 -0.053325474 -0.25596747 -0.54764116 0.09541451 -0.22275029 -0.014548548 0.12660094 0.03668794 -0.006782546 0.25002375 0.369661 -0.33403072 0.26548067 -0.121157415 0.079330765 0.057156503 -0.4224002 -0.044167455 -0.09829992 0.05332962 -0.010741323 0.02958259 -0.2345692 -0.41216218 -0.5271712 0.02446123 -0.54695284 -0.14801693 -0.38701695 0.08521475
know 0.028967796 -0.16148625 -0.08613016 0.039086908 0.094724335 -0.04415627 0.18954158 -0.18057649 0.20573926 0.47411218 -0.027123565 -0.0612323 0.012647661 -0.32447028 0.13560194 0.43835938 -0.20042376 0.012535758 -0.135284 0.419853 0.008192464 0.118407965 -0.32405868 -0.48794425 -0.4735148 0.19182728 -0.16986088 0.063908786 -0.18118209 -0.24714355 -0.160631 -0.1106139 0.17093094 -0.029164847 -0.12926887 0.33094338 0.26106682 -0.021849615 -0.1546241 0.15091857 0.03753667 0.18077302 -0.10396114 -0.13033655 0.22597948 -0.020946726 -0.17405297 -0.12033421 -0.10294276 -0.097617365 0.21308385 0.08877735 0.13144009 0.012638098 -0.28317058 -0.069800094 0.39450964 -0.114497565 -0.279139 0.05257164 -0.2411625 0.16419241 0.23551254 -0.12329022 0.18030187 -0.11878384 0.044086896 -0.09556472 0.123912014 -0.018350976 0.0017423581 -0.20563263 -0.316231 -0.19219615 -0.06186004 -0.12215627 -0.27786297 0.021572318 -0.26630524 0.039115287 -0.14281994 -0.13858996 -0.07457086 0.32266867 0.010696334 0.21048832 0.021562846 -0.15194052 0.115834 0.24315068 -0.026330851 -0.17368107 0.02969086 -0.08832759 0.09730417 0.06348495 0.015927155 -0.43624315 -0.038693182 -0.18880099 -0.4133667 0.078061394 -0.15546302 -0.0058598416 0.102992155 0.019602397 -0.011358195 0.20366907 0.2640131 -0.25512174 0.19932048 -0.07884308 0.058933917 0.02599313 -0.29667562 -0.042603277 -0.06539567 0.039062332 -0.0044678454 0.0024520708 -0.16989489 -0.3196205 -0.39588192 0.00881452 -0.40336567 -0.11301514 -0.27910727 0.074202046
good 0.028594492 -0.20179151 -0.088680424 0.0428492 0.11560363 -0.064748526 0.22467607 -0.21836843 0.23011711 0.5357764 -0.029276686 -0.07882396 0.009185859 -0.35538775 0.15349254 0.5031332 -0.2181497 0.00984199 -0.16537641 0.50896704 0.010932335 0.14026763 -0.3669071 -0.57204825 -0.5541446 0.22579727 -0.20793207 0.06196788 -0.18895593 -0.30121574 -0.16461551 -0.14680403 0.19230153 -0.04275875 -0.16343404 0.38925147 0.30353957 -0.027028447 -0.17825775 0.17770912 0.06534506 0.20467043 -0.13363323 -0.1564936 0.28830463 -0.010482115 -0.20162807 -0.12910524 -0.118645415 -0.12649548 0.25457197 0.11085595 0.14560667 0.013757584 -0.33414936 -0.09912482 0.46804333 -0.15329929 -0.33106112 0.048819743 -0.256639 0.17524539 0.26465532 -0.12765563 0.21530849 -0.1276512 0.049303062 -0.11809432 0.12355354 -0.038079955 0.0064779855 -0.24667394 -0.3440625 -0.2366539 -0.08646375 -0.12753771 -0.3239243 0.018712033 -0.30914584 0.054062936 -0.1704219 -0.16304158 -0.101240315 0.3720885 0.007967136 0.24167016 0.032834593 -0.16242696 0.13689211 0.2867576 -0.019173764 -0.22324783 0.043279294 -0.089339435 0.12224063 0.06695386 0.016494878 -0.51096743 -0.0531469 -0.21096781 -0.47325566 0.06699072 -0.18303126 -0.019728608 0.1223029 0.03130844 -0.020324968 0.2138075 0.31320098 -0.28241757 0.21308999 -0.09399095 0.053973813 0.061854314 -0.3607627 -0.028545275 -0.08179341 0.05641305 -0.010540477 0.02317823 -0.20619147 -0.34996313 -0.46862295 0.019131768 -0.46426886 -0.13568051 -0.339096 0.07889776
days 0.028837454 -0.1509927 -0.093354374 0.006077209 0.113602154 -0.067872286 0.19479528 -0.19245072 0.1920279 0.45428282 -0.039264027 -0.055214386 0.013640374 -0.31115913 0.11608592 0.4256908 -0.20396358 -0.012653626 -0.14018811 0.4338759 0.010350927 0.13220946 -0.32064486 -0.5074419 -0.46586627 0.20612615 -0.16828354 0.042894326 -0.1550433 -0.26733777 -0.13711125 -0.12034366 0.17984545 -0.027824111 -0.113405496 0.33028764 0.27117443 -0.010861202 -0.13975593 0.13676777 0.04338728 0.19376282 -0.10532735 -0.1582112 0.23030366 -0.009672691 -0.16385801 -0.1255449 -0.1025821 -0.10369334 0.22677545 0.08586205 0.13583346 0.026033957 -0.29715297 -0.05579091 0.37415168 -0.11551334 -0.2652251 0.039574146 -0.2244877 0.1568747 0.23616014 -0.112088785 0.18130563 -0.11732327 0.047858734 -0.11464393 0.13278992 -0.025616553 0.014024046 -0.21072567 -0.3100821 -0.19963168 -0.08336563 -0.10881851 -0.26334223 0.008557662 -0.2783859 0.04445723 -0.13266791 -0.1261191 -0.08702068 0.33204418 -0.013998097 0.20069997 0.04123268 -0.16749962 0.10457385 0.23072624 -0.019814242 -0.20098206 0.0386487 -0.07809601 0.1079477 0.07132203 0.012985484 -0.43052742 -0.044212196 -0.19248663 -0.4167735 0.06591807 -0.16752051 -0.023990793 0.06781207 0.027732063 0.0006947844 0.18683559 0.25269935 -0.24124777 0.17045449 -0.086327106 0.06525724 0.030504633 -0.31330752 -0.042444307 -0.054648533 0.054938924 -0.025803354 0.03001192 -0.1678894 -0.31386688 -0.37922266 -9.086243e-05 -0.400004 -0.115478024 -0.2669605 0.06818244
eat 0.038916856 -0.19530892 -0.09493978 0.04850647 0.12933534 -0.062437747 0.22272746 -0.2290103 0.25549042 0.55575657 -0.00968546 -0.08462624 0.007305168 -0.38515505 0.16734399 0.4954798 -0.21799631 -0.007682584 -0.14124222 0.49039626 0.019669883 0.1531168 -0.3973621 -0.57133925 -0.55827194 0.21880029 -0.20201938 0.07159446 -0.2049144 -0.30772707 -0.16447555 -0.15044752 0.21708474 -0.052897565 -0.14524738 0.37333494 0.3137408 -0.010247652 -0.17280234 0.16287687 0.05168378 0.21886145 -0.14305162 -0.15628311 0.25962743 -0.017215226 -0.18551801 -0.13650207 -0.11926146 -0.120060146 0.2516891 0.118875444 0.16447395 -0.003128329 -0.3349299 -0.10321285 0.43231577 -0.1332957 -0.34279042 0.07199681 -0.26734418 0.18485172 0.26371524 -0.14768857 0.23758283 -0.14560057 0.06233114 -0.12406316 0.13227822 -0.028157525 0.008218217 -0.25081977 -0.35298187 -0.23545346 -0.092292495 -0.15100849 -0.32851982 0.0145016285 -0.3285138 0.06516488 -0.17301182 -0.16524129 -0.11012326 0.36188808 -0.0077721444 0.24923505 0.024531284 -0.15816247 0.14149919 0.28507394 -0.036875054 -0.19339435 0.048428327 -0.108741194 0.13650286 0.07930737 0.0148683 -0.52164066 -0.047109585 -0.22656624 -0.49080834 0.0710552 -0.19468589 -0.014265491 0.098579735 0.021632867 -0.013051663 0.24442223 0.3138984 -0.2776477 0.21368015 -0.11211522 0.042502247 0.046213064 -0.35651836 -0.027627718 -0.08913971 0.042978466 -0.007417406 0.0072237346 -0.20756282 -0.37991464 -0.4709069 0.018145906 -0.44804236 -0.13388033 -0.327187 0.089073315
much 0.042942043 -0.21144775 -0.10840035 0.050338417 0.11504769 -0.059463702 0.24123888 -0.23348445 0.23456264 0.56747043 -0.019365381 -0.07608559 1.4060983e-05 -0.3758038 0.15864575 0.5551299 -0.25313398 0.011860954 -0.16957602 0.52908576 0.03011625 0.16734102 -0.39436838 -0.6245848 -0.5840295 0.23699245 -0.22203337 0.07749999 -0.20457952 -0.3106418 -0.1842738 -0.15163088 0.21670146 -0.05228207 -0.15250285 0.4099454 0.32778457 -0.029194338 -0.18234947 0.20540269 0.06667571 0.22257131 -0.12284258 -0.18537498 0.30295625 -0.021076117 -0.22782512 -0.14847083 -0.12132239 -0.124609195 0.25926936 0.10592804 0.17857006 0.01274976 -0.35370314 -0.0766295 0.47292557 -0.16372703 -0.35246935 0.06961714 -0.289647 0.19863462 0.28760156 -0.13145214 0.22127968 -0.15918659 0.06205397 -0.1298486 0.14559802 -0.029094607 0.013387286 -0.2665616 -0.37966403 -0.25197667 -0.07863401 -0.13948552 -0.33777627 0.031548806 -0.33637962 0.046046555 -0.16856952 -0.17278315 -0.1069215 0.40528873 0.0128421215 0.26737228 0.03337865 -0.18547726 0.14518246 0.30549848 -0.018047094 -0.21776393 0.048454847 -0.09248523 0.14323224 0.08598555 0.022459619 -0.54649013 -0.04969728 -0.24760342 -0.50734204 0.07437122 -0.21031435 -0.017727887 0.12776501 0.029213198 -0.00967599 0.22592393 0.3145351 -0.30305648 0.23843476 -0.115450814 0.06673784 0.044618476 -0.36356217 -0.039444074 -0.09369802 0.04320281 -0.026911516 0.012707946 -0.20321861 -0.38324565 -0.49153432 0.011512859 -0.4936128 -0.13335542 -0.35322186 0.069658995
would 0.034254402 -0.22424354 -0.10451585 0.036334887 0.13142145 -0.06412919 0.25432375 -0.24793957 0.25745457 0.5825371 -0.028723905 -0.087962195 -0.00570941 -0.4056695 0.17698516 0.5780698 -0.25765762 0.0026244847 -0.16905501 0.56259525 0.020957224 0.18292361 -0.41758057 -0.64788693 -0.6102853 0.25088385 -0.22081554 0.091141604 -0.21844767 -0.33716312 -0.18415359 -0.16206345 0.23925027 -0.047359444 -0.16062078 0.4345726 0.34731844 -0.035558574 -0.19653739 0.20993172 0.0715703 0.23300943 -0.14203559 -0.20489593 0.32664013 -0.01264466 -0.23926136 -0.16474174 -0.1248103 -0.13635552 0.27967092 0.12219639 0.17908353 0.0013323093 -0.3715788 -0.096645005 0.5132641 -0.17019059 -0.38620886 0.057912882 -0.30889258 0.20200858 0.30295065 -0.14066403 0.2581421 -0.14404686 0.048316512 -0.13650098 0.15865058 -0.03584459 0.015138251 -0.27545768 -0.4071095 -0.26673707 -0.100584745 -0.14135526 -0.35492572 0.032698616 -0.3547746 0.07014659 -0.18383065 -0.16611093 -0.109796986 0.41450202 0.019109806 0.2649099 0.024694145 -0.1886234 0.146194 0.32335967 -0.020979628 -0.2525134 0.05039366 -0.106206894 0.14654887 0.08378902 0.016777586 -0.5733404 -0.0473788 -0.26073024 -0.52679724 0.0799894 -0.22299983 -0.014427329 0.13014813 0.019329563 -0.008388508 0.24018286 0.3505885 -0.33173627 0.24142952 -0.11069459 0.075997286 0.05684635 -0.40059578 -0.05346374 -0.099529415 0.04953673 -0.019884404 0.017481463 -0.22921665 -0.4121368 -0.52382374 0.019752106 -0.517734 -0.13678205 -0.3696605 0.09215774
year 0.031924337 -0.20752978 -0.12287322 0.041142695 0.11757275 -0.0643751 0.26386982 -0.24803722 0.2563983 0.6043876 -0.044469148 -0.08134595 -0.0056768027 -0.42304063 0.1794515 0.57715046 -0.26836157 -0.01258075 -0.17433205 0.5743261 0.02239535 0.15554287 -0.42007184 -0.6613536 -0.6184186 0.25950643 -0.22238727 0.06626073 -0.22795372 -0.3322532 -0.18472053 -0.1541779 0.2234068 -0.05842132 -0.1828227 0.44106564 0.34355357 -0.034845322 -0.19355816 0.19416022 0.060885344 0.23475035 -0.14953244 -0.1752836 0.32257095 -0.020883031 -0.21568961 -0.14816383 -0.13652548 -0.13729653 0.29428002 0.1200488 0.16415776 0.016470946 -0.36689642 -0.10593501 0.51849514 -0.18007419 -0.3771415 0.06207618 -0.2929791 0.21866685 0.32434395 -0.15260434 0.23203726 -0.16127045 0.04317486 -0.121623576 0.14156076 -0.052418977 0.0054465146 -0.2632321 -0.39917082 -0.2571498 -0.09794155 -0.14107515 -0.35796607 0.02477349 -0.33666083 0.055924967 -0.16803738 -0.17073733 -0.12185634 0.4182789 -0.007162448 0.2629854 0.027889129 -0.19228233 0.16321805 0.30946413 -0.026522351 -0.24524446 0.037270688 -0.1036581 0.12376327 0.07408363 0.004383381 -0.5841729 -0.05862575 -0.24094188 -0.5430691 0.07478617 -0.20234427 -0.020081498 0.10239353 0.038953193 -0.0048630508 0.23951298 0.34782538 -0.33099264 0.25126538 -0.118792266 0.066875555 0.05522096 -0.38118312 -0.042908147 -0.08303874 0.04367418 -0.01275223 0.03162176 -0.22049806 -0.41373625 -0.5250578 0.015330242 -0.5298305 -0.16311343 -0.37382397 0.07132737
shit 0.040850036 -0.20220505 -0.097932324 0.03835505 0.12948388 -0.07274569 0.24996996 -0.21903941 0.24892364 0.5508833 -0.018940004 -0.082922414 -0.008466097 -0.3769455 0.15610717 0.53950614 -0.24231116 -0.0053204414 -0.1716738 0.53496516 0.025325013 0.16904287 -0.3846382 -0.60840845 -0.5754877 0.24320847 -0.2050604 0.070241034 -0.21658203 -0.29164732 -0.18333325 -0.14153732 0.2222651 -0.06658085 -0.17773707 0.4061843 0.31979075 -0.03493798 -0.17160143 0.16903959 0.060657825 0.20368592 -0.11992158 -0.16978396 0.28081518 -0.012203268 -0.20649086 -0.1606707 -0.10126192 -0.14447697 0.25399882 0.10869898 0.16827716 -0.00041863765 -0.35336182 -0.094961315 0.46611646 -0.1508989 -0.3588166 0.048136342 -0.263806 0.20322175 0.27583835 -0.12736718 0.22786596 -0.14932902 0.04399291 -0.13745174 0.13632289 -0.029469192 0.0034381433 -0.25274348 -0.38973266 -0.22945951 -0.0765289 -0.12670915 -0.32927725 0.012409544 -0.31193203 0.046958722 -0.17542125 -0.17127371 -0.097897485 0.37930754 0.018508222 0.24448963 0.017146626 -0.16383031 0.13607788 0.29554906 -0.01835061 -0.23221776 0.03996843 -0.11434368 0.119005814 0.086299315 0.012122101 -0.545287 -0.050024845 -0.2338592 -0.5146276 0.07268444 -0.20739478 -0.0026186332 0.12161381 0.018730832 -0.018464787 0.22443302 0.32516608 -0.3030965 0.23084393 -0.092173554 0.06020189 0.04974738 -0.37372592 -0.043675907 -0.08352098 0.045853246 -0.0049792402 0.009118817 -0.2140437 -0.36717856 -0.4803084 0.0005513589 -0.4946886 -0.15867464 -0.33374313 0.075431295
get 0.04230823 -0.19990759 -0.09934199 0.042667367 0.12190324 -0.06761907 0.23990807 -0.21328625 0.24442932 0.5547118 -0.033165902 -0.081903525 5.7213016e-05 -0.36968595 0.16795939 0.52389824 -0.22828993 -0.0070543215 -0.17064989 0.5241884 0.011701889 0.15421127 -0.36825234 -0.60039043 -0.55731404 0.23320918 -0.21704924 0.06898547 -0.1954479 -0.29740405 -0.18438166 -0.1504263 0.21757604 -0.038707413 -0.16673224 0.39179492 0.3216486 -0.04288887 -0.16577382 0.18409286 0.04666032 0.20573722 -0.13452014 -0.1632383 0.28664383 -0.009728802 -0.21487397 -0.13760333 -0.111654356 -0.116654076 0.25984883 0.11509091 0.15578926 0.005025035 -0.3413314 -0.0769782 0.46603656 -0.1450586 -0.3333544 0.063385986 -0.2849552 0.19303575 0.27786493 -0.123707995 0.23214863 -0.1385851 0.047772195 -0.12761903 0.1367677 -0.04015163 -0.009342011 -0.24228996 -0.36476532 -0.23595154 -0.09641477 -0.12446257 -0.31579483 0.006346542 -0.32275078 0.061122134 -0.17117462 -0.15623853 -0.1111386 0.387943 0.0011336628 0.24847314 0.018999266 -0.1752826 0.13692592 0.2956996 -0.021677759 -0.20784235 0.051113088 -0.08712018 0.13238618 0.070637316 0.022526516 -0.53573805 -0.04640204 -0.21802817 -0.5021687 0.08508838 -0.18824032 -0.003355902 0.11611595 0.034284014 -0.020880543 0.23428498 0.31611338 -0.29434967 0.23671202 -0.101013675 0.067528926 0.052638035 -0.3602015 -0.035157625 -0.08473674 0.055102248 -0.01275606 0.0050671287 -0.21140157 -0.3629416 -0.46946067 0.01966564 -0.4762232 -0.14836267 -0.33955687 0.079493344
feeling 0.023622947 -0.19200942 -0.10584379 0.01934222 0.12123945 -0.08150906 0.24433577 -0.23917043 0.2423783 0.5652588 -0.042793687 -0.06852242 0.014248426 -0.39447176 0.1623025 0.54344034 -0.255922 -0.015950399 -0.17913666 0.54886985 0.021245351 0.15742964 -0.38175765 -0.6304528 -0.57964015 0.25928533 -0.21840502 0.06633566 -0.20764557 -0.3302577 -0.17467207 -0.15253711 0.23408882 -0.050436795 -0.1570854 0.4115144 0.32304463 -0.035919163 -0.1773208 0.1728519 0.06276189 0.21786205 -0.13595185 -0.1669546 0.2998979 -0.006256485 -0.2215718 -0.14085343 -0.12558316 -0.12152095 0.27354875 0.10826357 0.16147518 0.021432396 -0.37066 -0.09241599 0.48615256 -0.15821645 -0.3476246 0.04944838 -0.29374343 0.19502985 0.29691935 -0.13595627 0.23271595 -0.15860273 0.043861393 -0.12631367 0.15223998 -0.027129652 0.0033119223 -0.25463536 -0.37164006 -0.2396598 -0.09888077 -0.124906205 -0.33411106 0.009100022 -0.34236088 0.058648996 -0.18120775 -0.15889813 -0.104400925 0.40140748 -0.008307988 0.2572886 0.04330495 -0.20098586 0.15270996 0.30498633 -0.017812062 -0.22854753 0.05283582 -0.09483624 0.13058238 0.08331312 0.0036733707 -0.5526296 -0.06123837 -0.24743904 -0.51699024 0.08438185 -0.19139628 -0.021461764 0.102289505 0.017828802 -0.0072998228 0.24173285 0.33807147 -0.3096666 0.22339126 -0.11116066 0.062325135 0.04002966 -0.37521955 -0.033013284 -0.087943956 0.06469389 -0.012862759 0.03364609 -0.21455878 -0.3858364 -0.48640242 0.017433992 -0.5147421 -0.15105768 -0.35922334 0.08550765
since 0.020676855 -0.16411991 -0.07567309 0.029289052 0.09399193 -0.044854585 0.19515578 -0.17443013 0.18209201 0.4426464 -0.0278107 -0.04944837 0.0068629766 -0.3057524 0.116166204 0.41476953 -0.1781664 0.010157202 -0.12487579 0.41138047 0.0052132388 0.11612739 -0.30787283 -0.47642654 -0.45162916 0.18781756 -0.17854053 0.06575847 -0.16890329 -0.23946662 -0.14903085 -0.10641332 0.17972155 -0.03543545 -0.12813345 0.31696707 0.2654089 -0.024061514 -0.14360783 0.13638233 0.044248678 0.1714945 -0.10320994 -0.13973661 0.22301365 -0.015217947 -0.15362316 -0.12404919 -0.08724315 -0.09448992 0.20872639 0.09566 0.13523524 0.0020447706 -0.2738644 -0.07879167 0.37276974 -0.11919557 -0.25955415 0.040265024 -0.22242665 0.14702606 0.23713969 -0.10266 0.1860467 -0.10638642 0.050480746 -0.094226785 0.11876601 -0.041732088 -0.0021792776 -0.19608344 -0.2987649 -0.18691282 -0.084075786 -0.09861415 -0.26574937 0.00893849 -0.2504601 0.04790602 -0.1264805 -0.12044083 -0.0897559 0.30317333 0.0040659476 0.19942951 0.015689153 -0.14854762 0.122565016 0.22394213 -0.022907201 -0.1648152 0.03082637 -0.08161713 0.092677094 0.050016638 0.01847188 -0.41483307 -0.03789078 -0.1885861 -0.4077801 0.06953936 -0.15697514 -0.01690625 0.094880044 0.031661406 -0.019672683 0.17794286 0.25788423 -0.22583848 0.18761405 -0.091786325 0.040548895 0.036336374 -0.2809114 -0.039882742 -0.06935747 0.036510475 -0.005367409 0.018721964 -0.17084093 -0.30478582 -0.38878465 0.0048685824 -0.3870351 -0.108085565 -0.26214197 0.064215
love 0.03359468 -0.14158879 -0.08202734 0.03326697 0.0885203 -0.036546327 0.16599376 -0.1655035 0.1731241 0.38905513 -0.030082714 -0.05009281 -0.0020114358 -0.27972546 0.11472625 0.40002233 -0.17327823 0.019513782 -0.12518261 0.3835283 0.02110946 0.1118654 -0.27742663 -0.45414597 -0.40424523 0.16789828 -0.15653539 0.060865212 -0.1540423 -0.2159587 -0.11539246 -0.09982577 0.164234 -0.036210362 -0.1042804 0.2873481 0.22746654 -0.032972503 -0.13301946 0.13106048 0.044679143 0.15717687 -0.09245648 -0.14569321 0.22385405 -0.006734931 -0.17286937 -0.11057088 -0.090454444 -0.085280284 0.19398414 0.09424875 0.12696686 0.006068663 -0.26467097 -0.064742066 0.36289167 -0.11372726 -0.2525082 0.04036912 -0.21337049 0.14326353 0.19298454 -0.08405717 0.15663122 -0.094658725 0.03914956 -0.088100575 0.105959944 -0.0270284 0.00602658 -0.18333772 -0.2783684 -0.17276357 -0.064693496 -0.104423456 -0.24410483 0.025241347 -0.23775059 0.036494162 -0.120141275 -0.12590724 -0.06620193 0.29211184 0.017365212 0.18456902 0.024423564 -0.121885106 0.11184448 0.21732813 -0.012031642 -0.1745751 0.03217678 -0.07722298 0.09321698 0.052033782 0.019121673 -0.39095658 -0.038708188 -0.18531752 -0.35719445 0.06451339 -0.15399836 0.0009201599 0.09023435 0.009724913 -0.01637735 0.16189793 0.21729621 -0.21032508 0.17446539 -0.06836174 0.045167744 0.031918332 -0.26738697 -0.04849638 -0.057600923 0.03465058 -0.008535034 -0.003179934 -0.14634676 -0.2824077 -0.3432745 0.001107678 -0.36054918 -0.09279832 -0.2602314 0.061715215
times 0.028488876 -0.19161288 -0.108180374 0.03321419 0.12326736 -0.07100388 0.22443616 -0.2173313 0.23527198 0.5529906 -0.017973786 -0.08029252 0.014238983 -0.38304982 0.16896968 0.50557715 -0.21691166 0.004376855 -0.15963644 0.49748054 0.013909666 0.16305774 -0.3785848 -0.5758347 -0.5433641 0.22874467 -0.1980758 0.06258461 -0.20082209 -0.307121 -0.17800692 -0.14672042 0.22254914 -0.0452576 -0.17410453 0.39820075 0.32910392 -0.017446764 -0.16423689 0.16467814 0.054030914 0.19740108 -0.13111737 -0.17229597 0.28146335 -0.009115695 -0.18679352 -0.14139292 -0.106194496 -0.10661222 0.2500328 0.116806574 0.16655211 0.020701027 -0.32825673 -0.086655915 0.45521218 -0.14529073 -0.33898044 0.071255594 -0.26742586 0.19398774 0.27971774 -0.14728464 0.23673168 -0.13064227 0.04744219 -0.12003979 0.1285911 -0.045213573 0.008530472 -0.24228756 -0.35564482 -0.22840431 -0.0916143 -0.13818671 -0.3221916 0.024027353 -0.31330353 0.06631253 -0.16690132 -0.15856045 -0.1041126 0.38298073 -0.0037121738 0.25540555 0.033310898 -0.18199861 0.14027102 0.27853274 -0.03222438 -0.21336834 0.056986533 -0.09781644 0.120757304 0.08498063 0.014717551 -0.52672774 -0.048314534 -0.2331974 -0.49875674 0.057311673 -0.18443154 -0.015921567 0.09819673 0.011192773 -0.015255216 0.22618155 0.3117895 -0.28405467 0.21777076 -0.09948825 0.065242074 0.06611088 -0.36977634 -0.046006024 -0.096491575 0.04960991 -0.022444783 0.018625475 -0.21397495 -0.3792136 -0.45960167 0.006707867 -0.46276656 -0.14357206 -0.31710938 0.095296696
body 0.024821885 -0.1815956 -0.108988315 0.036923442 0.1131133 -0.052483078 0.23132776 -0.21328256 0.21442205 0.5141056 -0.02965172 -0.079379305 0.00030525806 -0.36733583 0.16171168 0.49576798 -0.22995864 0.0035435008 -0.1558567 0.496891 0.02268866 0.14840518 -0.35815862 -0.57150686 -0.5371036 0.21513595 -0.19059144 0.07581598 -0.19251183 -0.28221118 -0.17247333 -0.12514898 0.19924386 -0.0415547 -0.14149097 0.3696881 0.2951231 -0.039417733 -0.16875555 0.17841388 0.05656347 0.1997306 -0.11522114 -0.16682799 0.2796103 -0.014750938 -0.20020176 -0.13869165 -0.10724983 -0.123989515 0.2373498 0.10972595 0.15791832 0.009169088 -0.3337016 -0.07062576 0.43719542 -0.14515921 -0.32965973 0.059515495 -0.2666119 0.17600864 0.25822768 -0.11990755 0.21511754 -0.14477213 0.0456431 -0.12030582 0.14267737 -0.027330529 -0.001728586 -0.23997772 -0.35101092 -0.2346292 -0.07423347 -0.11817446 -0.31208852 0.0125535475 -0.30550072 0.042875793 -0.16596827 -0.15637113 -0.0921095 0.3596382 0.009127205 0.24470307 0.027015314 -0.1588725 0.13396345 0.27371863 -0.017299626 -0.20309132 0.03356549 -0.108703144 0.1123157 0.08114316 0.01920342 -0.49849302 -0.04128196 -0.22950523 -0.4769556 0.06675241 -0.18730897 -0.010590343 0.107132345 0.031538315 -0.0124305375 0.21790166 0.2880541 -0.2820261 0.22668542 -0.09013952 0.056870274 0.04141879 -0.3417293 -0.04986711 -0.07409291 0.053269863 -0.01285112 0.022930237 -0.18861017 -0.34009686 -0.43749672 -0.000914517 -0.4666192 -0.123566374 -0.3207279 0.07731736
make 0.037240196 -0.19076462 -0.09020557 0.032375824 0.119463995 -0.06277573 0.2247122 -0.21001992 0.23104051 0.54921496 -0.022301162 -0.07193513 0.009541784 -0.3537588 0.15246552 0.5191156 -0.23483223 0.009156156 -0.15652874 0.5037067 0.02122578 0.15289995 -0.36161113 -0.5718877 -0.5412433 0.23203601 -0.19910304 0.07197773 -0.19519757 -0.29979834 -0.16346796 -0.13509814 0.19761138 -0.05655426 -0.16367896 0.37390992 0.3061568 -0.026808137 -0.16718195 0.17593022 0.05354912 0.21303739 -0.1331962 -0.15212107 0.27401346 -0.011219904 -0.21065186 -0.13611059 -0.11169013 -0.12402092 0.2447151 0.11218441 0.15994954 0.016464949 -0.3225945 -0.09692116 0.45973128 -0.14987637 -0.34140578 0.05913716 -0.26449516 0.16933836 0.2802945 -0.13540314 0.21358575 -0.14195669 0.043205325 -0.123494506 0.119220756 -0.027053585 0.0067088893 -0.23748432 -0.36190116 -0.23084438 -0.07932981 -0.13759524 -0.3203747 0.02024022 -0.3065473 0.050593674 -0.15361518 -0.15853643 -0.10639765 0.36647823 0.011041216 0.24476117 0.032494884 -0.17511012 0.13338219 0.28755924 -0.029022837 -0.21340998 0.048787788 -0.098804355 0.12704156 0.06132278 0.023723166 -0.51641786 -0.04322212 -0.21306051 -0.49211416 0.06810087 -0.18387619 -0.017410686 0.099761605 0.023679879 -0.016561532 0.22763768 0.29959562 -0.29190424 0.22088125 -0.10118908 0.07193439 0.04089145 -0.33614582 -0.0325125 -0.07896979 0.054161463 -0.01803471 0.026397627 -0.19071205 -0.35318232 -0.45963043 0.010351568 -0.4603741 -0.13758308 -0.32861766 0.066536956
stop 0.024030188 -0.16676039 -0.08426165 0.04290697 0.10272894 -0.04498832 0.19274442 -0.18344532 0.20379812 0.47520638 -0.02683374 -0.07522081 0.0024443236 -0.32957304 0.1464795 0.4435755 -0.19785395 0.008124546 -0.12268093 0.42364943 0.025340585 0.13285062 -0.32562992 -0.49632007 -0.48417127 0.19897623 -0.1817163 0.048283678 -0.17486656 -0.25934008 -0.14391604 -0.12673809 0.18237045 -0.04142166 -0.13452947 0.3303681 0.28012997 -0.015895346 -0.15669324 0.15419835 0.035949953 0.1747384 -0.108257316 -0.13662675 0.22733638 -0.013454395 -0.16525877 -0.12746695 -0.105828166 -0.11093881 0.20609558 0.09960432 0.14446476 0.005927063 -0.2869596 -0.079516746 0.38522178 -0.1261664 -0.29087576 0.054832626 -0.22589447 0.1590881 0.24509539 -0.11567663 0.1868373 -0.11333818 0.057658523 -0.11252383 0.12319179 -0.036097858 0.0017480729 -0.20525576 -0.3137782 -0.21261464 -0.07970852 -0.12768434 -0.28261083 0.027501782 -0.27081156 0.035637144 -0.13794112 -0.12778907 -0.08033945 0.3273653 -0.004481749 0.2019569 0.023930104 -0.14143507 0.12671362 0.23742892 -0.020720053 -0.17030084 0.021526465 -0.07748737 0.11035476 0.05769583 0.017588513 -0.45384654 -0.04843476 -0.18806213 -0.4184622 0.07844351 -0.1744164 -0.016579943 0.09970806 0.02696675 -0.005253334 0.20583047 0.26914993 -0.25212684 0.20065577 -0.09586357 0.047141664 0.027673619 -0.29583097 -0.034794126 -0.067762695 0.04174182 -0.008376404 0.006107324 -0.17666382 -0.32125467 -0.3969712 0.018607343 -0.4070964 -0.11214493 -0.2883806 0.08099903
one 0.03778627 -0.14153916 -0.06751748 0.03613219 0.087440304 -0.03013435 0.15761678 -0.15256298 0.16658044 0.37981343 -0.016004534 -0.04144627 -0.0044776136 -0.26832542 0.12158927 0.3692982 -0.165965 0.027852433 -0.10728731 0.36205098 0.007774851 0.121924095 -0.2709567 -0.44207633 -0.39846477 0.14903495 -0.14544381 0.060280282 -0.15058881 -0.22283164 -0.10845586 -0.08992351 0.1517927 -0.027640142 -0.09437649 0.27793035 0.23739682 -0.022908682 -0.13527083 0.121500455 0.043028135 0.15985473 -0.091145195 -0.14174436 0.21106184 -0.011515677 -0.16130383 -0.09159076 -0.07162145 -0.0870681 0.19020757 0.084558174 0.10412865 0.0090738395 -0.23525625 -0.054648153 0.34204572 -0.112521835 -0.24152598 0.02986751 -0.18757975 0.13737695 0.1943789 -0.09265933 0.16279891 -0.091632664 0.04054955 -0.06683958 0.11075348 -0.029922994 0.0006388573 -0.18475644 -0.27594143 -0.1792866 -0.057078026 -0.08632303 -0.22669093 0.013735328 -0.22286002 0.036927145 -0.119269185 -0.10234456 -0.05541659 0.27360526 0.0012778088 0.18393564 0.033379942 -0.11147109 0.10047453 0.22212234 -0.0029324358 -0.17558259 0.045872398 -0.071005896 0.08196353 0.05570194 0.027430363 -0.3729384 -0.024296243 -0.17687772 -0.35645047 0.0661504 -0.14887348 -0.0014193831 0.09381735 0.030055791 -0.0009876796 0.14664531 0.21905474 -0.21779834 0.15894867 -0.060028605 0.039783485 0.041973595 -0.26884946 -0.045518983 -0.04700152 0.045659065 0.0027307433 0.009868454 -0.14347062 -0.26252392 -0.34730312 0.0166979 -0.34331375 -0.08038712 -0.2496317 0.06026568
got 0.036900047 -0.15423289 -0.09157346 0.03169255 0.09261894 -0.04743109 0.19232857 -0.18412277 0.19925024 0.44699064 -0.024719806 -0.068948224 -0.0064465716 -0.30061013 0.13362934 0.4304 -0.19771194 0.008949303 -0.1330693 0.42642346 0.021795457 0.12846126 -0.30516466 -0.47362393 -0.4633533 0.19566716 -0.17574398 0.04883785 -0.16812581 -0.23535521 -0.15593022 -0.112765454 0.17815751 -0.037598815 -0.1303998 0.3188384 0.2660923 -0.013676916 -0.13462065 0.14504027 0.033552296 0.17276488 -0.09854223 -0.14544804 0.21799734 -0.017358867 -0.17042215 -0.12505494 -0.09364431 -0.107860565 0.21867825 0.07813896 0.13963106 0.018521251 -0.28258476 -0.061505545 0.38528836 -0.12278106 -0.28380045 0.039941743 -0.22810772 0.14766464 0.22571903 -0.121513665 0.18287201 -0.115050785 0.050602797 -0.10646473 0.10886551 -0.026339913 -0.00050690153 -0.19275899 -0.30190304 -0.18782155 -0.07733459 -0.09974922 -0.26729804 0.026294814 -0.266001 0.04363362 -0.13479282 -0.12697612 -0.08527668 0.30168837 0.0013865613 0.18878998 0.027535405 -0.14077717 0.11356149 0.24436927 -0.025383897 -0.18170239 0.02047097 -0.09165255 0.10764057 0.05698151 0.0070650624 -0.42446467 -0.029336598 -0.19184396 -0.40201572 0.057588335 -0.16116337 -0.017613601 0.08176084 0.023971997 -0.0016989046 0.19112135 0.23989749 -0.24548034 0.18937218 -0.08338169 0.048267335 0.039413568 -0.28409126 -0.035133414 -0.0776821 0.04359942 -0.0045218864 0.022896081 -0.15890189 -0.31134295 -0.38087463 0.012145644 -0.38134393 -0.11653026 -0.28047648 0.06420149
without 0.038515527 -0.21575223 -0.09957844 0.032554135 0.12939794 -0.0751414 0.2663406 -0.24354887 0.26045892 0.5914394 -0.02106953 -0.0924501 -0.0027479155 -0.40999562 0.18025848 0.5529965 -0.2428729 0.0055475812 -0.16783893 0.5436021 0.020803316 0.16764745 -0.4192906 -0.622405 -0.5969331 0.24667121 -0.22636206 0.07786026 -0.21289279 -0.3161375 -0.19192599 -0.14206608 0.2346121 -0.045073465 -0.16394141 0.42257568 0.344958 -0.044030134 -0.18192744 0.19512142 0.061692942 0.23366225 -0.15166971 -0.18402426 0.29061317 -0.016896738 -0.22569375 -0.15344442 -0.12448628 -0.1284712 0.2929557 0.10874083 0.16906661 0.004702465 -0.3702294 -0.097345024 0.48609734 -0.14786589 -0.3733264 0.06864781 -0.2961022 0.1972286 0.30014807 -0.15303174 0.23828357 -0.15933828 0.04180343 -0.13525596 0.13934185 -0.04337268 0.0011103475 -0.27564022 -0.39881676 -0.25416812 -0.09572458 -0.1547959 -0.34805194 0.008047961 -0.35612157 0.05007267 -0.1734422 -0.17738855 -0.109418504 0.41495976 0.011330745 0.26232243 0.03627329 -0.19883756 0.15415019 0.31524438 -0.035999075 -0.22586577 0.04710665 -0.10258843 0.14551036 0.07089013 0.017745433 -0.5703663 -0.057895552 -0.25155923 -0.5269204 0.07208255 -0.2115594 -0.015979812 0.12438359 0.020543901 -0.020042298 0.24658746 0.346818 -0.32234696 0.24506961 -0.1153852 0.067002244 0.04926411 -0.3935829 -0.043558914 -0.09022489 0.05866025 -0.023551635 0.018656611 -0.21875353 -0.40203908 -0.49981993 0.027865456 -0.5103563 -0.1477281 -0.35242105 0.084298335
vomit 0.017686578 -0.18916126 -0.10336031 0.023193572 0.12956989 -0.06769956 0.2404279 -0.22377136 0.2607496 0.5671984 -0.02280686 -0.07398571 0.008415296 -0.3921402 0.16600928 0.54587376 -0.24190964 -0.005157311 -0.16599338 0.5516502 0.010475582 0.16232593 -0.4110458 -0.5995753 -0.5637308 0.23445278 -0.2287302 0.07927388 -0.19700599 -0.30753112 -0.19307342 -0.1645759 0.21886152 -0.03739317 -0.18510872 0.41165274 0.35554427 -0.030598642 -0.1726408 0.18570535 0.059384722 0.2130794 -0.14958154 -0.16673437 0.29637203 -0.023154203 -0.20631158 -0.14028072 -0.122930266 -0.1487377 0.25960743 0.1307826 0.17368145 0.002753961 -0.34678125 -0.092293926 0.48677757 -0.15346749 -0.3635251 0.053846736 -0.28743887 0.21117626 0.27462536 -0.12882923 0.23659961 -0.13658208 0.03625901 -0.13732089 0.14529406 -0.02727194 0.01367844 -0.2595403 -0.3638606 -0.23760231 -0.075906046 -0.14205752 -0.33286706 0.0077967728 -0.33071 0.055844985 -0.15184556 -0.15197903 -0.08263341 0.4176804 0.0012325612 0.25024033 0.0135100745 -0.20544769 0.15618475 0.2819664 -0.025509607 -0.20596209 0.031025236 -0.09558699 0.109763466 0.06909888 0.025134565 -0.53380835 -0.03451893 -0.21665648 -0.5280291 0.09078011 -0.17839079 -0.032002117 0.114429794 0.032171734 -0.017577006 0.21208061 0.343648 -0.32729748 0.23492907 -0.12792987 0.04994276 0.04140409 -0.37945572 -0.071398795 -0.10920875 0.04216494 -0.030549994 0.029377276 -0.21798778 -0.37600076 -0.5019974 0.005969487 -0.49852404 -0.16190816 -0.3604693 0.106921345
thought 0.022177234 -0.16458641 -0.08127217 0.021899438 0.100454025 -0.05752776 0.20129696 -0.1896083 0.20739459 0.48429886 -0.028219715 -0.06190771 0.0014951626 -0.3312079 0.13411789 0.45283756 -0.19730222 -0.004127185 -0.14929734 0.46175388 0.011196648 0.12156617 -0.33508426 -0.508488 -0.48860782 0.21149965 -0.1811417 0.06517599 -0.18292221 -0.26947176 -0.156986 -0.13528469 0.1878722 -0.043464035 -0.13774651 0.3515991 0.2837611 -0.026394486 -0.16093579 0.16163851 0.039637424 0.18015629 -0.116664976 -0.14122598 0.24423733 -0.018838448 -0.18153282 -0.113943726 -0.09956998 -0.10758258 0.23498076 0.096804984 0.1338273 0.01817708 -0.29161847 -0.072814666 0.42576784 -0.121782005 -0.29648292 0.05333808 -0.24600808 0.16804779 0.24646279 -0.12892707 0.19561303 -0.11340246 0.051232904 -0.098047845 0.11415744 -0.029391019 0.012156775 -0.22173189 -0.31845114 -0.2001626 -0.07148099 -0.11548893 -0.2853925 0.022438632 -0.2810373 0.03835618 -0.13914123 -0.13326852 -0.08513263 0.33152032 -0.006481618 0.21192037 0.020693246 -0.15432712 0.11900069 0.2558666 -0.0172876 -0.19760408 0.0362349 -0.07823413 0.096122056 0.06285578 0.007172052 -0.45329034 -0.048239164 -0.1938467 -0.4375514 0.061922792 -0.1739643 -0.0118414 0.09572316 0.028148443 -0.0013563526 0.19669022 0.27002904 -0.26825628 0.20211035 -0.097192004 0.051537942 0.043927662 -0.32317933 -0.044451796 -0.07566896 0.04821517 -0.019979661 0.011087913 -0.18322805 -0.32328835 -0.4246198 0.014655978 -0.4223166 -0.11417854 -0.29299757 0.07865726
day 0.033627655 -0.18988605 -0.10032575 0.036643434 0.12819803 -0.074314214 0.21003944 -0.20796743 0.21961327 0.53610146 -0.025142489 -0.089467876 -0.0008253871 -0.35837197 0.15868525 0.48796424 -0.2269966 -0.0022113915 -0.15262613 0.48593464 0.012530479 0.1564249 -0.36212844 -0.5551988 -0.52640283 0.2323719 -0.1908353 0.055211738 -0.17441653 -0.29492894 -0.17795172 -0.13369565 0.21148984 -0.043428015 -0.16784593 0.37193674 0.31201348 -0.027841724 -0.16876148 0.17689595 0.06629427 0.1943333 -0.11207017 -0.176709 0.28001583 -0.0033892854 -0.17939539 -0.12595646 -0.11497952 -0.10207167 0.25762305 0.10876023 0.15920198 0.0042083124 -0.33145294 -0.08580577 0.43401182 -0.13115408 -0.31653363 0.0631571 -0.25474536 0.19270056 0.25917864 -0.14066905 0.22473188 -0.12708974 0.039206445 -0.114371404 0.12145691 -0.047030453 -0.0031692164 -0.23642278 -0.34807733 -0.21381599 -0.09205869 -0.14070609 -0.29411954 0.019865723 -0.30251503 0.061927065 -0.16637395 -0.1494256 -0.083307415 0.3615621 0.0033317297 0.23984835 0.028373959 -0.17242682 0.14515388 0.268798 -0.021231819 -0.21184726 0.05769315 -0.08687136 0.11527121 0.067084424 0.025671644 -0.5163849 -0.040138397 -0.22273697 -0.46209192 0.06199242 -0.1958334 -0.029627157 0.106225625 0.027520053 -0.01348559 0.22420548 0.31082687 -0.27352712 0.20253722 -0.1049767 0.06477695 0.061981548 -0.34269893 -0.033643436 -0.081214845 0.048341434 -0.024734695 0.0068515106 -0.199156 -0.36591634 -0.44619393 0.01898453 -0.44240567 -0.12166779 -0.3174084 0.08514234
sub 0.020814564 -0.1837163 -0.09168652 0.033880528 0.113010064 -0.0701969 0.20598978 -0.19558083 0.22209495 0.50363904 -0.01489525 -0.07871661 0.0034269192 -0.35298973 0.14372015 0.48921657 -0.2140276 0.01194414 -0.15524672 0.47583762 0.016887495 0.14702874 -0.3358488 -0.5380807 -0.5162502 0.21501975 -0.19995575 0.06058121 -0.1920185 -0.28452265 -0.16435792 -0.13148095 0.19643757 -0.048235048 -0.1544736 0.3647166 0.29363328 -0.036418457 -0.15417793 0.15824243 0.041943632 0.19594973 -0.1230734 -0.15143512 0.263829 -0.0010783131 -0.1921833 -0.14431696 -0.10769037 -0.11810391 0.23322463 0.095324576 0.14108752 0.010611349 -0.3046037 -0.0881881 0.44043916 -0.12587284 -0.30898458 0.03608006 -0.24129018 0.16044196 0.26458383 -0.12216547 0.21207127 -0.12712659 0.037155528 -0.102490515 0.13420573 -0.033292424 -0.0060027875 -0.21589369 -0.33687413 -0.20216885 -0.08104704 -0.12659581 -0.2952005 0.009270048 -0.28487328 0.04870071 -0.15987621 -0.14134869 -0.097514495 0.34039465 -0.0027958541 0.23017645 0.033554576 -0.14960304 0.13265762 0.2724463 -0.028025882 -0.19632418 0.04315017 -0.09595093 0.117215596 0.07187633 0.008473437 -0.47997215 -0.03591261 -0.20949276 -0.46828923 0.06282054 -0.16650695 -0.02290818 0.10325998 0.012692384 -0.017371153 0.20931016 0.30141205 -0.27046335 0.2129135 -0.082982846 0.05222258 0.053500026 -0.3347853 -0.032454167 -0.0708466 0.051691353 -0.004751054 0.025206912 -0.17776197 -0.34179607 -0.43738684 0.011887037 -0.43722445 -0.12722097 -0.3076752 0.075744055
loose 0.028898824 -0.11552133 -0.064848736 0.035358842 0.060528845 -0.03258394 0.15677504 -0.14299673 0.15089251 0.34827995 -0.018323302 -0.044717453 -0.0016029028 -0.22742492 0.09662667 0.3063854 -0.13756786 0.015572839 -0.08282664 0.29935202 0.011313626 0.08791872 -0.22240078 -0.36190164 -0.34170756 0.14479095 -0.120261975 0.043190893 -0.1244858 -0.1807561 -0.11116579 -0.087007806 0.1419518 -0.026773253 -0.09723366 0.23807646 0.18831313 -0.003167712 -0.10739723 0.12158935 0.031208135 0.11591504 -0.08437168 -0.10493836 0.16955237 -0.008193052 -0.13281456 -0.08867302 -0.060773056 -0.09078654 0.14005081 0.066049665 0.10453221 0.009557589 -0.20916389 -0.060628444 0.268672 -0.0750267 -0.19381785 0.02969382 -0.16079809 0.10216049 0.1660934 -0.07735675 0.1269187 -0.08930222 0.028324436 -0.07129601 0.076865934 -0.0069934814 0.0008461557 -0.14728467 -0.23109557 -0.14599314 -0.050538387 -0.07409421 -0.20311391 0.014882992 -0.19219127 0.035127785 -0.103927985 -0.0863878 -0.053215865 0.22646372 0.0066568553 0.14131415 0.0071938946 -0.10284693 0.07990641 0.18102808 -0.014738833 -0.12332672 0.0062886607 -0.07648882 0.061448704 0.03466261 0.025910884 -0.31175718 -0.016130826 -0.14811324 -0.3004494 0.066815875 -0.12504192 -0.012931467 0.06544699 0.008652349 -0.006742109 0.14524695 0.16805129 -0.16385226 0.13374902 -0.06830697 0.037711293 0.023495823 -0.19947544 -0.011225544 -0.044248395 0.034583874 0.0047146254 0.020969449 -0.112711675 -0.2207026 -0.27175042 0.017194156 -0.28404516 -0.07388165 -0.19153225 0.055441488
currently 0.011041983 -0.15420789 -0.08798137 0.019358307 0.10206149 -0.056169048 0.20290841 -0.17464286 0.19089568 0.4517295 -0.027587278 -0.05110308 0.0036151924 -0.31875166 0.13198687 0.42093125 -0.18270573 -0.011572701 -0.13195412 0.41853145 0.010291619 0.11762412 -0.3164061 -0.4993228 -0.4666614 0.18805507 -0.16968422 0.04951525 -0.17625654 -0.25720003 -0.14211652 -0.10768766 0.17737815 -0.036828615 -0.13607864 0.34065446 0.26750696 -0.01926786 -0.13893269 0.14432877 0.043191038 0.1583804 -0.11841103 -0.12684254 0.23225373 0.0027464356 -0.17059691 -0.112012126 -0.09748307 -0.09577707 0.2210654 0.08330632 0.13445018 0.003239199 -0.28501463 -0.08177769 0.39608756 -0.13366283 -0.281926 0.051090706 -0.21984759 0.16519411 0.24700288 -0.12893443 0.18814854 -0.11474083 0.044410158 -0.107228175 0.11020112 -0.023331383 0.008171079 -0.19834521 -0.3025315 -0.20141658 -0.06993335 -0.107784405 -0.26163346 0.018188242 -0.2550218 0.039813347 -0.13165642 -0.12023562 -0.08979025 0.31583673 0.00065921334 0.20983705 0.03296161 -0.14169392 0.109315746 0.24902374 -0.01961459 -0.19416091 0.04630426 -0.0785812 0.10424812 0.056089003 0.01176831 -0.43200666 -0.054997694 -0.17088237 -0.4124794 0.05549166 -0.16820547 -0.02410587 0.07332453 0.015652128 -0.01630787 0.19171797 0.25013676 -0.24115181 0.19681734 -0.09691655 0.061830338 0.035568003 -0.29142815 -0.028701613 -0.08096338 0.035299264 -0.019041538 0.017854476 -0.1653622 -0.31104276 -0.40339753 0.022601355 -0.39224467 -0.10549732 -0.27948743 0.04762985
pretty 0.025087357 -0.14665899 -0.06738864 0.02277863 0.086645015 -0.05907783 0.18433018 -0.16673526 0.18732643 0.43397477 -0.006214505 -0.051415343 0.0052572247 -0.29304275 0.10941738 0.39924088 -0.18619676 0.014051592 -0.12009807 0.39159486 0.018462058 0.12660362 -0.27792144 -0.46370053 -0.4277642 0.18017916 -0.16212073 0.06270081 -0.1441284 -0.22358236 -0.13633764 -0.09857624 0.15676093 -0.031292964 -0.13052242 0.29465997 0.2501128 -0.023929976 -0.12217855 0.13507861 0.05430271 0.16629781 -0.10224466 -0.13868867 0.22294886 -0.002586418 -0.16102244 -0.11904193 -0.09348668 -0.100160144 0.20335901 0.08291591 0.111382134 0.009508332 -0.26055214 -0.07357695 0.35790548 -0.11454063 -0.25990194 0.03435813 -0.20256859 0.1395251 0.21706663 -0.10459419 0.17595436 -0.12026711 0.037788622 -0.09469335 0.109355584 -0.031866066 -0.011809655 -0.18434283 -0.27853802 -0.17972851 -0.074575186 -0.10303505 -0.23987192 0.025932765 -0.24362473 0.042468864 -0.13887772 -0.115818135 -0.07896844 0.29024264 0.014472377 0.19135006 0.032189853 -0.1437378 0.112546936 0.23921561 -0.029538646 -0.17435935 0.020123787 -0.08192389 0.09402776 0.043321073 0.020949876 -0.4128398 -0.028041454 -0.16968471 -0.38692674 0.0644554 -0.14137274 -0.01861204 0.077742286 0.017975785 -0.020482626 0.17290717 0.2401771 -0.21945119 0.17614013 -0.07974889 0.047665287 0.0407282 -0.2733271 -0.022588396 -0.059514806 0.047884867 -0.00970946 0.009742414 -0.15894847 -0.28307575 -0.35975528 0.011371758 -0.37627608 -0.11421157 -0.2693791 0.05338537
binging 0.028693937 -0.13810804 -0.08928138 0.015789388 0.102125466 -0.060499586 0.19091886 -0.16936474 0.1910069 0.42292073 -0.028904812 -0.05222669 0.013169008 -0.29022962 0.117614515 0.39171758 -0.17285337 0.0060805976 -0.12223708 0.40670145 0.017625427 0.12160532 -0.3009945 -0.4685994 -0.43862477 0.18014263 -0.15669213 0.042196978 -0.158249 -0.24064325 -0.12568977 -0.11057552 0.15823968 -0.02521799 -0.11079722 0.30642903 0.24647257 -0.025398904 -0.12800649 0.13033998 0.046311323 0.1737243 -0.089277275 -0.13665667 0.20602834 -0.013922793 -0.15404408 -0.10854749 -0.089133255 -0.08657985 0.20984606 0.07855693 0.1152838 0.020317806 -0.26281884 -0.06772567 0.36214048 -0.11140282 -0.24681813 0.035844367 -0.20257257 0.14271323 0.21773295 -0.113315254 0.18196295 -0.09909832 0.045324612 -0.107521914 0.11324333 -0.028777434 0.0016717245 -0.19743633 -0.2924714 -0.17565389 -0.066271186 -0.09984576 -0.23580678 0.0020649966 -0.25920784 0.04157658 -0.13630961 -0.11562859 -0.078023255 0.2908726 -0.0083435895 0.1824456 0.024078006 -0.14660531 0.11609391 0.22283474 -0.029575435 -0.17551014 0.028082198 -0.06734925 0.090961635 0.059889372 0.012031157 -0.41022575 -0.047357373 -0.18559551 -0.3842114 0.06636104 -0.15229456 -0.010601052 0.07444689 0.0133914165 -0.012744773 0.17257208 0.238081 -0.23757187 0.16808489 -0.07176919 0.045988087 0.027734797 -0.2875359 -0.034482665 -0.056725357 0.04009011 -0.009781058 0.010710762 -0.1460648 -0.2815706 -0.3475766 0.0045332597 -0.37492153 -0.10889213 -0.25556934 0.07149917
every 0.049400903 -0.20430212 -0.09297075 0.016758876 0.11467988 -0.08229855 0.22213794 -0.21102695 0.2518093 0.54575926 -0.029701505 -0.08779468 0.012334708 -0.37088805 0.15868486 0.5155292 -0.24248622 0.011773016 -0.1631394 0.50957125 0.029844847 0.15172519 -0.38929418 -0.58752346 -0.55011714 0.21997844 -0.22299798 0.045056026 -0.18156487 -0.29689988 -0.18384956 -0.12681703 0.22140157 -0.052989926 -0.14809027 0.4075346 0.32738996 -0.015659478 -0.17032906 0.17611462 0.059062593 0.21557283 -0.12278393 -0.1759324 0.28917962 -0.023269713 -0.20327848 -0.15744011 -0.108866066 -0.11196671 0.26162022 0.107678525 0.15840948 0.004877123 -0.3403181 -0.070466675 0.4634351 -0.14051831 -0.34614912 0.059782676 -0.26959395 0.19176608 0.27207026 -0.14922187 0.24343368 -0.14740865 0.05233652 -0.13481319 0.15112826 -0.040924348 0.0005654137 -0.2380377 -0.37733588 -0.23041393 -0.086371444 -0.14808105 -0.3135476 0.02954317 -0.31341395 0.06494732 -0.17001733 -0.16519685 -0.08544663 0.38031453 0.013997806 0.25830695 0.041046523 -0.18273768 0.14642437 0.2968144 -0.030419568 -0.21613434 0.038814254 -0.09126502 0.12750815 0.08292158 0.008336662 -0.5373019 -0.0585976 -0.2246641 -0.4997972 0.07932337 -0.20300797 -0.0368498 0.095201164 0.0281408 -0.02558137 0.21985276 0.30439413 -0.28664356 0.22857295 -0.100218825 0.06242831 0.0612188 -0.37182274 -0.044668116 -0.09438966 0.05551721 -0.02225224 0.032009874 -0.21298388 -0.38854572 -0.46899888 -0.0013332495 -0.46268332 -0.12389369 -0.33406317 0.1013643
happened 0.039169177 -0.19332598 -0.0971394 0.045757987 0.10994445 -0.07487914 0.24657564 -0.22423334 0.23652032 0.5622848 -0.024651296 -0.085190825 -0.00396538 -0.38246468 0.17637783 0.52528703 -0.24262542 0.00026620014 -0.17895623 0.5248679 0.017781164 0.17068036 -0.39115956 -0.6035303 -0.57236314 0.23936902 -0.21310075 0.08070175 -0.20285021 -0.31162855 -0.18256943 -0.13871364 0.2187948 -0.061143555 -0.16691606 0.39817464 0.32872695 -0.030478975 -0.16938607 0.18692654 0.048249982 0.21783425 -0.12278136 -0.17562176 0.29331246 -0.0103629865 -0.22070985 -0.14229204 -0.103789784 -0.11948788 0.2542664 0.11879768 0.17004833 0.010392784 -0.36062995 -0.085028306 0.46679255 -0.15818936 -0.3459998 0.068431795 -0.2726175 0.19186339 0.27838978 -0.12793058 0.23951745 -0.15008798 0.043939415 -0.12975442 0.1395536 -0.043835316 0.0025485111 -0.2500994 -0.37453228 -0.24364555 -0.07426627 -0.14165333 -0.34024078 0.032405872 -0.32013977 0.06272153 -0.17520745 -0.17164111 -0.098018266 0.38957632 -0.0038585842 0.25136694 0.028515914 -0.17387159 0.15562627 0.3030321 -0.031193964 -0.23145428 0.03773459 -0.096179046 0.1139604 0.08264315 0.013988935 -0.54773206 -0.057338897 -0.22935149 -0.5189153 0.078386314 -0.19335362 -0.0057703145 0.10616697 0.026290765 -0.0013400312 0.22340603 0.31638616 -0.2928337 0.2393572 -0.102576315 0.07551644 0.051595442 -0.36830166 -0.045861423 -0.091262095 0.059939552 -0.010853375 0.0096406555 -0.20950544 -0.38060147 -0.47718838 0.02263918 -0.48802263 -0.14883494 -0.33237055 0.07383861
binge 0.03152151 -0.1458691 -0.08182855 0.035087492 0.0973955 -0.04737381 0.17619312 -0.17437473 0.17182025 0.43544093 -0.02690523 -0.053757414 0.005853149 -0.2898624 0.12328176 0.41269442 -0.18423052 0.0145715745 -0.12071379 0.39724356 0.0132287955 0.11626606 -0.29825446 -0.4677686 -0.42164704 0.17499542 -0.17972073 0.064537 -0.14938311 -0.23074284 -0.1318827 -0.11185361 0.16907495 -0.026821796 -0.110640384 0.30145133 0.25859556 -0.02431159 -0.13019332 0.15625189 0.031078773 0.16612151 -0.09729524 -0.1265295 0.21749362 -0.016551575 -0.16188301 -0.10726051 -0.094240725 -0.097292505 0.19935343 0.09509391 0.12643826 -0.0048188944 -0.2552817 -0.06651323 0.36045524 -0.10818011 -0.25931257 0.036635578 -0.19976826 0.14353174 0.21245001 -0.095959336 0.17215338 -0.10355446 0.0472416 -0.09360827 0.10875327 -0.03421932 0.0039068437 -0.19797428 -0.28203276 -0.18010554 -0.07258383 -0.11045538 -0.23559476 0.011246691 -0.2561533 0.045907605 -0.14010602 -0.13114674 -0.082421504 0.29222953 0.004219237 0.20094727 0.019469626 -0.13162947 0.107087456 0.2169092 -0.015335845 -0.16956414 0.021773543 -0.0782123 0.10525803 0.046871193 0.016582634 -0.4103679 -0.043931834 -0.16788553 -0.37901175 0.06290751 -0.15487851 -0.0058681965 0.08555497 0.024680994 -0.002599868 0.17036249 0.25477657 -0.22178106 0.18101794 -0.075689934 0.045767166 0.037764955 -0.26882544 -0.029535485 -0.06912275 0.050207887 -0.022244398 0.014421911 -0.16446689 -0.2763721 -0.36380202 0.005578795 -0.37420964 -0.11325475 -0.2678797 0.055622794
self 0.038826942 -0.21202098 -0.111549124 0.033107053 0.11736685 -0.076189525 0.25220466 -0.22870345 0.26477876 0.6002782 -0.028904773 -0.089897774 0.0069805575 -0.4010309 0.16388872 0.5650433 -0.2553713 0.014279065 -0.16707565 0.551523 0.026089396 0.17264655 -0.40303993 -0.6486229 -0.597904 0.25610137 -0.22631949 0.075076684 -0.20515741 -0.31425664 -0.18757315 -0.14349025 0.23100916 -0.059326246 -0.17754751 0.42496532 0.34812254 -0.04818189 -0.18477103 0.19574863 0.053649377 0.23975374 -0.14855793 -0.17976673 0.3057142 -0.0063459342 -0.21556143 -0.16618498 -0.12342408 -0.14037372 0.29322392 0.1277542 0.18551287 0.022624183 -0.36499473 -0.091141306 0.50792783 -0.16754684 -0.3680346 0.051370103 -0.30220464 0.21114007 0.30541188 -0.14180487 0.24664557 -0.14013475 0.041525364 -0.13783994 0.140941 -0.03485063 0.004291534 -0.270785 -0.39511564 -0.25529858 -0.10385937 -0.159673 -0.34779125 0.01100068 -0.3430532 0.056540642 -0.18931517 -0.18121238 -0.113324545 0.42097607 0.0039149374 0.25603634 0.023959257 -0.18177328 0.14927636 0.31073397 -0.03014211 -0.24573496 0.049867712 -0.11561781 0.13125145 0.072091326 0.023478454 -0.5623533 -0.06691477 -0.25573185 -0.5336108 0.074876465 -0.21215577 -0.00430909 0.11783602 0.015662316 -0.0076200706 0.2455011 0.35038736 -0.3230484 0.23314464 -0.117323406 0.084157735 0.06814669 -0.3789552 -0.03246922 -0.0999801 0.045698587 -0.025212055 0.03022711 -0.23075503 -0.4089632 -0.51176375 0.027263513 -0.5219881 -0.1528883 -0.3593603 0.07548047
years 0.010146625 -0.15654904 -0.0843815 0.02492435 0.09620989 -0.054530054 0.18926236 -0.17929962 0.18952769 0.4401138 -0.026470827 -0.046460655 0.011117881 -0.29355702 0.13297862 0.4124764 -0.18400422 0.0062414506 -0.134309 0.40862963 0.014500059 0.12658027 -0.30065122 -0.46620488 -0.44810042 0.18048395 -0.16975729 0.04279721 -0.14845452 -0.25385895 -0.14358684 -0.11673548 0.1735111 -0.030691335 -0.13155384 0.31958887 0.2545135 -0.019707447 -0.1446387 0.14417143 0.049301993 0.15917903 -0.114125594 -0.12540331 0.22646202 0.0009951929 -0.1614561 -0.10857285 -0.091041245 -0.100154646 0.20630327 0.09074656 0.1284347 0.00241451 -0.25643882 -0.061990686 0.3825654 -0.112638324 -0.26292813 0.034719776 -0.21015744 0.15280977 0.22080536 -0.09887532 0.18960343 -0.11133417 0.038126364 -0.08512082 0.10038479 -0.026453147 0.015577412 -0.19347383 -0.2968123 -0.18514268 -0.069729276 -0.112169564 -0.26703262 0.006647471 -0.25136042 0.036869936 -0.124047846 -0.11651529 -0.0881593 0.30337697 0.0026566077 0.20889749 0.012227639 -0.14643513 0.11345186 0.23350254 -0.008897932 -0.16735761 0.04983861 -0.090128034 0.10638536 0.05024897 0.0075560394 -0.4158372 -0.050099608 -0.16697067 -0.39541402 0.06813156 -0.14448234 -0.022780355 0.08183252 0.032949075 -0.023872897 0.17818536 0.23949665 -0.24205455 0.18961155 -0.0796634 0.043742236 0.04988967 -0.27727053 -0.036685105 -0.07992179 0.03509751 -0.005875524 0.01075838 -0.15957089 -0.2870779 -0.36981344 0.015441885 -0.38052085 -0.10469361 -0.26047215 0.068902075
summer 0.026979243 -0.16612597 -0.10158632 0.020027278 0.1019182 -0.056708615 0.22040658 -0.20201616 0.22498251 0.49777004 -0.027957395 -0.08088522 -0.0015823742 -0.3497061 0.14241579 0.4723403 -0.2217082 0.0102669615 -0.14804682 0.46797207 0.02379031 0.15197147 -0.33160102 -0.5238425 -0.49866968 0.21174388 -0.19976096 0.052207015 -0.18802543 -0.2736945 -0.17100039 -0.124812275 0.20094585 -0.050270572 -0.13918985 0.36321336 0.2774658 -0.03407054 -0.14981376 0.1551217 0.039725076 0.19247195 -0.1163012 -0.16699693 0.26476067 -0.0025759034 -0.18467157 -0.12793104 -0.10068288 -0.12350574 0.22963499 0.09708017 0.13831985 0.008936812 -0.3075242 -0.08078528 0.41064522 -0.13978316 -0.32512656 0.052548196 -0.24700806 0.18329681 0.26399216 -0.12924705 0.20238507 -0.13896254 0.033583347 -0.1073992 0.12690173 -0.046005268 0.005344496 -0.21089101 -0.3350931 -0.20755735 -0.073187165 -0.115101345 -0.28542194 0.03146892 -0.2856219 0.046137363 -0.13819818 -0.1389929 -0.085066915 0.3381395 0.014419675 0.21606621 0.017022094 -0.16649471 0.13192704 0.2646519 -0.01678204 -0.2132206 0.029535167 -0.085290276 0.11436018 0.0745152 0.005344604 -0.47999972 -0.040488604 -0.2057412 -0.45191216 0.07847936 -0.17540061 -0.022317141 0.10484407 0.023817997 -0.017067268 0.21237816 0.27548078 -0.26536024 0.19849974 -0.09831762 0.06647643 0.04761932 -0.32018384 -0.044154275 -0.06756136 0.05230939 -0.012249526 0.023660857 -0.19669405 -0.34428352 -0.41989625 0.006240575 -0.43833852 -0.13638319 -0.2991287 0.073366
bulimic 0.017429523 -0.14997357 -0.08395891 0.018414443 0.10213756 -0.052714974 0.18111882 -0.17279252 0.18504949 0.44549373 -0.030495923 -0.053648952 0.013892136 -0.29698715 0.12937476 0.41435936 -0.1844934 0.01420446 -0.14281921 0.42405537 0.0015999599 0.13053921 -0.30913624 -0.48424402 -0.44120103 0.18926549 -0.17587371 0.054508306 -0.16527241 -0.25172627 -0.14555322 -0.11282838 0.1663471 -0.032256868 -0.1410086 0.3244868 0.2580755 -0.030336251 -0.13780335 0.13245133 0.043196928 0.16287492 -0.12123419 -0.14752644 0.22459367 -0.016632622 -0.17076716 -0.12355851 -0.08885094 -0.090736926 0.21531832 0.096208565 0.12922336 -0.00086213223 -0.28219116 -0.07955897 0.38864273 -0.12832983 -0.26385346 0.04277428 -0.22738384 0.16041705 0.22383136 -0.118762515 0.1804367 -0.11907724 0.041555695 -0.08638357 0.10856383 -0.04093473 0.0064246957 -0.18879256 -0.28814605 -0.18358666 -0.08363399 -0.107572824 -0.26782185 0.0058815437 -0.26096535 0.044621192 -0.12341368 -0.1291926 -0.08920945 0.3023924 -0.0046330695 0.20871477 0.029897824 -0.1460707 0.12290466 0.24573413 -0.007171688 -0.17042089 0.048730038 -0.07096301 0.10562006 0.044363268 0.0034758544 -0.42407492 -0.03138334 -0.17796731 -0.40402296 0.059793808 -0.15609138 -0.020697275 0.09700807 0.027792523 -0.02165622 0.1700546 0.24944682 -0.23986581 0.18862669 -0.08340152 0.04550652 0.042966988 -0.29044363 -0.024041774 -0.069685005 0.042872764 -0.0022346394 0.019651206 -0.17588384 -0.30520636 -0.38904306 0.019581638 -0.39035287 -0.10167374 -0.26859766 0.06252301
design 0.037602875 -0.19804108 -0.10921467 0.02932343 0.11081501 -0.068340965 0.24098824 -0.2092662 0.22376776 0.55149496 -0.01862226 -0.062298115 -0.00075856614 -0.35799396 0.1546756 0.5069943 -0.23798063 -0.0069517647 -0.15844359 0.5213272 0.03153863 0.14001606 -0.38362628 -0.57829815 -0.56337684 0.2262894 -0.21061096 0.055776566 -0.20140631 -0.31005743 -0.15554193 -0.13379028 0.21351507 -0.04008952 -0.16203487 0.3799364 0.31959122 -0.047989722 -0.1783952 0.18955404 0.058806326 0.20750643 -0.13391936 -0.16136459 0.29373747 -0.0097126635 -0.2040154 -0.12982482 -0.11190743 -0.10285024 0.25494945 0.117235474 0.15596601 0.00878382 -0.32972053 -0.09381995 0.46731284 -0.15719363 -0.3364212 0.060407676 -0.28105566 0.1808817 0.27264172 -0.13637787 0.23860107 -0.14319238 0.056145888 -0.116592616 0.13988067 -0.044029687 0.011768516 -0.23473275 -0.35246214 -0.23919639 -0.09158966 -0.12838161 -0.33144787 0.004911457 -0.3183344 0.044025723 -0.1547454 -0.16618875 -0.097668245 0.37047178 0.010568461 0.24974854 0.030662792 -0.17325564 0.1426323 0.28036535 -0.016927248 -0.21396352 0.044599157 -0.11023238 0.11977666 0.069011435 0.02797971 -0.5106658 -0.037952002 -0.22437955 -0.49721363 0.078958295 -0.19661628 -0.019385347 0.10775756 0.028828768 -0.022431456 0.23401201 0.3172487 -0.28764993 0.21794456 -0.094353 0.061238546 0.0585505 -0.35128984 -0.025216432 -0.09182187 0.04797837 -0.019232793 0.021242412 -0.20415287 -0.37106988 -0.45757878 0.018306583 -0.47501102 -0.1455007 -0.31406656 0.07951103
lpr 0.03539315 -0.18320784 -0.08684268 0.022373894 0.11099313 -0.06177323 0.2287424 -0.2147808 0.22373113 0.5439469 -0.028985646 -0.07835616 0.0021847554 -0.35760513 0.1465358 0.5157346 -0.23322898 0.010681984 -0.14660515 0.49658415 0.024633268 0.14227247 -0.3601373 -0.5809794 -0.5505666 0.23748769 -0.20255949 0.07194074 -0.19519547 -0.302355 -0.17985554 -0.12871304 0.22137758 -0.05192497 -0.175345 0.3945461 0.30584458 -0.032614306 -0.16430034 0.16380423 0.055390917 0.20546304 -0.13269308 -0.16944996 0.28614572 -0.010562063 -0.19040975 -0.15007044 -0.101765014 -0.1074528 0.24790917 0.10434339 0.16260359 0.0060597477 -0.33801737 -0.082400054 0.46948797 -0.143528 -0.34722322 0.051778663 -0.26091474 0.18718942 0.27512997 -0.1273552 0.22096491 -0.12897973 0.03671737 -0.11119055 0.11810795 -0.036857814 0.01686987 -0.24321876 -0.36236426 -0.22388482 -0.09636086 -0.12192317 -0.30698073 0.025505468 -0.32162347 0.044079106 -0.16440676 -0.16464914 -0.08196625 0.3723575 -0.006167265 0.24945371 0.018527627 -0.16109544 0.1385822 0.27022776 -0.032428812 -0.22509144 0.033765063 -0.08595384 0.13328575 0.0811707 0.018078404 -0.517089 -0.058931734 -0.22920533 -0.47793064 0.07744623 -0.19970797 -0.0086265225 0.10933944 0.021756036 -0.00013025179 0.2153286 0.30471796 -0.29179603 0.23023699 -0.10270446 0.057884097 0.043776732 -0.35016313 -0.049925987 -0.07251534 0.043914247 -0.009334795 0.013952083 -0.21033847 -0.36387748 -0.45058045 0.024981063 -0.47425506 -0.14098516 -0.32729244 0.06303341
reflux 0.04028675 -0.17526492 -0.08876372 0.04498892 0.11618507 -0.0667744 0.21974282 -0.20103803 0.23926534 0.53863037 -0.02292066 -0.07569757 -0.0005630303 -0.35367647 0.15716763 0.50610834 -0.2163181 0.022767374 -0.14555444 0.49258885 0.024876991 0.15277681 -0.35608193 -0.56878906 -0.55202764 0.22633153 -0.18502606 0.06928854 -0.20588069 -0.3024217 -0.18307464 -0.12415102 0.21941257 -0.05942744 -0.17720626 0.38283 0.28988448 -0.037776608 -0.15517582 0.15528364 0.0703836 0.20023343 -0.13592553 -0.16075768 0.28574848 -0.008725862 -0.20150235 -0.14754653 -0.10320706 -0.11378532 0.26792157 0.09069795 0.1605548 0.020569986 -0.34466976 -0.09541355 0.45585835 -0.14096771 -0.35058066 0.061633766 -0.25036702 0.18685961 0.2690514 -0.12797202 0.21848401 -0.12875055 0.053136665 -0.12549664 0.11514177 -0.03105899 0.016873356 -0.2435214 -0.35913345 -0.21076165 -0.08257544 -0.11673104 -0.29657835 0.021792214 -0.31582963 0.03439168 -0.14646284 -0.16787523 -0.07287623 0.36743218 0.012923689 0.23392434 0.021476094 -0.16108364 0.13986807 0.26994494 -0.02801045 -0.22409122 0.04300486 -0.083878644 0.13238382 0.08748658 0.027138645 -0.5127467 -0.05486883 -0.22871958 -0.49016336 0.07468698 -0.18385066 0.0072765225 0.10858885 0.034170505 0.008479946 0.2153822 0.31778705 -0.28134376 0.22429092 -0.09096398 0.06502491 0.04404914 -0.34719735 -0.028397385 -0.06808816 0.06515168 -0.020577434 0.03339873 -0.1995637 -0.36353093 -0.4606709 0.006454848 -0.4710456 -0.13243695 -0.34363618 0.06977554
past 0.024032101 -0.16646188 -0.08949265 0.016913764 0.101322636 -0.052193098 0.20976873 -0.19141884 0.21986802 0.51294816 -0.035481326 -0.0689363 0.008482437 -0.3420308 0.15358281 0.46613446 -0.21935663 -0.010099476 -0.14878535 0.47001138 0.0014686219 0.14100584 -0.34188026 -0.55551434 -0.51416093 0.21668519 -0.19645536 0.049911126 -0.19170748 -0.28105518 -0.14886121 -0.13017158 0.19589989 -0.03001913 -0.1494935 0.36558798 0.29154277 -0.033319082 -0.16944422 0.1716284 0.04921906 0.19230033 -0.11222389 -0.15898015 0.2635052 -0.020178577 -0.18767308 -0.12737088 -0.097437955 -0.09932041 0.226607 0.10389057 0.1524392 0.00014268207 -0.3039842 -0.08952434 0.4366192 -0.1467834 -0.30513403 0.06452428 -0.25476795 0.19374047 0.26890582 -0.12524687 0.20614651 -0.12936121 0.048913397 -0.11511414 0.12510554 -0.036600675 0.0063533117 -0.22390223 -0.33771214 -0.21131973 -0.08284144 -0.11073207 -0.28253758 0.006288593 -0.30074903 0.044492442 -0.1464605 -0.13432322 -0.09982526 0.34079722 -0.0014149346 0.21921459 0.01691502 -0.16627885 0.12705316 0.27290317 -0.016805673 -0.20926876 0.04447488 -0.08129052 0.10332027 0.057970494 0.0014655781 -0.4874106 -0.058055837 -0.21584527 -0.46678352 0.074488975 -0.16574432 -0.013961694 0.08789693 0.013874573 -0.0025520304 0.20807137 0.28508094 -0.27311167 0.20479867 -0.09412651 0.060931437 0.05168614 -0.3311945 -0.045024574 -0.08830143 0.056856386 -0.012585878 0.01889999 -0.18891418 -0.33378154 -0.44459412 0.00911197 -0.43950397 -0.13049969 -0.313323 0.07318168
really 0.02507385 -0.16427618 -0.07984449 0.026731113 0.1072971 -0.047562484 0.21139555 -0.2000844 0.20683417 0.47546074 -0.019692998 -0.055060916 0.0035526939 -0.3184591 0.13154332 0.4695216 -0.2094321 0.016160429 -0.13443995 0.45894775 0.008252833 0.1297259 -0.34050977 -0.51549983 -0.49393475 0.19667408 -0.17308022 0.07547685 -0.17920902 -0.27038324 -0.16312036 -0.11558906 0.19088747 -0.04102841 -0.14834721 0.3559956 0.27815425 -0.031868145 -0.14451951 0.15058358 0.05130276 0.18154988 -0.1095728 -0.16255252 0.25519493 -0.0032455588 -0.1782519 -0.11893372 -0.08669375 -0.1080523 0.24141729 0.093552515 0.13630508 0.0053283973 -0.30850476 -0.09125118 0.4195597 -0.12680882 -0.31485605 0.041817255 -0.22811626 0.1541072 0.25538325 -0.10985339 0.20168053 -0.12626864 0.05232352 -0.10603307 0.099419355 -0.0488875 0.0098462505 -0.20976882 -0.31258783 -0.19540562 -0.087179184 -0.1202452 -0.27793032 0.005416156 -0.29821333 0.033497766 -0.15148088 -0.14627029 -0.0713312 0.33386758 0.0027377284 0.21582776 0.02331483 -0.1522375 0.11608738 0.25362074 -0.024466345 -0.19935313 0.025004664 -0.07359039 0.12640117 0.07672288 0.022402536 -0.4716307 -0.043674417 -0.20414639 -0.43455896 0.07430956 -0.15856491 0.001309532 0.08987122 0.016811164 0.0011454251 0.20395681 0.27626917 -0.26781052 0.20115942 -0.079411834 0.064159855 0.045083832 -0.32116368 -0.03783349 -0.07347123 0.055341978 -0.010297011 0.025341997 -0.18193214 -0.325621 -0.4179258 0.0076017687 -0.41495222 -0.11104866 -0.30082768 0.0730155
best 0.03785526 -0.17709498 -0.096165 0.037632216 0.100289896 -0.06336641 0.2084973 -0.18703805 0.20835999 0.4918964 -0.029812537 -0.07343456 -0.009936414 -0.32938963 0.13013357 0.46757105 -0.22134934 -0.0015597859 -0.13723063 0.4526738 0.03322841 0.1401373 -0.333948 -0.53429294 -0.503494 0.21591285 -0.17565136 0.055646952 -0.18738593 -0.2756612 -0.148756 -0.13264167 0.1778669 -0.05422767 -0.13705742 0.33797717 0.27433148 -0.039644964 -0.15893108 0.16399139 0.047450796 0.19294181 -0.11794135 -0.1567943 0.25207165 -0.024879163 -0.19528545 -0.13160925 -0.09280233 -0.116461456 0.21717142 0.09662269 0.13933018 0.01341649 -0.30498424 -0.079954416 0.3971738 -0.13991651 -0.3143996 0.052820824 -0.24428193 0.16814806 0.2545315 -0.103127435 0.20198736 -0.13418399 0.04779722 -0.11004973 0.115019135 -0.024344524 -0.005520637 -0.21929266 -0.32094213 -0.21544887 -0.08562159 -0.105017275 -0.30060714 0.030246984 -0.27037433 0.054623157 -0.13472757 -0.1402483 -0.098822564 0.3496838 0.012146295 0.23538281 0.028786113 -0.15773724 0.13830996 0.2655791 -0.020532774 -0.183134 0.04421754 -0.09401452 0.108449705 0.07317155 0.0066065006 -0.4761156 -0.028666623 -0.21487257 -0.45257315 0.057999738 -0.17608944 -0.016699234 0.09683415 0.0155193545 -0.0038879677 0.19409467 0.2772077 -0.2708202 0.20092924 -0.094199315 0.065863244 0.03256593 -0.31033567 -0.025509145 -0.062871985 0.04698468 -0.022690205 0.015782874 -0.18157595 -0.3128452 -0.39970204 -0.00022147187 -0.4204905 -0.12504537 -0.2806768 0.058939166
advice 0.039616678 -0.16577856 -0.088742614 0.037060022 0.08343836 -0.04905825 0.20606282 -0.1691839 0.18539195 0.4545238 -0.03030873 -0.07225896 0.002470567 -0.29862648 0.122918814 0.424418 -0.20187138 0.00043129837 -0.12499156 0.42043066 0.016667351 0.1419489 -0.2976373 -0.48874405 -0.4476198 0.198083 -0.17401728 0.045991674 -0.17196149 -0.2543888 -0.1375431 -0.12011207 0.16332011 -0.04733518 -0.11819497 0.3072796 0.26262945 -0.041402552 -0.13960892 0.16224836 0.056295596 0.17232299 -0.10670456 -0.14192776 0.22091207 -0.016863355 -0.17370978 -0.120230235 -0.08765335 -0.09440561 0.20043756 0.09535768 0.122785375 0.011484501 -0.28072956 -0.06868167 0.36473256 -0.1196533 -0.28103924 0.048218176 -0.23222819 0.1452264 0.22381946 -0.09845883 0.17305309 -0.12291015 0.045547094 -0.112522624 0.10594124 -0.028888239 -0.0007446743 -0.19980428 -0.2903551 -0.19957587 -0.06798136 -0.09810684 -0.27685937 0.017582638 -0.25100547 0.046287745 -0.13834874 -0.13840705 -0.08107822 0.31274036 0.011558094 0.21213995 0.014874465 -0.15091239 0.118222676 0.22530118 -0.018920239 -0.16587768 0.020176286 -0.08126535 0.1132209 0.0627026 0.0027724302 -0.43989226 -0.028603936 -0.19213451 -0.41399568 0.046596337 -0.15665486 0.0010643202 0.08733185 0.028106159 -1.8078908e-05 0.1843691 0.24860393 -0.24606417 0.1827687 -0.0833993 0.06137599 0.04003019 -0.29187796 -0.034732115 -0.063295424 0.029325651 -0.025468627 0.0046845446 -0.1500529 -0.29075825 -0.367969 0.014970716 -0.39569768 -0.11454536 -0.2740021 0.057600204
hello 0.020168275 -0.09256918 -0.049788773 0.015260725 0.05822084 -0.01576344 0.10612982 -0.09443126 0.112479225 0.24393147 -0.0052219955 -0.0338333 -0.0045712846 -0.17461032 0.06927627 0.22224364 -0.10830738 0.0053150873 -0.08180243 0.23258728 0.00294365 0.07107227 -0.16232659 -0.25710207 -0.24101174 0.10567055 -0.093256414 0.027054382 -0.09302614 -0.13936304 -0.07734922 -0.053694494 0.09123325 -0.02277079 -0.075469345 0.18209042 0.13750473 -0.0049062525 -0.07647975 0.07518779 0.02630499 0.09293332 -0.06565329 -0.06984674 0.13010061 -0.0013844996 -0.09626175 -0.0665064 -0.050663725 -0.04356572 0.10894609 0.056402713 0.06522618 0.00061905634 -0.14558294 -0.033204257 0.21287149 -0.073944665 -0.13907476 0.024598666 -0.12279348 0.08615183 0.13381702 -0.07279666 0.10180344 -0.06894603 0.019467928 -0.044627793 0.06282687 -0.0220123 0.009867272 -0.099162534 -0.16249219 -0.09494567 -0.039523203 -0.06377381 -0.14989752 0.0007194957 -0.13223767 0.019947737 -0.07730304 -0.07087837 -0.041237067 0.16466284 -0.0010909642 0.097913556 0.016785536 -0.070005395 0.070204936 0.123014025 -0.0060384516 -0.108768314 0.01969462 -0.052210685 0.0630663 0.035870224 0.005182897 -0.22994424 -0.01535468 -0.10494448 -0.22716571 0.039541915 -0.09217609 -0.00022487601 0.03566164 0.003947521 -0.015903443 0.10124565 0.12889695 -0.12955508 0.09921981 -0.0430801 0.02639668 0.02688935 -0.15969749 -0.02839583 -0.03948113 0.026832823 -0.00011839935 -0.000873129 -0.09151233 -0.1656972 -0.2082305 0.010257531 -0.21580881 -0.0688913 -0.151586 0.022912169
actually 0.036312167 -0.19022308 -0.09666358 0.035259563 0.11115905 -0.050094273 0.22982724 -0.19572435 0.22709212 0.50763273 -0.028834479 -0.06532333 0.009558484 -0.34451473 0.14762385 0.47690085 -0.21910197 -0.004209933 -0.16062678 0.46969694 0.0064650616 0.14838864 -0.33879715 -0.5425881 -0.5104935 0.2222255 -0.18648507 0.051973566 -0.19465901 -0.27230734 -0.17842232 -0.12908113 0.21327282 -0.05808505 -0.15064532 0.3647857 0.28781852 -0.047378268 -0.15357368 0.17919007 0.056155663 0.19318953 -0.12058203 -0.16291554 0.27119467 -0.013765303 -0.20657462 -0.12749816 -0.09158139 -0.109419875 0.24111016 0.09366069 0.1478994 0.0027427664 -0.33254138 -0.095410444 0.43001166 -0.1399231 -0.3215683 0.0678768 -0.26267505 0.16933301 0.26792258 -0.11225906 0.22288917 -0.12769337 0.03555717 -0.12082015 0.13030048 -0.04483638 -0.0011116655 -0.22571078 -0.34119645 -0.22419833 -0.07827937 -0.11186141 -0.29824954 0.023392098 -0.2863754 0.052112255 -0.15330112 -0.1376805 -0.08151683 0.3535182 0.0048768665 0.23073402 0.033625934 -0.16507149 0.13698801 0.27707022 -0.020111552 -0.20556544 0.03174895 -0.093197726 0.112232625 0.08332305 0.014343919 -0.49480432 -0.041286983 -0.21186763 -0.47468668 0.08307443 -0.18936251 -0.012977434 0.114829674 0.016858265 0.0022729833 0.20995715 0.3039524 -0.26316363 0.20384657 -0.10348618 0.054286845 0.03420628 -0.32546002 -0.026891086 -0.06712953 0.058462508 -0.0031697822 0.018835114 -0.19878195 -0.33415666 -0.44348928 0.028219065 -0.4432865 -0.14380096 -0.32663074 0.0705983
also 0.04288581 -0.21429712 -0.09812078 0.023314148 0.11604853 -0.07446553 0.25546402 -0.23729947 0.2336987 0.5681235 -0.0152399205 -0.073149525 0.006995949 -0.40063778 0.17668673 0.55019015 -0.24038874 0.013649826 -0.18181641 0.5480083 0.03209378 0.15698798 -0.3876742 -0.60011345 -0.58039564 0.23430514 -0.21144782 0.06724173 -0.20391004 -0.3080446 -0.18672355 -0.14606237 0.2338816 -0.037474297 -0.17379628 0.42042217 0.33652002 -0.03152003 -0.19090416 0.19085549 0.044648394 0.22869623 -0.13339224 -0.1858687 0.28860852 -0.021384502 -0.20938094 -0.16142087 -0.13624947 -0.12225349 0.26739237 0.10793392 0.16249986 0.023776865 -0.34243762 -0.08164214 0.49195743 -0.16956653 -0.35729107 0.05561142 -0.2753271 0.21033761 0.3033928 -0.14495498 0.22977176 -0.15619549 0.046075914 -0.13015515 0.14603728 -0.03275655 -0.002661838 -0.2613441 -0.37774912 -0.2406579 -0.0987075 -0.1285183 -0.33021042 0.022854527 -0.3292212 0.040334728 -0.16325736 -0.16761552 -0.10175122 0.38907036 0.017248238 0.2560544 0.028345365 -0.17031285 0.1538671 0.30390865 -0.04197489 -0.23683581 0.051698767 -0.09942285 0.13923106 0.08538715 0.010542537 -0.5410374 -0.03851197 -0.22654466 -0.5065913 0.07834235 -0.21356253 0.0010487294 0.121858954 0.03440217 -0.018327646 0.24797817 0.33119118 -0.31872416 0.23989536 -0.10333945 0.06533205 0.056542788 -0.3689394 -0.029803462 -0.10207888 0.04670289 -0.019673964 0.016515234 -0.223156 -0.39458978 -0.49208978 0.020592302 -0.49400446 -0.14331718 -0.35580534 0.08531696
trying 0.03860906 -0.17597759 -0.08654778 0.020859106 0.08743408 -0.063978136 0.20414509 -0.19498257 0.20752253 0.4831671 -0.021368342 -0.07130012 -0.010506982 -0.32340044 0.1422757 0.4475606 -0.20111938 0.0032020037 -0.13555765 0.44523534 0.013690938 0.14224012 -0.32268822 -0.51212245 -0.48097178 0.21022342 -0.18717527 0.057199 -0.1658773 -0.25349006 -0.13675855 -0.11056839 0.1878107 -0.032074276 -0.12541032 0.3313049 0.27879772 -0.03370224 -0.1572317 0.15336262 0.040717423 0.16940297 -0.11045252 -0.15541556 0.25287575 -0.019233363 -0.17421453 -0.12667271 -0.09144379 -0.108781576 0.2289882 0.08562631 0.14775705 0.014956535 -0.30198023 -0.06709265 0.38622767 -0.12223498 -0.2819068 0.04803941 -0.24676155 0.1578518 0.25185928 -0.115930505 0.18454978 -0.12688914 0.05371583 -0.10712265 0.11379926 -0.020417823 0.0021834928 -0.20714417 -0.30371124 -0.19213778 -0.07043539 -0.114254564 -0.28988168 0.01835246 -0.27395946 0.041867264 -0.12987654 -0.13260731 -0.08855899 0.33483687 -0.007299271 0.21935032 0.012408061 -0.14513528 0.121190384 0.24832936 -0.028142411 -0.1788942 0.028874947 -0.082327195 0.1052679 0.06900105 0.008316028 -0.45567256 -0.031335704 -0.19451806 -0.43270123 0.07551654 -0.15529184 -0.0048500937 0.091415875 0.022921424 -0.011331736 0.20335144 0.26161858 -0.26076865 0.20479308 -0.09715731 0.04822882 0.031249683 -0.30763048 -0.04651071 -0.07608406 0.048424847 -0.008916935 0.01817909 -0.18277179 -0.3116039 -0.39146945 0.0134244785 -0.412851 -0.11020392 -0.27350277 0.06791375
started 0.030218786 -0.21837541 -0.11596281 0.042478643 0.11446543 -0.06374294 0.27578822 -0.24627745 0.2693659 0.60196006 -0.028916698 -0.08310995 0.0016013465 -0.41186255 0.18237649 0.57725924 -0.27219087 -0.0018828243 -0.17453007 0.5651178 0.03056599 0.17937222 -0.42909306 -0.6541792 -0.6249507 0.2585365 -0.24221814 0.062090386 -0.23437813 -0.3362007 -0.19652884 -0.14469968 0.22086233 -0.0525943 -0.16740684 0.44374442 0.34269333 -0.035406563 -0.19757675 0.21046993 0.052760404 0.23059432 -0.14401336 -0.20337398 0.31807187 -0.027209865 -0.21685854 -0.15936802 -0.13126524 -0.14167675 0.29826438 0.12595758 0.17642052 0.019663332 -0.38622642 -0.088984154 0.5152969 -0.16398455 -0.38725552 0.06887778 -0.30258176 0.2080566 0.30738148 -0.1531031 0.25261825 -0.16041331 0.06706331 -0.14867091 0.13926497 -0.04721267 0.005641541 -0.27282798 -0.40525812 -0.25086436 -0.087613076 -0.14919862 -0.35294655 0.020309713 -0.35015354 0.048423804 -0.17343177 -0.1823374 -0.114559375 0.42784736 0.00521292 0.2688989 0.021375593 -0.18271758 0.15829498 0.30780527 -0.037198134 -0.24694411 0.03921366 -0.11914008 0.1298507 0.09355061 0.011381093 -0.590256 -0.04715794 -0.2426661 -0.55554384 0.06963348 -0.22665305 -0.013603646 0.11646943 0.0276127 -0.009748554 0.24130157 0.34761146 -0.32392687 0.2574927 -0.10924492 0.06453262 0.054152966 -0.39780727 -0.041866325 -0.08286267 0.055544015 -0.013848754 0.01942068 -0.22754766 -0.4124812 -0.52780366 0.024509607 -0.53449506 -0.1559398 -0.36341077 0.07494464
today 0.016749877 -0.16364948 -0.09512795 0.020160759 0.09833739 -0.063511394 0.19843139 -0.19182636 0.19450971 0.49200228 -0.022643529 -0.06415607 -0.0061341487 -0.3374034 0.1316199 0.452134 -0.21158303 -0.006651233 -0.15571308 0.4449574 0.02029834 0.1298282 -0.33643413 -0.5255486 -0.4920063 0.21399042 -0.17865516 0.07024158 -0.16599213 -0.2764573 -0.1590042 -0.12867065 0.1835206 -0.034550793 -0.13681339 0.3458407 0.26959658 -0.03490341 -0.15363374 0.15531887 0.06013568 0.19752015 -0.101911284 -0.14099798 0.2551349 -0.0031017854 -0.18676378 -0.13086611 -0.098001465 -0.10452375 0.21963103 0.1031027 0.14073683 0.010776783 -0.30060777 -0.09159883 0.41980737 -0.11933118 -0.29641786 0.041387007 -0.24201228 0.1607874 0.24806634 -0.1205833 0.19495343 -0.11701988 0.049302407 -0.10915527 0.11706477 -0.04151342 0.0056556803 -0.20659672 -0.31773913 -0.20099263 -0.07239571 -0.10395185 -0.28420722 0.021368798 -0.27884877 0.042559914 -0.13934316 -0.1459126 -0.09444199 0.3277242 -0.008237307 0.21100844 0.027564028 -0.14862232 0.11372441 0.24234775 -0.022250473 -0.19123091 0.03162617 -0.075999595 0.10626497 0.061721753 0.01737372 -0.45096943 -0.046849 -0.20424847 -0.43956542 0.06910428 -0.16526169 -0.0071305707 0.094643205 0.012326663 -0.0155386515 0.2116343 0.28222653 -0.25368354 0.19915618 -0.084154494 0.06749397 0.05256686 -0.3043054 -0.027826965 -0.06519544 0.040200736 -0.010889209 0.014922246 -0.16520315 -0.31542215 -0.40646654 0.024394544 -0.4257129 -0.11860451 -0.29717308 0.05879851
always 0.026443955 -0.1925251 -0.095998794 0.035525292 0.11366799 -0.055061437 0.21952347 -0.2044968 0.22130248 0.49900764 -0.014693953 -0.08011573 -0.00036405597 -0.3358548 0.13232319 0.47426182 -0.21337847 0.004084622 -0.14053704 0.4647396 0.0242276 0.12958568 -0.33862293 -0.5306575 -0.52566 0.2028192 -0.20469113 0.075658895 -0.19150692 -0.2825383 -0.16202198 -0.13558581 0.17649442 -0.054766458 -0.1354942 0.36855683 0.3016021 -0.027954172 -0.15583915 0.17032655 0.047377925 0.17884222 -0.1198654 -0.14547268 0.26059458 -0.012529993 -0.19549635 -0.1247913 -0.108811036 -0.1292643 0.2327052 0.111495435 0.1451827 -0.0061892564 -0.30005217 -0.09043797 0.4327759 -0.13229783 -0.31294715 0.059530612 -0.24860543 0.16875902 0.2627518 -0.12793519 0.20265637 -0.13174647 0.042194676 -0.10223661 0.12638834 -0.044985157 0.012560055 -0.22711203 -0.32254252 -0.2185863 -0.07788356 -0.13107094 -0.29086176 0.011505261 -0.28282475 0.046677396 -0.1533022 -0.14926621 -0.10163449 0.34243956 -0.0073220925 0.22682324 0.024557078 -0.14694118 0.12661262 0.25984222 -0.037498172 -0.19734536 0.03411466 -0.094065845 0.114365034 0.055634834 0.015571152 -0.47637537 -0.052941598 -0.19749193 -0.4416297 0.07887246 -0.16683474 0.004578583 0.091520295 0.024648702 -0.023530167 0.20561676 0.2903038 -0.2556741 0.21078536 -0.10396553 0.052497227 0.043288745 -0.32954887 -0.044235945 -0.07672666 0.041074626 -0.004657399 0.012534725 -0.18598038 -0.34199643 -0.43119147 0.016343975 -0.42500073 -0.12441983 -0.29771838 0.08112226
jeans 0.040586177 -0.14666891 -0.08780692 0.040503323 0.08638776 -0.03727489 0.19028276 -0.18136556 0.18464474 0.43530837 -0.015166102 -0.067526534 0.0044380752 -0.29033637 0.12397569 0.38435543 -0.1828301 0.010845244 -0.10458719 0.38495907 0.013038607 0.12097248 -0.30151358 -0.45681876 -0.4236692 0.18108371 -0.15221359 0.04829489 -0.1633573 -0.21750478 -0.14184327 -0.088891156 0.16389364 -0.036169425 -0.12285514 0.29357594 0.25769997 -0.009434484 -0.12437847 0.1282578 0.039887097 0.15780966 -0.100556314 -0.11799247 0.21554594 -0.01684571 -0.15651017 -0.107426904 -0.089863464 -0.10141489 0.18190469 0.09116437 0.13549568 0.00044459387 -0.26752272 -0.07045492 0.3357492 -0.0982597 -0.25416708 0.041796528 -0.19558942 0.14880595 0.22629344 -0.11412341 0.17681792 -0.11302277 0.042235237 -0.088689946 0.10695992 -0.027557459 0.0010955608 -0.18713021 -0.29333267 -0.1883608 -0.06556822 -0.10042921 -0.2516236 0.02010784 -0.23939227 0.051898897 -0.13389622 -0.1121545 -0.072679155 0.29547343 0.0018482803 0.17072488 0.023832971 -0.13411522 0.11364888 0.23879285 -0.015704112 -0.17417857 0.029425936 -0.08222539 0.08235019 0.059130844 0.03204552 -0.38881105 -0.03489647 -0.18511891 -0.36840212 0.076507255 -0.1421339 -0.017258367 0.08137038 0.028075209 -0.0090147285 0.18080844 0.22909983 -0.21299522 0.16210902 -0.07782534 0.054518454 0.03986527 -0.25607085 -0.010589082 -0.050199643 0.047648802 0.0019404221 0.014562594 -0.14465612 -0.29029724 -0.34363216 0.009430107 -0.37555853 -0.088233165 -0.23999059 0.05279251
life 0.03624446 -0.20152119 -0.101868205 0.024326062 0.115516834 -0.07271339 0.22769457 -0.22396694 0.24369152 0.5305973 -0.020217272 -0.08117868 0.00704046 -0.3650394 0.16640693 0.5073634 -0.22757891 0.00026766106 -0.16183923 0.5041551 0.033618346 0.14792745 -0.3716769 -0.57534796 -0.55317557 0.21105209 -0.20397513 0.059089728 -0.20397821 -0.30247262 -0.168019 -0.1298167 0.21588995 -0.054148197 -0.1515877 0.3798681 0.30311808 -0.031050539 -0.17849243 0.16819909 0.049793646 0.21010508 -0.123553194 -0.16924617 0.27181903 -0.017028103 -0.20001099 -0.13336274 -0.11455755 -0.1226235 0.23667733 0.11870306 0.14242557 0.009977337 -0.3421072 -0.0842362 0.43669543 -0.15005462 -0.3285048 0.057133723 -0.26821047 0.17725343 0.2648327 -0.12181538 0.21680725 -0.121992074 0.057059683 -0.123983204 0.1339058 -0.045032438 0.006740134 -0.23636417 -0.34380144 -0.2240217 -0.084201925 -0.13766313 -0.31331336 0.023142021 -0.30458963 0.040504616 -0.17449087 -0.16562988 -0.1035479 0.3661443 -0.002254424 0.23916966 0.020925589 -0.16378361 0.15121578 0.2783509 -0.026724434 -0.21355031 0.048271935 -0.082968816 0.12251461 0.07288099 0.019780772 -0.5128335 -0.052193075 -0.22064276 -0.47203097 0.062203825 -0.18538713 -0.0119587565 0.107112385 0.021411777 -0.016842056 0.21321669 0.30293372 -0.29183424 0.21722013 -0.09811303 0.05694008 0.04578238 -0.36242265 -0.031989925 -0.07473626 0.044587325 -0.014162944 0.0052912757 -0.1954142 -0.36752233 -0.45573393 0.016751023 -0.46589926 -0.14278345 -0.31751966 0.07838788
may 0.036851022 -0.18507445 -0.09644116 0.025770755 0.118216574 -0.052519377 0.22318827 -0.21856841 0.23625238 0.52430403 -0.020051489 -0.081787445 0.011401725 -0.35126796 0.15623157 0.502793 -0.23372246 0.005918293 -0.15111129 0.48697478 0.028996037 0.15209702 -0.35009202 -0.5639861 -0.5283123 0.20683667 -0.18995474 0.06388729 -0.19680952 -0.28382885 -0.1800897 -0.13610579 0.2189265 -0.045460597 -0.16392311 0.36239403 0.29153413 -0.024092129 -0.14923356 0.16797578 0.050445072 0.1926729 -0.12125506 -0.15672463 0.26565018 -0.020507677 -0.20759971 -0.14299312 -0.10860504 -0.12438757 0.23399289 0.107077956 0.14186709 0.005222765 -0.32446688 -0.09059167 0.42883563 -0.14255752 -0.32586104 0.056885805 -0.26127133 0.1804383 0.27294257 -0.12664388 0.21068937 -0.13637114 0.030921044 -0.10654007 0.14073513 -0.04744928 -0.008810136 -0.23676932 -0.35830316 -0.22497001 -0.080341585 -0.13093139 -0.3018093 0.017612724 -0.29169387 0.03917303 -0.1566176 -0.14119458 -0.09890352 0.36285508 0.005890477 0.24036331 0.02841273 -0.16579762 0.141887 0.2803325 -0.03346823 -0.20805277 0.05079836 -0.09083733 0.11819135 0.07255379 0.010690027 -0.5033825 -0.035308827 -0.22011694 -0.48378462 0.07651519 -0.18739496 -0.0061367024 0.11125529 0.011133108 -0.00889928 0.20303564 0.31278938 -0.27858618 0.21409403 -0.09688821 0.06064584 0.0379793 -0.3443573 -0.030306427 -0.079016484 0.054631747 -0.018151408 0.020603906 -0.19348618 -0.3497283 -0.43382365 0.01289358 -0.44143197 -0.1449405 -0.32422233 0.07619903
even 0.021917218 -0.15422255 -0.06761398 0.036570128 0.09173973 -0.059197396 0.18734583 -0.17713104 0.17261916 0.43595916 -0.023907186 -0.05892332 0.011674377 -0.29586422 0.11931813 0.412482 -0.16682592 0.012153477 -0.12573655 0.40321538 0.028267112 0.13058047 -0.28737244 -0.46094745 -0.43611753 0.18577118 -0.17252629 0.05751668 -0.14628892 -0.23631349 -0.14441305 -0.121998034 0.17328194 -0.039452203 -0.109070785 0.31240663 0.24076954 -0.031221237 -0.14265767 0.15880454 0.0486321 0.15520814 -0.0936335 -0.14103137 0.21322465 -0.019356992 -0.15766864 -0.12003056 -0.09639661 -0.10146968 0.20615953 0.08166945 0.13490744 -0.0018618458 -0.25549448 -0.064673044 0.35583854 -0.11456594 -0.26789364 0.035267353 -0.21587558 0.14769343 0.22329547 -0.10697901 0.17301212 -0.101919286 0.050441664 -0.10604642 0.11249311 -0.021743322 0.006934769 -0.18597886 -0.27843174 -0.17681344 -0.07397445 -0.11354918 -0.2516693 0.010842628 -0.25099322 0.044513244 -0.124349035 -0.121024445 -0.08598333 0.29219854 0.0006629837 0.1841201 0.01575129 -0.14659975 0.10989085 0.22360648 -0.018388662 -0.16587675 0.02686814 -0.081067525 0.0929438 0.04489963 0.00974021 -0.41857085 -0.04405409 -0.17619354 -0.37269318 0.052810345 -0.14580677 -0.0016899218 0.09962836 0.015453067 -0.015995195 0.16431622 0.23545949 -0.23208442 0.18117836 -0.084125824 0.04190153 0.03581184 -0.266232 -0.035342764 -0.06281475 0.03060525 -0.011390699 0.00064101384 -0.14856318 -0.28580406 -0.3724401 0.019700795 -0.37141755 -0.10392755 -0.26576263 0.06277662
