223 128
eating -0.0011643133 -0.047642637 -6.392469e-06 0.074476354 0.051068235 0.014819026 0.03978279 -0.020186517 -0.025997067 0.10299523 0.054918367 -0.009953308 -0.040972263 -0.086508326 0.1198055 0.07057593 -0.06038665 -0.020796034 -0.044221677 0.05439047 -0.020417873 0.08389051 -0.031344764 -0.13579725 -0.07998555 0.0870418 -0.055278726 0.0008669512 -0.04110514 -0.04664319 0.02848171 -0.028264465 -0.017803365 0.056189314 -0.04642513 0.081892684 0.083333805 -0.030268667 0.020913545 -0.019531377 -0.060862422 -0.003316673 -0.038019292 -0.016614279 0.051358733 0.03984342 -0.10583529 -0.027863443 -0.04142881 0.022715045 0.015675932 0.066864274 0.054592595 -0.02978674 -0.06431563 -0.022447638 0.09644829 0.0053232936 -0.006986277 -0.03361005 -0.06968879 0.025108825 0.0994466 -0.0074563716 0.07137329 -0.030131014 0.0015217321 0.013183294 0.019074628 -0.07890039 -0.0022685009 -0.04880454 -0.109576516 -0.024405247 0.03143482 -0.044871174 -0.08972328 -0.0066442178 -0.025538022 0.062802225 -0.031203467 -0.03080313 0.00020106949 0.1349582 0.06455885 0.09025679 0.08593927 -0.046793696 0.060633536 0.03542289 -0.031813968 0.010194378 0.11604628 -0.0008279156 0.04677005 0.06393261 -0.060848076 -0.059989046 -0.037678007 -0.054607898 -0.041301165 0.0069168718 -0.027058626 0.043288417 0.02744286 -0.028071037 -0.009791079 0.066922456 0.064880185 -0.05566265 0.054138776 -0.046080958 0.017205821 0.029063426 -0.056251395 -0.0041283946 -0.02885118 -0.028826838 0.025815954 -0.02703635 -0.10332555 -0.036204778 -0.04333644 -0.023267763 -0.06566182 -0.04542243 -0.0082697645 0.0087742405
ed -0.0007292582 -0.04723497 0.014467582 0.08122425 0.05481509 0.017030934 0.05143077 -0.028226595 -0.022983016 0.105335064 0.041337997 -0.0144074075 -0.0566803 -0.07847591 0.11915851 0.0725242 -0.07138565 -0.029031929 -0.044247616 0.06401742 -0.01846206 0.082786664 -0.030752556 -0.14105374 -0.08080561 0.09203019 -0.0721067 0.0043952726 -0.033382814 -0.036635965 0.033992074 -0.02527736 -0.023222756 0.051557597 -0.033505104 0.07528906 0.07651177 -0.038675755 0.022733178 -0.007123338 -0.07043382 0.009691373 -0.030567527 -0.024785973 0.05692804 0.035285607 -0.11106832 -0.029450208 -0.040951796 0.016658096 0.027738487 0.066181086 0.04577111 -0.039525785 -0.0731848 -0.014198597 0.10434898 0.009719022 0.0017083327 -0.044216137 -0.07353799 0.02213058 0.095432766 -0.0044808723 0.06866804 -0.033871282 -0.00011425686 0.01740292 0.018549636 -0.069376186 -0.0047676763 -0.04557662 -0.12168037 -0.018268267 0.03998377 -0.05579175 -0.08920676 -0.010313551 -0.031907912 0.050684292 -0.031079184 -0.0318883 0.0038097254 0.122157335 0.06830649 0.08739931 0.07989726 -0.046450354 0.062021956 0.048287928 -0.022984605 0.011006092 0.10867185 -0.0047604726 0.046557344 0.060539026 -0.06086832 -0.056682892 -0.035888273 -0.048356153 -0.036093626 0.021608876 -0.032596495 0.041491266 0.036929466 -0.021992834 -0.015038174 0.06520642 0.064022936 -0.063231796 0.06159581 -0.058107127 0.013511974 0.018737076 -0.04722599 0.0016903417 -0.022579046 -0.025484324 0.031370774 -0.04103922 -0.10440045 -0.02597225 -0.048122577 -0.009015477 -0.06527365 -0.037797622 -0.0129516255 0.009530227
like -0.0021737919 -0.04479594 0.006961997 0.087576635 0.048717506 0.018386323 0.05701879 -0.025187641 -0.030982904 0.10958574 0.054601505 -0.01797478 -0.0471407 -0.09280983 0.123420775 0.07840337 -0.064506255 -0.021196071 -0.046923205 0.07673866 -0.021503199 0.08977077 -0.03796423 -0.15093474 -0.096600614 0.09005341 -0.07661118 -0.0071194726 -0.040126696 -0.04408228 0.027064692 -0.016698953 -0.03272229 0.05316188 -0.033976447 0.0895611 0.08977036 -0.036295835 0.016970642 -0.01760101 -0.060891304 0.007407447 -0.031971186 -0.013939522 0.06360407 0.048458233 -0.12459864 -0.039502855 -0.04959297 0.021807695 0.029606357 0.06977173 0.059179552 -0.047127385 -0.068935506 -0.02596288 0.10137024 0.013693753 -0.0035102323 -0.049994312 -0.078774266 0.019995563 0.10904715 0.003238424 0.07008219 -0.047496896 -4.357292e-05 0.011293556 0.030754847 -0.08409277 -0.010525073 -0.048476093 -0.13202563 -0.0247457 0.03534238 -0.04779092 -0.088863835 -0.008458889 -0.03156569 0.06873282 -0.030399214 -0.02979812 0.011802821 0.14244811 0.08484761 0.089750595 0.096973814 -0.038159557 0.07462769 0.042672243 -0.031636734 0.0013285454 0.10709072 -0.0016495564 0.055678397 0.06920322 -0.06394444 -0.058435004 -0.04039979 -0.055418152 -0.03315296 0.0115209855 -0.031502742 0.045029555 0.038379136 -0.01705572 -0.005139806 0.077406384 0.07090014 -0.06676376 0.06896154 -0.0467117 0.017639877 0.023410486 -0.056168783 -0.0033677716 -0.016894415 -0.033690277 0.02994372 -0.02470681 -0.09850279 -0.027219258 -0.050885223 -0.022828681 -0.06626148 -0.045341276 -0.012658178 0.0061168964
binge 0.00473848 -0.03704965 0.01088554 0.06905839 0.03494852 0.009427027 0.042686157 -0.016487142 -0.02697462 0.08105487 0.041899532 -0.015572938 -0.045623455 -0.06264293 0.10318726 0.05403491 -0.054516677 -0.020453842 -0.044650543 0.049824182 -0.015788464 0.07359281 -0.02853103 -0.11097163 -0.07028667 0.0731928 -0.049955193 0.009594604 -0.026252542 -0.03642596 0.0218635 -0.01600379 -0.022677302 0.038303982 -0.03864386 0.05740446 0.06918849 -0.025550788 0.020616718 -0.0052108937 -0.05504386 0.00407173 -0.02031474 -0.0122267995 0.04703248 0.03764573 -0.096090816 -0.01759835 -0.033177778 0.021136085 0.011274612 0.054817665 0.04646619 -0.03341821 -0.06376894 -0.010653309 0.07811631 0.00011991166 0.00047272214 -0.027577648 -0.051351056 0.015218348 0.07167645 0.005904849 0.060782026 -0.033728834 -0.0060808053 0.0054994305 0.017432129 -0.064812124 -0.007010291 -0.038813256 -0.101983674 -0.027609974 0.0362791 -0.043498456 -0.07848522 0.0033292812 -0.021052968 0.05526584 -0.02987591 -0.03232139 0.0084837265 0.1044721 0.052649494 0.06809078 0.07331263 -0.026811233 0.058569007 0.036648557 -0.027054159 -0.00025674183 0.08385979 0.0006821604 0.032606214 0.04814475 -0.045954935 -0.052556626 -0.040977523 -0.037019975 -0.033687912 0.01230918 -0.027252872 0.03808004 0.021193359 -0.012892869 -0.0020665983 0.04861479 0.050341606 -0.04198044 0.052841183 -0.038906407 0.021175593 0.020534735 -0.039325483 -0.0031566117 -0.025115978 -0.020231947 0.029433856 -0.035100017 -0.0825483 -0.02687615 -0.040130638 -0.0040585827 -0.057276715 -0.035816737 -0.008223267 -0.0031867172
start -0.0026846605 -0.056641288 0.014477072 0.07139059 0.05351649 0.025615526 0.043356147 -0.014107142 -0.03343061 0.10577549 0.05385417 -0.012319397 -0.059181724 -0.074503295 0.12404315 0.07418716 -0.06467434 -0.01643915 -0.049724683 0.0701335 -0.01591142 0.08004664 -0.03171216 -0.1469664 -0.08769391 0.08132738 -0.063696906 0.009670136 -0.029611113 -0.037485912 0.025255939 -0.019114593 -0.029674657 0.05224525 -0.03197516 0.08347801 0.075076245 -0.04306404 0.021603463 -0.010364652 -0.056970175 -0.0031111361 -0.035396326 -0.020498414 0.055502668 0.041879017 -0.116836846 -0.028025243 -0.051947612 0.023301883 0.022327716 0.06752571 0.050037507 -0.036326375 -0.07653177 -0.027386338 0.10406879 0.0026181182 0.004112185 -0.039749566 -0.07725661 0.028417688 0.09967738 -0.009911656 0.07100296 -0.039277107 -0.005890707 0.020263813 0.030655788 -0.06911703 -0.009928777 -0.040190328 -0.119306415 -0.033335596 0.042073034 -0.05355583 -0.09650503 0.0017747335 -0.03296403 0.06726537 -0.03924321 -0.024580488 0.0052981745 0.1347651 0.084786 0.08895259 0.08631869 -0.044062085 0.06084688 0.047577735 -0.022581547 -0.0025004076 0.113963515 0.0024645964 0.040687535 0.059077907 -0.06242764 -0.06164028 -0.04348976 -0.055973172 -0.035419334 0.00876496 -0.042855546 0.03335251 0.041221496 -0.013381478 -0.012711362 0.06647167 0.07151611 -0.058314573 0.053219005 -0.05674376 0.0187732 0.029239658 -0.04852512 0.006171499 -0.015160216 -0.02808273 0.040143408 -0.028414194 -0.09505366 -0.02639978 -0.056783613 -0.01215577 -0.076561965 -0.04456303 -0.025035731 0.005830719
ednos 0.010990143 -0.03526643 -0.0005718467 0.06385667 0.048734646 0.021398181 0.04344812 -0.01724404 -0.025618631 0.07951271 0.034475237 -0.017365063 -0.04348071 -0.07149272 0.10094427 0.060673866 -0.057142377 -0.014317598 -0.04077221 0.055496383 -0.0037334182 0.055873763 -0.029609462 -0.12336572 -0.06616175 0.06684917 -0.057787746 -0.0019152409 -0.02878298 -0.03278064 0.02455514 -0.020281656 -0.021486802 0.050585322 -0.03421319 0.07098624 0.06558031 -0.033748887 0.0063242638 -0.007150651 -0.051017605 0.0005683836 -0.023199806 -0.017356262 0.043990776 0.036671765 -0.08685357 -0.034986142 -0.047096424 0.008986115 0.010358094 0.05062053 0.04498478 -0.028497111 -0.059628125 -0.013798879 0.083689116 0.009119577 -0.009106347 -0.029391276 -0.056444168 0.02285585 0.0888592 -0.0013759445 0.062381934 -0.037221882 0.0044804052 0.0018201655 0.01578397 -0.065156415 -0.009568125 -0.04223499 -0.09139267 -0.014233181 0.030563 -0.039531566 -0.07999494 0.0008380658 -0.025487982 0.042616364 -0.019840702 -0.026928745 0.0014854383 0.11083055 0.06857196 0.0709675 0.06623894 -0.026473362 0.05491949 0.029038852 -0.025326593 0.0061835116 0.092629366 0.0064901942 0.030385938 0.041379202 -0.045882102 -0.046875637 -0.032319393 -0.04524657 -0.028062548 0.020974213 -0.030717768 0.022954516 0.034459133 -0.025075136 -0.003847628 0.057099182 0.050449077 -0.053458538 0.050012715 -0.041230336 0.020987023 0.026498826 -0.034409463 0.002235067 -0.014717818 -0.027149428 0.026254456 -0.028973848 -0.08932845 -0.02998405 -0.038535185 -0.015851602 -0.06177583 -0.029239196 -0.016135303 0.0016542564
feel 0.0035500047 -0.05121089 0.00743279 0.07680472 0.04397464 0.014585167 0.042490654 -0.014276968 -0.020737022 0.08933179 0.039543618 -0.014124143 -0.04654446 -0.07343224 0.111506484 0.07000528 -0.06566269 -0.01871401 -0.046025097 0.06683841 -0.0108002685 0.07999661 -0.031182755 -0.13117279 -0.07985096 0.07786088 -0.053486448 0.0059274305 -0.02807527 -0.040677942 0.03716284 -0.017710213 -0.022736458 0.054808196 -0.03284979 0.08157759 0.07576368 -0.032897078 0.011218941 -0.01647956 -0.064306185 0.0027137024 -0.035524584 -0.015595348 0.050949328 0.038549017 -0.100016154 -0.03411356 -0.040095687 0.020158367 0.025312368 0.058440734 0.04660597 -0.03618261 -0.07350242 -0.024490278 0.098792 0.004674911 -0.001955934 -0.046591908 -0.064222276 0.018871786 0.097588494 -0.0028039238 0.060478594 -0.03470185 0.0014117021 0.009908637 0.02064683 -0.06610319 -0.016849875 -0.039884526 -0.11677678 -0.016491368 0.03474367 -0.04424385 -0.08533648 -0.006542298 -0.031304624 0.053420413 -0.023864726 -0.038561676 0.009286836 0.12522684 0.07732569 0.07802795 0.08545023 -0.045447968 0.06423959 0.04609431 -0.022688434 -0.00020996672 0.09943697 -0.009642022 0.044292975 0.05850338 -0.061138336 -0.050985478 -0.043246172 -0.042099323 -0.02485023 0.015618125 -0.035408534 0.028600216 0.028737577 -0.019545594 -0.019209234 0.07229894 0.066311665 -0.05423763 0.06354492 -0.050446883 0.017283235 0.021795971 -0.041186273 0.0033053448 -0.022784619 -0.031490803 0.024987167 -0.026522104 -0.08965718 -0.025737828 -0.039986726 -0.023197519 -0.058278296 -0.04383607 -0.015986998 0.003889532
purging -0.0041734483 -0.043038722 0.01378866 0.0496333 0.030060057 0.0063278335 0.0418177 -0.016649872 -0.01881066 0.07070149 0.033843752 -0.012181085 -0.041459613 -0.067731895 0.0826954 0.057072688 -0.057008028 -0.015923398 -0.03724212 0.055587757 -0.010906093 0.06555114 -0.028248431 -0.11414457 -0.060618095 0.065690294 -0.053398665 1.9141096e-05 -0.018694218 -0.03759331 0.018436221 -0.016506912 -0.019704616 0.04956185 -0.031746637 0.05253908 0.05309758 -0.03667363 0.006431227 -0.015569307 -0.051834892 -0.00036234705 -0.026872981 -0.018178118 0.043834552 0.033071496 -0.076126516 -0.026691541 -0.03267178 0.018447308 0.015496567 0.038528692 0.03480985 -0.035684485 -0.049021978 -0.0067365235 0.084527485 -0.0029903061 0.0028942754 -0.02819289 -0.050034914 0.009604579 0.073594496 -0.00848863 0.04241082 -0.026609773 0.0077340542 0.0154699255 0.0131399995 -0.055073537 -0.011354262 -0.02725598 -0.100020565 -0.013122916 0.020699948 -0.04442116 -0.065005764 -0.0030400392 -0.028840212 0.04307351 -0.025963232 -0.028685817 0.012537444 0.10005569 0.064199515 0.06966521 0.06073858 -0.026126096 0.054940753 0.036145154 -0.017015768 -0.0033921371 0.08291072 -0.0021855962 0.03552338 0.037618537 -0.03997336 -0.039405268 -0.040995598 -0.030698942 -0.02085074 0.011712817 -0.029839104 0.028869176 0.03145228 -0.010792104 -0.014880973 0.05720103 0.049170326 -0.05174283 0.052360512 -0.03281845 0.016257513 0.022799395 -0.04321403 -0.0056831907 -0.01771235 -0.024031688 0.022697313 -0.0273757 -0.08209587 -0.023534833 -0.034533877 -0.010696614 -0.048654314 -0.026291564 -0.0085091675 0.0007347122
restricting 0.0022129596 -0.03225999 0.015220646 0.05408619 0.03823551 0.009575827 0.03914445 -0.013541067 -0.014403037 0.08344167 0.04742796 -0.004229692 -0.033085145 -0.0684832 0.08129335 0.056241587 -0.054407563 -0.009851166 -0.0330498 0.049480967 -0.007928519 0.061806187 -0.017146163 -0.11677749 -0.06779452 0.07023495 -0.05207595 0.008422015 -0.019299857 -0.026982779 0.02097006 -0.010713419 -0.025684787 0.045523733 -0.033774815 0.056216832 0.06407603 -0.025774555 0.018431796 -0.013880555 -0.041338075 0.008427095 -0.031105358 -0.022282505 0.045407124 0.03601854 -0.08602649 -0.030826272 -0.043061815 0.010319543 0.022411065 0.0436967 0.03139209 -0.0275965 -0.050377883 -0.02114067 0.08017348 0.0016346697 -0.003589512 -0.040579773 -0.052779738 0.012076004 0.077764 -0.0018810417 0.052751206 -0.0362584 -0.001065453 0.011813069 0.023552042 -0.061195493 -0.01576675 -0.03296361 -0.093641266 -0.018020539 0.021924863 -0.040471777 -0.061541386 0.00030811998 -0.024871418 0.047940012 -0.031015746 -0.020269653 0.003257596 0.0985591 0.06617659 0.06743063 0.07252728 -0.035967812 0.056646883 0.041081443 -0.029366782 -0.0017982017 0.07783425 -0.00548114 0.034368537 0.03732853 -0.038805194 -0.050206516 -0.026181629 -0.034675848 -0.030902317 0.015389701 -0.023104843 0.023462448 0.019419787 -0.017508464 -0.0165753 0.050609354 0.05218281 -0.0435873 0.047769755 -0.03952492 0.009163775 0.019048935 -0.038571883 0.005372353 -0.013281175 -0.018358594 0.026026953 -0.02838482 -0.080620125 -0.026883347 -0.036150523 -0.012649627 -0.05959214 -0.036712844 -0.021782666 -0.0031924034
feeding 0.010369972 -0.04118116 0.0013587555 0.066772155 0.03678695 0.017222872 0.04345903 -0.013054065 -0.029645083 0.07844888 0.04596553 -0.014124307 -0.034592036 -0.07556755 0.10070926 0.062182393 -0.063808784 -0.026902067 -0.04858774 0.06133117 -0.014961597 0.05767875 -0.028905014 -0.11153591 -0.06756937 0.07623419 -0.0558995 -0.0012721232 -0.033464972 -0.036774438 0.023927758 -0.011996536 -0.01451484 0.04912036 -0.04147937 0.05560931 0.06759791 -0.03197447 0.019910986 -0.013077441 -0.054806 0.0010881166 -0.03332451 -0.008155336 0.037384126 0.034630287 -0.09730451 -0.0198646 -0.038925212 0.012863036 0.011524011 0.05101022 0.034952644 -0.033999987 -0.055858895 -0.017007105 0.07662369 -0.0036674333 -0.00414849 -0.043776497 -0.05792987 0.012355948 0.08956238 -0.00022233945 0.05587973 -0.02541527 0.004571828 0.00641088 0.018737838 -0.06450969 -0.014891443 -0.043129753 -0.09262634 -0.018958787 0.023358406 -0.045830317 -0.07760333 -0.011996177 -0.014837949 0.055043966 -0.018435342 -0.028160006 0.013713798 0.114392176 0.06562498 0.07177072 0.061853345 -0.038317647 0.05989171 0.03738379 -0.026345016 0.012186286 0.09120834 -0.0106038125 0.04155241 0.053991355 -0.051007353 -0.04639027 -0.03383246 -0.03319759 -0.03586439 0.016503857 -0.022718498 0.041392285 0.021302333 -0.02287646 -0.0035573796 0.058358654 0.049962636 -0.055827063 0.05139067 -0.042289864 0.005706817 0.02664201 -0.034035426 0.0066980678 -0.010511776 -0.022949833 0.028380591 -0.02789209 -0.0835508 -0.020749237 -0.039472323 -0.012965526 -0.062904015 -0.04130114 -0.019413874 -0.0020598131
us -0.001444295 -0.033680312 0.00018834155 0.07148669 0.051974915 0.012481316 0.050181556 -0.010118065 -0.0185043 0.10079761 0.050833788 -0.008405517 -0.039491896 -0.0715076 0.09644695 0.05998582 -0.063988455 -0.019530058 -0.038620014 0.05293718 -0.011886118 0.06244583 -0.021597253 -0.1329992 -0.07735822 0.07086523 -0.06749302 -0.005181365 -0.03835135 -0.033119954 0.025830043 -0.015451199 -0.026096249 0.054756865 -0.035802692 0.06559406 0.06664229 -0.04175465 0.014434065 -0.009340782 -0.053605005 0.0073932414 -0.03969042 -0.018366752 0.044400584 0.038074736 -0.103790075 -0.020805087 -0.04550112 0.00845629 0.024365637 0.055987347 0.038190756 -0.036720835 -0.058313623 -0.025012396 0.08612089 0.012244391 0.0034383214 -0.04672795 -0.0662138 0.02680381 0.08848838 -0.0037132367 0.067850694 -0.026722474 -0.0052579693 0.012103165 0.030012315 -0.06087355 -0.0143816145 -0.039304044 -0.11280698 -0.028221244 0.03680666 -0.045582063 -0.07776553 -0.009377278 -0.020871356 0.053895887 -0.02741103 -0.03555238 0.013953815 0.11829705 0.06719518 0.084297664 0.082514934 -0.04040071 0.058430623 0.04205168 -0.024601173 0.011044642 0.09946302 -0.005338588 0.039275695 0.053708237 -0.058668897 -0.05576165 -0.03533874 -0.036610086 -0.027847564 0.008256654 -0.037730135 0.037443414 0.021484978 -0.026348362 -0.012397831 0.058349624 0.06542367 -0.058685753 0.060522746 -0.04939086 0.009846141 0.022857785 -0.042162728 -0.0067107896 -0.012650527 -0.030124778 0.026719844 -0.029930055 -0.08840302 -0.036613222 -0.053126212 -0.018064322 -0.06840428 -0.03357281 -0.018150827 0.0057928124
exercising -0.0040851594 -0.038526457 0.008202142 0.060106296 0.040678505 0.021636372 0.028167345 -0.006211951 -0.022647724 0.073985465 0.032312717 -0.014833166 -0.039899755 -0.06562973 0.09394216 0.058858436 -0.050851796 -0.014092022 -0.028637793 0.043724973 -0.006142235 0.059908282 -0.019606633 -0.1075311 -0.07246026 0.06889935 -0.048515987 -0.004422855 -0.024272678 -0.036501564 0.028054351 -0.021892095 -0.018211972 0.040971167 -0.033356305 0.05534134 0.06430679 -0.026366588 0.003605558 -0.009966676 -0.052943394 -0.001021405 -0.021126408 -0.011576439 0.03713369 0.030330395 -0.07701779 -0.028896753 -0.039554685 0.010546776 0.009105524 0.045959163 0.04325014 -0.027427858 -0.050623395 -0.015760625 0.07642536 -0.0018282714 -0.0029085798 -0.026668843 -0.051391885 0.017584525 0.07896882 0.00094207784 0.043175515 -0.020949446 0.0087088775 0.0020832145 0.024297941 -0.061229452 -0.007561618 -0.029801972 -0.09487612 -0.026823286 0.019591276 -0.045076605 -0.07191464 0.004536113 -0.018730417 0.03693926 -0.017652223 -0.01758769 0.013314326 0.10464376 0.049420107 0.06021341 0.06699289 -0.027695475 0.054255966 0.025994258 -0.016643187 0.0083539095 0.072545305 0.005217972 0.036798175 0.039132666 -0.043067284 -0.049112104 -0.038369972 -0.03274258 -0.02591542 0.018996537 -0.034747925 0.021772273 0.029077515 -0.007649563 -0.006707409 0.05574859 0.053805448 -0.047522474 0.05091634 -0.042500444 0.010721227 0.012875165 -0.03222842 -0.0047839377 -0.013001127 -0.022259668 0.024277922 -0.03032975 -0.07911588 -0.02770866 -0.035834085 -0.009927146 -0.053901363 -0.02664049 -0.018220894 0.01132279
still -0.0006138829 -0.035297755 0.013818583 0.05538761 0.03511225 0.02092317 0.032139305 -0.008018016 -0.014014514 0.06359405 0.034992557 -0.018368568 -0.0375057 -0.049619988 0.07948222 0.047905084 -0.043795306 -0.008918272 -0.02847909 0.040577807 -0.003965507 0.062057186 -0.025337761 -0.1018897 -0.061385684 0.052632507 -0.04687416 0.009949641 -0.025850555 -0.03540461 0.017593618 -0.02299765 -0.015104922 0.0440895 -0.027974984 0.051667616 0.06325965 -0.03392844 0.0068171914 -0.01744877 -0.035374686 -0.00075230206 -0.028583383 -0.019816596 0.045823924 0.025133777 -0.08244584 -0.018184956 -0.039973993 0.019054117 0.020529201 0.03810346 0.03314519 -0.026596537 -0.057475064 -0.011208289 0.07671053 0.0075002746 -0.009469886 -0.03052175 -0.05686144 0.020951245 0.07660278 -0.0015671625 0.03933863 -0.022153841 0.00012035571 0.011663078 0.011803311 -0.052921392 -0.00955793 -0.025665602 -0.09183101 -0.022440843 0.022707662 -0.03756997 -0.05720357 -0.0028932386 -0.022044182 0.03485328 -0.031222899 -0.02067341 0.0064280243 0.084086604 0.059013683 0.06479776 0.06670328 -0.030770566 0.04722107 0.036745057 -0.02444857 -0.0056118816 0.06820229 0.0021732515 0.024864336 0.04137141 -0.03362245 -0.038654197 -0.038507756 -0.028232886 -0.01651286 0.0031940094 -0.022061089 0.032292496 0.028987931 -0.017043758 -0.0038922313 0.04411638 0.03940065 -0.037406217 0.03770236 -0.036985014 0.00855107 0.009893903 -0.035992444 -3.252629e-06 -0.013271847 -0.013610922 0.026115462 -0.0327679 -0.07637292 -0.025080618 -0.03585082 -0.015732057 -0.041759055 -0.023095122 -0.019238304 0.007889266
people 0.0065023117 -0.046494216 0.012085286 0.07086995 0.048888087 0.022089534 0.04066094 -0.018221024 -0.020643275 0.09159787 0.046678197 -0.005539735 -0.0404823 -0.060389526 0.10356294 0.05599392 -0.06032584 -0.019416682 -0.04844846 0.061079666 -0.013545489 0.06416223 -0.019424168 -0.108824685 -0.073413126 0.07542248 -0.061202597 0.007503061 -0.031982988 -0.03424345 0.025693858 -0.012674035 -0.01423946 0.03796319 -0.027870322 0.06684346 0.06706303 -0.040026177 0.0055504045 -0.007298333 -0.057787336 0.005958602 -0.032672796 -0.007186576 0.049449287 0.024788918 -0.0985565 -0.016581697 -0.035731014 0.02183664 0.024237707 0.05194237 0.03916182 -0.041033268 -0.06669562 -0.010555342 0.07949989 0.005261705 -0.007708166 -0.03938789 -0.06096047 0.018858025 0.08866626 0.00021602564 0.06276643 -0.039271038 0.01038487 0.009433323 0.028901074 -0.07028052 -0.0066380305 -0.046194978 -0.1025603 -0.01747165 0.03125953 -0.040893998 -0.07999668 0.0029070592 -0.017584259 0.054652598 -0.033541255 -0.032116864 0.005967172 0.10949947 0.055256214 0.07742155 0.07851955 -0.03816323 0.06066266 0.034113977 -0.014389638 0.0112140775 0.09234529 -0.0061785323 0.04259765 0.046263978 -0.043095037 -0.053770687 -0.031554695 -0.03647841 -0.02404225 0.013667753 -0.036034588 0.031197928 0.020337103 -0.009510774 -0.0065415306 0.06376796 0.06173919 -0.044928905 0.05028787 -0.048265066 0.016165625 0.019537607 -0.041600928 -0.0030401656 -0.02470489 -0.018631075 0.029430704 -0.026016852 -0.07668429 -0.023938667 -0.045829915 -0.011350515 -0.065217294 -0.030503698 -0.015553861 0.010800588
time -0.0041649602 -0.030420423 0.01008707 0.060038507 0.03853571 0.018214209 0.03608438 -0.018196283 -0.02598315 0.08886133 0.035447236 -0.019757358 -0.0475056 -0.063648134 0.08641469 0.06831512 -0.056041405 -0.019211646 -0.03889887 0.05457358 -0.0037669293 0.0616414 -0.020990647 -0.116818525 -0.069587745 0.07109297 -0.06260361 -0.0031645603 -0.026666623 -0.03243262 0.025845746 -0.016499331 -0.018003188 0.04255135 -0.0372581 0.06503488 0.059485734 -0.026004072 0.020387359 -0.0121559985 -0.059154574 0.00953123 -0.027264455 -0.021528168 0.048480257 0.03258958 -0.09708051 -0.025633104 -0.041864656 0.0096371565 0.0123345675 0.05344798 0.0319654 -0.036376454 -0.062663116 -0.019946313 0.09229447 0.01154044 0.0031667673 -0.03638883 -0.051792227 0.013360022 0.083528206 -0.0021453095 0.056922264 -0.038893234 0.004872349 0.01074699 0.013414816 -0.07104891 -0.014888783 -0.034959987 -0.10351831 -0.016658368 0.021753859 -0.042749304 -0.0660129 -0.0034963847 -0.014748563 0.05478286 -0.034382667 -0.030568449 0.0043815034 0.11031023 0.06267038 0.072018094 0.07056919 -0.027911734 0.047695763 0.028269254 -0.03157621 -0.0028804368 0.086799346 -0.010434517 0.040176474 0.053048674 -0.043060917 -0.045206435 -0.03429299 -0.031806055 -0.017713806 0.007906218 -0.032072365 0.032080065 0.033545762 -0.01272667 -0.0018100068 0.05777859 0.051008 -0.041616015 0.04600384 -0.0377787 0.004142618 0.011519384 -0.037760675 0.0004965149 -0.017480858 -0.022153178 0.03216252 -0.028441774 -0.08260932 -0.022715636 -0.04651086 -0.0073547857 -0.0587622 -0.040241014 -0.014378781 0.00057508517
purge 0.0072239907 -0.041177146 0.010289011 0.04881653 0.034405038 0.005632006 0.027074505 -0.01801042 -0.011216859 0.073153295 0.025510546 -0.015119598 -0.032413255 -0.062363937 0.08552521 0.056635343 -0.053548545 -0.008642458 -0.027778635 0.041851316 -0.008790151 0.050462767 -0.016466156 -0.09127109 -0.055648923 0.051969025 -0.041122433 -0.0010780607 -0.024385834 -0.02353878 0.021065805 -0.01164415 -0.021140875 0.041836098 -0.030673455 0.05393022 0.05956324 -0.021139039 0.017062489 -0.01164695 -0.03929305 0.008286995 -0.025665907 -0.0076422677 0.029348608 0.03470107 -0.07249565 -0.017352927 -0.028881775 0.014955096 0.01180806 0.037427176 0.033645783 -0.026720572 -0.05141182 -0.019720484 0.065532796 0.010671314 0.0051817517 -0.024237333 -0.05256359 0.015677288 0.060081426 0.0041120127 0.047160458 -0.019844947 -0.003945132 0.005864702 0.019433238 -0.05037226 -0.012065525 -0.03909591 -0.08223671 -0.026296698 0.028461363 -0.029537607 -0.06462918 -0.0077600223 -0.026821064 0.039839517 -0.016537063 -0.022025436 -8.0723985e-05 0.096419975 0.04375293 0.064113736 0.06391753 -0.026663516 0.038956147 0.03417576 -0.026338454 -0.0013267414 0.08189288 -0.009422334 0.02702833 0.035031784 -0.035849165 -0.038723048 -0.03459796 -0.03704325 -0.016445536 0.019571353 -0.01719055 0.027183551 0.026528118 -0.011216216 -0.0068120356 0.049925108 0.047236893 -0.038995877 0.03885448 -0.03992821 0.018716421 0.011829743 -0.031355772 -0.00242887 -0.018859334 -0.024344346 0.025803536 -0.02797984 -0.07573231 -0.025150113 -0.03078703 -0.0062320475 -0.04803826 -0.02091921 -0.018505841 -0.0026591695
eat -0.0040941336 -0.04594756 0.009038019 0.064170666 0.03749604 0.014861161 0.028218776 -0.02103199 -0.017074872 0.068861134 0.031554133 -0.010628466 -0.046845693 -0.06832328 0.09406059 0.063521594 -0.058447603 -0.010245443 -0.029806778 0.05304625 -0.013957239 0.07064465 -0.028896 -0.11117459 -0.06528151 0.06062394 -0.05869524 0.0039023482 -0.01905679 -0.035433892 0.018088358 -0.01367725 -0.018283581 0.034694638 -0.02568752 0.058217235 0.06317121 -0.02540009 0.019668486 -0.0024527025 -0.04131597 -0.004347379 -0.024364272 -0.0147449365 0.0428371 0.038029835 -0.08116865 -0.030777916 -0.028466161 0.011639685 0.017615356 0.050982885 0.033517003 -0.031106453 -0.053112898 -0.009064786 0.082493395 0.0020806429 -0.008623493 -0.034966905 -0.04767704 0.009689708 0.08240317 -0.0018010378 0.051402394 -0.021241821 0.00840344 0.016558545 0.026581654 -0.06661824 -0.0017359367 -0.04454797 -0.10061604 -0.028935805 0.028925058 -0.03264524 -0.07286088 -0.004850793 -0.02362327 0.04313983 -0.026433567 -0.021548772 0.010226656 0.09759524 0.05517152 0.06335712 0.064345516 -0.027151 0.059374243 0.039460886 -0.028025616 -0.0037727922 0.07619714 -0.0077259145 0.03988212 0.038672917 -0.042401645 -0.037228197 -0.031169 -0.037676252 -0.018027056 0.017155156 -0.029775439 0.025480598 0.024409933 -0.00867872 -0.0031081366 0.048648138 0.058789346 -0.04298684 0.05038462 -0.04367401 0.018078148 0.018167332 -0.046558317 0.002535679 -0.023562832 -0.02653706 0.0279921 -0.019689899 -0.07952802 -0.019864652 -0.03450898 -0.008032536 -0.058277182 -0.025828151 -0.01973225 -0.0017486567
deleted 0.007336168 0.0070968857 0.00077320694 -0.006283398 -0.0049502933 0.00033976324 -0.0023554831 -0.0012983212 0.00022487654 -0.005191679 -0.006931096 0.003952446 0.0051501365 -0.0052266675 0.0052174022 -0.0076568625 0.0020079133 -0.0020342707 -0.0071663302 0.0043986635 -0.0019492174 -0.0062888395 -0.0025766054 0.0076586083 -0.0023891353 -9.037681e-05 -0.0026063917 0.007239477 0.0036719798 -0.0009902787 0.0048971707 0.000996929 -0.004834216 -0.0069921236 0.007057737 0.0010456583 0.0035684376 -0.0019841208 0.0014222667 0.0008402072 0.004150064 -0.0004688259 -0.0048577893 -0.0060744127 0.00025614334 -0.0041667037 -0.0064628394 -0.000894307 -0.0010876564 -0.0034570573 0.004931619 0.0034644075 -0.0038827425 -0.0023489133 0.004313369 -0.0037957188 -0.006023263 -0.0029490364 0.0020815902 0.0075310483 -0.006636603 -0.005926395 -0.005631011 -0.001677346 0.0072185947 0.0054863035 0.004515392 -0.0074411714 0.0052018603 -0.004447113 -0.0044626514 0.006080808 0.007208866 -0.00039859719 -0.00297055 0.003361706 0.006422525 0.0065268143 -0.0024819756 0.0054613966 3.617856e-05 0.0041313134 -0.00032926112 -0.0036320726 -0.0066207983 0.0069190254 0.0037828265 0.004165382 -0.0019356965 -0.004913627 0.003406933 0.003744746 0.0069586965 -0.0015753487 -0.0044411244 -0.0043293014 0.0069389623 -0.001143793 0.00040719108 0.0010741685 -0.0027362816 -0.0076129083 -0.0004222621 0.005800154 0.0048467075 0.0041726874 -0.0015762452 -0.0052324464 0.00045329498 -0.0041862284 0.0041020974 0.001791427 -0.0051128184 -0.0033746178 -0.0013184665 0.0019737359 -0.0002870739 0.005824537 -0.0018427098 0.003349311 -0.0018206469 -0.0023568321 -0.0014661648 0.0042340783 -0.0056419075 -0.0007872311 -0.0018870878 -0.0010080251
hate 0.0076220315 -0.040538542 0.0085570365 0.056704797 0.037248787 0.0188789 0.02678074 -0.017345898 -0.018050479 0.07671022 0.034372464 -0.0045052543 -0.041771244 -0.06639989 0.07818127 0.049456883 -0.040464487 -0.020929737 -0.03818703 0.05233932 -0.016478011 0.059941467 -0.016528754 -0.108126275 -0.061358225 0.059688374 -0.04191738 -0.0024148577 -0.030069169 -0.020716166 0.016579084 -0.010334437 -0.0257315 0.04584127 -0.03199969 0.048975762 0.055587616 -0.028392678 0.011238534 -0.0107725635 -0.049605068 -0.0017624449 -0.027155796 -0.0071052355 0.044897918 0.028156433 -0.082852215 -0.01770274 -0.041330885 0.01373648 0.020182237 0.041707963 0.03215754 -0.035541847 -0.05876961 -0.0060658003 0.07665727 0.003483147 0.006776992 -0.037353367 -0.050785556 0.015632542 0.06314829 -0.009970818 0.053819235 -0.0302979 -0.0064606024 0.016046222 0.013138867 -0.05738786 -0.0059188497 -0.03662707 -0.09455476 -0.023288451 0.017674692 -0.035042733 -0.06702381 -0.0023665626 -0.018090876 0.040176246 -0.0166527 -0.017366366 0.007566043 0.09230575 0.054895155 0.06669847 0.07005601 -0.02867686 0.045562737 0.027717277 -0.019654145 -0.004817681 0.07540848 -0.012348477 0.03415799 0.041974176 -0.03543567 -0.04477264 -0.026364058 -0.042073898 -0.015536642 0.011562989 -0.023681138 0.03166533 0.025733301 -0.011525977 -0.008450314 0.040353406 0.0442187 -0.045617964 0.03578913 -0.03204889 0.016885603 0.014720294 -0.029794477 -0.003363426 -0.015682925 -0.015648186 0.016585102 -0.031570055 -0.06615449 -0.028294573 -0.02864442 -0.004670572 -0.05624548 -0.019826349 -0.006876476 -0.003868902
osfed 0.004798372 -0.029249439 -0.0006727739 0.050277386 0.033036765 0.015283472 0.033104163 -0.006373766 -0.009258365 0.061901625 0.032897107 -0.009124735 -0.02799823 -0.0629768 0.084887326 0.057747588 -0.04734135 -0.0155743435 -0.028792182 0.052194703 -0.008713261 0.05003994 -0.020065749 -0.09552861 -0.061138745 0.067999534 -0.043981705 -0.0080951825 -0.025176216 -0.030485855 0.019249666 -0.016889663 -0.021228097 0.03326153 -0.028280618 0.048890878 0.047409307 -0.017165901 0.008491793 -0.0010663691 -0.038648956 0.0017291966 -0.021249667 -0.01998807 0.042923074 0.034447026 -0.067631446 -0.02794657 -0.034666944 0.004811325 0.01930722 0.037878044 0.042884793 -0.03349272 -0.045762297 -0.01970361 0.07336314 0.0012894286 -1.0444311e-05 -0.032672826 -0.05689898 0.012404395 0.071165875 -0.007598542 0.038930397 -0.030327126 0.0037772788 0.002624405 0.008556253 -0.053181842 -0.012772023 -0.028026365 -0.0850588 -0.017694019 0.01575437 -0.03036312 -0.06671453 0.0006918225 -0.020499667 0.037358224 -0.022925064 -0.018358447 -0.003870744 0.08567462 0.053889204 0.054405216 0.06212441 -0.03296871 0.04890948 0.03735061 -0.025430698 0.011836982 0.08307909 -0.0005711764 0.03226533 0.044388093 -0.03332368 -0.042444095 -0.03431413 -0.03397477 -0.029310746 0.003641649 -0.023703396 0.027016342 0.021578614 -0.02093861 -0.015650827 0.045736324 0.053995203 -0.039849844 0.036372438 -0.030354904 0.0075186584 0.015427132 -0.04146691 -0.0017386355 -0.018751655 -0.013081394 0.015455428 -0.023004761 -0.07626105 -0.021756917 -0.03566627 -0.0068291374 -0.04293897 -0.026633233 -0.0197393 -0.005624236
day 0.011148369 -0.04361842 0.0101478845 0.060031775 0.049343653 0.015946534 0.042855922 -0.009411205 -0.018076358 0.07666861 0.03797427 -0.011970871 -0.040872604 -0.0637122 0.104076795 0.06495161 -0.04628198 -0.025143443 -0.043942153 0.05487484 -0.007798006 0.06577093 -0.030126482 -0.121128604 -0.07896435 0.079813555 -0.050581656 -0.0038401645 -0.024881572 -0.03196377 0.019866498 -0.023200935 -0.018191306 0.052964043 -0.040700432 0.064157546 0.058539663 -0.03138332 0.014470067 -0.014423368 -0.053249784 0.0025897543 -0.033870798 -0.009823424 0.049488146 0.025757609 -0.09306478 -0.023345357 -0.04678173 0.008396521 0.011052466 0.045667034 0.050606545 -0.027433606 -0.05664047 -0.023574363 0.089914314 0.008569369 -0.003061781 -0.042003646 -0.06233493 0.019379636 0.07517903 0.0010189151 0.055380907 -0.036583472 -0.005600342 0.014365665 0.014304621 -0.066063024 -0.0034220957 -0.037955742 -0.10222514 -0.026990552 0.02779102 -0.036476612 -0.078895465 -0.007749343 -0.028450908 0.045835104 -0.03390991 -0.03413988 0.012723212 0.115044415 0.05916357 0.062058445 0.06988801 -0.036870718 0.0631385 0.037442446 -0.027849395 -0.0019889956 0.0819253 0.00041279808 0.034766506 0.0459258 -0.043162555 -0.041733276 -0.032128535 -0.047368284 -0.021297203 0.003817832 -0.0368609 0.024741178 0.025036454 -0.015314306 -0.012604141 0.057386696 0.06158912 -0.041603632 0.047735747 -0.035211988 0.015570388 0.017355584 -0.046831463 0.0036584886 -0.024336414 -0.024454203 0.034174047 -0.030231467 -0.08212241 -0.033397693 -0.036631282 -0.006711262 -0.06447575 -0.035248447 -0.008732294 0.004863604
fake 0.005500657 -0.03431609 0.00043364734 0.06422161 0.030377973 0.013659578 0.03188767 -0.014784755 -0.015460064 0.08487444 0.031211717 -0.009886393 -0.034502327 -0.05597548 0.09241629 0.0587087 -0.050611813 -0.022860777 -0.0364446 0.056066144 -0.0050047273 0.056926616 -0.029897325 -0.10077854 -0.06748326 0.066057116 -0.04344494 -0.0056441273 -0.030881427 -0.02977774 0.024998248 -0.021714851 -0.026590498 0.044648156 -0.029640839 0.05277427 0.055753957 -0.025589835 0.018360537 -0.0051756008 -0.05454714 -0.0016931886 -0.03064668 -0.02276309 0.039735675 0.029774042 -0.08991665 -0.015898578 -0.028812362 0.018925544 0.009804376 0.042181987 0.042215753 -0.02052861 -0.04589266 -0.021036176 0.08272113 0.0049210414 -0.010480552 -0.0378756 -0.0497777 0.021294873 0.08262585 0.008253298 0.052827287 -0.032412905 0.0028974072 0.015564412 0.022721224 -0.054822255 -0.008811011 -0.03186187 -0.081920125 -0.013827231 0.022184264 -0.028502287 -0.05971333 -0.0030159268 -0.022264445 0.046776857 -0.0231429 -0.028561719 -0.0016826472 0.1052898 0.049614172 0.06933791 0.06812415 -0.020686125 0.042776354 0.03335245 -0.016149271 -0.0002881737 0.07812693 -0.0013577298 0.029725745 0.044880632 -0.044852607 -0.050898716 -0.02184468 -0.041574486 -0.02568686 0.018985732 -0.0194895 0.039264917 0.024830244 -0.01559131 -0.008064765 0.049613908 0.059417397 -0.040865716 0.03746834 -0.04543047 0.004206955 0.02449508 -0.039067686 -0.0011950042 -0.022173405 -0.028456297 0.025401302 -0.026587857 -0.07712223 -0.020995574 -0.02831679 -0.020725321 -0.0547348 -0.02343428 -0.010079063 -0.001822839
love -0.002041721 -0.021788912 0.0012681927 0.041136153 0.03385586 0.009363144 0.03146766 -0.015346849 -0.012063467 0.050291874 0.033552308 -0.010241031 -0.03567984 -0.046930328 0.06766324 0.041662302 -0.040349614 -0.020757625 -0.034843974 0.031357445 -0.015426926 0.044562925 -0.009115987 -0.084444724 -0.055769317 0.04530662 -0.035268456 -0.0021151623 -0.02074083 -0.026753135 0.022799574 -0.019762797 -0.020652518 0.03863722 -0.03005689 0.047584765 0.047261264 -0.012858744 0.014191574 -0.0066007082 -0.033281595 0.002960577 -0.017781995 -0.012174337 0.034204427 0.028737199 -0.057006422 -0.018974913 -0.028099671 0.015357065 0.006038062 0.03478187 0.02400827 -0.0190495 -0.05053142 -0.007468453 0.06742965 0.00029226788 -0.008892341 -0.031484235 -0.03899187 0.00921511 0.061149627 -0.0022232616 0.046488106 -0.0218833 -0.0048826784 0.0027170584 0.016740259 -0.048870984 -0.00081642374 -0.030895503 -0.07687756 -0.014890009 0.016590899 -0.03563659 -0.056154687 -0.00471363 -0.016541567 0.038241368 -0.012587753 -0.012364801 0.0103085255 0.07604591 0.03882869 0.05775154 0.050953574 -0.019391999 0.037676837 0.030277938 -0.012448291 -0.0045329537 0.060707543 -0.0033267047 0.029196437 0.024828559 -0.028584529 -0.03185887 -0.02509427 -0.032705728 -0.02549537 0.014968623 -0.028076837 0.016209783 0.023714565 -0.018350342 -0.010135955 0.037540093 0.036709312 -0.03998514 0.039225224 -0.027929684 0.014325251 0.013167406 -0.023805255 -0.010101005 -0.008138577 -0.020981207 0.021254143 -0.026808256 -0.061449897 -0.024207925 -0.0312003 -0.00087571645 -0.038683135 -0.021054106 -0.015455951 0.007759003
disorder 0.011639233 -0.040082045 0.012254385 0.06146542 0.047382932 0.015043841 0.0382072 -0.015535812 -0.020070346 0.09605686 0.043945197 -0.012219566 -0.036234275 -0.06169797 0.09899023 0.06972293 -0.06370865 -0.014489202 -0.038447283 0.060035933 -0.010525214 0.069886826 -0.022235228 -0.120789066 -0.07398818 0.07908072 -0.05247097 0.0061535724 -0.027944071 -0.035816967 0.03157887 -0.014550105 -0.025125107 0.04176139 -0.03941953 0.05851463 0.068124995 -0.023302652 0.013478571 -0.009654583 -0.05220668 0.009577227 -0.03536192 -0.00627159 0.04255815 0.03625262 -0.1002923 -0.019727288 -0.041838676 0.009461732 0.01740728 0.05560627 0.049942303 -0.026029298 -0.05166882 -0.021766841 0.09272393 -0.0015611112 -0.010793339 -0.031554837 -0.06324579 0.010999635 0.08844747 -0.005751882 0.05405936 -0.033247765 -0.0057098167 0.0053921565 0.01380706 -0.057243407 -0.0047777197 -0.039912492 -0.10365255 -0.024514379 0.032212965 -0.047996048 -0.080072895 -0.0050207996 -0.021875711 0.051466655 -0.019500034 -0.02955029 0.0007400802 0.11014156 0.06796844 0.073361695 0.07266682 -0.04034125 0.05286809 0.04317738 -0.028536374 0.0047755092 0.09831687 -0.004260038 0.046840265 0.042744663 -0.04308903 -0.055474773 -0.029301653 -0.03964922 -0.036764238 0.009310659 -0.02719618 0.029998839 0.01902187 -0.01896136 -0.010355035 0.059363894 0.05035478 -0.05354062 0.051191244 -0.045959793 0.020953188 0.011699147 -0.035956193 0.0011985836 -0.018469432 -0.019103339 0.022212062 -0.01961394 -0.08096376 -0.022923537 -0.044112273 -0.018752454 -0.055130385 -0.037575677 -0.017151874 -0.004180789
real 0.008762482 -0.036108747 0.010923987 0.060222425 0.04415278 0.013021429 0.03748976 -0.011625968 -0.017731607 0.0848516 0.03562066 -0.018749988 -0.04243379 -0.06395973 0.104584865 0.055758 -0.065662384 -0.014538898 -0.04445554 0.052598152 -0.0062158015 0.06294074 -0.022003973 -0.12017067 -0.081223525 0.07612607 -0.050496146 0.007939438 -0.027541101 -0.030938389 0.020570522 -0.019646186 -0.025047095 0.048202697 -0.03628174 0.065412335 0.060664885 -0.022523591 0.016383 -0.011949231 -0.057394546 0.0093696695 -0.03579822 -0.013882233 0.04525457 0.040260874 -0.08877025 -0.03067622 -0.039261006 0.013381229 0.010717788 0.050521914 0.04497206 -0.029210644 -0.05336959 -0.010375115 0.08165105 0.009699572 -0.008931788 -0.038377754 -0.062229738 0.025351755 0.088019006 0.0027287204 0.06583687 -0.03336756 -0.0027255025 0.003960532 0.027342143 -0.06880865 -0.01045014 -0.03612038 -0.10565077 -0.025869794 0.028040627 -0.040605105 -0.074895 -0.00076359016 -0.02880752 0.052403066 -0.020534456 -0.026831735 0.009656272 0.10791993 0.069151774 0.06767963 0.07633146 -0.04325942 0.05551198 0.028604748 -0.02602114 -0.0001942422 0.0911313 0.0003032141 0.04231763 0.04870878 -0.05819051 -0.05648681 -0.03537662 -0.04612687 -0.036221165 0.012662993 -0.025065765 0.03858668 0.020179085 -0.015464219 -0.015507904 0.050308716 0.058160856 -0.04945383 0.044886146 -0.048115775 0.012509484 0.026160024 -0.049015637 0.0066371663 -0.020175647 -0.023615675 0.03675397 -0.024037048 -0.08888007 -0.02693488 -0.03933237 -0.008126084 -0.059164293 -0.038858995 -0.014206689 -0.0015781189
dsm 0.0055031967 -0.040929712 0.008682329 0.058505386 0.033397432 0.0054767565 0.038546838 -0.013751511 -0.021869404 0.07920474 0.032294296 -0.014303906 -0.040973283 -0.06339138 0.07455694 0.05321568 -0.04926793 -0.020585323 -0.038755525 0.044787355 -0.004675579 0.061582476 -0.027283316 -0.103129834 -0.062754266 0.06757402 -0.051826887 0.0011668776 -0.026098786 -0.021781929 0.025901463 -0.015065739 -0.013071152 0.039485432 -0.026413124 0.049493887 0.062543795 -0.022275906 0.0063790167 -0.0010656371 -0.046537887 -0.005126977 -0.033450462 -0.013007172 0.028531479 0.019469747 -0.08045042 -0.029910496 -0.035347387 0.004225314 0.013336658 0.051166642 0.033258725 -0.033925556 -0.046655443 -0.017566368 0.07854581 0.006968132 -0.009474818 -0.034634206 -0.05581366 0.017567335 0.07200084 0.0032258912 0.042705286 -0.023530286 -0.0053445417 0.005189328 0.023132438 -0.060524397 -0.0071293856 -0.030454718 -0.07635287 -0.021530632 0.022146303 -0.026981175 -0.059662625 -0.0017848267 -0.017082497 0.042086877 -0.01734482 -0.025466107 0.005301809 0.09167912 0.05777844 0.054835796 0.06474006 -0.030000819 0.040436316 0.024087867 -0.016299548 -0.00049891527 0.08097958 0.0068073324 0.037525803 0.032950502 -0.04654437 -0.048770394 -0.022769716 -0.038426295 -0.028182933 0.017020606 -0.030729448 0.031826317 0.026023999 -0.0076839533 -0.0032198422 0.050806575 0.05014855 -0.04707583 0.03851372 -0.043623272 0.008691486 0.021086715 -0.036020678 0.0021898332 -0.022541946 -0.015662499 0.029893376 -0.017393779 -0.06986506 -0.024889302 -0.037922308 -0.009387823 -0.050758164 -0.02592475 -0.00767512 -0.0036380787
fuck 0.0023894096 -0.023751855 0.0044119232 0.046631224 0.019371802 0.006438251 0.024204995 -0.017114732 -0.009624458 0.06063951 0.021085309 -0.0004167356 -0.031080863 -0.042960115 0.057432193 0.04485374 -0.029580751 -0.0065103546 -0.028164087 0.027816137 -0.010395117 0.04752772 -0.0145015465 -0.083789006 -0.051542338 0.046229523 -0.039545488 -0.0010011469 -0.015341421 -0.018338326 0.018072259 -0.0047779917 -0.013341827 0.03587243 -0.012616676 0.043126613 0.046568323 -0.011822795 0.0014680867 -0.0013301863 -0.031042093 -0.0037422956 -0.026781915 -0.0026360431 0.023081481 0.018358598 -0.058680583 -0.01583662 -0.024882087 0.0025074738 0.0106061185 0.036449865 0.034239676 -0.01955985 -0.0353154 -0.009157609 0.04463734 0.0063310005 -0.00051217503 -0.022213364 -0.04242037 0.0067728716 0.055131905 -0.001803583 0.04193369 -0.024258405 -0.0027808638 0.00060316955 0.006659329 -0.046354037 -0.00015099584 -0.029186357 -0.06182179 -0.016312825 0.01192331 -0.023138003 -0.04531781 0.0031738563 -0.014435022 0.027245203 -0.022669395 -0.015243473 -0.00080815225 0.07344068 0.045085993 0.04308596 0.04869027 -0.022163473 0.042266827 0.029300924 -0.015005234 0.0071528885 0.053376045 -0.0042823744 0.033260003 0.030338643 -0.023908515 -0.034175567 -0.017789215 -0.027815944 -0.0144930445 0.013600299 -0.017469151 0.015882742 0.020933473 -0.010731963 0.0013437914 0.032770574 0.036031976 -0.028298454 0.035751995 -0.027313154 0.007265937 0.0027913773 -0.023738122 0.0064363983 -0.015905516 -0.016044632 0.01429627 -0.017734176 -0.045864414 -0.025701871 -0.018034294 -0.016129816 -0.043541554 -0.015152216 -0.013561065 0.0018953739
welcome 0.009966666 -0.026696095 0.001791115 0.03619945 0.022711983 0.00833596 0.027208183 -0.019857233 -0.0151568595 0.049259305 0.03599453 -0.0101036895 -0.032836154 -0.047012303 0.059546575 0.038255055 -0.044043705 -0.0121609215 -0.029742055 0.04184214 -0.010852037 0.03898288 -0.018730674 -0.088888116 -0.054177232 0.056514658 -0.04637093 -0.0052860486 -0.018621767 -0.014977562 0.0082474295 -0.016271992 -0.011744544 0.03239523 -0.018233864 0.052094117 0.040864613 -0.01715788 0.004811102 -0.010140035 -0.036923748 -0.0048171543 -0.023115372 -0.008022114 0.031815205 0.02013934 -0.07032366 -0.018059123 -0.022639973 0.014321982 0.012729314 0.04098745 0.033999465 -0.025807487 -0.040751796 -0.014768371 0.06522747 -0.004196945 0.007050928 -0.031247359 -0.047132436 0.006773586 0.053676125 -0.0026671735 0.02933964 -0.025223637 0.003688633 0.006385826 0.009671701 -0.0460861 -0.001464875 -0.031951662 -0.06044727 -0.01562564 0.028308626 -0.019375725 -0.04082159 -0.0076198224 -0.020202411 0.027386073 -0.026630862 -0.012087569 -0.0011561485 0.07886036 0.033264976 0.05233696 0.054453894 -0.028963111 0.038289778 0.028015846 -0.01803868 0.0033413616 0.058902185 0.0003946735 0.02280803 0.039239254 -0.038116466 -0.025842141 -0.016701553 -0.035923984 -0.02449822 0.0041563776 -0.016817138 0.025295595 0.019560045 -0.013415647 -0.016191568 0.032336764 0.033392962 -0.038859874 0.03753775 -0.02020472 0.01689574 0.006748138 -0.019433321 -0.005866826 -0.0066515524 -0.020158932 0.019767415 -0.020641765 -0.057945754 -0.019732272 -0.021915946 -0.010074822 -0.03764722 -0.021086799 -0.0061404863 0.005454936
even 0.008350044 -0.029673994 0.008212978 0.03894077 0.032613367 0.012503883 0.025570244 -0.0041855983 -0.021144431 0.06278124 0.027004711 -0.01080025 -0.032201473 -0.05244003 0.062587045 0.042744942 -0.031202221 -0.0049713436 -0.033128023 0.043248516 -0.014623297 0.047098253 -0.010017808 -0.08126414 -0.05415873 0.04043867 -0.03482144 0.0006593343 -0.026784003 -0.0197853 0.017805504 -0.008722135 -0.010208462 0.03347629 -0.030440876 0.047054444 0.046951342 -0.026910156 0.0068560713 -0.007601111 -0.034726586 -6.8896836e-05 -0.023529015 -0.010375709 0.03426853 0.021196706 -0.060409557 -0.015043043 -0.030122869 0.0029717004 0.020016996 0.025396923 0.025780724 -0.023166593 -0.046445366 -0.008512661 0.0629259 0.0014781436 0.005713998 -0.023114227 -0.044713113 0.010773972 0.053234287 0.0035168023 0.042467028 -0.015434123 -0.004680043 0.0014635691 0.018815594 -0.039635368 -0.0018824665 -0.025693292 -0.061682034 -0.022680247 0.026761513 -0.034558818 -0.05053405 0.0028648933 -0.023248777 0.035077743 -0.024075331 -0.02306651 0.0076500797 0.07325158 0.03975467 0.05289776 0.043156262 -0.021086555 0.04372108 0.024470467 -0.020811228 0.003042946 0.0543273 -0.0018718838 0.027937403 0.03763853 -0.024594232 -0.035793316 -0.01643312 -0.0321585 -0.011318114 0.002476427 -0.026406206 0.019984286 0.012837402 -0.012807654 -0.0074316547 0.03679662 0.02785256 -0.03815079 0.027669761 -0.027301311 0.014031562 0.012696754 -0.019121349 -0.0041947127 -0.0056784796 -0.010598812 0.025056232 -0.01947951 -0.05570046 -0.01723129 -0.034752447 -0.00037427578 -0.040353846 -0.014410323 -0.007820383 0.003890663
restrict 0.0006829654 -0.034833163 0.006397628 0.04351376 0.017823817 0.0067379978 0.022607848 -0.0154162375 -0.010789438 0.05577818 0.029322175 -0.013161928 -0.033235468 -0.04091288 0.06769586 0.044220176 -0.03110651 -0.018369332 -0.018913569 0.029394088 -0.014727689 0.049797416 -0.018174747 -0.08556591 -0.04850329 0.050790463 -0.03758871 0.0046234536 -0.019319214 -0.017638506 0.016891455 -0.019923003 -0.017658804 0.038383868 -0.020357039 0.036858514 0.04784592 -0.014236078 0.014945175 -0.008019683 -0.041279025 -0.0022271255 -0.014775864 -0.015303085 0.038414214 0.013308098 -0.066289835 -0.020551909 -0.021059625 0.002823887 0.02009155 0.024124553 0.029496623 -0.01924691 -0.03930174 -0.0010714045 0.058932174 0.003310362 0.0035525009 -0.017688941 -0.036359426 0.018998014 0.05092589 -0.009673489 0.031600874 -0.022656761 -0.0064373924 0.0055319797 0.020215997 -0.0446298 -0.0016991957 -0.02217381 -0.066604204 -0.01398616 0.02359818 -0.03245448 -0.043503433 0.004954289 -0.017783301 0.024217257 -0.02563513 -0.024828648 0.009345676 0.07373233 0.046913262 0.04463484 0.047111694 -0.017439809 0.02730581 0.013753544 -0.010644848 -0.0067351414 0.05439989 -0.0075310897 0.029875748 0.028025528 -0.020279996 -0.031075217 -0.027560413 -0.030238282 -0.016085874 0.003701951 -0.012558977 0.028055644 0.023295378 -0.016287064 -0.012043069 0.036199126 0.034515128 -0.03760765 0.038499124 -0.020301849 0.0065142987 0.014201888 -0.02208425 0.00021807075 -0.004969095 -0.015951363 0.011561806 -0.020467488 -0.060340576 -0.009615346 -0.032566745 -0.00790692 -0.04021879 -0.016404761 -0.004074069 -0.006453155
get -0.0036512795 -0.021418286 0.0008861941 0.04962762 0.036367346 0.013460776 0.0345365 -0.0070859725 -0.015156456 0.0668629 0.036238484 -0.01463814 -0.039227944 -0.047813226 0.06293946 0.044290975 -0.045497105 -0.011733925 -0.031532135 0.043731794 -0.00090085313 0.04600629 -0.014297453 -0.0921056 -0.052253917 0.056483336 -0.046199463 0.003253725 -0.013404725 -0.029029578 0.013390751 -0.019287009 -0.010797068 0.03957458 -0.023000337 0.052600306 0.05547774 -0.021390367 0.0013410165 -0.006872529 -0.0315285 -0.0014525614 -0.018367484 -0.01653746 0.033933982 0.028724642 -0.06330358 -0.026806932 -0.027723908 0.007767997 0.020936089 0.044879954 0.026201839 -0.029942445 -0.040983196 -0.018308008 0.057306986 -0.0011569643 -0.010900399 -0.032369405 -0.051099956 0.016190164 0.05573723 -0.0039283005 0.038785227 -0.02494591 -0.006247725 0.014022419 0.009663912 -0.05403793 -0.01421603 -0.03344669 -0.08068483 -0.020241246 0.017615216 -0.029474204 -0.04974358 -0.0040792166 -0.012854866 0.030313699 -0.0107595725 -0.01901793 -0.0015462171 0.08024014 0.052387238 0.04817601 0.049418803 -0.025822038 0.048386786 0.025526961 -0.0136351995 0.004877581 0.07364433 -0.005754495 0.030419506 0.033425026 -0.033299215 -0.04156492 -0.02451258 -0.032493666 -0.017834822 0.0027326953 -0.01816739 0.021462383 0.02576998 -0.018369494 -0.010235703 0.04532217 0.035776295 -0.03937912 0.044264473 -0.036910765 0.0034064765 0.011808246 -0.032767106 -0.002132206 -0.019770458 -0.025760124 0.02198105 -0.01497525 -0.064575344 -0.012530321 -0.029312633 -0.011601953 -0.04148297 -0.02951088 -0.017451018 -0.0013844263
without 0.0038236051 -0.020907167 0.008433029 0.035511956 0.035290383 0.0010058236 0.0320996 -0.009848267 -0.016040958 0.050726473 0.03379785 -0.013370163 -0.019013057 -0.048580892 0.06819723 0.038586292 -0.028359536 -0.015419825 -0.021426132 0.04237987 -0.0047655213 0.043424617 -0.011470598 -0.06818047 -0.040395774 0.054825198 -0.0283864 0.0073513277 -0.011125467 -0.021139193 0.014062711 -0.009601912 -0.011643108 0.029007446 -0.029359706 0.034397766 0.039733663 -0.012371181 0.0060081263 -0.012474068 -0.029226048 0.0028544702 -0.016968276 -0.006820844 0.03152962 0.02591935 -0.05711056 -0.017069055 -0.017222324 0.0107735675 0.007557392 0.037898116 0.032406773 -0.019248737 -0.04056699 -0.0089374855 0.059530746 0.009187153 -0.0022553229 -0.030502582 -0.03790991 0.012783942 0.05492616 -0.007400094 0.045439046 -0.027311256 0.0055110822 -0.00283306 0.021099266 -0.034127496 -0.003120104 -0.027311435 -0.064462 -0.013061401 0.013888319 -0.02061287 -0.04622921 0.00028636665 -0.021515436 0.038162608 -0.016908692 -0.017566497 -0.003451161 0.072106615 0.04542965 0.051712148 0.03912516 -0.028418738 0.03104152 0.020551054 -0.021630565 -0.004279984 0.056307033 -0.00035467686 0.01611324 0.028335175 -0.031425547 -0.026833326 -0.02040266 -0.027810534 -0.024517199 0.0024817043 -0.019540893 0.02723864 0.021671727 -0.01159069 -0.005263531 0.027715476 0.03512976 -0.03352204 0.034928173 -0.028531378 0.0045942822 0.005752065 -0.028031474 -0.005780671 -0.014109426 -0.018566767 0.016791357 -0.019119417 -0.06046569 -0.018613903 -0.024104672 -0.011406203 -0.042304795 -0.024907576 -0.015935011 0.0006741186
feeling -0.0024477942 -0.032172862 -0.00037669163 0.047666326 0.028466297 0.017804557 0.031080978 -0.008542809 -0.013084827 0.062286124 0.026568584 -0.001786025 -0.026523912 -0.05948011 0.07854312 0.05422389 -0.03486425 -0.021578267 -0.0318231 0.04321573 -0.0056502563 0.049439184 -0.023525432 -0.08566908 -0.050125085 0.05542539 -0.047257736 -0.002830224 -0.02707788 -0.022814302 0.018354276 -0.016601754 -0.02456847 0.03479142 -0.019587768 0.054697946 0.05355172 -0.02675503 0.017867189 -0.0071846424 -0.03963935 0.006299173 -0.028184315 -0.008032349 0.043710675 0.027792275 -0.06818554 -0.016150441 -0.031936593 0.003904006 0.016236505 0.038935732 0.027153565 -0.022942128 -0.040740594 -0.018500278 0.06739046 0.009381159 -0.009822248 -0.024369432 -0.0524656 0.006853321 0.06954021 -0.007360503 0.041072514 -0.03154377 -0.005945054 0.002097898 0.016346168 -0.047269575 -0.012879467 -0.036736567 -0.079503655 -0.017947404 0.017360132 -0.03553826 -0.052523293 -0.001070951 -0.01270561 0.040666644 -0.021561058 -0.018673621 0.012860463 0.08467664 0.0504778 0.05589502 0.04746624 -0.019351605 0.04711263 0.026239654 -0.00968994 -0.0036007382 0.07105616 -0.00952509 0.02209161 0.038263734 -0.031547733 -0.033143744 -0.03361777 -0.028815413 -0.018299133 0.013403609 -0.022645973 0.030187251 0.027890842 -0.020012854 -0.016466798 0.049345013 0.04270237 -0.046311013 0.034511797 -0.030747686 0.017269658 0.013710966 -0.03231125 -0.0063618277 -0.019774107 -0.01658665 0.019331582 -0.029008098 -0.06324429 -0.028404739 -0.032523908 -0.005320436 -0.044240214 -0.017599165 -0.0047302037 -0.0007532889
full 0.0059619276 -0.023623327 0.012850638 0.05076487 0.032247685 0.015037908 0.03139702 -0.011910765 -0.019556727 0.06395753 0.028229065 -0.012452188 -0.029800123 -0.050885342 0.072743654 0.044929992 -0.034405135 -0.007376253 -0.020447157 0.033423066 -0.012518586 0.042704705 -0.01971404 -0.08985017 -0.04964202 0.04274655 -0.029547002 -0.001005097 -0.024514293 -0.029855924 0.013617968 -0.020509545 -0.013882345 0.036368474 -0.025184045 0.049934257 0.04320193 -0.02775996 0.0062086782 -0.010494591 -0.040827077 -0.007077035 -0.023029052 -0.012702628 0.035924193 0.016914299 -0.06727829 -0.016460715 -0.029245887 0.01167831 0.012260533 0.03708891 0.03438737 -0.029033015 -0.037490245 -0.0066328538 0.05824189 0.007870578 -0.0059593753 -0.028316706 -0.047538 0.019698037 0.048377138 -0.0043266397 0.036405005 -0.02539533 0.007958931 0.0024007203 0.007628147 -0.03503915 -0.013220301 -0.018612014 -0.07298995 -0.010952472 0.019297816 -0.032295827 -0.05543973 -0.0071087773 -0.010458643 0.038192008 -0.019483998 -0.01276266 0.009114635 0.07733232 0.045939855 0.040449593 0.056966368 -0.028846271 0.03591117 0.02533518 -0.011628802 -0.0073971553 0.062198184 0.0032349452 0.019579705 0.039798647 -0.03563801 -0.025496453 -0.030101303 -0.023122441 -0.010135274 0.0010808094 -0.020161249 0.015690636 0.02545264 -0.003832156 -0.012617935 0.039355535 0.03596407 -0.040365018 0.034804262 -0.03627876 0.011969779 0.006649742 -0.023214625 0.0052856677 -0.01352749 -0.018827558 0.0103394175 -0.016951649 -0.054127105 -0.011834304 -0.02469956 -0.010160362 -0.037348323 -0.013959679 -0.0032350502 0.0075248755
sometimes -0.004570469 -0.025982844 -0.0017778144 0.031057233 0.026098223 0.004752436 0.023702722 -0.0078022704 -0.017998453 0.045656275 0.020917593 -0.015766734 -0.033588935 -0.038806107 0.0601114 0.035685774 -0.036894552 -0.0076949317 -0.022215871 0.02270115 -0.0018258297 0.046344128 -0.020238733 -0.06899046 -0.035642326 0.03829313 -0.030948674 -0.0031512713 -0.011369928 -0.013428176 0.015494043 -0.01520272 -0.013764831 0.023426974 -0.028373538 0.043986008 0.037268855 -0.017193506 0.014923269 -0.014376422 -0.02443715 -0.0053259796 -0.019738724 -0.004222999 0.023523586 0.017492836 -0.05799715 -0.01784082 -0.024911793 0.0051486376 0.018068973 0.037433498 0.023401013 -0.019552097 -0.039966367 -0.0015014969 0.045874666 0.006915063 0.0071592918 -0.015769107 -0.03467992 0.015559371 0.051812597 -0.00469942 0.0333992 -0.011995006 0.0046218415 0.006629655 0.015012162 -0.042946324 -0.012889819 -0.027313242 -0.063921615 -0.013393644 0.013552177 -0.024343641 -0.036628988 0.0066283303 -0.007497182 0.03065152 -0.017293442 -0.013740653 0.0028439916 0.055365622 0.040733647 0.03431676 0.04582218 -0.021704182 0.027009005 0.01940612 -0.019636028 0.00783555 0.045220986 -0.010726659 0.027763579 0.029976012 -0.021807713 -0.026171206 -0.024411686 -0.029447071 -0.014763403 0.014654702 -0.021886582 0.017253298 0.017975558 -0.003562069 -0.011394078 0.028445985 0.028881907 -0.027209885 0.03386582 -0.018368531 0.001924105 0.017259039 -0.026281085 -0.004942943 -0.018008564 -0.018783355 0.023723748 -0.014767609 -0.05630165 -0.013481232 -0.029924273 -0.014218553 -0.029784583 -0.01654911 -0.007163199 0.008676473
community -0.0047912644 -0.023634033 0.0012820025 0.041676294 0.035109594 0.0073773568 0.033646017 -0.007382004 -0.015484841 0.060411762 0.029971635 -0.002171524 -0.030108929 -0.055852983 0.0716771 0.036059227 -0.03407969 -0.02049952 -0.027879106 0.033530835 -0.0127145015 0.04292765 -0.02171765 -0.096214816 -0.057341103 0.05313208 -0.038734682 -0.0032298453 -0.027935864 -0.025849868 0.022347996 -0.009350718 -0.016350236 0.03464209 -0.025469465 0.057817366 0.051866475 -0.01698544 0.01069985 -0.007918805 -0.038588982 -0.004736512 -0.025786087 -0.006862742 0.02961587 0.031704623 -0.07170176 -0.016928082 -0.031279594 0.011527781 0.01818328 0.032373056 0.038157023 -0.032982804 -0.04939148 -0.01898959 0.06719475 -0.0021910807 0.00018281139 -0.024966482 -0.04242015 0.018969784 0.0666687 -0.010073923 0.043986697 -0.023256667 0.0049191047 0.0022971064 0.01338749 -0.0395185 -0.0018333684 -0.028360307 -0.072718605 -0.022479009 0.026576905 -0.03013514 -0.0525291 -0.0026888156 -0.015628446 0.03412481 -0.015113904 -0.013941417 0.0009863218 0.08378232 0.04535365 0.0564403 0.059496604 -0.02597443 0.03527348 0.03357992 -0.017230202 -0.004491321 0.0756616 0.002325287 0.028319895 0.03464657 -0.035978146 -0.035060443 -0.032930847 -0.024340814 -0.02404812 0.0068313414 -0.028979324 0.0141444765 0.014316948 -0.018390445 -0.013832572 0.045094874 0.035370126 -0.032583702 0.042314798 -0.03763966 0.015569862 0.008878152 -0.026827443 0.0021715052 -0.020783966 -0.019714888 0.011973589 -0.020264884 -0.06252852 -0.02382612 -0.037637115 -0.004550955 -0.039371885 -0.018106403 -0.0086477855 -0.005686511
making 0.0063834707 -0.029724263 -0.0016156683 0.03712552 0.020188319 0.01886087 0.02230336 -0.010716975 -0.022408275 0.05148832 0.023646014 -0.0053558 -0.024301516 -0.040550776 0.073185764 0.0425321 -0.02926007 -0.0061766887 -0.025037069 0.037666995 -0.012996901 0.04231572 -0.010903794 -0.08606266 -0.046360496 0.042601407 -0.028404295 0.0010639217 -0.017479924 -0.027768098 0.023032798 -0.018592112 -0.018078638 0.03729325 -0.024805384 0.04339205 0.04877171 -0.015830683 0.013660573 -0.0018273279 -0.029608184 -0.006156129 -0.014796274 -0.0030652073 0.026725888 0.023000328 -0.0645005 -0.019548502 -0.01945127 0.009075613 0.014175355 0.028653199 0.032751214 -0.023873506 -0.044594325 -0.009203026 0.06574132 -0.0037628156 -0.000369888 -0.025837528 -0.046263076 0.00984826 0.047568835 0.0039416538 0.03469025 -0.025081985 0.0021557256 0.01104776 0.023337422 -0.04966441 -0.0056795888 -0.026709992 -0.07078669 -0.015092507 0.025933556 -0.028681852 -0.040947624 -0.003299725 -0.01620243 0.039143313 -0.01159593 -0.017300379 0.004487576 0.07814756 0.038593262 0.051697068 0.04898043 -0.027252482 0.043455638 0.021396456 -0.013075512 -0.0046069655 0.062337976 0.0032886243 0.030129047 0.024492122 -0.037219338 -0.027206568 -0.021037444 -0.026069375 -0.023494609 0.0066096177 -0.028123017 0.021992018 0.015449189 -0.010690699 -0.0028149886 0.040492598 0.031156633 -0.030776788 0.027495885 -0.031767584 0.011846074 0.018920038 -0.03370515 0.0010195354 -0.0044612405 -0.0081678 0.023697011 -0.026430987 -0.053235732 -0.011076895 -0.022970563 -0.0076660607 -0.04076331 -0.018990507 -0.007202367 0.010566145
back 0.009366586 -0.0353868 0.004866281 0.038688008 0.03352889 0.004394039 0.022710703 -0.0066591147 -0.020080527 0.06543556 0.025953295 -0.011977304 -0.030881172 -0.052489325 0.061840907 0.049213924 -0.03762493 -0.012558465 -0.025210587 0.04493252 -0.008649364 0.044810202 -0.013274186 -0.078127995 -0.056632802 0.052512195 -0.033807028 0.00830364 -0.027135218 -0.024990046 0.014263895 -0.012062029 -0.018918764 0.030218257 -0.020142997 0.043965187 0.047153883 -0.018201102 0.013126831 -0.012524858 -0.027686862 0.0069391653 -0.025206039 -0.016594972 0.03522481 0.023571182 -0.063028075 -0.016729148 -0.031371385 0.009196019 0.017147308 0.028232243 0.026857724 -0.027123896 -0.038284186 -0.01737124 0.06270583 -0.0011290112 -0.008173596 -0.030941622 -0.040637575 0.00908195 0.049558546 0.0050102617 0.03720763 -0.025963183 0.005244829 0.0129696885 0.011577306 -0.051219918 -0.0073551014 -0.032508288 -0.06558414 -0.0109903645 0.014078648 -0.03262751 -0.058684763 0.001596542 -0.017555943 0.025104644 -0.009621232 -0.0127336485 0.007179004 0.071638584 0.038449235 0.052221242 0.04435141 -0.025361195 0.04163421 0.024541356 -0.019218221 0.006998372 0.061918903 -0.0079216845 0.024289409 0.038672805 -0.029194554 -0.034453332 -0.021235762 -0.0284673 -0.02415609 0.015776645 -0.02876139 0.030403048 0.021098599 -0.01621987 -0.005108991 0.04392131 0.041934848 -0.024848448 0.034131546 -0.03401336 0.0027024539 0.020306425 -0.027243631 0.0073327986 -0.0076664905 -0.011696836 0.016075285 -0.015166931 -0.06131776 -0.024703523 -0.03386739 -0.010276544 -0.04566732 -0.023997182 -0.010495755 0.0011178264
ever 0.006647368 -0.02525209 0.0059188567 0.044916987 0.022807812 0.013714197 0.038117677 -0.013426436 -0.018903516 0.06445644 0.028112317 -0.015188589 -0.026161399 -0.044590753 0.06494514 0.04472093 -0.04109678 -0.020653777 -0.03099453 0.03929509 -0.014815266 0.051827744 -0.012340769 -0.08474781 -0.050097782 0.05589886 -0.04664325 -0.00786951 -0.017761843 -0.02759461 0.019504156 -0.0126561355 -0.018093968 0.034252495 -0.026376562 0.038949765 0.046667673 -0.029674824 0.016488865 -0.0009736383 -0.04499308 1.4437904e-05 -0.025137808 -0.006337116 0.03428542 0.020938896 -0.07228043 -0.025707893 -0.029219916 0.004473428 0.020119375 0.02976501 0.025245903 -0.02751422 -0.05159973 -0.01787338 0.064269796 0.007266085 -0.005636085 -0.034567975 -0.050072808 0.016337778 0.067897804 0.0025661027 0.048070762 -0.024606448 -0.0023102995 0.0057167932 0.011804887 -0.0525438 -0.004998656 -0.031385973 -0.078176014 -0.010954823 0.023155134 -0.0336761 -0.049991563 -0.003151832 -0.019514423 0.0397087 -0.027892817 -0.011883897 0.012586741 0.0699302 0.041759994 0.052963708 0.04379473 -0.031070504 0.03519082 0.031520408 -0.016636925 0.010392607 0.070438415 -0.009588586 0.02838197 0.028928064 -0.041865233 -0.036475345 -0.01847376 -0.024246057 -0.013607428 0.010999068 -0.03038784 0.019885179 0.019577917 -0.009419455 -0.010674616 0.04640772 0.04606227 -0.028132623 0.037194885 -0.036471613 0.007835065 0.018888025 -0.037255302 0.0029221212 -0.008424217 -0.016747046 0.026930721 -0.020228975 -0.05801968 -0.019423554 -0.037499588 -0.008694933 -0.043953642 -0.022120614 -0.012066663 0.008636455
every 0.011126848 -0.038025554 0.007477656 0.060597617 0.038046215 0.017515335 0.029751034 -0.006694678 -0.021274334 0.07182126 0.040598344 -0.0026993612 -0.041444305 -0.058777872 0.088684596 0.05259727 -0.048930254 -0.009680907 -0.029519927 0.042428434 -0.012185492 0.06506963 -0.022193072 -0.112108864 -0.06515064 0.059496332 -0.04741626 0.0013322615 -0.028382774 -0.034937296 0.029531555 -0.011561755 -0.015243119 0.042778704 -0.022883922 0.052968282 0.063269354 -0.028502077 0.004929833 -0.016852265 -0.04737017 0.009316701 -0.025149258 -0.020047287 0.040897183 0.026208589 -0.08525507 -0.0156752 -0.03144349 0.0121476585 0.017925926 0.04595498 0.028642626 -0.026877174 -0.046108134 -0.0124298185 0.077099346 0.00018051591 -0.001971006 -0.03867139 -0.050161216 0.018768648 0.07300938 -0.00097270147 0.051889002 -0.02531145 0.0034600787 0.015721433 0.022095755 -0.05522019 -0.009857136 -0.03886658 -0.0960274 -0.021999318 0.028401084 -0.029615268 -0.06469671 -0.0087840175 -0.016646797 0.041641418 -0.02438708 -0.016800765 0.012799791 0.09559149 0.049919996 0.065842524 0.071684286 -0.023502689 0.048109673 0.03809015 -0.0138148125 -0.0056582014 0.087086916 -0.0020557088 0.029716743 0.044825893 -0.034848683 -0.050733976 -0.024877904 -0.04116832 -0.031158712 0.014910866 -0.030986058 0.032458838 0.029366324 -0.006748311 -0.004118839 0.04240191 0.05262717 -0.049941547 0.04331475 -0.03013068 0.0077094664 0.020441998 -0.040958814 -0.006696269 -0.009295754 -0.019150004 0.030211074 -0.02206561 -0.072890684 -0.020978503 -0.042962853 -0.0062253806 -0.055166185 -0.026089452 -0.017622663 0.0038114525
specified 0.0121358875 -0.03109166 0.010008625 0.058198366 0.03595997 0.012765245 0.027188284 -0.014712291 -0.023788666 0.07513287 0.03310986 -0.0036659227 -0.041151762 -0.061987042 0.07752131 0.049198486 -0.051986374 -0.013856895 -0.038124416 0.04679479 -0.009815235 0.046025496 -0.015188468 -0.101446874 -0.06952724 0.06005308 -0.050799638 0.00015333518 -0.020398494 -0.029349547 0.019659359 -0.011046771 -0.017516263 0.040758524 -0.033589542 0.05714701 0.050297465 -0.032327995 0.018741796 -0.0010535116 -0.050079215 0.006254945 -0.028700735 -0.014909839 0.03896 0.03311211 -0.07926147 -0.019262332 -0.039555136 0.018487422 0.01883945 0.042558953 0.038327828 -0.025335137 -0.050645083 -0.014708781 0.06543566 0.001032619 -0.008403279 -0.02759259 -0.0532281 0.011939775 0.062174246 -0.0008806064 0.05484204 -0.02417382 0.0047419188 0.008357668 0.020687485 -0.05831496 -0.01394761 -0.02618003 -0.08016051 -0.01472741 0.018065074 -0.034530357 -0.06934281 -0.0015884637 -0.02152674 0.037471958 -0.028823365 -0.020029826 0.012344284 0.08838068 0.057085022 0.058242522 0.05869488 -0.03256191 0.05122441 0.030557875 -0.02348899 0.0088899555 0.07219404 -0.005051095 0.028723592 0.038950894 -0.04926714 -0.04096954 -0.031577773 -0.036181327 -0.031636674 0.0064385915 -0.031914826 0.036494236 0.018296257 -0.013185269 -0.0046907803 0.051142655 0.049766902 -0.048015896 0.03578332 -0.034901556 0.006982711 0.011616941 -0.028659433 0.0010872014 -0.009726748 -0.020936992 0.024103958 -0.027008286 -0.06823126 -0.028119868 -0.041334804 -0.002934222 -0.049088456 -0.023241349 -0.01906556 0.0015105666
enough 0.0063636852 -0.028042078 0.0018309981 0.05136292 0.0333352 0.017290808 0.02436021 -0.012531307 -0.013404752 0.061681975 0.024563508 -0.004763026 -0.034436177 -0.05157442 0.070819005 0.05551281 -0.04333923 -0.012658522 -0.031142583 0.04323785 -0.002935758 0.043436356 -0.017945869 -0.09625432 -0.04960837 0.060940776 -0.04633551 0.00070568774 -0.0274931 -0.021327706 0.027214767 -0.012172109 -0.007044212 0.031471387 -0.0237727 0.04804888 0.04350032 -0.028168123 0.0077082426 -0.012853653 -0.044645853 0.0024932753 -0.023050109 -0.019008987 0.04107915 0.026004128 -0.07992377 -0.020840786 -0.037890624 0.016424378 0.013353913 0.04580216 0.036587782 -0.030005313 -0.05331071 -0.018871024 0.07441644 0.002423589 -0.0043467707 -0.028744152 -0.054043863 0.018080313 0.05776929 0.008006893 0.037599333 -0.018988635 0.0005719225 0.0063709677 0.0141054485 -0.048568774 -0.0050628344 -0.0281904 -0.07951518 -0.011156046 0.016803473 -0.038769487 -0.063140094 0.0015410092 -0.019434799 0.03513494 -0.016424075 -0.027590033 0.0068847868 0.09259716 0.054975394 0.053514022 0.058146533 -0.022694401 0.051289137 0.024608817 -0.016161371 -0.0010195792 0.06784995 -0.0015257039 0.03216207 0.033126283 -0.034493957 -0.04237523 -0.0317931 -0.039440144 -0.013310813 0.012434563 -0.026325554 0.032255214 0.024089456 -0.02142354 -0.013474458 0.041475024 0.038485497 -0.03091645 0.04238577 -0.031535912 0.010658192 0.007883475 -0.027779695 -0.0043945173 -0.016020006 -0.023630258 0.019834628 -0.029057529 -0.061800506 -0.02738924 -0.026231399 -0.017063772 -0.050511386 -0.025716236 -0.017583568 0.007061994
change 0.004947605 -0.026714021 -0.003111113 0.040114548 0.032531414 0.0073781894 0.033768024 -0.0051066345 -0.008962242 0.060792767 0.029353255 -0.0043986733 -0.02736708 -0.040072612 0.05980135 0.036310725 -0.043746617 -0.016161157 -0.022475393 0.028764013 -0.0033377933 0.037395418 -0.021958688 -0.08055381 -0.041733604 0.05077848 -0.03408447 -0.0027870678 -0.014957372 -0.021124912 0.021590684 -0.010137205 -0.02093553 0.022120737 -0.016889354 0.047033515 0.0460757 -0.020104874 0.012268236 -0.011459608 -0.039450802 0.004704619 -0.027676847 -0.011880114 0.02069763 0.013326712 -0.067940414 -0.024478432 -0.03181048 0.009008982 0.016451621 0.03490653 0.03361613 -0.01910956 -0.03396436 -0.01560802 0.05580101 0.003563221 0.0014105996 -0.023781504 -0.042612646 0.008909322 0.061052706 0.0037831021 0.032060765 -0.017948829 -0.00052473374 0.0144587215 0.024207763 -0.04462122 -0.0022852023 -0.022270195 -0.057395503 -0.011874833 0.013377539 -0.03264335 -0.056056213 -0.008619885 -0.014668192 0.038790904 -0.022209521 -0.015395818 0.00761052 0.06795647 0.03747625 0.040908616 0.042830598 -0.026518643 0.04317882 0.026082406 -0.011856272 0.00023335828 0.055183124 -0.0011377147 0.024697756 0.038474314 -0.036161534 -0.025352683 -0.026363945 -0.018462693 -0.010344313 0.005121122 -0.018475559 0.017103812 0.009543028 -0.014571019 -0.013159703 0.03460243 0.03241974 -0.033196934 0.036610372 -0.021088166 0.016400723 0.015027325 -0.019083317 -0.0037913816 -0.0090363 -0.015239171 0.010954112 -0.010320414 -0.05892831 -0.024096305 -0.028743668 -0.013094474 -0.041134216 -0.023458505 -0.013168688 0.0024747145
struggling 0.005094681 -0.027266182 -0.00063574826 0.03242352 0.019771498 0.0054100775 0.029258963 -0.006589376 -0.018315667 0.053260338 0.031093422 0.0008225381 -0.025077097 -0.032406703 0.054571997 0.030934028 -0.034680575 -0.016568989 -0.021094147 0.039719287 0.00027696788 0.032580905 -0.022413654 -0.06533095 -0.051340573 0.038622864 -0.036488514 -0.0054735756 -0.016310044 -0.021200221 0.022602662 -0.006602102 -0.0070925904 0.032547206 -0.01993939 0.034297153 0.042461727 -0.02555197 0.003929431 -0.0011780496 -0.025948977 0.0015751616 -0.01839209 -0.0066108797 0.033056535 0.021363178 -0.054513395 -0.010591829 -0.0243241 0.016522653 0.013180547 0.03336261 0.027922913 -0.022249531 -0.030765217 -0.0151666915 0.056366485 -0.0028615077 -0.001250922 -0.018724967 -0.04330479 0.007530108 0.043523043 -0.0038940858 0.04285995 -0.020616028 0.0028292208 0.0060469364 0.017862098 -0.038934294 0.00013993956 -0.016508846 -0.053982478 -0.015704213 0.014456132 -0.021488683 -0.05140162 -0.011645302 -0.017911967 0.021636061 -0.012938264 -0.020501649 0.005659987 0.06008071 0.042351484 0.04199805 0.03985203 -0.019856347 0.031665973 0.015515004 -0.011178634 0.0039054481 0.05250597 -0.010042755 0.019692022 0.026519658 -0.021202575 -0.02415086 -0.013810797 -0.025313184 -0.024092775 0.011435198 -0.02086862 0.013646219 0.016541349 -0.0049629617 -0.013278189 0.04039664 0.038640633 -0.025895743 0.023430197 -0.017712327 0.0044701137 0.017064169 -0.024525197 0.0047249068 -0.019869922 -0.01549704 0.014072219 -0.014614205 -0.05273182 -0.020843623 -0.020667791 -0.002502872 -0.035323747 -0.027630573 -0.00056839804 0.0061051506
would 0.006573467 -0.0257678 -0.0014561182 0.053582985 0.034492128 0.015610931 0.023346309 -0.010314243 -0.018120782 0.0778804 0.03910119 -0.0138091445 -0.037245486 -0.050935615 0.07504967 0.043306023 -0.053680725 -0.020583015 -0.025858954 0.04360396 -0.0058546914 0.050093822 -0.026305432 -0.10352263 -0.06331139 0.068505384 -0.03776083 0.004992606 -0.030424431 -0.030292014 0.02638035 -0.018236246 -0.018258844 0.030060142 -0.034234017 0.05985538 0.060836732 -0.028668825 0.014855792 -0.0008525693 -0.044181384 -0.00014581556 -0.030317156 -0.004861572 0.037309643 0.031765975 -0.07302515 -0.016653933 -0.03240187 0.019705273 0.011370856 0.042088363 0.039909728 -0.029429263 -0.04181366 -0.021128107 0.06597225 0.010169587 -0.0083337575 -0.03562063 -0.048589002 0.007911564 0.063570365 0.0019572193 0.045052305 -0.03390565 0.008667015 0.002593381 0.011715485 -0.05658476 -0.00080581295 -0.036126595 -0.07527046 -0.023650823 0.021010155 -0.034034 -0.06770658 -0.0060474 -0.017670112 0.03955561 -0.015006135 -0.020508662 0.007870355 0.08566571 0.047711674 0.067024834 0.06392448 -0.03467318 0.05284796 0.026082529 -0.015779778 0.007596922 0.07789098 -0.0004879693 0.03950313 0.043380436 -0.036860406 -0.03450221 -0.032257307 -0.03596175 -0.015570641 0.009409335 -0.022561995 0.036017697 0.029191101 -0.02057863 -0.012404267 0.03930549 0.049757704 -0.03640174 0.04186963 -0.029363533 0.0073885852 0.010476341 -0.04191396 -0.006356183 -0.023874156 -0.017898632 0.017285246 -0.014943519 -0.062022846 -0.016544025 -0.030672718 -0.018658586 -0.04639271 -0.029877424 -0.015041226 0.0018205912
paper 0.008885595 -0.03777787 0.0038326266 0.06324255 0.03187551 0.01813126 0.028167486 -0.017374408 -0.024472943 0.074071646 0.046008687 -0.0067634275 -0.03639901 -0.051737294 0.07816822 0.064451486 -0.056096274 -0.0106659625 -0.035373587 0.037895277 -0.006851638 0.057362627 -0.023284385 -0.1098263 -0.064457424 0.062813856 -0.051664174 0.00566814 -0.02339745 -0.026182132 0.01735907 -0.02013814 -0.01878633 0.037194714 -0.024337133 0.06135388 0.057604603 -0.020363618 0.013733877 -0.0006907409 -0.039924733 0.0065114303 -0.019547641 -0.015627671 0.044286087 0.024423584 -0.08673054 -0.019104164 -0.03711451 0.01454948 0.0086873025 0.03686358 0.04381586 -0.029023329 -0.049397364 -0.0061919214 0.06772525 0.00049076276 -0.0021737649 -0.024848217 -0.048729666 0.021705901 0.07415924 0.0017785681 0.040636145 -0.034194175 0.006592805 0.009294566 0.021850016 -0.049090452 -0.0010686793 -0.042985946 -0.08658555 -0.021393908 0.033840735 -0.037953213 -0.06104708 0.00082009047 -0.021394664 0.036236037 -0.021513589 -0.029176908 0.003999959 0.100429654 0.053898584 0.069443814 0.06165482 -0.03287212 0.046274148 0.03473528 -0.01645549 0.0118615 0.08680418 0.005350477 0.04240888 0.04995082 -0.040560104 -0.04108472 -0.032029387 -0.042903967 -0.018580282 0.011125873 -0.029976303 0.02337177 0.031025944 -0.01412404 -0.008765652 0.042288292 0.044084113 -0.03820973 0.046656847 -0.045978136 0.013117147 0.011165278 -0.030279726 0.0053148703 -0.019427754 -0.028437644 0.016384155 -0.029839948 -0.06668588 -0.025406642 -0.0413431 -0.014644709 -0.04781129 -0.023399284 -0.014837306 -0.0071987645
almost 0.009599345 -0.0341508 0.01144398 0.055115845 0.032912567 0.019797662 0.035904642 -0.018281022 -0.022528615 0.06992107 0.03033108 -0.007879566 -0.04279957 -0.061243694 0.084908694 0.05206123 -0.042557936 -0.019817153 -0.034027684 0.048087385 -0.0031014953 0.05619621 -0.0138101475 -0.09508627 -0.06921304 0.062329024 -0.052916847 -0.0030674052 -0.027110042 -0.037861023 0.02760544 -0.013551227 -0.017490314 0.033721603 -0.034882154 0.0475733 0.061283436 -0.028090637 0.014147435 -0.011605724 -0.03678421 0.0067713712 -0.024419377 -0.01607173 0.037925936 0.024001187 -0.07099708 -0.018081335 -0.032004796 0.015720865 0.017486399 0.037996706 0.04495159 -0.026440794 -0.05419802 -0.007785955 0.07062857 0.0113151455 -0.0065502585 -0.024333896 -0.048076548 0.011573225 0.06815759 0.008323327 0.04996484 -0.032578196 0.003248772 0.0057376046 0.0191416 -0.0604894 -0.0003865701 -0.032099724 -0.07685512 -0.014041955 0.020747289 -0.03130435 -0.06325646 -0.013693017 -0.012831854 0.049691048 -0.013185916 -0.02691411 -0.0036484897 0.09625853 0.04670101 0.06912858 0.061680667 -0.024425436 0.052177995 0.029197397 -0.020843301 0.004684182 0.0859305 -0.007707203 0.031375658 0.04018192 -0.03750293 -0.037900258 -0.03156274 -0.033285324 -0.026245078 0.0129529415 -0.018583521 0.03177745 0.019634206 -0.017335245 -0.001212942 0.05625258 0.053762518 -0.042614322 0.039476402 -0.040872864 0.008433372 0.018697102 -0.040606927 -0.0051392955 -0.00888119 -0.012153666 0.03023589 -0.02112148 -0.07824237 -0.02973964 -0.032912854 -0.019262701 -0.055716734 -0.02710772 -0.014114554 -0.006160775
sub 0.01218879 -0.03723725 0.0030200812 0.060259506 0.033518694 0.0074432017 0.035254348 -0.008449801 -0.017709201 0.064532354 0.037140388 -0.014832201 -0.03590526 -0.058738116 0.08753416 0.05713877 -0.056218565 -0.008704626 -0.027243655 0.048810504 -0.010724308 0.051371887 -0.013710768 -0.090523675 -0.063942924 0.06320891 -0.050350834 -0.0072750575 -0.029092338 -0.031504553 0.02610986 -0.021350056 -0.0113381455 0.043732658 -0.03678974 0.05105397 0.060429655 -0.028019726 0.018168947 -0.0054308884 -0.039032567 0.0041289944 -0.02862351 -0.007494972 0.036865212 0.031995974 -0.07226657 -0.014099808 -0.03073974 0.013405727 0.018919261 0.04094512 0.026911022 -0.03447806 -0.058179677 -0.019761743 0.07752126 -0.001655632 -0.0034684443 -0.03695985 -0.05385892 0.00879646 0.061950047 -0.0018909476 0.05408458 -0.034144368 0.0075784484 0.0053256657 0.010335007 -0.05648631 -0.005111298 -0.035139427 -0.0923177 -0.01721529 0.019982895 -0.035920035 -0.06658891 -0.009181994 -0.018786788 0.043929677 -0.021075476 -0.02983238 0.01014354 0.088044755 0.059842568 0.054071907 0.061057627 -0.0371051 0.046664927 0.03530865 -0.024272896 0.0077135963 0.08216486 0.0027825655 0.036061965 0.042057075 -0.048744105 -0.03650771 -0.026004046 -0.03620302 -0.026723906 0.01145902 -0.0262397 0.02631549 0.025936084 -0.021857886 -0.0035630523 0.053132914 0.04286776 -0.03447201 0.037330285 -0.027965715 0.015569789 0.02184449 -0.038195036 0.008591619 -0.0092029 -0.012147183 0.028655993 -0.02531487 -0.0700933 -0.031120786 -0.039473496 -0.011066694 -0.057015244 -0.023902716 -0.0067242556 0.010559887
currently 0.003431268 -0.030966243 0.010332801 0.05481568 0.04084928 0.0076744454 0.03839663 -0.013694006 -0.027619405 0.08934891 0.046394546 -0.016522827 -0.049636174 -0.06838884 0.09452458 0.064243056 -0.04799311 -0.016658291 -0.04231384 0.058308214 -0.015491573 0.064761445 -0.025176171 -0.10658236 -0.07809939 0.06918101 -0.05317845 0.0022579723 -0.035366412 -0.040478606 0.02184361 -0.021427393 -0.027024552 0.04265026 -0.034772065 0.072010815 0.06414765 -0.029420432 0.012840239 -0.011324482 -0.04951569 0.0040402627 -0.025002548 -0.01729802 0.037257157 0.03198026 -0.08189005 -0.032295994 -0.045391116 0.011507477 0.025253726 0.05114198 0.0515822 -0.039820544 -0.0514165 -0.025301112 0.09154368 0.006387669 -0.002567743 -0.03958805 -0.052163735 0.022961982 0.07954091 -0.005952915 0.06309889 -0.037776683 -0.0066094054 0.010683066 0.016311431 -0.07131759 0.0013726422 -0.04099545 -0.10006821 -0.024497665 0.026371995 -0.044280346 -0.07856506 -0.012665016 -0.03029186 0.05665847 -0.01855662 -0.030397132 0.0067018 0.099840306 0.06887506 0.07839471 0.071080275 -0.038121782 0.053869627 0.038200118 -0.025670405 0.0065824823 0.09918315 0.001223232 0.034314938 0.053139504 -0.050886437 -0.05567237 -0.027628208 -0.05036808 -0.02785671 0.011478373 -0.037158504 0.03101221 0.031163923 -0.020797594 -0.014921508 0.062357835 0.0537451 -0.05449073 0.04884852 -0.040952384 0.020448498 0.020842493 -0.034689113 -0.0074154413 -0.015240022 -0.01880502 0.029609809 -0.02831858 -0.082285926 -0.029580854 -0.047479246 -0.017566321 -0.05654178 -0.03554834 -0.005757811 0.0005806521
working 0.006204159 -0.043992277 0.0009914843 0.056921177 0.046508137 0.014798452 0.037273586 -0.017945187 -0.027240602 0.082880504 0.04579005 -0.009201623 -0.04641015 -0.06962503 0.09486733 0.059390448 -0.05821302 -0.029010937 -0.04798696 0.05592689 -0.008868847 0.064701445 -0.023676734 -0.118264884 -0.067206904 0.07826852 -0.06315859 -0.0003933979 -0.023477059 -0.030051814 0.024437586 -0.020746445 -0.016445616 0.04522293 -0.038962796 0.056997556 0.06900786 -0.033511486 0.016532207 -0.012653991 -0.04657005 0.010853867 -0.03297479 -0.008806104 0.0522532 0.033997595 -0.08580746 -0.031020831 -0.030766867 0.0072167427 0.021254985 0.046261314 0.032101035 -0.03902318 -0.064908445 -0.023815738 0.09016404 0.0054932926 0.002971238 -0.033384655 -0.06502583 0.019362375 0.079177886 0.0059348913 0.058861848 -0.035011854 0.007698358 0.0001094749 0.028299915 -0.066987276 -0.00983648 -0.04173295 -0.10274436 -0.027310945 0.024751015 -0.04565636 -0.07398823 -0.012690111 -0.02335491 0.03998003 -0.03167391 -0.02669286 0.005389234 0.10243664 0.056664053 0.076381326 0.07401668 -0.02836265 0.04975987 0.030886633 -0.030316282 -0.002519439 0.08069357 -0.0015456573 0.029148428 0.055445697 -0.042472538 -0.05057319 -0.039057422 -0.03157697 -0.025642695 0.011928586 -0.03508698 0.026576973 0.019056594 -0.012525696 -0.0037983009 0.06080708 0.062478438 -0.051829994 0.04708636 -0.0340085 0.004250312 0.016304513 -0.0327943 -0.0013275171 -0.017470833 -0.019253733 0.026354132 -0.020446854 -0.0786721 -0.0319594 -0.041594625 -0.01252866 -0.04932893 -0.028742634 -0.009786902 0.001548936
place 0.00061767636 -0.04010147 0.0051232707 0.054849528 0.044002037 0.02111481 0.03666705 -0.014291572 -0.015322987 0.07770225 0.032685332 -0.012443643 -0.035873946 -0.05406876 0.085323855 0.047333773 -0.046537712 -0.008854581 -0.04272541 0.050497543 -0.013022775 0.06521969 -0.014485245 -0.10567502 -0.06268849 0.072617576 -0.04716646 -0.006455717 -0.024595072 -0.033381768 0.019731183 -0.012296752 -0.020264264 0.049119305 -0.030448968 0.060425214 0.05609006 -0.03462636 0.0034181199 -0.0043951715 -0.05264773 0.0050940975 -0.025094308 -0.021491798 0.036980134 0.023764847 -0.088928044 -0.025434565 -0.028017346 0.006218047 0.013602627 0.053849537 0.047784712 -0.021101037 -0.06152548 -0.011693296 0.07104605 0.00928702 0.00057740166 -0.034279216 -0.048237868 0.010569284 0.07954507 0.0048884368 0.05591369 -0.02525431 -0.0014860561 0.011136779 0.013323464 -0.063825645 -0.004054433 -0.043937076 -0.090172864 -0.017850135 0.033615004 -0.043190897 -0.06893686 -0.011534293 -0.025823494 0.04358041 -0.017546954 -0.028671503 0.0024044516 0.10408818 0.05650728 0.06283194 0.069749035 -0.02848515 0.05116333 0.03913653 -0.014234176 0.006389343 0.08596705 -0.0037950403 0.041582055 0.048455704 -0.048435736 -0.051149968 -0.030042004 -0.04505851 -0.0218175 0.004466143 -0.028665133 0.03186775 0.02720144 -0.012990464 -0.016373139 0.054297216 0.055940907 -0.04232681 0.051224224 -0.035908375 0.017333036 0.026102198 -0.03687147 -0.00070135837 -0.015479972 -0.02754076 0.029703083 -0.0288177 -0.07809619 -0.027566373 -0.030178934 -0.00924251 -0.052980524 -0.03277911 -0.013882642 -0.0005232405
really -0.005339932 -0.02240239 -0.0021546842 0.03308585 0.026492106 0.014998549 0.032571733 -0.013431122 -0.021416964 0.049399853 0.03064766 -0.011077767 -0.020127842 -0.03768204 0.055973344 0.037188314 -0.027281404 -0.008975073 -0.028538004 0.035115898 -0.014417939 0.033237655 -0.006912521 -0.06924474 -0.050951827 0.04038871 -0.040481996 -0.004972937 -0.011586308 -0.018772606 0.020855412 -0.01008122 -0.013937205 0.024562156 -0.022426995 0.041487154 0.04436358 -0.023316076 0.0050148023 -0.012171603 -0.032385923 -0.0010284615 -0.013699494 -0.011009815 0.026858589 0.02038225 -0.051256746 -0.021088822 -0.02133721 0.012330201 0.016709162 0.037836883 0.031009365 -0.027849805 -0.03194251 -0.0044422247 0.048052184 -0.00071220606 0.0038673107 -0.024383333 -0.040242296 0.014412812 0.042162057 -0.0033128553 0.04070897 -0.024455015 0.00010458326 -0.0029871329 0.015017189 -0.03472077 -0.00014805509 -0.024996163 -0.06685626 -0.0073694773 0.015850434 -0.016319657 -0.04655884 0.0030935812 -0.018150078 0.028484777 -0.01603557 -0.011905727 -0.0012986261 0.06186847 0.03987342 0.05011075 0.037507396 -0.02688778 0.03838606 0.020820849 -0.01109205 0.0021961627 0.057655204 0.0048592715 0.014823713 0.03531112 -0.036298152 -0.024424374 -0.027120639 -0.018550428 -0.012880914 0.011814466 -0.025032064 0.018420704 0.013805989 -0.014029169 0.0013858955 0.0300155 0.035910815 -0.030591141 0.02659328 -0.02437345 0.004247826 0.018677639 -0.025432888 -0.007513475 -0.013144226 -0.0077786236 0.011122501 -0.018693674 -0.05835181 -0.016071692 -0.029396417 -0.0043845917 -0.0343272 -0.027793383 -0.012595188 -0.0022395193
bad 0.00638663 -0.031018777 0.005333573 0.067888126 0.038070463 0.01654338 0.03122582 -0.014769959 -0.014390096 0.081093185 0.032481186 -0.017725203 -0.048622057 -0.059823208 0.08654314 0.052032396 -0.04604119 -0.020375328 -0.037802313 0.048830003 -0.008933186 0.06388548 -0.030527703 -0.10220239 -0.06331484 0.075967334 -0.054700468 0.008500823 -0.029502625 -0.037277523 0.025257591 -0.012427069 -0.020947551 0.04300799 -0.027042001 0.06506334 0.053075932 -0.034963418 0.008619248 -0.002213506 -0.058364186 -0.0031537649 -0.022539906 -0.021719893 0.04064292 0.025239555 -0.088419855 -0.02386401 -0.046659324 0.015054587 0.017939199 0.054969106 0.048569407 -0.04023921 -0.053246852 -0.021097334 0.08703782 0.00087440177 -0.011371616 -0.038636304 -0.061008435 0.017121958 0.083580464 0.0070595783 0.0548685 -0.027708594 0.0020473637 0.011121465 0.020074697 -0.061640803 -0.006929834 -0.03187258 -0.100618124 -0.019261444 0.02119724 -0.045209162 -0.067022204 -0.012051143 -0.014303825 0.05202892 -0.018629096 -0.024593974 0.011778418 0.09636368 0.056368083 0.07372249 0.0663651 -0.033842117 0.04600012 0.024282942 -0.02103142 0.0036628374 0.09178189 -0.008319292 0.036720313 0.048506673 -0.04126893 -0.050542153 -0.039478794 -0.04501589 -0.018182827 0.004577644 -0.02267438 0.036709003 0.029028993 -0.016999403 -0.0022544488 0.055218656 0.052329566 -0.04055096 0.048830282 -0.038549025 0.011667643 0.0136175435 -0.044497978 0.0024834974 -0.01006576 -0.027318977 0.022702508 -0.023424024 -0.074288934 -0.03420025 -0.037013136 -0.006620355 -0.059258606 -0.040208235 -0.009522042 0.0019804896
crazy 0.0031385897 -0.029078502 0.011713534 0.035690233 0.030445602 0.0041967123 0.035584766 -0.0170769 -0.009469471 0.059201363 0.03645579 -0.013856499 -0.031319518 -0.050946523 0.06728965 0.034960173 -0.03100185 -0.011482565 -0.019969068 0.02925474 -0.006441655 0.042451736 -0.02518213 -0.06962354 -0.050251007 0.053320456 -0.037648585 0.0049665216 -0.016934875 -0.012806677 0.009126729 -0.004262979 -0.004827395 0.030460209 -0.017696157 0.04607397 0.046649575 -0.02314789 0.01079822 -0.005208338 -0.029017001 0.010826228 -0.027402978 -0.01044873 0.018438334 0.019557687 -0.06717377 -0.016738795 -0.02900709 0.0073181004 0.019682705 0.026183136 0.028963448 -0.023102766 -0.041523412 -0.01863816 0.04830255 0.010354039 -0.009991843 -0.017980361 -0.04260668 0.010371196 0.05596165 -0.00829517 0.031780716 -0.02935448 -0.0076446636 0.0005379968 0.0095714005 -0.040775467 -0.007083922 -0.034073338 -0.069457404 -0.014375781 0.013476587 -0.033934996 -0.05088367 -0.0121924365 -0.02434934 0.024899498 -0.013214272 -0.024036558 0.0008927294 0.07662647 0.04845439 0.042233873 0.052483596 -0.03051115 0.0367264 0.029016303 -0.02019636 0.011538129 0.05864947 0.0035352428 0.033279438 0.022545421 -0.036976997 -0.03941795 -0.02571707 -0.03401073 -0.018769924 0.000521421 -0.018900422 0.020135231 0.024389027 -0.019885967 -0.009660971 0.03988153 0.046097174 -0.03386199 0.035239574 -0.032904066 0.010265707 0.0058466247 -0.03339627 0.0027034443 -0.01169148 -0.012144916 0.00830745 -0.014873974 -0.05250309 -0.023284439 -0.025499063 -0.0018962632 -0.043231923 -0.023640009 -0.005764304 0.00232906
understand 0.008615299 -0.022193851 0.0038059873 0.04148823 0.036605954 0.017309207 0.029911645 -0.012550872 -0.0061732596 0.06329448 0.022069136 -0.013468731 -0.03419485 -0.04159478 0.073177375 0.036169525 -0.0449149 -0.014344365 -0.030484667 0.03733108 -0.004734348 0.04328012 -0.012035856 -0.069772184 -0.055556588 0.055899344 -0.0363349 -0.005860137 -0.024352966 -0.019413227 0.022925518 -0.017029883 -0.015437285 0.028233744 -0.025630655 0.036829192 0.046041247 -0.027886108 0.0039914805 -0.0022170485 -0.0398336 -2.458578e-05 -0.01966875 -0.0014818889 0.025513 0.021141281 -0.06849724 -0.011363279 -0.017991269 0.018598313 0.009226335 0.04221501 0.034350313 -0.02378612 -0.04458283 -0.011065922 0.058769785 -0.003067213 0.0002999142 -0.021508642 -0.041676275 0.009980989 0.058371317 0.004647344 0.036668923 -0.021144914 0.0065948074 0.0074977325 0.021502838 -0.038504012 -0.008435031 -0.022453584 -0.06562903 -0.01372195 0.01904579 -0.032369237 -0.054534238 -0.0032786643 -0.018590823 0.040618163 -0.016422715 -0.014161388 0.0039530788 0.074241005 0.04141653 0.04098045 0.04973546 -0.015624646 0.043391656 0.016344998 -0.0072705275 -0.0031274857 0.06333268 -0.009140206 0.033061888 0.034318775 -0.03321497 -0.035348944 -0.024695348 -0.021111537 -0.014716741 0.011997846 -0.022094697 0.02208469 0.02052283 -0.018013999 -0.013043965 0.04569287 0.039433878 -0.034065668 0.039881993 -0.03322746 0.003799543 0.012333036 -0.020425916 0.008594768 -0.014808343 -0.010742602 0.025693944 -0.024328765 -0.050112586 -0.01803413 -0.03557958 -0.009451599 -0.04439249 -0.028601026 -0.0030419142 0.0050034593
everything 0.012073823 -0.019804463 0.0036212709 0.047011055 0.022185916 0.007667659 0.025265697 -0.0058571678 -0.016410582 0.05927728 0.032849923 -0.0152514335 -0.027147451 -0.04818463 0.07589062 0.045053832 -0.04102518 -0.017424589 -0.031811774 0.039315198 -0.014862068 0.051327962 -0.021909282 -0.08673791 -0.05500795 0.05667282 -0.042076234 -0.0042496854 -0.022755308 -0.019080784 0.022267064 -0.020148935 -0.020691931 0.029200021 -0.027429402 0.054538745 0.050664272 -0.018095441 0.007512955 -0.014515409 -0.043025017 0.006828344 -0.017972521 -0.009652932 0.039567806 0.027986672 -0.06758068 -0.01423304 -0.022554863 0.013764989 0.007012575 0.036659934 0.036605027 -0.017931016 -0.050479252 -0.00945667 0.05757114 0.0029791854 -0.0007286491 -0.019124087 -0.043070003 0.020156087 0.06444922 -0.0061277435 0.032716937 -0.032362703 0.0011920889 0.00522257 0.01890753 -0.049975935 -0.0024478743 -0.031937562 -0.078940764 -0.011202156 0.024415279 -0.032906152 -0.0469806 -0.006048526 -0.012831666 0.02818561 -0.021336209 -0.023037745 0.0089137275 0.07862934 0.03844387 0.05512911 0.046911307 -0.024969 0.04464704 0.023114664 -0.018752977 0.011032378 0.06195172 -0.004621926 0.028386325 0.0371434 -0.040968187 -0.033396147 -0.028638277 -0.030971622 -0.01685556 0.0058027394 -0.014474623 0.014397113 0.022666557 -0.014932913 -0.00046518142 0.03896756 0.047207445 -0.027243631 0.03201425 -0.03135343 0.008094645 0.021330213 -0.037434846 0.003019711 -0.021382403 -0.018821592 0.016249022 -0.024268353 -0.0656589 -0.025267633 -0.023911873 -0.014874713 -0.035623666 -0.017652094 -0.016985083 0.0054527246
acronym 0.009707543 -0.030291505 0.009293111 0.053555477 0.025597867 0.016386006 0.034256928 -0.010268126 -0.022522315 0.074025415 0.028226212 -0.010987701 -0.02832855 -0.05892307 0.06556606 0.053310726 -0.040389474 -0.01132795 -0.031579863 0.03965839 -0.012972373 0.04599574 -0.019189084 -0.08860984 -0.05308569 0.04854863 -0.035856374 -0.0077595226 -0.0227799 -0.02328097 0.023030583 -0.013686357 -0.019690286 0.037378833 -0.021928914 0.043285616 0.042079758 -0.016377395 0.004902132 -0.013924082 -0.047312878 -0.0036474452 -0.027653737 -0.0116988 0.034916487 0.024539156 -0.07463186 -0.018709274 -0.038083788 0.012274537 0.01617115 0.044968907 0.025705388 -0.017343277 -0.048533186 -0.014047574 0.068545476 0.0019451849 -0.0071760574 -0.031800825 -0.042663693 0.016850201 0.06557872 -9.004449e-05 0.042441417 -0.024523985 0.0053340085 0.005133695 0.02210308 -0.048308942 -0.0056473874 -0.028565468 -0.074986674 -0.011204206 0.027060794 -0.028865479 -0.05321152 -0.00040647518 -0.011823414 0.035936713 -0.02050602 -0.019337023 -0.0012416695 0.089138515 0.04446994 0.053656332 0.054327678 -0.032268867 0.04921449 0.03181386 -0.014599485 0.0043179514 0.0728329 -0.0041246857 0.032192037 0.030880118 -0.033605784 -0.042560663 -0.029247897 -0.025573552 -0.016947467 0.012537951 -0.017619831 0.025662057 0.015038812 -0.018560877 -0.010809487 0.04722228 0.047386263 -0.037660982 0.043884233 -0.036641702 0.0059293034 0.017731924 -0.029667538 0.0050813165 -0.012843316 -0.024285411 0.023247799 -0.014021537 -0.070640415 -0.023263024 -0.037632544 -0.014724873 -0.052688837 -0.030579837 -0.014587602 0.008406944
makes 0.0019246945 -0.0367409 0.0022262698 0.05966816 0.034137238 0.013712755 0.04025627 -0.00642158 -0.027886447 0.08214978 0.038184788 -0.0051211454 -0.029497894 -0.064083464 0.08642592 0.06270398 -0.050246056 -0.013697556 -0.037951954 0.053748257 -0.01524614 0.064040154 -0.02583031 -0.106903195 -0.07230535 0.06960949 -0.043763343 0.00512772 -0.022226674 -0.03527664 0.025488926 -0.009355507 -0.02521179 0.04675608 -0.02812498 0.0628626 0.0662031 -0.026532143 0.009042008 -0.011390023 -0.050216507 0.004865137 -0.027797924 -0.00514083 0.04529118 0.0339538 -0.07855672 -0.021354802 -0.041066375 0.007989813 0.020745367 0.05345165 0.03606132 -0.02900707 -0.045457378 -0.020208966 0.0812336 0.0013075747 -0.012564183 -0.03619447 -0.05102149 0.017658431 0.08123805 -0.008013467 0.049556643 -0.032169964 0.0067604603 0.002035906 0.027709661 -0.05091588 -0.0124932 -0.037328783 -0.086123966 -0.020017708 0.021003887 -0.031961188 -0.060090646 -0.004302821 -0.011159448 0.04804813 -0.021907173 -0.023649218 0.0058873594 0.094814666 0.058156133 0.067374825 0.06009798 -0.0340348 0.046160664 0.038063545 -0.015599214 0.00075107644 0.08430138 -0.0025986366 0.02920885 0.035881907 -0.03645645 -0.053715017 -0.029792823 -0.03417989 -0.02781466 0.0035978057 -0.025446353 0.03703989 0.020500733 -0.019587575 -0.016191892 0.051338647 0.057248864 -0.0474925 0.04801706 -0.046790667 0.01577763 0.02350469 -0.029815538 0.003735328 -0.020306999 -0.03161244 0.02702984 -0.025972974 -0.0799403 -0.020206664 -0.040978156 -0.0109521095 -0.059744164 -0.030263567 -0.017928123 -0.0032032137
call 0.009721492 -0.019543508 -0.0048083253 0.031408153 0.018006988 0.009738244 0.018932624 -0.004929574 -0.006947983 0.055250105 0.013728515 -0.013157767 -0.014735401 -0.028791023 0.045856383 0.034713373 -0.038602628 -0.01728405 -0.024934538 0.035647064 -0.009160532 0.04028714 -0.018209634 -0.069418736 -0.03238504 0.044025984 -0.031598356 0.006099897 -0.010604076 -0.021058515 0.019874813 -0.017403197 -0.009001384 0.016665477 -0.017302705 0.026222397 0.03329013 -0.008247947 0.009460246 -0.004556555 -0.034322947 -0.0056433887 -0.011724801 -0.014690505 0.025353024 0.019884817 -0.05204702 -0.008572587 -0.01867649 0.013531461 0.013727216 0.021955514 0.01987303 -0.017488835 -0.033896003 -0.012898553 0.049835682 0.009523002 -0.005740881 -0.0122399675 -0.041695878 0.0042401287 0.041561067 0.008480349 0.032200176 -0.016954336 0.0052019064 0.01111366 0.00408761 -0.04051136 -0.004834768 -0.025020273 -0.056597527 -0.017287372 0.013143289 -0.02379942 -0.03988685 -0.00049038103 -0.017851029 0.0240953 -0.008894269 -0.017720673 -0.001020304 0.06391179 0.035338625 0.044344526 0.035927717 -0.01572565 0.03764027 0.022131307 -0.0058979825 0.010739735 0.054735318 0.0054619717 0.025073672 0.02920616 -0.02145571 -0.029711535 -0.024530396 -0.023787767 -0.01174164 0.01011931 -0.01928468 0.02326689 0.018721523 -0.0127427 -0.0012210658 0.032574486 0.037512057 -0.022102201 0.020193817 -0.023543095 0.005318377 0.011055543 -0.025396815 0.008765442 -0.014671439 -0.018153742 0.02001029 -0.007890428 -0.05010723 -0.0107366 -0.014849858 -0.014592335 -0.029009432 -0.022309536 -0.00071650813 -0.0037871946
hardback 0.010488096 -0.030078704 0.00985881 0.051693518 0.024784839 0.016287483 0.02047068 -0.0053514196 -0.019265033 0.051667128 0.02558578 0.00079510413 -0.029580368 -0.049941134 0.065637276 0.053348716 -0.049061008 -0.0034763992 -0.03214953 0.03489944 -0.002583059 0.04610808 -0.017446427 -0.08494842 -0.042647492 0.060708392 -0.03929901 0.0015138957 -0.0118117 -0.022951111 0.011728746 -0.015670266 -0.015731158 0.03669169 -0.020531237 0.050492935 0.04121921 -0.018034525 0.009177001 -0.0038779927 -0.03168687 0.0023541856 -0.022912016 -0.013984383 0.028044445 0.023122627 -0.059501592 -0.01794355 -0.031942602 0.011463706 0.010405958 0.029414965 0.023101911 -0.03051074 -0.043935865 -0.006985322 0.06290954 0.0074037835 -0.0050848867 -0.032610577 -0.040822383 0.01813152 0.06615609 0.007900609 0.036323164 -0.01580751 0.0029597557 0.008545689 0.019543193 -0.052280508 -0.006398709 -0.023910953 -0.066571616 -0.015591387 0.025655616 -0.022461906 -0.04456896 -0.0025141533 -0.007741997 0.030475339 -0.01512094 -0.027379295 0.010342675 0.069249906 0.03758978 0.059512082 0.04232153 -0.01689691 0.036841687 0.018186 -0.018115073 0.007295954 0.074991554 -0.004898255 0.030833071 0.040838838 -0.03551375 -0.026066916 -0.029684067 -0.031244494 -0.022788491 0.006912751 -0.020713562 0.030400192 0.02579673 -0.0150124915 -0.008676829 0.047001977 0.048334833 -0.026208706 0.030770151 -0.03627189 0.013838189 0.010716856 -0.030530566 0.0039031594 -0.011210627 -0.022160754 0.026344074 -0.018034585 -0.062320784 -0.020185336 -0.030182416 -0.0023012394 -0.038161773 -0.01699526 -0.009596107 0.0070184856
terms -0.0052331313 -0.03363162 0.0108088935 0.03704183 0.026692957 0.002570324 0.028957883 -0.0072571305 -0.0076484503 0.063372105 0.02951379 0.00062379334 -0.019947795 -0.041639354 0.058431007 0.039427586 -0.03392785 -0.01976374 -0.026466927 0.02895816 -0.0035955915 0.041248262 -0.016261797 -0.08249792 -0.052080408 0.05709734 -0.043955393 -0.004778384 -0.0211469 -0.030768586 0.009138699 -0.017642882 -0.020263754 0.021225488 -0.012847831 0.034231212 0.0354083 -0.025163798 0.014296558 -0.0013621617 -0.03921509 0.005717418 -0.019418618 -0.015578886 0.024663955 0.021867039 -0.067703344 -0.015564448 -0.018280191 0.014805443 0.007745782 0.03505847 0.027023835 -0.013859264 -0.03165461 -0.0033871226 0.05237308 0.006197209 -0.0037084406 -0.018574882 -0.03776635 0.015917795 0.05114167 0.00894951 0.042652115 -0.020059383 -0.004296521 -9.384999e-06 0.014383803 -0.043256685 -0.0026269264 -0.024672521 -0.071096756 -0.017295685 0.024584718 -0.031690784 -0.048205927 0.00080757355 -0.01220471 0.039576177 -0.017115017 -0.014784363 0.0044720476 0.06989684 0.040439412 0.056410674 0.04523281 -0.01853673 0.031717174 0.031685166 -0.015076633 0.010506653 0.062088937 -0.0032455232 0.03253849 0.033633135 -0.03140475 -0.034747094 -0.019626763 -0.028345743 -0.010549366 0.011122125 -0.026679415 0.018022992 0.01674971 -0.013561811 0.00013878058 0.040683117 0.044227097 -0.02820329 0.039019987 -0.03465576 0.008009306 0.004549186 -0.030156944 0.006623823 -0.016493568 -0.019384114 0.018843414 -0.010298269 -0.06218838 -0.021681502 -0.022484563 -0.015925769 -0.035137948 -0.015358962 -0.004943637 -0.0014066342
book 0.0037541129 -0.024761597 0.010292739 0.047074404 0.031969942 0.006473057 0.024390792 -0.007767351 -0.016651668 0.04922979 0.028255196 -0.010068967 -0.026094222 -0.04115276 0.056083176 0.049313392 -0.04153493 -0.01647436 -0.022535946 0.028709454 -0.010347407 0.035356212 -0.019144496 -0.08590502 -0.04324734 0.044486493 -0.037238825 0.00011142522 -0.024767784 -0.03107873 0.018018385 -0.019600712 -0.0058036027 0.033707675 -0.01665429 0.0492895 0.046169844 -0.027955854 0.0064697894 -0.00022496191 -0.035481647 -0.00054421736 -0.015892934 -0.011617203 0.035292137 0.028080957 -0.06644718 -0.019613292 -0.01802756 0.0042705354 0.011579861 0.039251134 0.032577686 -0.027042158 -0.039251253 -0.008669232 0.06091369 0.004499943 -0.002660601 -0.029900145 -0.028828055 0.017518602 0.06171375 0.0027342918 0.043830063 -0.028347045 -0.0049273525 0.010565051 0.015211832 -0.04458336 -0.010858259 -0.028734922 -0.06541051 -0.010060586 0.022784553 -0.034616765 -0.051174194 0.0012283729 -0.014303132 0.033552904 -0.019530855 -0.015910765 0.0070903157 0.07495713 0.038680155 0.05501203 0.040657543 -0.01598125 0.040320046 0.01906289 -0.010659518 0.00495158 0.064016975 -0.001228776 0.019275863 0.035808776 -0.036395267 -0.02627332 -0.019469757 -0.029951056 -0.014699763 0.0093095675 -0.02527653 0.023417402 0.0146867 -0.016921137 -0.014457682 0.043691304 0.04117481 -0.030126011 0.03716626 -0.034745496 0.007394452 0.0069176396 -0.033511173 -0.008213437 -0.007851134 -0.020008054 0.01068742 -0.02517012 -0.048397508 -0.012377878 -0.030232836 -0.005256016 -0.04100517 -0.02503291 -0.0018443445 0.00062238734
