466 128
feel -0.02135436 0.042114478 -0.053474348 0.25782314 0.26717946 -0.25182787 0.15643999 -0.14934732 0.063225634 0.52036005 0.14193733 -0.08900431 -0.08685731 -0.21083322 0.066165395 0.48155427 -0.40335986 -0.15288997 -0.19021018 0.55044913 0.09285549 0.03575426 -0.5629591 -0.6733755 -0.57887465 0.22262852 -0.23892346 0.025874173 0.0058354735 -0.10724159 0.1457132 -0.13793445 0.0147086475 0.12218946 -0.15809537 0.5294397 0.2585905 -0.10367964 -0.106922075 0.27482837 -0.14156602 0.24327062 -0.08381271 -0.18953618 0.26673472 0.029357266 -0.42801005 -0.124293864 -0.14567772 0.045772716 0.34167686 0.14920536 -0.032077692 0.44696188 -0.14679083 -0.20150635 0.41091338 -0.24349491 -0.2639682 -0.06183268 -0.1067801 0.29317826 0.13105409 0.027854733 0.3701763 -0.025305126 0.13479614 0.10697131 -0.12501667 -0.33948705 -0.17859203 -0.3690712 -0.43033198 -0.07234713 0.14972036 0.014597226 -0.32770994 -0.12693998 -0.41045538 0.06809399 -0.34822196 -0.2631572 0.23964867 0.41822335 0.035635594 0.059878923 0.03241997 -0.13702048 0.17805189 0.18369669 -0.15836497 -0.18734181 0.21753877 -0.14334704 -0.0822481 0.25891858 -0.14015935 -0.2772943 0.033490334 -0.19180295 -0.38009128 0.058651306 -0.17800187 0.20931087 -0.10076138 -0.04509923 0.09035677 0.082643636 0.02934057 -0.26664072 0.19249582 -0.21980876 0.01969572 0.06989665 -0.436199 0.06724234 -0.05707889 0.24093613 0.21447164 0.08470404 -0.16804403 -0.2617411 -0.26044434 0.06496942 -0.3077136 -0.17927045 -0.06602645 0.08989969
like -0.011443733 0.06245691 -0.0726732 0.30303842 0.3211091 -0.30015558 0.18536773 -0.1603816 0.08223457 0.6138089 0.16390538 -0.118439965 -0.09737424 -0.25449467 0.08353615 0.5642933 -0.46995887 -0.18368995 -0.22092222 0.64054394 0.11701334 0.03496659 -0.65542096 -0.8051199 -0.66786444 0.27617118 -0.26903838 0.040538058 0.012158693 -0.13052668 0.17797054 -0.15518644 0.001514827 0.13598835 -0.1717015 0.6295361 0.29533646 -0.111948155 -0.1244425 0.31573024 -0.14628372 0.2908509 -0.09734719 -0.21744315 0.32054678 0.034971047 -0.5007411 -0.14487693 -0.16938603 0.061448626 0.39272502 0.15670541 -0.027145747 0.53852975 -0.1703931 -0.25314516 0.47745544 -0.27055326 -0.31118777 -0.0646063 -0.12174914 0.34883615 0.14373778 0.043057263 0.42827776 -0.046371706 0.14820334 0.14100249 -0.13330157 -0.38071248 -0.19541053 -0.43162307 -0.5089569 -0.07819147 0.17068298 0.001458537 -0.37727532 -0.13892476 -0.4881791 0.072929315 -0.41013598 -0.31193784 0.2808212 0.48162013 0.05120168 0.05837796 0.039756604 -0.17021674 0.21361497 0.20131859 -0.18557492 -0.22798434 0.26512542 -0.16822167 -0.11326099 0.2953052 -0.1551129 -0.3353582 0.03851871 -0.22800183 -0.43847612 0.04232496 -0.18858005 0.23502907 -0.11453145 -0.04014731 0.09430678 0.10108661 0.048553802 -0.3293654 0.22834408 -0.24844281 0.027488433 0.07651262 -0.49622506 0.07496043 -0.049496487 0.275347 0.26163682 0.10498942 -0.20217778 -0.31648162 -0.3054122 0.070108116 -0.36324444 -0.20482996 -0.07688189 0.10799764
eat -0.009994136 0.033420112 -0.043009672 0.25761753 0.25584427 -0.22591338 0.14617227 -0.118227445 0.059646636 0.4838497 0.12084836 -0.069908775 -0.07157936 -0.20778939 0.06563344 0.46309176 -0.3803057 -0.14624228 -0.19918953 0.5036958 0.10421343 0.040706042 -0.5370607 -0.6415587 -0.5290901 0.22420214 -0.233086 0.023158653 0.02192454 -0.1155258 0.122573644 -0.13330618 0.0072878664 0.121469416 -0.13230804 0.49813733 0.24163708 -0.09075928 -0.09781563 0.26703593 -0.12248258 0.2302111 -0.0851451 -0.17811862 0.25374335 0.022845061 -0.37986487 -0.110775694 -0.14217116 0.06352348 0.3193172 0.12460572 -0.026453985 0.42640314 -0.14791857 -0.17895411 0.39529395 -0.23658608 -0.2561904 -0.06748979 -0.101072244 0.2883678 0.1433441 0.05013821 0.34906432 -0.010209864 0.1365459 0.11170989 -0.100600585 -0.33062163 -0.16541804 -0.33816224 -0.40115324 -0.06613738 0.14963338 0.019743646 -0.29670167 -0.116149604 -0.37709072 0.06457392 -0.31737816 -0.26074556 0.23908764 0.37790033 0.027489198 0.06201138 0.026874738 -0.13008289 0.16979608 0.16391605 -0.16135342 -0.17801312 0.22647634 -0.15446366 -0.081132784 0.24591179 -0.1288627 -0.25585562 0.018147228 -0.19245566 -0.35845706 0.045301005 -0.1658348 0.1994643 -0.093512595 -0.047792763 0.07174131 0.09544029 0.041446514 -0.25606817 0.18898417 -0.23653236 0.0263637 0.06285997 -0.4190322 0.058880493 -0.04108836 0.22069584 0.20900701 0.072953805 -0.1825066 -0.25393015 -0.25717568 0.0725275 -0.29465106 -0.15152156 -0.06448251 0.10387312
want -0.0181445 0.027828021 -0.038991477 0.19784904 0.18192494 -0.1785171 0.11498194 -0.103942975 0.05045431 0.387621 0.10816972 -0.057483338 -0.04419025 -0.16124186 0.043447543 0.34837073 -0.2753852 -0.114485234 -0.13101144 0.37494066 0.0662918 0.031862263 -0.41348368 -0.46445045 -0.41458267 0.16084121 -0.18016016 0.030340042 0.005390946 -0.08698249 0.104974955 -0.08908022 0.016435364 0.0908626 -0.1158228 0.37612087 0.18737744 -0.07017153 -0.084744975 0.1991776 -0.11148663 0.17107585 -0.06740975 -0.12605926 0.19841401 0.01887705 -0.29059422 -0.077947505 -0.097788766 0.057359494 0.23873939 0.08824305 -0.028287472 0.3360285 -0.1056799 -0.1443353 0.28760037 -0.16911942 -0.19208288 -0.056382116 -0.07903564 0.21230015 0.103448205 0.025156943 0.2737364 -0.023640912 0.09595002 0.08492845 -0.08471409 -0.23657979 -0.118469626 -0.26736164 -0.29867348 -0.05880927 0.10121787 0.002303439 -0.22203872 -0.07946328 -0.2985608 0.066899374 -0.23600012 -0.20165665 0.18805446 0.27561137 0.031981714 0.024712635 0.02401275 -0.11124285 0.13777521 0.13834822 -0.121111825 -0.14758985 0.15501477 -0.12373999 -0.07246469 0.18488759 -0.08939393 -0.18946785 0.036204554 -0.15135615 -0.2559589 0.030092485 -0.12907588 0.15938759 -0.07445124 -0.024659151 0.055626553 0.064177655 0.0221979 -0.19759421 0.15383105 -0.16523622 0.008926525 0.056598365 -0.31385526 0.037197903 -0.03589044 0.15895498 0.1582155 0.042703833 -0.12261148 -0.19411011 -0.19499083 0.059060205 -0.2145808 -0.1343203 -0.04944294 0.06932981
food -0.019402092 0.031035861 -0.052788757 0.25499696 0.2638241 -0.23068662 0.16108724 -0.13798936 0.0682319 0.48864782 0.13614337 -0.07767679 -0.06850939 -0.20056222 0.069346406 0.43685472 -0.36232984 -0.13896538 -0.19084567 0.50638235 0.095241085 0.036259644 -0.5298933 -0.625986 -0.5363996 0.20260932 -0.21994074 0.025727564 0.014695017 -0.10319491 0.12617092 -0.12136762 0.008193059 0.11574638 -0.13784966 0.47998977 0.24489194 -0.08850696 -0.098875895 0.2485045 -0.11276721 0.23291188 -0.07728071 -0.17307276 0.2498061 0.032851845 -0.40377206 -0.10588532 -0.13445129 0.058618378 0.32003328 0.13793133 -0.0122174835 0.42477652 -0.14113888 -0.17110628 0.3736962 -0.2366782 -0.2482914 -0.061177157 -0.10428843 0.27903914 0.13756116 0.036670078 0.34527835 -0.0270337 0.13230805 0.10325753 -0.10990709 -0.32150796 -0.14747928 -0.33072478 -0.406267 -0.05913277 0.12872466 0.016533764 -0.29819638 -0.10880806 -0.3856026 0.059649896 -0.3131974 -0.25087002 0.22451118 0.3842428 0.033212435 0.062113274 0.028538566 -0.1375601 0.16514117 0.17269576 -0.1526857 -0.18872993 0.20299323 -0.14946716 -0.08846239 0.23526256 -0.12280518 -0.2700801 0.029948829 -0.1805859 -0.3488433 0.04632154 -0.16977149 0.18822253 -0.09037866 -0.03166134 0.07194644 0.094020486 0.024968684 -0.2534705 0.19122624 -0.20579487 0.025564281 0.06516378 -0.40712276 0.06415951 -0.049471684 0.22009486 0.20073168 0.07410413 -0.164158 -0.24418308 -0.23204298 0.06768136 -0.27951047 -0.15277557 -0.055575885 0.08731864
day -0.015089404 0.06606402 -0.07680086 0.26387691 0.2964571 -0.27127218 0.19795133 -0.14111948 0.08171834 0.52463293 0.13811891 -0.09520374 -0.055956814 -0.22754194 0.08064225 0.47107506 -0.37911752 -0.15395205 -0.20033781 0.5591055 0.11314025 0.039452557 -0.5765774 -0.7049003 -0.591477 0.23681702 -0.23907349 0.011428216 0.010852477 -0.11419845 0.14817435 -0.13495383 0.0077057653 0.13060951 -0.14272569 0.54778755 0.26668903 -0.11737876 -0.08871168 0.26668406 -0.11817795 0.2708401 -0.063663706 -0.18026483 0.2636444 0.028237326 -0.42815483 -0.111976594 -0.14033431 0.065512784 0.35535723 0.13970451 -0.022503315 0.4888945 -0.14359345 -0.20588087 0.42262426 -0.26843634 -0.2625451 -0.07513906 -0.099845804 0.3024413 0.14724231 0.027873987 0.3786636 -0.011037391 0.14649013 0.09447539 -0.111541085 -0.33356136 -0.16327563 -0.3843406 -0.44797468 -0.05566739 0.15398756 0.014096998 -0.3097686 -0.14423059 -0.4270431 0.07434459 -0.37118435 -0.25899473 0.23189457 0.39924395 0.02485933 0.05657651 0.034772635 -0.15941456 0.19622469 0.2003829 -0.1831046 -0.21288411 0.20190088 -0.14825314 -0.1147155 0.25366214 -0.14597605 -0.29458356 0.014018686 -0.21407355 -0.39054137 0.06299244 -0.17189336 0.20659137 -0.11427533 -0.04194361 0.079758584 0.09132778 0.027581256 -0.2859062 0.19667585 -0.22167407 0.017062113 0.07277455 -0.44686106 0.057146013 -0.0450354 0.23355378 0.22100262 0.072067514 -0.17607132 -0.27166674 -0.25271675 0.06047849 -0.31799582 -0.1778772 -0.06256481 0.10230164
get -0.0057824426 0.047503594 -0.06526962 0.273046 0.27704406 -0.24359359 0.17574126 -0.14089939 0.07239879 0.53287613 0.14549123 -0.10293714 -0.077280596 -0.2176323 0.08154624 0.49825665 -0.40671632 -0.16112445 -0.20646647 0.56037205 0.10720082 0.042313814 -0.5714281 -0.6854603 -0.5928295 0.23856494 -0.2508129 0.02397601 0.00903689 -0.11020124 0.13431682 -0.13653153 0.014405752 0.11831616 -0.1501096 0.5382223 0.27729434 -0.096147045 -0.10294249 0.27323562 -0.14658506 0.25162497 -0.07806059 -0.19499336 0.2716379 0.022632724 -0.43834284 -0.12946412 -0.14325695 0.056072745 0.35229412 0.1379939 -0.021103706 0.47313684 -0.15229549 -0.19385642 0.42104945 -0.25705332 -0.28408355 -0.06820868 -0.123465054 0.29574496 0.13470614 0.033238348 0.37549487 -0.023301918 0.14647555 0.11165992 -0.11557858 -0.33915058 -0.17155883 -0.36314052 -0.43833566 -0.067661256 0.14438364 0.012405574 -0.3349735 -0.11720846 -0.42171857 0.077676974 -0.34571785 -0.2742642 0.24188305 0.40413982 0.041822083 0.049101483 0.040223423 -0.13949507 0.18704548 0.19947079 -0.17889586 -0.20387022 0.21525404 -0.1659709 -0.08586491 0.2509254 -0.13985714 -0.28432012 0.04071862 -0.21321976 -0.38016948 0.044315837 -0.17705745 0.2039572 -0.09999006 -0.03413836 0.08798999 0.09832077 0.023519589 -0.2858919 0.2167639 -0.23022638 0.0162305 0.070782974 -0.42583087 0.060229957 -0.05735505 0.23456304 0.22537595 0.086287 -0.17662753 -0.28065515 -0.26857755 0.064793974 -0.310267 -0.19128107 -0.08102534 0.09071604
way -0.011585493 0.04243377 -0.0635579 0.23337407 0.25060636 -0.21984352 0.14475374 -0.13772039 0.055226848 0.46578357 0.12532514 -0.0827507 -0.064555205 -0.19168724 0.06081944 0.430551 -0.36214152 -0.15392609 -0.1836752 0.49525163 0.08340952 0.03688071 -0.50598544 -0.6127968 -0.50540817 0.19621414 -0.21890181 0.024320867 0.008291073 -0.104157984 0.13284475 -0.10963153 0.016782535 0.10648524 -0.14190789 0.48315504 0.22786246 -0.080744505 -0.10625458 0.24707526 -0.13219841 0.22532745 -0.07304815 -0.16674675 0.24179333 0.02765069 -0.3883704 -0.105714075 -0.12677126 0.051466577 0.29075873 0.12983501 -0.021539202 0.40406045 -0.13471697 -0.17002545 0.3507474 -0.21984361 -0.23528832 -0.067090176 -0.09636131 0.26946303 0.11422169 0.03505818 0.33558238 -0.022434426 0.12431666 0.10736714 -0.09813647 -0.30943564 -0.14786923 -0.33540884 -0.39270312 -0.07341708 0.1395173 -0.0009174978 -0.28910726 -0.1108401 -0.36814502 0.06722725 -0.31216252 -0.24201545 0.20972203 0.3676913 0.04215682 0.039203152 0.03458626 -0.11694463 0.17005186 0.16306145 -0.14833738 -0.18145335 0.20138556 -0.13358782 -0.06695957 0.23367885 -0.10897462 -0.24591729 0.03806161 -0.1760263 -0.3445308 0.039062068 -0.16200002 0.1885309 -0.090558834 -0.031987388 0.067579664 0.07607015 0.041333992 -0.23957902 0.19311583 -0.19545281 0.0233143 0.06277696 -0.3851166 0.06019474 -0.040563434 0.21355912 0.20569146 0.08024264 -0.1600463 -0.23674956 -0.23807967 0.059096247 -0.28451446 -0.1638732 -0.06086481 0.08227159
bulimia -0.017594181 0.04128512 -0.05487479 0.28867683 0.30290824 -0.26932523 0.19369647 -0.1508451 0.08435664 0.583233 0.15496238 -0.123197176 -0.079024725 -0.23957197 0.08029334 0.54119915 -0.42791128 -0.19260246 -0.2129769 0.5881307 0.10436238 0.03267715 -0.60863185 -0.7610409 -0.6268857 0.26447433 -0.26949754 0.038754098 0.008697952 -0.11896947 0.16878173 -0.14356008 0.013196972 0.11850861 -0.16919927 0.59901345 0.30262697 -0.10282717 -0.118313625 0.28577068 -0.14922355 0.2731512 -0.094208315 -0.20530163 0.31523627 0.030593786 -0.46365714 -0.13774113 -0.15355024 0.05123609 0.36861333 0.16888694 -0.017918387 0.5016976 -0.15946259 -0.23772201 0.44213313 -0.2810769 -0.30076987 -0.056844704 -0.12919484 0.33018973 0.1468513 0.059214372 0.38828415 -0.041019328 0.16202529 0.12804665 -0.12730691 -0.36980754 -0.18451843 -0.407538 -0.48749173 -0.07817433 0.16752797 0.019913124 -0.37108368 -0.14275168 -0.45154744 0.060057152 -0.39275193 -0.2961741 0.26995453 0.4402745 0.06286808 0.080864884 0.043818872 -0.1631575 0.20277333 0.19834585 -0.17946102 -0.22526944 0.25222006 -0.1545474 -0.103645235 0.27763557 -0.14974463 -0.323078 0.023454042 -0.21677542 -0.3975206 0.057244223 -0.18311188 0.20332226 -0.09558951 -0.028885169 0.09610418 0.09763395 0.045599185 -0.3063637 0.21377616 -0.24282058 0.026197236 0.06755475 -0.4694934 0.06231796 -0.0617659 0.25092605 0.2224773 0.10843559 -0.2057275 -0.2954786 -0.294052 0.065928526 -0.33728316 -0.18941377 -0.086034656 0.09719743
year -0.022065453 0.04617544 -0.053152323 0.2635071 0.27825338 -0.25824928 0.17691438 -0.14116088 0.06342186 0.52248156 0.13603455 -0.10253666 -0.07544973 -0.20988984 0.06984096 0.4890041 -0.38939023 -0.16717038 -0.20476732 0.5288949 0.09283276 0.0297161 -0.55581546 -0.6877287 -0.5539141 0.22198771 -0.25137055 0.033024453 0.00023949462 -0.11670459 0.14629418 -0.13053884 0.025152482 0.12342714 -0.15572706 0.53487724 0.26731822 -0.10341497 -0.107750356 0.265019 -0.13010953 0.2429767 -0.07231932 -0.19210248 0.2833904 0.028719958 -0.4317402 -0.13345866 -0.13250402 0.061040405 0.32865372 0.14777023 -0.009663508 0.45669848 -0.14467922 -0.19863264 0.39742744 -0.24333553 -0.2760275 -0.048332855 -0.12018375 0.29245532 0.14189214 0.046138305 0.35464156 -0.03499059 0.14980601 0.09906526 -0.109601155 -0.3300283 -0.16313164 -0.36300254 -0.43755108 -0.065665245 0.14912449 -0.0016027909 -0.32509345 -0.13524863 -0.41283232 0.05974155 -0.34098017 -0.26171508 0.2410724 0.40408707 0.04149494 0.07486788 0.047526155 -0.13782735 0.18838257 0.1879739 -0.16056187 -0.1982531 0.21395017 -0.15369943 -0.07897731 0.24115358 -0.12909622 -0.28619686 0.020593334 -0.19110216 -0.37240544 0.044252045 -0.17909421 0.17908296 -0.084659375 -0.023136033 0.08746095 0.09873214 0.0254916 -0.2687795 0.19886908 -0.21820737 0.029178046 0.07098835 -0.42202097 0.047860194 -0.059113197 0.22462888 0.1988371 0.08472836 -0.17718688 -0.26898068 -0.26836738 0.05378142 -0.31198382 -0.1842189 -0.06513296 0.08064931
know -0.01849137 0.031203642 -0.054340873 0.2213488 0.23731254 -0.2056276 0.15062976 -0.114519425 0.058237832 0.4390374 0.117226414 -0.07166257 -0.07032915 -0.18704914 0.073030174 0.40273145 -0.3305425 -0.14623044 -0.15637042 0.45667014 0.07428084 0.045360155 -0.47944134 -0.56861836 -0.47192493 0.19578075 -0.20832363 0.018321209 -0.002271571 -0.106123336 0.115409404 -0.113149606 0.0008341766 0.10573423 -0.125093 0.4515006 0.22554201 -0.090559125 -0.09410744 0.2285685 -0.12691993 0.20051284 -0.08249859 -0.14451163 0.23001237 0.0115687875 -0.35668886 -0.100237496 -0.12372119 0.058133677 0.27569455 0.11215293 -0.009071166 0.37926286 -0.12087865 -0.17414404 0.3340688 -0.2171731 -0.22922266 -0.05413683 -0.09406471 0.2421891 0.12359569 0.034080464 0.30096716 -0.019253405 0.11655293 0.10707402 -0.099675775 -0.2941661 -0.1344878 -0.31530258 -0.35295886 -0.062612355 0.12083529 0.015026654 -0.27974546 -0.10952333 -0.34185842 0.07010647 -0.29201233 -0.2342826 0.20372187 0.33387825 0.033127323 0.03979571 0.03337013 -0.124869764 0.16621873 0.16100822 -0.15101106 -0.16333772 0.19253361 -0.13763551 -0.076705046 0.21780509 -0.1093613 -0.22950839 0.018496955 -0.17210884 -0.31359252 0.030593822 -0.13746221 0.16550678 -0.07433887 -0.0338792 0.064794414 0.08461186 0.036221128 -0.24094503 0.17921495 -0.20092174 0.0128162205 0.051855985 -0.35600895 0.051344637 -0.036573507 0.20084317 0.18099226 0.057294674 -0.15381925 -0.22518986 -0.22492781 0.057431556 -0.2564237 -0.15858124 -0.064142734 0.08354016
lot -0.0093099335 0.051355693 -0.062025044 0.2396251 0.23853482 -0.22160007 0.15570793 -0.13408045 0.07447672 0.4840054 0.11830878 -0.100396745 -0.0635735 -0.20347989 0.05520885 0.44378266 -0.3666407 -0.15075245 -0.18354243 0.490695 0.09473815 0.038314488 -0.5055013 -0.60847926 -0.51987123 0.20789681 -0.21813197 0.014086761 0.015279375 -0.10447362 0.11214229 -0.12504494 -0.008274799 0.095398754 -0.12476297 0.49788254 0.2408108 -0.086898595 -0.09114104 0.24419653 -0.11507081 0.21316558 -0.0763443 -0.17086244 0.2514081 0.033359278 -0.38552144 -0.12191387 -0.12953264 0.04997251 0.30175486 0.13041082 -0.019096378 0.41333377 -0.13992588 -0.1835131 0.37947366 -0.21539149 -0.25748423 -0.056128755 -0.10600659 0.26257643 0.12444249 0.033097185 0.33786896 -0.034927566 0.12271944 0.09978519 -0.10248715 -0.31218117 -0.14381228 -0.3236927 -0.40008926 -0.060056373 0.122852504 -0.00074725115 -0.30858576 -0.10168634 -0.36442894 0.07641072 -0.3061846 -0.24549782 0.21408437 0.3790395 0.04987126 0.055399235 0.03552295 -0.11920651 0.17314129 0.16658582 -0.14961047 -0.18348765 0.20676903 -0.13548803 -0.07673783 0.22528689 -0.12615943 -0.24920003 0.025634823 -0.18514764 -0.34298846 0.04657641 -0.16578591 0.19095567 -0.08224906 -0.035983354 0.08350965 0.07816216 0.0139420675 -0.2526218 0.18032534 -0.21263845 0.022831628 0.06894429 -0.38498715 0.06052761 -0.043684095 0.22500455 0.19656157 0.08167328 -0.15017311 -0.24482659 -0.24442397 0.06545569 -0.2755262 -0.16965728 -0.07211418 0.0825366
time -0.007224301 0.04514632 -0.049089808 0.25118285 0.24019697 -0.23457162 0.16773681 -0.12028501 0.05698696 0.46554375 0.12558186 -0.09038652 -0.06271383 -0.19889899 0.080372535 0.4188826 -0.34778982 -0.14491329 -0.18362375 0.47896808 0.09023409 0.051687997 -0.5102421 -0.60279727 -0.51201904 0.21390827 -0.21367967 0.034216948 0.018367311 -0.11419205 0.11917367 -0.12125218 0.00671848 0.10274526 -0.13568312 0.47194895 0.24375121 -0.088531345 -0.08111695 0.25271472 -0.12313283 0.22551171 -0.06595469 -0.159384 0.24923651 0.034279935 -0.38846487 -0.09774239 -0.11537734 0.06751591 0.2913275 0.1331689 -0.0041317656 0.41747317 -0.13704042 -0.17170903 0.3580895 -0.22971351 -0.24518366 -0.051689334 -0.08682615 0.2596477 0.119698726 0.046203945 0.3390331 -0.027383415 0.11651521 0.09533751 -0.09837062 -0.30533755 -0.14367616 -0.3201382 -0.38874078 -0.067621455 0.14592098 0.0028911603 -0.29554334 -0.103318 -0.36587915 0.0757108 -0.31444457 -0.2475667 0.2133396 0.35929656 0.024540229 0.055171564 0.04104624 -0.124856174 0.17306376 0.17245583 -0.15826698 -0.18136379 0.18809868 -0.13530308 -0.09267642 0.2259254 -0.12629247 -0.26533782 0.021576997 -0.17851436 -0.34144053 0.04103922 -0.14923298 0.18613443 -0.097099856 -0.030631926 0.075979024 0.07668021 0.023311269 -0.2382273 0.18346685 -0.20656891 0.025460979 0.06879703 -0.39250347 0.047738966 -0.052214615 0.21149924 0.19449863 0.064865254 -0.16166826 -0.24491303 -0.2347937 0.06778905 -0.27324533 -0.16120575 -0.051965605 0.07410214
anyone -0.005845505 0.03514432 -0.04588129 0.22792374 0.2499364 -0.21491721 0.1544317 -0.11564622 0.058211986 0.47312066 0.12140124 -0.09059588 -0.074144356 -0.20517363 0.06723881 0.43570748 -0.347461 -0.14033565 -0.17900233 0.49275085 0.0847375 0.041127753 -0.49234298 -0.6184709 -0.517128 0.19813804 -0.21339525 0.020931132 -0.006680913 -0.105189696 0.13156782 -0.11320521 0.011217394 0.108706 -0.13989261 0.48088992 0.238621 -0.096932106 -0.094269365 0.23984644 -0.11889987 0.21690328 -0.082756855 -0.16568151 0.25135463 0.023957858 -0.37699738 -0.10779743 -0.13029997 0.04796041 0.31222168 0.11920193 -0.021042565 0.40651956 -0.14023957 -0.17762613 0.36783284 -0.22721936 -0.2375052 -0.05087966 -0.1040135 0.25743198 0.12310515 0.045310102 0.3267814 -0.01989959 0.11815047 0.09716668 -0.098126836 -0.29817694 -0.14468488 -0.32575545 -0.3767533 -0.07693492 0.13943654 0.0022066205 -0.29302627 -0.10394195 -0.37736434 0.06046648 -0.31337985 -0.24492629 0.2142297 0.36516932 0.0402743 0.06123374 0.025901528 -0.11974139 0.17497543 0.1639811 -0.1583951 -0.17601545 0.19178522 -0.13900504 -0.07302873 0.23302637 -0.10602531 -0.26059347 0.034469858 -0.18565497 -0.31746235 0.03532422 -0.15811877 0.17579566 -0.08933355 -0.040492736 0.072657324 0.08147201 0.02199069 -0.25682214 0.17708991 -0.19696985 0.025113922 0.054105584 -0.37065977 0.05087551 -0.035735983 0.21386807 0.19620419 0.07386733 -0.16488467 -0.23588139 -0.24490525 0.064314365 -0.28192666 -0.15178415 -0.05889608 0.07833464
weight -0.0058344956 0.028477468 -0.03990022 0.18276894 0.17968883 -0.16983774 0.12553033 -0.104264565 0.05963316 0.37428448 0.089709364 -0.06055326 -0.059392493 -0.14099778 0.04280874 0.34363806 -0.28121063 -0.11395723 -0.12955259 0.37088564 0.06426431 0.028850822 -0.40052083 -0.46224603 -0.4038894 0.16145906 -0.17418453 0.027448481 0.0033718867 -0.08281403 0.0897086 -0.09825627 0.0068505495 0.08775273 -0.11274618 0.37768212 0.1770623 -0.06418189 -0.08474509 0.18811597 -0.10480914 0.16366619 -0.06096651 -0.11942577 0.18158658 0.024597507 -0.28592244 -0.08948736 -0.09076354 0.042953484 0.220815 0.090282395 -0.019140644 0.32784864 -0.09456077 -0.1412398 0.28034034 -0.16413221 -0.18777005 -0.04214588 -0.071716525 0.20464516 0.0967746 0.015274039 0.2620319 -0.025937883 0.09120041 0.07594727 -0.08443196 -0.24461658 -0.10661353 -0.24609652 -0.2965669 -0.062529266 0.10306087 0.00046935538 -0.23504223 -0.082166195 -0.28564167 0.050297357 -0.22534968 -0.18639237 0.17309582 0.27363244 0.041424386 0.027405532 0.034307886 -0.09894027 0.13724852 0.14099668 -0.11462008 -0.14191602 0.14893691 -0.09766368 -0.068662904 0.17169268 -0.090679 -0.20064896 0.024424365 -0.13467073 -0.2522524 0.034284737 -0.12062133 0.15079749 -0.065776184 -0.029575659 0.052465115 0.056872718 0.029094635 -0.194319 0.14376612 -0.15845805 0.0015916463 0.04811063 -0.30384293 0.036476776 -0.040979777 0.16451156 0.15405303 0.06324406 -0.10967072 -0.18668695 -0.19107904 0.049735483 -0.217801 -0.122048505 -0.058656648 0.05853668
people -0.019724704 0.04582865 -0.050727766 0.25662246 0.26671216 -0.2316589 0.16658062 -0.14180729 0.08096454 0.5092222 0.13097611 -0.09317044 -0.07385613 -0.21539229 0.065956905 0.45941925 -0.3905273 -0.16948558 -0.18638484 0.52575624 0.09845897 0.036146756 -0.5511566 -0.66442084 -0.551468 0.22358552 -0.2215816 0.019678742 0.006907432 -0.120115235 0.15161538 -0.12650128 0.0050193435 0.11664874 -0.14019334 0.504942 0.25116026 -0.1054358 -0.10346214 0.26832965 -0.13011023 0.24573573 -0.081923835 -0.17353381 0.27220458 0.036070783 -0.41445014 -0.108203486 -0.1293932 0.05478934 0.32843646 0.14041367 -0.019727092 0.45295134 -0.14940225 -0.1892997 0.4036672 -0.23090127 -0.27249897 -0.067590825 -0.11309153 0.28844672 0.13158666 0.03239963 0.36189592 -0.025995472 0.13785166 0.11097411 -0.10438654 -0.33558145 -0.1640649 -0.35698122 -0.4143629 -0.075109735 0.13566159 0.0023499515 -0.3093479 -0.12463431 -0.4018609 0.07784985 -0.33248624 -0.26395127 0.2352099 0.39719734 0.032929614 0.048793882 0.04024015 -0.13292865 0.17409179 0.1907995 -0.16093552 -0.19801241 0.22746702 -0.15380125 -0.085060515 0.24847127 -0.127798 -0.28633127 0.023231307 -0.19938785 -0.34642696 0.050634176 -0.16601397 0.19588287 -0.093331635 -0.03798011 0.0799839 0.07953029 0.038810596 -0.27148125 0.19387744 -0.22788264 0.019927414 0.06411784 -0.4209023 0.061389517 -0.03543938 0.22844037 0.1998021 0.08723494 -0.1799753 -0.26542056 -0.2521098 0.04808787 -0.2973001 -0.17385837 -0.061551116 0.08253834
recovery -0.0036371774 0.03379414 -0.050863963 0.23161595 0.239254 -0.22277385 0.14462492 -0.13245818 0.056507044 0.4530226 0.13075612 -0.0778463 -0.06459906 -0.18819928 0.07211063 0.43216196 -0.33702505 -0.14967479 -0.1663744 0.4628044 0.094737105 0.035276763 -0.496757 -0.6008989 -0.4964301 0.1996553 -0.21789292 0.022184044 0.0077347686 -0.105042875 0.121818855 -0.12706363 0.019038558 0.10781809 -0.13896726 0.47127935 0.23753737 -0.08351632 -0.09516069 0.22657521 -0.114473864 0.22372392 -0.06723944 -0.1633978 0.23829862 0.01868127 -0.37594557 -0.11609164 -0.12658016 0.041226547 0.27791533 0.13625474 -0.0037521624 0.39233255 -0.127985 -0.1776447 0.34812593 -0.21870415 -0.24618895 -0.050212316 -0.094314344 0.25054878 0.11390195 0.03721083 0.3170658 -0.039884716 0.13880342 0.08918144 -0.10059761 -0.30500728 -0.14126909 -0.31680807 -0.37859383 -0.07095284 0.13098788 0.0107258 -0.29080534 -0.106188126 -0.35924214 0.053097665 -0.30008456 -0.23114327 0.21495982 0.3570108 0.04101243 0.063942105 0.040841833 -0.11787225 0.17785357 0.15404579 -0.15222043 -0.16911048 0.19946001 -0.116744496 -0.07018121 0.20815898 -0.10839257 -0.2516508 0.011646458 -0.16691503 -0.3252559 0.03956272 -0.15535015 0.17120501 -0.074215084 -0.021234887 0.0801279 0.08209348 0.039066117 -0.24953444 0.17572014 -0.19221766 0.01809863 0.05637398 -0.36993837 0.051768124 -0.04649354 0.193006 0.17143504 0.081479214 -0.1648463 -0.243042 -0.23219267 0.03762855 -0.2592001 -0.15996347 -0.06348722 0.057561394
could -0.022441996 0.038811784 -0.06400986 0.27000841 0.287231 -0.25747737 0.18143296 -0.14031313 0.065691315 0.53501236 0.13622971 -0.11228459 -0.09303214 -0.22882718 0.08485609 0.4992505 -0.41170126 -0.16585624 -0.20082723 0.5526641 0.114039175 0.05208824 -0.58968997 -0.7158897 -0.58612037 0.23477785 -0.24865575 0.027334256 0.013792434 -0.1176617 0.15067984 -0.14009072 0.010670432 0.11879447 -0.15941161 0.55872256 0.26965106 -0.10288269 -0.10025845 0.2717587 -0.13093537 0.24675785 -0.09161753 -0.18704495 0.28275308 0.026008071 -0.44537777 -0.12675577 -0.14758027 0.061685916 0.36379305 0.15566705 -0.020950621 0.47503966 -0.16012697 -0.19466728 0.41832587 -0.25566885 -0.27842546 -0.056964047 -0.11705719 0.30834064 0.1524011 0.040775754 0.37814188 -0.013987546 0.15228611 0.12190281 -0.116993204 -0.3526178 -0.1815215 -0.38242275 -0.45507532 -0.076253995 0.14767341 0.0067653754 -0.3318858 -0.113939 -0.414992 0.07488288 -0.3578888 -0.27266356 0.24249057 0.41764402 0.057295345 0.051741537 0.040827304 -0.14792329 0.18746483 0.19648956 -0.18282059 -0.19843993 0.22411305 -0.1706192 -0.07847787 0.26432374 -0.12921642 -0.29249865 0.025339745 -0.2127052 -0.3828926 0.062478166 -0.18738207 0.20650093 -0.097797826 -0.036086645 0.07958634 0.092801824 0.030787747 -0.28340644 0.2158304 -0.23227847 0.010996111 0.07434569 -0.4510623 0.05698425 -0.055312112 0.23410761 0.23534547 0.08419322 -0.19742385 -0.27543852 -0.27953607 0.05716553 -0.3194479 -0.18329568 -0.075772874 0.10150949
purge -0.014550524 0.041089036 -0.049600072 0.22527991 0.24138539 -0.20974305 0.14648062 -0.116248034 0.06847191 0.45659676 0.12626585 -0.07997465 -0.059072074 -0.19274244 0.05940871 0.409535 -0.33214033 -0.13475141 -0.17551936 0.46815038 0.08132671 0.028838031 -0.48284924 -0.5881449 -0.4972543 0.19512089 -0.20877 0.020920336 0.0017962549 -0.09755627 0.12338679 -0.112273574 0.0076548033 0.10313344 -0.116144344 0.460715 0.22070228 -0.089510754 -0.08597781 0.2347188 -0.120161235 0.2162069 -0.07992571 -0.16407165 0.23891719 0.021195184 -0.36331135 -0.09330899 -0.124193415 0.06359773 0.2931666 0.13047764 -0.013097292 0.38675243 -0.1246039 -0.16216393 0.35228804 -0.21139994 -0.22291167 -0.0438554 -0.106524095 0.25444445 0.11604253 0.03624272 0.32091722 -0.017700998 0.12803853 0.09658169 -0.09544299 -0.275431 -0.14750254 -0.3088781 -0.36058033 -0.06612155 0.13145706 -0.0030229122 -0.2652278 -0.09734839 -0.34782636 0.06843454 -0.2941427 -0.23420823 0.20143156 0.35427248 0.030925743 0.048246015 0.040828113 -0.11826109 0.15669762 0.16470848 -0.13818198 -0.18024461 0.18159577 -0.13678993 -0.08093115 0.20552889 -0.118031904 -0.2541953 0.02768607 -0.18079555 -0.33498785 0.036451932 -0.15641938 0.17892373 -0.07992097 -0.031456154 0.06591603 0.067981295 0.024518054 -0.23470967 0.17758206 -0.18905406 0.018998928 0.060171068 -0.37643176 0.043739513 -0.050649818 0.19651577 0.1852042 0.07438139 -0.15209626 -0.23465076 -0.21747781 0.05862442 -0.26905584 -0.14078817 -0.057801466 0.07402452
make -0.0020566527 0.030847996 -0.042196065 0.23484783 0.25638527 -0.21485215 0.15001635 -0.14077331 0.060866952 0.4805901 0.12623191 -0.09566745 -0.07969017 -0.20211016 0.061113168 0.43453294 -0.36716917 -0.15762523 -0.19604775 0.4951518 0.09121183 0.033335987 -0.51077306 -0.6330139 -0.5312467 0.21493684 -0.22924767 0.015085595 0.004242088 -0.11606662 0.1257336 -0.117993 0.004023063 0.112296335 -0.122695535 0.4852155 0.24650784 -0.08507796 -0.10078327 0.2615839 -0.11516927 0.2170665 -0.08568585 -0.17186865 0.25406784 0.018924415 -0.38276854 -0.11654119 -0.13800012 0.055524595 0.3125802 0.13630189 -0.025933819 0.42295977 -0.13729727 -0.17997205 0.38507247 -0.23778123 -0.25114912 -0.048599835 -0.10121592 0.26350388 0.14001541 0.04368106 0.3352262 -0.025921622 0.13565631 0.10057505 -0.11359056 -0.3183627 -0.15865086 -0.33454478 -0.3975901 -0.06842358 0.13361055 0.010119287 -0.29856968 -0.11184811 -0.3861833 0.057557847 -0.31966978 -0.23705961 0.22372103 0.37002325 0.036311194 0.060535286 0.031255096 -0.12076877 0.16548051 0.18256938 -0.1620275 -0.1785761 0.20337439 -0.1505712 -0.078204796 0.23309873 -0.12990896 -0.26548368 0.021788593 -0.18301325 -0.34222445 0.04789334 -0.16581632 0.19267158 -0.078559056 -0.043346934 0.07025919 0.08292897 0.033512544 -0.25581235 0.18145892 -0.21641667 0.03283392 0.05353442 -0.39878544 0.06735065 -0.055102877 0.21996611 0.19781405 0.08269027 -0.15395364 -0.25146705 -0.24807727 0.06819953 -0.28496766 -0.15729159 -0.073512785 0.09786935
happen -0.023169039 0.03237482 -0.058611423 0.25013372 0.2645756 -0.24718939 0.170205 -0.13654613 0.05902564 0.5043886 0.14157115 -0.08732263 -0.07788018 -0.22154583 0.08071828 0.45671633 -0.3802962 -0.15174963 -0.19030343 0.51939446 0.09686764 0.03697917 -0.54736376 -0.65402097 -0.5488953 0.22752891 -0.23233886 0.024900151 0.022066668 -0.12955792 0.12439656 -0.12900792 0.007737331 0.11116806 -0.13612519 0.52965784 0.25474826 -0.098215275 -0.094604604 0.261378 -0.118424244 0.24465986 -0.08795713 -0.18055843 0.27920094 0.020806126 -0.41800225 -0.12785178 -0.1258132 0.06372626 0.3415723 0.13273814 -0.012032155 0.45241258 -0.14734732 -0.18844974 0.38837 -0.25541276 -0.26844972 -0.05256697 -0.10424714 0.29283094 0.13548794 0.049300503 0.35301855 -0.021387003 0.13621661 0.11579394 -0.097246386 -0.33608618 -0.15753926 -0.36042094 -0.4228384 -0.08215802 0.14017072 0.020579904 -0.32024878 -0.11379998 -0.39100832 0.079356864 -0.3429273 -0.26113197 0.24321495 0.40302777 0.04365942 0.048332766 0.043577697 -0.13750848 0.18804991 0.17743751 -0.16907643 -0.19312525 0.21383066 -0.1517974 -0.08053719 0.24830635 -0.13629818 -0.28121325 0.037343644 -0.19898486 -0.36932486 0.060951885 -0.17485468 0.19211666 -0.085521 -0.033178456 0.080512956 0.081530884 0.031170314 -0.27055946 0.20954356 -0.22189707 0.022614611 0.06764638 -0.42368537 0.050694194 -0.04804135 0.2268391 0.22044331 0.0901699 -0.17563649 -0.26072276 -0.2626245 0.0650425 -0.3131599 -0.18147942 -0.07662096 0.08399887
much 0.004141259 0.03275808 -0.05822608 0.22970375 0.23602419 -0.19662061 0.14476274 -0.123974666 0.054585934 0.43549845 0.1274478 -0.07464663 -0.064605154 -0.19686268 0.061803855 0.42107654 -0.34211227 -0.13206525 -0.1630409 0.4599334 0.08301895 0.038695343 -0.4813779 -0.590359 -0.48908347 0.18921159 -0.21076316 0.031219374 0.007949533 -0.10358477 0.13496235 -0.11900861 0.010362939 0.09231413 -0.11517805 0.45455855 0.236062 -0.08487528 -0.10065803 0.23427345 -0.10259006 0.20611706 -0.071327515 -0.15946366 0.2423568 0.019246548 -0.3678434 -0.11109813 -0.12268341 0.05789854 0.285914 0.13016345 -0.010728376 0.40223902 -0.11909412 -0.16282405 0.35458907 -0.21991652 -0.23881172 -0.04671636 -0.10848809 0.25313532 0.11352276 0.046111792 0.32447496 -0.025297323 0.123374164 0.09713883 -0.10583096 -0.2848109 -0.14234686 -0.31177828 -0.36958075 -0.060437843 0.11484837 0.002093816 -0.28498265 -0.09502581 -0.34433466 0.068220966 -0.29146546 -0.23514308 0.2079378 0.35931358 0.055558503 0.05576448 0.038850334 -0.11180844 0.15821618 0.15745673 -0.14731076 -0.17986761 0.19755661 -0.12532167 -0.073701106 0.20658445 -0.116779424 -0.24767043 0.02458183 -0.17220281 -0.31652904 0.0367609 -0.1554778 0.17518532 -0.08339719 -0.03540419 0.08051867 0.07532324 0.016685275 -0.23042345 0.18540971 -0.20361316 0.028294254 0.063986264 -0.37331367 0.047507174 -0.034297425 0.20438504 0.19793373 0.058528457 -0.15042916 -0.24149074 -0.24014199 0.049250428 -0.27415955 -0.15590107 -0.062129002 0.07555037
good -0.010542372 0.03919855 -0.04054773 0.22713776 0.23111077 -0.20956704 0.14382392 -0.12257387 0.05221329 0.4604546 0.1281021 -0.091800876 -0.06590734 -0.19098343 0.06477715 0.42059013 -0.3282288 -0.14573355 -0.18102768 0.47181687 0.097259246 0.032359783 -0.49509126 -0.5883693 -0.48703897 0.1868111 -0.21210864 0.018238993 0.01608045 -0.09417286 0.117027596 -0.11284331 0.0008402692 0.09232612 -0.12428694 0.46136364 0.2330584 -0.09167701 -0.08325006 0.23263994 -0.1073706 0.21721601 -0.07227723 -0.16779363 0.2446766 0.032413505 -0.36551657 -0.100841105 -0.12014054 0.06099371 0.30202264 0.11644782 -0.025530368 0.4078899 -0.12914921 -0.17128576 0.3508501 -0.21238959 -0.24808466 -0.048433553 -0.091578364 0.25298452 0.12222701 0.029820679 0.31471434 -0.028301224 0.13160041 0.10614885 -0.095101185 -0.29620224 -0.14888066 -0.3073704 -0.37670985 -0.05398233 0.13265967 0.010077502 -0.29321343 -0.11632486 -0.34595755 0.059319545 -0.3021882 -0.22544162 0.21306287 0.35610932 0.051133092 0.042253472 0.040281422 -0.1118468 0.1662705 0.16246723 -0.14588457 -0.18014945 0.19606975 -0.13248494 -0.06571202 0.21596123 -0.120529704 -0.25211373 0.017116029 -0.17925751 -0.33154672 0.044853587 -0.15247576 0.16805932 -0.08063839 -0.030653566 0.06518156 0.07103372 0.025572995 -0.24775892 0.16523662 -0.20529045 0.027551431 0.053530723 -0.3811686 0.0477094 -0.03589713 0.1936167 0.19066042 0.07303304 -0.14601685 -0.23437272 -0.22660588 0.047545988 -0.27256203 -0.14699864 -0.07073605 0.083261065
would -0.0030538149 0.032291852 -0.06273504 0.23792383 0.24424659 -0.20812863 0.14944668 -0.12653977 0.058745813 0.47078595 0.113113515 -0.09152187 -0.071827985 -0.19956715 0.07903648 0.45219392 -0.35127258 -0.14337242 -0.17507055 0.49716166 0.09042612 0.032174733 -0.51591825 -0.64897734 -0.52199686 0.20005032 -0.20528094 0.030757139 0.008057162 -0.12091167 0.1474904 -0.13572137 0.009837973 0.11803364 -0.13223518 0.49077624 0.24945626 -0.0847832 -0.09605373 0.25388512 -0.11214097 0.21562931 -0.07520928 -0.16378343 0.25160605 0.024597073 -0.39317167 -0.11194255 -0.12564549 0.05790026 0.31574208 0.13190095 -0.010324722 0.41894615 -0.13917042 -0.17822616 0.38884604 -0.24271633 -0.24865799 -0.056918073 -0.11639904 0.26818085 0.120096214 0.048036117 0.33611208 -0.022616988 0.13251196 0.114205055 -0.09343235 -0.31516373 -0.15753005 -0.32990673 -0.40070894 -0.069571726 0.1453594 0.0034190055 -0.2926991 -0.10551684 -0.37228623 0.07117219 -0.30978963 -0.24327534 0.21868518 0.38824517 0.04442382 0.059098665 0.03688622 -0.13387121 0.18062308 0.16960984 -0.15385377 -0.1958457 0.21216878 -0.13047373 -0.072723344 0.2243118 -0.12580206 -0.25538296 0.030857287 -0.18393953 -0.34736702 0.042880014 -0.1710691 0.18681952 -0.09750049 -0.038099993 0.08366155 0.08571903 0.023361733 -0.25126624 0.18362491 -0.21705692 0.024115132 0.063526444 -0.40941104 0.051794555 -0.033148132 0.22295448 0.20563865 0.063780844 -0.16448504 -0.24052395 -0.24589205 0.057849523 -0.2891489 -0.1557169 -0.06519912 0.09670937
binge -0.0020345515 0.021977674 -0.044097092 0.1947027 0.1802779 -0.16352168 0.10867433 -0.097880155 0.041290242 0.3676758 0.10886681 -0.06015348 -0.051737454 -0.14851475 0.048825953 0.34240597 -0.27757132 -0.10338804 -0.13715553 0.364453 0.069757394 0.032789037 -0.39383635 -0.48372048 -0.40052363 0.15884142 -0.1700311 0.02774673 0.0075685657 -0.07456475 0.094254404 -0.09468033 0.00627792 0.08173714 -0.100893006 0.37000194 0.18399408 -0.06023653 -0.07372048 0.19261318 -0.08994654 0.17255513 -0.054633435 -0.1289077 0.1935429 0.014948149 -0.303159 -0.07716921 -0.10169914 0.047684778 0.2227233 0.089565925 -0.007545765 0.31710583 -0.0978807 -0.12740652 0.27352378 -0.17672105 -0.18188898 -0.032027096 -0.07569922 0.20968434 0.09968416 0.029423416 0.2458903 -0.02018444 0.1031692 0.07828392 -0.071244135 -0.22532089 -0.11397794 -0.26170906 -0.29979953 -0.05418977 0.11478777 0.00061967917 -0.22218242 -0.08020236 -0.28585902 0.043821912 -0.23255128 -0.19213152 0.16546379 0.29136133 0.027461307 0.04400446 0.027587386 -0.10312222 0.123268664 0.13800241 -0.11187619 -0.12900984 0.16310655 -0.095674165 -0.051223293 0.17933378 -0.08632665 -0.19698021 0.022726357 -0.14670497 -0.25541475 0.034419928 -0.12464415 0.13945529 -0.058614835 -0.021887502 0.050908398 0.053328246 0.014390031 -0.18867345 0.1501279 -0.16636252 0.013597983 0.043617267 -0.29264623 0.04452868 -0.04063719 0.1491693 0.14112197 0.04423134 -0.11583481 -0.18720494 -0.19073929 0.04504934 -0.21335629 -0.11810898 -0.050447185 0.05229309
one -0.0076845814 0.022999113 -0.049044088 0.2158082 0.20517199 -0.1889839 0.11957633 -0.11709542 0.04776074 0.40141118 0.09763723 -0.0704862 -0.06498434 -0.16356534 0.052556302 0.3816257 -0.30049935 -0.11759796 -0.14785226 0.41020557 0.068352975 0.033440284 -0.43571183 -0.53165114 -0.43747064 0.17009673 -0.1680442 0.023442736 -0.0022748604 -0.10596205 0.13245624 -0.10433404 0.027284937 0.097267255 -0.116524145 0.41614857 0.19297217 -0.06511595 -0.092291676 0.20235316 -0.100987226 0.18152328 -0.075492136 -0.1436951 0.2123435 0.027903344 -0.33535823 -0.08708129 -0.1127615 0.044495106 0.2473164 0.10990316 -0.0037961449 0.3612528 -0.09888798 -0.13921714 0.3035407 -0.19431546 -0.19880255 -0.037416164 -0.07967586 0.23481357 0.105182804 0.032165445 0.26894143 -0.0067196838 0.11938337 0.07606371 -0.08155055 -0.24343477 -0.1173418 -0.26626262 -0.32027325 -0.06488057 0.1215065 0.0124484645 -0.25509888 -0.08691789 -0.2950112 0.064668715 -0.26934046 -0.2083285 0.1810117 0.31676325 0.038569976 0.024992766 0.038650393 -0.09088618 0.14652035 0.15643367 -0.12900741 -0.15032989 0.18463776 -0.1099415 -0.064478606 0.19379601 -0.10279793 -0.21048348 0.020286856 -0.14549282 -0.29326534 0.034804087 -0.124966376 0.14689264 -0.0762236 -0.020786751 0.07504236 0.06569642 0.015807364 -0.19667114 0.14710376 -0.17227806 0.019385964 0.039148804 -0.336649 0.02739247 -0.03344416 0.1829925 0.15833968 0.048690055 -0.12302379 -0.21353216 -0.20711459 0.053158082 -0.24166004 -0.1393593 -0.048110902 0.071409926
vomit 0.006899806 0.042259052 -0.045711394 0.25499842 0.2935 -0.25718418 0.17107904 -0.12885144 0.09661309 0.5247952 0.122642 -0.121057115 -0.07943862 -0.24401514 0.065649495 0.50068974 -0.39712507 -0.17008825 -0.22033356 0.55602294 0.12148235 0.012175123 -0.5978706 -0.7211017 -0.594484 0.22849289 -0.2540061 0.025279105 0.0048836316 -0.12923327 0.1430382 -0.15082659 0.0134268375 0.12896587 -0.12740774 0.538169 0.27824932 -0.088988215 -0.10271535 0.27903536 -0.11157506 0.243665 -0.08935085 -0.19111079 0.27010313 0.04024731 -0.4112182 -0.111935616 -0.13309337 0.06916576 0.33413938 0.16532063 -0.015776172 0.47004077 -0.14294681 -0.19752944 0.42845723 -0.27339184 -0.27570835 -0.08182905 -0.12098398 0.31652367 0.13516942 0.049831856 0.40184835 -0.017063407 0.15825576 0.12423507 -0.1024495 -0.33002186 -0.18448374 -0.35140064 -0.42684805 -0.08362686 0.15890297 0.0074966582 -0.32373288 -0.10920037 -0.41520733 0.075162195 -0.36081207 -0.2551589 0.2235413 0.41579854 0.036148712 0.05718737 0.039234336 -0.1439611 0.20537564 0.18926677 -0.1857771 -0.21853784 0.24843049 -0.14561038 -0.09184834 0.261862 -0.14823142 -0.28863284 0.027583688 -0.20452267 -0.3913287 0.03566967 -0.18932699 0.21528213 -0.12174744 -0.04901472 0.09962452 0.08765004 0.021655366 -0.2676867 0.21541257 -0.24961995 0.0427154 0.062132012 -0.4703306 0.066216476 -0.04846876 0.24637987 0.2100587 0.091653466 -0.21026304 -0.264421 -0.28362444 0.058017027 -0.30377018 -0.15207762 -0.09211688 0.101291284
stop -0.017082771 0.022847086 -0.046139665 0.20045589 0.2003077 -0.17423597 0.12284181 -0.09605123 0.058919344 0.38034555 0.09392958 -0.07071265 -0.06458009 -0.15749452 0.055664424 0.35504687 -0.29478747 -0.13004456 -0.14900135 0.39983836 0.08272724 0.037371103 -0.4225163 -0.5007879 -0.42612323 0.1673553 -0.18380874 0.015026003 0.012405616 -0.09647717 0.094890445 -0.10862689 0.011142503 0.08898694 -0.10225336 0.39820245 0.18746577 -0.083079 -0.06832865 0.21166006 -0.099328086 0.18698701 -0.057163008 -0.13642965 0.20426317 0.023416745 -0.29811287 -0.07937078 -0.11502208 0.040832438 0.25460556 0.1021401 -0.015825737 0.34733543 -0.103812836 -0.15553531 0.3013126 -0.18997163 -0.19353043 -0.04715958 -0.08365857 0.22129394 0.11190997 0.037268844 0.27942646 -0.012588837 0.1027565 0.0981578 -0.082593136 -0.250492 -0.13323973 -0.26908836 -0.32606637 -0.04839176 0.10520896 0.004574922 -0.23879592 -0.0908669 -0.31219116 0.06063326 -0.25977188 -0.20811237 0.1857506 0.3009558 0.036866173 0.033771258 0.02739283 -0.11031997 0.1421438 0.12972833 -0.11975136 -0.1555734 0.16312496 -0.1145955 -0.069816686 0.18526295 -0.1041715 -0.20535646 0.010430014 -0.14887749 -0.26771048 0.036158495 -0.13067241 0.15445235 -0.08326698 -0.042403106 0.061650872 0.07836496 0.021285009 -0.21519218 0.149046 -0.1854243 0.014691246 0.059458505 -0.3290771 0.03695837 -0.021752747 0.1748306 0.15237795 0.05307634 -0.14890431 -0.20350009 -0.20621346 0.05057739 -0.23128438 -0.1219031 -0.046536185 0.07311888
go -0.016148716 0.053432185 -0.055443496 0.26631114 0.28686595 -0.2505093 0.17011683 -0.14527151 0.0751207 0.54380584 0.15203989 -0.099123515 -0.06640503 -0.23324867 0.08490796 0.49746665 -0.39995253 -0.1826462 -0.21643302 0.56516486 0.10647508 0.044516895 -0.5888189 -0.6942545 -0.5934209 0.23838902 -0.24561478 0.023374263 0.01868141 -0.12117404 0.1419087 -0.13841522 0.0011075462 0.12132804 -0.15381514 0.5621669 0.2650245 -0.10305298 -0.100157455 0.28269982 -0.14160238 0.25804603 -0.09432575 -0.1863791 0.296204 0.03365489 -0.44479102 -0.12678184 -0.14423801 0.065094426 0.35342148 0.15303932 -0.029348833 0.47922537 -0.15037116 -0.20560399 0.41671878 -0.26125264 -0.291213 -0.054332744 -0.12690072 0.3062706 0.14516653 0.04370125 0.38598755 -0.035753764 0.15583399 0.12909958 -0.122802034 -0.3423024 -0.16141912 -0.37179548 -0.45118976 -0.066054486 0.1552522 0.014149823 -0.34061316 -0.14060749 -0.4252388 0.06555868 -0.35663348 -0.2714517 0.23656668 0.42823648 0.045900103 0.06590147 0.04385185 -0.15213187 0.19821946 0.20106663 -0.16827562 -0.20627758 0.22615682 -0.16630286 -0.08081326 0.25746349 -0.1271717 -0.28562027 0.019660074 -0.21258008 -0.38134205 0.056669883 -0.18306962 0.19932234 -0.09867404 -0.033552933 0.087737925 0.09778473 0.034138422 -0.28682327 0.21644238 -0.24293245 0.018446099 0.06550258 -0.4425311 0.06443984 -0.05649775 0.23311692 0.21176623 0.08501957 -0.18034056 -0.27985832 -0.26192886 0.058385704 -0.31863844 -0.18262997 -0.07579746 0.09557158
love -0.009109661 0.018750105 -0.03831822 0.17760822 0.18719 -0.15850641 0.11476827 -0.10484421 0.04669966 0.34158733 0.09408316 -0.07336785 -0.063808836 -0.14560986 0.054944184 0.34264588 -0.2676592 -0.12198624 -0.11821989 0.3612586 0.069651715 0.037339177 -0.3870876 -0.4760491 -0.39044532 0.15726897 -0.148502 0.03274246 0.0030179329 -0.094279066 0.119812645 -0.10321558 0.026631355 0.08592326 -0.092380986 0.36933616 0.17897171 -0.064963266 -0.0850808 0.19175613 -0.08713113 0.17272699 -0.06575922 -0.13888721 0.19979513 0.02044375 -0.30123368 -0.09073223 -0.10467086 0.04709008 0.22181551 0.100495234 -0.009668193 0.3089424 -0.099147305 -0.13629746 0.27451155 -0.18167709 -0.19737361 -0.040233545 -0.08681514 0.19714122 0.093483955 0.03131955 0.26122177 -0.00328606 0.08904347 0.07095318 -0.06557978 -0.22320123 -0.107195206 -0.25002024 -0.3050738 -0.05988773 0.0949865 0.010818151 -0.23206557 -0.06566413 -0.28348288 0.06007897 -0.23906554 -0.17186779 0.16218145 0.2759044 0.04526008 0.026503066 0.02327121 -0.086036086 0.12375599 0.14114796 -0.112020984 -0.15115735 0.15710273 -0.097603895 -0.048500746 0.17541686 -0.09218157 -0.19717553 0.030220639 -0.14663783 -0.24774998 0.03157508 -0.12632455 0.13036637 -0.065575585 -0.033009026 0.06370471 0.05577083 0.0344528 -0.1920659 0.13644543 -0.15171374 0.023603957 0.046114154 -0.30106136 0.03593293 -0.03893744 0.15565254 0.14894813 0.051317766 -0.12482264 -0.19386415 -0.19713975 0.04788674 -0.21472289 -0.11245959 -0.049363986 0.07237628
look -0.018358136 0.040081274 -0.048239 0.22234944 0.23549996 -0.22200598 0.15841526 -0.12480343 0.06998904 0.4615232 0.113667026 -0.079344526 -0.059029784 -0.19361255 0.056148592 0.42443752 -0.3461113 -0.14553377 -0.17266011 0.47169387 0.088281855 0.039374255 -0.487409 -0.5760336 -0.5032111 0.18649532 -0.21414173 0.016175868 0.0013384629 -0.10704614 0.11725354 -0.10923846 0.01607217 0.098984174 -0.12391623 0.47051817 0.2223018 -0.087883815 -0.09856803 0.23860644 -0.11811348 0.20396829 -0.0816178 -0.15265185 0.24093805 0.030967534 -0.36302656 -0.11142664 -0.12127367 0.058314648 0.2850449 0.1179482 -0.01998939 0.4061784 -0.13474214 -0.1641882 0.34689862 -0.20605983 -0.23657602 -0.057805303 -0.089623496 0.25049877 0.12193478 0.034134615 0.31427485 -0.022776123 0.12191398 0.094902284 -0.09107204 -0.2937125 -0.1310484 -0.30199715 -0.37865356 -0.07096356 0.123736046 0.012482254 -0.29268673 -0.11081575 -0.35822815 0.068187065 -0.30044115 -0.23319545 0.21106243 0.3550379 0.0506066 0.043383442 0.0399521 -0.11960437 0.15471496 0.16324526 -0.15177757 -0.17126597 0.18705355 -0.14203784 -0.063731834 0.21182528 -0.106207095 -0.24262002 0.031437222 -0.17687759 -0.3249445 0.05125735 -0.14533193 0.17524864 -0.09449872 -0.038901 0.082371265 0.07952948 0.025860561 -0.23157273 0.18162014 -0.19450347 0.019631037 0.062056705 -0.3672162 0.05057615 -0.050821234 0.2139013 0.19674186 0.0752433 -0.14706679 -0.22930254 -0.23999013 0.050219454 -0.26037 -0.15064166 -0.058540925 0.08700387
shit -0.015245526 0.052983314 -0.06246449 0.268458 0.2653714 -0.24583296 0.17581773 -0.14751403 0.07227402 0.52953064 0.12983291 -0.10352792 -0.084510714 -0.23400691 0.07828594 0.49019843 -0.40516794 -0.17450182 -0.18629724 0.5509116 0.1080091 0.027088013 -0.57288706 -0.6988399 -0.5878947 0.2343342 -0.23000921 0.02741684 -0.0061724926 -0.109857336 0.15580301 -0.13388228 0.0008951225 0.10592456 -0.15508752 0.5427202 0.25853187 -0.1045386 -0.11475749 0.26453915 -0.13282804 0.2524373 -0.091522574 -0.18329756 0.28011826 0.02375946 -0.41733912 -0.12279978 -0.15039034 0.047569264 0.3429787 0.13814175 -0.028739136 0.4556484 -0.13984999 -0.21620953 0.4108925 -0.25185078 -0.28207198 -0.062677674 -0.10193893 0.30367354 0.14257997 0.03991263 0.35958493 -0.033639565 0.12087665 0.12693417 -0.11845808 -0.34438357 -0.16457358 -0.36184245 -0.43793845 -0.07358242 0.15354834 0.004186859 -0.33451995 -0.11002383 -0.40579647 0.07143013 -0.3372626 -0.26694304 0.2306578 0.41734865 0.038012423 0.05445213 0.028206779 -0.14001705 0.19523259 0.17449309 -0.16867344 -0.19224784 0.21934402 -0.14579959 -0.09988526 0.25288472 -0.14416485 -0.2986557 0.031375475 -0.19400313 -0.3696524 0.041590333 -0.16578314 0.19542968 -0.104186095 -0.02826195 0.092244856 0.080053896 0.044873115 -0.2875971 0.20009981 -0.22582227 0.009750616 0.067792565 -0.420719 0.05547703 -0.04073508 0.21916717 0.22333717 0.09502551 -0.17171885 -0.27489284 -0.26913345 0.05611855 -0.31217974 -0.18607669 -0.06963236 0.08428992
start -0.0063601327 0.049511965 -0.054362457 0.28408933 0.29456425 -0.2719188 0.18403912 -0.13870244 0.07595645 0.5607631 0.14450233 -0.10452145 -0.08379518 -0.24529836 0.08409353 0.51547146 -0.42605275 -0.17601041 -0.22405379 0.59914726 0.115122646 0.029310057 -0.60053986 -0.751717 -0.62220234 0.25642124 -0.26796436 0.023927148 0.019074783 -0.13478905 0.13713887 -0.13146608 0.0050960034 0.122507036 -0.1346177 0.5887707 0.29370585 -0.101388484 -0.1175304 0.3038138 -0.13852306 0.26565108 -0.08641963 -0.20069273 0.30361256 0.030745957 -0.46507525 -0.1392369 -0.15111044 0.068560734 0.36700153 0.1645446 -0.020053383 0.5035267 -0.1580457 -0.20806953 0.43771148 -0.26727527 -0.29525882 -0.07136617 -0.13629 0.31228575 0.15732569 0.047102008 0.39683637 -0.020630425 0.15904343 0.11923577 -0.12354576 -0.36458382 -0.18946624 -0.40330282 -0.4683405 -0.083471216 0.16343293 0.01542915 -0.36314985 -0.14165224 -0.44339806 0.071515016 -0.37173465 -0.29330313 0.26587886 0.44388944 0.057123102 0.06264976 0.043281045 -0.13665487 0.20403977 0.19928737 -0.19583422 -0.21264443 0.24338509 -0.16170023 -0.10455425 0.2869161 -0.14585987 -0.3053511 0.048314918 -0.23006675 -0.42334136 0.06372299 -0.18062498 0.22104876 -0.089710936 -0.044488404 0.0945185 0.09172119 0.019463304 -0.30855525 0.21884139 -0.24418858 0.022290928 0.061875347 -0.45303082 0.063255884 -0.044150833 0.24586946 0.23812981 0.094943024 -0.19086555 -0.2987198 -0.28210402 0.06294019 -0.34142104 -0.19854099 -0.07006698 0.09777764
body -0.016591424 0.04243305 -0.06439313 0.23098905 0.24063322 -0.21369188 0.15548784 -0.12510717 0.059737686 0.47513127 0.13150638 -0.09429279 -0.07646995 -0.19191848 0.064629436 0.43680593 -0.3460808 -0.15958789 -0.1725206 0.4810702 0.08686355 0.023028677 -0.5015554 -0.61383545 -0.52285266 0.21313573 -0.20461518 0.027827635 0.01660037 -0.113214776 0.13875271 -0.1178702 0.015780915 0.108771555 -0.13329002 0.4761046 0.24449226 -0.094562404 -0.10794324 0.24844033 -0.12513982 0.22410956 -0.06968937 -0.17282625 0.24882784 0.01357375 -0.3940688 -0.113019556 -0.13603558 0.059183165 0.2995808 0.122745655 -0.023015475 0.42418346 -0.13881564 -0.17009462 0.3562894 -0.23328058 -0.24245831 -0.05437892 -0.10310655 0.2637946 0.12837425 0.03833013 0.3364979 -0.020483024 0.121277295 0.10723529 -0.10825464 -0.28954732 -0.14856873 -0.3347477 -0.38454634 -0.062029228 0.13305049 0.008542372 -0.29359594 -0.09456994 -0.3764369 0.057373937 -0.30877757 -0.23330058 0.21469322 0.37113145 0.041500278 0.048967376 0.03763486 -0.119973555 0.16030174 0.17170306 -0.15678312 -0.19201957 0.19147474 -0.13837002 -0.08924153 0.22054985 -0.112510145 -0.25774667 0.028444115 -0.17633192 -0.34101766 0.051281415 -0.14884739 0.17260191 -0.086955264 -0.042054974 0.079057656 0.07378253 0.039092176 -0.25429222 0.18912901 -0.20502205 0.013108368 0.05984699 -0.38329104 0.04370727 -0.05032184 0.19437031 0.20679502 0.0780833 -0.14782876 -0.24927898 -0.2379837 0.058128633 -0.2884172 -0.15898871 -0.068531744 0.08313337
think -0.002219121 0.04159229 -0.058294404 0.2590553 0.25705427 -0.23236693 0.16959533 -0.1341854 0.07998477 0.49162233 0.1370788 -0.105214894 -0.06770314 -0.21778475 0.07711017 0.4710502 -0.38121703 -0.15581794 -0.18861261 0.5224027 0.09445842 0.03394589 -0.545659 -0.6525849 -0.5426887 0.21265689 -0.22881249 0.029850349 0.007937599 -0.12240334 0.14216854 -0.13423136 0.00033033057 0.115320496 -0.1307614 0.5048653 0.26074716 -0.09033623 -0.091903135 0.26399797 -0.11207848 0.24117528 -0.08948632 -0.16979675 0.25548792 0.01982503 -0.4058938 -0.114399694 -0.13862896 0.054048233 0.33000296 0.13071151 -0.011437396 0.44563854 -0.14310277 -0.18432897 0.37826857 -0.24690765 -0.26546088 -0.049992587 -0.10622937 0.2731123 0.1382575 0.042366676 0.34404746 -0.026381772 0.13741694 0.10504729 -0.107795686 -0.32007253 -0.14682132 -0.34383774 -0.40312073 -0.06821045 0.13716224 0.008073532 -0.31205234 -0.12556763 -0.3865696 0.055163063 -0.33002594 -0.2641712 0.22724256 0.38173553 0.046056736 0.07061213 0.044247095 -0.12732753 0.1880431 0.17752679 -0.15384722 -0.18411928 0.21225755 -0.13591674 -0.07640098 0.248188 -0.12253414 -0.2821956 0.031701855 -0.19344264 -0.35453242 0.042864427 -0.16451082 0.19262725 -0.10338745 -0.032402616 0.08556968 0.09728745 0.040566307 -0.26402602 0.18355398 -0.21008281 0.015077911 0.068559185 -0.41455218 0.06469258 -0.05691637 0.21991727 0.19814335 0.077255316 -0.17874599 -0.25000104 -0.2474123 0.065624736 -0.29061553 -0.16810234 -0.064505115 0.08381367
try -0.014536259 0.03094521 -0.040578354 0.2388291 0.25091198 -0.21901144 0.15291412 -0.11262509 0.050958145 0.46400416 0.122038506 -0.077911034 -0.06376337 -0.18874538 0.062919505 0.42066962 -0.3428579 -0.14913212 -0.17343011 0.48886138 0.09401768 0.04675702 -0.49206358 -0.59527934 -0.5083918 0.2072551 -0.21373883 0.03175501 0.015411175 -0.10671089 0.12758791 -0.11693615 0.016443681 0.111583136 -0.1269805 0.47396472 0.24207069 -0.08071244 -0.093222216 0.24157956 -0.119382024 0.20694506 -0.06861089 -0.17455782 0.23657231 0.015925566 -0.3623512 -0.11324403 -0.12745254 0.0593099 0.29888606 0.1306099 -0.01102222 0.40676033 -0.14035343 -0.17664152 0.3684557 -0.23133498 -0.23456864 -0.060363468 -0.104888715 0.27276596 0.11775131 0.04056929 0.33033007 -0.017286709 0.12603487 0.110768124 -0.1017709 -0.28788355 -0.15668885 -0.32954022 -0.38301122 -0.05782526 0.121742636 0.005749204 -0.2880858 -0.1028401 -0.3760151 0.05574957 -0.30894712 -0.23513684 0.20652619 0.35358164 0.049635287 0.03713356 0.043598466 -0.1266831 0.16035578 0.16428687 -0.1574827 -0.1750173 0.20568605 -0.13859028 -0.08764399 0.22571988 -0.11052755 -0.24002619 0.025865894 -0.17630915 -0.32968318 0.051931594 -0.14591645 0.17102695 -0.083446324 -0.04626925 0.067494325 0.09062038 0.024221906 -0.24754642 0.18544875 -0.19904254 0.014241752 0.057023916 -0.3869754 0.061981615 -0.048617117 0.21629259 0.19991337 0.06875734 -0.1655928 -0.24618602 -0.22435734 0.054360587 -0.28686956 -0.16597307 -0.0664014 0.08690157
disorder -0.0103893485 0.04072618 -0.047242746 0.27084485 0.28041434 -0.24868503 0.16539635 -0.13124277 0.067657195 0.5087641 0.13685489 -0.09544076 -0.07430429 -0.2118794 0.06704828 0.48310792 -0.39425874 -0.16664614 -0.18975471 0.52279156 0.097962156 0.0292242 -0.55693895 -0.6819903 -0.5590148 0.22295307 -0.23706214 0.027751654 -0.00081455923 -0.12885219 0.14390178 -0.13975857 0.019779593 0.121840164 -0.13802698 0.52854985 0.26529902 -0.11306118 -0.10989838 0.27302843 -0.13149278 0.24048635 -0.080302596 -0.1830889 0.27458292 0.035061434 -0.42072672 -0.12146299 -0.13067213 0.058240388 0.33228907 0.14814197 -0.015748132 0.44235715 -0.15122308 -0.19084266 0.4104552 -0.24299873 -0.27131099 -0.06577989 -0.09946431 0.29700857 0.14875 0.046431925 0.36944655 -0.036167394 0.12990813 0.118722886 -0.1056704 -0.33410028 -0.16948903 -0.35874873 -0.42618784 -0.06336691 0.14529553 -0.0026923954 -0.32575774 -0.11791263 -0.39972982 0.07427429 -0.3362446 -0.2605008 0.23750715 0.40775803 0.042442042 0.06777767 0.030245125 -0.13459316 0.18635623 0.17465828 -0.1567861 -0.1925864 0.22745904 -0.14871104 -0.09100023 0.252049 -0.13278247 -0.27555984 0.032537773 -0.2009064 -0.3592748 0.048889056 -0.1776578 0.1990512 -0.097892664 -0.046272323 0.06978399 0.098809 0.03741488 -0.27287686 0.20372613 -0.23773399 0.020773305 0.060199555 -0.43271136 0.048782922 -0.041113257 0.22189109 0.20519769 0.067590095 -0.16772208 -0.26049006 -0.26577997 0.065787226 -0.31200072 -0.17593046 -0.058545597 0.08976052
purging -0.025910942 0.049765833 -0.06580984 0.28381076 0.29106176 -0.25848216 0.18883516 -0.1439222 0.067454055 0.5377793 0.15095595 -0.09552534 -0.07723227 -0.22377601 0.07895755 0.50528866 -0.41132322 -0.16899212 -0.20435481 0.5681687 0.10572996 0.03690037 -0.57247126 -0.71776086 -0.59540987 0.24324217 -0.25376981 0.03929707 0.010021352 -0.12690395 0.1488518 -0.12946671 0.01319632 0.13022706 -0.16190961 0.5485361 0.28170466 -0.102185465 -0.101493016 0.2741424 -0.12686083 0.25748017 -0.07497677 -0.19070536 0.29326707 0.02192919 -0.4438031 -0.12461753 -0.14073193 0.060341656 0.3559154 0.1359219 -0.031005494 0.4812607 -0.14297716 -0.21667327 0.41730574 -0.26529226 -0.28599608 -0.0526975 -0.11240847 0.3011531 0.14086352 0.03755747 0.36496142 -0.018647201 0.13325298 0.12025209 -0.12716354 -0.33511093 -0.16571274 -0.38072675 -0.44468954 -0.07292976 0.16285212 0.004366423 -0.3268728 -0.12850967 -0.41426638 0.07833201 -0.35188404 -0.27595448 0.23953184 0.411155 0.052458256 0.05426513 0.03120825 -0.14053358 0.19142334 0.2007725 -0.18530042 -0.2001666 0.22921357 -0.16557463 -0.086340144 0.25600046 -0.13133688 -0.28784117 0.016813304 -0.20172061 -0.38093415 0.057959292 -0.18429698 0.19735564 -0.10917813 -0.033382468 0.080708735 0.09964479 0.036340646 -0.27547076 0.21022838 -0.23534687 0.01851767 0.07383304 -0.45520103 0.05268563 -0.049069922 0.2473179 0.22407745 0.07098077 -0.19015148 -0.27270535 -0.2626207 0.068210036 -0.32812023 -0.18840644 -0.07823487 0.089062154
meal 0.002455261 0.037784882 -0.06548002 0.26885056 0.27197185 -0.24880081 0.16338205 -0.122431025 0.07580282 0.50313807 0.118832886 -0.10760416 -0.05878771 -0.22715387 0.07131083 0.44245574 -0.35824615 -0.1429982 -0.1946226 0.5196773 0.10880677 0.042477198 -0.52480686 -0.6410447 -0.54269093 0.21991074 -0.23371066 0.018139478 0.028518982 -0.12003494 0.12170217 -0.12334903 0.011799829 0.121910326 -0.1422357 0.5121355 0.2582133 -0.102965295 -0.08471283 0.27360308 -0.12260731 0.23085226 -0.07421081 -0.1793532 0.25571564 0.026513506 -0.40645203 -0.113388 -0.13496958 0.06805522 0.31648296 0.12610564 0.0006590383 0.44892237 -0.13891381 -0.1867563 0.38303736 -0.24639693 -0.2708629 -0.051857356 -0.10045461 0.28742582 0.14233701 0.04499472 0.35601464 -0.03615493 0.1336809 0.100851394 -0.08752213 -0.31571347 -0.15796348 -0.3278443 -0.4109851 -0.06416937 0.14304087 -0.0025777214 -0.3167388 -0.11122987 -0.3991766 0.08149787 -0.3423067 -0.25357068 0.22326443 0.3740744 0.048166644 0.07131576 0.047658287 -0.12955572 0.17793392 0.19068602 -0.15706268 -0.20216654 0.19526821 -0.14731571 -0.08697307 0.2376213 -0.13295963 -0.28808305 0.03276396 -0.19018179 -0.3553569 0.043412503 -0.17068401 0.17485867 -0.08906602 -0.037164364 0.063367344 0.09136178 0.030815383 -0.2562328 0.18541554 -0.223329 0.029647874 0.07565633 -0.41757184 0.04207531 -0.04676875 0.2246143 0.20797387 0.08319882 -0.1759265 -0.27324146 -0.2571167 0.05973283 -0.2800904 -0.16381745 -0.060341418 0.094458565
struggle 0.0015609802 0.028494665 -0.042387266 0.16798367 0.1675977 -0.15006536 0.10763147 -0.08906165 0.03983755 0.31779498 0.09324843 -0.05586114 -0.032316137 -0.14124012 0.0466458 0.2872048 -0.23112553 -0.096985094 -0.11901434 0.31105635 0.06422096 0.031356476 -0.33354533 -0.41151717 -0.35286433 0.14231294 -0.14409174 0.020546 -0.0014369658 -0.07542187 0.07805573 -0.08181959 0.00524429 0.07392596 -0.077230275 0.31414643 0.16254136 -0.070594266 -0.05697858 0.17298102 -0.072911784 0.15109661 -0.053603232 -0.108826645 0.17120531 0.016676325 -0.26596978 -0.07349602 -0.07529438 0.04816862 0.18925348 0.096013814 -0.01415646 0.27860302 -0.088271834 -0.12785009 0.250853 -0.15099461 -0.17592777 -0.03225918 -0.058374412 0.17720719 0.07984782 0.03366937 0.22396874 -0.02000857 0.09493395 0.07504296 -0.064460464 -0.20657144 -0.109204255 -0.21990892 -0.2523493 -0.048368532 0.08897284 0.008473441 -0.18486299 -0.08000335 -0.23999707 0.05082009 -0.20031779 -0.15965329 0.15077613 0.23622423 0.027441218 0.047311183 0.028200263 -0.09676513 0.10555394 0.110649355 -0.10292984 -0.110519856 0.14361025 -0.09768332 -0.06352031 0.15115136 -0.086262144 -0.17134322 0.024181606 -0.13345112 -0.22002888 0.027663535 -0.11281514 0.12992147 -0.06376072 -0.031372935 0.04039385 0.050851367 0.01994172 -0.17484793 0.116302066 -0.14015433 0.013726361 0.03739303 -0.26323196 0.023898777 -0.0274316 0.13020122 0.123491354 0.035589308 -0.11133652 -0.15870832 -0.15599845 0.031953238 -0.17611444 -0.09302251 -0.030505328 0.04990215
currently -0.008443665 0.023245873 -0.038221758 0.17756218 0.19942366 -0.17523946 0.1164739 -0.112459294 0.048067767 0.3618334 0.10896046 -0.07555447 -0.057703555 -0.15257853 0.057639614 0.35959992 -0.28969133 -0.12354697 -0.11963165 0.37744173 0.080258735 0.039655317 -0.3880527 -0.48119947 -0.4019046 0.18039776 -0.18343548 0.02172618 -0.005719012 -0.095667034 0.104474485 -0.10598242 0.012071295 0.07370712 -0.11761947 0.39265305 0.18279941 -0.062075477 -0.0701452 0.1844029 -0.084205024 0.17989683 -0.059481215 -0.13716145 0.20825996 0.010051393 -0.28920913 -0.08888375 -0.10225194 0.049293637 0.23719913 0.11790287 -0.010953434 0.32695416 -0.112103924 -0.14051966 0.27505457 -0.18647434 -0.2097977 -0.043693565 -0.07758722 0.2094372 0.10306759 0.038988598 0.2542494 -0.03050164 0.114174105 0.074583255 -0.07483415 -0.24490045 -0.11062415 -0.2534148 -0.31518564 -0.056852557 0.10069768 0.02183269 -0.24505457 -0.096802965 -0.2805056 0.0286373 -0.23715955 -0.17877851 0.16720814 0.27851692 0.045861296 0.055352934 0.03302812 -0.08692523 0.14640953 0.12844825 -0.112171836 -0.15682332 0.15434785 -0.09492321 -0.051850524 0.18456338 -0.087433495 -0.21153994 0.021731967 -0.12952295 -0.2541948 0.033569735 -0.13537729 0.12982556 -0.059085798 -0.02347364 0.07327542 0.052899014 0.037498005 -0.20774357 0.15399309 -0.15127851 0.019107113 0.038840152 -0.2922118 0.035530526 -0.049748376 0.15380828 0.14809279 0.071941584 -0.13837175 -0.1774791 -0.18280609 0.031905554 -0.21605085 -0.12056521 -0.05590685 0.042820137
since -0.013596637 0.019770073 -0.045587648 0.15176351 0.15954186 -0.15190697 0.11183384 -0.07995181 0.040912297 0.31591102 0.09192113 -0.053279825 -0.04563273 -0.1306886 0.04044817 0.29350173 -0.2254806 -0.08624864 -0.12352419 0.30957755 0.05037437 0.01918165 -0.3449161 -0.3975246 -0.34646565 0.14253001 -0.15734251 0.01905885 0.009641503 -0.07848054 0.08509816 -0.083701275 0.014694526 0.07033465 -0.08803905 0.3178792 0.1675039 -0.060654126 -0.05656897 0.15948075 -0.09218902 0.15157932 -0.047872264 -0.10484089 0.16531965 0.012385195 -0.2598221 -0.077978544 -0.07684073 0.03920332 0.19014646 0.09423459 -0.011410554 0.28297263 -0.098561145 -0.12703106 0.23654237 -0.1391625 -0.17000903 -0.04141704 -0.05726029 0.17237091 0.08751737 0.021916652 0.2220196 -0.00846461 0.07341223 0.0614611 -0.060213618 -0.21115406 -0.09691895 -0.22061966 -0.24696329 -0.05026145 0.095717266 0.012526717 -0.18411283 -0.07181347 -0.2397057 0.05040983 -0.19136819 -0.16342223 0.15269008 0.23932216 0.023616485 0.036896683 0.022491418 -0.09691022 0.10955882 0.11809397 -0.09629067 -0.11380848 0.13857044 -0.09905235 -0.05702326 0.149499 -0.07896254 -0.1712636 0.026275896 -0.12983361 -0.21455514 0.03250412 -0.103085354 0.1272208 -0.06387225 -0.016218172 0.045516446 0.049624037 0.029544408 -0.17551696 0.11335036 -0.14345667 0.0005467402 0.03725564 -0.2648019 0.029264113 -0.024505876 0.1329689 0.11987409 0.043725207 -0.11206578 -0.14975266 -0.15203123 0.03880572 -0.17128 -0.10012138 -0.047961097 0.042060815
experience -0.0039131856 0.03503775 -0.05096345 0.1837317 0.19853328 -0.17370395 0.11125513 -0.096189566 0.05284586 0.37835166 0.101514004 -0.07761184 -0.06210218 -0.14625916 0.05123558 0.34060642 -0.29328534 -0.13236722 -0.116496086 0.3803932 0.07880233 0.026129669 -0.40120888 -0.5007174 -0.4033308 0.17823388 -0.16380833 0.022040877 -0.0122703705 -0.09339926 0.11471388 -0.106419854 0.009387047 0.07361582 -0.115383655 0.38506398 0.20569777 -0.07851034 -0.06206299 0.20159385 -0.0929552 0.17306453 -0.0707631 -0.1176487 0.20110016 0.02504902 -0.29712638 -0.079047695 -0.10052225 0.04967485 0.2307625 0.103203 -0.00096652895 0.31956112 -0.096098825 -0.15817782 0.27413923 -0.17629398 -0.20899913 -0.04767981 -0.0769707 0.1941002 0.089487836 0.041139178 0.24571446 -0.03743394 0.11086053 0.07457481 -0.09103883 -0.23988432 -0.102892496 -0.266504 -0.29570034 -0.066762775 0.101210825 0.01064209 -0.24178109 -0.09442789 -0.28882813 0.041104324 -0.2358206 -0.18971506 0.17028601 0.2834758 0.029337998 0.065467186 0.035738777 -0.10277442 0.14986067 0.1277547 -0.11312175 -0.13698971 0.16108088 -0.09958732 -0.047409818 0.18720876 -0.087770276 -0.20206705 0.0126361605 -0.14405274 -0.24830103 0.030288292 -0.121588804 0.14473508 -0.052906953 -0.03704164 0.056218635 0.053675983 0.030120552 -0.1987547 0.14063592 -0.14577194 0.010061354 0.034502067 -0.30540198 0.031720348 -0.04479805 0.17204396 0.1308299 0.07677689 -0.12561141 -0.17468028 -0.18352027 0.02349238 -0.22044183 -0.12508324 -0.052788906 0.052817944
loose -0.015453914 0.037418943 -0.04623465 0.17651178 0.16221869 -0.16228582 0.107731506 -0.079294965 0.0473305 0.34299275 0.082242556 -0.064194635 -0.035940792 -0.1271693 0.039870124 0.29882398 -0.25124833 -0.11258236 -0.119273596 0.33524472 0.056086853 0.021674434 -0.36995733 -0.41819003 -0.36925295 0.14023603 -0.15705633 0.020840649 0.01611447 -0.08341933 0.09697353 -0.0796805 0.005016624 0.07192003 -0.09085653 0.33662874 0.15598513 -0.06607505 -0.07606807 0.16765338 -0.0974242 0.15697722 -0.048060257 -0.1146433 0.16825192 0.013042958 -0.2666252 -0.073087975 -0.08052364 0.04494144 0.19941163 0.07495075 -0.014375393 0.3024638 -0.092063054 -0.12224132 0.24283114 -0.1431177 -0.17796883 -0.045046996 -0.07549219 0.18803446 0.07691827 0.014015773 0.23557138 -0.01986902 0.08448771 0.08314765 -0.07064765 -0.20614854 -0.10082022 -0.22912128 -0.26626724 -0.058466855 0.07953864 -0.004165747 -0.21415032 -0.08198294 -0.263675 0.057043497 -0.19962277 -0.18136641 0.16375652 0.24542409 0.021434465 0.016401533 0.025942309 -0.09521602 0.11156939 0.13271391 -0.10544836 -0.13983649 0.1417475 -0.09543958 -0.06853964 0.15599753 -0.08091088 -0.16987956 0.023086904 -0.1285405 -0.2183639 0.027898049 -0.115815 0.13501094 -0.05247414 -0.02035521 0.04197662 0.061293203 0.028010655 -0.1687037 0.13121718 -0.14414991 -0.002216993 0.053407233 -0.26435512 0.032865237 -0.022993516 0.14895083 0.12748359 0.049050007 -0.108349726 -0.16167745 -0.16505697 0.04540033 -0.1993535 -0.10668789 -0.048669614 0.0630763
friend -0.0010923885 0.03435031 -0.055146344 0.22091249 0.22314243 -0.19163662 0.13461553 -0.117818974 0.058002908 0.41189712 0.102119036 -0.07685169 -0.06899914 -0.17874053 0.058969084 0.40948504 -0.3218139 -0.1302325 -0.15767968 0.4451481 0.09296283 0.028065644 -0.45449677 -0.5727941 -0.46086973 0.18921725 -0.19654839 0.022454312 0.0026403435 -0.09615475 0.13426101 -0.11116322 0.02267096 0.092195384 -0.11022252 0.43364266 0.20706229 -0.08357342 -0.09043322 0.21694598 -0.11068982 0.20438163 -0.06932679 -0.16556107 0.23361045 0.021965884 -0.36228436 -0.10127716 -0.124848336 0.060048163 0.28120786 0.12894124 -0.010196795 0.372538 -0.12838 -0.1669828 0.34701163 -0.20840164 -0.22900525 -0.046354678 -0.10939825 0.24370636 0.10605482 0.04423605 0.2933745 -0.010943068 0.11149088 0.08867873 -0.09596119 -0.2719541 -0.13473657 -0.29264614 -0.3587109 -0.054383647 0.1111446 0.00015495358 -0.28164715 -0.085968606 -0.33563447 0.054112792 -0.2765569 -0.22337589 0.20164053 0.34782863 0.05262041 0.0420236 0.0381999 -0.10557855 0.16462904 0.15646909 -0.13973741 -0.1719501 0.17854962 -0.123458855 -0.06344917 0.19922397 -0.10254162 -0.23723064 0.022171898 -0.17862007 -0.29503414 0.044043466 -0.14799011 0.17330644 -0.0769038 -0.042393982 0.06300058 0.07185251 0.015425412 -0.21814533 0.17452396 -0.18348151 0.019710293 0.046451345 -0.34684172 0.042749073 -0.04107298 0.1840718 0.17898786 0.05596433 -0.14027013 -0.22935271 -0.20977241 0.04269936 -0.26024023 -0.14402556 -0.06816553 0.08433563
eating 0.0067040813 0.028091408 -0.05524568 0.23512398 0.22894567 -0.21072446 0.14299399 -0.107936114 0.059699282 0.4271349 0.12252589 -0.08456295 -0.066853546 -0.18687333 0.067185014 0.4190492 -0.3411006 -0.13333029 -0.15171362 0.454398 0.0844399 0.02499036 -0.46008822 -0.5649743 -0.48612273 0.19459145 -0.20155635 0.016868548 -0.0020627961 -0.10626532 0.13191333 -0.11932912 0.019356718 0.10194014 -0.12898494 0.43812445 0.2373025 -0.09390007 -0.08041892 0.23203059 -0.10117101 0.21485317 -0.072446845 -0.14697267 0.22991392 0.026672749 -0.3569755 -0.093096964 -0.1133983 0.05915397 0.2834197 0.122532606 -0.031348687 0.37473482 -0.1346556 -0.1729468 0.3517865 -0.21477827 -0.23660761 -0.05899641 -0.10102255 0.23289582 0.105002254 0.040618833 0.31342497 -0.03096509 0.12578453 0.09504825 -0.10710922 -0.2805959 -0.13543867 -0.3012326 -0.37542692 -0.056554142 0.109736 -0.0004920115 -0.28542674 -0.10308553 -0.33723557 0.0638371 -0.28240615 -0.2347671 0.20887955 0.3431708 0.05541613 0.046626344 0.038321972 -0.12578881 0.15189023 0.16132812 -0.14649132 -0.1655066 0.19777721 -0.1229927 -0.066582665 0.21314363 -0.11808658 -0.23017219 0.036707845 -0.17346424 -0.31458658 0.040770195 -0.14520681 0.16896522 -0.07790757 -0.047655165 0.07231985 0.08114639 0.01959944 -0.2232772 0.16690002 -0.18232931 0.024462333 0.06632077 -0.3642467 0.056792155 -0.028620213 0.20309621 0.1897864 0.06079913 -0.14647861 -0.24043941 -0.2259218 0.04784522 -0.27691558 -0.13991901 -0.046614595 0.08294981
pretty -0.010537735 0.03226852 -0.023166081 0.15263088 0.15991123 -0.15338492 0.10527576 -0.08212293 0.04878356 0.31619644 0.0938006 -0.048019394 -0.03755179 -0.13485596 0.030626876 0.28408885 -0.23455483 -0.088574976 -0.1121297 0.32003492 0.0612276 0.026003258 -0.32585317 -0.40969476 -0.33778238 0.13700058 -0.14538543 0.024807828 0.013188649 -0.06340436 0.084689625 -0.068789355 -0.0008167886 0.074489996 -0.092413425 0.31433335 0.16205262 -0.055245277 -0.05373986 0.15423127 -0.0737267 0.15310442 -0.052746095 -0.119150445 0.16602907 0.022692211 -0.2526742 -0.077047445 -0.08818108 0.034438293 0.20893666 0.07795408 -0.02508801 0.27847224 -0.08217168 -0.12235454 0.24124233 -0.14889234 -0.16136147 -0.047318503 -0.062773295 0.16844864 0.080599464 0.019735154 0.21900205 -0.025261259 0.08117719 0.07038079 -0.063282035 -0.20015727 -0.103600055 -0.21294884 -0.2568907 -0.040559553 0.07702713 0.002138509 -0.18832639 -0.06615075 -0.24541503 0.04631331 -0.20943557 -0.15427694 0.13899206 0.24037993 0.0371805 0.030693706 0.030633189 -0.08977075 0.116993524 0.12502675 -0.11104708 -0.12571539 0.12163262 -0.09730818 -0.054658704 0.13918921 -0.06988562 -0.17398538 0.027115908 -0.11418707 -0.228897 0.03525558 -0.09684407 0.11261424 -0.06337269 -0.024822716 0.040818907 0.05099757 0.018576501 -0.15888435 0.12168966 -0.13334674 0.005403359 0.04173577 -0.25768468 0.04414025 -0.023991875 0.14337336 0.12998223 0.0438631 -0.10676533 -0.16128846 -0.15398946 0.03809478 -0.19256172 -0.11478352 -0.05291108 0.05027323
without -0.016238559 0.04439097 -0.046437662 0.23432587 0.25051472 -0.22208184 0.15410233 -0.11504289 0.060681492 0.47684494 0.12135597 -0.09553308 -0.06947783 -0.20757452 0.0671684 0.42926666 -0.3423682 -0.13505712 -0.18017466 0.4855993 0.09160588 0.037748933 -0.50984305 -0.6215136 -0.51814395 0.19940302 -0.21841842 0.02541923 -0.0010387078 -0.0974433 0.12425904 -0.12069727 0.0065665236 0.10518196 -0.13105999 0.46623266 0.23883654 -0.10339764 -0.095878065 0.23834707 -0.105967954 0.22161347 -0.08241857 -0.1639038 0.236285 0.022165747 -0.3803417 -0.12009671 -0.13057822 0.050467856 0.31027785 0.13617302 -0.014378157 0.4138286 -0.12780322 -0.1847705 0.3727372 -0.21756804 -0.24208896 -0.038653053 -0.1096425 0.26292154 0.1358114 0.034839362 0.32185856 -0.022910526 0.12012651 0.09879662 -0.0967647 -0.2930131 -0.1545892 -0.32767436 -0.39473662 -0.061159793 0.13124754 -0.006183295 -0.2949826 -0.12259106 -0.3760703 0.062418863 -0.3047393 -0.23809312 0.22074594 0.36789817 0.040959165 0.060437474 0.046588585 -0.11887932 0.16413523 0.17175287 -0.15945326 -0.18516791 0.19214037 -0.1362665 -0.088105634 0.21965033 -0.116941765 -0.25738573 0.016434625 -0.18447696 -0.32875437 0.04744002 -0.15877658 0.18589793 -0.07461635 -0.028188469 0.07037198 0.0707867 0.022608547 -0.2520979 0.1878816 -0.20470054 0.014273252 0.06734686 -0.39307123 0.058558095 -0.037695564 0.1968406 0.18972246 0.077899225 -0.16858026 -0.24871169 -0.22817744 0.06473753 -0.2685049 -0.16573557 -0.0637818 0.08520817
every 0.0044315406 0.03203299 -0.040109318 0.20196696 0.21163714 -0.20684925 0.13564509 -0.095698975 0.06693821 0.39497793 0.106305815 -0.08367289 -0.038241614 -0.16537549 0.061503865 0.35032868 -0.2949337 -0.11217224 -0.15211223 0.4124788 0.08994023 0.028998066 -0.43310663 -0.52363265 -0.4397353 0.17061695 -0.18969853 0.0040224805 0.02185772 -0.07586785 0.09415659 -0.09863994 0.016366202 0.091658585 -0.09844274 0.4149522 0.20724535 -0.07253622 -0.07448101 0.20814973 -0.094366945 0.19415265 -0.052116863 -0.13336277 0.21342097 0.010246134 -0.32827687 -0.10195949 -0.09351228 0.05249377 0.26286677 0.110567376 -0.01750389 0.34422973 -0.10335717 -0.1444204 0.3113186 -0.18835708 -0.21447209 -0.050861098 -0.0863691 0.21843414 0.10273796 0.016981846 0.29206142 -0.021454344 0.10438218 0.06404436 -0.06772139 -0.25221875 -0.120549075 -0.26558682 -0.3343753 -0.043940734 0.12237515 -0.009554852 -0.23893596 -0.09679684 -0.30514494 0.06674319 -0.2746562 -0.20867552 0.18543665 0.30324924 0.037179135 0.057128724 0.041100398 -0.11544846 0.14416085 0.16004364 -0.13998114 -0.14791071 0.14304939 -0.114101715 -0.07615927 0.19947529 -0.11313449 -0.23034099 0.017677344 -0.15107353 -0.29940546 0.050618805 -0.13323796 0.1395728 -0.07698733 -0.01694974 0.0516657 0.06725613 0.009150951 -0.20232593 0.15421568 -0.1671554 0.012017261 0.06693747 -0.3336782 0.038454182 -0.04765465 0.17449942 0.16505517 0.07070785 -0.12977642 -0.21940464 -0.20557144 0.041661236 -0.2252387 -0.12797764 -0.054257095 0.08308505
help -0.0082595525 0.030429488 -0.036702704 0.19772322 0.2057535 -0.16915755 0.12458065 -0.1124118 0.052214354 0.36670548 0.10020876 -0.070676394 -0.049486592 -0.15283792 0.06452825 0.3503525 -0.28923896 -0.124489866 -0.14843875 0.39307985 0.08283416 0.03943457 -0.40138516 -0.4949298 -0.4194428 0.17145124 -0.16608123 0.018167436 0.0166591 -0.09999089 0.09935909 -0.08760641 0.012008735 0.077270396 -0.095501326 0.37739527 0.19002636 -0.069801025 -0.08598585 0.20238422 -0.10383632 0.17100468 -0.05630234 -0.12765966 0.20836239 0.02261345 -0.30546692 -0.096285805 -0.10454828 0.04450468 0.25123528 0.11220034 -0.004016736 0.32817635 -0.11391432 -0.13350853 0.30846652 -0.18751846 -0.19836871 -0.035124004 -0.08554865 0.21524379 0.09341304 0.021728622 0.25867328 -0.024199195 0.0927374 0.087887734 -0.08599042 -0.23622307 -0.11731092 -0.25987184 -0.32094684 -0.058251634 0.107162155 0.016611978 -0.24072804 -0.077300735 -0.29846662 0.062561885 -0.24915889 -0.19115111 0.17761612 0.2952431 0.04525263 0.031863216 0.028473118 -0.09516952 0.14359939 0.13489473 -0.12715581 -0.15266767 0.1684618 -0.118002065 -0.05353528 0.18712346 -0.08720324 -0.19771679 0.01573115 -0.13696624 -0.2719363 0.04226738 -0.13286895 0.14539596 -0.07013983 -0.030245649 0.06748249 0.068790644 0.014924364 -0.19419824 0.1496319 -0.16846557 0.024000304 0.04702195 -0.30591556 0.040563036 -0.02452701 0.17341629 0.15425444 0.050255805 -0.1297298 -0.19326147 -0.20206861 0.0360803 -0.22356412 -0.12421399 -0.05686481 0.060657196
even -0.013920753 0.034675192 -0.04347703 0.18269564 0.19198321 -0.16400255 0.120163776 -0.0784063 0.05094019 0.35701856 0.09812481 -0.056970596 -0.04425178 -0.14636719 0.039033446 0.31827718 -0.2680744 -0.1059684 -0.12958567 0.3528389 0.068118855 0.016231652 -0.37231803 -0.4645448 -0.38204795 0.1442156 -0.17085941 0.014793983 -0.0012321542 -0.07777967 0.09453289 -0.08743559 0.0024439697 0.08826829 -0.09902589 0.3487985 0.17567663 -0.07603821 -0.07062247 0.18454266 -0.086792976 0.16511898 -0.064076364 -0.124431774 0.18161494 0.020005474 -0.286086 -0.06798055 -0.09814788 0.033015136 0.2265705 0.09936186 -0.021897912 0.3106084 -0.094053484 -0.14248718 0.2682832 -0.16254564 -0.17136964 -0.05379183 -0.07539594 0.20852718 0.09079976 0.026713787 0.26001486 -0.0069709034 0.084551625 0.083885714 -0.0659126 -0.21785136 -0.11995321 -0.23860292 -0.29524884 -0.057819236 0.10905379 0.0012973968 -0.21374145 -0.08331624 -0.26783177 0.05340579 -0.2265901 -0.18665873 0.17074235 0.27578625 0.030829966 0.047625713 0.033013217 -0.09991632 0.12168936 0.12937446 -0.11143065 -0.12512867 0.15379038 -0.10684592 -0.06288812 0.17043437 -0.096203074 -0.1899735 0.022790477 -0.12332621 -0.24739169 0.025286138 -0.1246836 0.13950384 -0.07591511 -0.03879589 0.053414118 0.060464162 0.03107128 -0.1909117 0.1478384 -0.16264781 0.0077985404 0.0491968 -0.29206914 0.029672408 -0.022562554 0.15201212 0.1422103 0.050154917 -0.12385025 -0.18918645 -0.19220948 0.03863101 -0.21795368 -0.11387972 -0.055928517 0.06918943
first -0.018457862 0.03525627 -0.056723114 0.2241352 0.23025608 -0.21511576 0.13991968 -0.116547905 0.05933725 0.43927795 0.12056752 -0.07868471 -0.046958428 -0.19696 0.07346663 0.39336747 -0.31670752 -0.13272591 -0.16006643 0.43908456 0.07499685 0.04740965 -0.47104043 -0.56543916 -0.47018206 0.19373876 -0.18971227 0.023651522 0.0049761785 -0.106201306 0.11412671 -0.12035417 0.015404392 0.1017313 -0.13110214 0.45579335 0.23058091 -0.07793006 -0.07672189 0.2162173 -0.10587659 0.19522111 -0.07208629 -0.14973356 0.23006974 0.029261606 -0.34868672 -0.09980857 -0.10677868 0.061024982 0.27609026 0.12776498 -0.002697737 0.39682075 -0.11568559 -0.17394258 0.33747974 -0.20817614 -0.23123255 -0.04146652 -0.09032172 0.24922097 0.11801929 0.02692234 0.3123316 -0.019502485 0.112373404 0.09620249 -0.09396026 -0.28595352 -0.12810966 -0.30113047 -0.35546735 -0.05754237 0.12620027 0.010701836 -0.27826476 -0.10625512 -0.34259304 0.06336966 -0.29131857 -0.2227274 0.18734486 0.34749004 0.026966065 0.060601708 0.03641744 -0.12524912 0.14846782 0.14615922 -0.14540467 -0.16227329 0.19067083 -0.124472834 -0.07678046 0.22191454 -0.11895848 -0.24504204 0.029976193 -0.17770521 -0.31798393 0.028072651 -0.13161391 0.16560155 -0.0865311 -0.037222963 0.06582093 0.07619733 0.024122259 -0.22304608 0.16157196 -0.18539505 0.019788789 0.06815233 -0.37442082 0.040543944 -0.05457973 0.19637959 0.17432585 0.07616207 -0.15666465 -0.23365632 -0.21749738 0.045735512 -0.25148097 -0.15458533 -0.045019206 0.08340169
jean -0.0019273781 0.042479005 -0.04385234 0.23696937 0.21336007 -0.21390606 0.14132012 -0.12124871 0.06955279 0.44785926 0.101321235 -0.082241125 -0.06689886 -0.18784374 0.053374372 0.39471117 -0.33540875 -0.1422234 -0.14657113 0.4537349 0.08279206 0.037112866 -0.4799109 -0.5543067 -0.4849084 0.1854597 -0.20515619 0.022004522 0.015787408 -0.09925526 0.12842058 -0.113113165 -0.0039723497 0.08813038 -0.12351686 0.4458789 0.22487278 -0.06729342 -0.09208764 0.23053655 -0.12243318 0.19449392 -0.07423268 -0.14294922 0.23623364 0.018785821 -0.3327013 -0.10395313 -0.10896935 0.06309191 0.27288458 0.103949584 -0.026056996 0.3719796 -0.1266903 -0.1696259 0.34011567 -0.1843523 -0.2241649 -0.056708243 -0.09368326 0.23447226 0.116550654 0.019196909 0.2978965 -0.020616284 0.11228619 0.09251589 -0.093103096 -0.28616947 -0.12354001 -0.30609927 -0.34391418 -0.07196438 0.10812504 0.008565125 -0.26224902 -0.10635696 -0.32580847 0.0657916 -0.28370538 -0.23575878 0.20317985 0.33854723 0.02778688 0.032033958 0.027641542 -0.1128395 0.14597735 0.17110781 -0.15048914 -0.16688678 0.19676282 -0.13482872 -0.0765855 0.21092546 -0.10442588 -0.22584979 0.031100735 -0.17408065 -0.2890352 0.033416353 -0.13823028 0.16143304 -0.07742718 -0.043052223 0.06140032 0.07042832 0.025537312 -0.21729338 0.16762713 -0.19333263 0.012241086 0.06457805 -0.34890237 0.057398256 -0.029289942 0.19754301 0.16682582 0.051952377 -0.14056754 -0.23097841 -0.21646322 0.055595197 -0.24327567 -0.14131185 -0.05075164 0.08348386
drop -0.0048118182 0.03210421 -0.054859865 0.19924714 0.1928312 -0.19247605 0.12473092 -0.08974518 0.051199906 0.38483456 0.10840526 -0.08212815 -0.0577 -0.17271036 0.058777433 0.34393454 -0.27779642 -0.10689045 -0.15340781 0.3902414 0.085817926 0.027929202 -0.41235435 -0.4980671 -0.4242422 0.17278753 -0.17840976 0.02265272 0.017151149 -0.07931744 0.087345764 -0.102674104 0.0077224327 0.0806405 -0.10859941 0.4005276 0.19506659 -0.06512318 -0.07365144 0.19846147 -0.090698905 0.17594185 -0.06303285 -0.14054325 0.20922379 0.025928784 -0.30890334 -0.09503404 -0.089330286 0.04851208 0.2562634 0.10601196 -0.018187558 0.33632752 -0.10315448 -0.15135993 0.28600574 -0.17669925 -0.20806396 -0.049708616 -0.07591875 0.20982166 0.10479481 0.023208536 0.276229 -0.013071311 0.10704399 0.071648836 -0.077056676 -0.24337356 -0.116445206 -0.24986671 -0.30348557 -0.05615057 0.116501965 -0.00967581 -0.2345063 -0.08998419 -0.296145 0.054909226 -0.26102605 -0.20239788 0.1854491 0.28953037 0.030152643 0.03795771 0.04637071 -0.09289721 0.13816579 0.148938 -0.12678345 -0.14123544 0.15009928 -0.112338156 -0.075606294 0.18709262 -0.10338812 -0.20927307 0.03184405 -0.15109774 -0.28434753 0.042188194 -0.13307929 0.14801446 -0.068233386 -0.017120522 0.06819898 0.072788715 0.0164382 -0.1909926 0.1570184 -0.15988438 0.016765308 0.06082548 -0.3116402 0.034927186 -0.038002297 0.1578779 0.15604013 0.05268658 -0.122756906 -0.19453995 -0.178558 0.051947698 -0.22135201 -0.1250683 -0.058098197 0.055615783
past -0.020141702 0.04914509 -0.057415053 0.2308587 0.23453233 -0.2259629 0.15508461 -0.1337741 0.05102715 0.4472454 0.11928687 -0.08493975 -0.05742869 -0.17714383 0.06252467 0.41556308 -0.33162 -0.12668715 -0.16658053 0.46881738 0.09574838 0.04112528 -0.46652168 -0.5658902 -0.49186277 0.19840232 -0.21178985 0.017595347 0.0011994086 -0.09878368 0.116432816 -0.12384274 0.01663446 0.10776428 -0.11771282 0.45812154 0.21883261 -0.08771146 -0.08077404 0.22327222 -0.10297422 0.21720426 -0.068712816 -0.1663287 0.24638568 0.009249314 -0.3497984 -0.11927854 -0.11969455 0.060252383 0.29176012 0.11785695 -0.02586143 0.38042504 -0.124464765 -0.17280075 0.34407446 -0.20788474 -0.23522249 -0.04049874 -0.101879105 0.24518166 0.11533308 0.042529766 0.3219416 -0.023108657 0.11458976 0.08924972 -0.093800046 -0.29357415 -0.12602048 -0.2972925 -0.3623937 -0.050395504 0.12860131 0.015519299 -0.28598598 -0.11144366 -0.3461315 0.06855007 -0.2889725 -0.22261201 0.21130805 0.34792525 0.043443356 0.04850945 0.04125058 -0.116395324 0.16405062 0.15530679 -0.14933823 -0.16500227 0.19336526 -0.13279922 -0.068792 0.21049194 -0.10441099 -0.23865442 0.008559557 -0.16287275 -0.31361428 0.04424285 -0.15561797 0.15489645 -0.094247036 -0.01782676 0.07473901 0.08679141 0.025351888 -0.22849266 0.17262244 -0.2026497 0.010102792 0.06742009 -0.37505034 0.05805364 -0.05251226 0.18715468 0.18401645 0.080731325 -0.15725623 -0.23275802 -0.22124352 0.0411188 -0.2656741 -0.15708841 -0.066706434 0.07931439
relapse -0.010981357 0.026149541 -0.04013397 0.21943638 0.23257749 -0.20648706 0.14112659 -0.10836874 0.06753921 0.4270947 0.116853684 -0.093113825 -0.06412001 -0.1877373 0.058503564 0.39813685 -0.31756398 -0.13894404 -0.1628335 0.45992175 0.096634574 0.029459996 -0.46066126 -0.5715848 -0.48194438 0.19562516 -0.20225361 0.02005738 0.0064650434 -0.09994715 0.11195901 -0.11429569 -0.00685321 0.10713276 -0.10862291 0.4525238 0.22620536 -0.084216185 -0.07122844 0.22311862 -0.11438799 0.20444949 -0.06508063 -0.1603736 0.2387103 0.019135911 -0.34202886 -0.10239281 -0.12176576 0.04883462 0.27414644 0.11516882 -0.014911855 0.3873187 -0.11232194 -0.17563224 0.33735308 -0.20347215 -0.23190655 -0.05433382 -0.09742522 0.23042096 0.12420638 0.024635457 0.30692354 -0.014181393 0.112863846 0.09510793 -0.09031648 -0.26559561 -0.13841449 -0.30921158 -0.36115587 -0.058265626 0.1255456 0.0025278023 -0.2729119 -0.10453111 -0.33739483 0.06533073 -0.2942144 -0.22175156 0.19950666 0.34014913 0.04073914 0.046005193 0.04223833 -0.115050055 0.15752324 0.15839621 -0.1350719 -0.17549853 0.17431079 -0.1316159 -0.06546379 0.209882 -0.12183248 -0.24179392 0.020973528 -0.1628978 -0.32439458 0.04662227 -0.15370467 0.16273181 -0.06884515 -0.02125768 0.05565999 0.06921566 0.015212378 -0.23960578 0.15744294 -0.1920602 0.021336453 0.04676575 -0.34733504 0.050882187 -0.032312453 0.19102126 0.17542565 0.059313808 -0.14883074 -0.21875522 -0.2224789 0.057080526 -0.25532153 -0.14682287 -0.049927004 0.08694085
month -0.006055175 0.05157424 -0.055050105 0.22998483 0.23934045 -0.21116158 0.15579993 -0.114486426 0.05521398 0.43051153 0.10152302 -0.08934758 -0.058739327 -0.18472254 0.06098877 0.38812125 -0.3119304 -0.12399971 -0.16251844 0.4468367 0.0857462 0.02130915 -0.46085885 -0.55911285 -0.4694086 0.19592723 -0.20172401 0.0062308754 0.0037573297 -0.096842125 0.1015048 -0.12108436 0.020726878 0.09735262 -0.10843139 0.43267503 0.2155387 -0.09300004 -0.07952086 0.22785527 -0.1045622 0.19252138 -0.054054867 -0.1446422 0.22780076 0.022864917 -0.35896343 -0.097305074 -0.11975551 0.039769836 0.2826874 0.11233686 -0.0034975738 0.37340882 -0.11568425 -0.16169772 0.33159435 -0.21564774 -0.22702686 -0.045729753 -0.09599832 0.23682164 0.1113714 0.037594706 0.3102508 -0.027097242 0.10728778 0.07305581 -0.08327494 -0.27561054 -0.12784985 -0.29480124 -0.34991765 -0.060563385 0.124708906 7.942988e-05 -0.26761436 -0.11100126 -0.33536845 0.05668023 -0.2895368 -0.2215685 0.18402763 0.31985387 0.045881167 0.064831704 0.04848128 -0.111449875 0.15784118 0.16602464 -0.15369374 -0.17480949 0.16112994 -0.12524693 -0.07675725 0.2066635 -0.10898313 -0.2375424 0.012325338 -0.17373255 -0.31205904 0.036336605 -0.13463765 0.15707153 -0.066970244 -0.020494321 0.07087005 0.07687524 0.026243329 -0.22364114 0.17106056 -0.17781156 0.01905527 0.06780408 -0.3444891 0.048390307 -0.04113063 0.18415453 0.17247126 0.062446345 -0.15234853 -0.23169601 -0.21505061 0.051990245 -0.25827596 -0.15668167 -0.054436233 0.08685956
design -0.002860926 0.025948502 -0.054639906 0.24555863 0.24855928 -0.22408627 0.16255063 -0.12954462 0.06835318 0.50287086 0.13640079 -0.08155075 -0.072002515 -0.195276 0.08054205 0.46332306 -0.36051965 -0.16480139 -0.19753137 0.50318056 0.08557025 0.040004022 -0.5356914 -0.6475784 -0.52732843 0.21397963 -0.2218854 0.027627317 0.017800566 -0.12380544 0.13067606 -0.12171371 0.005746646 0.112974666 -0.14170323 0.50766087 0.26019615 -0.09582435 -0.099105 0.24572858 -0.11841465 0.23952669 -0.079231806 -0.16930057 0.25861466 0.035537817 -0.40134004 -0.10334172 -0.13784957 0.058733065 0.30928406 0.14740635 -0.012308902 0.42309245 -0.13622543 -0.1750377 0.38470465 -0.22992209 -0.26437554 -0.053790387 -0.11598674 0.26550803 0.13128862 0.040210318 0.34252015 -0.0318847 0.13182244 0.11206861 -0.11754039 -0.30742845 -0.16045257 -0.3448815 -0.40643454 -0.057568233 0.12597702 0.009125642 -0.30439746 -0.1286684 -0.39231443 0.06719483 -0.3274354 -0.24606135 0.22616866 0.37822405 0.046909586 0.05733418 0.028323498 -0.13755377 0.17962626 0.18031454 -0.16448939 -0.18590657 0.21973285 -0.14464788 -0.06640912 0.2403625 -0.11754351 -0.27368486 0.033732373 -0.19525549 -0.36023986 0.058056705 -0.17205638 0.17916325 -0.08861364 -0.041401926 0.070527434 0.09355179 0.024989957 -0.26433313 0.19353387 -0.22483215 0.013895619 0.06490864 -0.3987735 0.052935008 -0.05991415 0.20315957 0.20851451 0.071427055 -0.16549192 -0.2536627 -0.24554855 0.049772006 -0.28872588 -0.17348833 -0.0708977 0.0817784
bulimic -0.021936039 0.02376459 -0.052099124 0.18794577 0.20447418 -0.1886595 0.12920682 -0.106177464 0.050510343 0.37536559 0.10352171 -0.05922944 -0.04621773 -0.14851514 0.05216852 0.34942463 -0.2733023 -0.11863398 -0.13424806 0.3950528 0.07438892 0.035498556 -0.4014085 -0.48281914 -0.41284603 0.16179994 -0.17631057 0.012518789 -0.0017876914 -0.078571066 0.11193711 -0.10662682 0.02280502 0.07743248 -0.10313617 0.3851246 0.18329929 -0.07039611 -0.06555454 0.1864611 -0.10091026 0.17910206 -0.06051862 -0.14116244 0.19921607 0.011239483 -0.31528085 -0.089360595 -0.0960097 0.05188678 0.24531944 0.10011944 -0.023358356 0.33812115 -0.11414567 -0.13789071 0.28239748 -0.18726411 -0.19310738 -0.049741548 -0.084435195 0.21713577 0.09510309 0.017001744 0.26599947 -0.028328914 0.09814904 0.0710686 -0.07461901 -0.24512927 -0.10529567 -0.2506255 -0.3114808 -0.047497302 0.099856555 0.0023524603 -0.23555884 -0.09617296 -0.30620325 0.044462003 -0.23630418 -0.19003572 0.18311161 0.2884624 0.042329445 0.030881114 0.03761363 -0.092776485 0.13052694 0.14792702 -0.13423662 -0.14403972 0.15204738 -0.11785242 -0.07182138 0.17562804 -0.08986301 -0.20774584 0.031106405 -0.14313649 -0.2576226 0.042603064 -0.12356604 0.13363038 -0.0650695 -0.014393359 0.057053395 0.0671555 0.011660119 -0.20962459 0.13601443 -0.16716744 0.009575134 0.044721834 -0.31765 0.03880354 -0.042453013 0.16207007 0.15076916 0.06261155 -0.12218007 -0.19784005 -0.2018103 0.051734056 -0.2125443 -0.13598637 -0.051913515 0.06506199
last -0.02080803 0.03267583 -0.040666576 0.19554266 0.21705353 -0.19617422 0.13099012 -0.104348324 0.053456295 0.41405496 0.09985408 -0.07551223 -0.057020597 -0.17821075 0.059938993 0.3649533 -0.29433626 -0.13108155 -0.16244939 0.41591573 0.08573598 0.028119024 -0.43685097 -0.5234518 -0.452252 0.17782226 -0.19479355 0.013655086 0.009264574 -0.093643226 0.10903456 -0.09521523 0.010938622 0.087672524 -0.11837198 0.40843475 0.21229488 -0.08428247 -0.07278737 0.220645 -0.09321995 0.18772191 -0.05488176 -0.14204068 0.20684093 0.0145139415 -0.3355732 -0.09951899 -0.09871111 0.03912247 0.25432077 0.103309765 -0.023054222 0.36435485 -0.12187481 -0.15585777 0.3032979 -0.19737457 -0.21012121 -0.035674762 -0.085097216 0.23071563 0.11714448 0.020128297 0.28328976 -0.02563984 0.11185228 0.07898052 -0.086760685 -0.25398946 -0.136065 -0.28270876 -0.33478415 -0.053735394 0.11765833 0.0061056027 -0.24773446 -0.10242121 -0.32464617 0.051405624 -0.2787464 -0.21048245 0.18548706 0.31501028 0.030699776 0.05597342 0.037002236 -0.104461946 0.14543849 0.1438769 -0.13243955 -0.16169664 0.16676208 -0.11006192 -0.07449713 0.19458489 -0.11018964 -0.22515741 0.027972406 -0.15499876 -0.2900309 0.050864 -0.13416398 0.16085646 -0.07675452 -0.022807883 0.06116932 0.07208495 0.016707117 -0.21531507 0.16046998 -0.17550458 0.021216279 0.06416104 -0.33934918 0.042773902 -0.04406552 0.18362889 0.16007549 0.055754505 -0.13928111 -0.20301853 -0.19301444 0.047144853 -0.23496556 -0.13046984 -0.051342107 0.07349906
best -0.013737883 0.03975188 -0.046196323 0.22711815 0.23103113 -0.19770356 0.150728 -0.10804209 0.059259165 0.44523963 0.122115456 -0.07401908 -0.06303529 -0.18154664 0.051413875 0.4146764 -0.32843354 -0.14613071 -0.15470359 0.46205896 0.07689634 0.031686153 -0.47589868 -0.5796217 -0.48501444 0.19526218 -0.20302701 0.016959984 0.013763162 -0.09652525 0.12173782 -0.10451398 0.013653564 0.10109983 -0.11398321 0.4544807 0.23184851 -0.07809667 -0.093299024 0.23279247 -0.10650054 0.21444522 -0.055842757 -0.1493157 0.2368253 0.025317833 -0.36516953 -0.10969402 -0.11556741 0.050395396 0.2907304 0.12685318 -0.023718974 0.37982926 -0.11982394 -0.16153145 0.3398867 -0.21358389 -0.23269683 -0.047831416 -0.11360027 0.2520741 0.116314925 0.04746382 0.31127167 -0.025835125 0.118558854 0.09270453 -0.10564528 -0.27474502 -0.1445742 -0.30154744 -0.3756348 -0.051226802 0.12041317 0.007919048 -0.2863813 -0.09777509 -0.354849 0.05947922 -0.28908578 -0.22018021 0.2007872 0.34462065 0.056885 0.04222254 0.03394701 -0.10514171 0.14583865 0.15193406 -0.14052862 -0.17222232 0.19475698 -0.1354422 -0.06728549 0.21346897 -0.1154216 -0.23910512 0.036134448 -0.17955098 -0.31364217 0.04654649 -0.14082111 0.17133202 -0.080894835 -0.029127691 0.05804944 0.068413764 0.019836074 -0.23507117 0.17565286 -0.1979505 0.025737198 0.055828225 -0.36561266 0.043996826 -0.044618316 0.19020239 0.18628098 0.07049158 -0.14473589 -0.24042803 -0.22058289 0.05400326 -0.2712514 -0.15967451 -0.047887456 0.07448673
appreciate -0.010923611 0.030932093 -0.050688267 0.17887516 0.19372213 -0.16624406 0.1323605 -0.101682305 0.047636256 0.37664634 0.085429095 -0.07054424 -0.059973482 -0.16622211 0.063389875 0.35402 -0.28676724 -0.11724354 -0.13339193 0.38099474 0.08548408 0.019080289 -0.4095204 -0.4981411 -0.41545585 0.17319511 -0.16916849 0.028868627 0.012610991 -0.09204956 0.10389282 -0.10172424 0.018030697 0.08509774 -0.09327768 0.38729668 0.18842036 -0.06406177 -0.08280796 0.18450186 -0.08770823 0.18024215 -0.061138704 -0.13079493 0.19020526 0.004887643 -0.29414284 -0.07349592 -0.09993472 0.05507873 0.24140748 0.11584578 -0.014435454 0.34514824 -0.10571524 -0.1515586 0.28902867 -0.18175274 -0.20654006 -0.047600072 -0.09040882 0.20448148 0.09733681 0.024336204 0.27325532 -0.008371425 0.111320294 0.09517308 -0.08506351 -0.22776733 -0.13069253 -0.24909122 -0.30835363 -0.046139378 0.10438177 0.008900526 -0.24148004 -0.08318861 -0.28268948 0.037596244 -0.25432107 -0.19444034 0.1754908 0.30266917 0.044988178 0.04515135 0.01692077 -0.090118 0.1262451 0.13436407 -0.11792517 -0.15469563 0.16745782 -0.116673514 -0.058535624 0.1897402 -0.08950648 -0.20337653 0.029221289 -0.13726573 -0.2569053 0.034465995 -0.12239021 0.14565505 -0.058453325 -0.037334375 0.0556454 0.06336125 0.031257495 -0.2018904 0.15158747 -0.15281188 0.011230959 0.03776331 -0.30550814 0.04563476 -0.024641331 0.170864 0.15916619 0.044262677 -0.13574994 -0.19338875 -0.19536152 0.049725343 -0.23871596 -0.13130233 -0.061102055 0.06774816
amp 0.003154534 0.025993997 -0.041391797 0.19365296 0.1913968 -0.16078128 0.11155676 -0.09047297 0.044745214 0.3587393 0.102623306 -0.05780028 -0.061957594 -0.15791944 0.060263842 0.33757168 -0.27050376 -0.10395838 -0.12351392 0.36421287 0.06579144 0.040639322 -0.39545318 -0.49683285 -0.40007165 0.15493259 -0.16088371 0.02355415 -0.0013531997 -0.09210581 0.118793815 -0.09306426 0.018022925 0.08922707 -0.09187792 0.36954924 0.19153064 -0.06763648 -0.08720367 0.17504726 -0.09517693 0.18178928 -0.06063909 -0.1373474 0.1942084 0.014964725 -0.3072556 -0.072652094 -0.09581915 0.047339514 0.23584941 0.100039124 -0.02238436 0.32663977 -0.08958348 -0.13237424 0.28630543 -0.1854932 -0.1841126 -0.049301665 -0.075704105 0.20742749 0.09694701 0.026702598 0.25777736 -0.0065447493 0.10169823 0.088858396 -0.069975846 -0.22753395 -0.120251514 -0.26037648 -0.31067488 -0.056243155 0.10795845 0.013919191 -0.2273561 -0.08600741 -0.2784354 0.048085768 -0.2432249 -0.17758763 0.17653328 0.28945056 0.023808032 0.04073485 0.040492177 -0.086407684 0.12861553 0.14775446 -0.10858511 -0.15507814 0.16747314 -0.10292418 -0.06452797 0.17714392 -0.07997816 -0.20841664 0.02907877 -0.14884028 -0.27016422 0.041462515 -0.12804568 0.14494212 -0.062111426 -0.014963485 0.060993195 0.051166855 0.024574757 -0.2023606 0.14778191 -0.14643641 0.010961206 0.047923733 -0.30898112 0.02320786 -0.022957152 0.161232 0.1598219 0.049876183 -0.12144527 -0.18828437 -0.20011379 0.05421523 -0.22505741 -0.117888995 -0.058449887 0.06491571
reflux -0.023663582 0.048523545 -0.051204383 0.24017374 0.2610734 -0.23745263 0.16586725 -0.13904753 0.06932609 0.49505636 0.11554646 -0.09267263 -0.07487926 -0.1982547 0.07590223 0.4563844 -0.3717712 -0.15001132 -0.17899743 0.50239205 0.10975637 0.031502526 -0.518611 -0.6549452 -0.52172554 0.21963263 -0.23636647 0.015874105 0.009813945 -0.12496205 0.11954773 -0.11117156 0.020380588 0.12362128 -0.11858177 0.50716823 0.26604092 -0.08637517 -0.09334642 0.26696184 -0.11235827 0.22243659 -0.07188625 -0.16533904 0.26640612 0.017530367 -0.37474012 -0.11785385 -0.12372505 0.053833634 0.32840368 0.13635644 -0.02028285 0.4382471 -0.13966167 -0.20194125 0.37539127 -0.2524531 -0.27268994 -0.05619724 -0.12244477 0.26042855 0.13760714 0.045917165 0.33846232 -0.029225342 0.12566395 0.12099281 -0.11655602 -0.3012504 -0.16513881 -0.335207 -0.3932974 -0.07640755 0.13027519 0.01991474 -0.30176303 -0.12485664 -0.37906456 0.048151657 -0.33509812 -0.26307264 0.20679146 0.39034334 0.036199965 0.057617288 0.027008874 -0.10561308 0.1678943 0.16264895 -0.16547787 -0.17933075 0.20675187 -0.1567537 -0.07151898 0.25612113 -0.130305 -0.28951284 0.011396574 -0.1891074 -0.35066894 0.05036541 -0.17378868 0.16848847 -0.07842885 -0.04041938 0.0823804 0.08989788 0.02666214 -0.26840192 0.19372593 -0.20098214 0.033148743 0.048436847 -0.39308384 0.06460829 -0.037397522 0.20845556 0.18664856 0.0847824 -0.16329366 -0.24663255 -0.25041696 0.052581564 -0.3077455 -0.1627868 -0.08102877 0.066560686
advice -0.0070088133 0.032744717 -0.05271334 0.20525439 0.21682103 -0.19088185 0.12939256 -0.10404568 0.0480608 0.40927187 0.122467965 -0.07975441 -0.05375368 -0.17700718 0.048637148 0.39704204 -0.31291115 -0.14014699 -0.15671474 0.43315062 0.08076303 0.015852662 -0.4563062 -0.55085623 -0.47050798 0.18600789 -0.18672875 0.027943362 -0.0003863599 -0.09079059 0.118704304 -0.09656366 0.006051568 0.09195033 -0.109467946 0.43751514 0.22559935 -0.08106407 -0.07836746 0.21101046 -0.0998126 0.20210208 -0.053015698 -0.15914263 0.21643816 0.024098836 -0.34952664 -0.09867303 -0.1026239 0.050286185 0.26036063 0.10890253 -0.020266343 0.36918882 -0.11322394 -0.16704059 0.3246167 -0.20910245 -0.22409159 -0.056400504 -0.0937363 0.22553931 0.109896906 0.036973085 0.286622 -0.013986182 0.1042143 0.10082697 -0.09828871 -0.25647208 -0.12635593 -0.2772632 -0.3531926 -0.0653146 0.10223828 0.0054313387 -0.2745151 -0.088458024 -0.33441782 0.05589279 -0.27473786 -0.20759949 0.18570809 0.32706842 0.035533313 0.045973048 0.04239571 -0.10147818 0.14599152 0.14341193 -0.14540468 -0.15531674 0.18312411 -0.12532939 -0.07744125 0.21042778 -0.10011323 -0.22103038 0.033657756 -0.15621349 -0.29859737 0.04832861 -0.13850464 0.16263744 -0.07827187 -0.030800031 0.059481766 0.072692454 0.02895914 -0.22793505 0.1667254 -0.17301793 0.024104772 0.062176745 -0.34769347 0.036950305 -0.0263555 0.18395837 0.1727828 0.054222602 -0.13963653 -0.23533802 -0.20401624 0.05309188 -0.25161764 -0.14527565 -0.049518548 0.062470775
sure -0.009522228 0.04247996 -0.0413755 0.23385566 0.24180986 -0.21966308 0.15819032 -0.11772251 0.05332273 0.4371579 0.123689786 -0.08095661 -0.07791011 -0.1854128 0.06471663 0.41451856 -0.32677197 -0.14389259 -0.15807432 0.4517077 0.097560726 0.045954745 -0.48754644 -0.60172695 -0.48452416 0.1815145 -0.21306317 0.028555088 0.0016795808 -0.09258298 0.13880754 -0.11290269 0.02174827 0.115656294 -0.11794225 0.46301544 0.23204628 -0.07834545 -0.08542679 0.23798762 -0.11898588 0.22304966 -0.06281885 -0.15070789 0.22352378 0.020834303 -0.3667727 -0.09686544 -0.12962447 0.056001112 0.30438057 0.13148406 -0.018244531 0.39765644 -0.12160276 -0.16845131 0.3536608 -0.22713019 -0.23743084 -0.046762355 -0.095475845 0.2422062 0.11261777 0.035534754 0.31505924 -0.023347896 0.12420104 0.09945992 -0.105405815 -0.27517146 -0.1517436 -0.31950784 -0.36470318 -0.062089913 0.119082786 0.0064212605 -0.2868035 -0.1115919 -0.35837626 0.06692404 -0.30391854 -0.22136657 0.20187037 0.36000916 0.03821411 0.043085266 0.043518316 -0.13331348 0.16137043 0.1654865 -0.15354335 -0.18517518 0.19484033 -0.1352906 -0.069098614 0.20330916 -0.107556425 -0.24829121 0.016881356 -0.17736605 -0.33182916 0.03939913 -0.15541731 0.1655364 -0.088935725 -0.042578887 0.076782055 0.07508939 0.03254082 -0.23188081 0.18501785 -0.196183 0.01120104 0.058128014 -0.38082203 0.05390694 -0.02992953 0.19672771 0.19148856 0.07363099 -0.14831842 -0.2269084 -0.21727219 0.058127385 -0.2749547 -0.15934926 -0.068996 0.078855015
baggy -0.0017856439 0.019248493 -0.02526239 0.16409472 0.13355453 -0.14421023 0.07788033 -0.068212666 0.040450897 0.3077519 0.06327024 -0.05334203 -0.04236096 -0.108649835 0.03235757 0.2580685 -0.2283139 -0.09442212 -0.089154765 0.29696652 0.04620175 0.021449406 -0.3294086 -0.3659848 -0.32392207 0.13507995 -0.12959504 0.016676312 0.016934 -0.06758164 0.077469 -0.08099825 -0.00608998 0.057888497 -0.086906485 0.27925268 0.13705337 -0.042666662 -0.07424405 0.14367165 -0.09064091 0.13358016 -0.061451495 -0.088504165 0.15534514 0.024180748 -0.22122043 -0.0703302 -0.08575184 0.039855454 0.17183651 0.07095751 -0.015590451 0.25339338 -0.06817474 -0.10854861 0.2076762 -0.10995309 -0.13891412 -0.047677524 -0.056122176 0.1704579 0.06971344 0.017240778 0.20455112 -0.013810997 0.07702888 0.07267189 -0.062124092 -0.19306937 -0.08340334 -0.20504926 -0.23708512 -0.057744183 0.08142584 -0.0019695442 -0.18338709 -0.078440174 -0.21767676 0.059719797 -0.17278846 -0.1645235 0.14631946 0.2117124 0.012195602 0.015900604 0.026722614 -0.074736215 0.109101824 0.1140403 -0.09911218 -0.11967663 0.13828334 -0.089203656 -0.06349893 0.14584403 -0.06247956 -0.15825051 0.017110443 -0.117381714 -0.18500483 0.017615153 -0.086974844 0.1168684 -0.044307392 -0.025376836 0.04050554 0.042261817 0.029284468 -0.13605817 0.1064422 -0.123401605 0.00019825723 0.042684995 -0.23965688 0.043133937 -0.014254958 0.1420631 0.11622286 0.034491464 -0.09663327 -0.14049599 -0.15710083 0.04022366 -0.16735265 -0.09820053 -0.027043186 0.05818487
