2477 128
eat 0.36698982 0.062404662 1.4632357 -0.22730942 -0.20816167 -0.005441325 0.6505156 0.10434913 -0.43531674 0.3349416 0.1831318 0.055404276 0.15817854 0.28269127 0.3605029 1.7392421 -0.776648 1.0994148 -0.5936044 -0.10469067 -0.285614 0.98261315 -0.27421883 -0.18645108 -0.21584661 0.8141598 -0.87707084 0.68849677 0.10207343 0.013419135 0.06682571 -0.09489495 -0.4653154 0.08894377 0.285406 0.26155323 0.4920904 0.61559534 -0.104157604 -0.21904182 -0.42887595 0.96549064 0.16321479 0.3092473 0.5578441 -0.1498287 -0.86246043 0.23884757 -0.34309548 0.12575309 -0.5267649 0.1291224 0.7913651 0.30352592 0.63452584 0.1921547 1.8175098 -0.9682498 -0.94412893 0.41539225 -0.24334812 -0.88159883 0.96303326 -0.085919656 -0.94010764 0.5218253 0.48842335 -1.0218444 -0.43289945 0.7545293 -0.3767063 0.4748033 -1.4369932 -0.17447373 -0.30040795 -0.65241164 -0.912056 0.00966558 0.0334195 -0.17182888 0.63248163 -0.5726372 -0.15547296 0.7496801 0.3323951 0.13968056 -0.27241424 -0.63204956 -0.7087149 0.44140407 -0.43537205 -0.2166215 0.090581484 -0.5273565 0.83499664 -0.36091888 0.57779026 -0.39820123 0.09098228 0.3617817 -0.46205458 -0.6204535 -0.51111096 0.3773149 -0.94124806 -0.15534122 -0.6620749 0.7490979 -0.94996226 -0.8166919 0.72524524 0.057839144 0.2878811 -1.1086625 0.13777408 -0.7996176 0.3297835 1.1252365 -0.38975 0.017800823 -0.30206537 0.87250435 -0.582064 -0.40906665 0.55564266 -0.7757908 0.2732818 -0.8843532
feel 0.12850754 -0.05505444 0.42656133 -0.16400263 -0.73046005 0.082751155 1.3012244 0.15498379 -0.17672175 0.65411913 0.94870967 0.24935557 -0.11353856 -0.7431464 0.7056646 0.68527615 1.0550299 1.774007 -0.44679657 -0.19887494 -1.2251062 0.11166664 -0.85264856 0.13423686 -0.8745683 0.8015922 -0.7202457 1.11849 0.025355792 -1.0814009 -0.7627527 0.061103005 0.8070346 0.07174663 -0.40420187 0.90306306 1.1900839 -0.40419063 -0.17332558 -0.48264912 -0.4754322 0.3813688 0.012511416 -0.22338134 -0.19837815 -0.4825086 -1.1853333 -0.7971763 1.0931505 0.47959858 0.6369256 0.038360976 0.76770043 0.18434261 -0.65916216 -0.4519449 0.40070915 0.4155163 -1.1970116 -0.18099761 -0.39683846 -0.080528066 1.0383205 -0.20200655 -0.5279687 0.5825475 -0.45706308 -0.92086 -0.6372088 -0.7033267 -0.1206107 0.058355745 -0.12974651 -0.45623326 0.21864551 0.21652882 0.07392366 -0.2292071 0.4121762 0.19452894 1.5516423 0.1163524 0.37935713 1.2098594 0.09893197 0.94901985 0.3951607 -1.3567706 -0.04172095 0.82050157 -0.26617894 0.027737647 1.39162 -1.0952137 0.68668944 1.3482168 0.5063048 0.3011714 0.332523 -0.4573637 0.32021448 -0.24726167 -0.08220304 -0.0049662776 -0.5959168 0.6778683 0.36404508 -0.049890958 1.363794 -0.93375486 -0.107728735 -0.40054667 -0.9270111 -0.10480656 -0.7069368 0.14975731 1.0250055 0.6626124 -0.57767874 -0.66264564 -0.73527485 0.842403 0.8661995 -0.6515283 1.0287589 0.24059902 -0.08258256 -1.3130362
like 1.1199591 0.70822185 0.12924992 0.39856642 0.57700914 -0.4526192 -0.16181885 -0.09696889 -0.32994103 0.96750474 0.47785696 0.0768965 -0.19459869 0.03921006 -0.012600197 0.40027142 -0.04424126 1.3535203 0.71174616 0.48164052 -0.56641227 0.4442817 -0.38662472 -1.029993 -0.24472389 -0.13962434 -0.44276452 0.99998903 0.55456275 -0.23870175 -0.5972148 -0.54927224 0.6060404 -0.4964608 -0.34254903 0.5996303 0.5862813 -0.22364071 0.14129215 0.18496835 -0.6812809 0.8031903 -0.19387579 0.8770305 -0.19573565 -0.06616452 -0.22375354 -0.24281092 -0.44519415 -0.3911943 0.8296052 0.48616526 0.9311388 -0.9183491 -0.21543917 -0.27469525 0.57182497 0.49672487 -0.33815804 -0.40728673 0.206504 -0.054457255 -0.25205427 -0.21496834 -0.317227 0.31103548 0.018389788 -0.6359707 -0.2586877 -0.28390953 0.08512517 -0.57459944 -0.21027523 0.35607964 0.36168715 -0.92271346 0.7780737 -0.3834554 -0.65077263 0.12304208 -0.6709136 -0.82858986 -0.24046615 0.077875905 0.28803018 0.9592626 -0.19901948 -0.5129632 0.42634296 -0.31886894 -0.6252048 0.08094642 -0.3541086 -0.5259779 0.7459508 0.22321738 0.7105375 -0.10155553 0.1609354 0.26600593 -0.440651 0.03749243 -0.33323458 0.26722616 0.013931253 0.32864454 0.30165258 -0.36219332 0.57500255 -0.22426279 0.17350699 0.17545372 0.31947786 0.17027551 0.13643348 1.0028306 -0.19338505 0.5763573 -0.5862961 0.10172742 -0.16791207 0.12695487 -0.36288702 -0.5736252 -0.27596152 -0.74990594 -0.38254547 -0.35567147
weight 1.1270572 0.6662675 -0.88891375 0.68575263 0.16825758 -0.2057071 -0.62855446 0.026843539 -0.23576108 1.1190444 0.67529064 -0.52206594 -1.1209627 0.86369425 -1.0009066 0.21574193 -0.9211072 0.11168433 0.75021935 0.12987128 0.5215422 -0.015009668 -1.5315075 -1.6319833 -1.0555315 0.73444366 0.7315132 0.87578636 -0.6727497 -0.24993284 0.44356924 -1.1716852 0.74253803 -1.3090731 -1.09242 1.7448194 1.6122942 -0.5824963 1.6105326 1.1728625 -0.1768778 0.18071118 -0.26618046 0.96405673 0.7689154 1.0589268 0.5677841 0.5212475 -0.09785685 1.2024719 -0.09663758 0.36480767 0.74969786 0.17043053 0.41048473 -0.88783 0.15853539 0.371722 -0.20146887 -0.6964448 0.20455296 -0.7934612 -0.3400169 0.96115875 0.5448376 -0.50772536 0.4149232 -0.83845013 -0.55147064 -0.8041339 0.48966885 -0.8038382 -0.682171 -1.2500182 0.5404798 0.02256925 -1.2605913 -0.46173704 -0.017402224 0.2718541 0.612703 -0.63347846 0.8402019 0.0697912 -0.52599627 1.2860816 0.9461877 -1.1198435 1.0939437 -0.43632376 -0.08217516 0.4421736 0.45095834 0.24699883 0.7970671 0.6090376 -0.1226232 -0.42666447 -0.3405971 0.054980002 0.18649946 -0.2565594 0.45094153 0.9413232 0.41127533 0.22579768 -0.72857374 -0.7518941 0.38816437 -0.6761175 0.06815127 0.28870767 -0.31865457 0.05484561 -1.1622365 -1.5845262 -1.3079586 0.16391988 -0.6925254 1.647929 0.5321739 0.09590465 0.044449896 -1.2734565 -0.7343726 -0.7446019 -0.973255 -0.24665076
get -0.09252319 -0.52014387 0.054078486 -0.65650827 -0.538095 -0.60025436 0.9029455 -0.20694004 -0.27518344 0.13167958 0.069912255 -0.004895614 -0.7211505 -0.24670285 0.7922933 1.380096 -0.14806902 -0.0031617533 -0.08823358 0.16778761 0.4957617 0.7009334 -0.59748566 -0.46042812 -1.1747512 0.68210036 -1.3039825 1.0646138 0.58738464 -0.58726615 -0.834933 0.09021771 0.09521018 -0.07971725 0.022777537 -0.25730324 0.13106945 1.0573441 -0.20275144 -0.60976243 0.5089801 0.04998824 -0.025285147 -0.042626705 -0.3966866 -0.94035935 -0.21244444 0.7112801 0.41826993 0.61565924 -0.17336524 0.4846206 0.4664098 0.76724046 -0.26774693 -0.47583815 0.66537774 0.36304635 -1.0745327 -0.40810886 -0.26048493 0.024910351 0.5715374 -1.3331789 1.0732439 0.35464624 0.19861193 0.8178401 -0.9750819 0.7553885 -0.23324896 0.13922362 -0.35155317 0.36790532 0.14974742 -0.0067055672 -0.56692165 0.050451834 -0.16960362 -0.7174443 -0.3418986 -0.3228987 -0.3465379 0.57139003 0.7974956 0.39436936 -0.51844084 -0.32867533 -0.8092216 0.39562672 0.7136437 -0.5726267 0.5945065 -0.7351106 0.18344301 0.6000412 0.4355328 0.94577557 0.22122471 0.56968963 0.22495514 -0.87468976 0.030422263 0.61658967 0.22369212 -0.32381564 0.33406496 0.62958217 0.7556108 -0.12548734 0.5180011 -0.20371242 -0.27248225 0.051258948 0.1556505 0.28678647 0.5147761 0.60751414 -0.050555907 -0.8812472 -1.099575 0.2119789 -0.5887273 0.47841856 -0.23608921 -0.23336107 -0.7285328 0.17894618
want 0.22274458 -0.30436325 0.6054269 -0.47239128 -0.55772084 -0.6247483 1.2247111 -0.5336238 -0.7119506 1.0294561 -0.079954304 -0.042974167 -0.80791116 -0.7081404 0.5520962 0.73478997 0.10297567 1.0556115 -0.10647894 -0.21516885 -0.7996146 0.618138 -0.7814161 -1.419432 0.16621314 -0.22554629 0.049052365 0.25440553 -0.3539464 -0.672153 -1.0846379 -0.77242094 0.54157174 1.0651168 -0.3971913 1.284823 0.78024536 -1.1736373 -0.17577703 -0.34338722 -1.060323 -0.028239606 0.2910264 -0.22325984 1.0231295 -0.13455185 -0.7455674 0.04405829 0.801767 0.124669075 0.3883317 0.47852126 0.49881354 -0.36382985 0.415552 0.44189847 0.9813813 0.4809954 -0.88486165 0.23446725 -0.29461324 0.08248005 0.4842149 -0.13049324 -0.19675076 0.0334645 0.57876635 -0.021573065 -0.33554748 -0.4134652 -0.75456184 0.50342065 -0.958673 0.012444618 0.18596932 -0.738529 0.15204334 -0.3562941 0.5993527 0.0951784 0.7700177 -0.23726037 -0.15900937 0.7511999 -0.1517412 -0.726899 0.29174623 -0.75162774 -0.33247882 0.11746736 -0.26032123 -0.31857505 0.211729 -0.21269262 0.37193063 0.5342451 -0.41825777 0.7020697 -0.3962114 -0.34321162 0.043726757 -0.5122966 0.32897127 0.29094693 0.95862097 0.31235933 -0.46560398 0.19288164 0.8170722 -1.1988074 0.8638177 -0.5992156 0.19841889 -0.636594 -0.3508933 -0.1310662 0.34886578 0.50848734 -0.74746054 -1.2226969 -0.58675593 0.48654345 0.43365854 0.043431625 0.361483 0.35143235 0.7429965 -0.045683976
know -0.21484116 0.68526953 -0.3901636 0.65852565 0.011347998 0.19358255 0.41359216 0.1638946 -0.08796221 0.4214448 0.5930467 0.23424952 0.4852972 -0.40470475 -0.30888054 0.3777143 0.09998299 -0.3058338 -0.30248958 1.1170387 -0.1613614 0.45923322 0.3148517 -0.89201 -0.23190239 1.4170152 -0.47814435 0.5623073 -0.3808785 -0.029691666 -0.08693303 0.21156712 0.19469307 0.2587855 -0.22962405 0.19176482 1.5125825 0.48072886 0.3615033 0.21196829 -0.20949477 0.18823452 0.2367765 -0.7511415 1.067474 0.02635217 0.16762644 -0.70125264 0.072324224 1.0111669 -0.10946421 -0.22654708 0.13407788 0.6242245 0.15675342 -1.032542 0.36407387 0.2551334 -0.68134254 0.5243546 -0.19394031 -0.9376313 0.61594176 0.25897023 -0.4612505 0.8146061 -0.7163582 -0.39700618 -0.08154657 -0.15251678 -0.32732147 -0.38781238 -0.21059753 -0.20129636 0.77299464 -0.022377525 0.4268014 -0.0123023 -0.028304834 0.66884863 0.19073737 -0.251443 0.061232373 -0.08904655 1.478321 0.13069628 0.47698197 -0.21426305 -0.46956772 1.3452767 -0.12467497 -0.01707278 0.6604543 -0.91176796 0.88345563 -0.1567842 0.48504063 0.24942335 0.15354474 -0.0527246 0.2771636 0.91235995 0.16217262 -0.2411517 -0.3323653 0.2005204 0.6654143 0.8383637 0.9907047 -0.19162121 0.36787212 -0.4977969 -0.17002404 -0.22788076 -1.2492989 -0.12688838 0.031381972 0.8711801 0.15791228 -0.059168257 -0.4278035 0.53501916 0.35026407 0.45063904 0.3707586 -0.46967727 -1.7403989 0.2553516
go -0.23041043 0.07025968 0.08361845 -0.15116581 -0.15671344 -0.43181956 0.1380892 -0.64821464 0.90722907 0.14755698 0.35152096 0.5314824 -0.21832561 0.29901493 0.12013413 0.78070134 0.30244562 -0.35570088 0.39325196 -0.31137207 0.7140171 0.14538062 -0.030884802 -0.29884088 -0.59073293 0.58593106 -0.47353774 0.36133587 0.49741474 -0.34907135 -0.34254366 -0.017203115 0.07560149 0.025796805 0.23710518 0.05418734 0.71974945 -0.59967726 -0.15232396 0.49135646 -0.5249802 -0.40855396 1.0017989 -0.5516948 -0.21782342 -0.9199617 -0.42001224 -0.27705035 0.23097675 0.8488069 0.4538153 -0.2833858 -0.6000941 -0.32483682 -0.9253219 -0.60821587 -0.10823184 0.0016867953 -0.66378003 0.097272426 0.65173143 -0.1602491 0.49913973 -0.23733324 0.7554581 0.39499298 -0.104786 0.3651851 0.12363486 -0.41784835 0.086348586 0.5669 -1.196802 -0.09858561 0.31924656 -0.30441484 -1.154583 -0.09044326 -0.16653834 0.36286074 0.09500566 -0.54511803 0.39060518 0.20252356 1.2136303 0.25990385 0.3383329 -1.0549275 -0.56795645 0.0463704 -0.2451011 -0.13606355 -0.14052418 -0.60565114 0.6805454 0.23755652 0.7108076 -0.37462014 0.029076315 0.13886312 0.9339048 0.025255566 -0.27487576 -0.07003399 -0.36914435 -0.087954424 0.2880903 0.3902782 0.7991453 0.10802516 -0.15739238 -0.06643564 0.43146974 0.38933682 -0.54483736 -0.18693085 0.13134293 0.51383257 0.4202214 -0.74696565 -0.91089326 -0.10437728 -0.12474796 -0.35915595 0.22671816 0.45352846 -1.1761303 1.1233014
make 0.9366387 0.2969286 -0.06373917 0.27563235 -0.025441015 -0.5174666 0.6849593 -0.49088496 -0.8840043 1.0231943 0.96156657 0.37540725 -0.45369384 -0.003352679 -0.005914282 0.73642397 2.0187428 0.35740802 -0.38946465 -0.078222096 -0.60208213 1.022681 -0.37555966 -0.46879786 0.26614442 0.2388144 -0.40838248 0.6176059 0.015596972 -0.30443525 -0.47386712 -0.90383196 0.3042193 0.46604824 -0.2514886 0.8596723 1.5185428 -0.13501132 -0.38919547 0.022147235 -0.21623312 0.4409931 0.7757012 -0.02578454 -0.19228117 0.086460985 -0.772588 0.013475401 0.39865512 0.43085176 -0.9479642 0.597834 1.398469 -0.2591343 -0.5408367 -0.4071972 0.29819745 -0.15652132 -0.03845463 0.40129617 -0.6587335 -1.2196422 -0.23463543 0.3632565 0.38659728 -0.9675327 0.1970013 -0.9980348 -0.6911967 -0.5610249 -0.74228007 -0.089310035 -0.094514 -0.36813176 0.67208827 -0.3315807 0.4154594 0.37387344 -0.810847 -0.11578082 -0.5485802 -0.76815313 0.5141952 0.81671834 -0.47879234 1.077802 0.7368155 -0.3735791 0.10954934 0.29703313 -1.0189763 0.73300254 0.6501775 0.069954306 1.1434915 0.037984766 0.89076304 -0.065165855 0.36808202 0.57137966 -0.37969792 -0.16567504 0.08430724 0.22047961 0.010588482 -0.36663982 0.636998 0.84271467 1.3412882 -0.11235617 0.7779898 0.17159443 0.46332258 0.22973514 -0.20148268 0.23548722 0.3227776 0.96019834 -0.6483918 -0.7293314 -0.6032916 -0.1068876 0.08992031 -1.1234441 0.3540531 -0.48119834 0.36927214 -1.2728776
food 0.056815058 0.33544552 -0.047839206 -0.65365523 0.101175085 0.34162176 0.7692479 0.40332964 0.11697099 1.0843378 0.67261857 -0.52854073 0.3922119 0.16029261 0.1507188 1.3008996 -0.35534793 1.0149782 -1.1645471 1.1650754 0.40118343 0.7650736 0.39516285 0.1071623 -0.18395865 0.56071484 -0.96467614 0.48472703 -0.76087993 -0.32583758 -0.96845806 -0.4582595 0.27596837 -0.109604806 -0.015272719 -0.09208073 -0.31484473 -0.50294733 -0.20048414 -0.10938823 -0.73689264 -0.6417296 0.07953303 -0.41515034 0.70013744 0.79776245 -0.025402794 -0.013603276 0.20010892 -0.033255864 -0.02481399 0.2652979 0.8079142 -0.412104 0.20812552 0.4344982 0.45788613 -0.98723 -1.3925503 0.86020714 -0.79607755 0.07823254 0.031582635 -0.665007 -0.3927234 -0.7002453 -0.92486787 -0.90134305 -0.3540877 0.050924238 0.6860154 0.424403 -1.1307235 0.07895879 0.15608825 -0.7915136 1.1749415 0.63323706 0.079137154 -0.17112851 0.81889856 -0.22473824 1.3949621 0.42437032 -0.23575042 -0.37356412 -0.23440689 -0.12755449 -0.01812513 0.59532803 0.37729436 -0.6796435 -0.591618 -0.28642106 0.49673867 0.7353963 0.19733663 0.2623968 0.40676957 0.0069721225 -0.58413047 0.46198317 -0.025706923 0.005899873 0.70001465 0.14497143 -1.069007 1.5384551 -0.5682261 -0.012488851 0.7388723 -0.32064646 0.49234232 -0.12415816 1.2106271 -0.95236665 0.6347555 0.53096926 -0.4627959 -0.7799493 -0.91001683 0.0063669058 0.09295665 -0.38711008 -0.44098422 -1.1460019 0.7586632 0.014475475
recovery -0.020154575 -0.9783192 0.02962327 1.2824838 -0.018258395 -0.27531835 -0.04518245 0.040275436 0.96137595 -0.6857574 -0.3344802 0.51310396 -1.1248597 -0.7648932 0.034615863 0.58122176 -0.42671815 0.92243886 0.24598831 -0.24565451 0.24902377 0.7001331 -0.5313044 -0.4382064 -0.1344418 0.35074663 -0.45057684 0.43694207 1.1408931 -0.29525515 -1.0149139 -0.069741584 0.2750957 -0.27532908 -0.30868262 0.13215806 -0.08629112 0.29546052 0.46011698 0.5720047 0.36324 -0.16012737 1.1096005 -0.06625625 0.06855617 0.0650036 0.0151978275 -0.12559144 0.4130154 -0.08035241 0.69399 0.06932946 0.21445611 0.78244513 0.24734698 -0.68421084 -0.040231146 -0.120018855 -1.0138654 -0.6853357 0.757314 -0.6147687 0.882251 0.23960596 0.051130172 1.5211225 0.1792681 0.991944 -0.060881488 -0.46435368 0.41917178 -0.56749666 -0.2463218 -0.42093152 1.1561185 0.056160994 -1.3980271 0.40644217 0.3680339 0.086767636 0.115085125 0.17145284 -0.1144294 0.17607367 0.26478678 0.09894632 0.32929483 0.11973689 0.9424238 0.6641652 -0.16266795 0.00204238 0.28757477 -0.760463 0.00050026353 -0.039121434 0.24059652 0.06421935 -0.52935433 -0.3862838 0.4575752 -0.2608634 -0.3645872 -0.56976765 -0.7328331 0.34652263 0.52097374 -0.04742135 0.9366622 -0.295957 0.22847228 -0.448618 -0.45193684 0.33092448 -0.9836033 0.14037888 -0.031029625 0.074282296 0.33508602 -0.011528841 -0.9865237 0.03480961 0.20208313 0.7581305 -0.703116 0.016961377 -1.2398875 -0.3052371
really 0.73835903 -0.30399922 -0.23617032 0.26054898 -0.3597349 -0.23439308 0.502373 -0.5200882 -0.7030148 0.2572387 -0.21905945 0.51232135 -0.45466998 -0.11862991 0.047450464 0.37058902 0.19592524 0.6379181 -0.6045777 -0.81908745 0.034306213 0.76069653 -0.95444036 -0.97947997 1.1625204 0.14838125 0.016550587 0.4653183 0.7410256 0.18972488 -0.1418414 -0.02459624 0.9103183 1.1653199 0.5295066 0.9825412 0.7288648 -0.08832411 -0.110495605 -0.041212965 0.16842744 0.36688542 1.2757256 -0.07374477 -0.0002191269 -0.15057954 -0.4501353 0.49182093 -0.18293753 0.39022872 0.13845538 0.2715728 0.34670326 0.17935799 0.30523825 -0.26205158 0.28884026 0.58288985 -0.3666643 0.068169 -0.5430513 -0.20113479 0.25036454 -0.18976675 0.08407988 0.10022616 -0.10601343 0.22074963 -0.3468873 -0.37093267 -0.5438638 -0.05453286 -1.0145226 -0.15584923 0.521727 0.22239824 0.10559533 0.46599472 0.4862582 0.22766268 0.020141533 -0.34520227 0.20462275 0.7248855 0.19518304 0.30637848 0.31486258 -0.051304147 -0.26701573 0.42425898 -0.60943973 0.23883086 0.4570531 -0.60457176 0.4278613 -0.19668512 0.18979938 -0.15806587 -0.5994739 -0.21529205 -0.14481445 -0.333342 0.007346957 0.31493172 0.18824199 0.050336313 -0.2097232 0.1480771 0.59961885 -0.5809616 0.79304224 0.25651202 0.65759474 -0.29024518 -0.5942165 -0.37416238 0.13504867 0.2946163 -1.0096793 -0.489332 -1.1016855 0.30287635 -0.6501842 0.20892754 0.12116121 -0.025628908 -0.24526367 -0.24019693
try -0.1309692 -0.7890338 0.2834329 -0.37265512 0.049076382 -0.06392166 -0.010028061 -0.085706145 -0.66890115 -0.02086353 0.8550334 0.044340793 0.39050335 -0.6522332 0.46673885 -0.26117128 -1.1029164 -0.05190235 -0.7967238 0.048183165 -0.17588872 0.33153328 -0.16545922 0.56040543 -0.49712095 0.7177049 0.34176114 -0.22425325 -0.6129823 -0.18958914 -1.1857792 -0.3688444 0.93198794 1.2771292 0.8336204 0.8943602 0.78408015 0.6340929 -0.46826538 -0.61097157 -0.45705345 0.65409 -0.48710752 -1.1237725 -0.26896578 -0.3665648 -0.16423398 0.65262777 0.14118293 1.3406478 0.7015737 0.06448448 -0.59717894 -0.34918174 -0.4438341 -0.6104306 0.10970346 0.4129279 -0.6944641 -0.9720738 0.27610236 -0.14258347 0.014980148 0.35688582 0.43338597 -0.07849933 0.008626218 0.46032172 -0.5118463 0.03020716 -0.044318847 0.83068347 -0.65257657 0.039720215 -0.036174774 0.2322766 -0.7438806 -0.60874325 0.30174622 0.11864101 0.19664785 -0.018564956 0.061236273 0.77114177 0.08387172 0.47914732 0.66550606 -0.30472976 0.011562835 0.3745493 0.010523072 -0.62674844 0.52942896 -0.22988552 0.91640407 0.79845107 0.108467296 0.21985528 0.45613468 -0.37884688 -0.4306813 -0.5832485 -0.1964156 1.1723499 0.4253912 -0.2402698 -0.9649249 0.36187765 -0.1322841 -0.6447973 0.38407582 0.97625947 0.49043965 -0.4264211 -0.47528115 -0.582686 -0.092023015 0.4840874 -0.20040728 0.04569311 -1.4731859 0.331393 0.03435715 -0.07567445 -0.19138856 0.43899766 -0.25415045 0.21005043
even 0.91214275 0.18594502 0.049499504 0.6667448 -0.69659567 0.41537133 0.9638916 -0.35687152 1.0798306 0.336589 0.53907853 0.63734144 0.6203172 -0.002024219 0.062380407 1.0794578 -0.26183072 0.43841204 -1.2187638 0.4175584 -1.0237463 1.8331891 -0.19743794 0.33799857 -0.1802038 0.9919189 0.40117717 0.24089165 -0.6264774 0.2920855 -1.4835129 -0.1078022 0.7100188 -0.892207 0.96425754 0.7068956 0.17555004 -0.1611945 0.31413904 1.4255759 0.28543714 0.9292881 -0.3565064 -0.04517941 1.0757377 -0.23942155 -0.57736874 0.24904281 -0.33412525 0.16298473 -0.44036573 -0.3689636 0.98413306 -0.48679712 -0.68683213 -0.18816654 0.7767323 -0.6213222 -1.0915356 0.56774306 -0.25292188 -1.0864104 0.9659846 1.1868942 0.004783942 1.2067863 -1.044213 -0.1645151 -0.55914587 -0.22504666 -0.17674485 0.36117446 -0.38239226 -0.4586758 0.52774537 0.20625305 -0.46882954 -0.7604739 0.73930097 1.0662352 0.6444138 -0.48896974 0.4689372 -0.49759492 0.650199 0.5328247 0.6395427 -0.8844253 0.0694121 0.3672549 -0.15495922 0.360944 -0.73999286 -1.4678988 0.32948452 -0.012503864 -0.06920054 0.15216424 1.4594663 -0.26109982 -0.8075279 0.43378785 0.2193208 0.8309558 -0.27427235 -0.4174146 0.47134537 0.81870395 0.5782033 -0.06763915 -0.53072834 -1.035752 -0.6865398 -0.4488644 -0.33625102 -0.23016468 -0.031133074 0.9088864 1.0167004 0.02334526 -0.9139964 0.19540218 -0.37087455 0.59994537 -0.21235025 -1.2703558 -1.0063417 -1.3276616
time 0.07899895 -0.77022713 0.2576329 0.4798278 0.3305745 1.1461937 -0.24330941 0.41399533 -0.4628812 0.5177663 0.09553545 -0.9656468 -0.5799942 0.69874966 0.088843964 0.27053553 -0.21411575 2.7006812 -0.4082753 -0.30911082 -0.8199404 1.2295675 0.9463 -0.5378588 0.22808416 1.0639805 0.8812454 -0.4341284 1.2325022 0.2449875 -0.074781686 0.3846565 -0.062214043 1.143951 0.21408743 0.4166056 0.20346726 -0.6750837 -1.402897 0.14279138 -0.7594492 0.12643921 0.52959764 -0.44119337 -0.4118802 0.44793278 -0.57062316 -0.6660687 0.18131535 -0.2848927 0.49236456 1.0841147 1.7174321 0.23152022 -1.1841984 -0.046521056 -0.92906916 0.1830513 -1.2896484 -0.2848234 0.7219538 -0.18564537 0.43718082 1.0556425 0.6465675 1.0741184 0.010729937 -0.033033624 -0.9739369 -0.46450546 0.53825134 -0.77931046 -0.73314404 -0.73700845 0.9775789 -0.8761578 -0.53315 -0.8352758 -0.02284495 0.15643424 0.7976197 -0.7196219 0.30034932 0.81637263 0.17693003 0.22898494 0.4261751 -0.1736381 -0.34737965 -0.30577907 -0.276982 0.6615765 0.57278615 -0.067292936 1.4240278 1.3217063 0.2976107 -0.8385728 -0.23930816 -0.974293 0.14029606 -1.2057418 -0.6922791 0.87612504 0.44354835 0.59931993 -0.3987844 0.47372064 0.9157077 -0.3058105 -0.30119765 -0.24539185 1.6762773 0.8161277 0.9943326 0.14190729 0.47342426 -0.61179763 0.5959957 0.1509872 -1.0700654 -0.23712747 0.3931636 -0.49373442 -0.32686502 -0.27097422 0.04095572 -0.45369858
gain 0.9514012 -0.16291592 -0.32978895 0.8067885 0.6682891 -1.0453582 -0.4537456 -0.5218432 0.9842407 0.3526207 0.7160646 -0.048430506 0.45418224 1.1208977 -0.77864826 1.5682013 -0.46555153 -0.42098406 0.015000357 -0.0309587 0.6735645 0.50814575 -1.5788019 0.0970959 -0.62207985 -0.6053959 0.60820144 1.9567878 -0.8400868 -0.5360578 -0.46425915 -1.3901086 1.7961372 -1.0752023 -1.2974917 1.2547355 0.87374765 -0.32797855 1.355571 0.5691604 -1.2225021 0.24177502 0.6331354 -0.34677574 0.1520564 -0.7495752 0.23473924 -0.12370073 0.18996535 1.0659133 -0.15478465 0.74993443 0.64673495 -0.9448813 -0.15884085 -1.8043759 -0.09715342 -0.90349174 0.24852775 -1.016099 0.35266152 -0.11048701 0.27459183 1.3583667 1.3331383 0.5206183 -0.27515823 -0.915187 0.055427052 -1.3047909 0.10587195 0.1334851 -1.8733996 -0.36009145 1.3127763 -0.7772123 -1.5009881 -0.016716398 0.835034 1.037549 1.6516925 -1.6476382 1.531147 0.05221514 0.18420064 1.7084427 1.1940393 -0.079527184 1.3902607 -0.84582686 -0.1461103 0.03934418 0.6649483 0.10931576 0.6971794 -0.11843132 0.39420968 -1.4964515 -0.92182183 -0.16592905 0.6388367 0.13835335 0.7450869 0.12499029 -0.36862847 0.87317336 -1.1796257 0.16103658 0.22715093 -0.7972694 0.10211739 0.17740287 -0.6393502 0.9712289 -1.4046513 -1.9268582 -0.6236009 -0.32204545 -0.9234898 1.3588555 0.15225022 -0.53855413 -0.32748744 -1.032542 -1.2586997 -2.1641884 -0.6407131 -0.62829554
year -0.024819154 -1.4916847 0.12956141 0.4405822 0.15582362 -0.78172493 -0.97233766 0.23114137 1.2463957 -0.6564781 0.9056268 -1.7077292 -0.78796273 0.07904773 -0.73907876 0.9483177 -1.618257 -0.07853637 1.0785437 1.1453078 0.57348174 0.39888254 -0.54084617 -0.5615518 -1.1663237 0.7718459 0.77796227 0.09923671 0.7313934 -1.326219 1.1576428 -0.37065676 0.2561535 0.32443112 0.56589466 0.8655236 1.5266829 0.006146217 1.3055396 -0.07247698 -0.65085286 0.7967731 1.7395124 -0.87960017 1.699271 -0.33536914 0.21964136 0.4208285 -0.23896861 0.07965002 -0.66910505 -0.07387611 0.80209357 1.283334 1.3018839 0.3502008 1.3152841 0.71229213 -0.8053642 -0.80549467 0.5555866 -0.27236807 0.88413817 0.37112483 0.8992611 0.27180293 0.43931147 2.5261607 0.21776696 0.38118443 1.0775396 0.045761783 -1.0922921 -0.19024102 0.07200959 -0.69652283 -0.9375345 -0.97323525 0.45073026 0.8068726 -0.09874227 -1.7162503 -0.69373536 0.63815933 0.7058163 0.98013204 -0.4183433 0.4001468 0.89528686 -0.3625216 0.6457412 0.42778894 0.12782729 0.124699324 0.43011224 -0.7050063 -1.6180793 -0.10867084 -0.7237667 -0.3480383 0.3709119 -0.040287144 -0.2702012 0.6041908 0.60336196 0.16217996 -0.2625106 -0.22519946 0.23604684 -0.7690135 -0.20333424 -0.38545495 -0.63066554 -0.79916996 -0.40687498 -0.8365812 0.9361932 -1.0394937 1.3264539 0.13936326 -0.95894754 -0.41591787 0.25509593 -0.05008661 -0.7212648 -1.1267129 0.16900176 -0.28409466
think 0.1850269 -0.18873048 -0.238899 -0.5013563 0.47824156 -0.48150045 0.56976587 -0.18467538 0.5228665 -0.13704148 0.72928154 -0.08846063 -0.6452312 -0.43016773 0.32694563 1.6462177 0.19746014 -0.43565065 0.15823315 -0.31343696 -0.7535417 -0.7348447 -0.67701805 -0.61712843 -1.2779933 0.09375983 -1.2787251 0.72557104 0.8148564 -0.36208132 -1.0781687 0.17073056 0.44073904 1.0196632 -0.34387076 -0.22063744 0.122064374 -0.4847907 -0.09374992 -0.33628047 -1.1564757 0.63325655 0.33702028 0.40784824 0.06651623 -0.106317215 0.31789124 -0.011763674 0.28381398 0.091070645 0.45913747 0.28213343 0.4851006 0.087278165 0.13939975 -1.1984317 0.6750163 0.78371745 -1.1563361 0.32883564 -0.6954264 0.06643615 -0.21236356 0.06037388 -0.1077683 1.2053596 -0.7022079 -0.6383649 0.2603306 -0.32603863 0.021023858 -0.36583734 -0.5192859 -0.09434612 0.40638128 -0.33674234 0.03520948 0.00039023173 -0.5301155 0.50086856 -0.533956 0.02865112 -0.6423179 -0.35022512 0.20595896 -0.15083323 -0.29821137 -0.06516478 0.091448665 0.31134894 -0.10048714 -0.04005517 -0.5035428 -1.1243628 0.45885417 -0.15276064 -0.120600395 -0.34414276 0.4175165 0.6339169 0.22464694 0.91100055 0.27564865 -0.3433199 0.5169235 0.37810138 0.0054031475 -0.52040756 0.74940884 -0.04444668 0.018481737 -0.82013386 -0.27275845 0.28194192 0.13583176 0.5460197 1.0736691 0.13028994 0.33088025 0.1032756 -1.2266957 -0.46726274 -1.091046 0.27674615 0.24475545 0.29105017 -1.7472159 0.07627069
ed 0.16672446 -0.39376488 -0.98612547 1.0224433 0.65147465 -0.72693545 -0.44240135 -0.57443434 0.7305986 0.63385475 0.005333808 0.40123436 -0.35191217 -0.319888 -0.8357221 0.3909351 0.53158045 -0.2676491 -0.52835053 0.57334185 -0.21238615 -0.22801173 -0.39308184 -1.118245 0.30745825 0.5692266 -0.19762422 -0.5169089 -0.35666728 -0.14700593 -0.81588423 -0.47157818 0.43411216 0.31574 0.19764069 0.4089784 0.27086562 -0.25205028 0.19451612 0.7224965 0.08507469 0.5687554 0.103051156 -0.20495203 0.5219415 0.3445821 -0.4327811 -0.15223433 -0.038265493 0.21826822 -0.027889058 0.4676972 -0.46365878 -0.18738298 0.52483666 -0.7556398 0.095679715 -0.105862394 0.34939995 0.46290353 0.44987494 -0.6183346 -0.6338186 0.8363813 0.2879752 -0.56157255 -0.58615965 0.6124277 -1.0121027 -0.088264935 -0.38146523 0.37549612 -1.0796523 -0.233234 0.93351007 0.44959778 -0.47243634 -0.28499225 0.04908031 0.8565407 -1.0146861 0.093888454 0.1816605 0.43930155 -0.1408029 0.26690754 0.70151156 0.883578 1.1167814 -0.5279692 -0.53321207 0.21363488 -0.38064507 0.49486065 0.30867606 0.43582764 -1.1657951 -0.16463599 -0.24070434 -0.8800306 -0.17363988 0.22931209 -0.12137469 0.6086343 -0.32427096 0.12535015 0.6495639 -0.4928904 0.34614468 -0.07423648 0.722303 0.02854915 -0.046512906 -0.5871854 -1.5341822 -0.7690363 0.6703755 0.10094196 0.13825803 0.54270554 -0.6243174 -1.2109421 0.19934997 0.43899694 -0.5399677 1.0054576 -0.1368216 0.20925096
day -0.008089075 -0.80306756 0.7025404 0.23849003 0.3019767 0.5641666 0.28057337 0.042527586 -0.0455049 -0.6479802 0.60438377 -0.8804511 -0.009301881 0.023375446 0.34110686 0.9454063 -1.1865902 1.2574142 -0.30188978 -1.1216154 -0.18844275 0.47973713 0.7282278 0.24435353 -0.23195988 1.0405538 0.25643712 -0.05371918 1.0502491 0.028235363 0.18802163 -0.7133189 0.80643463 1.0535203 -0.083024405 -0.020185012 -0.31096116 -0.27656263 -1.5277543 -0.6873503 -1.5639269 0.059794597 -0.19046886 -0.1133645 -0.41192883 -0.04344831 -0.18467753 0.11427203 -0.38557383 0.17640768 0.4409389 0.9759833 0.24253364 0.32350522 -0.8418678 0.60559535 -0.14576705 0.33830076 -1.1803002 -1.4863938 -0.25431645 0.10750284 1.301869 0.47612634 1.0124224 0.6989126 0.33640754 0.45519513 -0.17995144 -0.66246074 0.18935116 0.47772962 -1.4871528 -0.2695344 0.30962253 -0.71874034 -1.0492179 -0.95305896 0.10179039 0.5720617 0.3950204 -1.0624983 -0.048393074 0.45484716 0.3022959 -0.34951067 0.3573699 -1.2967753 -0.060363643 -0.28233257 0.54970884 0.21797684 0.654868 -0.3781857 1.5458055 0.85310006 0.52681655 -1.1416438 0.11479005 0.4773013 -0.52606535 -0.7873113 -0.825063 0.4271653 -0.080963604 0.30415407 -1.4372455 0.21170624 -0.04134406 -0.61487556 -0.43715712 -0.5327953 0.58740205 0.18968144 0.28207922 0.16674596 0.4052719 -0.9056319 1.1704752 -0.19003247 -0.1412598 0.74669325 0.087580144 -0.49820682 -0.69918746 -0.98185754 0.73298025 0.56062394
start 0.3104885 -0.2740714 0.33649766 0.5981931 -0.095316984 -0.9686255 0.75185 -1.2022717 -0.15512113 0.051437523 -0.60744053 0.29090536 -0.09165454 -1.5995122 -0.4807335 1.3049179 -0.9264084 -0.05844052 -0.5670194 -0.6220604 -0.17448159 0.47379568 -1.4374878 -0.98870426 0.21220484 -0.3265914 -0.8382012 -0.61209595 -0.9212715 -0.22677515 -1.1490968 -0.032520507 0.0983418 0.6177799 0.33176625 1.0064161 0.097195834 1.1468526 0.19252838 -0.6361575 -0.37361073 0.8601439 0.59430116 0.058329497 -0.030005971 -0.351792 -0.3730088 0.28923467 0.08190369 -0.46747932 -0.84971845 0.3845183 0.72532403 0.87984383 0.061678763 -0.54039085 1.0911292 -0.76618725 -0.34699705 -0.70392746 0.5375117 -0.4687509 0.31774727 0.09207632 0.047146868 -0.29816404 0.7335283 0.30672807 -0.3288351 0.11426827 0.19948098 -0.031544838 -0.37279806 -0.3957276 -0.3137611 0.42146695 -0.9915155 -0.008932505 -0.1702722 0.09570931 0.011919829 -0.7565613 -0.6147385 0.48163235 0.6234471 -0.42458442 -0.33142942 -0.6639474 1.1429687 -0.18106627 0.38868162 0.34641623 0.40350285 -0.5867761 0.21988463 -0.7364229 -0.85266846 -0.6139295 0.5345273 -0.19928402 -0.4739313 -1.0242752 0.47474465 0.39182365 -0.26086947 0.40467593 -0.33683237 0.7253165 0.32036856 -1.2189758 0.5427435 0.23104177 -0.14019746 0.106415175 -0.67638284 -0.7143389 -0.92122996 0.32335877 0.14006406 -0.10063313 -0.74136215 -0.4669956 -0.47754467 0.24409075 -0.6376078 -0.40704975 0.18415299 -0.86348146
much 0.51989776 1.0267498 0.09314574 0.5967098 -0.87775236 -0.091881685 1.427654 -0.4106068 -0.60474956 0.8263067 0.71816546 0.18944836 0.27921537 -0.5238461 0.550147 -0.056014262 -0.65857625 1.4326952 0.32208863 -0.08040992 -0.18719319 1.2832658 -0.5732943 -0.16942607 -0.596647 0.49804154 -0.35423988 0.6914498 -0.11521069 0.2411735 0.37500858 0.21005745 0.17015284 0.21590587 0.05380646 0.25418496 1.3360823 0.16133358 0.017680803 0.17224525 -0.03495617 -0.34492218 0.79457664 0.45260674 0.80416685 0.4621291 0.26459262 -0.18103494 -0.25041243 1.1149691 0.24809957 -0.88444316 0.47945896 0.41454062 0.6138261 0.7208687 0.070438564 0.7052385 0.046150345 0.12829706 -0.93460965 -0.47466847 0.8667075 0.8763465 0.15153997 0.06536641 -0.417945 -0.9141493 -0.25981432 -0.2224594 -1.1634662 -0.11980468 -1.1592174 -0.29333502 0.7464836 -0.22858061 0.053697463 0.40428054 -0.46272153 0.5809639 0.75134385 0.30430228 0.0013228423 0.55473006 0.1341765 0.8381668 1.6715388 -0.904086 0.8048323 0.23986724 -0.46207404 -0.008031803 -0.22594069 -0.77940893 -0.083238594 1.164523 -0.31404233 0.5157466 0.092474215 -0.06261366 0.1692343 -0.24778202 1.3467603 0.4772169 0.092930734 0.48237827 0.61351985 0.9852871 1.059258 -0.86745 0.98740536 0.023708567 -0.27039358 0.024007795 -0.6955251 -0.30819923 -0.62891895 0.060659368 -0.18535872 0.5718701 -0.18876363 0.6603065 -0.20385835 -0.6518789 -0.034877237 -0.6871612 -0.592926 -0.70745635
say 0.6010737 0.46477997 0.053118158 -0.85219824 -0.4377586 -0.2722519 0.88559794 -0.37285888 0.53177214 0.07284649 -0.025955988 -0.045585006 -1.1671157 0.36778763 1.9311316 0.8991393 0.12525697 -1.517373 -0.6439977 -0.08426203 -0.085471004 0.9325441 -0.3883587 -2.120364 -1.3514246 0.17193085 -0.8370732 1.363118 0.84377563 0.14383137 -0.45721632 -0.41203523 -0.37898573 -0.27468753 -0.85454446 0.12108075 0.51663184 -0.4742961 1.0625924 -0.067923315 0.17777494 0.52211666 -0.68220955 0.79155755 0.7829388 -0.04562207 -0.78887564 -0.058625616 0.20152715 0.13986748 0.59949684 0.2999275 0.04875817 0.43391317 0.5776724 0.26561517 1.2337103 0.6911118 0.68241113 1.2761831 -0.44080254 -0.065940246 0.6620144 -0.3384263 0.37321 0.6307379 0.65965325 0.22023115 -0.28529674 0.2749365 -0.49481505 0.863061 -0.19067897 -0.27564022 -0.44459945 -0.5666386 0.6321161 -0.12927033 -0.36143172 0.5005224 0.35737652 -0.13055022 -0.759154 0.19899285 0.25608572 -0.4514749 -0.74761873 0.05912956 -0.8453755 0.40057915 -0.7668084 1.3053652 -0.32333457 0.28515366 0.40644097 -0.66501147 -0.036033545 -0.8619243 0.6672614 1.0259408 -0.8424376 0.47440633 -0.51089054 -0.4680086 0.60911846 0.2704321 0.20369785 -0.15390806 0.46332595 0.25485408 0.6699403 -0.12801474 -0.7176979 0.3179054 -0.2177441 0.75900817 -0.06412618 1.023623 0.21426308 -0.49581045 -0.14992765 0.4996581 -0.9044303 -0.5936681 0.34261975 -1.0273794 -0.43306887 -0.34969383
thing 0.5674276 0.049640086 -0.95076424 -0.6078432 0.91010475 -0.33015054 -0.28709507 -0.46972114 -0.20388599 0.020210577 0.40696383 -0.6459907 -0.121728696 0.21968764 -0.5290689 -0.35400733 -0.027996434 -0.58483315 -1.0267841 0.09124736 -0.093407206 0.7925699 0.09573868 -1.0500671 0.9570822 0.3038856 -0.23782003 0.12393745 1.448141 0.9270033 -1.14666 -0.37323743 0.41949812 0.74134994 0.04595339 -0.0071985642 0.4883853 -0.6246735 0.43909857 -0.0026284494 -0.28813043 0.50429374 0.04343481 -0.7565166 1.0908027 0.5978357 -0.9904428 0.8781593 -0.41889498 0.21768332 -0.25471953 0.8202766 0.2445324 0.10774858 -0.27565274 -1.7030773 1.4756571 -0.269982 -0.22432092 -0.16109933 0.20997186 -0.83404547 -0.67340803 -0.32157734 0.8055953 0.31837922 0.30909607 -0.09649726 -0.28142667 -1.387517 1.0657365 -0.3647713 -1.0052985 0.33433396 -0.34617847 -0.5447042 0.91647893 -0.014548478 -0.0904304 0.90837586 -0.07092816 -0.55976945 0.60277516 0.56508946 0.6492892 -0.62206626 -0.13691987 0.2869999 0.08340029 0.12379618 -1.4408648 0.484102 -0.666233 -0.71605974 1.4927936 0.21800213 -0.36558202 -1.3059675 0.56491274 -0.39855492 -0.67050093 0.99296093 -0.30741245 1.0443219 -0.35448238 -0.25771323 -0.6220668 -1.784857 -0.7763003 -0.55762744 0.11079895 0.6512254 1.0480276 0.44548407 0.049586184 -0.496894 0.7391131 -0.5763449 -0.8898926 -0.13605848 -1.2350163 -0.5185433 -1.1877195 0.57253915 0.71642125 0.47153866 -0.2083643 0.77153677
help -0.3109919 0.45051914 -0.54655784 0.99897224 -0.45697784 0.017249476 0.6586084 0.3984929 1.1715654 -0.15938406 -0.68785834 0.58886486 -0.18894029 -0.9493804 1.0235159 0.56843984 -0.48240018 -0.9701238 -1.2140262 -0.6579023 1.6038092 1.0505837 -0.24118596 -1.1028624 -0.9794012 0.6896336 -1.0626957 1.555221 0.07806506 -1.1490005 0.23764804 0.5763051 -0.4814942 0.83643174 0.11261676 -0.15761441 -0.62761617 0.46684784 -0.8629176 0.0966591 -0.38034526 0.17896135 -0.77338564 0.61485535 -0.38700572 -0.29763418 -1.0883859 0.09379211 0.19931585 0.38447317 0.9296437 -0.19584845 -0.38343912 1.0942591 0.04035213 -1.1090866 0.17674594 0.05117244 0.40265256 0.6837665 -0.7728966 0.450242 1.161884 -1.0275025 1.10333 -0.22823705 -0.09114265 -0.11508292 -0.69157296 0.39416274 0.35337937 0.8393924 -0.70677894 0.14795624 0.26648358 0.088252954 -0.6501056 1.2752231 -0.019850109 -0.10628397 0.2747685 0.8133078 -0.046223752 1.1471525 0.22389 0.19315849 0.4230647 0.2749429 -0.34218442 0.23459496 -0.6262965 0.062648185 1.1790327 -0.7845709 1.3412552 0.14418237 1.1980212 -0.23943213 -1.261396 -0.71394396 0.2849931 -0.21695326 0.21835303 -0.041116193 0.17356643 0.05163281 0.6246101 0.31427407 0.39924428 0.53757906 1.5539204 -0.35522425 -0.27109516 0.2916472 -0.6426735 0.16207725 -0.5265792 0.30956578 -0.9276723 -0.28411108 -0.62923366 -0.13967283 -0.5714804 0.24483314 -0.14115371 -0.541607 -0.34411928 0.7200186
anyone 0.08749531 -0.05182217 0.19022286 0.8416104 0.15426739 -0.2857596 -0.5515502 0.38797876 0.13295673 0.5101303 0.14309335 0.7569728 0.7892259 -1.0957273 1.3295282 -0.16099443 -0.47059545 0.4500023 -0.8896614 -0.08377639 1.0449914 0.6518197 0.6805746 -0.62145054 0.46391103 1.097963 -0.94501853 1.6921717 -0.1621849 0.931191 -1.2998879 -0.5114754 0.21345966 -0.0138192335 -1.3769573 0.25041822 -0.03625123 -1.1814778 0.11696017 -0.9704016 -0.6603559 0.1768195 -0.728062 -1.5954245 0.19035289 -0.34748876 0.6761714 -1.614375 -0.58547026 0.7887118 1.228532 -0.53148025 -0.4075795 -0.5376034 1.2710466 -1.7386636 0.48633325 0.2431098 -0.60358334 -0.15044728 0.19411227 0.539695 0.69590515 -0.90166324 -0.064476945 0.9348566 0.36111537 0.25899088 0.42345038 -0.4468541 -0.3398141 -0.74600744 -0.4195153 1.0975343 0.81800765 -0.9662351 -0.12417382 1.571166 -0.84672403 0.38777748 0.2190451 0.52973276 -0.056565516 2.2953448 0.74531513 -1.009686 1.4229391 -0.26246974 0.8091446 1.0708296 -2.0447826 -0.6705925 0.89869153 -1.393581 1.8834641 0.58260334 -0.024243176 0.4188581 -0.4211465 -1.6388184 -0.2508752 0.6523055 -0.42860982 -0.8879579 -0.35468695 0.49296197 -0.7251314 1.3524731 1.2386241 -0.32611588 0.036948964 0.22059776 -0.11223651 -0.63112617 -1.6412325 0.569942 0.4362176 1.1471486 -1.2362872 -1.0901388 -1.1907632 -0.16362427 -0.7886875 1.1069425 -0.15085675 0.42473307 -2.0053775 0.87031955
month 0.031014716 -0.95903075 0.022734022 0.4893273 0.78012264 -0.7093645 -0.6162113 0.30772159 0.8009669 -0.7821547 1.3585668 -1.2406231 -0.17900719 -0.53123033 -0.79255366 1.4669346 -3.0934236 0.0777314 0.6804335 -0.10351442 -0.1581202 -0.5724525 -0.47730315 -0.20932744 -0.11217627 0.15574616 0.45093173 -1.0031852 0.3904925 -0.8962404 0.4685451 -0.38615036 1.3777211 0.583474 0.47543097 0.29478943 0.372729 0.023875827 0.19366188 0.23372613 -1.2973318 0.036334958 0.58337235 0.122999676 1.2977126 0.19583838 0.084859416 -0.23996447 -0.79508364 -0.3688087 -0.37778848 0.6766531 0.65042454 1.006452 0.30248296 0.97260284 0.93138516 0.7636588 -1.1133356 -1.9894667 0.8936377 -0.24176067 0.7224051 -0.6029571 1.3205283 -0.52086973 0.35172713 1.9498254 0.484045 -0.49401358 1.3870655 -0.15685038 -0.71355444 -0.4420674 0.36363602 -0.59791166 -1.3511714 -1.8120602 0.642526 1.0968882 0.114467844 -1.6506003 0.30937073 -0.08146144 0.76777864 0.53491473 0.09566526 -1.0798007 1.3939099 -0.7906893 1.267371 0.11531344 0.82905614 0.042174 0.5220522 -0.36446664 -2.2189245 0.12887742 -0.5544824 -0.6464032 -0.011452924 -1.0377722 -0.39292404 0.5853433 0.38501284 0.3239397 -1.0494901 0.31428888 0.39887437 -1.4461503 -0.0014412297 -0.34207806 0.04072324 -0.20579755 -0.45488366 -1.4324968 -0.51917547 -0.90144455 1.5700597 1.0905769 -0.5875685 -0.18091376 -0.35490185 -0.49184018 -1.1204349 -1.023701 0.33300897 -0.16661334
back 0.4196814 -0.072868034 -0.78849304 0.17707488 -0.9188152 -0.11985515 -0.42133605 -0.45693246 0.89590055 1.0373645 -0.42036274 0.022211196 -0.5297597 0.5844048 0.37296662 1.3207542 -1.4214286 -1.3226097 -0.40690097 0.7580838 0.51302373 -0.1961311 -1.9643974 -0.071125 -1.6508268 -0.1968235 0.6897506 0.6916095 -1.1254437 -0.5419286 -0.039844323 0.0020574636 -0.06205538 0.020940637 -0.76508725 0.14580445 0.514397 0.27043906 1.5074594 0.4242119 -0.5018918 0.3411215 -0.2738623 0.23292015 -0.039704997 -0.5531372 -0.5063915 0.40892035 0.76898646 2.2066891 -0.74897045 -0.1018004 -0.5647871 1.4141387 -0.042938847 -0.85206217 0.952984 -0.05656552 -1.5473841 -0.9366961 0.857636 0.6847936 0.47897646 0.9846467 0.8029714 -0.4950894 0.18349479 1.5313212 -0.639112 -0.37223896 0.0906562 0.18589532 -0.53370273 -0.16518237 0.14912815 0.5642688 -0.52743167 -0.7888982 0.0735099 0.47053382 0.3614585 -0.70242757 0.32262996 0.19686711 -0.39529818 1.6455647 0.83537173 -0.22556941 -0.13471343 -0.6239574 0.32471344 -0.5081568 -0.0010125351 -0.2574636 -0.24349822 0.7711288 -0.3123 0.07517554 0.10106619 0.1215329 0.09558627 0.33389118 1.2990228 1.3129698 0.438418 0.5434636 -0.2677912 0.3174237 2.0053875 -0.30945933 -0.29191238 -0.5623115 -0.7508033 0.3388073 -0.7963902 -0.71822083 -0.95681083 -0.1612724 -0.17859693 -0.43866584 -0.95372945 -0.7327632 0.81951725 -0.13607566 -1.1679053 0.3034548 -0.3384626 0.31124243
still -0.3113754 -0.4330451 0.6269812 -0.07187084 0.29282272 -0.5830594 0.027626669 -0.12955658 -0.22649212 0.442186 -0.6254652 -0.7103846 0.17796926 -0.5316595 -0.9842189 0.40917045 -2.0348148 1.3828161 0.549233 0.07626497 0.64715075 -0.38180453 -0.9231597 -0.4297014 -1.1173737 0.97297996 -0.67439854 0.33675644 0.1362726 0.30217227 -0.4760107 -0.03761621 0.7929795 0.31576076 0.15286489 0.20881888 0.08232598 -0.15427011 0.07143624 0.3153555 -0.35732833 1.2865142 -0.8696675 -0.13888456 1.5804002 0.8172707 0.35977736 0.2608058 -0.39571476 1.121192 0.103877366 -0.06402768 -0.25775087 0.16552594 0.08618131 -0.5131623 0.13859467 -0.33242765 -0.047494307 -0.41144517 0.15924048 0.1107762 -0.28680336 0.59315985 -0.07668263 -0.83672017 -0.27094126 -0.76746434 -0.8651027 0.11756487 0.35169634 0.66267353 -1.0097904 -0.28788918 0.31636357 1.1701556 -1.5227077 0.14487815 0.05203222 0.030268883 -0.077846654 -0.47968858 0.8405183 0.054946538 0.7806025 0.5014157 -0.38501206 0.1523983 0.42601922 0.21622968 -0.7971404 -1.1322858 1.3175975 0.16936024 1.0906508 1.3055973 -0.21680725 0.410498 -0.5622445 0.77283704 -0.65653145 -0.04300376 1.0956491 0.7133704 1.1332749 0.7322763 -0.8206146 -0.19603436 0.0065474897 -0.9737355 0.25411478 0.90378016 1.1629614 -0.1364788 0.28273118 -0.056045547 -1.4649601 0.1127424 0.28887764 1.148088 -0.6650475 -0.23012407 0.13744234 -0.013520026 -1.0225161 -0.0957481 0.1991879 0.525462
recover -0.016169405 -1.0308205 -0.5153024 0.65919095 -0.8600095 0.21574357 0.10183692 0.16202712 -0.22249655 -0.011294663 0.107903205 -0.93796116 -2.0062246 -0.057436258 0.07701675 1.1562625 -0.34960136 1.0224267 -0.57148844 0.44549325 1.100728 0.5138135 -0.22562048 -0.2452674 -0.78727055 -0.2792204 0.03153056 -0.20818223 0.76985335 -1.5916582 -1.2282133 -0.64400166 0.5543886 0.7982373 0.86009645 1.2355231 0.46581364 -0.32291228 0.3721878 0.24479452 1.0816654 0.68867856 0.68577445 -0.24465868 0.8269458 0.83761114 0.17170021 0.5529539 0.12487242 -0.16608635 1.7639084 -0.326497 0.2674514 1.8225198 0.95712703 -0.16087906 -0.26283056 -0.61441976 -0.041838113 0.46515697 0.14342397 -0.038065135 0.66665816 1.211962 -0.24481025 0.6904649 -0.15492152 1.0510161 -0.40713727 0.064496085 -1.1236625 0.1961824 -1.2111007 0.12995432 0.57291853 0.29441354 -0.4268185 0.303237 0.023996148 -0.11839303 -0.14880174 -1.0543928 0.24149092 -0.18523827 0.41328186 -1.0117049 -0.54145503 -0.015882384 1.0711943 0.06246065 -0.21432978 -0.26892933 -0.11660657 -0.33787665 0.34698105 -1.2113987 -0.42257768 0.38703844 -1.0008106 -0.48034555 0.5175522 -0.29244244 -0.0090221055 0.93121314 -0.86543787 -0.09883845 0.18431857 -0.22560859 0.19630577 -1.1355851 0.31921288 -0.7664271 -0.16455653 -0.45177186 -0.8288522 -0.9976339 1.5832992 1.0498837 0.06925835 -0.28136092 -0.86350524 -0.7521024 -0.10947654 0.13394144 -0.6925152 0.1810793 -0.19125924 -0.50982624
eating 0.877514 -0.089557625 0.6347165 0.75409037 -0.66141623 -0.7810027 0.33399278 1.0480249 0.8273317 0.40534776 -0.27537355 0.46685043 -0.1788028 0.32965297 -0.7020675 2.032189 -1.2055104 1.0536038 -0.765554 0.35622716 0.82220155 1.1745623 -0.7798249 -1.2844753 -0.57573146 0.8469612 -0.86801225 1.2151488 0.21958701 0.25588596 -0.85812384 0.18628655 -1.3017831 -0.27908343 0.85673743 0.55868846 0.083162636 -0.64754844 0.50631934 0.34344497 -0.46603978 1.0797716 1.2009277 -1.3675712 0.5119379 -0.2213521 -0.3270405 -0.19815026 -0.71234715 -0.4510027 0.036346596 -0.63804936 -0.52173364 -0.26649025 1.1345075 -1.0844145 2.52101 -0.28672424 -2.1461232 1.1155072 0.91076016 0.4530899 0.18119952 0.69755507 -0.65326434 -0.11077922 0.70678145 0.4265267 0.3160944 0.4091887 1.1856297 0.11618679 -1.2600546 -1.2793499 -1.2159703 -0.5295382 -1.0201995 -0.20528628 0.8460348 1.0611142 0.4662212 -1.4284729 -0.49892032 1.4425162 0.33588013 1.2143592 -1.0122209 -0.013890186 -0.49657786 -0.544109 -1.3786019 0.65996027 -0.38120475 -1.1908839 0.3524247 0.7911164 -0.071393676 -1.3110399 -0.10436047 -0.2114534 0.4996346 -0.93092555 -0.8025665 1.1497825 -0.31464776 0.066675596 1.4387951 -0.13897589 -0.5487227 -0.101515114 -0.92507553 1.0713707 0.48934466 -0.59318435 -0.42505383 0.021142898 1.0360304 -0.9677489 -0.48067906 1.1299744 -1.093788 -1.0568404 -0.23813549 -0.6812067 1.0072031 -0.22443686 0.74653584 -0.43171912
lose 0.16633604 -0.19570239 -0.48210317 -0.2763896 0.84262323 -1.3998414 0.9310523 -0.044981956 1.1501433 1.012576 0.35212114 1.3169354 -0.62011856 1.1003121 -0.20136364 0.89578587 0.72974074 0.8955417 0.72972333 0.66574985 1.4995176 -0.39797753 -1.7835217 -0.33839744 -1.884913 0.32325864 0.7468784 1.4168706 -0.3976806 -0.87617606 -0.54905653 -1.0060005 1.6330663 -1.3748069 0.0026275967 0.9852586 1.5482779 -0.6144767 1.6615727 -0.11925627 -0.67808384 1.0165303 0.4013981 1.2096536 1.1479447 0.007871833 0.5480375 0.12282176 -0.0414575 1.2020937 0.7764242 0.069049284 -0.45705888 0.50613165 -0.13831143 -1.6310472 0.2741936 -0.6340998 1.0936877 -0.02939101 -0.05207396 -0.038317192 -0.15484194 0.16928622 1.0490156 0.7861479 -0.97152525 -1.4079087 0.13439204 0.7372081 -0.49130568 1.4614606 -2.048313 -0.40905383 1.2742971 0.2352386 -0.9975981 -0.9231756 0.24364705 0.088227615 0.69031256 -0.9540882 1.0590248 -0.020936416 -0.22752094 1.0290856 1.4397746 -0.5089192 0.9575329 0.34269422 -0.89943016 -0.54264575 1.0201184 0.20537609 0.38775733 0.8523247 0.514145 0.19811374 -0.35116416 1.0911646 0.09805264 0.7005018 1.4516474 0.26657513 -0.5370089 1.3673915 -0.9578631 -0.32236505 0.15252657 -1.3109702 -0.25814858 -0.46273145 -0.41925803 0.48817965 -1.095159 -0.92441714 -1.1650877 -0.0915054 -0.61590946 0.7742745 -0.05616096 -0.53637904 -0.62600315 0.07368736 -1.8692268 -1.1985089 -0.7713534 -0.35848135
body 0.9665719 1.226314 0.3346169 -0.46847096 0.50357115 -0.07356348 0.12340006 -0.26761612 -0.16477215 1.118677 1.1558176 -0.7202022 -0.030301375 -1.250351 0.42697546 1.8597608 -0.5086935 0.8045533 -0.94815916 0.7569912 -0.7191704 -0.03830452 -0.7090436 -0.016776145 -1.1554409 0.5176116 -0.8411782 0.37037575 -0.8045419 0.9211922 -1.168502 -0.42264733 0.21151727 0.8774459 -0.5981174 0.23470838 -0.15222603 -0.77464277 -0.1626487 0.7646263 -0.15865871 -0.22169812 -0.51875365 0.071022786 -0.08198036 -0.17125341 0.12727967 -1.1962799 0.0759588 1.3371483 0.8117783 -0.18921162 0.28360602 0.14652687 -0.5941162 -0.088246964 -0.26780155 -0.14562121 -1.1169655 -1.0816617 -0.971389 -0.4310332 0.04304534 0.6207147 -0.067373216 0.6474738 -0.15783855 -0.90573645 -0.533813 -0.55409926 -0.23491462 -0.9564351 -0.72897106 1.0227617 0.32957712 0.1071233 -0.078094676 -0.4872346 -0.075674064 -0.25174013 0.65980995 0.40087152 0.4252178 -0.33592582 -0.9408355 1.0495553 0.805098 -0.67255515 0.4140937 0.61396974 -0.43928385 -1.0605186 0.27635092 -1.6350367 0.062197536 1.4839861 0.9996542 0.81293494 0.29173777 -0.6778342 -0.93984526 -0.16321996 1.1203549 0.7557213 -0.53955287 0.69567496 0.28633168 0.9515132 -0.2946892 -0.67074907 0.44352302 0.050721783 -0.11100032 0.3006002 -0.1229696 -0.081688024 -0.9163369 1.686949 -0.3238273 0.33662507 -0.5422691 0.18577336 -0.10668557 0.033714134 0.6400776 0.57867044 0.09934192 -0.5668321
one 1.0845748 -0.5029134 -0.23450929 0.72387016 1.2504729 1.1789538 0.42683703 -0.014136145 -0.49616015 -0.52445143 -1.4499137 0.34976423 0.21190383 -0.34082216 0.29905373 0.84285194 -0.91803837 -0.5438797 -1.7622038 -0.7552366 0.47718242 -0.61576205 -0.27694353 -1.4110496 0.36223024 -0.20563224 -1.5169672 -0.20726575 0.42606238 1.0141066 -0.98407584 0.03695146 -0.2519626 1.0033817 0.8038622 0.49494454 -1.1306835 0.18340155 -0.03700691 0.05301439 -0.30247724 0.29920942 0.52454996 -1.1875927 -0.62078017 0.53632987 -0.019207234 -0.0037911984 -0.7094277 -0.1759595 0.71415824 0.0767648 -0.66548645 0.027451882 -1.0422165 -1.4495933 0.74922776 0.06606032 -0.26089418 1.3380045 -0.11818233 0.32063317 -0.5569308 1.050934 0.2915651 -0.23099527 0.021907002 -0.41339105 -0.29316697 -0.39458996 -0.04974893 -0.17852782 -0.7528359 -1.6281644 -0.07572525 0.53295594 -0.89106375 0.38833806 0.5031347 0.53027695 0.06080567 -0.17727944 1.1722399 0.62683976 -0.23342252 -0.3351071 0.47775134 0.6324646 -0.3664444 0.16489968 -1.1400437 1.0283611 0.844626 0.51842827 1.0683994 0.83713883 -0.076832645 -1.8648267 -0.28553578 1.1525047 -0.29614383 -0.11602468 -1.1732484 -1.084872 0.0025902549 0.113855705 0.5543653 -0.37826857 -0.46397737 0.71432406 -0.32683346 0.6981943 1.6337059 0.21715055 0.39821324 0.49608916 -0.55626506 -0.37724957 0.68621606 0.79828405 -0.9115171 -0.55290383 -1.699376 0.5306743 0.123172544 0.27307552 -0.6411884 0.17008223
look 0.044459317 0.20790981 0.8861017 -0.36553898 -0.13456184 -0.10334653 0.8340967 -0.24987866 1.1897441 0.026129203 1.2773129 -1.4833999 -0.6400976 0.9409541 0.41131568 0.96610165 0.8389074 1.0155834 0.7654272 -0.8423231 0.3992316 0.7996711 -0.83660406 0.11981297 -1.0171198 -0.3630147 0.34722543 1.7746377 -0.3626689 -1.1322871 0.077997915 -1.197744 0.92990243 0.49258098 0.2020813 -0.21120578 1.012415 -1.4314467 0.23294279 -0.74257636 -0.60589665 0.4397982 -0.951621 0.19005589 0.9249242 -0.48920622 -0.6497205 -0.2578302 0.07752612 1.6782988 1.2215878 -0.31489998 0.005778072 0.22670625 -0.58365285 0.5416864 0.49195728 1.1782244 -0.60287076 0.32318258 -0.7019955 0.8167341 2.025159 0.43641335 0.49293795 0.7752782 -0.49591255 -0.82007223 -0.7653137 -0.680512 -0.63396084 0.9700158 -1.0562167 -0.69335157 0.40658486 -1.0796525 0.73821616 -0.50582063 -0.8389222 -0.27737638 -0.39022624 -0.48912486 -0.56936276 -0.81552637 0.07130443 0.8915349 0.8621359 -0.7485673 0.41992402 0.7191294 -0.40172672 -0.8255771 -0.76981926 0.20804062 -0.41783372 1.4492545 0.12117 -0.9249392 -0.9962892 0.89469826 0.6281138 0.14003775 0.58461225 0.87564474 1.1993134 0.5675391 0.22919919 -0.2748612 0.6236096 0.4716799 -0.49065247 -1.3479538 -0.9452491 -0.21197724 0.056022137 0.8874969 0.90044177 0.5054833 0.15377168 -0.29547772 -0.31884184 -0.049450137 0.28265023 -1.2833724 -0.21683599 -0.5047348 -0.2534141 0.14248903
would 0.7652284 0.19862054 -0.86121416 0.13180429 0.11283869 -0.2950967 0.65259004 -1.1424025 -0.30177665 -0.25033197 0.121902384 0.84227055 -0.78032607 -0.6351571 1.0881604 -1.2824943 0.18046877 -1.3547742 0.48507297 -0.17177252 -0.17168048 0.6287876 -1.2389128 -1.0892516 -0.3586615 0.22357354 -1.1619657 -0.30464578 0.37643355 -0.06954534 -0.106836475 -0.24824744 0.32385042 0.3624757 0.18725826 0.32817298 0.7667039 -0.7066526 -0.3523552 0.70046276 0.47652704 0.16019672 0.40096426 0.4491175 0.7360744 -0.043949455 -0.99504054 0.9577142 0.58754385 -0.52294 0.84995425 -0.5009603 -0.386529 0.041244376 0.25307754 -0.33104223 1.4286078 1.2492971 0.6517576 0.38383958 -0.6903859 0.09495399 0.79056436 -0.8236218 0.91746485 0.030814268 0.599418 0.7986529 0.12945028 -0.27855563 0.1739669 -1.2533334 -1.1527349 0.005235986 0.5530286 -0.064622335 0.49424827 0.4714135 -0.18859184 -0.057936523 -0.3920426 0.647523 -0.2720689 1.3995076 0.5350891 0.009730795 0.6673726 -0.76095253 0.2907174 0.29842892 -0.45908988 0.7714613 -0.35314474 -0.4422619 -0.1060669 0.9043403 -0.8863411 0.07001321 -0.22832733 -0.38641375 0.081694484 -0.0019329672 -0.48004058 -0.7723789 0.053301178 0.13082433 0.49669454 -1.1351385 0.5221935 0.43665555 0.7606988 0.09992973 -0.5424153 -0.42007843 -1.4146557 0.16001731 -0.03246844 -0.36669782 -0.2844354 -0.7771737 -0.3854025 0.67443776 -1.1865959 0.60009354 0.96861124 0.8614841 -1.2675364 1.0368879
see 0.8176781 -1.1705198 -0.521748 0.00886756 -0.4090948 -0.13572496 0.017444307 0.6594884 -0.5725948 0.56628805 -0.548772 -0.53844684 -1.6151543 -0.50835764 -0.8837533 1.3113219 0.60499215 1.4576148 -0.6782299 0.7621564 -0.10956194 0.53209144 -0.9761121 -1.5346267 0.023101578 -0.43972754 -0.54051644 0.32597533 0.065996185 0.1513063 -0.28094333 -0.31968802 0.2200246 0.6371378 -1.0951504 0.27731037 0.43740264 -1.170002 0.32673585 0.25100493 -0.29045874 -0.72461593 0.9311542 -1.1218318 0.41803357 0.22291546 -0.9110369 -0.19455938 0.577986 -0.76184154 1.5830339 -0.08918298 0.12271533 -0.21298893 0.34748232 0.45755666 0.73458517 -0.06409834 0.24336776 0.27019462 -0.61223793 -0.12906455 0.23591079 1.3080091 0.35889596 1.0426018 0.42544124 0.12712185 -0.017152097 -0.05259864 -0.57074773 -0.08801808 -0.8530889 -0.8087598 0.55028814 -0.74943095 -0.016152637 0.70986307 0.012987853 0.36039245 -0.5707676 -0.93418795 -0.50380015 0.6352593 -0.5691942 -0.22402127 -0.7681156 0.08918099 0.40041202 -0.17717835 -0.7386303 0.5565671 0.15925756 0.52757704 -0.32988203 0.4250491 0.43031833 -1.1798364 -0.8221795 -0.45558715 0.9352855 -1.4301599 -0.90847284 -0.5384924 -0.52193135 0.25200886 0.99295944 -0.082176864 -0.91549903 0.2323293 0.14579928 -0.32144696 0.36046392 -0.39924046 0.14895043 -0.18782997 1.1645098 0.39784145 0.4183499 -0.10810638 -0.36808348 -0.37477 -0.29223362 0.781294 0.014708213 1.7300123 0.3158107 0.28873867
good 0.02497026 0.2759069 -0.6929773 -0.03288924 -0.47669682 0.83771414 -0.59148306 0.051929407 0.37941715 1.1909724 0.5197352 0.094855025 0.2652614 0.32855678 -0.024198862 0.33877882 -1.0385882 0.69615895 0.23594248 -0.027391097 -1.2358017 0.44778615 -0.663397 -0.3327155 -1.2713969 0.1456634 -0.23366441 0.72212166 -0.54446113 -0.29792395 -0.9497992 0.1729413 0.11396644 0.3697893 -0.4666194 0.12600197 0.0027270524 -0.10397099 0.06593679 0.8516917 -0.73629445 1.1947145 -0.35285884 1.4580052 0.124459974 -0.39523816 -0.98255134 0.2562294 -0.006296642 0.77516305 0.023435632 -0.41850582 -0.47748607 0.12837389 0.17474853 0.8403113 0.9662198 0.4235724 1.2599839 -0.02577089 -0.74949425 0.5650339 0.68976873 -0.46009073 -0.038212813 -0.377282 -0.9966951 0.4760977 -0.49198043 0.16407542 -0.5100931 0.08164506 -2.234701 0.4303487 0.71471256 -0.724042 -0.13665505 0.13875751 -0.7756242 -0.08852072 0.053348996 -1.1985192 0.14854433 0.13672811 0.041703124 0.33628118 0.6927033 -0.67635334 -0.26915914 0.106434755 -0.20868276 -0.09359755 -0.89013964 -0.06705326 0.22473033 0.75974107 0.32374987 0.044233784 -0.008471857 0.9235677 0.9104833 0.49936464 0.8693973 0.5794404 0.12421726 -0.083452195 -0.66146815 0.6503989 0.76608133 -1.0435282 1.1871433 -0.08431427 0.93758994 -0.7897806 -0.29483658 -0.32164624 0.40104818 0.32295233 -0.07790817 -0.48065236 -0.55804205 -0.26548997 -0.3135855 -0.24962698 -0.60033876 0.045778383 -1.1368881 0.63016707
tell 0.3257357 0.35085374 -0.3451311 0.31438467 0.40778157 -0.6552693 -0.3190009 -1.9707595 -0.034558475 0.6532193 0.5592909 -0.24316785 -1.2828983 0.24949506 1.3033183 0.51041216 1.2770003 -0.28731835 0.018123213 -0.5924358 -0.2027757 0.16355832 -0.47772005 -0.15134352 -0.2511057 0.41225392 -1.0564517 1.2912816 -0.5418187 0.34510425 -0.7264243 0.6511003 0.6743013 -1.2079076 -1.4592999 -0.092535086 1.2005755 0.60532904 2.0213542 0.9343522 0.65005535 0.69427985 0.23448117 0.34656388 -0.15329526 -0.16737193 -0.9193664 -0.15885824 0.9317595 0.8399992 0.36258692 -0.942814 -0.51385725 -1.0091579 -0.6168318 -0.26655415 -0.0707678 0.08211989 1.1673565 0.18950008 0.30342984 -0.77148277 0.34085506 -0.5969607 1.6118375 0.3511211 -0.4573386 0.4827577 -0.4747083 -0.40974897 -1.4517233 -0.0040786485 -1.0495241 -1.0801593 0.39679897 -1.0375006 0.030137364 0.5337162 -0.64193195 0.21796474 0.14756301 0.15478462 0.5828402 0.3710158 -0.14310555 0.016903067 1.2964182 -0.17607479 0.2577132 -0.50162476 -0.7749059 0.116277084 -0.41464594 0.49079615 0.14943907 -0.6579567 -0.39355257 -0.43246225 0.3918871 0.66091037 0.36837834 0.23158218 -0.56904346 -0.25680485 -1.5729192 -0.0314253 0.27378556 0.7949344 1.5393915 0.41459212 0.38196987 -0.6159183 -0.54818463 0.48999497 0.04698794 -0.49531674 0.498195 1.6652788 0.55735093 -0.3061788 -0.71471244 0.62683827 -0.6463314 -0.6207221 -0.71305823 0.14716682 -0.65288925 -1.2001067
meal 0.61205024 -0.43765363 2.153894 0.36257344 0.14669096 -0.02971071 0.33348647 -0.82520413 -0.9911896 0.37146705 -0.346339 0.8338039 0.40597296 -0.76137954 -0.07643734 1.7376468 -0.9636618 1.7196752 -0.5511511 -0.46603644 -0.451601 1.7758558 0.4344267 0.051986735 1.5373757 0.07393191 -0.29927996 -0.18203983 -0.15505517 -0.31519762 -0.30260748 -1.1334594 1.076811 1.2854061 1.3079156 0.72469753 0.40270483 0.946329 -0.70403683 -1.3466396 -1.1268038 0.774874 -1.2215563 -0.4175575 0.94098914 0.37182432 -0.21947902 -0.21915038 -1.6624142 0.31728336 -0.66621375 1.0153127 -0.040824052 0.30935195 -1.6274631 0.1559662 1.4784106 -1.2649112 -0.92654055 -1.3605654 -0.6060098 0.1057898 1.1829807 -0.22998221 0.11338898 -0.44955382 0.7260896 -0.43281558 -0.19783266 -0.27857125 -0.96694154 0.60711217 -1.3739159 -0.54161036 -0.7348113 -0.12479598 -0.62751603 -0.71860754 0.015171325 -0.50769055 -1.3244165 -1.4454671 -0.06984802 1.210081 0.7263828 -0.08645486 0.95353484 -0.9366754 -0.9402505 1.7195632 0.20747435 -1.211596 1.0674868 -0.026047254 1.6250507 0.6811994 0.5775624 -0.7017863 0.15116541 1.3719151 -1.5885115 -1.1388556 0.34071815 0.95202893 -0.019225378 0.10172508 -0.35650098 0.52704716 -1.6969521 -0.8274864 -0.2788182 -0.2913271 1.7902259 -0.3186773 0.7492095 -0.20619582 -0.73806113 0.72535026 -0.076846145 0.08934403 0.22921959 0.5059222 -0.35002735 0.42884746 -0.3796589 -0.9206986 0.99367374 0.26424706
always 0.16244793 0.20147254 -0.5648347 -0.5041324 0.7600646 -0.34930247 0.23620072 -0.6302292 -0.003567559 -0.374571 1.086988 -0.5294648 -0.19534276 0.0808741 0.6650319 0.118421204 0.026021698 -0.42402372 -0.40235534 1.4203922 -0.1785096 0.16628148 -0.13826273 -0.7259528 -0.007899264 -0.10874079 0.19068797 -0.37813637 -0.2851068 -0.3782413 -1.1594085 -0.7903031 0.58566856 -0.9755583 -0.41203147 1.395637 -0.24371737 0.23072208 -0.29602963 -0.4075386 0.4798172 1.0362105 -0.9743108 -0.26606375 0.5273204 -0.43187124 0.2505786 0.12130141 -0.48803374 -0.92672646 -0.08852573 0.9927598 0.26659378 -0.3031079 -1.1045915 -0.14847395 0.18217649 -0.14340144 0.29889596 0.83382213 -0.06735022 -0.6427691 -0.5073377 -0.32790396 1.2043049 -0.12651658 -0.37700135 0.22631009 -1.1768175 -0.49700436 0.11181308 -1.1570175 -0.43967158 0.66299057 0.29864052 -0.23774189 0.82039875 -0.15384299 -0.41808346 0.57023335 -0.4063366 -1.4925207 -0.0064982935 -0.56941515 0.008541502 0.0014039545 -0.11160831 -0.7845272 0.5180245 0.55329543 -1.1125293 1.2445827 0.21314432 -0.57662284 1.078053 0.28400084 -0.38731086 -0.40402693 0.8317875 0.5698562 -0.83845747 0.07382195 0.19222102 -0.10050338 0.009042299 0.38530716 -0.14415574 -0.99384403 0.057914488 -0.5846892 -0.42485365 0.1052579 0.27983552 0.20028834 -0.008265424 0.5599803 -0.3063572 -0.5640068 0.59759533 -0.025635907 -0.1222677 0.2020714 -0.9441486 0.73677945 0.034849573 -1.4014215 -0.18077575 -0.12066041
hard -0.36768305 -0.7354833 0.31758982 0.8424907 -0.675105 -0.06676821 0.30699873 0.013532365 -0.13533911 0.57880837 -0.11262964 0.08289256 -0.0042160465 -0.44489187 -0.14865153 0.6031534 -0.6433506 0.42451596 -0.47370815 -1.1091081 -0.24127163 0.3089982 -0.51643395 0.04416438 0.24187994 0.39665976 -0.091101624 0.48478445 -1.0276567 -0.14488648 -1.5266861 -0.22257605 0.76169854 1.3390082 1.0189649 1.1113706 1.2595907 0.44811302 -0.15634602 0.19885105 -0.9659652 0.950314 0.58494365 -0.09007616 -0.6926823 -0.30710432 -1.4102957 0.17171714 0.68202704 1.2607895 -0.38561237 -0.415086 -0.8822814 -0.016722882 -0.15081279 -0.5530549 0.72488093 0.64830667 -1.0041091 -0.04882326 1.2276115 0.054512158 1.0142099 0.39097065 0.2619368 -0.29391727 -0.78365797 0.20179586 -0.82009286 -0.17964882 -0.2958696 0.67412186 -1.77019 -0.598014 -0.0211126 -0.49184015 -0.73966116 0.49504504 0.08187319 0.6733779 -0.20987901 -0.09219981 0.14908919 0.024211967 1.0812173 0.108461455 -0.21030343 0.1906984 -1.1120447 -0.056426566 -0.7270918 -0.6148027 -0.19171983 -0.6851092 0.461763 0.9665699 -0.3343334 -0.45288247 -0.2502107 0.01118615 -0.2445962 0.46423566 -0.20333745 1.4902066 0.89781964 -0.31417528 -0.3791832 1.1577356 1.5617956 -1.0955124 1.7022574 0.9194282 1.3404434 -0.5018685 -0.54755723 -0.29083347 0.6184208 0.47854355 -0.36966956 -0.685633 -1.5600896 -0.36282304 0.4958002 -0.51929724 -0.7405474 0.6583875 -0.47001162 -0.2884891
also -0.10924485 -1.2023158 -0.22324517 -0.12826808 0.21219063 0.27161044 0.63286763 0.0053130956 -0.0061509577 -0.04483751 0.8789028 0.32801038 -0.61310285 0.56482244 -0.3611348 0.44415274 0.9648258 -0.4900065 -0.17807236 0.45441258 1.470942 0.61092466 -0.11068353 -0.59289604 -0.52902734 0.74927145 0.4860861 0.59139264 0.48237538 -1.1781399 1.2271802 0.109992586 0.3376177 0.19044091 0.04369003 0.94094473 1.3017709 0.13709086 0.06338705 -0.52612185 0.7390101 0.70558286 0.5826569 -0.45259574 -0.55776954 0.40543014 -0.13015048 0.8263681 -0.2919791 0.4389348 -0.5548572 0.12658736 -0.1827075 1.004449 0.37389314 0.17179322 -0.19700795 -0.7733679 -0.18518902 -0.21193987 -1.0013053 0.25977522 0.45002764 -0.27104568 1.8292172 -0.6851245 -0.001998869 0.38709342 0.31808555 -0.47998425 0.49105585 0.77393365 -0.48862812 0.11095274 -0.17991912 0.038608313 -0.5179611 0.50123847 0.4416676 -0.07277053 -0.65073013 -0.720742 0.4064004 0.653357 -0.48553532 0.9508812 0.71429414 -0.10974818 0.0030215508 -0.09571903 -0.49321842 0.9282108 0.5952083 0.62211674 0.2352314 0.05033806 1.0987816 -0.37693506 -0.24781916 1.1428121 -0.2087434 0.49929613 0.060534682 1.0508444 -0.53210336 -0.96365577 0.1666162 -0.39153206 0.0740391 -0.29057953 0.039999016 0.11955521 0.62428886 0.63615465 -0.12846296 -0.1700285 0.76546377 -0.3411297 -0.013265016 0.042941254 0.4633999 0.411379 -0.38250986 -0.11421917 -0.6350736 -0.19301166 0.9514475 0.17794706
healthy 0.6688636 0.0327447 -0.62938476 -0.18671443 0.05973118 -1.6087552 1.0543944 -0.84149796 0.32177088 0.8743088 0.015527877 0.322712 -0.58003855 0.5092093 -0.6455417 0.44569388 0.79182994 0.70955604 0.19230677 0.6163863 0.8741657 0.29046872 -1.3308487 -1.6083049 0.008673645 0.15700157 0.24157652 0.3958845 -0.3963824 -0.52651215 -0.1444821 -0.8215094 1.0045543 -0.94347984 0.021713719 0.3804758 1.42471 -0.5319065 0.955678 -0.18262497 -0.5751001 -0.5653598 0.48095632 0.9782315 1.2167389 0.21194342 -0.600142 -0.1956405 0.74467784 0.8216256 -0.060752694 0.4862604 -0.4007824 0.8212016 -1.0039427 -0.77056915 0.20816803 -0.68236107 0.38858435 -0.41790506 0.4281266 -0.91344774 -0.21075329 -0.63035697 0.8246496 0.15095879 0.5357463 -1.2356331 0.25221574 0.16834578 -0.5170457 0.5032472 -1.4858598 -0.15960391 0.4786432 0.20301743 0.8562106 -0.22144732 -0.14809707 -0.36920992 0.08708933 -0.8162997 -0.35323668 0.20908365 -0.08552706 0.8819039 1.0857401 -1.4300474 0.81688726 0.87924135 0.6016653 -0.23124884 0.30612996 0.4266775 -0.45191044 1.0873569 -0.1490033 -0.7383313 -0.41605923 -0.2625359 -0.12417815 -0.91389924 0.8788284 0.58942455 -0.3353318 0.9825753 -0.32307783 -0.21514568 -0.13429217 -0.18280241 0.14568675 0.10485221 0.31678462 0.60852665 -0.9068889 -0.55276406 -1.6138856 -0.5098349 -0.5601644 0.25787044 -0.16385627 -0.248468 -0.093507364 0.09271881 -1.5359468 0.3544196 0.33645248 0.14840387
need 0.044470325 0.634178 -0.9653232 0.03900839 0.6946252 -0.4883133 0.6904789 0.202146 0.26380175 0.39846194 -0.28082612 0.039243244 -0.34303513 -1.6848214 0.5019139 -0.32500055 0.17807457 -0.67032635 -0.50098526 -0.37392437 0.2527659 0.51812595 0.1857537 -1.8211713 -0.637749 0.8119429 -1.1004525 -0.3132475 -0.012402435 0.26873598 -0.7798071 0.5406442 -0.2422498 0.80021954 -0.35665554 -0.39127207 0.2912509 0.20558186 -0.17085761 1.2529314 -0.89949155 -0.39432442 0.8586669 0.13207577 -0.11947739 0.27831128 -0.7056181 0.06535087 0.4375721 0.02113651 0.8018912 0.42547724 0.059644677 0.13434145 -1.2724328 -1.1425536 0.2838148 1.3085498 -0.34305465 0.46534738 -1.2722257 0.23089859 0.17704725 -0.07944612 0.7737559 -0.120648034 -0.3268275 0.122675255 -0.19092464 0.26909015 0.19173017 -0.03550331 -0.38482386 -0.534338 0.5960508 -0.74311936 0.5469301 0.28776115 -0.11456728 0.11779976 -0.4121218 0.40391755 -0.26759693 1.0603989 1.0792274 0.28911296 1.3298857 0.83563244 -0.8541363 -0.06908539 -0.07541539 0.14550865 0.32790616 -0.8612161 0.52994585 0.94734454 0.5662775 -0.14236169 -0.25074437 -1.3702382 -0.25703657 0.024343502 0.13394716 -0.33174506 0.34712562 0.38861376 1.3296571 -0.008833716 0.60673624 0.74905413 1.2265816 -0.5425897 0.10627112 0.5545366 -1.011303 0.7013276 -0.29258016 -0.037654396 -0.29635876 -0.59939647 -0.6129764 -0.28357968 -0.80568165 0.54481816 0.78641814 0.42747754 -0.6128908 0.93021035
never 0.6656234 -0.01872146 -0.376187 0.07091096 0.75546116 0.040869404 -0.6067879 0.48842958 0.71325225 -0.450526 1.128257 0.003487471 0.6440198 -0.43665054 0.47728884 0.9718249 -0.28014478 -0.44457638 -0.23760632 1.1806964 -0.14489526 -0.21107237 -0.08462902 0.07501357 -1.0483013 0.8898319 -0.41302755 -0.98465353 -0.6458661 -0.38905177 -0.73692095 0.073098734 0.64621735 -0.7139343 -0.1523584 -0.29720867 -0.44364682 0.8229525 0.60815877 0.24015732 0.3813372 0.28159016 -0.39181545 -1.5654258 0.9697085 -0.2850425 -0.017181776 -0.13257468 -0.26512298 0.002272816 0.060253553 -0.9270758 0.17922643 -0.5062251 -0.41738978 -1.08226 0.6764127 -0.07571081 0.24682194 0.4732817 -0.8276892 -0.19099273 -0.06236929 -0.28106388 -0.35350415 0.023866234 0.53382844 0.3363075 -0.57755506 0.55321294 -0.42734185 0.03285981 -0.83828497 0.121375516 -0.22342286 0.5565247 -0.8111157 0.16254286 -0.18281226 -0.0647561 0.40614074 -0.6149801 -0.076586425 0.7189723 0.60220146 0.28153557 0.43646464 -0.7503211 0.16202772 1.2119927 -0.50463223 -0.14435388 1.1865344 0.40731826 1.450455 0.31138045 0.48165157 -0.010882064 -0.14413948 0.8459326 -0.688143 -0.60666084 -0.1498777 0.6053179 -0.033990223 -0.8505088 -0.7466222 -0.72122806 0.23756996 -0.52351874 -0.50269574 0.54454243 -0.33660343 -0.14582093 -0.33278617 -0.049022593 0.42777857 0.32202944 0.064300135 -0.16457856 -1.52861 0.5359255 -0.6358307 -0.08889858 0.7911016 -0.21608786 -1.341321 -0.20133893
bad 0.25995725 0.07793685 -0.9097885 -0.1572419 -0.14720511 0.2697911 -0.0013848266 -0.039000705 -0.08271289 -0.054208517 0.34693286 0.27245098 0.95021015 0.020551076 0.41489017 1.4221233 -0.41729507 -0.5981699 -0.48680714 -0.026952121 -0.56868744 -0.118069105 -1.2294152 -0.22753455 -1.4675722 0.37741706 -0.81597215 2.3440366 -0.094059125 -0.58222616 -0.7315542 0.29962063 -0.27699813 0.379697 -0.17293383 0.93588096 0.74147314 0.73809826 0.072607644 -0.2679093 -0.4304534 0.7377936 1.1735754 -0.6213161 -1.4461648 -0.4311346 -0.15558583 0.33215863 0.69925475 0.73524255 0.00015134881 -0.053726148 0.4876335 -0.36232722 0.37551683 -1.6935389 0.29142344 -0.015681768 -0.7778702 -0.5185273 0.042703673 0.025405155 0.08798507 0.80920273 -0.015998306 0.73113424 -0.017615734 0.033592883 -0.8673054 -0.2402851 0.11882375 0.1865039 -0.7196421 -0.12129563 -0.21011479 -0.55979437 -0.5761559 -0.05036207 -0.50266266 0.6318718 0.82685435 -0.3463419 0.5223331 0.1854444 -0.41529793 1.3048822 0.35273123 0.12038586 0.45502448 -0.59771025 -0.4201831 1.0162145 0.47293928 -0.43701658 0.3001583 0.4484917 0.8364857 -0.0461767 0.007467544 0.053236224 0.79353607 0.35160634 -0.09497005 0.3565681 -0.55109257 -0.025062254 -0.43779057 0.59605235 1.8126042 -0.8575542 1.0429027 0.078083016 -0.15290688 0.9603102 -0.6589994 -0.79645586 0.2546923 0.17072114 -0.27560043 -0.65527505 -1.8452325 -0.61135346 -0.046825103 0.103192404 -0.018370163 -0.763549 -0.46508956 -0.8942432
calorie 1.6965863 0.40158823 1.9473121 1.6576641 1.3391706 -0.9735491 -0.6120306 1.0041581 -0.39720404 -0.44266573 0.72373396 1.0281157 0.17871517 -0.99593276 0.5327918 2.330715 -2.2381148 -0.5460674 -0.48622292 -0.027738249 -1.151179 -0.42901248 0.65921605 0.42173192 -0.791063 -1.5333881 -1.4685564 0.5920273 1.0345265 -0.80402505 -0.8782573 -1.2714617 0.14064126 -0.7904213 -1.1719168 -1.9335586 -0.94115514 1.1765283 0.14382969 0.51419115 -0.30380717 -1.4684708 -0.36321512 0.5221843 -0.660014 -0.014048013 -1.1288794 1.290248 -0.107213825 0.88651645 -1.0505356 -0.17037773 1.3055372 0.354137 -3.4780872 -1.4357127 0.8328314 -0.4831637 -0.8548167 -1.2226996 -0.19198117 0.5240483 -1.4924427 0.5613978 -1.4744606 -0.7240786 0.18193074 -2.2245162 -1.1619861 -0.9570786 -0.21938229 -1.3812042 -1.6367238 -1.5083607 0.07868314 -0.37552023 0.4079222 0.08586316 0.35723764 0.90680265 -0.27858728 -0.358441 0.7787993 1.59753 0.27308667 2.1931405 0.2917048 -2.4464452 0.30241063 -0.17366244 1.4245046 -2.0923698 0.8620798 -1.7723503 -0.030009199 0.5413076 0.9906592 -0.42523488 -1.4409103 0.03653773 -1.8690974 -0.79447776 -0.34911135 -0.91929007 0.2264817 0.0043487563 -0.19443478 -0.026015144 -0.24657851 -0.6301977 0.60703194 -1.7850125 -0.6181048 0.6571038 0.48115543 -0.8386814 -0.59830713 0.24378374 -0.70692986 0.448293 -0.23723207 -0.9459385 -0.72460747 0.13716447 -0.5641437 -0.52082187 -0.80124164 0.39841682
disorder 0.44888085 -0.13285285 -0.7862986 -0.7632694 -0.67520016 -0.2140618 -0.16576768 0.084430024 1.3973109 0.51860785 -0.4215483 -1.6264846 0.934609 0.01267555 -1.1044164 1.0934062 -1.5541204 0.3990849 -0.4381838 1.1511956 -0.6518234 0.66121864 -1.5804687 -1.2330846 -0.6741063 1.0316539 -0.88659054 1.4573383 1.275121 -0.7989774 -0.7864548 -0.2289793 -0.81079715 -0.07761957 1.3967911 0.13253585 0.43091658 -0.20173788 -0.50620675 -0.029808896 -1.9316151 -0.18688661 1.431072 -2.3028505 1.1043416 0.4011577 0.32632163 0.24695718 0.24420516 0.72766453 0.43690696 -0.27695704 0.07488924 0.15375963 0.6249892 -0.22023396 1.8931121 0.43395638 -1.3657646 0.46678928 -0.51482856 -0.17675112 0.37075412 1.8186133 0.7483769 -0.31621593 1.267817 1.9656886 -0.75734794 -0.40651295 1.0206996 0.8708132 -1.3327537 -0.9791486 -0.82890457 -0.893227 -0.58353615 -0.26129 -0.50013185 0.5195134 1.0370456 -1.8494225 -0.8381171 1.6197705 0.77657366 1.2914312 -0.8438357 -0.049238425 1.2320145 -0.069790095 0.39389405 1.5120724 0.35581934 0.5098936 0.4448235 1.0375097 0.41314906 -0.93366015 -0.35609373 0.4475747 0.29099503 -0.5868297 -0.95085794 0.7065159 0.7041148 0.24260204 1.5558553 0.18747549 0.6409764 -0.10085265 -0.18267946 0.3836906 -0.23436515 -0.15860157 -0.5800705 1.0333525 -0.08243076 -1.3398197 2.1279898 0.42853245 -1.4918455 -0.058660366 0.99473226 -0.35243618 0.45993215 -0.13651077 1.3276885 -0.051070593
talk 1.1713662 -0.7743922 -0.23871772 0.8039512 0.064223126 -0.16684827 -0.3977531 0.41064095 0.53169674 0.82518005 -0.3731125 0.20081784 -1.7923061 -0.52674675 -1.299894 1.2476593 1.593032 0.78035265 -0.91761357 0.6647513 0.24481389 0.007977024 -0.60622585 -2.6790233 0.82038367 0.9058657 -1.4818624 -0.35216406 0.38388366 -0.23703843 -1.8052975 -0.59590715 -0.2980765 0.12153496 -0.43158665 0.84154403 0.30454442 -0.35343626 0.5315505 0.8209981 -0.18903215 0.084825456 0.64004344 0.32047617 0.84973294 1.0296097 -1.0022353 -0.15170766 0.22347207 -0.12307078 0.5686191 0.32542026 -0.8105714 0.46828306 -0.3435235 -1.7494959 1.0099529 0.59306836 -0.3350102 0.9199393 -0.0587556 -0.65166205 0.12945747 0.059432227 -0.07577337 0.35198665 0.264739 0.1951011 -0.88648015 0.1054569 0.68983775 -0.95724565 -0.93061316 -0.71761835 0.3124287 0.16167736 0.3585647 1.0689173 0.55458975 -0.64780194 0.13287632 -0.74616134 -0.5620205 1.4627262 -0.12887366 -0.6602913 -0.69475204 1.1582587 0.06717167 0.720381 -0.20105498 0.79179084 0.28289482 0.35727468 0.44418818 1.4255476 0.65920186 -1.2586526 -1.2147422 -0.3527708 -0.36414486 -0.2311382 -1.0973278 -0.32308567 -0.16461928 0.778844 1.2715256 0.05594699 0.109958865 0.46842209 0.6840154 0.8136788 0.64693874 -1.1174406 -0.9007251 1.1487869 0.7982831 0.19442788 0.23039512 -0.65317386 -0.9674545 0.23138496 -0.5608045 0.85304004 -0.3530505 1.7822644 -0.9584698 0.57492894
keep 0.27508956 -0.6338003 0.17038754 -0.54649514 -0.6331874 -0.7440101 1.0565529 0.3024883 0.36830637 0.7030555 0.56524175 -0.23142079 -0.7150051 0.36251083 -0.39242384 0.6408632 -0.0066767614 0.37596828 -0.6570045 0.62250274 0.7571549 0.80862373 -0.29996887 -0.77010846 0.3051801 0.58866405 0.395687 1.2839901 -0.1365149 -0.32946724 -0.75068283 -0.101983406 0.15377492 0.1515283 0.3834716 -0.6220118 0.9889979 -0.035092108 0.42083085 -0.4315778 -0.48468852 0.17623988 -0.6646577 -0.101762526 1.4122843 0.2998779 -0.6939436 0.8739201 0.12842901 1.1106851 -0.5355923 0.16365834 -0.17996943 0.9726441 0.18134084 0.0060502086 1.822884 0.17305306 0.45747364 0.2597439 1.0237371 -1.1310694 1.079711 0.31547675 0.55392766 -0.57556224 -0.9032719 0.14154549 -0.63550013 0.024071364 -0.72692305 0.13901326 -1.3331524 0.57541627 -0.30192325 -0.4307748 0.94313425 0.34363887 -1.1826797 0.14836271 -0.50793165 -1.0512866 -0.36563087 -0.4347827 0.6989239 0.86566645 -0.23959757 -0.38505918 -0.43494245 0.60572964 0.03455397 -0.0477547 0.07241809 -0.27033937 1.0364954 0.23236461 -0.37337977 0.35485053 0.6257375 0.70949244 0.12006661 0.5076483 0.50945824 1.4217548 0.30302903 -0.39312524 0.1230215 -0.2805038 0.21839431 -0.26528785 0.9257845 0.40186235 0.978908 -0.2330419 0.14473817 0.24907076 0.16579595 0.17609453 -0.3796501 -0.28145432 -1.0834562 -0.04927895 0.19130318 0.5924664 -0.29026493 0.77091426 -0.35383338 0.79858714
well 0.13753228 0.04135152 -0.25636548 0.21693215 0.88945293 0.17985576 0.75522643 -0.98114544 -0.11367838 -0.06406555 0.54289824 -0.059813723 -0.04450161 -1.3756086 0.46178898 0.4725367 -0.14293167 1.230658 -0.50149655 -0.87431043 0.18942197 1.3138144 0.4959162 -0.4198069 -0.6023937 1.3586504 -0.060409166 -0.6468976 -0.05303807 -0.022785291 -0.75768524 0.13060105 0.816983 2.2325478 0.13344409 1.1711674 0.16424151 0.75326157 -0.5199561 -0.7324906 -0.9280014 1.3217074 -0.24527538 0.14256969 -0.018711234 -0.70890665 0.6015255 -0.94886434 -0.4670595 -0.24488471 0.70046335 0.81364447 -0.26045328 1.1366448 0.38081864 0.2615679 -0.3868618 0.02314293 -1.2497915 -0.1364882 -0.9343108 0.4202504 1.3819971 0.40773025 0.8979712 -0.33565438 -0.40709287 0.5127318 -0.041931562 0.009244746 -0.91583943 0.03854524 -1.2140373 0.6526706 0.687162 0.65438175 -0.41017312 0.11939262 0.16175167 -0.74320436 0.6595177 -0.5004052 -0.05843942 0.37133005 1.3935004 0.08957128 0.78601754 0.38230878 0.44892973 0.5569971 -0.571292 -0.16053313 0.51018125 -1.0270011 0.8841401 -0.23328963 0.5881029 -0.05057479 0.23060794 -0.3849973 -0.41667062 -0.90273064 1.6308261 0.33743745 -0.06640745 0.42669111 -0.7527857 0.95723087 0.9130394 -0.8346629 -0.18026096 -0.5153042 0.15059829 0.16749044 -1.0525397 0.56425625 0.09837406 0.1444681 0.5927406 -0.64431834 -0.29720962 0.14367531 -0.43972105 0.32652938 -0.5844533 -1.5812671 0.095377386 0.4512065
stop 0.6965643 0.9681569 0.5800954 -0.0072048544 -0.55255383 -0.7597187 1.3047984 -0.32892692 0.33476493 0.66640323 0.15856737 0.20967293 0.807048 -0.78181213 -0.67399204 1.8493274 -1.7374989 0.040186506 -0.8945844 0.33268204 0.06754189 0.19680871 -0.615675 -0.59986866 -1.6335655 -1.5205361 -0.20161211 0.9348681 -0.36886826 0.5640581 -0.333886 -0.31398696 0.20384653 0.13610144 -0.45771053 0.4861085 0.62848854 0.28518546 0.40502644 0.33271068 -0.9992014 0.0014363573 0.32199195 -0.5437541 0.32439798 0.14944036 -0.21523087 0.039567035 -0.02999183 0.7361498 -0.7969077 0.5276393 -0.011077437 0.14844128 -1.2092204 -0.6107756 0.58700126 -1.0087876 -0.36042866 -0.024321474 0.1577203 0.6223161 -0.31770432 -0.6678445 -0.114904925 -0.3856599 -0.62217516 -1.296122 -0.40865314 -0.053519364 0.07233434 0.93169737 -1.3485457 -0.42881984 -0.23378806 -1.0355337 0.16935447 -0.47722802 1.0940871 1.8629609 0.4775964 -0.48841402 0.8460377 0.50490475 0.009568593 1.6064502 -0.21195456 -0.84711117 0.37548527 -0.47984803 -0.72643167 -0.24964845 0.048915535 -0.6878784 -0.44777343 -0.20717524 0.278431 0.14390278 -0.006934656 -0.29392454 -0.86339134 -0.3550971 1.1815333 0.889806 -0.21996742 0.29732943 0.62926346 -0.20944856 -0.4891634 -0.5295333 0.5242481 -0.053830747 0.022376277 0.6250186 0.29162455 -0.8554291 -0.5368086 -0.10111139 -1.1517214 -0.24690144 -0.47660244 -0.08365522 -0.64053833 0.33839336 -0.02519642 -0.63098603 -0.3015668 -0.37489107
way 0.8521357 0.15071875 0.06751595 -0.5716982 -0.71705896 0.07241335 1.060694 0.79503465 1.2182676 0.54668456 -0.10848021 0.4714164 -1.032369 -0.62260824 -0.0018996221 0.7904798 -1.1847017 0.98334205 -0.18709126 -0.35631803 1.1102467 0.24888586 0.100756586 -0.7267465 -0.8331 0.5828319 0.8440306 0.3995599 0.32003748 -0.81182104 -0.39456952 -0.89599854 -0.20880693 1.3769267 0.8298546 0.83975923 0.49260873 -0.95848364 -0.33418483 0.35442835 -1.5344486 0.36704862 -0.3942537 1.0946327 0.53809977 0.26642314 0.47576487 0.14553839 -0.82957816 0.56154335 1.1410795 -0.10827087 -0.77723336 1.2592609 -0.07603174 0.24987938 1.1958401 1.3732694 -1.0212126 0.029548606 -0.35136905 1.2886266 1.3616698 0.2580325 0.9778056 -0.04533788 -0.62034065 -0.009630067 -0.08287199 -0.4700383 0.23450239 -0.105815955 -1.162608 -0.87403667 0.5033952 -0.033596683 0.70695114 -0.9553371 -0.28087544 0.5895161 -0.5837615 0.03438472 -0.85900223 -0.060768403 -0.111733146 0.19142763 0.65009195 -0.71749413 -0.36044812 -0.1763079 -0.18778162 0.4240345 0.05021835 -1.0235045 0.3568154 1.1798805 0.06796126 -0.28753272 -0.4699279 0.5632722 0.14540392 0.44053623 0.62801033 0.68003947 1.0911914 0.29246545 0.52227175 -0.14089002 0.5680652 -0.2321436 -0.04437463 0.006624884 0.60485595 -0.6307826 -0.6005503 0.9903477 -0.10283832 0.09102738 -0.23185454 0.2638403 -0.4496194 -0.20298436 -0.41879833 0.37652615 -1.0705134 0.33058804 0.07471938 1.1122375
take -0.6146149 -0.75129426 0.42544982 0.7260478 1.331756 0.89244115 0.19355245 0.865161 -0.5971164 0.7085765 -0.50930816 -0.4957287 -0.5173399 -0.5759922 0.74835646 0.40871367 0.75794494 1.9889067 0.5338843 -0.037549753 1.0856762 0.1763735 0.65889215 -0.69360584 -0.9842789 0.9334195 0.06204151 -0.952922 0.27006236 -0.10100314 1.1515648 -0.66259754 -0.37193012 0.99211323 -0.27696723 -0.6139095 1.2604483 -0.6353565 -0.29202354 -0.118422456 -0.77896416 -0.19286072 1.453302 0.1548388 -0.35067457 0.35223806 0.04762436 -0.9697378 -0.1988254 0.53472894 0.82541233 0.31016672 1.0696176 0.8756513 -0.6858209 0.8818467 -0.8284227 -0.29553095 0.4124722 1.8853061 -0.30093718 -0.25116485 0.7374131 0.90243375 -0.38771394 1.2307926 -0.28167644 -1.8754222 0.21407162 0.13914 0.026012082 0.21705878 -1.5468516 -1.3990465 0.6979489 -0.7041565 -0.4226094 -0.0753036 -0.16936831 -0.68573403 0.6040719 0.19253191 0.3886146 0.80238825 -0.5963018 -0.30140844 0.95437974 0.34857526 0.11335359 -0.14524184 0.017926985 0.07097439 -0.16494936 0.85609955 0.0693901 1.1257756 0.5508274 -1.4323518 -1.2907894 -0.041484997 0.41911164 0.46105903 -0.0869957 -1.2866505 0.30584887 1.2104934 0.2680895 1.5499011 0.33425477 0.28584513 0.49721375 -1.3061723 -0.12613091 -0.40110612 0.54968685 -0.063294776 0.4840424 0.015467335 0.7928794 -0.35624927 -0.089943685 -1.2565384 0.47801366 0.33461732 -0.49977118 -0.40343925 -0.45728597 0.23247322
lot -0.3502057 -0.28150126 0.9775388 -0.025928954 0.03096426 -0.7340504 0.897317 0.40303963 -1.1931384 1.1421673 0.30924636 -0.20488212 -0.1737841 0.37837362 -0.7847335 1.3335081 -0.43507534 0.8713256 -0.48564813 -1.5221254 -0.24451111 -0.73845893 -0.75026214 -0.5049487 0.5870346 -0.32545477 0.21658696 0.7552393 -0.7857559 -0.04534212 0.6948442 -0.09991383 0.8962153 1.3242987 0.071600035 1.8370458 1.3336928 -0.21474119 -0.22403403 -1.042604 -0.6859483 0.12341007 0.29763877 0.1659258 0.07423843 0.44503224 0.5530493 -0.31879506 -0.417652 0.33328035 0.15648597 1.3494178 0.5881492 0.5995314 0.33841306 -0.66651255 0.49582407 0.60164577 -0.5149183 -0.25515887 -0.2883856 0.1301499 0.76643384 0.6426561 0.90678895 -0.9371362 0.67408115 -0.78072184 0.47276637 0.21245398 -0.39052454 0.39102307 -0.61551046 -0.44734696 0.23000059 -0.6946301 -0.77940685 -0.5159055 -0.19677286 0.0795136 0.371174 -1.1520612 1.0027143 0.7307375 -0.5474538 1.0764488 1.0836691 0.29756972 0.5307865 0.5076582 -0.40425915 0.27417055 0.43427902 -0.0038718712 0.6019853 -0.59011817 0.18985952 -0.9359101 0.6930751 0.80169505 -0.22508225 -0.6991411 0.09230851 -0.23365574 1.0171064 0.8259179 -0.66521627 0.21181948 -0.39037687 -0.8105149 -0.54166937 0.4941624 1.2274681 -0.118024535 0.53493595 -0.73170376 -0.04520999 0.02001012 -0.9938736 0.8903468 0.9418872 0.16119756 -0.77502394 -1.0649827 -1.1803787 -0.41755283 0.70509857 -0.8958373
people 1.9062345 0.49169 -0.5169779 0.10126152 0.4565334 0.68523663 -0.3828854 -0.19538648 -0.50698036 -0.23653337 0.952209 -0.16770492 -0.5978189 -0.4019673 -0.541766 -0.7780239 1.2946043 -0.893971 -0.63245213 -0.3580806 0.22839715 0.39187816 -0.28743243 -1.4897858 0.20804341 0.8665398 -0.30480188 0.04237126 -0.30165267 -0.28352624 -0.6485585 -0.9972394 1.7720065 -0.27169105 -1.136231 0.8427584 0.77098775 -0.48996115 0.524298 0.46940184 -0.7115244 -0.33096993 -0.14330883 -0.53272545 0.73646593 0.33794487 -1.3070035 -0.68899906 0.7826453 1.0612603 -0.79555655 -0.095367216 -0.6117223 -0.73570603 -0.7949088 -0.7793086 0.9141013 1.172869 0.12973444 0.29880208 -0.6976588 -0.7573065 0.18093722 -0.67863584 1.0465242 1.1910242 0.5564383 -0.95962304 -0.41740558 -0.97785735 -0.44410047 -0.5669716 -1.1406387 0.01664893 0.86214614 -0.5472426 1.441377 1.6550028 0.41802275 1.1374654 0.031617943 0.18880703 0.22644673 1.7794217 -0.44677436 0.2723151 -0.29230234 -0.91895217 -0.5322697 0.5970349 -1.7252811 0.5014287 1.0987195 -0.30539674 1.447713 0.942703 0.4325415 -1.0070322 -0.47723803 0.025532002 -0.88305265 -0.08270123 -0.6509038 0.35215187 -0.039953914 -0.67834914 0.023778642 -1.4352758 0.5334414 -0.46631905 0.51279724 0.503118 0.07765994 -0.8012243 -1.0259986 0.2501528 0.7725197 -0.26209873 -0.9863145 -0.16492926 -0.52783686 1.1052423 -1.2316033 -0.92215806 0.7194214 -0.13932191 -0.729886 -0.7835378
im 0.045679364 0.5934944 -1.2871926 0.9957063 1.0786217 0.076014265 0.72186375 0.7645902 0.5482103 0.09323944 1.0757868 1.7202824 0.41493005 -1.5365245 -0.80963814 0.055786602 0.2741847 1.4837413 0.39811093 1.5747373 0.36575356 -0.15554829 -0.5238723 -1.2692837 -1.3660742 1.1827586 -0.34948376 -0.22616225 -1.0236945 -0.7411878 -0.57398313 0.1446788 0.8433118 -0.5094666 1.0501161 0.38043013 0.97252274 0.2663166 -0.2801241 0.83870494 -0.48388055 0.39334437 0.49310276 -1.060332 1.0911218 1.0285233 -0.15013279 -0.031147625 -0.7886843 -1.0890567 1.3309942 -1.6232136 -0.0050210017 0.7663021 -0.6255487 0.24220617 0.87961894 1.6153548 0.61254215 -0.4653639 -1.2251809 0.7869951 1.3090822 0.07558904 0.40522793 -0.41950718 -1.2245519 -0.068638384 0.23669656 0.69476414 -0.23480839 -1.1271397 -1.0718632 -0.28904954 -0.2620148 0.38689846 0.23344445 -0.681388 -0.35679927 0.69263583 -0.45128 0.41728732 -0.16655892 1.1870685 1.3432795 1.8707787 1.6600512 -1.8862895 -0.41813797 1.0377802 0.21716525 -0.72867876 1.5041465 -0.6611847 -0.35284197 1.1737701 0.35451603 0.8857051 0.23121195 0.07511094 -0.066361845 -0.16725299 -0.055558 0.2535771 -0.98676014 -0.16439539 1.3499991 0.5100738 -1.261035 -1.7026458 -1.1367847 0.08007885 -0.70200056 0.49680743 -0.9408487 -0.30293587 -0.19419225 -0.11610745 0.11688027 0.76671547 0.00936335 0.13467105 -0.52179354 -0.16102995 0.6071646 0.017224042 -1.4212059 0.21651325
long 0.10955132 -1.6832428 0.16797961 0.1197765 0.04529968 -0.3719403 -0.80885565 0.21149668 -0.05872554 1.2029024 -0.7376593 -1.5822304 -0.40066233 0.23598768 0.8014326 0.78331095 -1.3876851 1.3940023 0.6745875 0.4706068 0.7852964 -0.06989586 0.19280706 0.97194874 -0.5215878 -0.1566244 0.4560966 -0.74912554 -0.03205915 0.34085056 0.7866694 -0.23459324 -0.49989405 1.2406297 0.19284 -0.3918683 1.1421149 -1.1673883 0.8441476 -0.062667884 -0.17811169 0.8053759 1.2465278 -0.5541631 0.5542947 -0.010258348 0.28529704 -0.56388605 0.37673587 0.9956004 0.08100989 -0.24788986 -0.21341714 0.41661772 -0.4968971 -0.2842089 -0.074905254 0.61235726 0.015196304 0.7128694 0.3261446 0.8431634 -0.70160836 2.0160089 0.49077147 -0.024155715 -0.4482723 0.7694489 0.3434713 0.687879 -0.39557216 -1.1596986 -1.2245283 -1.2510679 0.93369055 0.023109373 -1.349104 -0.7378293 -0.65543455 0.9932918 -0.22803205 -0.991445 -0.931985 1.329944 -0.15100107 0.61839384 0.6980131 0.8921858 -0.5168892 -0.114974655 -1.4023857 -0.5354508 0.5969792 -0.4189268 0.0011893524 0.8308853 -1.493697 -0.4583133 -0.7233596 -0.18671036 1.1364098 1.0140308 1.1623485 0.10517841 0.3135781 0.6844174 0.53698367 0.94504905 0.8328839 0.09619122 -1.1211283 -0.008605489 0.28761128 -0.4247198 0.16549727 -0.15409984 0.7300929 -0.9254148 0.9886194 -0.029088134 -1.2995118 -2.036508 0.9592995 0.41279462 -0.73738366 0.9154926 -0.45187756 -0.6952404
struggle 0.090322845 -0.015981745 -0.7974733 -0.27902478 -1.2315409 -0.03954404 0.78609353 0.7376892 1.3917753 -0.19122991 0.8164846 -0.7810873 -1.1822275 0.39643782 -0.24506743 1.699909 -1.8706199 0.81278867 -0.7703811 0.5164321 0.8025174 0.5307006 -0.7047772 -0.034826886 -1.7526512 0.7303237 -0.6289609 0.9477407 0.1746754 -0.30904186 -0.88485366 -0.26189488 0.3238049 0.6073538 0.8289927 -0.20214802 0.48199666 0.18659203 0.31821367 -0.03644719 -0.8242122 0.35964698 0.4785338 -0.65306777 0.5188696 0.39752206 0.366166 0.17941566 -0.39765897 0.26905534 1.2850183 -0.4587147 0.4212625 1.5035197 0.21727361 0.2070699 0.7525276 -0.2371381 -0.9463642 -0.20747234 0.3971046 0.5351191 0.6624463 1.0452285 0.0072078006 1.0703644 -0.25901493 0.37927398 -1.2012963 0.42513296 0.042009696 1.208741 -1.5833335 -0.19881976 0.22059523 0.38167113 -0.61449176 0.33096483 -0.29050836 0.8096705 0.94328886 -0.56808084 -0.5597689 -0.7852786 0.47568172 -0.33653712 -0.4597279 0.39007595 0.5755803 0.5000553 -0.45732668 -0.06718517 -0.071287535 -0.7543252 0.61987644 -0.41825613 -0.7618204 -1.134946 -0.035892386 -0.41882464 0.42995405 -0.54803246 0.032517336 0.59487873 0.19673306 0.7730175 0.9380976 0.59595567 -0.77136296 -1.4703867 0.80774516 -0.008988284 1.023201 0.048896693 0.66155046 -0.5435044 -0.38268113 0.54738456 0.68872947 1.0756724 -1.1906528 -0.88689315 -0.08479931 -0.6664144 -0.5530993 0.03272856 -0.8928354 0.018254248
since -0.5351795 -0.94504774 -0.249384 -0.12150914 0.17556638 -0.24274318 -1.0013673 -0.7924276 -0.32139483 -0.3343381 0.957875 -0.7430476 0.13435538 0.24090669 0.38225895 0.5773586 -1.8242916 -0.48837745 0.88979936 0.5732854 -0.48464814 -0.26447442 -1.003707 0.12388228 -0.49423864 0.5914605 0.42477515 -0.12492712 0.50932777 -0.8160124 -0.541549 0.838556 0.3704311 0.40615815 0.19200644 1.3101578 0.6751424 0.86848974 0.7118034 -0.86032236 0.25392628 1.6969626 -0.066735625 -0.44210654 0.85303456 -0.46077764 0.29817745 0.28254956 0.4152823 0.3774583 0.039570898 0.7185089 0.18012652 0.35908586 1.10193 -1.0652672 0.60407376 0.37269455 -0.84795374 -0.54719007 0.8556927 -0.383996 0.2740496 0.4884755 0.62162215 -0.41601574 0.8174622 1.6744831 0.0803729 -1.570156 0.37071413 0.33236492 -0.9319222 -0.1480675 0.25127506 -0.09545663 -1.3335423 -0.7659786 0.15415734 0.74324775 1.1534592 -1.4123348 1.2514126 -0.19934575 0.550606 0.51384604 -0.18433009 -0.055554844 1.181113 0.39986667 0.2841881 0.183965 0.2965437 0.6070622 1.3286473 -1.8284297 -1.386961 -0.24290799 -0.07841976 0.5458115 0.1769429 0.48401213 -0.35697764 0.7917179 1.1956981 -0.56986016 -1.0177295 -1.1548103 1.2756008 -1.6918745 -0.41878855 0.31348452 0.057723675 0.4948813 -0.65838045 -1.2539272 0.03188371 -0.7831372 0.63355935 0.53224856 -0.8420869 -0.6164519 0.20315735 0.08950097 -0.37443733 -0.86667997 -0.6026577 -0.54650974
normal -0.14496629 0.3402128 -0.25931656 -0.87978894 -1.4289323 -0.24740486 0.45498648 0.14988619 0.61574954 1.5133264 0.07223722 -0.73535925 0.42438793 0.6728749 -0.29686505 1.8764143 -0.9754672 -0.17615049 -0.8758739 0.45208222 0.4954739 1.0529001 -1.1454408 -1.4382005 0.08825324 -0.15837921 0.19327942 1.8679128 -0.8976895 -1.1862849 -0.8857007 -1.4920597 0.8398029 -1.657591 -0.72174376 0.90695304 0.051882673 0.64741826 1.3065975 -0.42988062 -1.7901305 0.6462999 -1.194115 -0.45937216 0.3417847 -0.89680946 0.07582632 -0.90042937 -0.2889545 1.4190987 0.13879612 1.7871456 0.65146714 -0.6257436 -0.20378266 -0.9010033 1.7114637 -0.31626517 -1.134871 -0.6031533 1.2214054 -0.400179 0.26999864 0.47282428 0.5340198 0.13976534 1.1037912 -0.21312147 -1.0649081 -0.32121012 -0.94668484 0.6482871 -1.8102102 -1.0904349 0.30239132 -1.4882679 0.16194914 -0.81624275 -0.6869263 -0.82384235 1.0893424 -1.4748741 0.98874235 -0.6208389 0.8113207 1.6125574 0.9382392 -0.9489105 -0.5131947 -0.4248359 0.20948869 0.58010596 0.30516157 0.8270678 0.69729125 0.68859875 0.41485232 -0.09156184 -0.45213977 0.58200747 1.2666993 -0.7245744 -0.5527106 0.5157993 0.06918976 0.94879097 0.5338194 0.17035396 0.8862723 -0.40475997 0.3823427 -0.61765724 -0.57968765 -0.56492215 -1.4589145 -1.0094699 -1.8581628 0.6453784 -0.33545646 0.695943 -0.8501995 0.045461074 0.49416408 -0.73262393 -0.94150954 -0.91045344 -0.30816546 -0.102082
else -0.13107575 0.6099457 0.29359904 0.8342618 -0.6861851 -0.8073101 -1.2684816 1.3453753 0.83253866 1.3896743 1.4400712 -0.6702757 -0.7677962 -0.73798436 0.9801949 0.54600114 0.3032458 1.849808 -0.6620265 0.57198936 0.5684001 1.6426598 0.8512319 -1.565726 -0.40159422 1.3492703 -1.0918759 0.37114993 -0.18321835 -0.87814337 -0.9871183 0.443897 0.22554027 -0.7023775 -1.3504019 -0.25408944 -0.9484584 -0.6478354 0.33177438 -1.3804199 0.6860222 0.49841365 -2.1057696 -0.03595966 0.638562 0.51081693 0.03366932 -2.9461718 -1.0353572 -0.19896784 1.9476271 -0.4574792 1.4697905 0.63559705 0.60169584 -0.36387214 0.3221946 0.7950049 -2.1325428 1.298174 0.04299565 0.61068624 0.13349825 -0.26090938 -0.7673109 1.0335226 0.78328645 -0.020492021 -1.1333631 0.372191 -0.46414027 -1.1660094 -0.955308 0.996973 0.9301225 -0.4103059 0.9066484 1.4290295 -0.8883802 -1.3023657 1.2561189 -0.42238656 0.3652563 1.3500824 1.8096555 -1.1463991 -0.43307212 0.3534421 1.1395648 -0.24135953 -1.911627 -0.93197376 0.09697129 -0.9059642 1.8003618 0.6270559 0.14464544 -0.4363409 -0.22864406 -1.6684066 -1.2285825 -0.52734554 -0.93585914 0.6663807 0.5710127 1.1365385 1.3719708 0.3450995 0.90607643 -0.34075674 -0.21642135 -0.33082774 0.055626452 -0.7939267 -0.3688597 1.2287769 0.8748539 1.5142124 -0.6380346 0.9090753 -0.5860369 -0.8217028 -1.1753179 -0.95606005 -0.36359552 0.25590268 -1.6103671 -0.41254568
use -0.06585249 0.0375611 0.7740405 0.13352667 0.98883665 -0.0027298976 1.3155546 0.017379267 0.20132 0.3842153 0.0213131 -0.12185841 1.4833318 -0.61589175 0.99450815 0.5065898 -1.6492761 -0.03700325 -0.07068431 -0.61137754 0.62256896 0.16612495 -0.094493754 1.1404456 -1.1785591 0.48334 -0.85434705 -0.2443855 -0.04259761 0.85668707 1.0187079 0.46017382 -0.07193405 0.3304544 0.56612986 -1.5611159 -0.30526534 -0.029584171 -0.9203455 0.65317655 -0.9784941 0.42562798 0.013309798 0.19749711 0.47029594 0.90162945 -0.015993185 0.2346094 0.7095055 0.6537705 -0.3746757 0.0002698127 0.741079 -0.526248 -1.1971682 0.4408904 0.13729778 -1.5945148 0.3359234 0.37427995 -0.65690076 1.0265524 0.9626853 0.86236435 0.31056973 -0.40498915 0.10857629 -1.2393388 1.3065845 0.8179386 -0.39657575 1.0609862 -0.05982533 -0.3326174 0.047770236 -0.99793005 -0.8693274 -0.8083247 -0.3356356 1.2746743 -0.5646285 0.14177622 0.53052574 1.123025 0.29786128 0.30348623 1.17699 -0.59042865 0.41166013 -0.10819182 -0.16533895 -1.3948784 0.42248324 -0.1281153 0.37914893 0.7323229 -0.32307196 -0.363396 0.3001408 0.06686934 -1.4150969 0.37951472 0.11732008 -0.37006235 -0.15747811 -0.72913164 -0.9266059 1.5302097 -0.09552826 -0.33096567 0.2508555 -0.97785544 0.3404244 1.450297 1.4998666 0.67803514 -1.017074 -0.18657519 0.98670566 -0.29892415 0.30136988 0.1895867 -0.66361177 -0.16166742 -0.34030885 -0.8654275 1.2206331 0.4280302
someone 0.57929635 0.7459585 0.497 0.566152 -0.5617592 -0.18267593 0.45714542 0.005929075 0.62550896 0.28117782 -0.63356674 1.3540794 0.77501905 -0.77223897 1.0325973 -0.3423655 0.21018954 -0.41772816 -0.41569653 -0.8437892 0.7138236 0.876588 -0.24321875 -0.34694868 -0.2322533 0.3483463 -0.8107967 2.1706836 -1.0095731 -0.63562405 -0.18895283 0.08963513 -0.39656627 0.7026889 -0.6112364 0.22287355 1.000339 -1.3370817 0.02277421 0.47783816 -1.5437764 -1.1594387 -0.043563366 0.33585113 1.0830196 0.3313657 -0.47724223 0.35227478 0.99258333 1.4433712 0.8287315 -1.2265055 -0.13884859 0.36226857 1.2897466 -1.7236586 1.0828484 1.2172953 0.17067051 0.25212723 -1.3565041 0.3739448 1.5044442 -0.21889025 1.0192703 1.586534 0.7372688 -0.87846094 0.2112729 -0.11536575 -0.12990597 0.17887327 0.0027981817 -0.34929186 0.51229715 -1.3517011 0.91357946 1.3250687 0.027174868 1.7699467 0.5222223 1.1673138 -0.350195 2.7906148 -0.1377097 -0.8754669 1.9143422 -0.84894 1.2070953 1.4388278 -0.29726544 -0.15603296 0.15927887 -0.5277605 0.6657989 0.82266825 -0.65780854 -0.029501563 -1.1547816 -1.435626 -0.49419275 0.49319443 -0.13643697 -0.8470341 0.06396134 0.66544604 -0.92634654 0.23166397 1.6412152 0.4566316 1.1763114 -0.39433232 -1.6996827 -0.52781034 -0.76515216 0.046548136 -0.32153168 0.26136628 -1.131509 -0.6201594 -1.0404156 0.32478473 -1.2002981 0.9240617 -0.21050818 0.09297548 -1.2950357 0.096965924
week 0.2271342 -1.3033687 1.9354653 1.6649352 1.0467367 -0.97505975 -0.032247763 0.43079314 0.620319 -0.32987672 0.86535615 -0.22082376 -1.1437383 0.29340437 -1.5803585 2.0083563 0.00080241705 0.08496495 1.2968509 -1.5381356 -0.34394696 -0.846601 -0.30901888 -1.7112765 0.7120052 -0.18193333 0.2968005 -0.72268486 -0.101335965 -0.6739545 0.054389924 -1.4558904 1.5527701 1.3484601 -0.30477855 0.76768005 1.0735557 -1.1277841 -0.44568175 -0.115061924 -2.066511 -0.6549502 1.1099248 0.5052219 0.8665147 1.2414948 -0.05281508 -0.49993235 0.19590154 -1.2669654 -0.44137722 1.1076933 0.05457657 -0.45258272 -0.6634739 0.08328634 0.41563576 0.123840325 -1.0683738 -1.1481178 1.2355224 0.41005144 2.2585995 -0.67106193 1.8501469 0.2262033 -0.14147484 1.0288875 0.81148326 -0.73405445 0.07370116 -0.47608203 -1.7290606 -0.24811363 0.5108423 -2.1838312 -1.101045 -0.4323292 1.2832738 0.40527216 -0.23112626 -1.0549744 0.67191666 0.51047426 0.62598014 0.11622303 -0.12576585 -0.5215673 0.1441637 -0.7575655 1.2672434 -0.13470577 0.68135905 0.5527039 0.036228634 0.0383966 -0.39147395 -0.29868662 -0.57483786 0.3822081 -0.7004611 -0.33524287 -1.5391016 0.027707824 -0.43997288 -0.3968656 -1.3163042 0.6977184 0.2186949 -0.97631115 0.17492045 -0.6864003 0.39329284 0.4758618 0.08493492 -1.236537 0.81153494 -1.2479739 0.952307 -0.7550679 0.64657944 0.92023283 -1.2008011 -0.6040867 -1.4170432 -0.6983587 0.41891935 0.43147606
binge -0.36087018 -0.072552085 0.42183203 -1.1826565 -0.2746884 -0.17938419 1.2849517 -0.16399583 0.1998028 -0.45414937 -0.32484198 0.11057141 0.27303833 -0.2093347 -0.6958947 1.8647838 -1.7233167 1.2941478 -0.35002992 0.47695145 -0.5314172 0.20615888 -0.13032612 -0.14669576 -1.0220273 0.17841421 -0.15901598 1.5713958 2.2954814 -0.9651364 -1.1762447 0.80746424 -0.6111361 1.5498074 2.0359607 1.0469904 0.9101244 0.085344985 -1.322259 -1.2924376 -0.392561 0.9491795 0.27705565 -0.113296025 0.70172125 0.8051547 0.679263 0.032875467 -1.3899276 -0.41530478 0.75590366 1.2717549 1.135401 1.4874662 -0.3746358 0.1708727 1.1774008 -0.7713011 -2.2575207 0.2148058 0.5826687 0.41505522 0.2457297 -0.18808363 -0.083998546 -0.4606766 0.13744956 -0.10388201 -0.0026740364 -0.880024 0.87029195 1.0719651 -0.76283944 -0.7858983 -1.0366589 0.2948039 0.97119427 -1.8345969 0.14591686 0.07961185 0.48966002 -1.8411055 0.96411544 0.09666523 1.2349735 0.6424513 -0.80893064 -0.60320807 0.102460094 0.3750468 0.28702402 0.07057646 -0.5407199 -1.4488765 0.25496334 -1.2745359 0.35985532 -0.86047524 0.92401725 -0.2528383 -1.0217847 0.0706943 -0.4335234 0.78825146 0.30762386 -0.2020263 0.49941292 0.8425343 0.046537507 -0.87054104 -0.53079045 -1.0368378 0.88922894 0.6502658 1.0723598 -0.17258415 0.4364304 -0.09010727 0.9970166 -0.3768674 -1.0362406 -0.34269255 0.0030178544 0.36173534 -0.1718649 0.084348395 0.35230243 0.5776075
around 0.3186922 0.47971064 -0.731838 -0.9435901 -0.05756376 -0.08683648 -0.10577186 -0.7336608 -0.30664498 -0.25888482 -0.40379608 -0.6807299 0.74876535 0.36796066 0.31108093 1.4786861 -1.4083948 -0.5926992 -1.5957569 0.46304798 -0.5853908 -0.22849292 -1.3168263 -1.6798853 -0.24981743 0.30306235 -1.3878732 1.0528349 -0.36052468 -0.27063963 -0.6870275 -0.43771845 -0.308776 -0.2414089 -1.5120044 1.1520913 -0.8409 1.0714494 0.47161183 -1.2785952 -0.7272349 0.9205691 -0.7089956 -1.7906281 -0.6340373 -1.014056 -0.2740899 -0.7890607 -0.018659823 0.37822083 -0.3529265 1.1599445 -0.6884542 -0.45844647 -0.26382205 -0.49461305 1.6046695 -0.34806123 -0.2990186 0.06415918 -0.083842605 -0.30895668 -0.49004638 -0.5484938 0.36144966 -0.22762628 0.83434135 1.2106823 -1.2735354 -0.6804291 -0.011054472 0.6847592 -0.86321455 -0.52950823 -0.62643665 -0.37037602 -1.0776638 -0.38902307 -0.8336769 -0.2585566 0.8192927 -1.1664665 0.043392826 0.3261006 -0.8120135 0.66384363 -0.30919018 -0.5371233 0.47775742 0.20541383 -0.044246268 1.1022686 0.646571 1.0348729 1.18715 -0.87964916 -0.32276377 -0.52616084 0.6065745 0.5600398 0.2930034 -0.6479955 -0.30294585 -0.43783572 -0.23446691 0.25214946 0.019512191 -0.48328474 0.09417956 -0.47926998 0.17749533 -0.09139921 0.06352176 -0.133532 -0.49421978 0.17821142 -0.09895977 -0.07545623 0.62456197 -0.42822525 -1.1061783 -0.033221044 -0.42300302 0.36223876 -0.2541527 0.3554435 0.011069345 -0.37220684
anything 0.6577121 1.5632112 0.20036869 -0.5961943 0.29229644 -0.24023767 0.19864677 0.49769866 -1.0981629 0.23060092 -0.41055793 0.85766363 0.96395814 -0.9526033 1.4964888 -2.0626216 -0.68600696 0.10991695 -0.3466057 1.0753653 -0.60853314 0.22008453 0.23736413 0.5275137 0.068002984 -0.6770021 -0.9074129 1.1964542 0.6700922 -1.0871361 -0.44415048 0.034120087 -0.106134936 -1.0224104 -0.065658905 0.69983524 0.7935797 -0.8964747 0.27818578 -0.44903523 -0.24756987 -0.6032203 0.08035806 -0.32108253 0.5945328 0.5132847 0.0022849026 -0.28865197 0.016493242 0.68228924 0.048373953 -0.27329385 1.5645237 0.7600112 -0.34109843 0.26832455 1.8207905 0.0920426 -0.0039024574 -0.16775969 -1.4824954 -1.0097125 -0.516827 0.4466088 -1.2089964 -0.15706603 0.24188283 -1.2553623 -0.060055815 -0.9667003 -0.6299466 -1.8656573 -0.25210294 0.6518388 -0.4691722 -0.79444975 1.4998093 0.32200426 -1.1996285 0.019853193 0.62540865 0.7193466 0.4236055 1.8806272 0.90583724 1.1152619 1.1315665 -0.77617323 0.6571498 0.12154268 -0.93105906 -0.015828377 1.2178067 -1.4467622 0.8267771 0.76186436 -0.31348786 1.2640132 0.19535993 -0.9169088 -0.92960405 0.6790001 0.08276265 -0.676854 -0.5393693 0.079352625 0.95506066 0.4806438 1.0108058 -1.1112349 1.468955 -0.5808675 -1.4275682 0.44163802 -0.9018461 0.24691758 -0.7649816 1.2233518 -0.91434 -0.19795461 -0.10349017 -0.059614487 0.32197055 0.7247969 0.31819367 -0.65659297 -0.34133205 -1.0036341
work 0.77486056 -0.36069623 0.74406093 1.3857695 0.27299047 -0.074643806 0.5684504 0.31364703 -0.18378185 0.55180717 0.57830036 0.37951747 -1.1342269 -1.2839155 -1.7001508 1.1591691 0.0039319517 1.1268032 0.19664715 -0.77264464 1.036596 -0.4464538 -0.046688348 -0.4569615 -0.7013844 0.16314478 0.5869764 -0.1641607 0.0495138 -0.17497411 -0.012646248 0.65237606 0.7509995 1.8025827 1.2875348 0.3734613 0.9296858 1.1569023 0.03755901 0.124862164 -0.6741909 0.04114191 -0.16976577 0.312205 0.14911763 0.097675495 -0.20605405 0.4007892 -0.9167078 0.5540321 1.1282954 0.2858382 0.049849864 1.7588446 -0.2183719 -0.93086785 0.52710384 0.58496016 -1.4025538 -1.8137218 0.13872983 -0.32495072 1.5294949 -0.64639556 0.48471093 -0.28116974 -0.45246246 -0.5010545 -0.0933047 -0.6201073 -0.3368175 -0.7104674 -0.94109815 0.08396518 0.8247307 0.45747375 -0.33335105 -0.3868966 0.79618466 0.24798605 -0.17351016 0.21411803 0.41736463 -0.364757 1.2113541 1.2076732 0.79795754 -0.6016273 -0.4233783 1.1853555 0.7971642 -0.6802591 1.8799678 -1.4001904 0.5967834 -0.34504673 1.2033525 0.10810132 -0.88930416 0.3815614 0.60994196 -0.65653294 0.58686405 0.9818206 -0.57209134 -0.6599775 -0.34163553 0.8829547 0.367274 -0.76496464 0.3766325 -0.35858643 0.06910303 0.061252702 -0.34690282 -1.1566962 -0.26173767 -0.0443 -1.3177782 0.5041751 -1.1852081 0.16295157 -0.2653283 -0.57897764 -1.076369 -0.3811904 -0.9615388 0.84241503
