482 128
like 0.1739493 -0.042192277 -0.17089133 0.103740685 0.27236083 -0.14645931 0.066069 -0.08772923 -0.018831335 0.51071507 -0.12464525 -0.17768201 -0.14558877 -0.36749947 0.002773879 0.50483125 -0.26992148 0.12570605 -0.18271492 0.3464822 -0.0951159 -0.05117848 -0.4678736 -0.65955013 -0.4644347 0.27648494 -0.25707203 -0.08535222 -0.07054249 -0.25498903 -0.12473755 -0.23647523 0.21083574 -0.02168538 -0.15370753 0.49787104 0.44815996 -0.12481931 -0.091889575 0.1364622 -0.1752018 0.20251146 -0.099695325 -0.14683871 0.31213185 0.05845322 -0.34416324 -0.26107913 0.030673416 0.032958213 0.46074814 0.23465647 0.057287812 0.20240875 -0.23778656 -0.1299098 0.47850654 -0.09586954 -0.2306897 -0.06621237 -0.2858502 0.2719454 0.14116359 0.032203816 0.4159479 -0.0974147 0.062186312 0.060747888 0.014592289 -0.40177542 -0.15656583 -0.24096672 -0.65365624 -0.20055501 0.19906497 -0.22396505 -0.38731438 0.058180388 -0.32458308 0.12735038 -0.1371485 -0.22582383 0.13997518 0.4651016 0.27465984 0.18159024 0.105799235 -0.19299382 0.20053092 0.21758686 -0.18454595 -0.2176963 0.18990548 -0.36120948 0.119864166 0.23891404 -0.1597819 -0.46057925 -0.03782579 -0.20521693 -0.47493082 -0.09795439 -0.1632719 0.036181975 0.17439511 0.033205554 0.19464503 0.2478317 0.098208934 0.004155907 0.11712949 -0.4507285 -0.0054071853 0.047322135 -0.5100307 -0.0637509 -0.0067713656 0.2318233 -0.0011880676 0.09563791 -0.10636265 -0.3628154 -0.48856172 -0.035845242 -0.45705298 -0.22485012 -0.13883017 -0.12254729
feel 0.1708901 -0.041216478 -0.16073705 0.0845228 0.27912337 -0.13323684 0.06971801 -0.08847001 -0.030112484 0.49234247 -0.11661209 -0.17228682 -0.15432318 -0.35039636 0.008218299 0.48866156 -0.2732625 0.12801142 -0.18013385 0.33979478 -0.07781058 -0.051468905 -0.46218252 -0.6399278 -0.43531242 0.28042552 -0.26379365 -0.08217533 -0.07403727 -0.25038272 -0.13043019 -0.22737807 0.20790993 -0.02356453 -0.14955562 0.48922294 0.43441564 -0.12214486 -0.102511086 0.13957158 -0.17401819 0.20758194 -0.09766253 -0.1483124 0.31036043 0.04910474 -0.32430774 -0.25069192 0.030039607 0.02755339 0.45449063 0.22397918 0.048195325 0.2172326 -0.231373 -0.12446571 0.46300754 -0.11565624 -0.23205103 -0.049573377 -0.27645025 0.25148985 0.13571362 0.018681213 0.41193026 -0.0878081 0.06791599 0.04259557 0.0065920255 -0.40378758 -0.13998194 -0.2319627 -0.62261313 -0.18959449 0.19156632 -0.23447011 -0.3717178 0.040265128 -0.31566742 0.109937966 -0.14532852 -0.22497396 0.14359257 0.44494337 0.26516473 0.1649864 0.10276487 -0.1813873 0.21048559 0.21206838 -0.19800937 -0.1959447 0.16805373 -0.3411439 0.11565396 0.21361136 -0.14162606 -0.44298655 -0.044854723 -0.21417595 -0.45971292 -0.07545276 -0.16246162 0.057787206 0.17354034 0.047951784 0.18643492 0.22940879 0.10904337 -0.0047348985 0.11982633 -0.43705103 -0.013968595 0.032597568 -0.48678324 -0.048917882 -0.008415342 0.2208713 -0.008907543 0.091999084 -0.096084386 -0.3499836 -0.47511342 -0.023224713 -0.43928364 -0.22053237 -0.14190076 -0.109198324
want 0.13889533 -0.018779902 -0.10835415 0.061299615 0.20464256 -0.09326986 0.059956428 -0.061536867 -0.0049943645 0.33910912 -0.08360903 -0.12384088 -0.10712504 -0.22554505 0.010666452 0.33916134 -0.18659908 0.078182474 -0.12280479 0.23905496 -0.05316624 -0.03032439 -0.30954447 -0.42755812 -0.30672336 0.19318755 -0.1688461 -0.05981291 -0.065466024 -0.17258073 -0.085095584 -0.16380328 0.13718209 -0.021499416 -0.116493255 0.31904027 0.30670643 -0.0990785 -0.07826882 0.10210291 -0.13920079 0.14377093 -0.06761424 -0.08292772 0.20696943 0.02457806 -0.2310915 -0.16389948 0.027734162 0.032392863 0.30007127 0.1636492 0.039305832 0.14568107 -0.15702333 -0.08661143 0.31743684 -0.08222204 -0.15797399 -0.028767172 -0.18997973 0.17913885 0.0919849 0.016230298 0.2720293 -0.06270179 0.060243353 0.035398994 0.01784637 -0.2724012 -0.09589887 -0.1494244 -0.41463444 -0.13207719 0.12787794 -0.17660579 -0.25942636 0.02510024 -0.20906545 0.09342868 -0.087607495 -0.15319714 0.10697392 0.29408577 0.18837196 0.111706674 0.081998006 -0.11212571 0.14736825 0.13309151 -0.12778816 -0.14508504 0.11562581 -0.25228333 0.090265766 0.14992175 -0.095092125 -0.2969233 -0.031327303 -0.13554884 -0.30470467 -0.05081533 -0.111285 0.037886586 0.1179633 0.012485671 0.120723344 0.17033415 0.0713062 0.000660885 0.09716816 -0.30881497 -0.021096619 0.018908307 -0.33009058 -0.022244662 0.00059595803 0.14996995 0.00934995 0.047094025 -0.060871087 -0.24274045 -0.34222752 -0.016874889 -0.30523348 -0.16480593 -0.09119755 -0.07078219
eat 0.1689516 -0.035379943 -0.12950765 0.08949601 0.25953397 -0.13769731 0.07201634 -0.06408144 -0.024897123 0.4181018 -0.10595103 -0.15148592 -0.1339626 -0.30085438 0.0039458415 0.45451617 -0.23540132 0.10627072 -0.156461 0.3080313 -0.07455917 -0.046678014 -0.42136753 -0.5920326 -0.38648757 0.2330351 -0.2411218 -0.07525561 -0.079518296 -0.24515797 -0.123593464 -0.22381824 0.192455 -0.017119523 -0.13289644 0.44837734 0.4015478 -0.12574458 -0.08972654 0.14053236 -0.1699149 0.19034238 -0.07891069 -0.12173014 0.28539738 0.036189508 -0.2939617 -0.22616439 0.035719603 0.021155115 0.40639675 0.20776223 0.058981273 0.18167832 -0.20621471 -0.11197643 0.4217408 -0.10997405 -0.21032162 -0.044203673 -0.23479058 0.24251083 0.13043551 0.032212973 0.37819418 -0.087107405 0.05590708 0.051030006 0.012669963 -0.36210248 -0.1399301 -0.21270925 -0.56162864 -0.1681755 0.1773181 -0.22738065 -0.33910793 0.037032053 -0.2822656 0.117391996 -0.13307288 -0.19950202 0.13911828 0.3973239 0.24391608 0.16548711 0.09623541 -0.16352716 0.19419473 0.18339792 -0.1733457 -0.18083686 0.14909877 -0.31612402 0.09150967 0.19997752 -0.1250209 -0.3874428 -0.040850684 -0.1955339 -0.40778157 -0.06897442 -0.14817531 0.04754464 0.14384408 0.025822204 0.1495323 0.22015972 0.09401357 -0.0049134875 0.13503155 -0.41775942 -0.01613932 0.0190252 -0.4589468 -0.061689585 0.0038533546 0.18500486 -0.011942013 0.064041734 -0.09771514 -0.31853127 -0.438636 -0.018230032 -0.3936988 -0.2140056 -0.12692527 -0.08889388
bulimia 0.14728528 -0.045827888 -0.15110867 0.08765037 0.26384997 -0.127574 0.06766242 -0.084359944 -0.029520828 0.4518305 -0.1075204 -0.1534935 -0.13055886 -0.33360693 0.016922712 0.47506192 -0.23875588 0.112359025 -0.14722618 0.31929788 -0.085560195 -0.037088506 -0.41870454 -0.610833 -0.4226873 0.26769686 -0.23950955 -0.07786895 -0.08410784 -0.23426186 -0.12143957 -0.21480438 0.20915328 -0.025457725 -0.14482787 0.47268417 0.4209662 -0.12320202 -0.09638319 0.12226723 -0.15799618 0.19289736 -0.076740414 -0.13577148 0.3104343 0.04317634 -0.3124107 -0.23015785 0.02113746 0.024323322 0.41549006 0.21864581 0.056340937 0.19400999 -0.21949638 -0.13663554 0.43410498 -0.08824412 -0.22160539 -0.05438763 -0.27505141 0.23038308 0.11986614 0.023262743 0.3739141 -0.088400386 0.0500772 0.06536329 0.009642969 -0.3688075 -0.1294654 -0.21884109 -0.58275956 -0.1885804 0.1834081 -0.21723987 -0.35618952 0.04582444 -0.30530697 0.10510511 -0.14485766 -0.21779634 0.12212301 0.40439147 0.26729888 0.17131616 0.10863715 -0.1711361 0.18708535 0.19243275 -0.17874567 -0.1916995 0.15116957 -0.32723403 0.10102046 0.21586576 -0.13773349 -0.41834164 -0.027211647 -0.1967614 -0.42269194 -0.08909406 -0.14304611 0.04208241 0.17250592 0.05028184 0.17672028 0.23031265 0.092240766 0.0017763883 0.11011883 -0.40453532 -0.009375753 0.03298396 -0.4604955 -0.064065225 -0.03491584 0.18765354 0.0057011386 0.101571314 -0.108813 -0.32673872 -0.4373713 -0.030542815 -0.41644114 -0.23335834 -0.14841644 -0.104936145
food 0.1505961 -0.03770312 -0.12405089 0.06825931 0.22744375 -0.12106008 0.0622205 -0.0557823 -0.026416253 0.3928443 -0.09380972 -0.13676584 -0.11954055 -0.28140628 0.0038253753 0.40169093 -0.2086923 0.102363974 -0.1350932 0.28638417 -0.0653357 -0.031918325 -0.36139384 -0.51345265 -0.3575788 0.2208717 -0.20407966 -0.052949272 -0.06957753 -0.20413452 -0.11470642 -0.18462585 0.1562871 -0.018774219 -0.12035985 0.3881274 0.35310867 -0.09784156 -0.07215318 0.10777706 -0.13769297 0.17898813 -0.08058137 -0.120651186 0.2513349 0.033833127 -0.2626352 -0.19802065 0.021766605 0.025971618 0.3639551 0.17350465 0.04003947 0.16408652 -0.18071286 -0.10408832 0.37586603 -0.09371676 -0.19443697 -0.041451983 -0.21973048 0.20086686 0.10048113 0.026230613 0.3211107 -0.074889414 0.062173966 0.046608325 0.010313441 -0.32348126 -0.116304494 -0.19138 -0.49489182 -0.15544154 0.14355813 -0.19403617 -0.30086267 0.03365763 -0.2532171 0.08829849 -0.102925554 -0.17493185 0.12107158 0.34568086 0.20867242 0.14441036 0.08691834 -0.14873634 0.1655752 0.17119896 -0.16375707 -0.16137105 0.12471333 -0.2880358 0.081233345 0.17963359 -0.09947289 -0.35313955 -0.03462068 -0.17319787 -0.37062088 -0.056300603 -0.13458115 0.04944501 0.13839534 0.028492196 0.14771728 0.19146076 0.0877598 0.0046869484 0.10833593 -0.35954544 -0.021897437 0.030814141 -0.39005324 -0.03452506 -0.0062094633 0.17026019 -0.0062283473 0.074587025 -0.09224905 -0.2917316 -0.38631928 -0.022705333 -0.3531917 -0.18626985 -0.12188943 -0.084646806
get 0.19398014 -0.038596947 -0.17087732 0.101289965 0.2920498 -0.1424561 0.08453671 -0.081221044 -0.020239413 0.5044503 -0.11635547 -0.1805571 -0.16064964 -0.34931087 0.015630959 0.5249621 -0.28069702 0.13610767 -0.18470177 0.36976266 -0.07600175 -0.040741686 -0.47724771 -0.6714662 -0.4694174 0.29271078 -0.27795318 -0.0829539 -0.0833894 -0.2599614 -0.15262268 -0.24474958 0.21772243 -0.030986128 -0.15989788 0.50959843 0.47070253 -0.12274151 -0.099911794 0.14427228 -0.20343865 0.22487731 -0.09016547 -0.15715697 0.31407532 0.033474125 -0.3504127 -0.26854795 0.031208135 0.025928728 0.4789063 0.23192814 0.05743657 0.2282551 -0.24243549 -0.1194623 0.49164805 -0.12173504 -0.25589114 -0.055726983 -0.2985874 0.26351815 0.13608585 0.01802123 0.4233646 -0.0857156 0.07929986 0.052380096 0.014221833 -0.41000134 -0.15172772 -0.23022217 -0.6527934 -0.1997051 0.18976632 -0.24308352 -0.387898 0.05208042 -0.32940355 0.13140139 -0.14192443 -0.24060956 0.14865845 0.44776636 0.2816152 0.1783713 0.123154074 -0.18585308 0.21484439 0.22987844 -0.21220337 -0.21621822 0.16191423 -0.37678698 0.11916615 0.22208187 -0.14868091 -0.45873326 -0.036611468 -0.22998157 -0.4767174 -0.09677799 -0.16625454 0.049622696 0.17789231 0.04872233 0.20044962 0.24816822 0.097197466 -0.0150057655 0.14978662 -0.45503432 -0.021310268 0.030599883 -0.50270295 -0.05892827 -0.02298578 0.2178057 0.0077055464 0.102233425 -0.10664305 -0.3812653 -0.4977733 -0.031463858 -0.44672456 -0.25608748 -0.16738409 -0.11246123
recovery 0.14004278 -0.03802569 -0.13453846 0.08488799 0.24049538 -0.13026012 0.077877335 -0.06925908 -0.023477254 0.41681212 -0.09828456 -0.14203048 -0.13036658 -0.2859122 0.005556721 0.43915755 -0.22694531 0.09711912 -0.15003543 0.28350633 -0.07747487 -0.03944936 -0.3833811 -0.5637605 -0.36712295 0.23664922 -0.23291595 -0.059053846 -0.082177676 -0.21997295 -0.111599974 -0.19323866 0.19242455 -0.01213654 -0.13991402 0.42363167 0.38845623 -0.11037623 -0.09448815 0.11838505 -0.15715724 0.17518981 -0.06904173 -0.12819105 0.28180796 0.035729736 -0.28922668 -0.22156209 0.026414242 0.034313463 0.37534636 0.20337828 0.05807565 0.18196434 -0.19577323 -0.111018285 0.3962106 -0.08080246 -0.2058473 -0.033941727 -0.24892905 0.21761642 0.120374404 0.030277517 0.33368897 -0.0770985 0.068199866 0.038670223 0.011995175 -0.33463144 -0.11425177 -0.19868684 -0.53975683 -0.16694197 0.15998077 -0.21346165 -0.31536475 0.022410195 -0.27519396 0.09530087 -0.11717024 -0.19924597 0.12101407 0.37383342 0.22429608 0.16589826 0.10631482 -0.15805574 0.17683081 0.186454 -0.16758835 -0.17410108 0.1326579 -0.30487812 0.10089262 0.17641205 -0.11145577 -0.38185668 -0.03865483 -0.17499363 -0.38650927 -0.084052235 -0.14170921 0.024265723 0.1580433 0.05260791 0.16489498 0.20567669 0.077969916 0.0010705104 0.10659159 -0.3673241 -0.005683623 0.029328745 -0.40853673 -0.05499265 -0.02623469 0.17745084 -0.012791703 0.08258915 -0.09512963 -0.30656144 -0.41484794 -0.03431912 -0.37738755 -0.21229526 -0.12120562 -0.105302185
way 0.13586548 -0.03162736 -0.12750256 0.06555395 0.21804602 -0.1199404 0.0558518 -0.07607265 -0.027764292 0.37847817 -0.0886018 -0.1258006 -0.12500566 -0.26424292 0.0070348755 0.394813 -0.21905471 0.1068887 -0.13303463 0.28416595 -0.07259137 -0.03513016 -0.36330858 -0.5031245 -0.35281596 0.2129823 -0.19799134 -0.06004744 -0.0622914 -0.19185814 -0.099692345 -0.1875738 0.16899085 -0.012879403 -0.1363753 0.38630953 0.34659618 -0.10258879 -0.08324439 0.11598159 -0.15512305 0.16409695 -0.074411914 -0.115392596 0.23973751 0.03180783 -0.27027744 -0.20747115 0.019180715 0.011864405 0.36127132 0.19011623 0.034207534 0.15661599 -0.18550722 -0.09860944 0.36823583 -0.0880656 -0.1815523 -0.040383358 -0.21797208 0.20907512 0.09753674 0.009055648 0.32767993 -0.0651753 0.057333145 0.032820985 0.005952827 -0.31800735 -0.12586525 -0.19021553 -0.49425763 -0.15716735 0.15123178 -0.17856549 -0.30228823 0.02894745 -0.24480528 0.09605593 -0.11357841 -0.18136883 0.121380724 0.35773307 0.21546395 0.13979664 0.08803256 -0.14170855 0.15896076 0.16537784 -0.14779769 -0.15633166 0.12537086 -0.26684248 0.09209372 0.18126199 -0.11920013 -0.3438923 -0.026946757 -0.16430476 -0.36821848 -0.05368611 -0.12725766 0.04641789 0.13328134 0.022050234 0.15611292 0.17720358 0.077332176 0.00522188 0.09840125 -0.33895501 -0.012599742 0.026970776 -0.39600033 -0.032877948 -0.013765807 0.17554171 0.005756412 0.07486061 -0.076402955 -0.27288643 -0.38058352 -0.021366829 -0.3492909 -0.18674383 -0.114136316 -0.08690046
day 0.1791383 -0.018190393 -0.14837302 0.08804222 0.2861763 -0.13666862 0.086557366 -0.05934686 -0.022864992 0.48282695 -0.10019561 -0.16953762 -0.15220143 -0.32411787 0.0006461977 0.46453822 -0.24367401 0.13393243 -0.15137811 0.31616184 -0.061168976 -0.05432651 -0.45602345 -0.6370962 -0.41451946 0.26625735 -0.2401218 -0.07491486 -0.0581776 -0.23032802 -0.14960594 -0.23324576 0.19510458 -0.028514583 -0.14565375 0.47235763 0.43153912 -0.11614309 -0.083957 0.130353 -0.18077204 0.23153345 -0.07731179 -0.14510486 0.2947578 0.04985922 -0.3103004 -0.25634483 0.045123223 0.019616242 0.44001615 0.21658152 0.037207637 0.20513655 -0.21455222 -0.098387524 0.45192286 -0.09245915 -0.23010173 -0.038830936 -0.2802797 0.24760312 0.14591052 0.010590797 0.40473935 -0.07592147 0.059465203 0.041881677 0.025000216 -0.36462927 -0.1384803 -0.2284593 -0.61566746 -0.19008027 0.19207011 -0.24652682 -0.35386905 0.04450315 -0.3093272 0.10451907 -0.15059745 -0.21762766 0.14056857 0.43490967 0.26013166 0.16854212 0.09319301 -0.18081678 0.20104688 0.21448258 -0.19281757 -0.20888206 0.13606948 -0.3357846 0.09243489 0.22496434 -0.13474719 -0.43050665 -0.054431807 -0.20370969 -0.46089706 -0.07891415 -0.15380695 0.04486991 0.17193356 0.046036214 0.18550318 0.22653654 0.09178224 -0.0109695345 0.1216709 -0.40757883 -0.026736867 0.02036115 -0.49135625 -0.058311872 -0.013650117 0.18270603 -0.013887625 0.10028085 -0.09289546 -0.3559842 -0.45772055 -0.029563084 -0.3951403 -0.24435732 -0.13550544 -0.09422486
year 0.17286181 -0.05041284 -0.15870379 0.09159309 0.28820133 -0.14121519 0.09691118 -0.076082274 -0.030457363 0.48837703 -0.12460366 -0.16242713 -0.14686067 -0.34838682 0.003990687 0.5082226 -0.25652787 0.12677741 -0.16883287 0.35340196 -0.08992664 -0.04793975 -0.47014755 -0.66578436 -0.45822775 0.28320116 -0.2786471 -0.06576764 -0.0924707 -0.25694102 -0.15260409 -0.23361258 0.22602506 -0.02253577 -0.15751639 0.50649667 0.45652163 -0.1290195 -0.10743094 0.13454473 -0.1830458 0.22630633 -0.08982426 -0.15626699 0.31914836 0.03177845 -0.33239388 -0.26298806 0.03664442 0.035721343 0.46072713 0.2365043 0.06091404 0.2051906 -0.24208143 -0.13697627 0.4680591 -0.11467507 -0.23704672 -0.045676395 -0.295466 0.25779203 0.14663061 0.036188908 0.4191357 -0.08039449 0.076613426 0.057647333 0.024840154 -0.4107717 -0.14512965 -0.23364463 -0.6452941 -0.2048514 0.18126962 -0.23999491 -0.38309166 0.0313995 -0.3186051 0.12654062 -0.1330954 -0.22994636 0.13756073 0.44546944 0.2861252 0.19048263 0.1139484 -0.19831698 0.2160157 0.2078722 -0.2158179 -0.20675127 0.15331472 -0.3523628 0.101726085 0.21634029 -0.12914793 -0.44818965 -0.045645848 -0.2288449 -0.47034594 -0.0735958 -0.16444744 0.035247236 0.1897003 0.06422138 0.18445826 0.2364732 0.110165715 -0.00022335637 0.14156657 -0.45645136 -0.028643884 0.02204179 -0.49720484 -0.07021052 -0.027026393 0.2009205 0.00078071316 0.10611037 -0.12896696 -0.37900144 -0.49489868 -0.042097144 -0.44471914 -0.24485217 -0.15662779 -0.10986052
lot 0.16718063 -0.027631668 -0.16542353 0.09276987 0.25126383 -0.12875064 0.07919905 -0.092680365 -0.0071560596 0.46670225 -0.11431104 -0.17032976 -0.13254654 -0.326082 -0.0014781342 0.46601677 -0.2549149 0.10784273 -0.17117512 0.3170082 -0.07309438 -0.033547178 -0.42317986 -0.6004028 -0.4113622 0.25363606 -0.24625756 -0.086937614 -0.06496818 -0.23828036 -0.13914907 -0.21802416 0.17387158 -0.03083309 -0.13341646 0.47143975 0.41221553 -0.108538084 -0.084202446 0.12936185 -0.17026854 0.18658762 -0.089137875 -0.13676353 0.2909303 0.042693064 -0.3177788 -0.24603564 0.027804837 0.026445504 0.4153209 0.21553445 0.051028233 0.19688872 -0.21969377 -0.1170429 0.44447288 -0.09616606 -0.22458325 -0.04676471 -0.26708186 0.23605841 0.12613052 0.023372883 0.38386992 -0.090198174 0.061609056 0.0449738 0.011356023 -0.37556693 -0.124355026 -0.21012153 -0.5964315 -0.17925137 0.16787185 -0.2294273 -0.3652196 0.052595753 -0.28367463 0.12844095 -0.12951635 -0.21778211 0.13381428 0.42467397 0.26322898 0.17289154 0.11260419 -0.16730954 0.19574237 0.19733557 -0.18189524 -0.19310097 0.16329424 -0.32208508 0.10890159 0.2015794 -0.13913172 -0.40802822 -0.041899834 -0.19651957 -0.42583233 -0.07339483 -0.1601097 0.050880127 0.16099523 0.030027512 0.18049935 0.21298984 0.07924708 -0.0068037906 0.12170765 -0.41216293 -0.005697806 0.037721574 -0.45830503 -0.04340187 -0.0082446495 0.21354717 0.003702661 0.09681207 -0.08935885 -0.33485153 -0.45157453 -0.013674315 -0.40347457 -0.22640403 -0.15045066 -0.10305576
make 0.16775186 -0.041589186 -0.13522987 0.08104533 0.2550145 -0.121463194 0.06766294 -0.082630925 -0.025034131 0.4373734 -0.10396422 -0.16075811 -0.14293897 -0.30877978 0.0031832275 0.43809083 -0.23959057 0.107860014 -0.1653721 0.30565205 -0.07582529 -0.04576156 -0.4093717 -0.59041667 -0.39954352 0.24926959 -0.24572729 -0.07882397 -0.07825144 -0.23820098 -0.13067886 -0.2051013 0.18218449 -0.020804498 -0.12521006 0.44228682 0.40010318 -0.10762568 -0.092339724 0.134604 -0.1590265 0.18518265 -0.09219192 -0.1273346 0.28102973 0.029620823 -0.29373717 -0.23520549 0.021500476 0.024416227 0.40789658 0.20961745 0.04706543 0.1881648 -0.2059106 -0.10965245 0.42721936 -0.10655158 -0.21132728 -0.035356466 -0.24642445 0.22938144 0.13377132 0.02988005 0.36641964 -0.08375469 0.06554688 0.04396903 0.0054347496 -0.36428174 -0.13480218 -0.2069357 -0.5684545 -0.18367374 0.17264973 -0.2167346 -0.33558634 0.03853222 -0.2915428 0.10195222 -0.13089664 -0.19867991 0.1354953 0.39285344 0.2428503 0.16439977 0.101681784 -0.15846886 0.18057789 0.20263624 -0.18430945 -0.18235199 0.14650553 -0.32496426 0.096451394 0.19604884 -0.12846816 -0.40401846 -0.0444843 -0.18958056 -0.4066235 -0.074212745 -0.14653699 0.04720739 0.16469213 0.031260148 0.15856308 0.20828904 0.096303195 -0.007656437 0.11335801 -0.4032742 -0.0042684 0.016650844 -0.45072392 -0.03834482 -0.020017134 0.1953137 -0.0035076889 0.092226006 -0.09112527 -0.32530645 -0.43423313 -0.016506886 -0.39151326 -0.20639399 -0.1462389 -0.08330411
know 0.15938774 -0.039577354 -0.13732842 0.076622635 0.24477653 -0.1376915 0.073561236 -0.07926756 -0.021308463 0.43270662 -0.10379218 -0.15387861 -0.12717196 -0.3070141 0.015551394 0.45673004 -0.23752019 0.10114424 -0.14459118 0.31157887 -0.07184267 -0.033501904 -0.41457677 -0.5771486 -0.3895655 0.2426994 -0.21939346 -0.07576896 -0.08041395 -0.23003612 -0.11310104 -0.21442148 0.18748002 -0.03190599 -0.1352876 0.43032652 0.4021301 -0.124939166 -0.090771146 0.12746769 -0.16086578 0.19102955 -0.089190945 -0.117748395 0.28774703 0.039516307 -0.3074831 -0.23284495 0.023889318 0.0257219 0.40976557 0.20286402 0.051505834 0.18131234 -0.19653413 -0.1071101 0.41485238 -0.1033691 -0.22046772 -0.04955849 -0.24227425 0.2431843 0.12150418 0.029336179 0.37191924 -0.07689536 0.05684515 0.051645402 0.016795855 -0.36513662 -0.13883905 -0.21432458 -0.5522132 -0.17914622 0.16999042 -0.22632928 -0.3269953 0.037377905 -0.27756056 0.1094363 -0.13473426 -0.20247588 0.12997466 0.380514 0.25885898 0.15289478 0.1166001 -0.16684917 0.1874567 0.18106355 -0.18306702 -0.17540745 0.1419269 -0.32381997 0.09370863 0.20224923 -0.11775016 -0.40439025 -0.044015326 -0.20091213 -0.39431852 -0.08424735 -0.14675638 0.044708017 0.16473755 0.026553448 0.17041752 0.20170933 0.09806996 0.0006519239 0.11377976 -0.38619262 -0.014816921 0.022048663 -0.43583924 -0.058492128 -0.0034148279 0.17576411 -0.010777341 0.07362336 -0.096727565 -0.3141165 -0.44548506 -0.018471818 -0.4009608 -0.21291414 -0.12609184 -0.09426715
anyone 0.16363907 -0.042789344 -0.14083578 0.08152241 0.2543693 -0.12931558 0.0756445 -0.06524677 -0.025504975 0.44472083 -0.10812607 -0.15173483 -0.13806574 -0.31830424 0.011441639 0.44998673 -0.23469934 0.11649155 -0.16329995 0.32326293 -0.07078004 -0.032018658 -0.4021388 -0.59340775 -0.40171853 0.23989302 -0.23202099 -0.07241305 -0.08378459 -0.22781049 -0.12084044 -0.20433483 0.18453695 -0.022852441 -0.14597866 0.44718388 0.39878973 -0.12049138 -0.09044059 0.12800723 -0.16560853 0.19139223 -0.08936175 -0.12816511 0.28449574 0.03476344 -0.2985404 -0.22765577 0.020880962 0.017414479 0.415647 0.19725183 0.046833035 0.18674134 -0.2153763 -0.10928379 0.42328185 -0.101019725 -0.20355661 -0.04237896 -0.2538504 0.2312741 0.120773934 0.03695729 0.36990714 -0.07008927 0.050121248 0.044163015 0.020674877 -0.3525202 -0.12412278 -0.21192923 -0.55748916 -0.1908592 0.17870304 -0.22661291 -0.33237648 0.04026932 -0.29298455 0.105593696 -0.13406317 -0.2157739 0.129238 0.39426744 0.24494942 0.16861685 0.09599561 -0.16229759 0.19207844 0.18392721 -0.1862111 -0.18327054 0.13755576 -0.3193153 0.10052326 0.20890984 -0.10745155 -0.40298125 -0.028270276 -0.20164582 -0.3938098 -0.08921512 -0.14998177 0.043458834 0.15201885 0.032719802 0.16392611 0.20933783 0.08528502 -0.013889449 0.11482002 -0.38723686 -0.010678779 0.024310188 -0.4294971 -0.055363756 -0.0037463268 0.19411553 0.0020915626 0.084324084 -0.0996209 -0.31818584 -0.44050306 -0.017331164 -0.39615682 -0.20082879 -0.12936106 -0.09853728
time 0.1766762 -0.032200582 -0.14721064 0.10432266 0.26132855 -0.14840461 0.09071763 -0.06862293 -0.02359233 0.46173078 -0.1074768 -0.16924326 -0.14230895 -0.319181 0.020113181 0.45555013 -0.24629134 0.114171505 -0.16943555 0.32296014 -0.07352451 -0.024860378 -0.44396046 -0.61280954 -0.41737372 0.26576784 -0.24596457 -0.057798807 -0.06427956 -0.25030068 -0.13662514 -0.22052404 0.18728824 -0.029611053 -0.1577564 0.45915046 0.4271408 -0.113205805 -0.07719721 0.14086942 -0.18715732 0.20910978 -0.07560187 -0.13039604 0.29784703 0.04351914 -0.3209183 -0.22791179 0.039314725 0.045000624 0.41321573 0.22158572 0.061650574 0.2065185 -0.21731824 -0.10816174 0.43410116 -0.11315586 -0.22628695 -0.03508606 -0.2513244 0.24388294 0.12118054 0.032750286 0.3914236 -0.08864431 0.05843543 0.04360282 0.016870193 -0.37357095 -0.12826161 -0.21227206 -0.601053 -0.18784013 0.19411077 -0.2347615 -0.36272225 0.05001562 -0.2962451 0.12810396 -0.1383061 -0.22608975 0.13844432 0.40950534 0.24988288 0.1735486 0.11432516 -0.17381579 0.2032843 0.2064363 -0.19391254 -0.20222601 0.1420226 -0.32289514 0.094651684 0.20818107 -0.13832347 -0.43267035 -0.049198784 -0.1962419 -0.44364113 -0.08092171 -0.14643253 0.049806263 0.15111019 0.040067796 0.17847532 0.21405593 0.08463372 0.00434316 0.13206463 -0.41597417 -0.006367861 0.033575717 -0.4761318 -0.061829433 -0.02156633 0.20306893 -0.00069897115 0.08056585 -0.102382116 -0.34966487 -0.4519408 -0.017926358 -0.40763575 -0.22951117 -0.13127747 -0.107594185
people 0.18663317 -0.043080885 -0.16250376 0.10309718 0.26960617 -0.15129676 0.08622271 -0.06751302 -0.015399416 0.4681622 -0.11470202 -0.17268425 -0.15227102 -0.33473757 0.017997673 0.4937401 -0.26819167 0.12616952 -0.15994057 0.34023002 -0.07787945 -0.04404296 -0.44274056 -0.6286891 -0.42935455 0.26633742 -0.2590921 -0.08397169 -0.0832066 -0.25517526 -0.1246403 -0.23381524 0.20078771 -0.01792663 -0.15974502 0.47105533 0.44042015 -0.12863632 -0.08329943 0.14685583 -0.18067355 0.21082535 -0.09344788 -0.12671272 0.3008023 0.04633528 -0.31434155 -0.23225524 0.02977303 0.03348836 0.4414859 0.22222394 0.045855045 0.1998586 -0.2351288 -0.13231845 0.46482828 -0.11084981 -0.23724195 -0.054277427 -0.27783933 0.24368674 0.12404389 0.0263135 0.40542087 -0.09693339 0.07614309 0.050384372 0.0060560564 -0.38764587 -0.13594632 -0.22618487 -0.6221832 -0.19266029 0.17915323 -0.23910116 -0.37345654 0.033012718 -0.30302492 0.12235546 -0.13649549 -0.2304613 0.1477622 0.42742047 0.2775485 0.1679529 0.11571634 -0.19736247 0.19837935 0.21185495 -0.19648932 -0.19615895 0.17337157 -0.33480474 0.116021164 0.2174478 -0.14644054 -0.4251662 -0.03582369 -0.21176915 -0.44393197 -0.08246256 -0.15486321 0.043388274 0.16675483 0.022506773 0.18727607 0.23491085 0.09094623 0.00403614 0.12453763 -0.42139927 -0.007046529 0.035903975 -0.49358055 -0.042386778 0.0044326377 0.21635643 0.0032777728 0.087803036 -0.1020298 -0.35825124 -0.47676873 -0.03178532 -0.4353688 -0.22019753 -0.13638005 -0.09769667
weight 0.14593111 -0.020228086 -0.1265217 0.06315464 0.2087417 -0.10729693 0.06164579 -0.062730476 -0.0038147848 0.3546904 -0.093379915 -0.13565479 -0.09859848 -0.24575596 0.012272545 0.36412463 -0.1874462 0.081825756 -0.13307446 0.25457874 -0.06509192 -0.03339527 -0.3263917 -0.4635125 -0.32614675 0.20703815 -0.17400509 -0.06404213 -0.05782532 -0.18190554 -0.09965163 -0.1663322 0.14905347 -0.028447952 -0.12651981 0.35707662 0.31701794 -0.09264512 -0.08236618 0.09523841 -0.13516529 0.15435818 -0.078015104 -0.11086643 0.22519748 0.019430865 -0.23456086 -0.18340552 0.03195385 0.019486886 0.32012904 0.1745784 0.03487707 0.1608844 -0.15836458 -0.10367596 0.34587207 -0.08737084 -0.17969981 -0.027344385 -0.20062847 0.1907746 0.08529055 0.0066483454 0.29948246 -0.060826834 0.057107493 0.037472144 0.01548229 -0.28553593 -0.08746289 -0.15643987 -0.44110647 -0.14104636 0.14075734 -0.18153091 -0.2785041 0.039680023 -0.22117108 0.091775306 -0.086907506 -0.17564526 0.1074087 0.31889907 0.21038184 0.12077483 0.08366181 -0.13265976 0.14859226 0.15077326 -0.1479605 -0.14484301 0.1152926 -0.25666586 0.085210115 0.15743479 -0.11020429 -0.31074917 -0.020400362 -0.14929831 -0.32676774 -0.05658576 -0.11792129 0.041201226 0.12888129 0.02392918 0.14786893 0.17332257 0.07721966 -0.0046113566 0.098805964 -0.32388532 -0.0030721962 0.032166637 -0.3494625 -0.028326282 0.0044313837 0.16444854 0.0046237037 0.066202156 -0.07136971 -0.25182727 -0.34535316 -0.010349543 -0.32414383 -0.16806719 -0.111646324 -0.088180855
purge 0.13531826 -0.024809394 -0.12250321 0.073227435 0.2221948 -0.10774267 0.061721798 -0.054309383 -0.007818633 0.38779345 -0.0825956 -0.124037124 -0.1142671 -0.26777452 -8.229618e-05 0.37815645 -0.20061095 0.10431579 -0.14021713 0.2725242 -0.06701775 -0.041878223 -0.36138254 -0.51277673 -0.3476481 0.21081811 -0.20370279 -0.05914523 -0.06586364 -0.19191355 -0.10686812 -0.18072043 0.15199581 -0.019096028 -0.106605895 0.3864607 0.33221975 -0.09890959 -0.07447887 0.10887208 -0.1505046 0.17357661 -0.08082724 -0.116556935 0.24202779 0.024477214 -0.25792623 -0.18986529 0.019859247 0.034243017 0.348876 0.18328305 0.043216664 0.15410002 -0.1726065 -0.083323345 0.36497965 -0.07629882 -0.17604169 -0.031078907 -0.23012191 0.20402256 0.10463556 0.017545601 0.3221298 -0.0594168 0.06482751 0.04180436 0.0154545605 -0.2959879 -0.11530687 -0.17459919 -0.4796933 -0.15793677 0.15208122 -0.19794358 -0.27490926 0.043047316 -0.24029401 0.10120918 -0.10863294 -0.18430495 0.11281475 0.34731907 0.20504811 0.13606521 0.09699546 -0.13920662 0.1574153 0.16726193 -0.14810821 -0.17085162 0.12383634 -0.27408656 0.07784275 0.16128254 -0.11336607 -0.3556829 -0.0365567 -0.17252555 -0.36878476 -0.07006372 -0.13161907 0.043191038 0.14282516 0.030523201 0.13739832 0.17025873 0.07539309 -0.006448481 0.10450726 -0.33540446 -0.013343898 0.022288159 -0.39441717 -0.050209224 -0.019080514 0.15672438 0.005093858 0.07996531 -0.07963501 -0.28549328 -0.36430675 -0.021082819 -0.33695465 -0.16799147 -0.117069535 -0.079778366
could 0.16845684 -0.045874536 -0.16810952 0.09509719 0.28376547 -0.15004906 0.08707088 -0.07174203 -0.026891477 0.4919894 -0.1229567 -0.18055877 -0.16393168 -0.34371546 0.016539814 0.5007945 -0.27095452 0.13407136 -0.17357022 0.34330496 -0.06939639 -0.030193143 -0.4743598 -0.6704473 -0.43726087 0.27202648 -0.26467237 -0.0755464 -0.072757974 -0.25779617 -0.13533318 -0.23735632 0.20048814 -0.030972144 -0.16126855 0.50369614 0.44130698 -0.12712151 -0.08994879 0.13187021 -0.17852248 0.20920487 -0.09966424 -0.13639227 0.31266925 0.040290363 -0.34303722 -0.2578071 0.025129868 0.026459789 0.4667234 0.24193057 0.061382275 0.21340412 -0.23399082 -0.113485955 0.46762297 -0.10736408 -0.23315716 -0.041879963 -0.28326413 0.26523528 0.14421093 0.026946146 0.41236416 -0.07682532 0.076582864 0.054959323 0.016271299 -0.40369236 -0.15573716 -0.23620415 -0.646802 -0.20525171 0.18564473 -0.2449475 -0.36807257 0.054687113 -0.30608562 0.12923434 -0.14572932 -0.23087832 0.14344549 0.4355495 0.28907928 0.1738972 0.1219434 -0.18820898 0.20013477 0.21488845 -0.2100759 -0.20429078 0.16366358 -0.36342636 0.121259324 0.22426744 -0.1282096 -0.448426 -0.049919486 -0.2236097 -0.45580652 -0.078173086 -0.16988292 0.048567805 0.17827733 0.04142799 0.18037152 0.23242728 0.102613874 -0.0053413156 0.14119296 -0.4387123 -0.026440771 0.034316678 -0.50870603 -0.06587333 -0.017709982 0.20452067 0.01095251 0.0960549 -0.11839637 -0.36171526 -0.49231488 -0.040938757 -0.43532184 -0.23488197 -0.15702134 -0.098135576
look 0.14965686 -0.033867966 -0.13029452 0.084132865 0.22586973 -0.116582595 0.063502476 -0.069318384 -0.02555015 0.4245406 -0.0909902 -0.15231904 -0.12576987 -0.2937613 0.005941471 0.4190884 -0.21077916 0.10035649 -0.15736173 0.29450703 -0.0634282 -0.037765786 -0.39484617 -0.5469494 -0.36524662 0.22339812 -0.22192903 -0.0659744 -0.06258829 -0.2117397 -0.11937974 -0.18828265 0.16017403 -0.03337559 -0.12429966 0.41321576 0.3790389 -0.10844092 -0.070430405 0.114597365 -0.14833525 0.17687288 -0.07567031 -0.12748116 0.27007717 0.043426186 -0.2823787 -0.20651226 0.028824836 0.041349344 0.38810918 0.18708403 0.0382621 0.18932988 -0.19303359 -0.10724638 0.38771942 -0.08191179 -0.21057089 -0.036064085 -0.22698823 0.21809965 0.11363161 0.019086273 0.34363216 -0.08062038 0.06528567 0.05547975 0.013201508 -0.34147212 -0.124271914 -0.18787357 -0.5391116 -0.16433045 0.16732293 -0.1983679 -0.32602316 0.031598616 -0.25624478 0.10708291 -0.12186004 -0.18906084 0.12356296 0.37912935 0.2443113 0.14356495 0.11199811 -0.146071 0.17676681 0.17818688 -0.16337824 -0.1838339 0.14870548 -0.2914412 0.10508023 0.1817481 -0.12327844 -0.38425878 -0.03938781 -0.18278418 -0.39258122 -0.07518342 -0.13067241 0.037249874 0.14758965 0.031238662 0.15071832 0.18805908 0.081151925 -0.0053889924 0.09679076 -0.38155642 -0.0037151985 0.024109162 -0.42778102 -0.048715707 -0.0048222896 0.17875965 0.008462059 0.08415698 -0.07635448 -0.30206716 -0.40171614 -0.033065245 -0.37160987 -0.18457583 -0.13142876 -0.087744825
would 0.17656785 -0.04460487 -0.16330726 0.09066142 0.25783384 -0.12027533 0.068165 -0.06995318 -0.036246717 0.46227843 -0.12533815 -0.15756707 -0.1477722 -0.3235154 0.019143784 0.489114 -0.24074873 0.13520621 -0.16270687 0.33762142 -0.0832243 -0.040134247 -0.4491879 -0.6564288 -0.41879702 0.2530206 -0.23753057 -0.06736786 -0.072770365 -0.2640732 -0.117004246 -0.24253888 0.1949778 -0.018611947 -0.1468206 0.4795049 0.43315148 -0.114562064 -0.097347215 0.13827524 -0.17193632 0.19905491 -0.08186238 -0.12913805 0.3004648 0.03656192 -0.32587597 -0.24572952 0.029094279 0.029575463 0.44127625 0.22072616 0.069634676 0.20068963 -0.21779978 -0.11209097 0.46469697 -0.11474821 -0.22584058 -0.04765313 -0.28713354 0.24960004 0.122638755 0.040045187 0.39610633 -0.08218939 0.07822534 0.057276756 0.022241458 -0.38937026 -0.14343543 -0.21959817 -0.62005347 -0.2004882 0.18903358 -0.2366333 -0.3511999 0.04750322 -0.30178842 0.13395168 -0.13623984 -0.21922383 0.13846643 0.43650797 0.26818794 0.17651571 0.1158501 -0.18097624 0.20421393 0.20162341 -0.19220163 -0.21966048 0.17104849 -0.33228046 0.110978946 0.19894086 -0.13164464 -0.42292735 -0.0483055 -0.21136041 -0.4507912 -0.08761118 -0.16920437 0.048821945 0.16630107 0.036485285 0.18551575 0.22739565 0.09302504 -0.004571723 0.12787178 -0.43244362 -0.012170805 0.028927086 -0.49555933 -0.06232585 0.0020619375 0.2085015 0.010482637 0.07651635 -0.10139647 -0.34692487 -0.46876624 -0.03344485 -0.42072713 -0.22000208 -0.14965692 -0.08786446
good 0.13677272 -0.03342541 -0.13400428 0.08679294 0.22063328 -0.11178081 0.068814665 -0.060668357 -0.012485192 0.384969 -0.09298631 -0.14634942 -0.12264172 -0.28396028 0.013063377 0.39363793 -0.21279614 0.09989618 -0.12945576 0.2798315 -0.055504296 -0.03111899 -0.37474176 -0.52554005 -0.35574156 0.21131867 -0.20586996 -0.06969173 -0.06685802 -0.19907728 -0.102428675 -0.19703767 0.17293736 -0.02229934 -0.119871564 0.39610708 0.3491485 -0.10005084 -0.082146905 0.10639986 -0.1385554 0.16550253 -0.08305808 -0.11114563 0.24946749 0.0356217 -0.2699673 -0.19677724 0.020297112 0.013260501 0.3534074 0.18455526 0.042278778 0.17052846 -0.17852798 -0.10525764 0.36415052 -0.077973336 -0.19323985 -0.0414195 -0.21779422 0.21097799 0.10567094 0.022131551 0.33412844 -0.06533745 0.04800312 0.040690437 0.011428562 -0.32062978 -0.11225299 -0.17856348 -0.4956716 -0.17408563 0.15044624 -0.20138994 -0.3061074 0.039429765 -0.24925518 0.101596065 -0.111207426 -0.17727071 0.1065946 0.3508897 0.22621346 0.13202302 0.09096157 -0.13730498 0.1699466 0.17371571 -0.1715781 -0.16478437 0.123765744 -0.28876603 0.08691934 0.16841167 -0.11250609 -0.36409232 -0.024015285 -0.17849515 -0.36234155 -0.06643083 -0.13659221 0.040539134 0.13143724 0.03971164 0.15331034 0.18377393 0.084441364 -0.016760113 0.113128364 -0.36021182 -0.014222825 0.012690442 -0.40473 -0.04186745 -0.012426992 0.15660243 0.0048453696 0.07249122 -0.086831376 -0.29141867 -0.37912425 -0.021476792 -0.34578732 -0.19659823 -0.12493722 -0.08288082
happen 0.16227776 -0.049546577 -0.15358458 0.08505859 0.25969258 -0.1478882 0.081680484 -0.07672542 -0.028053625 0.46183974 -0.102212936 -0.15696628 -0.14750835 -0.33018166 0.017989796 0.4597805 -0.24496783 0.12543726 -0.16521616 0.3226278 -0.0800249 -0.04489904 -0.44024095 -0.6140222 -0.41207227 0.2609112 -0.25000066 -0.077030785 -0.06364305 -0.25521892 -0.14430188 -0.22365189 0.1863634 -0.026963282 -0.1407198 0.47690663 0.42012662 -0.11915205 -0.08407877 0.12919718 -0.16635051 0.20995283 -0.094766185 -0.13048851 0.3082259 0.02805005 -0.32222 -0.25037083 0.040839724 0.029470453 0.4388923 0.21309406 0.06361491 0.20748335 -0.21520804 -0.11398253 0.4346645 -0.12277461 -0.22315288 -0.03438778 -0.25488904 0.2515857 0.13059193 0.037767068 0.37957025 -0.08239898 0.06431387 0.052073166 0.020199964 -0.38198957 -0.12998994 -0.22810875 -0.6049248 -0.20063132 0.17771484 -0.219043 -0.36175272 0.04679729 -0.286375 0.13081612 -0.14412385 -0.22161241 0.14817908 0.42716792 0.2645694 0.16598384 0.118318476 -0.17734164 0.20523019 0.19748893 -0.18928707 -0.1961044 0.15397462 -0.32874626 0.11285564 0.21083462 -0.13573743 -0.42869928 -0.033276446 -0.20361552 -0.43599132 -0.06859935 -0.15869221 0.04343197 0.17551906 0.043775443 0.17583404 0.21262828 0.09550401 -0.006399039 0.1392621 -0.41912186 -0.013118296 0.03449119 -0.4773282 -0.062792875 -0.011283777 0.19892615 0.0041678017 0.09880073 -0.1045206 -0.3394386 -0.460962 -0.022900896 -0.4214847 -0.23406757 -0.15214266 -0.107338965
try 0.1915792 -0.03257491 -0.15485814 0.09758325 0.27425343 -0.15174246 0.07780769 -0.06995802 -0.025127603 0.48197845 -0.111147225 -0.18003948 -0.14366083 -0.34064487 0.020441353 0.5022956 -0.2579198 0.118889794 -0.17605835 0.3529894 -0.09018187 -0.038730238 -0.4695389 -0.65510803 -0.45071 0.27682298 -0.26773885 -0.085095756 -0.08604382 -0.25601512 -0.13776113 -0.24366577 0.19948491 -0.03501473 -0.1587881 0.5057146 0.44978592 -0.123075455 -0.099816695 0.13291255 -0.1920484 0.21835525 -0.085489094 -0.13969703 0.32614923 0.037202463 -0.33331275 -0.2459452 0.041436084 0.03729265 0.44794926 0.22922707 0.068484224 0.22000913 -0.23953494 -0.1235839 0.45806813 -0.120538175 -0.23766477 -0.033037636 -0.27837446 0.27081788 0.14375156 0.026750244 0.39875522 -0.09893338 0.06713912 0.05139125 0.014887084 -0.40305007 -0.14167018 -0.23553915 -0.6403853 -0.19557315 0.19557786 -0.24871956 -0.36804917 0.037634056 -0.30954683 0.11254609 -0.1439794 -0.23716927 0.15500575 0.4431679 0.27169237 0.18353847 0.11406631 -0.18061462 0.21625471 0.20860897 -0.20473312 -0.19808175 0.15588948 -0.3572127 0.114024304 0.22774518 -0.13990594 -0.44252038 -0.04868213 -0.21990463 -0.45033786 -0.08781199 -0.14974427 0.039703626 0.17889678 0.03930981 0.19514611 0.23607284 0.10974593 0.0058489544 0.13081364 -0.45271504 -0.019400727 0.03640482 -0.5123535 -0.052469786 -0.022031592 0.20956488 -0.010300319 0.083666846 -0.120323345 -0.3690899 -0.47303078 -0.034515038 -0.42719522 -0.23243281 -0.16559702 -0.10141218
much 0.15638107 -0.03773685 -0.13954355 0.08210281 0.23029248 -0.10153746 0.06292078 -0.067526676 -0.025038091 0.3923383 -0.08805549 -0.12574674 -0.12469792 -0.28735745 0.0049594804 0.41751963 -0.21894453 0.111755416 -0.1387652 0.2846044 -0.07273834 -0.028852852 -0.38494027 -0.5459318 -0.36141533 0.2177431 -0.2229242 -0.05319995 -0.063114814 -0.21443425 -0.09643221 -0.1988977 0.16394863 -0.034061104 -0.114744745 0.40679196 0.37074426 -0.10038613 -0.09298959 0.11521454 -0.14572816 0.17288238 -0.074092686 -0.115572624 0.26386166 0.024727978 -0.27966738 -0.21423405 0.018257782 0.031329885 0.3684826 0.19339535 0.06093118 0.1846842 -0.17738311 -0.09452128 0.38812524 -0.09531865 -0.19752614 -0.033186458 -0.24527723 0.2153647 0.105785824 0.035147287 0.3444843 -0.07466145 0.064385615 0.044106558 -0.003629539 -0.32674542 -0.117362276 -0.19336735 -0.52108103 -0.16625914 0.14224021 -0.20091762 -0.31305507 0.043301973 -0.2518564 0.1139447 -0.117164955 -0.19481084 0.120858654 0.37465566 0.23901322 0.15304086 0.103730075 -0.14247607 0.16878189 0.17200035 -0.16460936 -0.1806779 0.1477432 -0.28327006 0.09033739 0.16965285 -0.11246146 -0.36780366 -0.044072293 -0.1776136 -0.3741264 -0.07429618 -0.1411214 0.0417033 0.14370316 0.030498842 0.16436166 0.18945628 0.072331294 0.00065308425 0.12286525 -0.37421778 -0.004862848 0.02800499 -0.41634393 -0.053899825 -0.0015086408 0.17773014 0.012233367 0.06494622 -0.08648898 -0.30778202 -0.4102664 -0.03104143 -0.36220306 -0.196265 -0.12954845 -0.088507
one 0.1206902 -0.038473517 -0.11012935 0.08450539 0.18124303 -0.100435704 0.039190624 -0.05950233 -0.021896934 0.3318282 -0.0897769 -0.11364664 -0.10407382 -0.22220649 -0.00061978895 0.34786662 -0.17447972 0.096329905 -0.12054071 0.23476744 -0.06345956 -0.02361607 -0.31216982 -0.45505902 -0.29407483 0.18313152 -0.15463743 -0.04665795 -0.05815623 -0.18973108 -0.07278935 -0.15915625 0.1511133 -0.011562037 -0.103720926 0.3352176 0.2848348 -0.07624811 -0.07847786 0.08909124 -0.11749261 0.13925773 -0.072663546 -0.09941175 0.21463633 0.03814132 -0.23516102 -0.1685297 0.008682729 0.01832888 0.29358613 0.15975802 0.05264819 0.15181395 -0.13775605 -0.0709095 0.30916426 -0.07347408 -0.14933112 -0.022578957 -0.18400246 0.1853935 0.08982242 0.02154866 0.2609175 -0.045016233 0.065999284 0.020883609 0.013891438 -0.2526989 -0.090087235 -0.13997386 -0.4201302 -0.145663 0.13509825 -0.15669282 -0.25196645 0.036262754 -0.19048765 0.100096434 -0.10425816 -0.15782177 0.09730594 0.29945877 0.19225834 0.107143775 0.089116536 -0.10081582 0.13526659 0.14823379 -0.1326688 -0.14215714 0.13176109 -0.22866341 0.07671353 0.1448612 -0.093211606 -0.29278114 -0.04043327 -0.13821422 -0.31584027 -0.0647448 -0.101186685 0.030362839 0.11927615 0.0292498 0.14248636 0.1523029 0.061494086 0.014191689 0.07590612 -0.29131484 -0.0038129846 0.0055115498 -0.34955123 -0.059205025 -0.0019544235 0.14281254 -0.0030115927 0.051800646 -0.056008056 -0.25037184 -0.32607144 -0.020577488 -0.2977611 -0.15853876 -0.09389458 -0.067375585
think 0.16165225 -0.032489654 -0.14828289 0.08959628 0.24591728 -0.13751447 0.09101837 -0.065049805 -0.023825195 0.44791588 -0.11515802 -0.16235343 -0.135477 -0.3212401 0.006793273 0.46325943 -0.24761523 0.11688358 -0.16048528 0.3200615 -0.059663042 -0.043589395 -0.43689692 -0.5988846 -0.39475903 0.2528539 -0.2365914 -0.0590075 -0.0693816 -0.24583519 -0.13689521 -0.2068794 0.19050571 -0.028068917 -0.13271803 0.46076906 0.3994477 -0.112876676 -0.09408461 0.12249186 -0.1703316 0.19240949 -0.0739212 -0.13214402 0.29107463 0.026979875 -0.30016503 -0.23814847 0.03355463 0.03262783 0.4205174 0.2076628 0.048899904 0.19191425 -0.20944637 -0.11244544 0.42678046 -0.09274135 -0.22300415 -0.045441344 -0.26581207 0.23870695 0.11922312 0.02507387 0.37919784 -0.070527926 0.06684291 0.06550542 0.005179564 -0.35356 -0.13343224 -0.21479017 -0.58429295 -0.19760083 0.17302573 -0.2211877 -0.33214524 0.03343951 -0.28820056 0.10310525 -0.12737773 -0.21201955 0.12617557 0.40745962 0.25781003 0.16198382 0.114451066 -0.16075091 0.19012286 0.19651523 -0.19641525 -0.19438733 0.15925437 -0.32693425 0.09230767 0.19551812 -0.12287538 -0.41010198 -0.038377333 -0.207503 -0.42743564 -0.079270236 -0.13731384 0.037264355 0.16097853 0.043894023 0.15775813 0.20402339 0.09491482 -0.0062021366 0.12516718 -0.40308207 -0.013202171 0.019031499 -0.4474988 -0.0493548 -0.01740318 0.20121402 -0.0073527507 0.07948369 -0.10101803 -0.34339187 -0.44981113 -0.03644814 -0.40839365 -0.21820644 -0.14033338 -0.093898356
love 0.10981051 -0.036479972 -0.09943169 0.06314441 0.17544287 -0.08820621 0.04306909 -0.056448728 -0.019169128 0.29964444 -0.07628956 -0.11322148 -0.108670436 -0.21549112 0.006463174 0.32963943 -0.16674091 0.07955309 -0.10145456 0.2158909 -0.054898 -0.013861597 -0.2980092 -0.43092382 -0.280698 0.1793565 -0.15221399 -0.03411911 -0.04977029 -0.17622471 -0.07335755 -0.16429698 0.1453227 -0.012737444 -0.088841274 0.32121253 0.28239942 -0.07731584 -0.076098785 0.09504863 -0.111323334 0.14242135 -0.06510191 -0.10320502 0.21254915 0.03021155 -0.22447647 -0.17462054 0.0067402027 0.024503635 0.28225973 0.15148722 0.043462466 0.1281301 -0.14099745 -0.080062896 0.30129823 -0.075522006 -0.16468072 -0.03130333 -0.19223121 0.1637358 0.08755156 0.022139281 0.27019832 -0.041268025 0.046883494 0.021861164 0.019636597 -0.24975851 -0.08875379 -0.14769961 -0.4216905 -0.14075375 0.11464549 -0.14782813 -0.24630696 0.04630875 -0.20254391 0.09535266 -0.09860844 -0.14040093 0.092310555 0.2800137 0.19253616 0.10155093 0.07453621 -0.10558403 0.12187727 0.14555879 -0.12407597 -0.15045224 0.11706966 -0.21854657 0.08072998 0.1397892 -0.08772842 -0.29162383 -0.027936254 -0.15132345 -0.28662542 -0.06319835 -0.114137374 0.026675176 0.12060592 0.014822692 0.12720412 0.14467926 0.07669383 -0.004266792 0.07871397 -0.27795196 0.0004486118 0.018487602 -0.33116472 -0.044217613 -0.013048661 0.12544747 0.0003234891 0.05684941 -0.06695541 -0.24184328 -0.32211986 -0.017846992 -0.28350815 -0.14073586 -0.100894764 -0.057129774
stop 0.143836 -0.038937688 -0.12962012 0.075274825 0.22405212 -0.112434745 0.0634351 -0.057024118 -0.0137902405 0.37166715 -0.0971178 -0.13781634 -0.12507875 -0.26481897 0.01184419 0.39673173 -0.20990305 0.08995316 -0.14250328 0.2788916 -0.055751923 -0.028065702 -0.3720568 -0.5113988 -0.34846008 0.2064722 -0.21098894 -0.07049104 -0.060630888 -0.21639083 -0.120431274 -0.19477332 0.17033583 -0.019367428 -0.12198472 0.39862195 0.3470578 -0.11381207 -0.06926866 0.124355726 -0.14573456 0.17976104 -0.06518289 -0.10678401 0.2478417 0.03405677 -0.24796858 -0.1868442 0.0150621785 0.018446311 0.36192286 0.18324682 0.046729397 0.1719748 -0.17049152 -0.111945644 0.3638445 -0.10377296 -0.18053646 -0.032906946 -0.22243752 0.21386808 0.11624362 0.03338631 0.33308512 -0.06908697 0.055204883 0.051854417 0.011788943 -0.3180989 -0.1263788 -0.18025345 -0.50464785 -0.14803621 0.14885947 -0.19753084 -0.2933567 0.027607515 -0.25603196 0.10608484 -0.11871365 -0.18546657 0.12664953 0.34627977 0.2272318 0.13142222 0.09061096 -0.15095842 0.17378694 0.1534628 -0.15258367 -0.16975425 0.12459401 -0.27797055 0.08913117 0.17160772 -0.1143769 -0.34277418 -0.048127726 -0.16950323 -0.35726222 -0.06216871 -0.12729207 0.046241302 0.12434527 0.015674394 0.14677659 0.1992324 0.07324159 -0.0120800575 0.11181557 -0.36951864 -0.012080716 0.030335711 -0.40490183 -0.051766977 0.012767959 0.16952069 -0.009304507 0.0615068 -0.099115014 -0.291262 -0.390552 -0.020291643 -0.34591907 -0.17966276 -0.10840914 -0.08331801
body 0.16328312 -0.035025597 -0.14245452 0.07226124 0.25215122 -0.12038885 0.066689335 -0.063950054 -0.02579345 0.43316442 -0.11535965 -0.14989214 -0.1326975 -0.30372205 0.0032349785 0.44215205 -0.22158293 0.11462556 -0.16338299 0.3032414 -0.08520206 -0.047744654 -0.41737232 -0.58560467 -0.38975674 0.23739822 -0.21678102 -0.06647716 -0.06849332 -0.2191522 -0.12319431 -0.2149263 0.17539847 -0.018674815 -0.13189739 0.43651274 0.38335052 -0.11796053 -0.09277851 0.12101767 -0.16129458 0.19150421 -0.079580456 -0.11928914 0.28468728 0.031587582 -0.29554257 -0.23014544 0.02110408 0.037464544 0.40558323 0.20029683 0.057352375 0.19109963 -0.20367363 -0.10334877 0.41715527 -0.09606547 -0.21816395 -0.034297124 -0.25969148 0.22394961 0.10719435 0.017915497 0.3532658 -0.076438926 0.06810238 0.058531735 0.017210996 -0.35203958 -0.122627914 -0.21161722 -0.5645146 -0.17892107 0.16436733 -0.21981704 -0.33642066 0.055873606 -0.27426422 0.099187076 -0.13272212 -0.20485775 0.12864299 0.38312975 0.2534686 0.16563174 0.11001915 -0.15326194 0.1760343 0.18292646 -0.17845629 -0.19103585 0.1532833 -0.29788998 0.08868499 0.19482873 -0.12602888 -0.39893842 -0.03659613 -0.1913224 -0.39969254 -0.08405409 -0.14802603 0.036044102 0.151191 0.036250964 0.17300278 0.20880306 0.08593525 -0.011044453 0.11372743 -0.38804036 -0.0117488345 0.026325943 -0.44644964 -0.060755096 -0.0062034186 0.17282982 0.014937866 0.0860251 -0.08599034 -0.31508496 -0.4339989 -0.026230063 -0.38604957 -0.19741708 -0.13438758 -0.093864806
go 0.18131587 -0.0376105 -0.16211404 0.10472084 0.2901534 -0.14819323 0.086029135 -0.06548363 -0.032954875 0.49501452 -0.10390441 -0.16131762 -0.1496077 -0.33793443 0.013680913 0.4853757 -0.2586169 0.12637343 -0.17894876 0.353086 -0.07395653 -0.051816653 -0.4571442 -0.6575351 -0.45058012 0.27190748 -0.26366055 -0.080672696 -0.071511604 -0.2580607 -0.13940963 -0.23045576 0.21555935 -0.01565129 -0.15491347 0.4942487 0.44561434 -0.13132936 -0.10629348 0.14358361 -0.17396405 0.20671286 -0.090792075 -0.14393085 0.3206842 0.041312575 -0.3362614 -0.246575 0.026366627 0.03479289 0.44887966 0.24077752 0.044199914 0.20603997 -0.22807589 -0.12145978 0.46718624 -0.10788237 -0.23610055 -0.03880713 -0.291984 0.2661781 0.14422908 0.027864581 0.4104871 -0.08309162 0.0776593 0.05270227 0.013915852 -0.39320847 -0.14015995 -0.23115323 -0.64161617 -0.20571445 0.19334507 -0.23430139 -0.3636112 0.035303354 -0.32293472 0.118572414 -0.13404372 -0.22696088 0.14300022 0.43972978 0.28262597 0.17727548 0.1260434 -0.18342741 0.20979428 0.2091881 -0.21008699 -0.20887654 0.15925814 -0.35739112 0.104343995 0.21184823 -0.13038015 -0.45365515 -0.04221935 -0.21652278 -0.45276102 -0.07995745 -0.15134507 0.04078178 0.1727286 0.04389901 0.16993606 0.24353881 0.0923151 -0.002043292 0.13233934 -0.44413063 -0.012823635 0.024149965 -0.49597546 -0.045373622 -0.013155083 0.20003319 -0.0060596345 0.09499114 -0.112641074 -0.3578763 -0.4695295 -0.03819102 -0.42452437 -0.23425259 -0.15281296 -0.11152044
since 0.13118276 -0.021279808 -0.11361504 0.070510246 0.20133391 -0.09879302 0.05240783 -0.058250915 -0.022985307 0.34602225 -0.081555456 -0.11596651 -0.09737141 -0.23929389 0.0071489983 0.3551113 -0.18466063 0.094492935 -0.11628768 0.23952875 -0.060669456 -0.030667175 -0.32215902 -0.45501015 -0.2989177 0.19044358 -0.1897239 -0.043439314 -0.055791818 -0.17769045 -0.09367497 -0.1661601 0.14806199 -0.009239911 -0.103054345 0.33718032 0.32301846 -0.084412225 -0.065789044 0.106810845 -0.13952984 0.15013301 -0.063461155 -0.09438259 0.21451616 0.020966522 -0.23051955 -0.1670002 0.016857117 0.02444944 0.30835676 0.16539243 0.042149205 0.13780385 -0.15621382 -0.09024062 0.32441464 -0.07222555 -0.16663128 -0.03775661 -0.18278193 0.18087415 0.08944623 0.018861653 0.27511594 -0.058381137 0.05863197 0.036517795 0.015350728 -0.27697366 -0.09395341 -0.16093405 -0.4328942 -0.13604173 0.13105233 -0.17281409 -0.24933922 0.023009403 -0.2200666 0.09350945 -0.10069935 -0.1687979 0.09475876 0.3033502 0.1885418 0.13250607 0.076723106 -0.12093002 0.14370297 0.1416893 -0.13505484 -0.14247595 0.10586611 -0.24808818 0.080682874 0.14470161 -0.09146127 -0.3099634 -0.033152092 -0.13980782 -0.31739247 -0.053121135 -0.114807464 0.036150854 0.12043742 0.03257791 0.13641414 0.16201507 0.076122135 0.00014239698 0.09780767 -0.3030827 -0.013669988 0.020624008 -0.33349538 -0.034363937 -0.0149404 0.15262502 -0.009318936 0.06486412 -0.07946439 -0.24469365 -0.33114567 -0.026655657 -0.3095444 -0.17052615 -0.11331995 -0.08336567
binge 0.12863258 -0.026484232 -0.09825055 0.0718825 0.17849828 -0.08780561 0.041813407 -0.041586436 -0.020573303 0.321554 -0.081298694 -0.10136637 -0.101645485 -0.23493436 0.002442691 0.34301776 -0.18437608 0.0990698 -0.12124357 0.22964603 -0.050493978 -0.027425915 -0.3102852 -0.44247118 -0.28613353 0.19605085 -0.17037971 -0.049455274 -0.044768017 -0.16780894 -0.09687714 -0.16119213 0.13506137 -0.010147907 -0.10266775 0.3318209 0.2910692 -0.08048988 -0.07371146 0.09669993 -0.119306825 0.14289437 -0.06698303 -0.09739742 0.20058757 0.026222413 -0.21572894 -0.16767019 0.010892749 0.023001384 0.29995304 0.14577709 0.02501976 0.13381292 -0.15325263 -0.07815426 0.318979 -0.07039579 -0.15811814 -0.040239826 -0.18836744 0.18079972 0.10162688 0.023286473 0.26637653 -0.04606897 0.05227316 0.034929987 0.019635588 -0.27197728 -0.10052532 -0.14966811 -0.4169709 -0.12949675 0.13494292 -0.15454729 -0.23875941 0.03096229 -0.19807194 0.0796617 -0.0900113 -0.16377437 0.106906354 0.28732497 0.1719647 0.12617183 0.06837135 -0.113458276 0.13268472 0.13412714 -0.13495955 -0.13671662 0.12328904 -0.23819219 0.07466172 0.15002425 -0.09515099 -0.29023102 -0.03832753 -0.14240126 -0.31483918 -0.059878435 -0.10841339 0.04416614 0.12405693 0.021613777 0.12249505 0.16288573 0.07520923 0.0027939256 0.086945325 -0.3035412 -0.0065798904 0.017008325 -0.33420756 -0.039460264 -0.006248088 0.12778594 0.011801109 0.05996978 -0.06869808 -0.24393515 -0.3268794 -0.0075603696 -0.29296088 -0.14903481 -0.100603536 -0.064009845
vomit 0.18112066 -0.039471723 -0.14572881 0.07781833 0.25643316 -0.13306645 0.08159634 -0.06068962 -0.025470626 0.45232666 -0.11118556 -0.14912592 -0.1387558 -0.3115459 -0.0062732804 0.45102456 -0.22401702 0.12188204 -0.1751856 0.33692753 -0.052931696 -0.05888537 -0.45175585 -0.6096386 -0.39881736 0.24621923 -0.23818047 -0.07404878 -0.067405164 -0.24502762 -0.12445298 -0.2324061 0.1954387 -0.03062167 -0.12835306 0.45934716 0.42181164 -0.10285754 -0.09910586 0.120335996 -0.17126438 0.18797322 -0.070632055 -0.12769851 0.2792187 0.020194894 -0.28638014 -0.21597967 0.019738732 0.03737415 0.42296138 0.20886925 0.043867707 0.18105333 -0.19489376 -0.11834387 0.42474383 -0.10023297 -0.22074217 -0.03331269 -0.2772609 0.23759739 0.11024497 0.0478669 0.4075723 -0.061447427 0.08095229 0.04853381 0.009952968 -0.36896166 -0.13915348 -0.20772472 -0.5767295 -0.195225 0.17804888 -0.24254906 -0.35387036 0.045399994 -0.29950377 0.13250151 -0.13103414 -0.19654152 0.13231449 0.39895356 0.25403693 0.17260396 0.10072826 -0.17285281 0.21017094 0.20296083 -0.1999324 -0.202717 0.16783172 -0.32731247 0.10073999 0.18865229 -0.108165585 -0.42280415 -0.04638246 -0.2162113 -0.43380263 -0.077878125 -0.15139514 0.033424407 0.17051503 0.038183343 0.15989576 0.20807488 0.08710885 -0.008441724 0.13826968 -0.4164045 -0.017657416 0.019443266 -0.47344118 -0.060909294 -0.0036010267 0.19264331 -0.005738405 0.076313294 -0.114149116 -0.34816024 -0.46910456 -0.029571693 -0.3898014 -0.19235918 -0.1448851 -0.09590148
shit 0.14916322 -0.027518883 -0.1602593 0.07709059 0.25480232 -0.13887691 0.06671857 -0.077594966 -0.031421665 0.47184435 -0.108597435 -0.16003995 -0.14693327 -0.3393982 -0.0021866935 0.4499006 -0.25142187 0.10881639 -0.17642075 0.31439567 -0.07695958 -0.048750408 -0.43714046 -0.61936146 -0.423641 0.26813862 -0.2366036 -0.060639195 -0.060884126 -0.2455121 -0.12630527 -0.21834616 0.19375195 -0.019094953 -0.13541733 0.46119604 0.40604642 -0.12354383 -0.091266215 0.12517494 -0.15716124 0.2050529 -0.07865015 -0.12965706 0.2944539 0.051628407 -0.31591082 -0.24166329 0.03187608 0.03171379 0.41628873 0.22491296 0.057393447 0.19774495 -0.21676281 -0.13121736 0.44755313 -0.084428884 -0.21721204 -0.059835277 -0.26578802 0.23835544 0.12514716 0.022349428 0.3815941 -0.070664875 0.06217948 0.050584354 0.008228986 -0.37996668 -0.13210078 -0.2113934 -0.5917892 -0.18148208 0.18166809 -0.20686139 -0.35837832 0.057386328 -0.29018086 0.112469256 -0.123701036 -0.21816753 0.12871063 0.41260886 0.24666 0.16256066 0.103221 -0.16966106 0.18064794 0.18575361 -0.17681487 -0.19026753 0.1596516 -0.31183434 0.10209906 0.2070586 -0.1321553 -0.40632084 -0.035513386 -0.20699707 -0.42952397 -0.074278 -0.15213817 0.04517414 0.16094202 0.024452701 0.1687638 0.23021655 0.103380546 -0.0023425773 0.1132337 -0.40334782 -0.0036683802 0.04397775 -0.45711514 -0.050652195 -0.002741772 0.19450432 0.009338669 0.0896366 -0.08647165 -0.32123882 -0.43992212 -0.017069623 -0.42292354 -0.2125176 -0.13825446 -0.11118724
start 0.19034496 -0.037517916 -0.15893057 0.09702489 0.28396773 -0.15440182 0.081132725 -0.06966467 -0.019550258 0.49620408 -0.122457825 -0.17171459 -0.15828222 -0.35603306 0.0126648545 0.5028363 -0.26989686 0.13097535 -0.18411705 0.36473534 -0.0770006 -0.05886442 -0.46796453 -0.6825687 -0.45549005 0.2870759 -0.27964792 -0.082201734 -0.07458661 -0.27394468 -0.15690935 -0.23204415 0.204288 -0.035113886 -0.13461211 0.51745695 0.45808512 -0.1184748 -0.107384026 0.15077835 -0.18732312 0.22322574 -0.094367266 -0.1428222 0.32396656 0.03621956 -0.34764624 -0.2683923 0.032075994 0.03329619 0.46104854 0.24577871 0.06589414 0.227762 -0.23381017 -0.11835924 0.47437567 -0.11097031 -0.23642528 -0.05127893 -0.29742593 0.2608795 0.14885192 0.028440528 0.41546485 -0.08521637 0.07752519 0.052042063 0.009555427 -0.4064851 -0.14973684 -0.24546465 -0.65010804 -0.21099615 0.19853033 -0.2422347 -0.39240095 0.036011793 -0.32080466 0.12178475 -0.1452396 -0.2424695 0.15703818 0.45604265 0.28851727 0.18356857 0.12304718 -0.17606324 0.21667817 0.21513847 -0.2109828 -0.21098566 0.1735126 -0.3540872 0.10161889 0.23594266 -0.13648453 -0.4521409 -0.033366837 -0.23042181 -0.48237148 -0.08024326 -0.1592249 0.055595394 0.19088821 0.04315372 0.19551793 0.22686584 0.09283623 -0.01848545 0.13517386 -0.45070642 -0.01884839 0.020643285 -0.49980676 -0.06319831 -0.006719338 0.2099639 -0.00089648913 0.10506394 -0.1096881 -0.3756491 -0.4843372 -0.03548958 -0.4438045 -0.24769655 -0.15147984 -0.10443405
every 0.14989382 -0.036901735 -0.11516064 0.06574711 0.21228951 -0.12645733 0.064645484 -0.04406935 0.002105017 0.36955112 -0.08195525 -0.13563104 -0.09524588 -0.25144616 0.0025436669 0.3552826 -0.19995089 0.10164958 -0.12755166 0.25509045 -0.045128398 -0.036163345 -0.36291054 -0.4946901 -0.3362967 0.19618899 -0.20746946 -0.06633587 -0.044739395 -0.1752277 -0.115872756 -0.1682977 0.1600292 -0.018722348 -0.1067913 0.38026184 0.3354884 -0.082787044 -0.06642195 0.1009737 -0.14408483 0.1754206 -0.061927933 -0.101836845 0.23865572 0.012249661 -0.25733393 -0.20580167 0.042992033 0.03760824 0.3362372 0.1702247 0.024766222 0.15267819 -0.16253372 -0.07321173 0.35256496 -0.07878022 -0.18160626 -0.03485151 -0.2144856 0.19377093 0.10101126 -0.0027016564 0.32115832 -0.066701405 0.045856617 0.023549689 0.034206793 -0.28927824 -0.097201966 -0.15875198 -0.4849712 -0.13826212 0.15341017 -0.20389174 -0.27182376 0.036112133 -0.23123583 0.10085897 -0.111523636 -0.18154094 0.117498584 0.3320408 0.21435502 0.15096712 0.10032402 -0.15316038 0.16114414 0.18112859 -0.15905574 -0.15106155 0.10000362 -0.2545417 0.07845363 0.17554955 -0.11543214 -0.35430244 -0.04011073 -0.15283543 -0.35619375 -0.0481784 -0.12703392 0.021965792 0.13294354 0.038481295 0.12625198 0.16717125 0.058734603 -0.00035844842 0.102997616 -0.31855738 -0.019585421 0.037015796 -0.38589618 -0.052873332 -0.022948187 0.15154055 0.0013736447 0.08745184 -0.07496764 -0.29252174 -0.3676572 -0.032950442 -0.31400055 -0.17074391 -0.12108781 -0.059110343
purging 0.14882529 -0.030856244 -0.15076122 0.09816036 0.25939873 -0.13218805 0.08621894 -0.07007304 -0.024030011 0.44031927 -0.09447399 -0.14654389 -0.13408858 -0.3029101 0.008562665 0.45446956 -0.24325375 0.110179424 -0.15881571 0.3182572 -0.06911876 -0.04081065 -0.41094553 -0.6039924 -0.39934248 0.25095448 -0.24354774 -0.058574654 -0.06677468 -0.23814279 -0.1244165 -0.20043184 0.18547273 -0.01800282 -0.14788078 0.44066924 0.40656242 -0.10976432 -0.082920216 0.12380074 -0.15994036 0.19660337 -0.07151685 -0.12656265 0.29042315 0.02987631 -0.30412966 -0.23014754 0.03367098 0.02663541 0.4125602 0.1962106 0.03846594 0.19909489 -0.1978807 -0.11726296 0.41540304 -0.102018796 -0.21680544 -0.030956298 -0.25137153 0.23093009 0.123868525 0.021573214 0.35675535 -0.07123067 0.047395714 0.049659457 0.0038981475 -0.3432196 -0.120888576 -0.21282868 -0.56710535 -0.1804131 0.18029991 -0.22079977 -0.32679576 0.03657841 -0.27459118 0.11658961 -0.12139166 -0.21042284 0.12621512 0.38692006 0.2543904 0.15659194 0.09748597 -0.1633213 0.18435785 0.20157087 -0.18967794 -0.18359448 0.1496064 -0.32194132 0.1048227 0.1961612 -0.115458146 -0.3941963 -0.05377571 -0.18547995 -0.40721792 -0.07188709 -0.1521098 0.03223897 0.14729391 0.042678684 0.16279137 0.21690965 0.096270464 0.0014954788 0.12078566 -0.3949823 -0.016604794 0.03246943 -0.4583762 -0.059924636 -0.00958103 0.19267839 -0.0017808904 0.0733919 -0.10058236 -0.31904423 -0.4230201 -0.024341697 -0.3942543 -0.21853054 -0.14147227 -0.1028805
struggle 0.11307981 -0.028071929 -0.092124574 0.06426001 0.16232766 -0.08187069 0.04537286 -0.045427695 -0.018920215 0.2908389 -0.055686455 -0.09290964 -0.091243036 -0.19251052 0.0006756333 0.30673182 -0.16328914 0.07891718 -0.1043955 0.1991592 -0.040736936 -0.024259064 -0.27958956 -0.39480948 -0.26470912 0.16224523 -0.16110347 -0.035208903 -0.04731468 -0.14823699 -0.085425384 -0.1418545 0.11875939 -0.014330238 -0.088765584 0.29729325 0.26775596 -0.067279056 -0.05844854 0.09365891 -0.10826243 0.13800393 -0.04871527 -0.08448333 0.18911025 0.016403321 -0.20412421 -0.14149322 0.015788052 0.028338403 0.25528172 0.12674311 0.037799202 0.12691875 -0.13378023 -0.0660514 0.26630867 -0.06833052 -0.14300165 -0.017506463 -0.16516057 0.15933965 0.0832068 0.01721897 0.23174258 -0.058416482 0.050144028 0.032374498 0.01424749 -0.22895475 -0.07549543 -0.14846879 -0.37010592 -0.11861034 0.122496404 -0.14590096 -0.21736516 0.027474627 -0.19037014 0.066275075 -0.08126581 -0.14555755 0.085144825 0.26611546 0.15703674 0.1169727 0.07197023 -0.118308455 0.12178607 0.1346351 -0.11486884 -0.113069504 0.10185759 -0.19946888 0.07327067 0.13500309 -0.078185774 -0.26284364 -0.029399034 -0.13419601 -0.26767606 -0.047160927 -0.096784905 0.025786856 0.110761054 0.025523933 0.10764091 0.131481 0.054524098 -0.00080407393 0.088715084 -0.27477834 -0.010567507 0.015123549 -0.28878292 -0.027398594 -0.015499451 0.11150732 -0.0067221355 0.044854473 -0.057167858 -0.22115485 -0.28925097 -0.017771717 -0.25723052 -0.13231266 -0.09333279 -0.07252681
friend 0.15386602 -0.033552114 -0.14370656 0.087990776 0.23139448 -0.11039124 0.06027233 -0.068891875 -0.018015722 0.39232326 -0.10940333 -0.1377056 -0.13251212 -0.28524458 0.0035294958 0.42610595 -0.22006899 0.11146239 -0.14278874 0.2897217 -0.05713411 -0.03767773 -0.3789633 -0.5610678 -0.35769695 0.23181136 -0.22087142 -0.061483294 -0.06686381 -0.21248926 -0.09827621 -0.19759221 0.17970626 -0.02625631 -0.114720166 0.40984818 0.35561818 -0.104106694 -0.086468555 0.11218381 -0.15304732 0.18172525 -0.076623455 -0.13126071 0.2688804 0.03567634 -0.2930174 -0.21714474 0.010971934 0.034990124 0.37979096 0.2024441 0.054860465 0.17259856 -0.1972744 -0.102726795 0.40616918 -0.09704887 -0.20062181 -0.0385561 -0.24627776 0.2177167 0.104841486 0.036409974 0.33246008 -0.06268509 0.05806301 0.038649395 0.0081382785 -0.33047533 -0.11599207 -0.18666174 -0.53628707 -0.16584593 0.14879486 -0.20686904 -0.3223344 0.048411418 -0.264083 0.10218117 -0.11504649 -0.1974342 0.1271842 0.3791382 0.24483192 0.14345479 0.10646995 -0.14550169 0.18154997 0.17966956 -0.16774122 -0.18623398 0.13612986 -0.29148212 0.094533294 0.17308316 -0.10362596 -0.37458044 -0.045731515 -0.19378154 -0.3700428 -0.06758558 -0.1415898 0.049360495 0.14981751 0.018909983 0.15124777 0.1892559 0.075159825 0.0029670368 0.12008126 -0.36417332 -0.011569184 0.018035313 -0.4100638 -0.057116486 -0.012104077 0.16661213 0.00022362085 0.069617204 -0.082784854 -0.31019622 -0.3928982 -0.03644954 -0.36732596 -0.19480239 -0.14098099 -0.07761206
loose 0.10635942 -0.020871757 -0.09228804 0.043450255 0.17702979 -0.08170553 0.049190756 -0.04778978 -0.010131279 0.2851338 -0.059151802 -0.11503222 -0.076926574 -0.20711017 -0.007051021 0.30703568 -0.14612655 0.06519133 -0.094802134 0.2148506 -0.062242564 -0.03817695 -0.2684406 -0.37779063 -0.2597105 0.15973112 -0.13912466 -0.036741577 -0.045563463 -0.16181159 -0.08067928 -0.12911557 0.12355872 -0.018248122 -0.09765488 0.29137075 0.26513067 -0.08260824 -0.06632921 0.087658755 -0.120235555 0.12413397 -0.048008796 -0.089269325 0.18801597 0.01692593 -0.19482 -0.15070291 0.009288007 0.02020926 0.265978 0.13191652 0.024448765 0.12765807 -0.1424339 -0.06877231 0.26867786 -0.072710335 -0.13861872 -0.028123196 -0.1708141 0.16627286 0.077551395 0.016157402 0.23944296 -0.06124863 0.048270483 0.0391324 0.009220821 -0.24825019 -0.07332111 -0.14384894 -0.35347256 -0.12653084 0.110981576 -0.14789373 -0.22731455 0.020133436 -0.17415991 0.06372882 -0.073719874 -0.1293595 0.094530314 0.24381636 0.16770831 0.10093837 0.068660386 -0.09290583 0.12962538 0.12098681 -0.11263343 -0.13331266 0.095825136 -0.21084213 0.074922495 0.13443437 -0.08741069 -0.25353414 -0.023447854 -0.1331972 -0.2743338 -0.039640192 -0.087379575 0.022138014 0.112677105 0.02585634 0.12264201 0.14270005 0.060355 0.004241729 0.06519507 -0.27117702 -0.011296313 0.008091856 -0.29600933 -0.026166093 0.0058343406 0.13439776 -0.004944154 0.052508734 -0.05263366 -0.20410287 -0.2790062 -0.012277484 -0.25812066 -0.14191641 -0.085465536 -0.061506726
eating 0.13325106 -0.038821157 -0.13209125 0.073958226 0.23047301 -0.09650842 0.053567927 -0.053780694 -0.014995133 0.37913683 -0.08914655 -0.117173664 -0.11365938 -0.27803004 0.0021214888 0.38830405 -0.20495637 0.084912024 -0.13621782 0.26585978 -0.06566127 -0.042121194 -0.36753812 -0.51674294 -0.36236677 0.22523928 -0.19571695 -0.05316477 -0.06335504 -0.21482556 -0.099158384 -0.18501513 0.16317666 -0.031196093 -0.1269704 0.39804214 0.3636595 -0.10556782 -0.089382604 0.11440408 -0.16367663 0.18298367 -0.060897563 -0.10895293 0.23362228 0.02358211 -0.26094294 -0.19410846 0.024674136 0.04045025 0.33827683 0.17510575 0.052241635 0.17984396 -0.18652764 -0.105383284 0.3609398 -0.093536094 -0.19310501 -0.030354246 -0.22096473 0.20901015 0.10439077 0.018924436 0.31791002 -0.067139454 0.056793235 0.059170317 0.004250749 -0.30615714 -0.09928489 -0.18354014 -0.50285774 -0.16573678 0.13753909 -0.18061242 -0.2960129 0.035765458 -0.25028846 0.09504128 -0.106397524 -0.19029452 0.11342263 0.3613987 0.21710236 0.15043764 0.101052985 -0.15691933 0.16732211 0.1738603 -0.14431608 -0.15968719 0.14616467 -0.27731413 0.08286949 0.1675402 -0.09931154 -0.34576395 -0.026395584 -0.1721345 -0.35693043 -0.06653437 -0.12577903 0.033035878 0.1355814 0.026429819 0.1493019 0.18222006 0.08966108 -0.011261846 0.10721244 -0.35958448 -0.0042818496 0.01700854 -0.4044326 -0.046125848 -0.00789859 0.1524674 -0.0012146581 0.06119868 -0.07933986 -0.2962178 -0.37837917 -0.03282421 -0.3571577 -0.18074976 -0.1355556 -0.0859772
sub 0.13385613 -0.038425993 -0.12869722 0.08208939 0.21339597 -0.10036563 0.055271808 -0.05441263 -0.012932004 0.38355455 -0.07838905 -0.13561708 -0.11702797 -0.26740396 0.0072296388 0.37717906 -0.20459183 0.09138628 -0.12510385 0.26169038 -0.07533489 -0.03460145 -0.35233143 -0.51420295 -0.3495771 0.21957831 -0.2024485 -0.061776806 -0.06794904 -0.20435983 -0.104252405 -0.17954528 0.16480304 -0.028773848 -0.124531254 0.39106047 0.35358226 -0.088505805 -0.07618677 0.110843845 -0.1488476 0.14988591 -0.060872503 -0.11177002 0.24053945 0.03131371 -0.26717922 -0.19213961 0.031533286 0.037057213 0.3562975 0.18151866 0.034405354 0.15974508 -0.17259875 -0.10118215 0.3675379 -0.07231412 -0.19276878 -0.041004267 -0.22280654 0.20332038 0.10773655 0.013697753 0.3151164 -0.0653824 0.056038734 0.0364631 0.006959808 -0.3098125 -0.105926044 -0.17593174 -0.50017935 -0.15632474 0.16126204 -0.18868874 -0.29915968 0.033258114 -0.24774347 0.08600826 -0.113794126 -0.19078888 0.104991086 0.33953184 0.20290336 0.1371033 0.08428431 -0.15122291 0.1505423 0.16782288 -0.15835226 -0.16719587 0.13513982 -0.26715767 0.07122644 0.17062545 -0.0996711 -0.3621736 -0.03602025 -0.17087004 -0.35069472 -0.082070425 -0.12654264 0.023798328 0.12668331 0.036250874 0.13534965 0.18256427 0.06717078 0.0022784607 0.09215184 -0.3512788 -0.0143106785 0.014637797 -0.38607988 -0.037747275 -0.024565661 0.16956116 0.0042258264 0.06784081 -0.07793115 -0.28229398 -0.37145302 -0.025850788 -0.3450216 -0.18809241 -0.10974296 -0.083904356
without 0.15469357 -0.02686419 -0.13136454 0.0780219 0.24873105 -0.124415874 0.07143867 -0.05415533 -0.021316206 0.43311572 -0.10226274 -0.1542095 -0.13546188 -0.30868903 0.006990949 0.4310127 -0.21983407 0.12060346 -0.15246463 0.30413148 -0.070061356 -0.037606474 -0.40716672 -0.5738459 -0.3918204 0.23529592 -0.23081793 -0.06390612 -0.07880324 -0.21610413 -0.12647392 -0.20659289 0.16983855 -0.023523128 -0.13139197 0.4204395 0.38729227 -0.1168421 -0.09235012 0.11811627 -0.14993906 0.1891044 -0.091478884 -0.12169536 0.26142764 0.027554534 -0.2865777 -0.23240334 0.018713452 0.023038128 0.4000229 0.2086813 0.047440518 0.18666801 -0.19596338 -0.11445606 0.41491634 -0.08573188 -0.20301364 -0.027523434 -0.2543564 0.22340581 0.1322965 0.02269628 0.3461727 -0.07337624 0.058471207 0.047384884 0.015299499 -0.33972064 -0.12650408 -0.2025403 -0.55561477 -0.1677814 0.1607313 -0.22039634 -0.32382274 0.02569302 -0.28070444 0.10843767 -0.11964836 -0.20048487 0.13564457 0.38235512 0.2404944 0.16082653 0.11121806 -0.1509766 0.17595682 0.18945353 -0.18237804 -0.19002053 0.13870211 -0.30532992 0.08485067 0.18631956 -0.11710088 -0.38516247 -0.04932334 -0.18778445 -0.3949168 -0.06857945 -0.1459554 0.05284057 0.16736452 0.039360024 0.16179237 0.19024989 0.085742414 -0.011101528 0.12346299 -0.38446558 -0.019815149 0.028936228 -0.43711078 -0.042321634 -0.0030580524 0.17089522 0.0008036953 0.088044636 -0.103301756 -0.32124135 -0.40671852 -0.018890578 -0.3670933 -0.21584584 -0.13445805 -0.08538591
currently 0.13578576 -0.028632537 -0.12085855 0.07463015 0.19759955 -0.10928492 0.057447277 -0.049338188 -0.011064758 0.35502166 -0.09548762 -0.109961055 -0.10818496 -0.2435955 0.012342741 0.38258168 -0.18858846 0.0909289 -0.112763785 0.2617467 -0.052417357 -0.023878684 -0.32035062 -0.48897803 -0.33237934 0.22056088 -0.19093499 -0.053265434 -0.07553512 -0.2054029 -0.110413946 -0.1709883 0.17070413 -0.020335542 -0.10884739 0.36867112 0.32137468 -0.096831515 -0.08308143 0.10646337 -0.14402594 0.15971366 -0.07187282 -0.10755164 0.2519073 0.03544808 -0.23359606 -0.1957623 0.017755017 0.01689956 0.3306189 0.17700894 0.051799543 0.1474843 -0.17744415 -0.093401104 0.34034806 -0.07379516 -0.17831622 -0.0324121 -0.2091624 0.19247018 0.10135242 0.038196653 0.28961644 -0.055360444 0.038701154 0.044993855 0.019529628 -0.27900657 -0.10179559 -0.18190083 -0.45744953 -0.15450586 0.12184591 -0.18575518 -0.25932446 0.023722019 -0.22923473 0.09000732 -0.09171277 -0.16393603 0.097321235 0.31101874 0.2056489 0.1462947 0.07853134 -0.14475493 0.14231412 0.15928718 -0.16351959 -0.16672269 0.11512129 -0.26072565 0.07762469 0.15477479 -0.09913904 -0.32228953 -0.028715169 -0.16336882 -0.3261206 -0.07462713 -0.11299978 0.031294994 0.13558483 0.043308225 0.14742284 0.18480262 0.075479835 -0.00803497 0.09256808 -0.31741047 -0.01391984 0.027993243 -0.36642355 -0.045388553 -0.023219481 0.16553323 0.008154215 0.087802045 -0.09168601 -0.2731819 -0.3645585 -0.04458461 -0.319873 -0.19100687 -0.10352428 -0.08740983
experience 0.11758953 -0.04137515 -0.11444458 0.05986603 0.19412217 -0.10505374 0.06331943 -0.05582275 -0.013606567 0.33991462 -0.07977875 -0.11452266 -0.11536328 -0.23284847 0.015592289 0.36436477 -0.19805893 0.07570954 -0.110059895 0.23927093 -0.042084582 -0.036715157 -0.32547045 -0.46215945 -0.30135632 0.19825186 -0.17855547 -0.047778517 -0.06827751 -0.19349119 -0.084653914 -0.16336256 0.14816234 -0.013021839 -0.11910997 0.34065756 0.32226673 -0.09720609 -0.077073164 0.105657235 -0.13478732 0.15260246 -0.05935322 -0.08954055 0.2237775 0.01502039 -0.22814313 -0.16488232 0.016305424 0.029595377 0.301946 0.17287976 0.05458282 0.14258133 -0.17300718 -0.086342804 0.3212439 -0.072190054 -0.17589463 -0.031903867 -0.20148525 0.19010237 0.100672945 0.037730213 0.2773476 -0.053621843 0.04470394 0.059086043 0.015532506 -0.26977387 -0.087152265 -0.16425145 -0.43046856 -0.13896194 0.11461652 -0.17841475 -0.24349146 0.012959899 -0.21757399 0.07167161 -0.0967867 -0.16469353 0.08363802 0.300384 0.1866243 0.13774133 0.09287647 -0.1364104 0.14074647 0.14116675 -0.13769451 -0.1476651 0.10551393 -0.25522143 0.07951095 0.1718536 -0.081196375 -0.31863627 -0.018704973 -0.15621412 -0.30298138 -0.076076284 -0.10154882 0.028929248 0.13727339 0.031691045 0.1318973 0.1551267 0.084508084 0.0019856452 0.08812014 -0.29453403 -0.016202489 0.022101609 -0.3379591 -0.04067428 -0.004633994 0.14945798 -0.020958303 0.062141396 -0.07123582 -0.24900274 -0.3369966 -0.045981333 -0.3178952 -0.16843887 -0.09284899 -0.086474836
disorder 0.16538033 -0.044006355 -0.16058193 0.08075367 0.26473215 -0.13843973 0.088619374 -0.06802523 -0.019608432 0.46270534 -0.10229086 -0.1517231 -0.14377785 -0.32317626 0.0057653836 0.47629762 -0.23689376 0.12444198 -0.17478414 0.3158171 -0.082668215 -0.05002526 -0.44346827 -0.61421216 -0.4199385 0.26617125 -0.25731725 -0.066810474 -0.073090985 -0.25604138 -0.12269806 -0.2221693 0.20150363 -0.021820167 -0.13785428 0.46601307 0.42617837 -0.122705854 -0.08965087 0.1362491 -0.18568632 0.2124765 -0.08350097 -0.12696336 0.29513004 0.026986623 -0.3218424 -0.24201973 0.031958137 0.036311727 0.4164201 0.22515196 0.05353233 0.21265775 -0.22785203 -0.12870231 0.4353062 -0.10003665 -0.23622923 -0.047425874 -0.25879386 0.2416426 0.13552189 0.02936421 0.38457048 -0.0747117 0.0568485 0.05007959 0.018768663 -0.38079044 -0.1339859 -0.225033 -0.5817952 -0.18947259 0.18194641 -0.2183835 -0.34396154 0.038062494 -0.29075938 0.12409812 -0.12344418 -0.22201423 0.14260706 0.41678232 0.2516282 0.1786493 0.107449085 -0.18870606 0.18866083 0.20707391 -0.18157092 -0.18894224 0.16478346 -0.33938363 0.10829149 0.21282578 -0.12781699 -0.41989535 -0.035689328 -0.21201038 -0.42411548 -0.073587656 -0.15009095 0.04731991 0.15594698 0.038599532 0.16954738 0.21680728 0.1063696 -0.017800217 0.120596126 -0.4264861 -0.021345433 0.02601128 -0.47588593 -0.060139257 -0.0013896017 0.18883033 -0.0067980383 0.07931062 -0.111766584 -0.33367997 -0.45109192 -0.029054122 -0.40095395 -0.21267606 -0.14946838 -0.107735075
bulimic 0.10824979 -0.031899165 -0.104413345 0.06422515 0.17482887 -0.08732251 0.058992375 -0.057046123 -0.014884665 0.30455136 -0.07717753 -0.115864486 -0.08155921 -0.21930215 0.00019317001 0.30343342 -0.15681283 0.06529054 -0.11425002 0.21100049 -0.05083847 -0.017157262 -0.27466017 -0.40876302 -0.26729408 0.18071145 -0.16102402 -0.048074868 -0.05921243 -0.15273474 -0.089722216 -0.1498472 0.13543424 -0.0075668786 -0.103350356 0.2961224 0.27456534 -0.08313095 -0.05905333 0.09129058 -0.12331872 0.118030354 -0.062677555 -0.09420333 0.1982959 0.018701551 -0.21430878 -0.1611202 0.021086821 0.031091273 0.27316886 0.14460215 0.03924481 0.11880081 -0.15249477 -0.088131845 0.28094932 -0.07156557 -0.14883448 -0.03069854 -0.1761646 0.16528587 0.079572394 0.021730544 0.24120969 -0.058523983 0.03275963 0.022908386 0.005234066 -0.24191092 -0.089298315 -0.13150258 -0.3855891 -0.13191243 0.12596966 -0.15657881 -0.24024878 0.024074957 -0.1892824 0.07663353 -0.08409765 -0.13504364 0.08389129 0.28055468 0.1738656 0.11923617 0.0837739 -0.10912693 0.13928956 0.123688295 -0.12509774 -0.12467243 0.106291965 -0.21083981 0.068070196 0.13463993 -0.074367285 -0.27204472 -0.020657245 -0.1374431 -0.2825857 -0.061476283 -0.098576225 0.01768611 0.10891933 0.03994219 0.11004873 0.15593505 0.054373845 0.0069496674 0.08314544 -0.2804112 -0.017780345 0.011932955 -0.31244427 -0.041253164 -0.013594632 0.12362892 -0.013474001 0.0678714 -0.06503802 -0.22713755 -0.29266778 -0.020936564 -0.2628662 -0.14798407 -0.091684595 -0.07700254
pretty 0.096782595 -0.01512307 -0.07556598 0.048539013 0.15165363 -0.08500222 0.05092497 -0.041077543 -0.0034109976 0.2705785 -0.05108476 -0.08674502 -0.07606418 -0.19522491 -0.0053391187 0.26865786 -0.1429389 0.07546778 -0.09007009 0.18739547 -0.041849133 -0.022388497 -0.24420568 -0.36115098 -0.23995236 0.15079428 -0.14090586 -0.030822651 -0.035043854 -0.13438714 -0.07568421 -0.119856514 0.10310141 -0.010774365 -0.08869971 0.26210016 0.24636057 -0.06367877 -0.044108424 0.07077879 -0.09300299 0.12572992 -0.05708193 -0.08479987 0.17422616 0.02774859 -0.17995073 -0.14293472 0.01056897 0.015938345 0.2536382 0.11949301 0.021110645 0.12116722 -0.11945003 -0.07303135 0.25496966 -0.06255169 -0.13287155 -0.03455904 -0.14920181 0.13440906 0.075766444 0.010875816 0.22574267 -0.05821501 0.03911815 0.033044223 0.01067458 -0.21883067 -0.08619582 -0.1220012 -0.34259048 -0.108609684 0.092241466 -0.13467433 -0.19880056 0.030982262 -0.17210627 0.07145254 -0.08304082 -0.117833495 0.07481716 0.23874357 0.16074392 0.09656079 0.07164312 -0.10539411 0.118253 0.12979569 -0.11766976 -0.12016392 0.08265319 -0.19684023 0.06065039 0.11100659 -0.06769732 -0.24779241 -0.015102123 -0.11121279 -0.2564903 -0.041256018 -0.0811386 0.017956575 0.08660258 0.015733391 0.09568038 0.12439299 0.055379137 0.0015775918 0.072571896 -0.2421333 -0.014421453 0.01583232 -0.2744505 -0.019371795 -0.00085428695 0.12069205 0.0021762238 0.04542278 -0.061262816 -0.19707963 -0.26104373 -0.015999638 -0.24504672 -0.13369147 -0.09534128 -0.0629351
meal 0.17800783 -0.04584336 -0.15922256 0.10339277 0.2674861 -0.1476809 0.0749892 -0.060349807 -0.006873166 0.46067584 -0.11769352 -0.17403673 -0.12679161 -0.32526997 0.009091822 0.44057375 -0.22641532 0.12202133 -0.16165517 0.3216078 -0.06173307 -0.037235368 -0.41996127 -0.5926577 -0.40808734 0.24679746 -0.24933842 -0.075543985 -0.05524435 -0.24093796 -0.13680285 -0.2094701 0.18555394 -0.014070897 -0.15103433 0.45589775 0.41487437 -0.116930224 -0.07227444 0.13598722 -0.17412537 0.19740152 -0.07922115 -0.1326012 0.2789193 0.03181846 -0.3098309 -0.2316095 0.026460325 0.04563463 0.4062761 0.20116343 0.062337566 0.20959072 -0.20885399 -0.10128478 0.4243511 -0.115832396 -0.22412999 -0.036662612 -0.25120288 0.250352 0.13333826 0.025726609 0.3812997 -0.09140499 0.06356179 0.043116163 0.031000938 -0.35921654 -0.12699148 -0.1932306 -0.5856069 -0.17561695 0.17698854 -0.23549336 -0.35636595 0.05151319 -0.29970497 0.12652467 -0.14149025 -0.21391937 0.13581492 0.39552376 0.2663396 0.18161099 0.11981108 -0.16834198 0.19427852 0.21021657 -0.17966221 -0.20386644 0.13279475 -0.31678662 0.10010107 0.20073038 -0.1349183 -0.42981154 -0.037920825 -0.18801452 -0.4169967 -0.07907045 -0.15663166 0.028914778 0.16180614 0.033221558 0.15684706 0.21889052 0.088468984 -0.0032280858 0.11620347 -0.40526608 -0.004953674 0.03977667 -0.47017393 -0.07114616 -0.018359523 0.19739695 0.0008329536 0.09701943 -0.10341616 -0.35101518 -0.44908002 -0.027618924 -0.38793728 -0.21465868 -0.13412221 -0.084860735
actually 0.14681263 -0.02575093 -0.14244995 0.08389761 0.23642239 -0.103824385 0.079867676 -0.059301127 -0.016082585 0.40368047 -0.09456354 -0.13797934 -0.10835917 -0.28145525 0.01321759 0.39151427 -0.20798048 0.090422325 -0.14932306 0.28024298 -0.06769314 -0.042235717 -0.3834558 -0.54216826 -0.36280453 0.21238802 -0.22484049 -0.06415544 -0.06474453 -0.21084203 -0.1172271 -0.18632412 0.1504303 -0.013118816 -0.10613846 0.40946954 0.3540043 -0.09292861 -0.07409036 0.1087178 -0.14245771 0.16105083 -0.06390229 -0.11921297 0.25780618 0.027513757 -0.26304272 -0.21364714 0.031917486 0.028808976 0.37996095 0.18255086 0.040809814 0.17939131 -0.18828155 -0.11038287 0.38392565 -0.08433483 -0.19259365 -0.030377511 -0.22905299 0.20589106 0.097742386 0.032392103 0.32045537 -0.081983514 0.044759244 0.046765175 0.0100843785 -0.3186226 -0.11151534 -0.20035553 -0.5087843 -0.16638133 0.15048952 -0.18340294 -0.30346236 0.0357183 -0.24815887 0.10122454 -0.107207395 -0.18375622 0.12128136 0.36450619 0.22363666 0.15343402 0.10704963 -0.1448722 0.1549057 0.16376795 -0.17525028 -0.16549766 0.13642754 -0.27647412 0.09820163 0.1910272 -0.10888731 -0.36711928 -0.032804623 -0.16660129 -0.36276248 -0.07026081 -0.13189305 0.021253562 0.14403975 0.040594924 0.1544842 0.18664724 0.08097967 0.0011860428 0.114437245 -0.34291038 0.0022466606 0.022698706 -0.39711392 -0.038024697 -0.007418868 0.17601714 -0.000159568 0.08723899 -0.0954117 -0.29515567 -0.39636374 -0.03159528 -0.34911814 -0.18958244 -0.13772337 -0.09727316
design 0.15226524 -0.043273043 -0.14585589 0.08102105 0.25019634 -0.124889396 0.08270681 -0.0690011 -0.014796206 0.43963557 -0.10762772 -0.13978674 -0.13690443 -0.3016289 0.011688395 0.4510454 -0.22864987 0.097399645 -0.15161027 0.31355923 -0.07809251 -0.04773005 -0.423837 -0.59244865 -0.3913511 0.24932085 -0.24411575 -0.05973709 -0.067473 -0.24027412 -0.12626664 -0.20692475 0.19261383 -0.013693605 -0.12226194 0.4368195 0.39504817 -0.11243632 -0.099756174 0.12904467 -0.17572883 0.19817011 -0.09038637 -0.12477632 0.28123596 0.02373613 -0.2870738 -0.21133532 0.029879842 0.036982264 0.39681986 0.21601692 0.050204784 0.19480406 -0.20128457 -0.111510545 0.41526163 -0.09384942 -0.21984105 -0.029078694 -0.26414582 0.23840705 0.1262653 0.022275453 0.35938147 -0.07756761 0.05905268 0.06055758 0.013346088 -0.36081165 -0.120626256 -0.20524314 -0.56412786 -0.18748423 0.15677342 -0.22342508 -0.3424746 0.028036123 -0.28709 0.11065792 -0.12547827 -0.20461687 0.12018186 0.39167547 0.23836288 0.17580009 0.10833639 -0.17000946 0.18366368 0.19555464 -0.17232168 -0.18695274 0.14058574 -0.3096821 0.10035778 0.19690798 -0.122155964 -0.3897969 -0.039515663 -0.18847524 -0.4075372 -0.07028013 -0.13403335 0.044397697 0.15768419 0.048676476 0.16404036 0.2013933 0.09273893 -0.0103189545 0.11437072 -0.4027521 -0.018962933 0.034519676 -0.4445774 -0.048359413 -0.01210115 0.17423056 0.0035861928 0.09196952 -0.108213715 -0.33348492 -0.43080023 -0.037052825 -0.37696934 -0.20736514 -0.14537425 -0.096729994
self 0.20239632 -0.03909006 -0.1863824 0.11417386 0.32534674 -0.1521106 0.1096573 -0.081565835 -0.03277419 0.5587902 -0.13708909 -0.18441835 -0.16594899 -0.39269176 0.0004013771 0.57728344 -0.31468132 0.14614359 -0.18701598 0.39010254 -0.08027462 -0.041067746 -0.53417945 -0.76271623 -0.51810306 0.3085259 -0.3041809 -0.09212042 -0.09669591 -0.30278674 -0.17042077 -0.2589778 0.22977956 -0.02182718 -0.18005164 0.56084144 0.520021 -0.14514844 -0.122579254 0.16586676 -0.20690964 0.25071797 -0.10041148 -0.1596846 0.35083154 0.042588 -0.3857323 -0.28051698 0.046602283 0.04245209 0.52308744 0.25386775 0.057065163 0.24416132 -0.2500351 -0.15782285 0.5365258 -0.117350236 -0.27340928 -0.057298306 -0.3239178 0.30435154 0.15687859 0.020906316 0.46427873 -0.0969018 0.07952263 0.062439613 0.0074327905 -0.45209265 -0.1555371 -0.25913823 -0.71553737 -0.22212864 0.22333969 -0.27546668 -0.43913567 0.05179448 -0.35395157 0.14455785 -0.14773433 -0.27513248 0.1517263 0.4947959 0.3146878 0.21801038 0.13615073 -0.21737202 0.24150054 0.2598062 -0.2221213 -0.24998768 0.18876997 -0.4044156 0.1279668 0.26024774 -0.16393627 -0.50623816 -0.045825727 -0.23743199 -0.5231834 -0.108690515 -0.17844558 0.05141697 0.19733682 0.040264826 0.20111503 0.26952788 0.12116857 0.002761041 0.14130068 -0.49618 -0.02273762 0.041863114 -0.5715956 -0.052142736 -0.008645953 0.24776755 -0.006906239 0.10675336 -0.12768525 -0.42204654 -0.5469502 -0.0292434 -0.5052459 -0.2687036 -0.1894009 -0.12520497
always 0.15959294 -0.03573219 -0.1362352 0.08821844 0.24165516 -0.12742645 0.06734051 -0.056430656 -0.009627439 0.41696283 -0.10201216 -0.14693756 -0.1272262 -0.2905571 0.016293997 0.4221534 -0.2208446 0.09860122 -0.15336847 0.30776986 -0.07748347 -0.03771886 -0.383213 -0.565213 -0.37974694 0.23286015 -0.22325905 -0.069849014 -0.057966094 -0.21355313 -0.12834415 -0.20552942 0.1772687 -0.015238918 -0.13925539 0.41864282 0.37349015 -0.11387262 -0.0787124 0.11974865 -0.16255319 0.17646144 -0.08767944 -0.10768322 0.27020496 0.043716554 -0.28690937 -0.20627405 0.029108206 0.024687322 0.38457704 0.19583164 0.043252435 0.17133158 -0.18721485 -0.0914641 0.39866534 -0.09585429 -0.19036819 -0.037461314 -0.24397749 0.23104829 0.11569335 0.030186202 0.35730934 -0.06722022 0.053114753 0.04142642 0.011412291 -0.33924842 -0.13858558 -0.18721321 -0.53428245 -0.16923206 0.15322931 -0.19631004 -0.3076621 0.02459508 -0.26468152 0.11344442 -0.12348883 -0.19378304 0.11847031 0.38038477 0.23370102 0.14761384 0.09031528 -0.15231949 0.16395675 0.1862557 -0.16541152 -0.16395353 0.14658493 -0.28924528 0.10144827 0.18652935 -0.10862563 -0.38222417 -0.033383045 -0.17080924 -0.3939273 -0.057395983 -0.13123856 0.04993724 0.15004303 0.039534327 0.14414537 0.2101067 0.08682851 -0.0068793925 0.12151722 -0.37464762 -0.012099029 0.027915914 -0.42104423 -0.04774696 -0.0087161455 0.17769589 0.0019172773 0.06589103 -0.10126692 -0.29677728 -0.41098326 -0.026906768 -0.37168455 -0.21231224 -0.13393699 -0.08686995
post 0.1491615 -0.045660954 -0.12984125 0.078986086 0.23651794 -0.114800826 0.07857731 -0.052761838 -0.010599838 0.42672995 -0.09616114 -0.15923713 -0.11898649 -0.29073322 0.0030113738 0.42085063 -0.21364684 0.09845859 -0.14953668 0.2879424 -0.08135201 -0.045859132 -0.387493 -0.5587469 -0.3775259 0.24310037 -0.22359265 -0.05448153 -0.06288164 -0.20945333 -0.11360889 -0.18972227 0.1719476 -0.033089742 -0.13319258 0.43110156 0.38828284 -0.095516756 -0.09005679 0.11161929 -0.16516086 0.17710005 -0.07573498 -0.12852877 0.27737823 0.031603202 -0.2796651 -0.21182986 0.031042095 0.02190581 0.37571684 0.20515627 0.043954622 0.17483535 -0.19411765 -0.1201427 0.39945355 -0.09047543 -0.19238834 -0.025638452 -0.24785824 0.22696577 0.11652056 0.03573001 0.34169152 -0.074323714 0.064541705 0.05364794 0.00749437 -0.3405397 -0.13157882 -0.19764717 -0.55019826 -0.17021497 0.17082559 -0.19593576 -0.3233091 0.03165135 -0.26481277 0.09494009 -0.133193 -0.19851294 0.1266112 0.36805183 0.24468139 0.16028291 0.104152836 -0.16571808 0.16288419 0.17942378 -0.1697491 -0.18367058 0.1528801 -0.288092 0.08430692 0.18875566 -0.1250557 -0.3870972 -0.03705471 -0.1805202 -0.38093928 -0.06897995 -0.1258754 0.03137144 0.15871866 0.043803476 0.15877235 0.1970326 0.0854449 0.0027106793 0.09835588 -0.3766344 -0.0048918934 0.01781346 -0.42713204 -0.050090145 -0.012791244 0.17987615 -0.005666126 0.08861251 -0.09515638 -0.30554423 -0.4131002 -0.023651177 -0.3640114 -0.1938006 -0.13510434 -0.0840805
even 0.12549126 -0.02788105 -0.11935868 0.06422846 0.21062206 -0.103785016 0.06554838 -0.050649185 -0.018088087 0.3475664 -0.0832189 -0.11019556 -0.11519559 -0.24711107 0.0149475895 0.35611534 -0.18561769 0.08372746 -0.12312155 0.25557092 -0.06307297 -0.02063955 -0.33872506 -0.46447477 -0.3040749 0.19710399 -0.19473265 -0.062339403 -0.064802326 -0.18921022 -0.10638235 -0.17067808 0.13663487 -0.008545128 -0.113941096 0.35807157 0.32601178 -0.10283601 -0.07788848 0.103858024 -0.14199807 0.14855392 -0.07575796 -0.0892938 0.21950178 0.016063293 -0.236249 -0.17859016 0.015878953 0.025320021 0.3119674 0.16445531 0.051538378 0.14157085 -0.1565692 -0.10146342 0.32834315 -0.090048335 -0.16976623 -0.03779874 -0.20103417 0.18528114 0.10022546 0.023427185 0.29118845 -0.060772482 0.051405463 0.048367746 0.003941674 -0.29579815 -0.09969948 -0.1715013 -0.4434751 -0.1354979 0.1343579 -0.16242766 -0.26813018 0.019677155 -0.22132944 0.10100993 -0.10681383 -0.16727258 0.1037049 0.30757996 0.18930277 0.12185149 0.07808362 -0.14445162 0.15438679 0.14884983 -0.15031481 -0.14755706 0.1217776 -0.2597917 0.07463477 0.15923347 -0.09954686 -0.30287895 -0.04266352 -0.15155222 -0.33630982 -0.068820514 -0.11024372 0.029204363 0.12987195 0.027856717 0.12835036 0.17884402 0.07866154 -0.011583429 0.110691234 -0.3317381 -0.013236536 0.021381907 -0.3502325 -0.04235028 -0.0029199373 0.1517354 -0.0016463967 0.056476884 -0.08080063 -0.26326302 -0.34556046 -0.02016784 -0.30360845 -0.17451811 -0.11466724 -0.067623146
drop 0.12495272 -0.033672616 -0.10464283 0.06310706 0.18331298 -0.095975325 0.06808157 -0.05642949 -1.5438543e-05 0.33576688 -0.08615791 -0.10785736 -0.10546891 -0.2189135 -0.0018673607 0.3357921 -0.18287429 0.08462727 -0.11402683 0.2265269 -0.051324576 -0.027997116 -0.3156369 -0.43128422 -0.30160892 0.18229869 -0.18684182 -0.04125887 -0.052245345 -0.16963394 -0.10847987 -0.15874489 0.13430639 -0.008886266 -0.10798124 0.33869764 0.28721777 -0.07546557 -0.06887808 0.09091854 -0.12939303 0.1419548 -0.0657285 -0.086639136 0.19710796 0.029431073 -0.2187007 -0.17436118 0.028694104 0.027387643 0.29295418 0.1417616 0.028010864 0.1525148 -0.14351958 -0.07976091 0.3089516 -0.07424598 -0.15701522 -0.023345336 -0.182116 0.17137797 0.09488315 0.003793731 0.2791474 -0.062415008 0.045064148 0.030595662 0.006981822 -0.27102533 -0.08824548 -0.14142852 -0.42030516 -0.1388532 0.13024683 -0.16697022 -0.2565955 0.0309752 -0.21070212 0.081895865 -0.084228314 -0.15104288 0.10233428 0.28826296 0.19510187 0.11865891 0.09059523 -0.1296786 0.14991924 0.15664482 -0.13017681 -0.14209606 0.09631098 -0.22168443 0.06499226 0.14213444 -0.09289018 -0.309056 -0.029780248 -0.13289995 -0.30464146 -0.04775727 -0.10766968 0.037585568 0.117574535 0.020830879 0.11566991 0.14768516 0.070053585 -0.009417931 0.09543242 -0.2893159 -0.019936334 0.022462085 -0.34136003 -0.047923747 -0.020153385 0.140982 0.008288141 0.07355016 -0.06272572 -0.24478507 -0.33165923 -0.012730548 -0.2950157 -0.1520671 -0.11327784 -0.07136258
advice 0.1465783 -0.024806166 -0.11737179 0.069760986 0.22662047 -0.10783972 0.051062007 -0.048670057 -0.01335493 0.3782577 -0.09725416 -0.13329123 -0.12185986 -0.2745609 0.007841339 0.38171223 -0.20438148 0.09016457 -0.14467752 0.2599741 -0.060790945 -0.04601255 -0.36223283 -0.50329196 -0.35131398 0.21502629 -0.19054465 -0.049509834 -0.06718206 -0.19433433 -0.095746145 -0.18971884 0.15765084 -0.026301902 -0.12229618 0.38463688 0.3329247 -0.10450419 -0.088885434 0.10297805 -0.15317072 0.16204277 -0.05779546 -0.11223114 0.22415435 0.030913927 -0.2602647 -0.20046064 0.024087043 0.03301199 0.34097964 0.18559983 0.046847764 0.17679232 -0.1830229 -0.10525893 0.36285064 -0.091666035 -0.19438241 -0.039638184 -0.21881479 0.20735823 0.09511612 0.026232986 0.32003757 -0.07101745 0.04644311 0.05391955 -0.0012764448 -0.30413222 -0.09976147 -0.17459805 -0.4874519 -0.15146656 0.12824279 -0.18359005 -0.2937012 0.04555222 -0.23823899 0.080682345 -0.10681887 -0.17208186 0.11803855 0.34378237 0.21583663 0.14229703 0.08702981 -0.13342246 0.16873546 0.16426255 -0.13908353 -0.16411203 0.12397041 -0.2767429 0.088271104 0.17153785 -0.10990149 -0.32410985 -0.018957946 -0.17300032 -0.36024624 -0.07177883 -0.12970409 0.044907987 0.1414739 0.031819034 0.1533071 0.189049 0.07068488 -0.0052644196 0.10646879 -0.34657443 -0.0070176907 0.034365315 -0.37807718 -0.05587272 -0.01651284 0.15978363 -0.011496778 0.07782419 -0.07719827 -0.28635034 -0.35277867 -0.018095966 -0.34232777 -0.17279136 -0.12225193 -0.08093235
thought 0.17105845 -0.029223189 -0.16272949 0.08442421 0.26335698 -0.12811224 0.09185125 -0.07719528 -0.012878332 0.45293316 -0.12043994 -0.15811177 -0.14939202 -0.3211636 0.015879277 0.46276775 -0.2475386 0.10964285 -0.1596194 0.32448852 -0.08153459 -0.0443824 -0.43151766 -0.6173148 -0.40892285 0.2663946 -0.23615247 -0.06617932 -0.070621915 -0.25141367 -0.13669306 -0.22251602 0.19641362 -0.02072904 -0.1387765 0.46261147 0.40750083 -0.12684022 -0.093201354 0.12376621 -0.1703087 0.18918595 -0.10117465 -0.1454937 0.29038465 0.044337362 -0.3190023 -0.24010728 0.0399082 0.014763825 0.4104804 0.21409406 0.05492979 0.18908013 -0.22653209 -0.112339035 0.44003636 -0.09740928 -0.21594945 -0.039413203 -0.25822175 0.22541162 0.13182293 0.028354637 0.38450825 -0.08248767 0.05187301 0.059938017 0.026995676 -0.3548895 -0.14209841 -0.21007779 -0.59154564 -0.19206868 0.16778947 -0.23332156 -0.3482811 0.026522007 -0.28600788 0.10333872 -0.13290535 -0.21845952 0.12177033 0.41478613 0.25545207 0.17221999 0.096216105 -0.18114695 0.18621504 0.18521579 -0.19977012 -0.19156522 0.16688466 -0.33061805 0.10172041 0.21493244 -0.12265425 -0.40711033 -0.033268686 -0.20077261 -0.42147908 -0.06922628 -0.14256269 0.029898575 0.15998812 0.047011115 0.16790846 0.22731414 0.102896094 -0.02038398 0.12170986 -0.40824467 -0.011447786 0.025931993 -0.45365557 -0.044439822 -0.012036653 0.19986358 -0.0073981434 0.09245813 -0.11964653 -0.34401277 -0.4473259 -0.026605645 -0.40447897 -0.23461187 -0.1418198 -0.10989253
clothes 0.12067522 -0.030046014 -0.098411 0.071413 0.17888364 -0.07173103 0.05612445 -0.05132369 -0.00872758 0.3016523 -0.07609844 -0.09822821 -0.08191722 -0.21151097 0.00034023335 0.30030516 -0.15296929 0.0683736 -0.10540705 0.21259832 -0.054465666 -0.0363645 -0.26819894 -0.3966744 -0.260383 0.15919715 -0.14251655 -0.042056408 -0.050781123 -0.16101383 -0.06917542 -0.13011785 0.11325601 -0.01690558 -0.09144316 0.28788963 0.25296485 -0.08211907 -0.06120296 0.0888446 -0.11971423 0.13085952 -0.049346108 -0.08657192 0.18293685 0.013378955 -0.20580648 -0.15701896 0.021437325 0.023939153 0.26309052 0.12673765 0.030077871 0.14367175 -0.13173082 -0.08006434 0.27274033 -0.07231929 -0.1452557 -0.03404845 -0.16980696 0.14505279 0.07826408 0.017494429 0.24799553 -0.05866518 0.049957346 0.048050676 0.00210566 -0.22778843 -0.07188918 -0.13723291 -0.38612828 -0.12229104 0.09798452 -0.14693962 -0.23845896 0.026743973 -0.1880878 0.085451 -0.0841519 -0.13414572 0.0888606 0.26349396 0.1770614 0.108055964 0.084264114 -0.107103296 0.11358643 0.13537985 -0.116245724 -0.12862717 0.108596995 -0.22072458 0.062005755 0.13428548 -0.08132755 -0.2564978 -0.010974237 -0.12266723 -0.275604 -0.052407514 -0.08716153 0.023112679 0.09682101 0.0078116814 0.10645935 0.13110542 0.059042268 0.0012207231 0.08116088 -0.25767195 0.0036389346 0.03145377 -0.30083138 -0.0365121 0.004386487 0.13330352 0.010582752 0.04923547 -0.06257674 -0.2174067 -0.2877462 -0.022434486 -0.26492143 -0.12815207 -0.0894766 -0.05372153
today 0.14395432 -0.031194506 -0.11686015 0.07356583 0.21955678 -0.12075712 0.05440088 -0.07183271 -0.02355234 0.38401365 -0.08068232 -0.14757945 -0.11796299 -0.27994588 0.0070070694 0.398174 -0.22043213 0.09662197 -0.13101457 0.28812706 -0.06709345 -0.046443023 -0.38246563 -0.5178931 -0.36172718 0.21660127 -0.21192335 -0.07588352 -0.06627623 -0.2139144 -0.11853973 -0.18959047 0.17406145 -0.014970754 -0.12882678 0.40478596 0.3693222 -0.09460336 -0.08109306 0.12078999 -0.14220405 0.1740571 -0.06578469 -0.11457383 0.24848026 0.031847708 -0.2616494 -0.21458368 0.025963414 0.031327292 0.37711844 0.18676168 0.039477013 0.1595745 -0.17830294 -0.098624125 0.36996603 -0.10166952 -0.19534673 -0.03476199 -0.22315203 0.21510282 0.10794025 0.020662181 0.3288438 -0.08193277 0.056478918 0.051383402 0.00089573755 -0.32810885 -0.12827405 -0.18462428 -0.5212707 -0.15494478 0.16291897 -0.19605772 -0.30076128 0.030908804 -0.25212634 0.09863102 -0.12134263 -0.18256493 0.12464477 0.35693887 0.21613991 0.14796947 0.08722234 -0.14890693 0.17242059 0.16791561 -0.17457126 -0.16272497 0.122585915 -0.29180664 0.099460475 0.18414822 -0.102614075 -0.3707315 -0.036370154 -0.18508402 -0.3677972 -0.072896436 -0.12237562 0.040862404 0.13891326 0.036328796 0.15602313 0.19168149 0.076932 -0.0116973715 0.11661932 -0.3501555 -0.0066569904 0.015597928 -0.39808404 -0.043522857 -0.026990263 0.16295983 -0.0011076253 0.07573087 -0.09450093 -0.29519898 -0.3913816 -0.026155092 -0.35060117 -0.19371329 -0.12862867 -0.09319965
also 0.17377608 -0.042345617 -0.15703669 0.07733274 0.25368443 -0.13028254 0.0675486 -0.05791503 -0.008261089 0.44142193 -0.09980576 -0.16846041 -0.14915922 -0.3183012 0.014568397 0.45096746 -0.24575214 0.112506025 -0.15461498 0.3065841 -0.070256844 -0.036480248 -0.41491458 -0.60755074 -0.41133603 0.26647577 -0.24194252 -0.07829747 -0.075251445 -0.2280415 -0.13352725 -0.20595449 0.18606202 -0.036093954 -0.14006962 0.452361 0.4011986 -0.1074442 -0.08451366 0.1372 -0.1694322 0.19564621 -0.07235623 -0.1233333 0.28458574 0.039263908 -0.30675772 -0.23144087 0.03427625 0.030886862 0.40649045 0.21516442 0.042956375 0.18337965 -0.22571184 -0.12370991 0.4176282 -0.09157981 -0.21578474 -0.04241846 -0.26673564 0.23286253 0.12512934 0.028365104 0.37980393 -0.07274836 0.0555631 0.049261805 0.02073475 -0.3632293 -0.13793412 -0.20194367 -0.5684288 -0.18792017 0.1826071 -0.22775531 -0.34837487 0.03769577 -0.28768694 0.10303642 -0.12763378 -0.22057222 0.13164337 0.40715197 0.25851187 0.17315973 0.12211571 -0.16232441 0.17623661 0.1866 -0.18942256 -0.19785069 0.16046242 -0.3063504 0.10242046 0.20928876 -0.122747935 -0.4095433 -0.03606513 -0.21404952 -0.4170883 -0.08376663 -0.13599712 0.045419335 0.16867775 0.03349601 0.16913234 0.20643942 0.09588363 -0.003945514 0.12531453 -0.40520418 -0.008613284 0.023400318 -0.4680617 -0.05898298 -0.01714061 0.18448296 -0.0011935415 0.07853649 -0.09225486 -0.33215266 -0.43806663 -0.03737401 -0.38984913 -0.21140811 -0.1507571 -0.09281448
really 0.1606264 -0.018836983 -0.13370155 0.0667158 0.22565886 -0.113052614 0.08261996 -0.064523466 -0.031061945 0.42959145 -0.10330543 -0.1543712 -0.1363199 -0.30302703 0.008661249 0.424851 -0.21928324 0.11956757 -0.13751158 0.29224986 -0.07860578 -0.047069646 -0.4052197 -0.5719384 -0.3602796 0.23490928 -0.23059307 -0.08511122 -0.049326144 -0.22921276 -0.11752434 -0.19398327 0.18200327 -0.034297463 -0.1286229 0.4404829 0.37478837 -0.10292556 -0.08098766 0.13292646 -0.14988387 0.19806983 -0.08521159 -0.11524278 0.27080068 0.029957257 -0.28653952 -0.21666485 0.02101263 0.014124007 0.40839273 0.207984 0.06543447 0.19348775 -0.19447662 -0.09951463 0.38989493 -0.09730106 -0.19640204 -0.051561765 -0.2460562 0.21572027 0.11569414 0.022132795 0.34669912 -0.07687812 0.05868919 0.057761315 0.0049198936 -0.3203996 -0.1281313 -0.2061265 -0.53239733 -0.17969693 0.14178869 -0.21723256 -0.31537476 0.03266045 -0.27382162 0.089932986 -0.12298581 -0.20805457 0.11149215 0.36990753 0.24090077 0.1507723 0.10260574 -0.1428561 0.1668336 0.19269288 -0.19186077 -0.17365482 0.14466187 -0.3113043 0.0867053 0.20694734 -0.11729391 -0.39724043 -0.03976233 -0.19183381 -0.3874118 -0.0710507 -0.13945712 0.02463006 0.14530449 0.024094595 0.16043203 0.20364705 0.10307643 -0.015837086 0.12088478 -0.37458518 0.0006370164 0.015019119 -0.43021545 -0.03786375 -0.015213589 0.18370192 -0.007187434 0.07287143 -0.10778094 -0.31488386 -0.42474148 -0.024645982 -0.37287298 -0.20446262 -0.1345904 -0.096148096
may 0.13901892 -0.020324543 -0.14285816 0.07948476 0.22698529 -0.102953084 0.06269224 -0.07304298 -0.01380245 0.39992985 -0.0946336 -0.14641294 -0.12309972 -0.27761516 0.0035638965 0.39401022 -0.21833399 0.09479112 -0.14197646 0.2734029 -0.07488719 -0.04833446 -0.3778191 -0.52942234 -0.34257856 0.21997435 -0.22093622 -0.070997596 -0.06674762 -0.21394755 -0.112560436 -0.19268332 0.15661149 -0.020291679 -0.11987011 0.4074464 0.36544153 -0.10590109 -0.07921402 0.1107312 -0.15199548 0.15664592 -0.072122656 -0.11289524 0.253603 0.029999863 -0.26063883 -0.20623387 0.02131439 0.025866218 0.37422124 0.17571183 0.03679496 0.16745315 -0.18467475 -0.093740776 0.37402815 -0.08656941 -0.19791502 -0.04060381 -0.23078522 0.20985149 0.10033297 0.030824129 0.3244872 -0.07332896 0.046245735 0.060447082 0.011904003 -0.3145999 -0.11272063 -0.19555445 -0.51459503 -0.16918853 0.16236135 -0.18414009 -0.31379125 0.036791638 -0.24835774 0.09885094 -0.12348778 -0.19262163 0.107216105 0.361826 0.232006 0.14521411 0.10336252 -0.15294798 0.16409546 0.16262522 -0.15628931 -0.17028886 0.13232766 -0.27139044 0.08181045 0.17855014 -0.11653194 -0.36923093 -0.033541013 -0.16664588 -0.37405065 -0.069758296 -0.13436209 0.0332511 0.13558714 0.028456023 0.15706944 0.18423662 0.06770992 0.00021252241 0.09962158 -0.35775244 -0.0026173003 0.03654282 -0.39381465 -0.03990694 -0.016921623 0.18537785 0.0036850525 0.08587927 -0.08376413 -0.2908829 -0.38391438 -0.02271529 -0.34160572 -0.19544047 -0.13574524 -0.08295924
best 0.14815824 -0.031394683 -0.12979376 0.088044256 0.22176544 -0.114970885 0.06163961 -0.06974805 -0.010172909 0.41081694 -0.098641224 -0.12598443 -0.12918538 -0.28056195 0.0023100937 0.41037107 -0.20394129 0.10564914 -0.14783023 0.27704147 -0.071964316 -0.030336441 -0.37879437 -0.54834926 -0.37369832 0.22655818 -0.21845253 -0.058246966 -0.061636552 -0.21065357 -0.107670456 -0.18240151 0.16214535 -0.018991701 -0.10773186 0.41037557 0.3701681 -0.09353541 -0.09262802 0.12225352 -0.15351099 0.16937432 -0.080443144 -0.11042825 0.24895461 0.021392897 -0.27641225 -0.20593873 0.02652388 0.020585246 0.36448556 0.19511396 0.059563987 0.18224669 -0.18426526 -0.09789913 0.36806104 -0.08818321 -0.195341 -0.03447591 -0.24042805 0.20437 0.11376784 0.025178058 0.34137213 -0.07536169 0.049999755 0.041158114 -0.0045677572 -0.3281158 -0.108715355 -0.19631658 -0.5213619 -0.17112237 0.14160685 -0.19484982 -0.31030363 0.04653909 -0.25350037 0.09639447 -0.120575905 -0.18840557 0.11408693 0.36936206 0.23518522 0.1462907 0.104580574 -0.14919606 0.17620341 0.1857581 -0.15762345 -0.16620187 0.13329989 -0.2901698 0.10181949 0.17847463 -0.09946938 -0.3656994 -0.025318112 -0.18048401 -0.36926538 -0.06274699 -0.13055712 0.031410832 0.15130891 0.03462839 0.16304663 0.18824968 0.080887504 -0.005604958 0.11527309 -0.3679027 -0.01127172 0.012949401 -0.40618426 -0.041710198 -0.017035497 0.16910389 -0.004440205 0.07665126 -0.07696372 -0.310554 -0.38089168 -0.036446154 -0.36282375 -0.18483837 -0.13384852 -0.08510266
