1410 128
eat 0.2097439 0.22072533 -0.108262025 0.08632539 0.21544845 0.11767326 0.16588855 0.16441485 0.085379966 0.516545 0.042788967 0.050579786 -0.048851717 -0.07357091 0.37115002 0.339484 -0.2842542 0.10355929 -0.56630325 0.4683874 0.06250106 -0.015002757 -0.2759114 -0.49384737 -0.27233973 0.012353304 -0.48095798 0.1611957 -0.103315614 0.06564267 0.16598353 -0.06915153 -0.10259179 0.40271646 0.11450115 0.29523134 0.24302992 -0.24407448 -0.21500544 0.12712732 -0.041129835 0.14812313 -0.20237409 -0.12898222 0.5316715 -0.42274556 0.060398716 -0.27716097 -0.3745579 -0.15542091 0.35252324 -0.06796855 -0.169445 -0.096942544 0.3131664 -0.123051405 0.9438816 0.09838581 -0.4272295 -0.025501823 -0.79929614 0.18771718 0.31386837 0.115441106 0.23337036 0.04451034 0.22065133 -0.13019957 -0.41369545 -0.31586593 -0.38509732 -0.22365667 -0.4569631 -0.09211195 0.4001277 -0.1168174 0.2249641 -0.09313973 -0.41933906 -0.12522453 -0.31703123 -0.06638123 0.22165358 0.34482744 -0.048532505 0.32787043 0.088596106 -0.3568649 0.48320362 0.27323765 0.1664714 -0.46280628 0.42516953 -0.01470604 0.1580408 0.09202935 -0.54095745 -0.5594192 0.22158813 0.19444591 -0.237388 -0.038246192 -0.2947986 -0.30712888 0.23928083 0.4416014 -0.59099895 0.20225783 0.12883505 -0.34848535 0.14162141 -0.4020531 0.03607066 0.34811467 0.0779636 0.2945483 0.10581033 -0.41517332 0.18643 0.1174263 0.1862489 -0.19705407 -0.46534947 0.19162111 -0.23816428 0.07040147 0.056571484 -0.094666936
feel 0.20653312 -0.15114191 0.07158449 0.21841878 0.56869245 -0.08491354 0.16874002 -0.21298248 0.22125797 0.3349053 0.61978114 0.14068156 0.03552661 -0.33279058 0.09545524 0.3984814 -0.56242 0.2814578 -0.83138275 0.53132886 0.23028725 -0.07915077 -0.88787305 -1.0006278 -0.8952419 0.13674007 -0.65846986 0.10180393 -0.03800788 0.7046786 0.4991242 0.044623367 -0.0799384 0.362149 0.13135758 0.62788236 0.50205386 -0.24215007 -0.49328792 -0.051216654 0.10784938 0.44930184 -0.0079757655 -0.08680622 -0.16400267 -0.7156997 -0.15695144 -0.6312417 -0.3442263 -0.2210858 0.35942486 -0.16001566 -0.58527935 -0.045632575 0.8875402 -0.25191325 0.65547466 -0.08606468 -0.32287064 0.12504742 -0.7001801 0.43609443 0.32498896 -0.07420014 0.08910876 0.15929292 0.118374854 -0.0879381 -0.271595 -0.3957063 -0.19991933 -0.50064605 -0.29418975 -0.0968289 0.19250253 -0.21197166 0.37575468 -0.056412287 -0.41665292 -0.4737349 -0.27649555 0.3603632 0.3561684 0.35659865 0.29391068 0.63362426 0.00848523 -0.61942565 0.26015127 0.35629064 0.09812629 -0.42567858 0.5326912 0.30755076 0.23521633 -0.269292 -0.55406713 -0.91189617 0.27218235 -0.28445888 -0.37181187 0.14412309 -0.1265099 -0.21597189 0.12891215 0.5285419 -0.8399643 0.1360358 0.24488868 -0.8772756 0.3884976 -0.3321366 -0.24233837 0.80026764 0.04062847 0.42601836 0.19168483 -0.3473968 0.39736977 0.44807813 0.008108533 -0.24748223 -0.60918844 0.010249654 -0.2645254 -0.13987134 0.22630653 -0.24169801
like 0.21637353 -0.30379653 0.030971527 0.22029549 0.514193 -0.056704156 0.32891497 -0.1411824 0.12687151 0.42687538 0.5018816 0.11453353 -0.02471466 -0.2200465 -0.11712195 0.33988485 -0.502315 0.21812826 -1.0020882 0.48312995 0.14092915 0.064215064 -0.91196376 -0.9203895 -0.9533504 0.16038387 -0.67275876 0.09985207 0.020609608 0.8192621 0.38549387 0.08583403 -0.11643821 0.28997046 0.30228674 0.5788034 0.60569984 -0.15181388 -0.4509978 0.027975611 0.080910444 0.2898356 -0.02417062 -0.1009019 -0.15731356 -0.7867263 -0.08490581 -0.6194475 -0.4074033 -0.30549857 0.4225657 -0.18097498 -0.68833727 -0.12140723 0.8076081 -0.28892174 0.81539553 -0.020049606 -0.3830888 0.057100248 -0.81686616 0.34889677 0.27981427 -0.035959892 -0.039475314 0.010639937 -0.031005036 -0.12841038 -0.39197755 -0.4280199 -0.09230282 -0.51320106 -0.16563989 -0.0591659 0.35743162 -0.09399649 0.4316333 -0.03481869 -0.4199191 -0.35987458 -0.24744447 0.26548976 0.32170185 0.330921 0.32615617 0.55757636 0.15145634 -0.5328315 0.31724966 0.4047161 0.09494746 -0.38436565 0.61062783 0.362386 0.33339566 -0.46187046 -0.63081324 -0.9545538 0.42211345 -0.14464913 -0.45388854 0.21492484 -0.38151643 -0.21287426 0.3247268 0.6293878 -0.7617364 0.27962738 0.21477604 -0.87707967 0.41326368 -0.4650318 -0.24727038 0.7181324 0.14373404 0.29521173 0.104828 -0.16469851 0.4454826 0.33230504 0.09973256 -0.27237558 -0.5647411 0.0012682246 -0.2639732 -0.0565882 0.35219365 -0.45463407
weight 0.014235716 0.13696206 0.39270687 -0.46951407 0.0401093 -0.3045948 0.13396 -0.81453544 0.17238247 0.8492954 0.39517343 0.05547987 -0.33809 0.035127755 -0.099070705 1.1476213 -0.7673127 0.13941234 -0.8351619 0.7727259 -0.06976199 -0.30138135 -0.9893879 -1.2737006 -1.1908926 0.15099862 -0.9675362 0.18514435 -0.61949384 -0.012849297 0.012997305 -0.49544093 -0.01453305 -0.2233978 -0.049881328 1.2271162 -0.007801678 0.076017074 -0.78710437 -0.071315974 0.013161259 0.9349277 -0.36951017 -0.3935415 -0.095866986 -0.8004852 -0.5406614 -0.8050406 0.048802424 -0.27577725 0.72702783 -0.3623078 -0.82702565 -0.19293575 0.8724825 -0.7558155 0.63332355 -0.33618912 -0.2802861 -0.078016385 -0.9590447 0.45625964 -0.0631732 0.29869956 0.5984666 0.11918806 0.36102566 -0.31769878 -0.3390132 -0.92940354 -0.82038933 -0.30212316 -0.86225426 -0.3905909 1.0242285 -0.29973182 0.31440154 -0.394755 -0.6251563 -1.0292554 -0.2619322 0.06640047 1.014704 -0.13370252 0.22945845 0.8431884 0.35634243 0.26898512 -0.19656336 0.44123942 0.17756209 -0.42291275 0.09112016 0.111647815 0.38650352 0.23728539 -0.50657445 -0.81122774 -0.25971115 -0.2652355 -0.165494 0.9198179 -0.35678 -0.17780145 0.057714883 0.4656814 -0.8330227 0.55451256 0.49941286 -0.19244261 0.6991268 0.37412658 -0.26126662 -0.04063783 0.002934025 -0.038879387 0.22952265 -0.35662326 0.21195088 0.41651204 0.59402865 -0.41649652 -0.98997754 0.048235364 -0.8897383 -0.63111943 -0.2168698 0.063773654
get -0.013828774 -0.063008286 0.21204863 -0.022939304 0.40026218 -0.13785195 0.09867776 -0.31419405 -0.07023892 0.35704938 0.40621287 0.04075376 -0.10730857 -0.28879115 -0.11498065 0.43171325 -0.18489441 0.3645837 -0.44090572 0.43596095 0.04563963 0.079356834 -0.4548999 -0.8519957 -0.6566197 0.117390744 -0.40754777 -0.09096192 -0.3709298 0.06651799 0.0755368 -0.107903115 0.044293858 -0.13101308 0.15856965 0.46601132 0.27393907 -0.07050863 -0.3733478 0.03406067 -0.15904121 0.42179903 -0.13438916 -0.24268718 0.03102336 -0.38755393 -0.1922384 -0.46667668 0.059494738 0.004139712 0.4515684 -0.15692432 -0.29799914 0.015229277 0.23073532 -0.05598222 0.37926155 -0.15091163 0.038369253 0.009901191 -0.3656843 0.2903472 -0.06991467 -0.030583737 0.44192344 0.1558499 0.11538745 -0.0678588 -0.15181738 -0.26354918 -0.14646065 -0.30220786 -0.45021322 -0.3977784 0.4268025 -0.13471878 -0.08224485 -0.1820483 -0.23124881 -0.118136406 -0.10396983 0.11600597 0.27456477 0.27222943 0.11227082 0.5317314 0.15741229 -0.19861813 -0.18980294 0.17088778 -0.006848026 -0.2230642 0.16353674 0.12394165 -0.012699286 0.08327834 -0.13670439 -0.51222134 -0.04858306 -0.3938025 -0.36728907 0.14479043 -0.19207 0.12703101 0.12696886 0.31300423 -0.362787 0.011574143 0.19361553 -0.3466296 0.18714228 0.15565887 -0.15620863 0.114927664 0.10069943 0.04589563 0.34420922 -0.0015688278 0.3788853 0.30637345 0.09296993 -0.31512916 -0.5342512 0.10103691 -0.5050651 -0.20521796 0.08382694 -0.10724018
know 0.07726961 -0.14761442 0.06334332 0.089886695 0.26261765 0.019193916 0.33989275 -0.21111256 -0.11407607 0.36454335 0.26573193 0.16152798 0.109385364 0.10354404 0.13743757 0.44766468 -0.30659136 0.18417771 -0.74451756 0.34323645 -0.16006401 0.09839275 -0.6078639 -0.7433694 -0.63728327 0.18629071 -0.43452138 0.14645995 -0.11426929 0.19824365 0.06211471 0.0026813105 -0.14873455 0.19150801 0.027742356 0.5451234 0.35377404 -0.054395434 -0.38639262 -0.044339817 -0.09214607 0.21112466 -0.009112226 -0.038552232 0.32262418 -0.37010056 -0.11527237 -0.1702631 -0.27883315 0.04464383 0.3285993 -0.019139152 -0.30893493 -0.11454542 0.66420275 -0.3387103 0.59774244 -0.032055438 -0.33790046 0.29172376 -0.6930414 0.19616637 0.25518638 -0.041821282 0.28726834 -0.2033672 -0.060284715 -0.14276506 -0.47328994 -0.32469502 -0.029104762 -0.3001601 -0.21726562 -0.22525021 0.32565898 -0.0020997222 0.28212762 -0.05615392 -0.47552162 -0.2721258 -0.24605305 0.039771777 0.32748458 0.07354876 0.22088982 0.51151943 0.1035415 -0.33701557 0.44109768 0.39351115 -0.06766907 -0.27953702 0.34103486 0.05225294 0.28974256 -0.13054365 -0.3013117 -0.83235604 0.008117263 -0.087808974 -0.33076784 0.26861936 -0.27377498 -0.046652287 0.101421885 0.25097352 -0.39062306 0.22842722 0.32938528 -0.44075754 0.46485743 -0.23287256 -0.18723491 0.5111383 -0.00014200425 0.2189918 -0.010185915 -0.3097412 0.28571215 0.12110901 -0.12257326 -0.25066674 -0.8135922 -0.079670705 -0.34479222 -0.21878839 -0.017637588 -0.2376625
year 0.012469815 0.42316028 -0.13376789 0.4508592 0.4921814 -0.012524295 -0.20573395 0.18404023 0.020234792 0.94750404 -0.18718052 -0.38253778 0.30578026 -0.6991712 -0.011412392 0.430422 -0.1797053 0.5737447 -0.5899116 0.6616788 -0.12216402 0.23931164 0.2771506 -0.7961989 -0.15572959 0.10994303 -0.40748268 -0.4195401 -0.32160395 -0.46560135 -0.027598124 -0.18893719 -0.16119632 0.1906033 0.5730083 0.083448686 0.04419576 -0.42697188 0.32519782 0.2082451 -0.40300566 0.16586071 -0.44128123 -0.5923677 0.83328897 0.022875544 0.19464523 -0.35290113 1.2438041e-05 0.3599664 0.69081193 -0.09583306 0.57818925 0.13159308 -0.89107937 0.37542367 1.13403 0.26040098 -0.07969687 -0.10612855 -0.70131147 -0.015991254 0.023956124 -0.12370718 0.59430194 0.48152965 0.7165762 0.040449604 -0.1274415 0.007074942 -0.8603637 -0.39291498 -0.92722577 -0.58292484 0.52520794 -0.29995725 -0.25055033 -0.14447306 -0.11208173 0.9923561 -0.23659538 -0.4091547 -0.05255605 1.096856 -0.074087225 0.23157428 0.3559376 -0.2434923 -0.10419729 0.066339225 0.50183195 -0.3839547 0.14060605 -0.21758844 -0.1776947 0.37478194 -0.20226327 -0.26012784 0.19868447 -0.48129585 -0.5211065 -0.880808 -0.2936482 0.16502953 0.59198874 0.3909372 -0.6417884 0.0807916 -0.08330534 0.08003411 -0.38845307 0.033115678 0.5873885 0.005683712 -0.09197127 0.021569187 0.4559889 0.21930069 0.48562166 0.41508046 0.23967898 -0.1998069 -0.031026809 0.3465283 -0.3470342 0.57335186 0.36783507 -0.23673335
want 0.19127962 0.26492572 0.39732584 0.0010652564 0.04169312 -0.29020533 0.38201594 0.0138433045 0.089856096 0.45916137 0.19086899 0.19800718 -0.0093171755 0.078291915 0.22403753 0.6767603 -0.62264466 -0.06429726 -0.45368043 0.22412337 0.3767544 -0.19763462 -0.5941794 -0.63434786 -0.469156 0.11727314 -0.69518477 0.35391963 0.08774723 0.13957871 0.17421462 0.043289926 0.01994866 0.2562849 -0.0006592106 0.6252752 0.20030181 0.053218048 -0.23903722 -0.023392659 0.3382998 0.58821857 -0.12632196 -0.10001543 0.2697384 -0.3168871 -0.19896252 -0.21992305 -0.39179572 -0.20066433 0.40807265 -0.15418929 -0.54324603 -0.11002207 0.73433137 -0.37671614 0.6014788 -0.086039 -0.8365406 -0.089374125 -0.7000006 0.204802 0.23494399 0.074202076 -0.020302523 -0.03420581 0.37315038 0.038107205 -0.45664468 -0.38279146 -0.31714287 -0.32054865 -0.6376003 -0.19815063 0.07883923 -0.24511896 0.37604484 -0.00080701045 -0.6769369 -0.6757015 -0.39983365 0.00045976302 0.5931393 -0.010307855 0.17204781 0.5679919 0.27590314 -0.19958411 0.30288428 0.28102842 -0.10370357 -0.5302894 0.31016257 -0.07965464 0.46754995 0.0026284275 -0.40774167 -0.4647278 -0.10591464 0.2119229 -0.3923102 0.28666186 -0.2629513 -0.2754695 0.13578324 0.2544196 -0.38249493 0.26013717 0.20057029 -0.27457923 0.4462046 -0.20737374 -0.12427147 0.28544077 -0.0893024 0.12376494 0.08697546 -0.41657814 0.08712365 -0.06818874 -0.1908097 -0.42869952 -0.5932778 0.009005655 -0.3346797 -0.37606952 -0.27483395 -0.18493636
start 0.13000987 0.0032632034 0.13706721 0.13589488 0.2521445 0.11659409 0.27813375 0.0036689853 -0.023430236 0.2738402 0.062266964 -0.24877267 0.082943745 -0.2743297 0.20864397 0.48594835 -0.2915225 0.056516614 -0.49152672 0.2805612 0.024393296 0.12398589 -0.14594972 -0.42120546 -0.29158542 0.16642454 -0.2521617 0.011625367 -0.023275988 -0.21909797 -0.14648052 0.05072265 -0.13381469 0.120961055 0.06694869 0.29479882 0.01463058 0.06959891 -0.10438288 0.07195444 -0.1405012 0.2862718 -0.1492318 -0.13766286 0.23054118 -0.07235351 -0.22538377 -0.17563733 -0.045167632 0.07508063 0.2997395 -0.11508745 0.019538471 0.03575422 -0.19112416 -0.24641955 0.5568436 -0.17438772 -0.4331135 -0.053821255 -0.4612658 -0.04820945 0.07916405 0.007120361 0.36458656 0.07407631 0.2335832 -0.037189398 -0.34500834 -0.3887884 -0.2397044 0.011992106 -0.5467205 -0.1878577 0.39938742 -0.18325636 -0.071726434 -0.17186491 -0.2150643 0.21695568 -0.21917851 -0.27194324 0.23077041 0.36283335 0.06971504 0.50836086 0.35387716 -0.018808851 0.10613835 0.18084434 0.06161432 -0.19543944 0.033924226 -0.10474791 0.07500768 0.18062107 -0.1953682 -0.25497103 -0.09380787 -0.011193716 -0.4169427 -0.2059641 -0.20857297 0.064238966 0.07814916 0.1446741 -0.28582412 0.07757346 0.15087192 0.046255305 0.22867955 -0.07877368 0.18376382 0.02843933 -0.06076425 0.11431339 0.12529132 0.166955 0.29508132 0.18745615 0.011188657 -0.15968204 -0.11701376 0.13615035 -0.32042575 0.027159296 0.0013983287 -0.10275191
go -0.12172964 -0.15958747 0.10490357 0.33859646 0.3871882 -0.1332056 0.27419254 0.011901782 -0.08045129 0.41793504 0.116552465 -0.0407847 0.0927359 -0.18160245 0.13794002 0.20374589 0.05848523 0.39960027 -0.5970989 0.55768967 -0.098202735 0.24811488 -0.25667775 -0.5413864 -0.4287299 0.08554752 -0.13245666 -0.17426287 -0.14109947 -0.12321698 -0.03139159 -0.039085414 -0.15504424 0.016362809 0.22247846 0.18702574 0.36746842 -0.22336277 0.016086072 0.022888124 0.122104876 0.15410282 0.004384608 -0.15264466 0.367905 -0.11719986 0.11697008 -0.09629615 -0.044683855 0.33539325 0.4409092 -0.07149201 -0.10203591 0.04179487 -0.13550879 0.094019 0.6598924 0.2610844 -0.13100599 -0.0088660605 -0.5346828 -0.07218006 0.14483401 -0.04471663 0.23977436 -0.03278949 0.15016174 0.050848342 -0.14077891 -0.21635401 -0.20264363 -0.5408173 -0.4020273 -0.2354792 0.50943714 -0.00756724 -0.1683452 -0.25471932 -0.32051045 0.52520263 -0.2507153 -0.13999273 0.23291704 0.45925853 0.068953514 0.4144063 0.25773636 -0.38635716 0.116748616 -0.0053605502 0.09871913 -0.14748397 0.19096282 0.07538795 0.16640659 0.13970286 -0.17531219 -0.31586206 0.10235477 -0.3425491 -0.1338911 -0.07595523 -0.12629788 0.07194149 0.3438758 0.36863136 -0.37965235 0.3026735 -0.07038784 -0.30411842 0.05302202 -0.14635573 0.30430722 0.28636467 0.06721732 -0.15980703 0.16055171 0.056903612 0.40760043 0.1535372 0.24218032 -0.24687412 -0.15023477 0.29768234 -0.32535 0.1522274 0.1525592 -0.073329374
day -0.20904467 0.5853705 -0.30195737 0.30623922 0.58384 -0.21281877 0.26700518 0.5034123 0.0753035 0.46147922 0.034458198 -0.22075787 0.5664732 -0.5124709 -0.07611627 0.41606495 -0.49426645 0.14811298 -0.6139126 0.5635517 0.5203454 -0.17899501 -0.56851536 -0.7271653 -0.3519372 0.15133993 -0.7156364 -0.27925664 -0.17509747 0.0955727 0.26057497 0.05014223 -0.280274 0.25699615 0.5925027 0.2546019 0.019920656 -0.3749953 -0.1304192 0.39005247 0.10175667 0.40702492 -0.4089899 -0.40391272 0.19860269 -0.45997983 -0.37141562 -1.0581443 -0.14241214 -0.40105543 0.41153795 -0.57204396 -0.52268386 -0.042401474 0.15264387 -0.3697181 0.96490544 0.32955423 -0.43941212 0.039876863 -0.75261056 0.05301037 0.3252517 0.046235528 0.31627843 0.32607254 0.33728728 -0.25109184 -0.3022375 -0.21062775 -0.80647326 -0.31186727 -0.89905363 -0.32299358 0.09005057 -0.23607497 0.21683672 -0.39376158 -0.36225408 -0.009556536 -0.33054316 0.1076918 0.2645146 0.47249648 0.28348637 0.89021385 0.4111183 -0.3897199 -0.020218777 0.64358336 0.2194291 -0.24648724 0.3707368 -0.17947946 0.022144055 -0.10055113 -0.5916743 -0.68992317 0.30195975 0.19100113 -0.8319219 -0.23364963 -0.5168872 -0.26607856 0.4239128 0.5276225 -0.9857283 0.130969 0.18440264 -0.38749343 -0.002953797 -0.060019545 0.0358298 -0.0065687476 0.30038998 0.3128715 0.6229563 -0.29362035 0.2592289 0.32840466 0.12062297 -0.3121178 -0.38726625 0.04802967 -0.5215132 0.012118988 0.283947 -0.36166498
food -0.025834193 0.28148118 -0.29227322 0.1537828 0.5799447 -0.155492 -0.13344191 -0.069332875 -0.14375223 0.340944 0.09218608 -0.36211666 0.23313442 -0.5225389 0.049233392 0.3192206 -0.40916187 0.31392166 -0.70580566 0.74360394 0.17436242 0.14195353 -0.63678324 -1.0183505 -0.5146361 0.16802263 -0.65582216 -0.09240156 -0.15117097 0.25709218 0.24952978 -0.04046898 -0.09359465 0.12526722 0.36835605 0.2882624 0.10360682 -0.50979394 -0.26342884 0.16069368 -0.20016359 0.23345983 -0.22329809 -0.3793094 0.055663474 -0.6018788 -0.2021666 -0.94302726 -0.03967072 -0.1576351 0.49856243 -0.33486292 -0.25382048 -0.017226925 0.037880138 -0.14262713 0.9334818 0.12268388 -0.07809997 -0.004220975 -0.69488096 0.36545065 0.19863118 -0.20209481 0.46716332 0.1793955 0.41123065 -0.14435622 -0.28433418 -0.21226908 -0.5422326 -0.28615415 -0.51214576 -0.18823156 0.25293306 -0.114670165 0.08337094 -0.40483516 -0.34962115 -0.012155475 -0.17248361 0.24768165 0.044878934 0.545751 0.1800583 0.592838 -0.00066971063 -0.6130025 -0.08308489 0.426618 0.15850993 -0.08652605 0.59127957 0.16643412 0.122525744 -0.09617939 -0.39379814 -0.6830525 0.312139 -0.11941127 -0.46379858 -0.037795216 -0.29289177 -0.18353596 0.3705149 0.36470124 -0.9889944 0.23247159 0.17204177 -0.44343668 0.056123003 -0.15452267 -0.25961104 0.2481364 0.23337449 0.45371926 0.4576527 -0.2076427 0.40341848 0.4002289 0.20678803 -0.38905245 -0.4638001 0.05241723 -0.4158509 0.20585239 0.42339712 -0.31511378
make 0.4608644 -0.09615551 0.13631743 -0.0005712312 0.38608247 -0.04483228 0.16351542 -0.05751127 0.22886461 0.36906266 0.5184652 0.16345157 -0.23165782 -0.38221148 0.32178107 0.49481964 -0.5619915 -0.068204835 -0.6830114 0.29440024 0.1166318 -0.054152947 -0.5611233 -0.7997567 -0.6407739 0.0971877 -0.63366795 0.34981745 -0.015617015 0.55073106 0.32164532 -0.08747024 0.14766282 0.3009011 -0.056884818 0.5060982 0.2671804 -0.15860479 -0.4003903 -0.07576803 -0.026190158 0.32090774 -0.17014962 -0.17661387 0.11290789 -0.66989946 -0.12944463 -0.43808073 -0.4805885 -0.2107371 0.27039075 0.040635344 -0.40420982 -0.05341277 0.729841 -0.33780628 0.62881815 -0.120400175 -0.3758587 0.027140321 -0.8184756 0.31598014 0.36101764 0.009305943 0.007653285 0.18550132 0.2776211 -0.053091973 -0.34692815 -0.4363397 -0.17698675 -0.2772921 -0.21451275 -0.12389289 0.15391217 -0.25079864 0.4513548 0.12536316 -0.40535754 -0.59062856 -0.22307478 0.2134845 0.22227356 0.3025118 0.2972846 0.40835127 -0.032111585 -0.45841643 0.24333602 0.24773003 -0.032878812 -0.51887184 0.4801575 0.10648934 0.28192994 -0.29474634 -0.47800684 -0.735824 0.27309152 -0.20823765 -0.3335727 0.14090726 -0.05522011 -0.15544844 0.008987129 0.31269413 -0.52393806 0.102046676 0.21429187 -0.8109088 0.32111812 -0.3141612 -0.35874206 0.6914611 -0.08407469 0.4252222 -0.0011950155 -0.31656057 0.2036095 0.35110235 -0.034950577 -0.29334542 -0.5662688 0.07560448 -0.21194588 -0.3028335 0.07859435 -0.229581
disorder -0.084661156 -0.4635336 -0.16987778 0.5190645 0.6573482 0.53267205 0.21965733 -0.16405599 -0.18745413 0.35648417 -0.008184177 -0.22899266 0.10586056 -0.2547292 0.485114 -0.1967851 0.4964035 0.6420287 -0.7402963 0.7026376 -0.43435 0.9302535 0.5540077 -0.2565773 -0.04330552 0.27015013 0.2769714 -0.033007715 -0.103571154 -0.43206558 -0.4589295 -0.02139306 -0.12597749 0.33103573 -0.06583382 -0.2854956 0.47536457 -0.27366468 0.008940752 0.09883834 -0.59686583 -0.34262082 -0.1375528 -0.049777992 0.8216397 0.30679157 0.2568702 0.22498232 0.05530256 0.8360695 0.03222456 0.5996454 0.9576222 0.2583168 -1.1765094 0.3537502 0.8011245 0.09508756 0.23616298 0.21118008 -0.15339041 -0.25636363 0.3276848 -0.10611366 0.79600155 -0.042267147 -0.3111133 -0.020751243 -0.11112049 -0.21118963 0.18634926 -0.33791476 -0.29443628 -0.2582577 0.6769149 0.051382072 -0.6848319 -0.04257854 -0.21200809 1.373513 -0.044509284 -0.5187625 -0.2145679 1.2242335 -0.15307981 0.08943607 0.21671525 -0.53847396 0.5209583 -0.16967733 0.09861788 -0.19866438 0.17085895 -0.099331565 -0.15768693 0.52873087 -0.14472295 -0.57482886 0.006598598 -0.5394787 -0.1820424 -0.76916665 -0.12300068 0.41305718 0.28690147 0.13998167 -0.21437249 0.072827995 0.07030545 -0.17288516 0.09363815 -0.41392913 0.58430535 0.45708328 -0.09795753 -0.29170045 0.05349166 0.2712941 0.51882845 -0.062845916 -0.09178749 -0.0052336473 0.0574266 0.49486154 -0.26662937 0.37110054 0.16800135 -0.060232166
help -0.031260557 -0.1418991 0.092496626 0.15380634 0.3229584 0.24283366 0.45405385 -0.09046263 -0.11325563 0.36174572 0.2045217 0.19800799 -0.098739944 0.44197103 0.2377079 0.36729944 0.059341595 0.2683952 -0.81310296 0.31484675 -0.24538746 0.20665044 -0.15930547 -0.3493449 -0.2630364 0.03177628 -0.27081072 0.047959503 -0.13230407 -0.2749765 -0.37893388 -0.08585512 -0.09098172 0.07764819 -0.1513083 0.44925815 0.23932275 -0.02141923 -0.11895422 -0.20548826 0.0230541 0.030711088 -0.11418338 0.034164198 0.7565659 -0.10305219 0.041339334 0.19903769 -0.19768852 0.3926444 0.27852684 0.025330804 0.04198389 0.032764606 0.15051623 -0.1210517 0.72115797 0.068902604 -0.24983954 0.2575243 -0.86922216 -0.19942226 0.17120177 0.23172756 0.24334115 -0.2801948 0.030633522 0.08472042 -0.62132025 -0.41511634 -0.1344585 -0.32170206 -0.23107594 -0.10512717 0.72205406 -0.050444532 -0.024701713 0.05363518 -0.6039104 0.09475384 -0.19557305 -0.36063245 0.41499972 0.15070944 -0.048603367 0.36150226 0.37780878 0.061619367 0.66770375 0.1636066 0.017177276 -0.22891438 -0.0028254918 -0.009299489 0.25490806 0.13203222 -0.27192107 -0.40194348 -0.16895796 0.14121863 -0.075957865 0.08011003 -0.3837014 0.08790211 0.3387234 0.3274434 -0.17838562 0.1993711 0.12018052 0.028212309 0.35282066 -0.054523777 0.19565254 0.37147957 -0.067087255 -0.06088823 -0.033972517 -0.010172432 0.3208076 -0.065185316 0.02533908 -0.1706589 -0.53541934 0.3474847 -0.318251 0.015822003 -0.23049225 0.00443149
really 0.07655751 -0.1722931 -0.038075313 0.114023946 0.69675213 0.45492685 0.47396898 -0.40167642 -0.17254913 0.2722166 0.44669732 0.16753294 -0.10362149 0.097730465 0.01755279 0.4160607 -0.03571831 0.3191734 -1.0062999 0.36244962 -0.26848984 0.28243965 -0.08069435 -0.49364004 -0.46297038 0.31772462 -0.20559028 -0.071522534 -0.37627366 -0.116864875 -0.40222186 0.119451724 0.009746514 -0.011452283 -0.1592425 0.5881752 0.30382636 0.03593477 -0.24012867 -0.02052608 -0.36857083 0.017370062 -0.21548909 -0.017706864 0.49702442 -0.3776688 -0.08742788 -0.21688548 -0.076338686 0.2166715 0.11551061 0.10545367 -0.15308219 0.053265546 0.16933064 -0.09685725 0.39993 -0.18868785 0.011609593 0.50965977 -0.634461 -0.11598654 0.11350871 0.26750642 0.3497057 -0.09643428 -0.34554487 -0.11488658 -0.79585516 -0.46737412 0.19015883 -0.14560032 -0.14218296 -0.22631447 0.46067157 0.059091233 -0.12609649 0.1787989 -0.2639004 0.160146 0.057485197 -0.12324399 0.25057214 0.25405157 0.193659 0.49720523 0.15398464 0.024072837 0.61511225 0.20978944 -0.15974768 0.014389105 -0.059196733 0.035149314 0.066625714 -0.026493505 -0.23443988 -0.7300713 -0.008389416 -0.064684525 -0.329407 -0.036481436 -0.47383177 0.27278617 0.21688761 0.4039157 0.055386905 -0.14480697 0.37192118 -0.36031708 0.36398464 0.06276389 -0.102681816 0.3555809 0.13207975 0.28426254 0.09601532 0.060242802 0.5792235 0.2130523 -0.13942678 -0.08007804 -0.6191194 0.115553565 -0.45422375 -0.20287672 0.058368314 -0.27465844
time 0.10853151 0.27309614 0.1255546 0.42941135 0.31403366 -0.33403668 0.068605624 0.37865797 0.041898992 0.26712325 -0.0018268308 -0.36165386 0.25470302 -0.4599209 0.19065627 0.38798612 -0.4315775 -0.14048757 -0.03295322 0.21967402 0.8810272 0.13468432 -0.3949523 -0.14383312 -0.13001971 0.23831983 -0.24763614 0.20753154 0.20794377 -0.13375065 0.24253868 0.11125356 -0.13141163 0.22404549 0.10527946 -0.081052564 -0.05188881 -0.050757587 -0.026099952 0.29847878 0.09731833 0.44652572 -0.19928162 -0.22033383 -0.10234821 -0.055272527 -0.36161596 -0.4090219 -0.06847227 -0.39621362 0.1447722 -0.068673514 -0.13072993 0.21357119 -0.17670088 -0.27161676 0.43625876 -0.10187055 -0.7998423 -0.111391336 0.05797715 0.10619678 0.41625875 -0.14683197 0.24689777 0.048204888 0.18713166 0.065253235 -0.0347787 -0.13402246 -0.4009901 0.028605746 -0.6854626 -0.16453354 -0.41902092 -0.3305571 -0.07017092 -0.3030286 -0.04410807 0.25603172 -0.13876337 -0.025864633 -0.015642706 0.58149904 0.2768978 0.6605568 0.56904715 -0.30144146 -0.032479666 0.42745686 0.04488745 -0.25750348 0.45633838 -0.16694285 0.017220259 0.18974437 -0.29399532 -0.28252405 -0.00416517 0.25371918 -0.95900965 -0.35317487 -0.17120838 -0.12590644 0.06500036 0.0027270084 -0.3519835 0.074770555 -0.03279479 -0.19810957 0.0010054029 -0.35312957 0.17934442 -0.14626144 -0.24614842 0.036305055 0.4214028 0.037104014 0.027321983 -0.0067557087 -0.3481584 -0.24541937 0.254671 -0.15498643 -0.13341339 -0.13038754 -0.050925225 -0.11393889
bad 0.05485175 0.035507884 -0.33404475 0.12673885 0.8578661 0.25128502 0.14225796 -0.13400522 -0.052196797 0.5315361 0.33284277 -0.103823416 0.31929398 -0.586652 -0.357533 0.45824942 -0.4210459 0.45149302 -1.211277 0.6833419 -0.086793594 0.04307481 -0.5241213 -1.2218479 -0.96334565 0.19933735 -0.66507673 -0.38311005 -0.4666654 0.49205405 0.14105467 -0.019182447 0.0071408167 0.08506544 0.45442343 0.5758389 0.33664742 -0.39920485 -0.34443238 0.22493304 -0.43531936 0.063176714 -0.26030016 -0.41483757 0.18148315 -0.9587648 -0.20962386 -1.0132725 -0.20911038 -0.19978347 0.45843956 -0.46805382 -0.44596654 -0.046351515 0.1833516 -0.19905673 0.89289486 0.26939967 0.13609304 0.381774 -0.9001782 0.18768805 0.07011999 0.038377818 0.4132673 0.41989058 0.17126556 -0.33578613 -0.52333796 -0.35292298 -0.36394712 -0.3805897 -0.3427469 -0.28102773 0.5788325 -0.12170188 0.24710527 -0.121258356 -0.22824347 0.008538831 -0.06579799 0.19195955 0.09425391 0.5290985 0.18596865 0.765522 -0.07760578 -0.5656574 0.04565133 0.37998834 0.085598156 -0.059202198 0.35984245 0.18370841 0.06916772 -0.4041933 -0.4736206 -1.0237654 0.5273966 -0.34161556 -0.49345097 -0.15838403 -0.5027159 -0.005261463 0.48529586 0.62403166 -0.90787876 -0.081394576 0.44891956 -0.66928273 0.21165973 -0.03365892 -0.21892111 0.4631141 0.43250433 0.6057692 0.6154699 -0.14603129 0.6293077 0.6245118 0.22138456 -0.3059078 -0.77014256 -0.03377251 -0.5169135 0.062129773 0.5891505 -0.56592464
binge -0.18062414 0.4040114 -0.36568016 0.30159134 0.48122343 -0.099806204 -0.19955954 0.10256912 -0.025455344 0.55216867 -0.2740293 -0.586154 0.37935823 -0.69543576 0.032036055 0.317998 -0.13317473 0.5875527 -0.6722643 0.8532506 -0.037981212 0.26387173 -0.14351854 -1.0325232 -0.3128164 0.18111081 -0.42302546 -0.46872595 -0.3185435 -0.091003194 0.13237447 -0.2822416 -0.28267252 0.15558925 0.67308587 0.06902087 0.101825334 -0.5183901 -0.008186631 0.36693123 -0.17642523 0.07852588 -0.24163605 -0.4363141 0.43988326 -0.2593063 0.12748925 -0.8735992 0.08093066 0.11097568 0.6077548 -0.42732784 0.049734373 0.1483071 -0.5971009 0.098411456 1.2798918 0.41092503 -0.0729975 -0.16187401 -0.6155828 0.111720726 0.0722415 -0.25231764 0.7198923 0.3296648 0.5932183 -0.06951927 -0.11483256 -0.11526798 -0.9811731 -0.43402222 -0.937232 -0.3179195 0.65961224 -0.02432891 -0.30225232 -0.47412032 -0.34913284 0.7003919 -0.37247944 -0.14308017 0.043299552 1.018543 -0.14150839 0.5387992 0.21677463 -0.5480452 -0.062212873 0.25092822 0.4036839 -0.27152288 0.41227084 -0.010706237 -0.12804802 0.27634662 -0.2406526 -0.5252262 0.35331538 -0.24701658 -0.35937437 -0.5114315 -0.34196866 -0.09147545 0.5702331 0.45866597 -1.1857218 0.4061456 0.004001799 -0.15282266 -0.15978427 -0.0024641098 0.27902296 0.10984872 0.27503562 0.06692246 0.57247305 0.037272178 0.47138426 0.41598234 0.6136486 -0.20608164 -0.25027943 0.32860884 -0.39886618 0.45362058 0.6947392 -0.22785346
eating 0.11695654 -0.16123044 -0.048842393 0.25444517 0.63603544 0.32668206 0.0902814 0.002971831 -0.2442687 0.4039113 0.039847434 -0.29040682 0.04034639 -0.46823344 0.2526081 0.083048664 0.2445298 0.6048269 -0.654512 0.688504 -0.36233684 0.5242239 0.24028604 -0.4424083 -0.32679147 0.14221334 0.08595563 -0.20941572 -0.3708534 -0.24594544 -0.23977683 -0.12414321 -0.07576514 0.18750466 -0.049311865 -0.009590546 0.39850122 -0.28708616 0.045461703 0.093242764 -0.37654185 -0.16112722 -0.24776404 -0.1505664 0.71025974 -0.009709157 0.26376227 -0.0439141 -0.0686081 0.5431054 0.24290533 0.09458332 0.47933593 0.09150786 -0.7723053 0.26873708 0.8106572 0.039901607 0.25651488 0.22567074 -0.40673396 -0.07537905 0.07057951 0.0281483 0.6227717 0.12950608 -0.0698313 -0.15526873 -0.09967724 -0.17569436 0.046924118 -0.25977957 -0.16999047 -0.33802086 0.741282 -0.0057364693 -0.47830212 -0.041699156 -0.14674945 1.0180908 -0.120166235 -0.38939038 -0.08859518 0.90613186 -0.18786986 0.2878762 -0.010721276 -0.41414148 0.33616394 -0.14654012 0.017081805 -0.17094475 -0.033531897 0.028144231 -0.18122885 0.35192692 -0.06279672 -0.4540983 0.19773361 -0.5692392 -0.102145895 -0.6131078 -0.17581916 0.30085024 0.2222278 0.24505849 -0.22435579 -0.030726984 -0.092539035 -0.2969991 -0.07205842 -0.21257107 0.49705222 0.27106893 0.14641954 -0.19901793 0.22680902 0.3428184 0.44145185 0.20010857 0.08677063 -0.09715224 -0.18189463 0.5114866 -0.32445568 0.37863362 0.34026724 -0.042025216
would 0.19736497 -0.22072051 0.6554012 0.21890499 0.5314581 -0.001305896 0.58816665 -0.026505198 -0.13098703 -0.066159554 0.41548827 0.2696856 -0.20132211 0.14268681 0.27078667 0.44590992 -0.11565975 0.105576076 -0.5237932 0.2945499 0.00089314475 0.033231385 -0.3802125 -0.077168845 -0.57104343 0.13603532 -0.15646595 0.5836669 -0.12869233 -0.3002396 -0.36033636 0.0053058835 0.07517355 0.20467083 -0.19957311 0.3547496 0.12998486 -0.0002055902 -0.22316732 0.030182464 0.13586737 0.28745183 0.10945844 0.042391066 0.30707332 -0.2756294 -0.37107256 0.49569952 -0.1168993 0.28635043 0.0991402 0.100528575 -0.33485112 0.056875914 0.3005581 -0.19048099 0.2627818 0.031524397 -0.2647412 0.11978787 -0.59245217 -0.27131152 0.32739565 0.32079545 0.07079534 -0.16320881 0.028084723 0.13569465 -0.32701623 -0.50168514 0.3231117 -0.39561343 -0.10079048 0.04356371 0.47129098 -0.17448391 -0.00749006 0.095351934 -0.39102548 -0.1356783 0.13626936 -0.25194335 0.49167767 -0.050482407 0.08787144 0.63464296 0.33742198 -0.20836194 0.46969578 0.06967114 -0.26871943 -0.07381577 -0.12961245 -0.0021763155 0.27768221 -0.10777966 -0.34486842 -0.36359644 -0.34691456 -0.025016077 -0.19307522 0.11592653 -0.18172882 -0.0075441585 0.17303848 0.26804948 0.44641486 0.032305628 0.17626072 -0.2601911 0.5264221 -0.3597411 0.11969113 0.36080882 -0.21146204 0.07315081 0.14271112 -0.07683954 0.2861043 -0.15860309 -0.30428147 -0.5267347 -0.25221643 0.34748745 -0.33045942 -0.016332379 -0.40989774 0.28283146
say 0.20254482 0.07544742 0.51545036 -0.10701001 0.45336998 0.10491528 0.49932846 0.09575448 0.06871716 0.28646106 0.47153687 0.32013264 -0.3225902 0.17358455 0.11888089 0.70634335 -0.4707903 0.032852676 -0.6638067 0.3335038 0.09707396 -0.1484594 -0.38812956 -0.38590902 -0.6604077 0.120676555 -0.63187027 0.549563 -0.1461547 -0.20490421 -0.22617278 -0.087103896 -0.006956611 0.12600227 -0.09871001 0.7988935 0.21033332 0.23593286 -0.3164385 -0.10033857 0.2557414 0.47067976 -0.20571595 -0.06334021 0.5145825 -0.4610656 -0.17564052 0.0010516738 -0.17049874 -0.030993737 0.28913864 -0.07417625 -0.5219898 -0.02682684 0.5404897 -0.43539548 0.5193314 -0.37313727 -0.40859276 0.0007922348 -0.99716926 -0.14718093 0.10243975 0.4633139 -0.124162205 -0.06365834 0.24152301 0.04597163 -0.551773 -0.7439597 -0.20005015 -0.3513674 -0.41324958 -0.025734086 0.625691 -0.2285888 0.24545792 0.11676091 -0.51475763 -0.5917887 0.088725574 -0.30856693 0.6037095 -0.010245616 0.07180182 0.7036529 0.3554428 0.14118223 0.38124487 0.1286531 -0.09544544 -0.26205605 -0.14012174 0.08348858 0.22740844 -0.23800202 -0.5593065 -0.3113522 -0.24462214 0.269948 -0.32430103 0.13798009 -0.30032092 -0.10696794 0.21205474 0.50582904 -0.021356648 -0.014299224 0.18726413 -0.22392887 0.57622296 -0.08315145 0.029038843 0.23289056 0.043616973 0.09324504 0.13119201 -0.26529482 0.24597555 -0.06336408 -0.079368375 -0.4485594 -0.4476127 0.32887205 -0.467272 -0.26558825 -0.45694757 -0.047243748
tell 0.24236207 0.17197071 0.4930632 -0.11775345 0.548042 -0.02545536 0.32438922 -0.00012503011 0.18563397 0.5903363 0.673361 0.1983248 -0.1406113 -0.1877203 0.000401631 0.8297014 -0.79151714 0.228546 -0.84450763 0.3721475 0.2609974 -0.29503846 -0.73146474 -0.78305835 -0.89436334 0.19220403 -0.9075832 0.33843064 -0.23809925 0.14519735 0.07099213 -0.16786236 0.10644947 0.3715114 0.10492019 1.027702 0.06853336 -0.006000576 -0.54118836 0.06429474 -0.02854313 0.55013835 -0.19532971 -0.26528263 0.16482161 -0.9156773 -0.43120068 -0.42642227 -0.26473776 -0.46996582 0.48532832 -0.2592334 -0.70218176 -0.042429216 0.64756805 -0.5726884 0.6354561 -0.18446653 -0.34219745 -0.015466001 -1.2143769 0.08369953 0.17469387 0.34362346 0.08639421 0.14815626 0.4350472 -0.15958469 -0.4628319 -0.7847895 -0.44685772 -0.41011316 -0.493208 -0.18956847 0.6622632 -0.3369618 0.52182025 0.041374385 -0.52454656 -0.81948894 -0.077694066 0.028309435 0.5878398 -0.09840448 0.19526011 0.9386296 0.33746344 -0.10327484 0.18124972 0.37449405 0.0053601307 -0.26621774 0.19292617 0.1598042 0.2042006 -0.45784083 -0.75567526 -0.7993793 -0.13677889 0.07339385 -0.55528456 0.23080112 -0.41180685 -0.22813886 0.19732837 0.67883813 -0.5441927 0.025343372 0.33786824 -0.56521964 0.5355459 -0.18012787 -0.26272532 0.26238397 0.09311944 0.4303325 0.3501458 -0.3227957 0.3431308 0.36487094 0.13741504 -0.4904096 -0.7798066 0.11675257 -0.62629473 -0.34241694 -0.17063028 -0.14051709
http 0.30407274 -0.79802924 1.0470777 0.95856375 1.1926367 -0.50082266 0.71526265 -0.80311257 -1.0231901 0.17734566 0.50340796 -0.4574615 -0.20664172 -0.79626966 2.1458852 0.410233 0.27792382 -0.035370223 -0.26383784 1.1049258 0.5858975 1.7599849 -0.18198662 -0.51768684 -0.4722694 0.7529088 0.0794752 1.5034617 0.40690878 -1.354988 -0.7429134 0.14542447 0.3541948 0.38004458 -1.3142419 -0.6986039 0.67446965 0.2827311 -0.009223902 0.10216353 -0.50912344 0.4842571 0.13097969 0.25895336 1.203553 1.1142584 -0.5347023 0.67069703 0.16525385 1.6983747 -0.0025568523 1.5926782 1.5702528 0.709282 -1.6101928 0.15630741 0.78768003 -0.58528554 -0.4893695 0.3676553 -0.013961782 -0.16366912 1.0264798 -0.4533441 1.74526 -0.67386687 -0.12143982 0.09886313 0.35137102 -0.5884181 0.7596592 -0.21009435 -1.3097706 -0.63506836 0.04605159 -0.29439193 -1.2154393 0.016937131 -0.64399767 1.8300931 -0.39732704 -1.0498533 -0.2849096 2.0688913 0.22325346 0.90537167 0.8674514 -1.2958459 0.39934132 -0.3764327 -0.83818793 -0.76513433 0.50929797 -0.41679674 -0.047676224 1.1598312 -0.020584606 -0.8181731 -1.2936081 -0.7817164 -1.5906496 -0.6628596 0.39539167 0.8945829 -0.42476168 -0.841296 1.0397186 0.04916037 0.15682659 -0.30143905 0.33682066 -1.0935689 0.6091014 0.51253587 -1.5140243 -1.051974 0.2297453 0.9250348 0.35065237 -0.34865555 -1.3258961 -1.0273641 -0.09281308 0.7583722 -0.98274165 -0.52652496 -0.9159155 0.3923742
lose 0.06286101 0.29846334 0.26923287 -0.4068933 0.03902682 -0.2219173 0.04926299 -0.55089587 0.08935192 0.69444126 0.31878322 -0.08647997 -0.30435362 -0.14278908 -0.027167073 0.95334095 -0.87844837 0.08059261 -0.62308 0.6094362 -0.246838 -0.35412952 -0.6284091 -1.3239242 -0.8231931 0.2647948 -0.95156765 -0.09704512 -0.4786581 -0.0022217485 0.009634272 -0.5302472 -0.075328246 -0.08859097 0.18136209 1.0607932 -0.15897633 0.06274529 -0.63163567 -0.061042767 -0.088302635 0.6603046 -0.42438024 -0.33826664 0.3427329 -0.4916268 -0.43521357 -0.5486945 0.021487055 -0.10206608 0.6865511 -0.30695373 -0.427323 -0.13583614 0.5986444 -0.50492376 0.713108 -0.20235112 -0.3928498 -0.2068602 -1.2191702 0.25142053 -0.08698508 0.1806515 0.40142527 0.13657361 0.64617497 -0.16090783 -0.42490956 -0.7423063 -0.9053414 -0.3462738 -0.6821382 -0.43444315 0.92366135 -0.0824371 0.35029414 -0.35465574 -0.6912261 -0.838629 -0.41729254 0.14180085 0.7086649 0.11112715 -0.014039555 0.57770324 0.3274668 0.1969726 -0.10974568 0.43756032 0.27198946 -0.33266008 0.06194328 0.060693797 0.099392034 0.34514713 -0.468776 -0.4763563 -0.0012351993 -0.28313005 -0.3287275 0.50259614 -0.4235582 -0.11000825 0.15778476 0.41608492 -0.81619 0.2824889 0.22106089 -0.11026888 0.51368153 0.33767718 -0.04911854 -0.10225877 0.11796698 0.012914403 0.28984284 -0.38522542 0.24174374 0.47975522 0.5608643 -0.3400148 -0.7882418 0.13833913 -0.65430504 -0.26110122 -0.015279128 0.0041705137
delete 0.058281768 -0.032631673 0.19465613 0.14176576 0.26850146 -0.11386395 0.16141179 -0.10392547 -0.10784775 0.18127397 0.14356804 -0.061463185 -0.008721981 -0.17183653 0.28766936 0.28577372 -0.15907437 0.015221439 -0.22571597 0.27888212 0.14289126 0.17776059 -0.22020802 -0.29463983 -0.2505106 0.117382444 -0.2343104 0.23348287 0.00922776 -0.1712588 -0.09098184 0.016478933 0.038572446 0.12165794 -0.08522842 0.10928967 0.10045062 0.016178753 -0.082755774 0.03343575 -0.025128178 0.23350775 -0.04814791 -0.04549835 0.24548645 -0.011635245 -0.13120688 -0.074779086 -0.05760034 0.14478047 0.18869571 0.11228578 0.02723458 0.10599871 -0.06590288 -0.11666669 0.32916754 -0.106109954 -0.24424152 0.010719962 -0.2981046 0.040279176 0.18088068 0.008758541 0.26560584 -0.05793207 0.11118346 -0.025252823 -0.09472963 -0.22719947 -0.08448784 -0.12540069 -0.39142224 -0.1262747 0.122611605 -0.10317368 -0.049214683 -0.0398652 -0.24344419 0.1099743 -0.14946343 -0.1349724 0.13332294 0.32017908 0.10532584 0.31965297 0.2061356 -0.23805287 0.08251835 0.059186414 -0.07505364 -0.19960698 0.12037336 -0.075227425 0.081089385 0.115397975 -0.14965618 -0.23350519 -0.1284876 -0.06408806 -0.35530317 -0.057811663 -0.05785384 0.04720808 0.030618433 0.042699877 -0.024130134 0.06476182 0.08511423 -0.14656314 0.1364005 -0.17179164 0.021156507 0.11633136 -0.17188595 -0.04055582 0.11946288 0.011989615 0.13159138 0.036105078 -0.10607494 -0.25848475 -0.18388222 0.122570366 -0.23354 -0.101717845 -0.13834682 -0.017803272
try 0.21262676 0.074472144 0.1725235 -0.08138826 0.43011874 -0.21860482 0.22375688 -0.11948429 0.10670126 0.2537353 0.3440945 -0.049561433 -0.12958428 -0.22625887 0.22011137 0.66534877 -0.6945119 -0.027069809 -0.7133001 0.43102914 0.31011268 -0.17750977 -0.6510012 -0.80648124 -0.72170603 0.13518468 -0.7282359 0.11812922 -0.1536202 0.15658897 0.16839667 -0.08525265 0.07558788 0.16561648 0.119789325 0.73810565 0.02033773 -0.1308243 -0.39128903 0.097254835 0.11917946 0.5353872 0.00056601176 -0.33343235 0.15993829 -0.6785928 -0.2674169 -0.3626779 -0.35860622 -0.30915394 0.5120632 -0.27889055 -0.5779908 0.02981794 0.39494726 -0.38685268 0.58930314 0.044103928 -0.36394498 0.035612065 -0.8223328 0.14043067 0.045118906 0.20432128 0.11643816 0.12511949 0.5216076 -0.061430234 -0.4622088 -0.50461113 -0.39294592 -0.36034518 -0.38012287 -0.064197496 0.4755536 -0.17521927 0.36842942 -0.17284846 -0.48094377 -0.66147363 -0.29433966 0.0015814434 0.41727242 -0.005655531 0.08841993 0.68116033 0.20305422 -0.2277729 0.12947345 0.22968504 -0.10602283 -0.26630285 0.29035747 0.1777987 0.38512594 -0.2389366 -0.5073742 -0.6151374 -0.052984532 0.06209855 -0.2637757 0.13110907 -0.20240653 -0.18948318 0.24853055 0.40471873 -0.585377 0.05796073 0.21034254 -0.40542945 0.47312114 -0.17552705 -0.23578879 0.24368519 0.0012860263 0.4981973 0.42697996 -0.41283786 0.2771826 0.11290418 0.07959397 -0.5599834 -0.58190167 0.1819178 -0.4797995 -0.30695876 0.008020253 -0.21863532
com 0.320046 -0.9388654 1.1375107 1.0685431 1.3823264 -0.5785394 0.8037202 -0.9601019 -1.2134259 0.20612855 0.55893874 -0.5412691 -0.20419301 -0.93712306 2.446159 0.45763072 0.2533175 0.015590066 -0.30475006 1.3067278 0.6548596 1.9854869 -0.23862804 -0.6543802 -0.54087895 0.8513091 0.06659251 1.7288835 0.42459086 -1.4972632 -0.8226965 0.08417184 0.47280106 0.43685263 -1.4545825 -0.8104061 0.7453093 0.31267056 -0.039975204 0.09804954 -0.6203702 0.49709344 0.07262599 0.31209573 1.3836033 1.2615594 -0.5623078 0.68786705 0.12884045 1.9689183 0.04572615 1.8195846 1.7675248 0.80720574 -1.7662604 0.12604117 0.9792065 -0.6650118 -0.5259194 0.36879116 -0.05581519 -0.17303804 1.2251984 -0.6242738 1.9418902 -0.75017905 -0.13126247 0.12677604 0.4142565 -0.6353401 0.8894504 -0.3037449 -1.4928312 -0.7315796 0.029348282 -0.27130494 -1.3152962 -0.030673234 -0.7688813 1.970456 -0.41011062 -1.1686908 -0.3062051 2.3554323 0.27808562 1.0334556 0.9823111 -1.5573868 0.4681444 -0.43059903 -0.9232076 -0.85536003 0.61090976 -0.46492666 -0.013145235 1.3529202 -0.046054754 -0.9515136 -1.4595698 -1.0241421 -1.8487202 -0.70768636 0.42606664 0.93010604 -0.5099998 -0.9319064 1.07675 0.08787982 0.15001233 -0.3691519 0.3731587 -1.206817 0.6125911 0.61311716 -1.7253761 -1.2419559 0.3058933 0.99699265 0.34955013 -0.3421904 -1.4804711 -1.1615324 -0.15375865 0.8401984 -1.1082218 -0.61576617 -1.0595767 0.53405946
work 0.27359065 0.1837002 0.13932204 0.07337981 0.35327768 -0.12090459 0.0883265 -0.13843872 0.020315414 0.36095652 0.31498274 0.02432019 -0.05210452 -0.2119527 0.07415116 0.654843 -0.45265445 0.03113 -0.55010056 0.3848585 0.26018018 -0.0145860845 -0.31719825 -0.5669995 -0.2853447 0.17572778 -0.501673 0.11721878 -0.0613821 -0.18418415 0.015347345 0.009957324 0.06251475 0.07419786 -0.041167483 0.38599116 0.0342105 -0.030197345 -0.15260716 0.09559353 -0.091575906 0.46401417 -0.19714516 -0.28294587 0.23217827 -0.3205642 -0.30403167 -0.37844774 -0.1599847 -0.16984239 0.30055344 -0.18315165 -0.23751695 0.018283965 0.22204526 -0.1753816 0.47386163 -0.22036314 -0.41149387 0.06413069 -0.36194196 0.22277978 0.09440645 0.1712356 0.2316403 0.13280348 0.3090504 0.1368428 -0.47448877 -0.41289183 -0.16865775 -0.1521686 -0.44910386 -0.25237986 0.232229 -0.18271603 0.091934144 -0.054801628 -0.3810442 -0.2371673 -0.18219668 -0.034850422 0.23170958 0.22545785 0.10715658 0.5767368 0.17736618 -0.07250681 0.115735516 0.14854829 -0.046086133 -0.3568615 0.33281398 -0.039292447 0.15488559 0.075823255 -0.2902791 -0.39324513 -0.08132975 0.09131402 -0.50819165 0.049860537 -0.21178354 0.049596127 0.08303681 0.22839381 -0.28278333 0.09898024 0.12398057 -0.31013322 0.2531883 -0.08721948 -0.033887636 0.0814668 0.017162086 0.27029368 0.26111385 -0.0035048835 0.32700995 0.17122167 -0.09649425 -0.37220168 -0.25078413 0.03784358 -0.40537396 -0.27593666 -0.11735744 -0.18874611
think 0.14445356 0.011778618 0.2138759 0.12288239 0.26017165 -0.170471 0.2848745 0.19709589 0.07116309 0.14330454 0.10924734 -0.1424294 0.25091442 -0.0038521143 0.12851699 0.3936618 -0.5420397 0.2670929 -0.43351203 0.3167826 0.23833835 0.012681368 -0.6930641 -0.5461819 -0.41751143 0.03955795 -0.5748287 -0.18842538 0.21870543 0.28356677 0.07525117 0.07336206 -0.1387981 0.36817327 0.5849765 0.48050535 0.21012422 -0.1298805 -0.18443224 0.19081573 -0.061237767 0.28686878 0.048433945 -0.020963712 0.0015073695 -0.37301013 -0.18491319 -0.3195238 -0.14412063 -0.122912675 0.3373532 -0.13928838 -0.2466393 -0.0116111655 0.18016164 -0.25667673 0.61219937 0.02477913 -0.54620576 -0.121787265 -0.7432343 0.030605583 0.30410108 -0.21701738 0.31393808 -0.098834686 0.23329009 -0.31245112 -0.27671468 -0.21148543 -0.2705252 -0.18631442 -0.72571 -0.08666616 0.40874293 -0.19540685 0.19611913 -0.18220568 -0.36412764 -0.037994817 -0.4226369 -0.17895056 0.28901327 0.20226386 0.23132125 0.6330315 0.33861476 -0.52809453 0.21606971 0.49177215 -0.059091575 -0.13516138 0.059771784 -0.13547978 0.118022144 -0.037169565 -0.38747996 -0.5144368 -0.12757088 0.21869645 -0.55014586 0.040672373 -0.2345835 -0.3093697 0.13659835 0.26153493 -0.55661094 0.23862372 0.15057698 -0.13952029 0.24171741 -0.24401756 -0.27361324 0.23372312 0.034593526 0.14993486 0.14449552 -0.0736012 0.15241738 0.22350325 -0.019416677 -0.37841156 -0.64404976 -0.052348807 -0.22489157 0.1776417 0.057962116 -0.20676364
one 0.0012696387 0.31146407 -0.11339015 0.22988674 0.48121804 -0.07236475 0.4191396 0.1435399 -0.06825557 0.40305474 0.038604174 -0.08097708 0.2214809 -0.25069645 -0.012522032 0.4584923 -0.48829976 0.18555854 -0.6929117 0.48578635 0.10993949 -0.3404688 -0.6837416 -0.77733445 -0.6147673 0.19432946 -0.71571636 -0.22408088 -0.24383205 0.21969014 0.06793405 -0.0032282458 -0.037295334 0.18629187 0.47986212 0.43739048 0.20644999 -0.37016177 -0.25669268 0.3308426 0.013717878 0.23559405 -0.08816257 -0.17887893 0.18845436 -0.63607514 -0.42222628 -0.6168253 -0.29320914 -0.2642579 0.4325299 -0.44487736 -0.44131064 -0.10316604 0.4093194 -0.3529207 0.73936564 0.2607201 -0.317481 0.22450598 -0.91169596 0.06769254 0.24302848 0.15027957 0.31089118 0.09797645 0.19558233 -0.38344446 -0.43638292 -0.36630294 -0.3917775 -0.35253045 -0.57048446 -0.29832166 0.33183038 -0.054398995 0.23106408 -0.3151217 -0.4229293 -0.34850875 -0.25720638 0.028785303 0.2664779 0.06615958 0.2507875 0.83462775 0.28009778 -0.4138895 0.10625154 0.5535737 -0.07263925 -0.16896726 0.20463844 -0.07625052 0.225917 -0.19817474 -0.44963878 -0.7691842 0.09971284 -0.0743908 -0.52863884 0.13188173 -0.36472353 -0.21676329 0.3623326 0.41207078 -0.6008592 0.15917934 0.42916036 -0.34550795 0.26021394 -0.12702367 -0.18917437 0.2511558 0.3258232 0.39887345 0.44460332 -0.27946234 0.22260664 0.24856906 0.0030548866 -0.44378042 -0.71888936 0.05026495 -0.5075942 -0.046128295 0.18472002 -0.24273707
need -0.07494873 -0.15810531 0.06793174 0.1695651 0.36231098 0.31493318 0.7414382 -0.113873795 -0.0791478 0.34393296 0.30492824 0.37943262 -0.022148676 0.4706622 0.073925704 0.44365588 -0.12644303 0.2071143 -0.9573942 0.31701806 -0.258626 -0.0140373325 -0.37701878 -0.50145715 -0.46856138 0.122777164 -0.32991052 0.14105174 -0.13863096 0.07635028 -0.31476566 -0.006829846 -0.19732003 0.060248453 0.023749594 0.7089465 0.37903276 0.08495509 -0.21531244 -0.014906956 0.15185069 0.11801824 0.10613205 0.04495213 0.65384007 -0.26864028 0.04278549 0.23104787 -0.29864457 0.16630083 0.32878542 -0.03261505 -0.31626567 0.042477675 0.2924305 -0.36950195 0.68026704 0.12000777 -0.33854595 0.28908628 -0.9977698 -0.20724484 0.27212816 0.17970622 0.035243407 -0.36422545 -0.061062627 -0.1083992 -0.8061161 -0.45776555 -0.030059066 -0.4787961 -0.3065915 -0.07552187 0.7163884 0.011322845 0.15982182 -0.07619382 -0.6862507 -0.058702376 -0.2593402 -0.24249618 0.53047794 -0.024505245 0.20682696 0.54359144 0.455683 -0.12686278 0.73748565 0.3456747 -0.15756986 -0.17442974 0.10746235 -0.037410643 0.3770863 -0.09682391 -0.34096923 -0.6839126 -0.21528462 0.28025317 -0.10498548 0.23580736 -0.46624807 -0.10572802 0.34406927 0.40743673 -0.22164954 0.21913072 0.253139 -0.20867404 0.49075383 -0.10935753 0.078690216 0.5811194 0.016852474 0.09579273 -0.09865634 -0.119721405 0.4669606 -0.052468847 -0.022150273 -0.23061867 -0.7422359 0.28872216 -0.2734909 -0.007632165 -0.19820921 -0.21032104
reddit 0.26000324 -0.83114636 0.9332037 0.9188308 1.2624149 -0.5158132 0.72750556 -0.8591803 -1.0695995 0.20189999 0.58622 -0.43339962 -0.07671219 -0.791303 2.1166353 0.4202536 0.36290324 -0.024467517 -0.30570287 1.1657889 0.4904082 1.7607237 -0.09821715 -0.5889758 -0.43703943 0.78641313 0.08842058 1.419897 0.39321175 -1.3119936 -0.7598439 0.12647836 0.3837701 0.3961032 -1.317945 -0.7197739 0.6953817 0.2679918 -0.022722445 0.014415321 -0.5281826 0.40858945 0.1350015 0.2533196 1.2422435 1.0986793 -0.4973285 0.5578084 0.20155181 1.7213881 0.06103187 1.5692132 1.5437679 0.7217436 -1.5320809 0.17572887 0.8655372 -0.4733932 -0.44548774 0.3918162 -0.08461911 -0.1615074 0.99649465 -0.5512775 1.7628849 -0.669436 -0.14628072 0.043401144 0.35924667 -0.5465968 0.82872236 -0.29774868 -1.2969584 -0.68055016 0.02539008 -0.21733381 -1.132096 0.028412847 -0.6881702 1.8500247 -0.3630281 -0.99777675 -0.30374792 2.124077 0.29638132 0.92914355 0.80629724 -1.3375747 0.43088236 -0.37097803 -0.86177576 -0.81650674 0.49932638 -0.3938643 -0.015444037 1.1236138 0.0042787055 -0.78460324 -1.1779726 -0.85792524 -1.6061442 -0.6343401 0.31547403 0.9277861 -0.32876307 -0.7889509 0.98622304 0.037087932 0.15995254 -0.37869614 0.33715037 -1.0042757 0.5375017 0.53950745 -1.4706793 -1.0639615 0.23854834 0.91894686 0.33964908 -0.33526567 -1.344095 -0.9683504 -0.15473337 0.67160606 -0.9239896 -0.49375957 -0.92071146 0.37432083
self 0.3372386 0.1382803 0.58656514 0.4581828 0.34397307 -0.19568157 0.24841203 0.39267012 -0.08732064 0.066867076 0.10208734 -0.08192885 0.01759168 -0.37480283 0.34334993 0.6981129 -0.5509241 -0.014492193 -0.30817166 0.10121779 0.53713113 0.00942676 -0.33737558 -0.21224736 -0.23835954 0.25558496 -0.35393408 0.43595675 0.2054995 -0.22181502 -0.069469646 0.087147124 -0.044816285 0.40034622 0.092641704 0.2535672 -0.20529008 -0.01038171 -0.10853082 0.17246103 0.24120736 0.497775 -0.074903525 -0.25136918 0.11174364 -0.25487134 -0.28237584 -0.05222205 -0.3191509 -0.07176501 0.26742664 -0.16470456 -0.42742324 -0.018576294 0.20325702 -0.23795477 0.42306674 0.119055 -0.7498152 -0.09176884 -0.5389101 -0.041101556 0.5281125 0.14247945 0.013662377 0.036905393 0.4228942 0.19564103 -0.28596798 -0.36405706 -0.21746244 -0.095653094 -0.4241626 -0.10039125 -0.08193285 -0.2231273 0.17725776 -0.0840332 -0.14533146 -0.06540772 -0.11590061 -0.20329991 0.34205568 0.13050216 0.17135029 0.6851891 0.32873225 -0.18854108 0.13563806 0.17533633 -0.09816628 -0.22147828 0.27629045 -0.16196615 0.32988924 -0.12361579 -0.36095142 -0.12893927 -0.19078608 0.13674611 -0.611415 -0.1571283 -0.16995788 0.01387129 0.25922042 0.15125261 -0.036524896 0.08615866 0.047816772 -0.19794719 0.2003325 -0.37211597 0.18428554 0.17114401 -0.19144315 0.3834105 0.24580468 -0.15665695 0.34599853 0.1260363 -0.32854196 -0.5178597 0.017741317 0.22641364 -0.22253744 -0.0069251265 -0.2247799 0.017476227
thing -0.08012273 0.13371989 -0.070355795 0.23715457 0.52282554 -0.0335973 0.24134752 -0.14972314 -0.0068613575 0.34761062 0.18301356 -0.25031456 0.20566186 -0.436602 -0.07024822 0.30154437 -0.420241 0.10202253 -0.60291 0.61306643 0.099876724 -0.05660393 -0.45455754 -0.54230773 -0.59040344 0.17800538 -0.5475648 -0.20020138 -0.14951624 0.14336203 0.0013144942 0.1281345 -0.10935876 0.11973752 0.1394267 0.35236412 0.18394615 -0.20154026 -0.23543382 0.1250997 -0.14259793 0.38311103 -0.29355413 -0.18880254 -0.036661293 -0.23412311 -0.25033233 -0.7300483 -0.11927024 -0.003467845 0.32401368 -0.22183089 -0.33489072 0.01012352 0.13139218 -0.22430609 0.6439656 -0.00621974 -0.24282098 0.032428425 -0.53075314 -0.0059339376 0.19068816 0.03647122 0.15728064 0.16354543 0.11485356 -0.19005334 -0.091846764 -0.44233918 -0.31974798 -0.15385254 -0.46843216 -0.18169631 0.13552563 -0.060117174 -0.06457683 -0.14717247 -0.26804027 0.0849785 -0.10047903 0.116931856 0.18901826 0.4975021 0.21157968 0.6306139 0.21770124 -0.38558856 -0.0024306362 0.35303387 0.0072228345 -0.1796379 0.26974237 0.045762464 0.098205164 -0.04504327 -0.21669006 -0.5547711 0.2112161 -0.062973216 -0.5612513 0.013758163 -0.2721505 0.056840096 0.25491816 0.28485128 -0.5307025 0.03367953 0.23119827 -0.38947877 0.16726033 -0.089523226 -0.03290993 0.24927568 0.15029742 0.07165958 0.40500686 -0.024402894 0.2537814 0.3531268 0.041388057 -0.18108627 -0.22300343 0.13372152 -0.32265976 0.01904439 0.12910156 -0.2979954
www 0.23326206 -0.91694534 0.98992497 0.9737551 1.2946271 -0.5016178 0.64475995 -0.87638134 -1.0744116 0.23242018 0.5696022 -0.4317461 -0.11978055 -0.9234604 2.27552 0.45015705 0.378625 0.02614268 -0.28092352 1.1286874 0.5190221 1.8744597 -0.11833873 -0.6375798 -0.44332397 0.76866084 0.11300239 1.4562844 0.33958912 -1.4647818 -0.7712827 0.03488904 0.45016047 0.49452144 -1.3820493 -0.66743773 0.757414 0.23678419 0.021276316 -0.013988779 -0.5445614 0.38318208 0.06217096 0.2222624 1.2784393 1.1449383 -0.46370664 0.59717685 0.16849075 1.8520949 0.06435237 1.6417408 1.6769484 0.8059878 -1.63394 0.13754874 0.9119957 -0.5352926 -0.49644879 0.43588403 -0.081980415 -0.124102205 1.1321093 -0.59602726 1.8840752 -0.58799255 -0.093147576 0.14497015 0.34869838 -0.64919686 0.8769299 -0.29029518 -1.336566 -0.6872578 0.050001893 -0.25324452 -1.23253 -0.062469244 -0.69637233 1.9294217 -0.39991692 -1.0795988 -0.3326103 2.2912138 0.19688219 0.9886576 0.8975493 -1.4656421 0.38962877 -0.4575175 -0.87152565 -0.7718433 0.60547286 -0.45157698 0.018606981 1.2836392 -0.04176407 -0.8575416 -1.2688768 -0.9956394 -1.7098868 -0.7199313 0.43118492 0.9200742 -0.41139355 -0.9174676 0.97402173 0.11312763 0.15720832 -0.34325656 0.29437447 -1.0807002 0.61379284 0.63939583 -1.6473516 -1.1278554 0.21285284 0.9535548 0.34533003 -0.28234887 -1.4047512 -1.0905464 -0.101847135 0.7064612 -0.9865768 -0.5006682 -0.9060736 0.53401774
still 0.029812263 0.41993797 0.046787206 -0.06683858 0.23036434 -0.3734489 -0.025848718 0.08483125 -0.042531997 0.39220032 0.0014766093 -0.009090079 -0.023942523 -0.24842891 0.21355109 0.45907122 -0.5021107 -0.060240407 -0.30162278 0.3440757 0.3025787 -0.21609257 -0.44358626 -0.8698611 -0.3677966 0.019458532 -0.69879866 0.06662021 -0.14694208 -0.13600844 0.20276608 -0.12588309 0.032512892 0.12402547 0.347329 0.39624357 0.048875634 -0.10428286 -0.18038405 0.13841334 0.05960615 0.40093946 -0.1561641 -0.18825623 0.32403547 -0.38686678 -0.26337537 -0.55234087 -0.18123116 -0.24964923 0.59179705 -0.36169708 -0.22905135 -0.012308035 0.2230464 -0.2513823 0.7145263 -0.15668008 -0.46405235 -0.15926544 -0.6737774 0.32965705 0.17529644 -0.014561477 0.22383912 0.24447125 0.6327933 -0.14646845 -0.2965324 -0.15086628 -0.6456308 -0.27424377 -0.80693597 -0.35793063 0.279963 -0.10381227 0.32179508 -0.20231305 -0.37450045 -0.44878328 -0.2900064 0.10967444 0.26372463 0.24430281 0.06555162 0.46311137 0.24278241 -0.20086613 -0.113091245 0.3737369 0.1412976 -0.4113624 0.3600988 0.05537775 0.075807706 0.02255218 -0.4596484 -0.3938639 -0.122251175 0.19856246 -0.5296781 0.03567208 -0.25758874 -0.3021458 0.14884177 0.18056345 -0.48083955 0.1930335 0.14252847 -0.12772676 0.14550145 -0.17205632 -0.1916842 -0.021282218 0.07187318 0.3415934 0.35025364 -0.33714724 0.043006733 0.18448839 0.119005136 -0.3968842 -0.67746776 0.08575227 -0.444497 -0.08220447 -0.04695489 -0.2692908
gain 0.012852158 0.10918872 0.41249397 -0.52092946 0.22386038 -0.30743584 0.21951662 -0.85605305 -0.14366806 0.5079632 0.57789063 0.05748542 -0.4474554 -0.016960897 -0.1356283 0.96822757 -0.6764005 0.105509534 -0.53004056 0.48385563 0.022583544 -0.2509449 -0.8439117 -1.1451825 -1.0074346 0.22923917 -0.82455575 0.1269929 -0.57444054 -0.10888702 -0.116298474 -0.47751093 0.016553527 -0.31081542 -0.23248252 1.1173354 -0.05509534 0.17549358 -0.78126675 -0.12166146 -0.0116243325 0.84482676 -0.30185992 -0.20204093 0.038303964 -0.49733368 -0.7164414 -0.41786453 0.20334654 -0.1500521 0.58730835 -0.2851762 -0.53451735 -0.038777035 0.70847684 -0.5802616 0.30054253 -0.45073655 -0.24712422 -0.033873424 -0.7684583 0.47455063 -0.23045155 0.20986535 0.62221056 0.12575057 0.31635955 -0.123967655 -0.23167194 -0.834732 -0.4848007 -0.24256177 -0.5947286 -0.50459605 0.82108843 -0.30591148 0.091798656 -0.41402125 -0.6343166 -0.9655371 -0.21374816 0.02788432 0.78358257 -0.1779426 0.05655676 0.6484877 0.36648124 0.32123646 -0.22115986 0.45924926 -0.03805546 -0.19475101 -0.11104313 0.056913264 0.14694417 0.39820555 -0.38647556 -0.5908524 -0.22794364 -0.36500344 -0.24511869 0.80183244 -0.45100516 -0.10603885 -0.026127918 0.2194551 -0.49825862 0.2789266 0.36315355 -0.0002650498 0.6404267 0.34093058 -0.30549234 -0.3447206 0.06657964 -0.10166708 0.3405842 -0.2744521 0.2900917 0.18428567 0.3665522 -0.59185195 -0.8528206 0.056212537 -0.83422333 -0.64597416 -0.27076042 0.2840305
struggle -0.07156082 0.25829822 -0.27947414 0.2749927 0.44129315 0.12287421 0.011065725 0.13113041 0.18962058 0.6512687 -0.076337665 -0.23596418 0.38883173 -0.29852307 -0.029930694 0.12761196 -0.19265547 0.5059186 -0.90835184 0.7978746 -0.020755412 0.40747648 -0.20419784 -0.6176962 -0.18578081 0.035416067 -0.5457093 -0.40372953 0.06688565 0.23881203 0.0358001 -0.016318431 -0.25447252 0.40392008 0.68648046 0.1984309 0.403258 -0.42721832 0.035125818 0.13938265 -0.25044078 0.00697377 -0.17730612 -0.29174843 0.39929116 -0.113386825 0.13303488 -0.55296534 -0.23018424 0.06753964 0.47104993 -0.13857554 0.120418794 0.07479312 -0.35415947 -0.024592414 1.1203239 0.1669933 -0.18963484 -0.094331175 -0.71770555 -0.013884312 0.12728103 -0.10608425 0.2500719 0.13463098 0.11043835 -0.05798335 -0.23131658 -0.118314214 -0.639183 -0.3268076 -0.6931615 -0.2995675 0.49040553 -0.2006978 0.007663362 -0.15451704 -0.28338304 0.5038748 -0.4316179 -0.04601759 0.078306235 0.82843465 0.11748607 0.3015508 0.13681005 -0.40856454 0.33177987 0.27780268 0.31244215 -0.41514117 0.3500939 -0.09323301 -0.094522454 0.047571618 -0.3554443 -0.57374346 0.39683837 -0.07816879 -0.3380554 -0.36173758 -0.31502712 -0.08634777 0.4603269 0.5020217 -1.0123268 0.300115 -0.009083766 -0.36135817 -0.033114817 -0.36428806 0.16156864 0.2832289 0.16095059 0.05966725 0.22071092 -0.0024751618 0.45872355 0.3066952 0.24690762 -0.13057798 -0.28480297 0.046802085 -0.07889952 0.433674 0.4899512 -0.44610193
week -0.12837473 0.8769171 -0.110146634 0.57348996 0.32091385 -0.46038547 -0.21561784 0.476771 -0.09420078 0.9849493 -0.4291705 -0.5218817 0.50581104 -0.614088 0.11415863 0.65852195 -0.36054927 0.3016549 -0.38721523 0.595377 0.2723167 -0.15507886 -0.16425258 -0.9632104 -0.11970967 0.061198026 -0.66177714 -0.40836847 -0.2502883 -0.39713004 0.14916955 -0.34696788 -0.18255621 0.075857855 0.8248436 0.21158127 -0.32917988 -0.5344932 0.24748498 0.4212291 -0.014223463 0.43910903 -0.27042848 -0.67388976 0.66044366 -0.18277353 -0.070974894 -0.7608814 0.0043519824 -0.115070075 0.934557 -0.4680256 -0.016237589 0.20502447 -0.36390668 0.032953754 1.1944575 0.60185355 -0.5739958 -0.18821472 -0.8466939 -0.005535315 0.24396245 -0.20971723 0.48088244 0.3919746 1.0219339 -0.030075328 -0.19753467 0.0411644 -1.3530684 -0.5254704 -1.322396 -0.47855127 0.30640978 -0.3034677 0.051061578 -0.543423 -0.26840696 0.42698327 -0.37448466 -0.25530788 0.12207088 0.65314823 0.10018646 0.53109026 0.61808974 -0.33134204 -0.34952277 0.44407174 0.5406392 -0.4534537 0.38043848 -0.16378272 0.11990789 0.2682064 -0.3022589 -0.18983617 0.08187233 0.048655495 -0.70514905 -0.48241568 -0.3000227 -0.18750004 0.59994197 0.43403628 -0.95316374 0.41097426 -0.11787893 0.09285335 -0.28465158 0.13407315 0.41592893 -0.008777391 -0.03856366 0.32542777 0.6361302 -0.11883918 0.26297387 0.42601714 0.36699042 -0.38278553 -0.22306253 0.1431995 -0.35053748 0.36097136 0.2080055 -0.22072257
back -0.034031358 -0.0854134 0.240195 -0.036461465 0.49574977 -0.27347535 0.25359792 -0.34181762 0.052617054 0.6353622 0.5226682 0.034376472 -0.08005186 -0.32194644 -0.2917936 0.681163 -0.45078084 0.24742357 -0.7969086 0.69104123 0.22069639 -0.12927617 -0.78925985 -0.9754449 -1.0531048 0.11817122 -0.6465584 -0.22099191 -0.24628894 0.4065584 0.16581465 -0.10440128 -0.0054816473 -0.11014018 0.22317998 0.8263578 0.4936719 -0.17998005 -0.34717542 0.060441613 0.16795263 0.7059955 -0.16510627 -0.32117385 -0.31287155 -0.5455082 -0.26542488 -0.8286155 -0.18567643 -0.22276057 0.64758414 -0.39087826 -0.7387972 -0.14903966 0.6879665 -0.28680518 0.5465167 -0.055995196 -0.14654838 0.07119996 -0.4709018 0.253725 -0.15650824 0.13242576 0.20813009 0.115999624 0.024018835 0.03517745 -0.2394257 -0.5422582 -0.29233417 -0.41204563 -0.4505242 -0.34356123 0.39085108 -0.32136512 0.01054988 -0.33661395 -0.3496655 -0.3252725 -0.23335227 0.2305945 0.48122627 0.27490082 0.24056886 0.7835122 0.3141534 -0.17577578 -0.07298291 0.38038862 -0.009123422 -0.3562147 0.32234234 0.1885095 0.3295261 0.026062276 -0.36732134 -0.7090145 0.22083881 -0.29652572 -0.32522115 0.38705117 -0.3130135 -0.060396772 0.348574 0.5228725 -0.71747106 0.19540459 0.16553831 -0.64779705 0.3630242 0.13059884 -0.0954598 0.15150225 0.27011022 0.057450548 0.419463 -0.08643728 0.4091893 0.3794104 0.14405736 -0.37659526 -0.5067527 0.12175965 -0.41852567 -0.31509066 0.26115334 -0.14085886
people 0.06890129 -0.017535573 0.26432645 0.14258473 0.06724315 0.033922773 0.46533197 0.0370188 0.15655783 0.34903547 0.1822737 0.13554753 0.12084531 0.13128747 0.20258652 0.28997144 -0.326051 0.049191814 -0.43274713 0.29433846 -0.0741187 0.19557098 -0.34165835 -0.20125347 -0.33098525 0.0075865397 -0.45047167 0.12789361 0.12947284 0.094982244 -0.12967186 -0.00062729296 -0.14320792 0.45119008 0.03656217 0.34546435 0.24660955 -0.116417095 -0.089218475 -0.08149459 -0.046882447 0.13062273 -0.04203747 0.102265 0.2512544 -0.057748128 -0.13692081 0.104977235 -0.38517684 0.040832937 0.30631837 0.13940239 -0.15125082 -0.081169955 0.19457202 -0.33823577 0.57483625 0.010377478 -0.45994654 -0.20521091 -0.776619 -0.042416066 0.44735757 0.03084589 0.1684745 -0.25847152 -0.03235902 -0.007923233 -0.15074979 -0.34092557 -0.20200396 -0.22213492 -0.47577053 -0.07149383 0.28708264 -0.27330923 0.2299325 0.0016916265 -0.5006901 -0.033302736 -0.43934506 -0.096438624 0.41573915 0.027877327 0.19794914 0.25988185 0.26413622 -0.40308928 0.47423846 0.27325022 -0.0939164 -0.2912774 0.20834541 -0.3138431 0.30939183 -0.080651715 -0.42864785 -0.5174588 0.061876766 0.18356065 -0.19475967 0.22663963 -0.21747807 -0.20566207 0.2090384 0.1568884 -0.3316537 0.28511965 0.20934418 -0.22572362 0.31369817 -0.43708792 -0.10975736 0.36303142 -0.15418567 0.020044178 -0.058417823 -0.19301286 0.14707638 -0.03487938 -0.031002326 -0.241316 -0.50927496 0.1000279 -0.15145402 -0.0005026009 -0.167662 0.054181516
body 0.12683858 -0.31013253 0.3504086 -0.06426291 0.27494428 -0.14315133 0.17068551 -0.32717744 -0.21068697 0.2566656 0.3896334 -0.05909946 -0.23430339 -0.059627064 0.38370985 0.2160453 -0.1538729 0.20615266 -0.13500747 0.16145577 0.063319765 0.165023 -0.55767024 -0.72568196 -0.52072924 0.21991773 -0.17714822 0.34119582 0.1346851 0.12018831 0.01792793 -0.2084153 -0.024923056 0.225041 -0.083848305 0.3020035 0.27960104 0.021876382 -0.40685508 -0.2030976 -0.08615176 0.3439611 0.12349843 0.06308071 -0.03964126 -0.20378093 -0.13039884 -0.13622278 0.03792023 0.033187713 0.26205048 0.298434 0.04806753 0.0062088766 0.23936683 -0.06469292 0.31091982 -0.1660871 -0.20988481 0.020877877 -0.54408586 0.34599614 0.3516192 -0.22582605 0.45817176 -0.10360652 0.062677726 -0.23103358 -0.003355276 -0.12039011 -0.069296345 -0.23355572 -0.38070098 -0.0043857787 0.36020723 -0.11067305 0.10231826 -0.084478706 -0.28683537 -0.08515723 -0.41605765 0.09229824 0.20564727 0.3168031 0.2315544 0.18034476 0.083439544 -0.33755055 0.16026753 0.18085746 0.018132823 -0.18456611 0.19225553 0.108929634 -0.030209618 0.15478946 -0.3524132 -0.53291744 -0.25230306 -0.28370756 -0.31415206 0.11283358 0.08051683 -0.14750695 -0.007698989 0.009298664 0.010185475 0.26706302 0.15617868 -0.38844362 0.2446771 -0.2261998 -0.2734324 0.23432653 -0.28396198 -0.0012067091 -0.14026207 -0.153383 0.12041688 0.25175714 0.13448907 -0.25259954 -0.4603053 0.08723218 -0.28395545 -0.2287833 -0.04732939 0.12669887
even 0.2788604 0.21215698 0.1569913 -0.06757318 0.33224195 -0.08237767 0.26226974 -0.3160784 0.2951042 0.8096195 0.43521717 0.13686426 0.03021999 0.0828337 0.11733968 0.83606964 -0.81365514 -0.04556437 -0.7554236 0.4550774 0.34753197 -0.079884924 -0.7361829 -0.70057344 -0.7047218 0.057878584 -0.8316889 0.2519082 -0.17405069 0.38815206 0.008765963 -0.11444416 0.18020386 0.2632684 -0.21402563 0.6492187 0.27495316 0.0066661513 -0.3955456 -0.13418774 0.10855018 0.5619179 -0.17404042 -0.15556645 0.088335656 -0.57335824 -0.49120754 -0.5301473 -0.5194242 -0.27683595 0.42261657 -0.035345197 -0.75450015 -0.14144625 0.98918015 -0.5311925 0.5309465 -0.16237786 -0.59410036 0.18749814 -0.8664832 0.23572041 0.2615573 0.0007632793 -0.0032388237 -0.07998278 -0.08061997 0.06194899 -0.47702408 -0.7107163 -0.40192196 -0.21506217 -0.692453 -0.34995294 0.118459806 -0.44638002 0.39780572 -0.05222313 -0.6260737 -0.84869945 -0.3191465 0.33264825 0.51328635 0.040703654 0.37095776 0.5725047 0.19445169 -0.17495142 0.38299555 0.5512239 -0.097582385 -0.6349122 0.56084746 -0.0775215 0.45366126 -0.049826924 -0.5474734 -0.797809 0.15362455 0.16725937 -0.508346 0.59522617 -0.45028883 -0.11410447 0.33011672 0.34278607 -0.5399913 0.13476281 0.4609938 -0.600722 0.4575882 -0.24244875 -0.35532817 0.3237517 0.01759372 0.26054797 0.08012654 -0.40154567 0.12810811 0.11305409 -0.071641065 -0.38829634 -0.6464247 -0.09347947 -0.15001747 -0.6694767 -0.20668243 -0.1292991
see 0.1978799 0.18586823 0.3032954 0.22677626 0.19269915 -0.09604132 0.37627152 0.22983442 0.26731363 0.6921246 0.36071354 0.09373592 0.15015042 -0.12971927 0.16751778 0.3072349 -0.4374926 0.19801307 -0.52436256 0.28576028 0.4204872 0.26227975 -0.42659423 -0.3082334 -0.33616892 0.09208118 -0.52114356 0.2879933 0.2842577 0.11836034 -0.047149375 -0.0041160434 -0.030819314 0.66070616 0.25656825 0.5839035 0.33518264 0.005175766 -0.08409157 -0.05076025 0.10330342 0.36488825 0.038393144 0.017634736 0.15561983 -0.11464386 -0.09775271 -0.15278 -0.38119477 -0.38029295 0.50949544 0.21148698 -0.2497482 0.014586875 0.18850367 -0.3232631 0.7312659 -0.14243394 -0.627307 -0.39097705 -0.74191886 0.07732083 0.38470757 -0.1185522 -0.13157836 -0.025890805 0.34410408 -0.0298836 -0.16477898 -0.3102539 -0.51839715 -0.30066323 -0.73835564 -0.030572759 0.18973146 -0.36760888 0.39632884 0.07118159 -0.3762656 -0.04227682 -0.5746821 -0.08888426 0.33235383 0.24603081 0.21692055 0.31163144 0.37055328 -0.3455599 0.2670737 0.19293441 0.059893098 -0.5075778 0.39703453 -0.12931769 0.30091754 -0.15565115 -0.66716343 -0.34492794 -0.01803538 0.419181 -0.38419816 -0.110339515 -0.20171683 -0.3748068 0.176905 0.37943783 -0.5780055 0.1919366 -0.067180485 -0.33809614 0.21404925 -0.52965504 -0.06185811 0.110833466 -0.12870246 0.03187023 0.07945681 -0.19922285 0.14363451 -0.037333656 0.15861918 -0.2827996 -0.29162955 -0.064500995 -0.13973817 -0.025907105 -0.11702759 -0.14030078
ed 0.08834786 -0.07209385 0.08577125 0.1499287 0.42887452 0.027602926 0.12595688 -0.1039487 0.080154076 0.2767048 0.25836784 -5.7810343e-05 0.123994105 -0.36360186 0.20604067 0.32640094 -0.37974614 -0.10419026 -0.35809782 0.3130646 0.17732829 0.2713596 -0.2204939 -0.24089786 -0.34049052 -0.014130096 -0.37674674 0.3380366 0.102475695 -0.15741904 -0.20025237 0.12586989 0.00045178938 0.36828226 -0.10766749 0.021267079 0.110678054 0.13925861 -0.10108853 -0.16281152 -0.08075609 0.3372895 -0.17583248 -0.0071301535 0.25462204 -0.056924623 -0.076205805 -0.3666598 -0.08444652 -0.06199419 0.2644366 0.35864648 0.02650367 0.20943035 -0.0784764 -0.30900803 0.5188156 -0.4188429 -0.395228 -0.23055321 -0.4479818 0.09368981 0.26385495 0.1187355 0.0726002 0.112094946 -0.021484511 -0.20435256 -0.038102634 -0.45607162 -0.26986682 0.034390282 -0.65115154 0.083065964 -0.02809751 -0.25805974 0.0969234 0.13094704 -0.12149736 0.25940156 -0.20152317 -0.02272667 0.12661429 0.5503744 0.24140894 0.19732992 0.21362443 -0.19825748 0.12132744 0.2716004 0.0851812 -0.4005464 0.1798701 -0.22893988 0.11461716 -0.06491307 -0.349148 -0.29641458 0.13221836 0.08917885 -0.6474028 -0.14117606 -0.041075945 -0.017192323 0.08769974 0.19101942 -0.058918316 -0.058587845 0.20906681 -0.32593605 0.12472991 -0.3224741 -0.10036718 0.16986059 -0.23057371 0.10126645 0.13448605 -0.06928882 0.21753626 0.19721077 -0.021034317 -0.1432554 -0.1743368 0.08790039 -0.008256052 0.024692828 -0.045924958 -0.13817379
fat 0.14545943 0.03240703 0.49180382 -0.3038083 -0.19268203 -0.51129156 -0.016430004 -0.26611555 0.010297866 0.5080023 0.17141417 0.15724853 -0.17533295 -0.050969288 0.5080928 0.5199632 -0.68326885 -0.11128143 -0.07658282 0.34190652 -0.08895614 -0.4477565 -0.9835832 -1.210325 -0.79859084 0.119550996 -0.7950221 0.33500856 -0.23931344 0.21411996 0.50992996 -0.28588802 0.0056791045 0.30905136 0.03634738 0.6416096 0.108549975 0.054531515 -0.73519933 0.010572996 0.0881937 0.5570574 -0.0019557953 -0.073329374 -0.0024436165 -0.66053146 -0.29368713 -0.3299238 -0.17581329 -0.21949795 0.4240603 -0.07654606 -0.30238163 -0.29894742 1.0355049 -0.4610684 0.5242491 -0.25889108 -0.5452869 -0.11709249 -1.0034925 0.5727668 0.4947754 -0.11575618 0.27865043 -0.15636311 0.37753534 -0.37297782 -0.06954968 -0.38966748 -0.36104503 -0.34967908 -0.6424085 -0.15430246 0.3273239 0.013480387 0.6460994 -0.21641657 -0.6220419 -0.93707657 -0.41418344 0.35104385 0.4803405 -0.11878845 0.24067345 0.3766417 0.032982156 -0.33357126 0.022709796 0.4897816 0.16934003 -0.45185325 0.5445003 0.19633637 0.17218445 -0.06081255 -0.590392 -0.7242444 -0.31700584 -0.2630101 -0.45372504 0.74122363 0.08283034 -0.4675947 -0.20287165 0.1106825 -0.1680479 0.37745348 0.40178466 -0.5442096 0.3688151 -0.055142894 -0.40371758 0.4470216 -0.28046364 0.124693155 -0.11960662 -0.426984 -0.06996184 0.28613454 0.11286414 -0.39813462 -0.9662649 -0.14467186 -0.51646924 -0.40691367 -0.22573619 0.10968126
good -0.15555874 -0.0023181601 -0.15108186 -0.09752579 0.6345604 0.077458866 0.10412126 -0.4997899 -0.16894546 0.41263 0.460157 0.018123731 0.09917745 -0.2830615 -0.39122432 0.4742996 -0.31544098 0.39318007 -0.91529286 0.6609049 -0.06287715 0.009516589 -0.6810361 -1.2880527 -0.90269953 0.28739038 -0.62330633 -0.13023552 -0.4589713 0.37095833 0.02464704 0.023447504 -0.04849492 -0.29921192 0.41372806 0.6222967 0.3147185 -0.23545025 -0.6239157 0.13079013 -0.3662477 0.15734617 -0.25191838 -0.13155484 0.020204993 -0.69654363 -0.43015242 -1.0780402 0.079934575 -0.12604178 0.3638363 -0.48266715 -0.41756013 0.026682034 0.3021641 -0.32933423 0.6417687 -0.04489826 0.10538647 0.23927645 -0.7068517 0.3350749 -0.07690727 0.097432785 0.550089 0.26701602 0.09632601 -0.25312522 -0.5160006 -0.27249235 -0.21061297 -0.30334163 -0.4533617 -0.36761206 0.58499795 -0.11915047 -0.03297228 -0.18287452 -0.3137152 -0.26754734 -0.16732095 0.20130602 0.25713274 0.3781409 0.16958855 0.78892964 0.018177398 -0.28598663 -0.12938648 0.34079343 0.050119966 0.06294036 0.34312665 0.13110815 -0.104568616 -0.09028753 -0.3813838 -0.8607152 0.16249673 -0.277306 -0.63801533 0.19126497 -0.59614307 -0.015545467 0.20631297 0.45798334 -0.793266 0.10862992 0.5464647 -0.36610463 0.25092265 0.11909464 -0.38412553 0.17466071 0.39127794 0.33267352 0.39978117 -0.041915957 0.59686977 0.50448954 0.34487006 -0.31685197 -0.74063957 -0.1357863 -0.6984248 -0.14619678 0.46339858 -0.35451168
look 0.1504472 0.09162072 0.20340875 0.063788705 0.2517116 -0.24479216 0.26687407 -0.08755765 0.15580903 0.51626873 0.45518634 0.18125546 0.08122817 -0.14571005 -0.06667547 0.5303639 -0.5815436 -0.033122044 -0.4395648 0.32751074 0.48326597 -0.09265663 -0.6964012 -0.66591936 -0.61579424 0.10945099 -0.6357693 0.27940223 0.11886808 0.34024838 0.16495867 0.12191907 -0.056267574 0.20905481 -0.11693232 0.5232524 0.4074176 -0.018843593 -0.25219947 -0.105419755 0.17083567 0.6099667 -0.14859837 -0.24922337 -0.09086309 -0.33313057 -0.37119728 -0.47281328 -0.2962144 -0.28553715 0.29013655 -0.11277114 -0.58706075 0.022445494 0.73197526 -0.49799496 0.5192202 -0.12286624 -0.5796959 -0.024915447 -0.46503255 0.25650626 0.19807549 -0.044398658 0.0911056 -0.08681056 0.05756683 0.09381746 -0.18875511 -0.40028444 -0.32331523 -0.11879706 -0.5135995 -0.13959675 -0.16154192 -0.36402214 0.39161253 -0.0758674 -0.50495607 -0.41923332 -0.41489783 0.23795035 0.3721664 0.12456316 0.4289024 0.54662186 0.28115714 -0.23506975 0.23137751 0.5068561 -0.16424792 -0.47732925 0.40654197 -0.049774732 0.27006042 -0.104979575 -0.29589558 -0.63339055 0.15133877 0.121016234 -0.53830093 0.39143282 -0.19462241 -0.20464021 0.1106021 0.21261549 -0.53158724 0.19951218 0.19393031 -0.42573622 0.3585791 -0.18733025 -0.20328037 0.27026334 -0.15678976 0.15787067 0.18598309 -0.23404318 0.14655986 0.05006425 -0.18021023 -0.39362088 -0.4153949 -0.19296284 -0.27027246 -0.43146974 -0.21974714 -0.1937509
point 0.17705967 0.09479848 0.07084901 0.158098 0.45709932 0.15022239 0.43905246 0.13953117 -0.23632303 0.071463354 0.009857396 -0.028109359 0.0006958842 -0.21426976 0.39888388 0.3544239 -0.25196555 -0.001016226 -0.5047973 0.33972952 -0.11466576 -0.005800087 -0.39453542 -0.5898822 -0.3671193 0.054274745 -0.46397072 0.09248489 -0.22853701 -0.16150339 -0.050516557 0.020910561 -0.010564846 0.21053788 0.28128514 0.28163937 0.01957037 -0.11309653 -0.05702313 0.18229559 -0.07925431 0.10956917 0.009586051 -0.20985763 0.6173998 -0.34172148 -0.10672134 -0.05479153 -0.2462217 0.16968976 0.45492414 -0.07136016 -0.062174037 0.018906197 -0.025838645 -0.2177687 0.5633111 0.2014452 -0.18382889 0.24025619 -0.7006655 -0.08578334 0.067746535 0.19514915 0.2695858 -0.00999555 0.3418047 -0.23582253 -0.4044351 -0.3761439 -0.23077732 -0.35575777 -0.27035257 -0.18514521 0.4737758 0.15029104 0.12504363 -0.06505105 -0.34373984 -0.093244426 -0.027702976 -0.24260336 0.24980396 0.1911484 0.003407301 0.51824075 0.1895281 -0.3782747 0.13066284 0.09384691 -0.19290578 -0.10478548 -0.09803454 -0.05325061 0.27147162 -0.1531361 -0.28485948 -0.4526615 -0.049492277 -0.14670242 -0.20079914 -0.16881272 -0.13488492 -0.092642955 0.09759712 0.21092325 -0.022333296 -0.0978424 0.21247968 -0.0119619835 0.28039724 -0.17361233 0.07507062 0.08815098 -0.080342755 0.38610187 0.36178568 -0.16662404 0.11040572 0.11806171 -0.15892977 -0.45889115 -0.61611354 0.18891245 -0.43662775 0.08349251 -0.107997164 -0.22931227
also 0.04083532 -0.22015175 0.09708118 0.24023385 0.3450038 -0.192997 0.19018023 -0.23023224 -0.08285627 0.18352202 0.22074005 0.05271968 0.052915104 -0.0155408215 0.33938408 0.3045209 -0.18039566 -0.17571487 -0.39347276 0.24199381 0.08728017 0.10168548 -0.31690958 -0.45065075 -0.27613798 0.16483021 -0.35420647 0.38134843 0.07732444 0.023050232 0.005415533 0.11538597 0.0016953341 0.1244913 -0.2141529 0.11084701 0.18883914 0.010817754 -0.30822727 -0.015821759 0.046676036 0.2163029 0.10600911 -0.013092476 0.23686257 0.042009994 -0.2891762 -0.27254993 -0.1116722 0.19141741 0.043671023 0.077159114 0.061862443 0.111379266 0.3382029 -0.187441 0.4418252 -0.07723041 -0.31539205 0.19766368 -0.41040492 0.13678885 0.26447454 -0.00011473277 0.14394811 -0.19083129 -0.033167742 -0.07278676 -0.18792799 -0.18362175 0.05759161 -0.10138413 -0.41162074 -0.07957552 -0.10636128 -0.07298112 0.06953543 0.05484793 -0.36790225 0.027091293 -0.235278 -0.0032351671 0.18574561 0.3504925 0.11541549 0.41462302 0.27476868 -0.23290364 0.32697445 0.26510814 0.06914418 -0.25730154 0.36801678 -0.08858964 0.2841891 0.01191064 -0.26768807 -0.3385026 -0.11562332 0.043193944 -0.5397789 0.14618568 -0.18597408 -0.0014949378 0.09957737 -0.037050426 -0.038314942 0.23824193 0.12334764 -0.19226816 0.19767112 -0.2023691 0.05826034 0.4175835 -0.16371393 -0.03940613 0.08376553 0.052561868 0.0233749 -0.030621523 -0.071288094 -0.13060163 -0.40233263 0.022278706 -0.2716105 -0.1821547 -0.11134209 -0.13463399
much -0.020448316 0.04504652 0.100881375 -0.10534958 0.18233404 -0.2739845 0.014277529 -0.38406926 -0.16614918 0.16119906 0.047593657 -0.063648894 -0.105025336 -0.24874231 0.27460963 0.40010503 -0.30239782 -0.030779237 -0.28742468 0.47412524 0.06771294 0.09830603 -0.267294 -0.7529934 -0.3217964 0.18248993 -0.4696923 0.14747618 0.002996911 -0.178474 0.024468966 -0.17381312 0.08862724 0.03410481 0.0955145 0.2181818 -0.003636691 -0.09635258 -0.27177677 -0.031134795 -0.17778985 0.23971729 -0.08947945 -0.05901977 0.17913991 -0.13551304 -0.26297382 -0.31552318 0.06540237 0.093423285 0.30933294 -0.019170279 0.047208607 0.04764301 -0.027838893 -0.18656376 0.4446394 -0.29592863 -0.15789175 -0.17822453 -0.5565907 0.22324777 0.18403745 -0.025357693 0.4181231 0.063670665 0.24475382 -0.15687579 -0.07133398 -0.14004578 -0.2904982 -0.1340804 -0.52868706 -0.16978607 0.2572846 -0.034854487 -0.008825501 -0.19243175 -0.282823 0.04157725 -0.28168142 0.047941506 0.15938893 0.3811839 0.08575967 0.35968283 0.20582698 -0.2337828 -0.055971347 0.20964353 0.10378196 -0.11751762 0.21464154 0.016999794 -0.056893982 0.2066075 -0.20550087 -0.37930104 -0.28421125 -0.14921525 -0.33828926 0.07983467 -0.0058359643 -0.07991591 -0.0075599756 -0.05162132 -0.19111714 0.22197992 0.25685087 -0.11684952 0.11483459 -0.10156595 -0.2619276 0.007922858 -0.12936684 0.06736677 0.069193214 -0.048144948 0.19515833 0.27961415 0.016991401 -0.27356005 -0.44829893 0.14170167 -0.43487984 -0.08416 -0.08123912 -0.021674855
every -0.12887107 0.7367542 -0.08866082 0.40533426 0.31828174 -0.3309592 0.05920636 0.6112101 0.27494192 0.7017633 -0.16074361 -0.37406132 0.61285263 -0.52201045 -0.047811598 0.6191976 -0.66281843 0.0537062 -0.4035 0.45065165 0.85566646 -0.1452306 -0.6296907 -0.5331572 -0.23004358 0.16058758 -0.67389023 -0.17749211 0.05779389 -0.02455437 0.3336312 -0.03403662 -0.21919364 0.34060898 0.64465153 0.1273446 -0.16646647 -0.18042317 0.026219567 0.4147665 0.3511882 0.47713423 -0.35692117 -0.3734762 0.03555078 -0.40550625 -0.36548924 -1.0317199 -0.27422813 -0.5940452 0.5390281 -0.6545861 -0.50645465 0.043487046 0.07460641 -0.4668811 0.9270557 0.36287138 -0.96218324 -0.06048033 -0.675598 -0.040411122 0.44241527 -0.036761217 0.21410932 0.2245145 0.49390796 -0.118209906 -0.33150265 -0.21571949 -1.1394176 -0.22480503 -1.1594986 -0.26555353 -0.09461344 -0.42042676 0.31330207 -0.53377324 -0.34372994 -0.13145652 -0.49692768 0.17354296 0.3276034 0.39152387 0.24916103 0.9308242 0.71586585 -0.14437424 -0.054315235 0.7584997 0.42949018 -0.37495214 0.48802266 -0.16865416 0.13555774 -0.093911596 -0.62967926 -0.45308703 0.21390994 0.42661393 -0.9887701 -0.29846293 -0.5986326 -0.33746192 0.4753667 0.4372503 -1.0935392 0.19624704 0.07653716 -0.242168 0.040272757 -0.19099683 0.25266147 -0.076186344 0.08701733 0.17985117 0.5547826 -0.1966475 0.20673928 0.36317784 0.22281045 -0.41290647 -0.09810606 -0.09268542 -0.40430462 -0.04175488 0.093056574 -0.3175038
month -0.009853906 0.49917886 0.12182811 0.11699007 0.08407204 -0.38620368 -0.03909673 0.013702557 -0.13783222 0.6133041 -0.025725208 -0.13267678 0.022313856 -0.3409696 0.12391985 0.59250915 -0.3001377 0.19163775 -0.19448821 0.31835666 0.07004838 -0.21743238 -0.10810751 -0.75179744 -0.21444952 -0.015947085 -0.5158952 -0.03917211 -0.31957012 -0.65119356 0.107686885 -0.34108362 -0.054945588 0.025295489 0.08323027 0.26551995 -0.19642274 -0.14528358 -0.060840625 0.119602464 0.022139333 0.50706524 -0.27167588 -0.37857947 0.5951747 -0.22823802 -0.16894402 -0.28799623 0.13381284 -0.080469854 0.62047493 -0.2769384 0.22297789 0.055228468 -0.14363456 -0.0065599605 0.8467413 -0.052589368 -0.29714105 -0.33593753 -0.74348927 0.15367283 0.0346034 -0.05462083 0.44434157 0.38919726 0.97515684 -0.019021966 -0.13171189 -0.18303466 -0.8052167 -0.28707412 -0.95538914 -0.37709323 0.48763615 -0.3067588 0.05738607 -0.21605136 -0.2969323 0.14836285 -0.20520969 -0.28291497 0.26942536 0.24520798 -0.018347133 0.36255264 0.28849882 0.009071074 -0.29902524 0.13621958 0.28243074 -0.26482415 0.11871191 -0.18189482 -0.016252484 0.35747328 -0.31299347 -0.12959926 -0.35017484 -0.1485492 -0.3025367 -0.11219319 -0.17283635 -0.1593624 0.26298505 0.1954126 -0.44417062 0.17502317 0.08243732 0.22185548 -0.10500628 0.2756081 0.20016459 -0.18151513 -0.05267753 0.122372 0.41949245 0.03872069 0.24314535 0.19660449 0.23526141 -0.33566374 -0.4362696 0.31296912 -0.53219056 0.12564315 -0.16738114 0.19573866
control 0.14535812 0.27551216 0.10122122 0.13192864 0.20309533 -0.27767316 -0.034199182 -0.114104904 0.11086556 0.5505136 0.08005933 -0.22371589 -0.11314229 -0.42127407 0.0015580774 0.5787209 -0.7113867 -0.0014985738 -0.68016845 0.52704656 0.19734594 -0.36076695 -0.81732476 -0.9954001 -0.7430605 0.16054559 -0.70805377 -0.08245969 -0.18908878 0.34444863 0.5964537 -0.18816437 -0.14948878 0.13098866 0.2938462 0.5899785 0.17645815 -0.30529696 -0.3836959 0.2620085 0.1542667 0.6499834 -0.23027228 -0.5118657 -0.06622142 -0.7921874 -0.24725267 -0.7092754 -0.47036588 -0.246006 0.73708874 -0.5172297 -0.8901255 -0.09534632 0.6630585 -0.23696186 0.7631115 0.1234761 -0.44946152 -0.048423037 -0.63092357 0.28364655 0.0021215677 0.11724482 0.21667883 0.15821742 0.44817796 0.018408475 -0.3506677 -0.456285 -0.5977428 -0.50776535 -0.5024945 -0.29881844 0.39721134 -0.20418684 0.14171809 -0.22037964 -0.52343106 -0.71993256 -0.170221 0.2505679 0.49048996 0.19863084 0.21931575 0.7630842 0.18975621 -0.43665868 -0.045110803 0.33017313 0.09960775 -0.47375894 0.44904664 0.2151424 0.44094703 -0.08298692 -0.2564375 -0.6767217 0.24066418 -0.17065686 -0.33056733 0.17279889 -0.16207945 -0.17263255 0.28610334 0.6034727 -0.7761503 0.3708909 0.07001332 -0.64429647 0.2653356 -0.007018576 -0.040934604 0.41125467 0.12577099 0.25547802 0.32471436 -0.26661786 0.22811797 0.31496412 0.03966367 -0.46723932 -0.48346373 0.18513314 -0.37637073 -0.27243447 0.33654293 -0.34617174
stop 0.22019513 0.32437217 0.3351861 0.12400568 0.2027568 -0.48302087 0.0124902 -0.1469058 -0.037159868 0.45206454 0.007586556 -0.11695954 -0.13512845 -0.3906315 0.2808302 0.68728733 -0.7291667 0.004301779 -0.2087671 0.29750946 0.4870429 -0.31256253 -0.8051332 -0.9670738 -0.7115552 0.0958521 -0.8397014 0.19281119 -0.2108649 0.22051424 0.43337363 -0.28888896 -0.019483197 0.12901212 0.108082324 0.585819 0.004039974 -0.1300713 -0.37602422 0.1657586 0.16402648 0.65192163 -0.19837683 -0.3517377 0.01419682 -0.65035665 -0.3868348 -0.66944325 -0.30586904 -0.2739003 0.7467928 -0.37578171 -0.6825581 -0.1269832 0.73634344 -0.27220204 0.6815697 -0.001190809 -0.5879687 -0.1578567 -0.65738416 0.2846013 0.1323963 -0.028416097 0.29852617 0.1350646 0.5422778 -0.075102225 -0.22809027 -0.3580249 -0.6542651 -0.3629472 -0.66656744 -0.26960135 0.12658618 -0.32875484 0.22933987 -0.31698108 -0.47982842 -0.7583938 -0.3176945 0.17851156 0.49746567 0.15879884 0.28843224 0.61008936 0.33965096 -0.3511198 -0.05945314 0.4522404 -0.018892543 -0.42069912 0.32464886 0.044868726 0.3695567 0.15870321 -0.26420203 -0.48641855 -0.011546155 -0.14783233 -0.57336396 0.3105634 -0.16140391 -0.25806952 0.13487096 0.19864552 -0.4913547 0.26470852 0.08447932 -0.2805351 0.3148636 -0.01802461 -0.13423105 0.10719736 -0.10780797 0.13800852 0.41712695 -0.36488178 -0.015204113 0.17466864 -0.08045212 -0.6019467 -0.66640055 -0.008375845 -0.4056052 -0.39372003 0.0024007233 -0.13331835
lot 0.29171982 -0.23864219 0.28559414 0.38014743 0.3798778 -0.08534727 0.52859455 0.12168979 0.079717025 0.17957695 0.45489383 0.1717212 0.26057455 0.08845824 0.068323165 0.28006554 -0.3982564 0.30062643 -0.72205156 0.17088848 0.16518924 0.26519343 -0.7586597 -0.45028046 -0.5203004 0.15002657 -0.50233823 0.20864837 0.46587583 0.5056989 0.09293453 0.104978874 -0.22919661 0.43583053 0.4736966 0.5253982 0.49097592 0.008135458 -0.027546631 0.10046966 0.14396039 0.24909253 0.35681337 0.17408256 -0.112849325 -0.35639676 -0.10843694 0.09022407 -0.28439885 -0.22624856 0.2737209 0.07940191 -0.19800828 0.039684817 0.28333881 -0.32360724 0.45146608 -0.15714385 -0.65286887 -0.01700184 -0.7505516 0.20942943 0.43053117 -0.26932898 -0.035265144 -0.29401892 0.16000494 -0.14789471 -0.368492 -0.121975 0.14100178 -0.276834 -0.46088842 -0.020492746 0.3446133 -0.26890552 0.24429758 -0.022350097 -0.44042772 -0.010351207 -0.46699733 -0.06706357 0.17102455 0.10735487 0.3621017 0.5149996 0.32857102 -0.68094915 0.45171294 0.37620553 -0.040104553 -0.3580938 0.34575272 -0.07074016 0.2357223 -0.359999 -0.45577472 -0.6128444 -0.12427479 0.121245675 -0.4733373 -0.0023241316 -0.108756706 -0.2767619 0.1737334 0.24292302 -0.42983148 0.36752367 0.07614993 -0.42853963 0.29156244 -0.671166 -0.26262403 0.5566794 -0.026607536 0.17948093 -0.12857959 0.064679995 0.29013875 0.06867552 -0.16009948 -0.36851677 -0.47924954 -0.12572296 -0.044691924 0.15094802 -0.012647182 -0.27020234
anyone -0.1605168 -0.63341206 -0.43582204 0.41480982 0.4929908 0.38318935 0.2905503 -0.596222 -0.2976218 0.022073157 0.15224658 0.029958045 0.25742427 0.18437216 0.15559694 0.19700828 0.32983676 0.19485593 -0.9267432 0.65903646 -0.33550072 0.635304 -0.15164138 -0.692835 -0.35094726 0.29810503 -0.09182125 0.014945125 -0.04567459 0.30567068 -0.09806018 0.11343235 -0.36144352 -0.22928013 -0.11627264 0.037517056 0.47470495 -0.05997892 -0.3523282 -0.10817804 -0.3048208 -0.1564664 0.13467903 0.08723944 0.5493823 0.19768365 0.0848152 -0.1441941 0.12750205 0.491513 0.017044405 -0.015154775 0.29773584 0.14373532 0.19235288 -0.16505323 0.72044516 0.064742506 -0.06601782 0.65728617 -0.3522864 0.22968258 -0.003367691 -0.24748798 0.5427129 -0.2953649 -0.6144097 -0.06194461 -0.53505033 -0.08462086 0.56245077 -0.15044864 0.031001205 -0.26880488 0.15852654 0.07943541 -0.40670234 0.020520562 -0.37096205 0.83614314 -0.15855332 0.08684388 -0.062791385 0.7773217 0.24851353 0.59867024 0.18448824 -0.3588976 0.7263432 0.21435282 -0.075925305 -0.02664718 0.6676172 0.21994054 0.07975784 0.07022339 -0.03247964 -0.67865586 0.06807278 -0.2930929 -0.52545524 -0.03304457 -0.44510633 0.4356745 0.09949988 0.09259716 -0.41333088 0.3682613 0.24327086 -0.32944736 0.16987148 -0.35948038 0.04691389 0.7255509 -0.057614304 -0.025383933 0.09662137 0.33697984 0.4781724 0.09960597 0.00052231055 0.13616987 -0.4431583 -0.2053508 -0.21473874 -0.020064523 0.31802997 -0.38307175
exercise 0.25304386 0.17246592 0.35884187 -0.30460337 0.21403156 -0.32693294 0.07671669 -0.3295352 -0.13881251 0.32742205 0.05549025 -0.045732975 -0.3044163 -0.111382194 0.36296758 0.7291258 -0.74610853 -0.0769835 -0.51694965 0.35673574 0.04820953 -0.2608325 -0.6640539 -0.86514753 -0.45543066 0.16160461 -0.75328517 0.15196547 -0.27864614 -0.20846404 -0.023682468 -0.21098506 0.22418661 0.019221047 0.20530853 0.5081569 -0.09124775 -0.018244259 -0.33262986 0.31724447 0.15741082 0.5709552 -0.096125536 -0.349249 0.4886841 -0.5573713 -0.27878696 -0.20641361 -0.22735028 0.015134187 0.58950764 -0.25131416 -0.32012498 0.1182566 0.22690158 -0.4013366 0.3603901 0.052323073 -0.32535908 -0.014660873 -0.7690087 0.21388888 -0.1319159 0.20339307 0.27294177 -0.022571214 0.66792524 -0.067852706 -0.34816962 -0.52166426 -0.46544772 -0.39926094 -0.49675825 -0.16964011 0.761877 -0.04239433 0.2030153 -0.20202011 -0.5937685 -0.7722978 -0.15788937 -0.14192998 0.5372086 -0.22762354 -0.12802921 0.6309206 0.16918717 0.02972193 -0.15516938 -0.044637203 -0.15825334 -0.24233912 0.054712184 -0.053460818 0.34274152 0.14600624 -0.38385904 -0.38002566 -0.29074353 -0.21191162 -0.21165675 0.28827557 -0.024345832 0.048670996 0.15130554 0.2730064 -0.17979507 0.039987862 0.3183556 0.016019447 0.5325931 -0.0636805 -0.13724977 -0.14304414 0.04422587 0.25368834 0.4678848 -0.381405 0.12102681 -0.043730404 0.11018955 -0.5546147 -0.71112293 0.29582626 -0.62393504 -0.30563593 -0.18147829 -0.14421931
well 0.2601458 0.28642038 0.13141063 -0.13183287 0.14354539 -0.045792073 0.08676476 -0.17075482 0.14180844 0.62637657 0.33627054 0.123631276 -0.130243 -0.2036501 0.07946926 0.74915594 -0.7204256 -0.018545702 -0.63354087 0.44491017 0.1539923 -0.34843436 -0.5486067 -0.87614167 -0.65733397 0.11833151 -0.6936892 0.12865204 -0.3320557 0.110395536 0.20606998 -0.1635394 0.0011099684 0.07780877 0.051079866 0.8192577 0.10176545 -0.030171387 -0.44441673 0.08952396 -0.092639 0.5576198 -0.30809137 -0.27231902 0.31904897 -0.8094337 -0.25198108 -0.48550937 -0.29539266 -0.4204396 0.4770909 -0.2417823 -0.5856575 -0.06911608 0.61279196 -0.39708075 0.5866148 -0.25957462 -0.39376336 -0.048383806 -0.82206774 0.3666643 0.17080262 0.21652372 0.21252859 0.20736673 0.3294276 -0.07454021 -0.5264776 -0.5649048 -0.40520614 -0.25040266 -0.5591577 -0.30552492 0.47613776 -0.24189365 0.31944552 0.06605516 -0.38172728 -0.631798 -0.10905422 0.05887167 0.4097629 0.1156583 0.12427401 0.5650561 0.07716684 -0.12258276 0.12146742 0.21598156 0.08805485 -0.34789044 0.34360594 0.1431495 0.081084356 -0.08187526 -0.59176123 -0.7094184 0.02416041 0.09561177 -0.4457458 0.15810584 -0.27124673 -0.21694706 0.03537226 0.6014757 -0.4303414 0.025501836 0.41754276 -0.53479177 0.29692465 -0.14866248 -0.30737722 0.21496527 0.16782647 0.40700147 0.24956444 -0.3890693 0.2742013 0.340095 0.16879466 -0.3464198 -0.6746092 0.00057263765 -0.48634595 -0.42678052 -0.008483472 -0.19973275
life -0.022920255 -0.21950354 0.4820833 0.21927643 0.5491352 -0.14160456 0.16993645 -0.26946473 -0.09562266 0.5989229 0.40020865 -0.14172538 -0.18176039 -0.3937639 0.010368332 0.47663254 -0.14670573 0.33693147 -0.61050373 0.5251415 0.31864026 0.12507318 -0.53805673 -0.673301 -0.8718063 0.1638828 -0.25509048 0.029892767 -0.24547051 0.24655646 0.028013492 -0.025581589 0.029045384 -0.07822094 -0.06476576 0.51488787 0.3524303 -0.18819146 -0.32449135 0.02876964 0.08130612 0.4865116 -0.18231586 -0.19273512 -0.28391382 -0.34614792 -0.12518224 -0.44527218 -0.16956082 -0.074629895 0.4975825 0.02613511 -0.3326406 0.17127997 0.22258975 -0.10727754 0.42127848 -0.008374853 -0.08654088 0.2131393 -0.22794527 0.179441 0.13670367 -0.06890713 0.30696505 0.0067789955 -0.15145321 -0.025566341 -0.0651628 -0.25392354 -0.07906816 -0.35697824 -0.2971574 -0.20745309 0.19755475 -0.37316784 -0.30534577 -0.36724558 -0.18537985 0.047579195 -0.072677106 0.095182806 0.29449815 0.3571603 0.3064796 0.578704 0.420647 -0.26468468 -0.08673694 0.17987299 -0.14736341 -0.2838298 0.21778803 0.26845938 0.15979975 0.16808501 -0.15383491 -0.57565325 -0.016564278 -0.34316918 -0.35315436 0.10687556 -0.19213721 0.1675666 0.31510788 0.2672771 -0.39646322 0.013405862 -0.009067981 -0.5921688 0.27983144 -0.043099258 0.020661961 0.23950613 -0.017427716 0.072121136 0.38731277 0.034950696 0.43695822 0.25910228 -0.12910236 -0.40806103 -0.10056268 0.21012975 -0.29179633 -0.38958532 0.076703005 -0.0052695
recovery 0.094916664 -0.10873647 0.26484218 0.3547029 0.36021256 -0.04795703 0.2899222 -0.18660037 -0.15590218 0.07386368 0.07923812 -0.12938192 0.008919108 -0.2898899 0.4964241 0.34049493 -0.037960667 -0.038553316 -0.30110833 0.22296114 0.27085674 0.50132555 0.097101994 -0.24036461 -0.10171229 0.21117555 -0.107047126 0.2291486 0.11512272 -0.4835167 -0.34438002 0.057833686 0.10601002 0.09125923 -0.23224545 0.103450656 0.15698981 0.079198346 0.13783546 0.025665522 -0.14301617 0.11631991 -0.037085395 -0.06082022 0.42292434 0.2646157 0.04555764 -0.08162996 -0.118359044 0.26445922 0.23810215 0.21206594 0.30293804 0.23033771 -0.456205 0.022965103 0.49310398 -0.06204624 -0.37038139 0.07020717 -0.25654674 -0.080369264 0.24619737 0.02313283 0.26508537 -0.03099721 0.2552517 0.013482426 -0.13143316 -0.11468882 0.042006277 0.004957818 -0.5268744 -0.07300782 0.060585912 -0.038675673 -0.23475651 0.021339571 -0.20692046 0.4921777 -0.14702716 -0.24411902 0.13786866 0.52825606 0.060195047 0.27591324 0.22644885 -0.30780908 0.1455233 -0.011288548 -0.14193724 -0.17200007 0.119487315 -0.20409225 0.11100302 0.1849183 -0.090386115 -0.20124702 -0.149489 -0.03917196 -0.35964844 -0.21783936 -0.077270545 0.22931169 0.12395329 -0.1578923 0.08257235 -0.061209507 0.041235402 -0.013141091 0.12183692 -0.17057139 0.047477756 0.20019658 -0.21519907 -0.053956058 0.2076608 0.1551657 0.20955583 0.059629858 -0.15255389 -0.2160504 -0.09916433 0.2115855 -0.1764532 -0.046609007 -0.2063323 -0.03024139
past 0.03466766 0.351523 -0.16864644 0.41244048 0.19146666 -0.0073568746 -0.2702062 -0.05442713 -0.0102046495 0.7512219 -0.42251697 -0.4483209 0.21920076 -0.47317952 0.060249545 0.29304725 -0.10865916 0.6588874 -0.5197002 0.7503014 -0.1719171 0.5654438 0.25385237 -0.68920404 0.011782492 0.15100607 -0.31999996 -0.46844774 -0.23357543 -0.33061224 -0.010072122 -0.29415402 -0.14419663 0.07656669 0.5174251 0.008509503 0.23258121 -0.2591559 0.11152463 -0.0017801425 -0.3614975 0.007597768 -0.3893824 -0.43036655 0.79078907 0.12181806 0.22389749 -0.40286136 -0.105127014 0.47862622 0.575388 0.031418867 0.41317424 0.076411374 -0.786494 0.2214552 1.1081283 0.08195088 -0.07817002 -0.14297637 -0.640217 0.1875695 0.0041945553 -0.1685947 0.6364917 0.23406905 0.45170856 0.04459993 -0.14486504 -0.07453248 -0.75396466 -0.21737546 -0.7957501 -0.6944829 0.4680392 -0.032986898 -0.41046777 -0.21841027 -0.21400101 0.7689473 -0.32022133 -0.28717437 -0.06217741 1.0404663 -0.05143112 0.07949191 0.14734171 -0.19291976 0.01516742 0.086421676 0.45348033 -0.3731275 0.29582268 -0.09076155 -0.09926438 0.43757048 0.01849209 -0.29404178 0.24191713 -0.4589508 -0.35545233 -0.5688017 -0.1810579 0.38164172 0.50015694 0.3535524 -0.6484826 0.27004835 -0.16850212 -0.026131772 -0.35235715 -0.10867267 0.53420085 0.03155248 0.11354106 -0.23325662 0.3182156 0.22753598 0.37356973 0.36044592 0.38081396 -0.13582782 -0.17572275 0.24463163 -0.28033715 0.2525972 0.5241596 -0.23883617
purge -0.12002883 0.3138337 -0.17740446 0.24089435 0.29548368 -0.3172825 0.03350875 0.23997773 0.011643776 0.35718736 -0.18226092 -0.5426839 0.27525207 -0.39346635 0.2673397 0.3403374 -0.32407844 0.24203321 -0.35530537 0.5872201 0.25641564 0.27698332 -0.30503812 -0.63999474 -0.08687987 0.14458548 -0.31239495 -0.22270115 -0.042557433 -0.16270694 0.21034983 -0.2455042 -0.27608746 0.16943195 0.593143 -0.051654607 -0.16623284 -0.2066453 0.06685395 0.26229462 0.11624607 0.24286437 -0.10008424 -0.35649976 0.39170623 -0.11023734 -0.087918274 -0.5294841 0.016823784 -0.06485531 0.5809699 -0.44488478 0.023622505 0.017971074 -0.5014142 -0.07018307 0.8134086 0.3111009 -0.4138562 -0.18518227 -0.45044485 0.061323777 0.074174695 -0.06483026 0.513194 0.13290954 0.68326455 0.013364547 -0.13772678 -0.1643958 -0.91653687 -0.30843753 -0.95427895 -0.25074556 0.5361468 -0.055051673 -0.016481811 -0.5687277 -0.42889833 0.2372763 -0.38095513 -0.19853064 0.21839154 0.55155486 -0.122755535 0.5233037 0.40538827 -0.35915142 -0.19585206 0.26721695 0.39488277 -0.25112048 0.21092504 -0.09634305 0.09039772 0.17360406 -0.32618082 -0.2193122 0.13937455 0.029589351 -0.4354199 -0.34818602 -0.23007306 -0.09614275 0.31186604 0.18277289 -0.839641 0.41306353 -0.14131905 0.09413701 0.06719066 -0.059817623 0.31262323 -0.1815814 0.03735346 0.049774293 0.50526994 -0.093433 0.22655097 0.20264368 0.40049502 -0.40933487 -0.13396092 0.2654862 -0.46932742 0.16915932 0.1949447 -0.16402493
weigh -0.13557303 0.31034958 0.29587826 0.61674464 0.3981116 -0.6329961 0.12292492 0.124765046 -0.039367154 0.5369077 0.16703342 -0.37706146 0.40893948 -0.5452085 -0.020555936 0.7239459 -0.6620222 0.021602998 -0.44779748 0.21981815 0.9071074 0.08579616 -0.6831749 -0.4795051 -0.5676907 0.090504766 -0.41667134 -0.026953582 0.11235937 -0.02490326 0.12411811 0.14472654 -0.024822949 0.07645421 0.30742884 0.22238801 -0.03432094 -0.15983683 0.13643378 0.12436219 0.29578346 0.56628287 -0.060385216 -0.3547627 -0.27620408 -0.20078015 -0.36176583 -0.8166196 -0.20256287 -0.23502187 0.70589316 -0.36709088 -0.67427075 0.23450582 0.18573356 -0.27604052 0.4155935 0.35170683 -0.7894776 0.15065709 -0.14075373 0.057483163 0.21311907 -0.19364253 -0.019468628 0.10085544 0.36816573 0.08270907 -0.19033061 -0.20312151 -0.51331407 -0.338819 -0.89450425 -0.23002848 -0.2086906 -0.5438339 0.09027295 -0.52833945 -0.14459658 -0.0658831 -0.28773695 0.08443892 0.416266 0.3270789 0.44915298 0.702016 0.5699867 -0.2891881 -0.24991858 0.51939553 0.040817365 -0.35415295 0.35060796 0.02222019 0.35992414 0.09763097 -0.13754058 -0.2262053 0.09292097 0.021230526 -0.68319345 -0.18765156 -0.4195821 -0.038785726 0.45711282 0.36847 -0.51762754 0.22880828 -0.06207142 -0.42991474 0.11862337 -0.03474447 0.16993545 0.002300591 0.09619048 0.06437487 0.48441073 0.03461463 0.27544513 0.30580896 -0.18025537 -0.51139516 0.15508135 -0.1673985 0.08153562 -0.22526203 0.00415828 -0.23955876
healthy 0.30544794 0.28069365 0.2167149 -0.22385171 0.15585607 -0.087178074 0.2358169 -0.12310039 -0.16109036 0.17817311 0.07838313 -0.011037804 -0.2946855 0.083264016 0.34145775 0.62623936 -0.5646397 -0.12140069 -0.4068604 0.33461252 0.053406715 -0.17400305 -0.3705237 -0.5912789 -0.31902748 0.0674063 -0.6464659 0.09025282 -0.29204974 -0.17679018 -0.14902832 -0.3198214 0.05699197 0.09940433 0.1502201 0.6768668 0.086331315 0.012387836 -0.1515862 0.21197213 -0.1733576 0.41391727 -0.053360358 -0.29227775 0.5160625 -0.51136714 -0.24602632 0.03576072 -0.26805672 0.029981619 0.42971948 -0.115451284 -0.26382092 0.0028743483 0.25962994 -0.34272912 0.3369821 -0.030043598 -0.33569726 0.05563416 -0.72360593 0.111864515 -0.09827663 0.2043329 0.38862127 -0.079555765 0.44342074 -0.028423991 -0.44830748 -0.54407126 -0.336359 -0.08094396 -0.54412866 -0.27690536 0.6743791 0.002165362 0.22369345 0.04363392 -0.47947016 -0.55331826 -0.18151307 -0.23589148 0.4483002 -0.073769644 -0.040462855 0.4956447 0.16349395 -0.13718453 0.24582456 0.16693568 -0.15940282 -0.28000915 -0.14541684 -0.06766702 0.16724484 0.098147705 -0.20923965 -0.3922922 -0.18988901 -0.016055852 -0.14512117 0.22468206 -0.21818241 -0.09602758 -0.07501343 0.28404066 -0.08210004 0.12472964 0.2347468 0.06361591 0.4301094 -0.11190601 -0.24235573 -0.11308138 0.032968715 0.28245297 0.3088416 -0.37479883 -0.060482927 -0.06748974 0.09831717 -0.56462866 -0.792774 -0.025782393 -0.3685939 -0.324424 -0.074493766 -0.034966353
first 0.016761355 0.05713654 0.17545202 0.44608507 0.62376016 -0.18009436 0.05887617 -0.42318493 -0.3363439 0.43696225 0.08397226 -0.47126764 0.1427892 -0.5824952 0.36142305 0.44692212 -0.048806973 0.1712641 -0.24198243 0.5231837 0.2009817 0.46867868 0.13678862 -0.18359634 -0.2960396 0.28889412 -0.050805427 -0.07566288 0.017333249 -0.33822966 -0.45923194 0.059675425 0.24135794 0.04255055 -0.10409792 -0.06718762 -0.04519077 -0.101071686 0.28383404 0.07536584 -0.23147526 0.28062227 -0.02142112 -0.20330055 0.124833904 0.20312023 -0.23826638 -0.47650743 0.05283937 0.47219032 0.33270422 0.3360684 0.2927827 0.32393733 -0.57969517 0.15699343 0.1405558 -0.009089791 -0.08483352 0.040783472 -0.03387566 -0.23628025 0.20598829 -0.110648535 0.22209418 0.10507645 -0.053726535 -0.034662955 -0.029383713 -0.2872152 -0.12565818 -0.053532805 -0.7311032 -0.11602519 -0.26392195 -0.11920016 -0.58508533 -0.28609723 0.08438407 0.88352823 -0.08516258 -0.14359789 -0.0744502 0.784157 0.15070607 0.32117882 0.38733384 -0.19622007 -0.17278497 0.09821581 0.0027439462 -0.16906148 0.006033805 -0.10157739 0.0129846055 0.5618457 0.17651708 0.044263225 0.016604723 -0.29884833 -0.52101916 -0.33255753 0.006924033 0.48430812 0.13388789 -0.0023071668 0.3023801 -0.1257843 -0.027432324 -0.111902036 -0.020526893 -0.008436414 0.22095907 -0.0059345094 -0.12582043 -0.16186456 0.2514826 0.48669237 0.23174316 0.33022454 -0.24552384 -0.077370316 0.08868718 0.30006707 0.09831302 0.037518047 0.044422936 -0.06176076
last -0.12881483 0.8012385 -0.15872091 0.415264 0.13473772 -0.31661415 -0.21099836 0.44025877 -0.24056412 0.82658696 -0.49242672 -0.46693707 0.2533569 -0.5861725 0.31922022 0.28686532 -0.29426846 0.47411218 -0.32759386 0.6726785 0.27412653 0.12141924 0.23396893 -0.74740344 0.06305789 0.119086914 -0.51514804 -0.33990842 -0.04309513 -0.64178145 -0.16061006 -0.17443885 -0.14154343 0.009941081 0.7057709 0.030866401 0.03099396 -0.3094752 0.24548525 0.19373949 -0.16756028 0.15784012 -0.22528687 -0.4493053 0.8279129 0.09719875 -0.05868825 -0.52916497 -0.016521556 0.19737568 0.7502576 -0.045435287 0.47450593 0.2506324 -0.7017362 0.23032662 1.1429336 0.32325682 -0.24877644 -0.27360085 -0.7512478 -0.007920966 0.22544472 -0.25308168 0.50655687 0.3721466 0.9863015 -0.19695747 -0.19472009 0.023858674 -0.9895112 -0.35047308 -1.2149574 -0.570415 0.38720587 -0.080704086 -0.19583684 -0.5954036 -0.1161198 0.5534844 -0.24629709 -0.2690147 0.077722885 0.74685115 0.10414828 0.12165131 0.2316491 -0.15313792 -0.29064304 0.15633951 0.33239394 -0.32536224 0.24601914 -0.15981814 -0.19894585 0.5710401 -0.1684371 0.0059536216 0.10239118 -0.26373568 -0.5661868 -0.39654505 -0.09042961 0.16948068 0.5571217 0.2530831 -0.55523694 0.06966424 -0.15403561 0.02605217 -0.40173092 0.034198154 0.37711936 -0.26214528 0.24287528 0.10535702 0.4711895 -0.034342714 0.29130822 0.47346556 0.25027516 -0.34138703 -0.1829957 0.1392896 -0.36422795 0.30066124 0.22285166 -0.22207391
