323 128
purge -0.009293354 -0.21230702 0.0362957 0.1986364 0.32135552 -0.14534335 0.41042572 -0.004388357 -0.052333307 0.47183633 -0.047126006 -0.10543948 -0.15432617 -0.2554671 0.38010895 0.47390306 -0.36980763 -0.32641196 -0.21032779 0.23458849 0.037437506 0.19349597 -0.22712453 -0.6900497 -0.37368584 0.38819805 -0.19805194 0.04043832 0.1134397 -0.17311196 0.025976399 0.013820152 0.0766779 0.29779077 -0.21613462 0.34977633 0.16879337 -0.25743422 -0.08515951 0.032086816 -0.08485867 0.1979136 -0.13188426 -0.062241767 0.1820791 0.14467946 -0.44660208 -0.09528998 -0.075918466 -0.076772764 0.24955733 0.10768697 0.12422059 -0.05391296 -0.1116369 -0.190281 0.36350486 -0.29679215 -0.3067463 0.20088239 -0.25895932 0.12678207 0.28915113 0.11236345 0.26588196 -0.032562986 -0.052580286 0.17756352 -0.14127403 -0.28679875 0.009454565 -0.17129569 -0.48204505 -0.013519946 0.05312726 -0.15717986 -0.19285227 -0.19713485 -0.28773108 0.008159507 -0.30699992 -0.37464994 0.09406274 0.56973755 -0.09690674 0.31949484 0.31563586 -0.15201113 0.21361463 -0.06265853 -0.2450826 -0.09760875 0.30252817 -0.091184095 0.2907474 0.32014334 -0.22635743 -0.4500053 -0.2989722 -0.2568929 -0.2811409 -0.010435257 -0.10105353 0.13041955 0.089593634 0.13165598 -0.015312163 0.28892216 0.3510496 -0.19587713 0.35709742 -0.20111084 -0.046550184 0.048557453 -0.27403313 0.02665844 0.010941615 0.07786408 0.14454311 -0.08170225 -0.24402732 -0.32827207 -0.08342305 0.20174779 -0.5153818 -0.35995856 0.010244973 0.042941943
feel -0.008934917 -0.23028468 0.028787713 0.21081157 0.33858854 -0.15745063 0.43384197 -0.013606707 -0.05070389 0.5000726 -0.052254234 -0.10139305 -0.16718844 -0.26545966 0.4046137 0.51274014 -0.3963705 -0.33271036 -0.22879326 0.2482757 0.025456274 0.2051063 -0.24491772 -0.72237843 -0.4023618 0.4134209 -0.20152551 0.03813485 0.11978432 -0.18507154 0.036536414 0.022637226 0.08479585 0.32539508 -0.23259589 0.384658 0.1755345 -0.25838843 -0.08369784 0.031362142 -0.07961769 0.21037509 -0.14141321 -0.0694218 0.18842037 0.15125138 -0.46388078 -0.10378974 -0.07662761 -0.098685235 0.2547228 0.10830754 0.14577396 -0.050956547 -0.10159786 -0.19369222 0.385066 -0.30475408 -0.31928495 0.21159507 -0.2646231 0.14871618 0.3042669 0.12080506 0.2811694 -0.022776362 -0.043012355 0.17429326 -0.14100559 -0.3009912 0.008298785 -0.17011265 -0.50075275 -0.009835702 0.05666101 -0.15912995 -0.2017286 -0.20273368 -0.29611105 0.02694989 -0.32420778 -0.3958998 0.09146979 0.6000517 -0.10366924 0.3222121 0.33231464 -0.16576171 0.23021938 -0.05590019 -0.24888718 -0.09903691 0.32742634 -0.08562001 0.29498214 0.3317447 -0.25938886 -0.46226797 -0.31388956 -0.25679368 -0.30175924 -0.021462282 -0.09928247 0.14160329 0.08740173 0.14553097 -0.013184674 0.31257594 0.3607644 -0.19794926 0.36217606 -0.21627378 -0.042357318 0.050204888 -0.28657398 0.017592886 0.01182527 0.07915607 0.15027218 -0.07727666 -0.25793394 -0.34605965 -0.09027694 0.2045817 -0.54271424 -0.38965347 0.024141515 0.052415494
like -0.014780266 -0.22832434 0.032786705 0.2127059 0.34504974 -0.15002292 0.43946028 -0.0008952713 -0.050103344 0.5011233 -0.052013244 -0.109543376 -0.17282367 -0.27663687 0.42342854 0.5170599 -0.40158153 -0.33999893 -0.21731116 0.24345328 0.034387134 0.21093006 -0.2426012 -0.7313956 -0.41240555 0.42174128 -0.21157466 0.033465736 0.12542532 -0.18784766 0.037481632 0.017412856 0.07584968 0.32498023 -0.23698515 0.37610298 0.19059394 -0.2613722 -0.08996078 0.034203414 -0.09168549 0.21310623 -0.13649252 -0.06275804 0.18746191 0.14728376 -0.46120474 -0.114335865 -0.076860905 -0.09324053 0.25548747 0.11051855 0.14905019 -0.056687854 -0.10853807 -0.2010592 0.39218938 -0.3132471 -0.33049306 0.21800585 -0.27327648 0.14498997 0.31271064 0.12533808 0.2855082 -0.023170164 -0.046106 0.17472854 -0.13594933 -0.31939453 0.005295164 -0.17538528 -0.5182779 -0.017536426 0.042143952 -0.17229548 -0.20756921 -0.19533992 -0.30729336 0.012080487 -0.31448206 -0.39299136 0.10198422 0.6149502 -0.11540665 0.33364308 0.3375844 -0.17180948 0.23497258 -0.06818941 -0.24679343 -0.0988947 0.31552565 -0.08563894 0.30667454 0.33043686 -0.2573301 -0.48311082 -0.32068986 -0.26584032 -0.3004594 -0.010134455 -0.116656244 0.1380897 0.09513744 0.1528557 -0.019170137 0.3210031 0.37622952 -0.21036528 0.38618675 -0.22777636 -0.04832304 0.052420102 -0.2805148 0.020372069 0.014636972 0.07586496 0.15862687 -0.079759955 -0.2752225 -0.34867442 -0.095407054 0.20505571 -0.55078226 -0.38608214 0.010199177 0.0634721
disorder 0.0021679867 -0.20805535 0.029909274 0.18584442 0.29958594 -0.1430733 0.3876425 -0.011087242 -0.04749383 0.43029478 -0.041554615 -0.083716735 -0.14574331 -0.23151237 0.36676884 0.4545231 -0.35109335 -0.28969935 -0.2043343 0.21108535 0.036604017 0.19350722 -0.22520259 -0.64367193 -0.34703904 0.3541548 -0.18622983 0.04058161 0.11293115 -0.15137705 0.025742348 0.02493857 0.07892144 0.28918666 -0.19434081 0.32909405 0.16171157 -0.2305635 -0.06682949 0.03988064 -0.065289475 0.19148089 -0.116045885 -0.05170103 0.166043 0.1206159 -0.40841866 -0.08744442 -0.07029308 -0.07892431 0.23194182 0.08625431 0.12840442 -0.05281724 -0.09181245 -0.16719925 0.34479535 -0.26598766 -0.29814228 0.19617376 -0.24775657 0.1315035 0.2685746 0.10670656 0.24476004 -0.016545104 -0.043604318 0.16255389 -0.13552947 -0.27617216 0.0045426325 -0.1630701 -0.4508838 -0.019726874 0.052942228 -0.14599448 -0.18089573 -0.17263372 -0.27555746 0.007101091 -0.276872 -0.35337284 0.083228536 0.53756493 -0.09188897 0.3016656 0.29514763 -0.15307194 0.19708815 -0.040582284 -0.22105308 -0.09602445 0.2806348 -0.085207425 0.26907673 0.28586283 -0.2146561 -0.4156334 -0.26999453 -0.23289153 -0.26264316 -0.015678305 -0.10325437 0.12718515 0.079561025 0.13030143 -0.019677274 0.2728328 0.323452 -0.18284577 0.33036035 -0.1921721 -0.045321375 0.041681983 -0.25840148 0.014334233 0.007974023 0.07313524 0.13216756 -0.07772507 -0.23873691 -0.29894406 -0.09147014 0.18704532 -0.46969825 -0.3289542 0.008281036 0.050832134
eat 0.003034491 -0.20428626 0.032843363 0.1791173 0.3098225 -0.13684729 0.39764753 -0.0002415275 -0.038767185 0.43510562 -0.043598685 -0.09324677 -0.1490791 -0.23849304 0.37583145 0.4601346 -0.33935216 -0.30995512 -0.20683688 0.22078204 0.033953175 0.18647058 -0.22558187 -0.64711946 -0.36698148 0.3755577 -0.18368728 0.027068581 0.11105084 -0.1565672 0.019074846 0.010808619 0.071878366 0.2923004 -0.21389295 0.34037447 0.15740481 -0.23444155 -0.06990821 0.026381657 -0.07628645 0.1924779 -0.13168827 -0.0534621 0.17211206 0.12320242 -0.41399089 -0.092610724 -0.07257946 -0.08524704 0.22436348 0.090042494 0.13186836 -0.049889036 -0.09495279 -0.1868969 0.34973618 -0.26642704 -0.29230672 0.1788559 -0.24163568 0.12489062 0.26169246 0.11036627 0.26020935 -0.034370907 -0.055621836 0.16449817 -0.13588658 -0.2826571 0.007665606 -0.16026016 -0.45328277 -0.018153923 0.049364462 -0.14287063 -0.18647526 -0.18323949 -0.28097826 0.012176981 -0.29143083 -0.36124045 0.08977267 0.54530245 -0.095069155 0.29158083 0.29049203 -0.15316036 0.21218203 -0.05199829 -0.23065579 -0.098192915 0.2778136 -0.07799855 0.26588172 0.2921019 -0.21838427 -0.41161227 -0.27423087 -0.24706875 -0.25649777 -0.023504168 -0.10456288 0.1198632 0.07613102 0.12984003 -0.02212314 0.28063822 0.33588538 -0.17721793 0.33200282 -0.18562083 -0.03826109 0.049186934 -0.26137283 0.028397353 -0.0023089885 0.06750284 0.14837456 -0.07171876 -0.23595461 -0.31094566 -0.08050786 0.19136053 -0.48896682 -0.34490374 0.018578557 0.04926608
purging -0.005553439 -0.19930506 0.025242528 0.17135948 0.30006358 -0.1390937 0.38664135 -0.006618692 -0.0494253 0.4393962 -0.02984215 -0.0833965 -0.15239504 -0.22790499 0.35706624 0.44435602 -0.33728546 -0.2903072 -0.20017801 0.21908212 0.03847568 0.18667465 -0.21631308 -0.6245764 -0.34842756 0.34826663 -0.18646811 0.03342245 0.10621959 -0.15935692 0.021113414 0.013221425 0.078797065 0.27783632 -0.2037827 0.3351992 0.1675784 -0.22773841 -0.06298974 0.034526292 -0.066441156 0.18666518 -0.11269966 -0.062455148 0.1580481 0.13304758 -0.40339884 -0.09444967 -0.060386404 -0.08083566 0.22529633 0.09687471 0.12242766 -0.05856681 -0.08676424 -0.16538946 0.34230718 -0.26759237 -0.277499 0.17967637 -0.22754428 0.1180419 0.25658095 0.11172213 0.25300717 -0.027587317 -0.032471046 0.16083719 -0.13445355 -0.26586908 0.009700529 -0.14996186 -0.43752792 -0.011023809 0.048870053 -0.1482481 -0.18077883 -0.17669678 -0.2647531 0.025209963 -0.26514015 -0.34863397 0.073938616 0.5306129 -0.08422594 0.29601458 0.2923014 -0.15112655 0.20295724 -0.045932937 -0.21366133 -0.09473362 0.27375266 -0.08285698 0.26744518 0.28697285 -0.22403032 -0.41469595 -0.26960084 -0.23315524 -0.25317863 -0.005235274 -0.089519076 0.12186177 0.07584378 0.1264075 -0.012921884 0.2662097 0.31844646 -0.18245168 0.32340977 -0.18148756 -0.039809994 0.037376408 -0.24173304 0.01738627 0.007744062 0.07811577 0.13570625 -0.07303663 -0.23371162 -0.28888264 -0.08803063 0.17982896 -0.47337425 -0.3258108 0.01894831 0.04957219
talk -0.012067856 -0.1631443 0.02524188 0.15151896 0.23255897 -0.1053201 0.31071058 0.0033492642 -0.024311598 0.34665596 -0.045067932 -0.078209594 -0.12343055 -0.18948832 0.27929118 0.35400727 -0.28019208 -0.24537213 -0.15269639 0.18156764 0.016081268 0.1363846 -0.16899142 -0.50996983 -0.2777828 0.28317025 -0.15402906 0.027257336 0.09591845 -0.12663946 0.0279648 0.0046818447 0.06086022 0.2322196 -0.16380541 0.26490948 0.12032414 -0.18570474 -0.05323064 0.026617577 -0.055256348 0.15421137 -0.08990677 -0.04241691 0.12394964 0.09561097 -0.3251878 -0.07268403 -0.043315563 -0.06392893 0.1926359 0.068365656 0.10888028 -0.04375326 -0.06644113 -0.14553465 0.27816346 -0.21807463 -0.2391717 0.15547928 -0.19290227 0.10217658 0.20528519 0.08992324 0.19840674 -0.025273336 -0.040612567 0.13400072 -0.10483598 -0.22469799 -0.0018711305 -0.12829645 -0.3530431 -0.0042085107 0.031133717 -0.10836151 -0.13110578 -0.14337182 -0.22374006 0.007486994 -0.22475481 -0.28702945 0.066861354 0.4245352 -0.086281665 0.23413642 0.23917846 -0.12612367 0.15965332 -0.03550574 -0.17753354 -0.07721844 0.22180468 -0.066961296 0.20986399 0.22851166 -0.17266667 -0.32676178 -0.20748961 -0.18864897 -0.21490932 -0.008038778 -0.06535873 0.09016429 0.0603326 0.11048303 -0.024242885 0.2278118 0.2629479 -0.14455266 0.26829848 -0.14941716 -0.03197683 0.041062396 -0.1988603 0.022008196 0.001301235 0.05936438 0.11981326 -0.056304 -0.18871097 -0.25264606 -0.05752123 0.1468995 -0.38679925 -0.26542807 0.0059457063 0.038107637
make -0.0087603405 -0.19033179 0.03211737 0.17207283 0.30435202 -0.13378817 0.38214222 -0.003831528 -0.048237756 0.44418734 -0.040659603 -0.09420549 -0.15230344 -0.23873621 0.3577509 0.4420455 -0.33807275 -0.28932717 -0.1980868 0.21411766 0.026195388 0.1832514 -0.21637693 -0.63286155 -0.35774896 0.3604375 -0.18023674 0.037946638 0.09853701 -0.14941391 0.021922927 0.016388016 0.06781951 0.2788247 -0.20668522 0.32466328 0.16149248 -0.23347604 -0.07375927 0.021370854 -0.063145995 0.18765597 -0.12647724 -0.053314757 0.15894212 0.1269962 -0.40058362 -0.100551285 -0.07349041 -0.08624773 0.23208542 0.10123005 0.124256074 -0.047147967 -0.091863066 -0.17989229 0.35068154 -0.2576404 -0.28428984 0.19177975 -0.2422551 0.12441373 0.27470317 0.1017049 0.24801788 -0.027539998 -0.044232503 0.15266824 -0.13003945 -0.2662926 0.0059396457 -0.15300584 -0.44896442 -0.0013782363 0.03798455 -0.1545373 -0.17766666 -0.18496561 -0.27575365 0.017850075 -0.27784672 -0.34653968 0.0881945 0.52605337 -0.089574434 0.29304108 0.2974481 -0.14442983 0.19754517 -0.04886326 -0.22542022 -0.09719973 0.2741579 -0.07717586 0.25945064 0.2829924 -0.21935326 -0.41070032 -0.28029516 -0.23280375 -0.2564221 -0.0117753325 -0.09759446 0.1377024 0.08663054 0.12527193 -0.018110326 0.2649084 0.3158663 -0.17832637 0.32761282 -0.19134514 -0.047322966 0.052651938 -0.25242254 0.028410744 0.013835717 0.06354739 0.13593714 -0.059141975 -0.23772582 -0.30448458 -0.07436427 0.17849112 -0.46549147 -0.3450802 0.016100163 0.051906746
go -0.016611358 -0.22141925 0.029405717 0.18394622 0.30588543 -0.12979732 0.4039979 -0.019459786 -0.055521782 0.44818148 -0.052780095 -0.090555616 -0.15769859 -0.23754056 0.37768295 0.45986655 -0.3521026 -0.31572694 -0.21179584 0.22481441 0.027458793 0.19235095 -0.21814193 -0.66250557 -0.3720835 0.385417 -0.18592408 0.03508302 0.11012633 -0.15734959 0.029489044 0.017732268 0.070036605 0.28418496 -0.20837769 0.3434773 0.15915312 -0.23842923 -0.08196435 0.02499511 -0.077920966 0.19110386 -0.12282001 -0.058699485 0.18428709 0.143097 -0.42088845 -0.09181268 -0.066496894 -0.07804175 0.24420051 0.09426386 0.12878835 -0.05333065 -0.09096835 -0.18697532 0.3691113 -0.26942497 -0.3027942 0.19314064 -0.25162968 0.1363284 0.2678296 0.108107954 0.27316266 -0.03132758 -0.059703253 0.16379073 -0.13607417 -0.27574575 0.012660439 -0.16279575 -0.45654455 -0.011647844 0.04466373 -0.1447944 -0.19603871 -0.17940617 -0.28576976 0.022461541 -0.2983078 -0.3548864 0.08342349 0.55940706 -0.08903214 0.3131778 0.3011688 -0.15169792 0.20765929 -0.05588336 -0.22841784 -0.09383254 0.3018113 -0.07240504 0.27557868 0.30709705 -0.23037559 -0.42391825 -0.28312257 -0.2565083 -0.2736438 -0.013850539 -0.10732443 0.14458045 0.073896535 0.13155921 -0.029668117 0.29064918 0.3353297 -0.18320322 0.3417872 -0.20843993 -0.04951892 0.05782721 -0.26405287 0.028067598 0.013670861 0.07738381 0.1473393 -0.06787898 -0.24411014 -0.3010413 -0.09479738 0.1766884 -0.4922038 -0.34747532 0.02221245 0.04874747
know -0.010929647 -0.22608721 0.036675707 0.19154155 0.31832185 -0.14224826 0.40951738 -0.013820606 -0.0460712 0.4512036 -0.04385269 -0.10066042 -0.16785423 -0.24950701 0.38457918 0.4803654 -0.37110573 -0.32162067 -0.19552752 0.22174278 0.029214768 0.20660938 -0.22909525 -0.6778734 -0.37405902 0.38686767 -0.18560518 0.05116475 0.117506616 -0.17348073 0.038023517 0.012574136 0.081214584 0.30376709 -0.2065235 0.355531 0.17237654 -0.24256259 -0.08147826 0.036733225 -0.07342987 0.19985786 -0.13331348 -0.0730709 0.18820892 0.1420311 -0.43939653 -0.1073974 -0.07216574 -0.08275203 0.23605749 0.10054548 0.13536231 -0.066719785 -0.10286382 -0.1885789 0.3713128 -0.2866972 -0.31547633 0.18730606 -0.26191825 0.12942716 0.28793332 0.116198525 0.2798006 -0.017804636 -0.054695092 0.16166748 -0.12285584 -0.28262728 0.010572862 -0.16880882 -0.48378843 -0.014111807 0.036947023 -0.14492372 -0.19144109 -0.17756724 -0.29013708 0.026048498 -0.30295503 -0.35997942 0.08522804 0.55936503 -0.08854097 0.3009965 0.30564436 -0.15982659 0.2038501 -0.047520306 -0.22930406 -0.11233069 0.3054949 -0.08219942 0.28957704 0.30786213 -0.24364161 -0.44192094 -0.28176445 -0.26040533 -0.26391238 -0.022535004 -0.10784255 0.1344571 0.084867805 0.124426655 -0.022070471 0.2877524 0.35078093 -0.19476648 0.3451495 -0.20505917 -0.033282667 0.05703797 -0.2637799 0.026530536 0.0026695225 0.06552032 0.14666659 -0.06878853 -0.2574675 -0.32778773 -0.093515456 0.1909196 -0.5061015 -0.34837568 0.016820459 0.054557845
struggle 0.0013296524 -0.11695525 0.02761973 0.11454879 0.19739775 -0.09265773 0.24573666 -0.00041091102 -0.032407872 0.27138278 -0.017417435 -0.05162587 -0.105387494 -0.14790937 0.22473484 0.28142253 -0.20471282 -0.19085827 -0.11713875 0.12478569 0.024268772 0.12445382 -0.1403828 -0.40480044 -0.21773067 0.21463858 -0.12026205 0.021498019 0.06148223 -0.084524386 0.022399241 0.014371297 0.052086417 0.1836054 -0.1265922 0.2158673 0.10881605 -0.13599405 -0.04007641 0.025402335 -0.053394385 0.1272083 -0.069384664 -0.024924142 0.09573672 0.079287335 -0.25467104 -0.052976955 -0.048052702 -0.05014185 0.14458503 0.06481072 0.06883491 -0.033532955 -0.05314672 -0.11152767 0.21870561 -0.17660019 -0.17652322 0.120615594 -0.14527111 0.07060137 0.16174659 0.06811538 0.16248542 -0.018546244 -0.022318792 0.10126141 -0.08706152 -0.16212967 -0.0071353223 -0.101099186 -0.2742785 -0.0087653035 0.02602179 -0.0941465 -0.115171924 -0.11596972 -0.17897816 0.014489365 -0.18058513 -0.21753056 0.05169679 0.33432385 -0.05748818 0.18117565 0.18812224 -0.09932397 0.12578453 -0.03122035 -0.1471455 -0.066644795 0.1779352 -0.05186058 0.17135587 0.17074805 -0.13430263 -0.25794157 -0.17427075 -0.15386356 -0.1654176 -0.011372601 -0.06478834 0.077263735 0.044070654 0.0664048 -0.0074203056 0.17016833 0.2066976 -0.10716103 0.2150333 -0.12343507 -0.030819299 0.031121181 -0.1642528 0.01927217 0.0134820575 0.046468213 0.093353175 -0.036708947 -0.14006424 -0.18327773 -0.0428189 0.116979554 -0.30756256 -0.21340926 0.0057035456 0.029886106
people 0.004326584 -0.16327259 0.01732675 0.14433302 0.24106094 -0.11789063 0.31973135 0.0040753814 -0.022331677 0.3426557 -0.037534174 -0.08339206 -0.11450906 -0.18905038 0.2950663 0.37528116 -0.28332978 -0.24744855 -0.15890811 0.17152388 0.015528831 0.14442632 -0.18278898 -0.51065344 -0.2787792 0.28543904 -0.15490235 0.018987337 0.0912957 -0.1254553 0.022607198 0.0039196103 0.05563566 0.23077217 -0.17181167 0.27238616 0.12248289 -0.19376267 -0.06459731 0.020544866 -0.05953104 0.16162117 -0.10610926 -0.04693615 0.13458478 0.11009849 -0.32382745 -0.07740963 -0.04467404 -0.05997514 0.18179114 0.08019189 0.10948468 -0.05189692 -0.079889745 -0.14752476 0.27159 -0.22175996 -0.24003214 0.15687114 -0.1998575 0.10759405 0.20075712 0.08612196 0.20116611 -0.018252315 -0.029238382 0.13031471 -0.10975258 -0.227339 0.0028069355 -0.12301851 -0.36473367 -0.012100112 0.043576177 -0.11238832 -0.13981707 -0.14769728 -0.2272877 0.002314817 -0.23594086 -0.2799627 0.07053686 0.4332502 -0.08453777 0.23576508 0.23723665 -0.114588 0.16759914 -0.0447492 -0.18320453 -0.08752835 0.23167892 -0.060851987 0.22246213 0.24096486 -0.17431632 -0.33694032 -0.21590488 -0.19717506 -0.20532049 -0.011237256 -0.08029266 0.098392524 0.06510474 0.1176143 -0.023032477 0.22309722 0.2598805 -0.15031125 0.2673448 -0.14588472 -0.036339357 0.045266796 -0.19569063 0.017497491 -0.009243221 0.050424438 0.11223737 -0.052018214 -0.1845481 -0.25063282 -0.07063366 0.14913832 -0.37363148 -0.2792392 0.010844343 0.045324642
day -0.00010853074 -0.16685353 0.016974244 0.15169726 0.2500036 -0.10385304 0.3260388 -0.007882146 -0.033660397 0.3700058 -0.041574635 -0.08282023 -0.13013747 -0.20277198 0.29969135 0.37914196 -0.29146388 -0.25640774 -0.16907562 0.1830618 0.031538505 0.15545146 -0.17985111 -0.5412124 -0.305746 0.31777996 -0.14679717 0.021118233 0.08043438 -0.13894175 0.018003073 0.021047244 0.05914271 0.24073368 -0.16713051 0.28788668 0.13189435 -0.20300156 -0.057414223 0.019073002 -0.058589973 0.1509594 -0.114675894 -0.046136133 0.13382106 0.109620124 -0.35028028 -0.079067394 -0.049279906 -0.07148634 0.19668074 0.07597718 0.09770637 -0.04991192 -0.0839504 -0.14167348 0.28110626 -0.22789834 -0.23998399 0.15133421 -0.19371124 0.095650926 0.22993296 0.091306284 0.21720399 -0.034025148 -0.051676854 0.13796656 -0.09522167 -0.23031005 0.0012937384 -0.13832666 -0.3744589 -0.017095448 0.046328295 -0.11715651 -0.15154785 -0.14432736 -0.22721136 0.0037193194 -0.2354056 -0.29617086 0.06875139 0.4428553 -0.07743009 0.24369115 0.23725934 -0.12724885 0.16429038 -0.053109627 -0.19237155 -0.07265793 0.2315751 -0.06004557 0.2244704 0.23543262 -0.19480477 -0.34163487 -0.23309109 -0.20160978 -0.21781027 -0.009832881 -0.092769735 0.11394282 0.07290329 0.11141896 -0.008602304 0.234999 0.2700758 -0.15042503 0.27153307 -0.16708782 -0.02946 0.047219567 -0.20936103 0.027381182 0.006536074 0.05132817 0.11403371 -0.059787273 -0.20151538 -0.24711806 -0.06183463 0.14942561 -0.40518573 -0.28253514 0.012281266 0.030675694
even 0.0036767363 -0.19182312 0.03578885 0.18218943 0.29021433 -0.128858 0.3666918 -0.00970681 -0.050526466 0.42250162 -0.04043219 -0.08017764 -0.15263209 -0.23620819 0.34661138 0.4292499 -0.33797944 -0.2834707 -0.19541435 0.20510456 0.02873357 0.16976762 -0.20241256 -0.61882144 -0.3498719 0.35017613 -0.1796279 0.037123747 0.110086545 -0.15210898 0.021601485 0.023587847 0.06628269 0.27433527 -0.20092197 0.32779208 0.15283221 -0.2248838 -0.061008845 0.03373571 -0.07651857 0.18448442 -0.11956615 -0.06019812 0.16701508 0.13212132 -0.39533377 -0.08399457 -0.068189375 -0.07037602 0.2226466 0.09019843 0.11932212 -0.04698849 -0.0959355 -0.17173022 0.32804638 -0.26092088 -0.28158677 0.17882724 -0.23122765 0.1157534 0.251494 0.1024714 0.25180227 -0.024273736 -0.039091885 0.15612438 -0.11949019 -0.267362 -0.0029642773 -0.14458054 -0.42956164 -0.0074461177 0.037915982 -0.14105573 -0.17725994 -0.16627508 -0.2606883 0.011452259 -0.27928767 -0.33374882 0.088123165 0.5084783 -0.08145503 0.28071022 0.2813037 -0.14461382 0.19906682 -0.046822418 -0.21668392 -0.08544062 0.26968908 -0.077910796 0.25081888 0.27676573 -0.22305392 -0.396549 -0.26970673 -0.23253886 -0.2561104 -0.020317491 -0.102394976 0.13293867 0.07111256 0.121705346 -0.015429478 0.26992375 0.31555632 -0.17654024 0.3108804 -0.18589158 -0.041766714 0.043577366 -0.23512347 0.027073365 0.015003109 0.06428706 0.13409726 -0.07240588 -0.22726087 -0.29579663 -0.08393778 0.18075389 -0.4597448 -0.31854773 0.00630556 0.043081284
bc -0.0113697965 -0.176001 0.02197698 0.16932786 0.28407595 -0.13230634 0.35337067 -0.015060239 -0.038327564 0.4023962 -0.03506442 -0.0869149 -0.1470473 -0.21404508 0.3379105 0.4178163 -0.3119657 -0.26998392 -0.17649719 0.18625326 0.01648897 0.162607 -0.19399166 -0.57404584 -0.3195402 0.3338501 -0.1717764 0.041707918 0.09927767 -0.13872667 0.021874543 0.024381919 0.06671544 0.24878117 -0.19319205 0.29508215 0.14699191 -0.21257924 -0.061277203 0.02437674 -0.060684625 0.17741035 -0.10620066 -0.05235474 0.15086928 0.12794502 -0.369628 -0.08428176 -0.052162476 -0.069741316 0.20905872 0.08314388 0.10805184 -0.052881494 -0.09731298 -0.16032842 0.3229425 -0.2432813 -0.26528728 0.16801365 -0.21753499 0.11459695 0.24278204 0.091369934 0.23861322 -0.032001298 -0.04482991 0.14688015 -0.11260586 -0.24812742 0.005738295 -0.14379464 -0.420384 -0.013632537 0.035978213 -0.13134156 -0.16326176 -0.15719442 -0.24524839 0.0112343 -0.25509906 -0.31360927 0.08384288 0.48997927 -0.092017695 0.2670512 0.27428162 -0.14115074 0.17823529 -0.055121623 -0.20864606 -0.09695055 0.26139888 -0.075846784 0.24093132 0.26607534 -0.2090169 -0.37712452 -0.24680646 -0.21810064 -0.23559543 -0.01982453 -0.08999326 0.11168987 0.06522436 0.123334676 -0.010219344 0.25597322 0.3043623 -0.15978168 0.29986274 -0.18360728 -0.03612157 0.047853615 -0.21942717 0.016689911 0.017628025 0.0666475 0.1325749 -0.05215749 -0.21308136 -0.26991358 -0.07320627 0.15707122 -0.43812373 -0.30169293 0.023077289 0.04697559
restrict 0.003977372 -0.11691102 0.010374547 0.11462196 0.18194823 -0.07736337 0.24121459 -0.0060811006 -0.016680563 0.2557907 -0.030051524 -0.06494547 -0.080445774 -0.14931956 0.21899793 0.2841005 -0.20196535 -0.17405526 -0.11473544 0.13783756 0.014428016 0.10733475 -0.14110516 -0.38985628 -0.20511025 0.22049801 -0.1214973 0.009497622 0.061294418 -0.098665796 0.023232445 0.014584249 0.04389262 0.16986953 -0.11723468 0.20083708 0.091594175 -0.14582759 -0.04247741 0.021177463 -0.03924144 0.11411156 -0.06905549 -0.034350064 0.10230117 0.06911083 -0.24996634 -0.05613368 -0.03519197 -0.05251148 0.14796592 0.055264845 0.07472357 -0.037206985 -0.06517277 -0.11445262 0.19944435 -0.15613346 -0.17436568 0.10687405 -0.13849168 0.068694316 0.1624812 0.0735212 0.16172428 -0.025239104 -0.034779992 0.104553774 -0.08076645 -0.16859946 -0.004085718 -0.096462786 -0.27632225 -0.013280782 0.028148372 -0.09072691 -0.1012511 -0.10641775 -0.16738677 0.0083154095 -0.16580541 -0.20765215 0.045268428 0.33111334 -0.06477182 0.1745743 0.17001827 -0.09674406 0.12862684 -0.031779386 -0.14032675 -0.060312346 0.17377733 -0.052978013 0.16103245 0.18518229 -0.1393686 -0.24792524 -0.17631426 -0.13676395 -0.15099777 -0.010722292 -0.055327892 0.07158987 0.04231592 0.086236365 -0.008861548 0.17179824 0.20042057 -0.1107887 0.19760898 -0.108323894 -0.026216831 0.035580743 -0.15871401 0.016731914 0.0016850624 0.041792277 0.08997687 -0.03986372 -0.14990139 -0.18961601 -0.04715799 0.11713293 -0.2808565 -0.21214873 0.0014794762 0.02087482
much -0.0051120883 -0.16910213 0.019122789 0.16486394 0.26532426 -0.11204271 0.3410177 -0.00021450043 -0.037934605 0.37906092 -0.033805557 -0.08639042 -0.124810256 -0.21394296 0.32366955 0.38306075 -0.2975407 -0.26616395 -0.1805721 0.17819083 0.018384062 0.16246223 -0.19375515 -0.5546532 -0.31622115 0.31570658 -0.1490227 0.03822161 0.102184035 -0.1262735 0.015026197 0.02533788 0.050772436 0.24031584 -0.18418542 0.29706946 0.14371829 -0.1902921 -0.058016837 0.015911512 -0.057947252 0.15981604 -0.09618716 -0.04785754 0.14287901 0.11061115 -0.3550914 -0.08388335 -0.04868841 -0.07215059 0.20212948 0.07109443 0.108135074 -0.047584277 -0.074711256 -0.16278698 0.30914786 -0.23430468 -0.25580508 0.15004581 -0.20902228 0.10518067 0.22965667 0.08267844 0.22555062 -0.025282577 -0.038703263 0.13990016 -0.11581104 -0.23820482 0.0065068915 -0.12576923 -0.39911824 -0.0016052381 0.04122582 -0.1309269 -0.14693555 -0.15920517 -0.22649923 0.022067254 -0.24349174 -0.30698904 0.06865402 0.4561079 -0.07345759 0.2563673 0.2567154 -0.12141258 0.18070915 -0.04742145 -0.18159364 -0.08048753 0.25022003 -0.064912535 0.22703956 0.25465822 -0.19873552 -0.36382484 -0.24425025 -0.20644388 -0.21682586 -0.015707448 -0.08318776 0.117590636 0.077317625 0.09872648 -0.014052844 0.23209712 0.28435305 -0.1464302 0.28930083 -0.16084822 -0.026260305 0.047311813 -0.20913579 0.029137999 0.0045498717 0.06767428 0.123367645 -0.060646784 -0.19696881 -0.25378448 -0.06341639 0.15865932 -0.40579528 -0.28874344 0.022063762 0.04387388
anyone 0.00038016634 -0.15983707 0.030303061 0.15005411 0.23100659 -0.10743864 0.30604717 -0.015689189 -0.021772534 0.33515596 -0.03798068 -0.07033908 -0.11353687 -0.19320326 0.2883443 0.35817993 -0.28183368 -0.23925515 -0.15977307 0.16467032 0.024560882 0.1561902 -0.16226524 -0.49775365 -0.27930596 0.29819348 -0.13252202 0.03622799 0.09256006 -0.13242759 0.017164132 0.010473867 0.05948047 0.21838254 -0.1672147 0.27105168 0.13474323 -0.18091717 -0.04628052 0.019971862 -0.061686426 0.14809455 -0.09688171 -0.052221093 0.1346942 0.1084801 -0.31246194 -0.08156641 -0.053696275 -0.0661188 0.18585403 0.079587765 0.093582295 -0.036890626 -0.08137195 -0.13751577 0.28018358 -0.20978852 -0.23159917 0.13475457 -0.18858863 0.098591015 0.21256363 0.091789 0.20141044 -0.022470865 -0.02855697 0.12525606 -0.09718996 -0.20635265 0.011765108 -0.11430979 -0.35939848 0.0024406812 0.03836576 -0.10461308 -0.14018679 -0.13394591 -0.2043489 0.011403028 -0.21107629 -0.27022776 0.07270057 0.4152412 -0.07368542 0.23490204 0.21879455 -0.12821364 0.15038328 -0.045067023 -0.17519577 -0.06525832 0.23152596 -0.062225416 0.21004929 0.2268944 -0.17884097 -0.334164 -0.21015319 -0.1921168 -0.20097202 -0.006841691 -0.072294645 0.10609074 0.06675419 0.09275613 -0.010168371 0.21589573 0.2610928 -0.13650632 0.26007822 -0.14810017 -0.03714912 0.045263488 -0.18676265 0.014028168 0.007303888 0.04721087 0.10928258 -0.046848837 -0.17677556 -0.2353994 -0.063088134 0.14193898 -0.3688023 -0.27228317 0.006426515 0.030492356
need -0.0014065389 -0.17211278 0.031646233 0.15217228 0.26326063 -0.12117037 0.3389918 -0.0049575022 -0.037701014 0.384044 -0.0436054 -0.08452218 -0.13276412 -0.20318186 0.32810816 0.3831491 -0.31457907 -0.25876576 -0.17849986 0.18351611 0.032133453 0.16262133 -0.18248233 -0.5559595 -0.32359293 0.32619393 -0.14898446 0.043610524 0.09949071 -0.13706893 0.017847877 0.016260011 0.054697696 0.24817719 -0.18147382 0.2926089 0.13577715 -0.19144282 -0.06113224 0.017762518 -0.07145818 0.17304768 -0.115552545 -0.049162444 0.14738607 0.124300934 -0.34950623 -0.08182764 -0.05473285 -0.06703724 0.19001275 0.08177967 0.11168675 -0.03764527 -0.0770999 -0.14617193 0.29892945 -0.2252943 -0.26219216 0.1542389 -0.20820719 0.117020406 0.2410402 0.09572287 0.24140978 -0.026577061 -0.044397794 0.13169928 -0.10264964 -0.24421401 0.0014368063 -0.1316656 -0.39502797 -0.011230862 0.034490444 -0.12294645 -0.15677269 -0.15088423 -0.23808765 0.022649055 -0.23956779 -0.3036632 0.07564096 0.46459255 -0.0710123 0.25232843 0.25706694 -0.1461146 0.1715837 -0.056259025 -0.19314848 -0.08406537 0.2528793 -0.065504424 0.23205988 0.2562099 -0.20534699 -0.37234384 -0.23805608 -0.21364751 -0.23587324 -0.017781569 -0.08044837 0.1248625 0.059017513 0.10935554 -0.022135846 0.23402914 0.28705457 -0.15878958 0.28190064 -0.17748004 -0.036798134 0.051171165 -0.22619776 0.027113894 0.0086996555 0.059603952 0.1311423 -0.055678733 -0.21311948 -0.25796735 -0.07055815 0.16360955 -0.42185405 -0.30172855 0.01641758 0.0351804
im -0.012257421 -0.18172345 0.015560523 0.17428464 0.293903 -0.13340813 0.38684994 0.0005253939 -0.03797528 0.42540786 -0.028710382 -0.08088779 -0.13727556 -0.22400583 0.33864525 0.41820428 -0.3369393 -0.2865211 -0.17822376 0.19775744 0.027151098 0.16651976 -0.19746488 -0.6092161 -0.3338968 0.3373061 -0.17902027 0.023381103 0.09256679 -0.14389203 0.027013779 0.02711987 0.056339025 0.27435413 -0.1948853 0.30978096 0.1538546 -0.232728 -0.06923611 0.027797319 -0.07047265 0.18174283 -0.13060829 -0.053316195 0.1561337 0.12696172 -0.39432856 -0.08114935 -0.06708459 -0.08852921 0.21691568 0.09079256 0.10801241 -0.04845612 -0.088068336 -0.17725465 0.32319316 -0.24424328 -0.2682653 0.15782829 -0.22763795 0.12859496 0.2598809 0.10083915 0.25543022 -0.015894791 -0.05497239 0.1547993 -0.108819515 -0.25468227 -0.0026163724 -0.14743388 -0.43120039 -0.012947438 0.042985283 -0.13948144 -0.1696814 -0.17725812 -0.24608603 0.025774948 -0.270732 -0.3422263 0.09010651 0.50108033 -0.084843285 0.28175625 0.28414187 -0.15030745 0.18777622 -0.048847776 -0.20620568 -0.0742622 0.27240005 -0.07995688 0.24348663 0.28390342 -0.21984378 -0.394824 -0.2597231 -0.21404526 -0.23944715 -0.02850093 -0.10173522 0.12132698 0.06706668 0.107674696 -0.02107178 0.26196647 0.31716344 -0.17482214 0.32151252 -0.19027947 -0.0441764 0.055237133 -0.23250856 0.017195702 0.027044883 0.059209567 0.12992246 -0.06564886 -0.2234876 -0.29242498 -0.09046321 0.16292904 -0.46737278 -0.32095695 0.014423863 0.054768827
start -0.013130939 -0.18194282 0.020286622 0.15601033 0.26499957 -0.11087433 0.3430042 -0.012799501 -0.03671673 0.3746315 -0.028312424 -0.07778066 -0.12512353 -0.19677912 0.30453685 0.3845305 -0.2927192 -0.2561162 -0.16577737 0.17937481 0.030343689 0.15097754 -0.17815877 -0.5444407 -0.31435388 0.31154004 -0.1682725 0.035030905 0.08723386 -0.14151701 0.018456446 0.009020777 0.05465581 0.234096 -0.16747381 0.29484218 0.14461339 -0.19993357 -0.057116188 0.034755226 -0.06780382 0.15061213 -0.10628292 -0.046868317 0.14757979 0.113057174 -0.36325508 -0.07539412 -0.05942308 -0.07745009 0.19319972 0.09162698 0.10835032 -0.052818216 -0.07384839 -0.1598086 0.30435503 -0.22771212 -0.24687345 0.16345482 -0.20744093 0.104484916 0.23786953 0.087968156 0.21967365 -0.033010963 -0.04873093 0.14219123 -0.107417904 -0.24401432 0.013977498 -0.13593385 -0.37762505 -0.007757381 0.03995278 -0.129012 -0.14813767 -0.1571179 -0.22989564 0.012864207 -0.24193929 -0.30602267 0.061297216 0.45497602 -0.08850384 0.25383422 0.24925083 -0.11827583 0.16973469 -0.050463524 -0.1981033 -0.076474905 0.24152948 -0.07166426 0.2269052 0.24488741 -0.19047745 -0.35444158 -0.24121334 -0.2011689 -0.22017613 -0.005453365 -0.07699459 0.12013135 0.0584548 0.113023095 -0.024804639 0.2374792 0.27787402 -0.14206013 0.29100418 -0.177905 -0.039245456 0.038846053 -0.21131144 0.018034788 0.008069009 0.050475515 0.12699261 -0.0627816 -0.2016298 -0.26121125 -0.06560364 0.15148626 -0.4058364 -0.29060826 0.022772297 0.04534439
binge 0.0060793837 -0.1434779 0.028122796 0.12353326 0.22031285 -0.09741656 0.27582866 0.0037260521 -0.037517615 0.32269216 -0.026328295 -0.068597674 -0.112483755 -0.17886083 0.25777867 0.3264762 -0.23827906 -0.20436592 -0.1527937 0.16217299 0.014038262 0.13668466 -0.15126523 -0.45770267 -0.26118875 0.2482865 -0.13126354 0.02430887 0.06931557 -0.1050538 0.020355083 0.015490416 0.055796243 0.20511921 -0.15426381 0.24629363 0.121300094 -0.16998503 -0.052109208 0.022519307 -0.054334603 0.1359506 -0.09246458 -0.040633515 0.12230013 0.09067162 -0.29108295 -0.06421028 -0.051762473 -0.06317902 0.16955864 0.05665097 0.08147718 -0.04324417 -0.075382926 -0.12516019 0.25313893 -0.19308735 -0.1990743 0.1353211 -0.17861918 0.08903173 0.18911321 0.08077173 0.18923049 -0.011943804 -0.035487607 0.1047956 -0.08778286 -0.1934058 0.0042796093 -0.11119442 -0.31316364 -0.018717334 0.04644781 -0.11468133 -0.12925257 -0.12181272 -0.20565721 0.013441685 -0.20627174 -0.25794965 0.0633511 0.3827645 -0.06814954 0.22025394 0.2026046 -0.10546971 0.15196157 -0.033518046 -0.16538256 -0.06598889 0.19627403 -0.055997528 0.19425623 0.21288803 -0.15072893 -0.30009595 -0.18722697 -0.17726374 -0.17661503 -0.017206116 -0.076062955 0.089735895 0.049359113 0.08504417 -0.014425411 0.19821171 0.22248302 -0.13408287 0.23063977 -0.13602388 -0.023395812 0.03395165 -0.17193824 0.01226972 0.009563468 0.057026703 0.105684906 -0.05112717 -0.16546826 -0.21477085 -0.07038419 0.14221823 -0.34521508 -0.23006274 0.010553174 0.036082238
say -0.0108303195 -0.1783794 0.03478935 0.14864261 0.24860936 -0.12636755 0.33940968 -0.009631668 -0.036099672 0.37070084 -0.036856838 -0.07594192 -0.13000573 -0.21182081 0.30512622 0.3884539 -0.305097 -0.25295243 -0.17022775 0.19310708 0.025754686 0.16754352 -0.19235913 -0.55459595 -0.3026297 0.31525183 -0.16012987 0.029352533 0.102320604 -0.13872427 0.020341441 0.015265621 0.056967866 0.25059465 -0.17334089 0.2797627 0.13559484 -0.2022677 -0.06679237 0.01950138 -0.066933244 0.15990329 -0.103288144 -0.055561632 0.14585638 0.11417406 -0.33933282 -0.085084595 -0.051399764 -0.06342339 0.19390748 0.072953515 0.10085032 -0.05008694 -0.07375962 -0.14424177 0.30786282 -0.23496358 -0.24101077 0.16080096 -0.20047125 0.099882625 0.22940993 0.08263066 0.2098298 -0.018939504 -0.029555248 0.14032708 -0.11800156 -0.23114169 3.408022e-05 -0.124789275 -0.39369503 0.0020836343 0.032118294 -0.13197573 -0.15022384 -0.15199298 -0.23917696 0.013618471 -0.24401858 -0.3063212 0.07632128 0.45602587 -0.06833082 0.25772968 0.24555676 -0.124139994 0.17814821 -0.035757694 -0.18375431 -0.08545703 0.24780156 -0.065747105 0.22489691 0.24165161 -0.19014701 -0.34810242 -0.2406411 -0.19616927 -0.21953999 -0.012873275 -0.08569883 0.11301036 0.07388352 0.11178678 -0.022437926 0.24220927 0.2746432 -0.16242802 0.28692317 -0.15896855 -0.031107813 0.048009705 -0.22036198 0.01589926 0.0032848646 0.053972553 0.11769851 -0.059926417 -0.20897287 -0.2543228 -0.06812121 0.15271074 -0.40321207 -0.2852984 0.018340949 0.038015466
one -0.0060769315 -0.1725631 0.026453987 0.16361353 0.2533387 -0.12047758 0.3330055 -0.015774785 -0.035175804 0.3856368 -0.03834805 -0.06927289 -0.13881499 -0.20588955 0.30912203 0.39149597 -0.29223156 -0.25031137 -0.17200707 0.17935655 0.021774866 0.16662112 -0.18330035 -0.55714536 -0.3139254 0.31376186 -0.1634297 0.030819524 0.09603114 -0.13019522 0.024265954 0.02772431 0.060938027 0.2498023 -0.16616604 0.2926475 0.14724098 -0.18936278 -0.07146164 0.031544648 -0.061927922 0.15599711 -0.11408628 -0.04305525 0.14073668 0.110394105 -0.35179794 -0.07807732 -0.056579486 -0.07639333 0.19400157 0.08688751 0.11166568 -0.04360792 -0.07932941 -0.14747117 0.2926679 -0.22601826 -0.24241033 0.15576248 -0.20824076 0.10324751 0.23414445 0.08950792 0.22961824 -0.027857872 -0.04437892 0.13380903 -0.1157998 -0.2426428 0.009481617 -0.13949442 -0.3881528 -0.011892625 0.03153429 -0.122654445 -0.1525756 -0.14575012 -0.23358215 0.012047557 -0.24829008 -0.30312827 0.067815356 0.46181306 -0.07213255 0.2516157 0.25581267 -0.12866975 0.17887269 -0.037948713 -0.19017832 -0.07592095 0.23846805 -0.06994326 0.23891628 0.2494838 -0.18387492 -0.35686368 -0.22878748 -0.2065225 -0.22041175 -0.0077605266 -0.08390842 0.10663967 0.07282925 0.108275704 -0.008447975 0.23408557 0.2783701 -0.15017001 0.29113752 -0.16862446 -0.035655253 0.03208215 -0.21250415 0.02495935 0.007427906 0.061015442 0.11908068 -0.059990123 -0.19344252 -0.2658611 -0.06418472 0.14595619 -0.42072284 -0.2849868 0.00912587 0.042963743
behavior 0.007781063 -0.13798037 0.032044947 0.12782586 0.22292368 -0.10217586 0.2716617 -0.0047707567 -0.023976728 0.3136709 -0.02200571 -0.07084359 -0.11455926 -0.17391977 0.2702871 0.32090572 -0.23735896 -0.21413448 -0.15557794 0.15926047 0.02218333 0.1289371 -0.16598397 -0.4649054 -0.2608972 0.2512488 -0.13821611 0.031946283 0.08464775 -0.09994688 0.02569648 0.013125075 0.051522497 0.19670467 -0.14400277 0.2505136 0.128844 -0.16271174 -0.04708474 0.026389219 -0.06297572 0.1425657 -0.090655245 -0.04184392 0.12638472 0.09807522 -0.30004075 -0.0548807 -0.047361124 -0.047564723 0.152121 0.05751282 0.08335349 -0.051268052 -0.077513814 -0.13620177 0.251612 -0.20122707 -0.213273 0.14588703 -0.18506788 0.09006424 0.19918182 0.0782813 0.1785118 -0.006819054 -0.023388313 0.112289764 -0.09028327 -0.19907388 -0.0076501467 -0.106306106 -0.32101494 -0.013578228 0.04748699 -0.11711562 -0.12680794 -0.12535584 -0.1949295 0.0159086 -0.19332077 -0.2564787 0.0726379 0.38333735 -0.061557278 0.21874978 0.20772687 -0.09689128 0.14161421 -0.04072205 -0.1559618 -0.06068948 0.19820598 -0.048599172 0.19400065 0.21236408 -0.15995467 -0.30382413 -0.20599455 -0.1869059 -0.18289389 -0.012224549 -0.07125381 0.097670935 0.06164984 0.076142654 -0.008735251 0.20609252 0.23730464 -0.12634647 0.24926543 -0.13438074 -0.023004726 0.03610542 -0.18641369 0.012554138 0.0008503836 0.057069164 0.10781804 -0.057455983 -0.17076065 -0.22353798 -0.05626159 0.14410083 -0.34778222 -0.23313758 0.008884212 0.04109784
never 0.0023601311 -0.16396134 0.03076896 0.1530242 0.23658556 -0.10363276 0.3150279 -0.006575526 -0.04336309 0.36092576 -0.031829193 -0.073696226 -0.121208794 -0.20165592 0.28124356 0.36280254 -0.27754873 -0.23307826 -0.160405 0.1688902 0.01812754 0.1473667 -0.1691358 -0.5112718 -0.28338772 0.2888337 -0.14017121 0.021749383 0.08986402 -0.12357927 0.025664933 0.015385956 0.05105547 0.22942546 -0.15780252 0.2633803 0.124118045 -0.17584893 -0.06521437 0.013962327 -0.06760754 0.14390185 -0.10434266 -0.04855334 0.13825095 0.10687448 -0.3335962 -0.074083716 -0.06148447 -0.061024018 0.18704996 0.08272209 0.09359953 -0.033479832 -0.08410493 -0.14203358 0.28748754 -0.2163665 -0.23548743 0.1373997 -0.1879642 0.10454352 0.21987885 0.08267892 0.20796229 -0.023977416 -0.032356504 0.12830502 -0.09158995 -0.22066472 0.006193433 -0.12352378 -0.3597701 -0.0017695366 0.039926134 -0.11157824 -0.13927945 -0.13414669 -0.20985603 0.013277614 -0.22924145 -0.2755019 0.06292389 0.4381666 -0.07435975 0.23128787 0.23798484 -0.130847 0.16835018 -0.03393827 -0.16964792 -0.076512195 0.23447675 -0.065269955 0.21842234 0.22587344 -0.17942029 -0.3388891 -0.22100362 -0.18707278 -0.20461443 -0.012034177 -0.07347093 0.10594852 0.0560148 0.09290659 -0.022933993 0.22523205 0.26381597 -0.14571054 0.27697235 -0.16206475 -0.035815343 0.045416076 -0.19685186 0.021905793 0.009258705 0.045616485 0.11809897 -0.045768764 -0.1986345 -0.2435744 -0.071647875 0.13611558 -0.39310187 -0.27582377 0.005508226 0.045854755
part -0.0063479664 -0.17733808 0.025898475 0.15016475 0.25366437 -0.11764214 0.33144438 -0.013017916 -0.03775452 0.37792626 -0.030124417 -0.07674406 -0.13634406 -0.20021586 0.31595665 0.38922587 -0.30596432 -0.257743 -0.16622378 0.18445136 0.033456147 0.15424263 -0.19252157 -0.54239106 -0.30175498 0.30828777 -0.15043859 0.034592155 0.091297925 -0.13999274 0.030901454 0.0151612945 0.06055432 0.24861225 -0.18414459 0.2802529 0.14328879 -0.20392206 -0.06972014 0.029601958 -0.06325283 0.16287597 -0.106404185 -0.044632077 0.14288351 0.10516333 -0.34525555 -0.07075322 -0.058537506 -0.06314251 0.1863611 0.08807898 0.11414188 -0.049396794 -0.09248818 -0.1440321 0.2956267 -0.2226033 -0.2503492 0.15696181 -0.20384862 0.117728084 0.23496635 0.0996089 0.2133961 -0.015658692 -0.037344918 0.14359133 -0.1031118 -0.23203097 0.007990232 -0.13474001 -0.37718853 0.0007872713 0.026545644 -0.13116346 -0.14544776 -0.16101927 -0.22693883 0.009680543 -0.23888741 -0.30075237 0.061310112 0.45071754 -0.08284645 0.25521713 0.25643036 -0.1326011 0.16420275 -0.049178135 -0.18277477 -0.08481411 0.24189007 -0.071472175 0.22514443 0.26073074 -0.18039542 -0.35610196 -0.22618687 -0.2094871 -0.21496393 -0.02358892 -0.076564185 0.11089301 0.073534496 0.11353659 -0.015652943 0.2261841 0.2834088 -0.1431012 0.27659902 -0.163099 -0.038387794 0.04532461 -0.20849733 0.023106927 0.014925427 0.063321 0.10708386 -0.06462988 -0.19433291 -0.2547074 -0.0709391 0.1425878 -0.41607007 -0.2857189 0.024669811 0.03889321
ca -0.0048357868 -0.14696823 0.026906667 0.13555185 0.21569122 -0.088286765 0.26941866 -0.010409988 -0.028168615 0.30517864 -0.035115924 -0.058801025 -0.10883433 -0.17293887 0.25893384 0.3225758 -0.2370412 -0.20897892 -0.13217624 0.1532337 0.026686458 0.1298565 -0.15303358 -0.44378138 -0.2573316 0.26129493 -0.1268284 0.03160634 0.07642327 -0.10946965 0.011676083 0.01065574 0.046159506 0.1964542 -0.14333905 0.24261184 0.11901701 -0.16798446 -0.05648374 0.019540621 -0.045687076 0.12511808 -0.0789629 -0.03656247 0.11499296 0.09819814 -0.2765087 -0.06539482 -0.043062095 -0.06529492 0.15541452 0.060443096 0.09270777 -0.03517991 -0.06060142 -0.1322605 0.24735875 -0.1885349 -0.2040398 0.12788096 -0.16334568 0.08005032 0.19198655 0.076585375 0.17611775 -0.020520581 -0.038105834 0.10643488 -0.09672696 -0.19039713 -0.0015576885 -0.11175506 -0.3245139 -0.01106959 0.0315157 -0.11254154 -0.12171536 -0.117694266 -0.18817493 0.011716981 -0.20222391 -0.24792401 0.062141664 0.37245387 -0.057232145 0.20793384 0.21244207 -0.09805368 0.14524691 -0.028075777 -0.16104242 -0.0702758 0.20606585 -0.04684982 0.18777262 0.19827072 -0.14785695 -0.2881841 -0.19415551 -0.15921262 -0.17756182 -0.00789646 -0.06781976 0.08225766 0.052117668 0.09051154 -0.019386357 0.2003665 0.23645538 -0.13526092 0.2245724 -0.14093092 -0.028830532 0.032828394 -0.17887117 0.016789753 0.010126442 0.058505796 0.09040616 -0.05521987 -0.16321425 -0.21843192 -0.052704565 0.13232121 -0.34244373 -0.2417792 0.0029599841 0.035573024
time -0.0025074922 -0.1891256 0.030212115 0.17756619 0.29197434 -0.12226055 0.3587688 -0.008314955 -0.04099478 0.41274023 -0.025252203 -0.08530705 -0.14074022 -0.23348491 0.34354937 0.430885 -0.34109208 -0.274689 -0.18198659 0.19513954 0.023855139 0.17185996 -0.19660665 -0.59791285 -0.32762563 0.3453078 -0.16440846 0.02790219 0.10594549 -0.15421098 0.025946153 0.020207334 0.075502664 0.2699847 -0.18311371 0.31151316 0.15917915 -0.21909527 -0.07520077 0.024111178 -0.06697447 0.17530754 -0.10860062 -0.05033103 0.16025686 0.12610567 -0.38970813 -0.09123939 -0.06604216 -0.075732306 0.20604584 0.09083024 0.11495773 -0.053155787 -0.08978125 -0.16348514 0.33085606 -0.24230865 -0.2676846 0.15806992 -0.21985056 0.11334551 0.25929374 0.08998738 0.24776974 -0.032885525 -0.04339899 0.15832789 -0.1086825 -0.25407368 0.009040201 -0.14001366 -0.41726768 -0.012075753 0.038270045 -0.14197259 -0.16497305 -0.16777238 -0.24684519 0.017411102 -0.2563168 -0.33631694 0.071040794 0.5066406 -0.08090593 0.27026471 0.2772245 -0.14281134 0.19297051 -0.049951587 -0.20153558 -0.090005025 0.27607998 -0.067642495 0.24534975 0.26440296 -0.2128594 -0.38104284 -0.2630118 -0.23132965 -0.23673366 -0.022161726 -0.097844526 0.118670695 0.071506746 0.12007512 -0.023167353 0.26652113 0.31080648 -0.1742141 0.32144952 -0.18204431 -0.033154707 0.047202826 -0.22502643 0.016422283 0.015990593 0.06300805 0.14015932 -0.0634864 -0.22623383 -0.28524864 -0.079432 0.16019171 -0.45269242 -0.31490678 0.013346759 0.031304628
throat -0.0070025 -0.1826802 0.02768964 0.15659618 0.2710722 -0.10959286 0.3423786 -0.008705805 -0.03777344 0.3865746 -0.036711387 -0.07784898 -0.13020316 -0.20372179 0.317154 0.38101575 -0.29995766 -0.25242957 -0.18459706 0.18494639 0.02252805 0.16991648 -0.17734267 -0.5590668 -0.30937344 0.3335988 -0.15672852 0.024847707 0.100062795 -0.14117149 0.021315245 0.020864384 0.060937062 0.25752854 -0.17595454 0.29711002 0.1422903 -0.20843388 -0.07332629 0.027040485 -0.07115451 0.16634797 -0.10680571 -0.059232876 0.14530668 0.10931225 -0.3699965 -0.08203338 -0.049545933 -0.076236844 0.19678874 0.089230865 0.114821814 -0.037415765 -0.09503641 -0.1529495 0.30050755 -0.22837517 -0.24735837 0.15559049 -0.20232335 0.10324054 0.24074052 0.092381835 0.23552425 -0.021311779 -0.043433513 0.14189243 -0.11120624 -0.24641295 0.007324601 -0.14524314 -0.3939944 -0.0076836725 0.047375128 -0.13353382 -0.15661047 -0.15866299 -0.2418267 0.018211786 -0.24550071 -0.3114504 0.07179469 0.47975713 -0.0795476 0.2558108 0.2658192 -0.13300356 0.1786665 -0.035329223 -0.18520014 -0.077900805 0.26039878 -0.06940408 0.23923166 0.25937027 -0.20496166 -0.37058115 -0.24222454 -0.21783221 -0.22730333 -0.025846915 -0.08888088 0.12017974 0.06993132 0.11107605 -0.028873358 0.24350332 0.2885358 -0.15445381 0.30101648 -0.17037667 -0.026946694 0.052549303 -0.2200313 0.020264635 0.012123226 0.050663527 0.12887819 -0.066129476 -0.21289076 -0.2645256 -0.06609952 0.15743068 -0.423937 -0.30269703 0.008228168 0.03770772
since -0.012251711 -0.20822541 0.027741969 0.18559012 0.29215568 -0.13075027 0.3959947 -0.01503869 -0.04130379 0.45046923 -0.03432113 -0.08674164 -0.14671525 -0.231488 0.36545503 0.45505437 -0.34899986 -0.29139853 -0.20820719 0.21524076 0.036028355 0.17992541 -0.21266195 -0.6311131 -0.35121462 0.3647812 -0.17350174 0.036057908 0.11472279 -0.1655824 0.032238603 0.028892899 0.078765616 0.28901058 -0.19667001 0.34378615 0.17047691 -0.23047042 -0.067711964 0.019626474 -0.07713347 0.19574277 -0.13235386 -0.06524801 0.16808563 0.122107424 -0.39562955 -0.08049567 -0.056045692 -0.07511571 0.22711854 0.09937256 0.12481507 -0.046610896 -0.10610956 -0.17348684 0.3518632 -0.26659036 -0.28002298 0.1814835 -0.23529088 0.12280226 0.2722552 0.108131945 0.2654714 -0.039889157 -0.03661672 0.1627538 -0.13243163 -0.28187677 0.0028195467 -0.1639894 -0.44179678 -0.003781887 0.038138796 -0.14053851 -0.1762816 -0.18432668 -0.2701263 0.02256921 -0.2725483 -0.35144892 0.07761591 0.5232998 -0.09281279 0.29988012 0.29964417 -0.15777844 0.20033406 -0.061074156 -0.21186136 -0.095360845 0.28867537 -0.089468844 0.26900193 0.27756688 -0.21643505 -0.4088969 -0.27455133 -0.24329886 -0.2663218 -0.013629279 -0.09521497 0.12123849 0.07035651 0.13645568 -0.025530348 0.2699411 0.31755275 -0.1815801 0.34084943 -0.19088332 -0.044106673 0.04625336 -0.25674483 0.03341864 -0.001807856 0.06030502 0.1394372 -0.07024121 -0.24419236 -0.30183092 -0.09350019 0.17722993 -0.479048 -0.33741835 0.018090278 0.04245899
try -0.0038242864 -0.14856617 0.027960058 0.14331724 0.21230529 -0.10368595 0.28735754 -0.0015063506 -0.04098094 0.31379586 -0.021067625 -0.066773355 -0.1145934 -0.16744862 0.2593626 0.3216503 -0.2522111 -0.2131256 -0.15279974 0.14577636 0.030186437 0.14150509 -0.14764483 -0.4627069 -0.25274962 0.26524654 -0.13381572 0.032769453 0.075006336 -0.121102296 0.013113352 0.012268333 0.057657585 0.20141941 -0.14538643 0.24164322 0.12709324 -0.17241593 -0.057043225 0.01575459 -0.060842708 0.14085491 -0.09748734 -0.045074485 0.123280555 0.095054075 -0.30694342 -0.05780955 -0.04387673 -0.04937291 0.16027096 0.0724264 0.08618054 -0.037432034 -0.06621902 -0.13128184 0.25909412 -0.20181571 -0.21154313 0.1377267 -0.17513397 0.090864524 0.19278897 0.065834925 0.18647598 -0.02040252 -0.03577843 0.122409545 -0.08777494 -0.19566889 0.008895065 -0.107389964 -0.32799837 -0.014738429 0.03554612 -0.10400179 -0.12285428 -0.12676765 -0.19736645 0.006828188 -0.20857085 -0.2513773 0.0661444 0.39728856 -0.068321794 0.21346925 0.22214411 -0.115763985 0.14514334 -0.028503453 -0.15562913 -0.06928784 0.21279643 -0.05627255 0.20143639 0.21671616 -0.1749632 -0.30856407 -0.200815 -0.16687152 -0.19553052 -0.010386376 -0.069347724 0.099823296 0.06267665 0.084651046 -0.014895325 0.20388317 0.23216051 -0.13684347 0.24540167 -0.15247996 -0.032833558 0.046844408 -0.17519546 0.022047458 0.014699388 0.049576044 0.10119229 -0.051179986 -0.17268123 -0.22166309 -0.05151227 0.11855968 -0.3418889 -0.24426435 0.0016645439 0.03605894
throw -0.012900075 -0.18194553 0.02071511 0.15851152 0.26990965 -0.120650224 0.33844626 -0.011368748 -0.04327748 0.39325055 -0.028472243 -0.07442779 -0.12738992 -0.21922788 0.33108598 0.3923343 -0.30328518 -0.2638284 -0.17294614 0.18194357 0.020439144 0.17545891 -0.19276035 -0.56055397 -0.3125168 0.32814 -0.14721465 0.032549497 0.087816246 -0.14734147 0.020277785 0.008861049 0.068059675 0.25590095 -0.18787043 0.3053793 0.1525886 -0.19674884 -0.059454337 0.012635877 -0.063238755 0.16032839 -0.113231964 -0.052695516 0.14842728 0.11983294 -0.35557416 -0.078024276 -0.05717696 -0.060838923 0.19845931 0.09217073 0.115066886 -0.037177283 -0.083413176 -0.15952222 0.30583903 -0.23416744 -0.25913012 0.16641617 -0.20874217 0.116102725 0.24323656 0.08529107 0.23489843 -0.017477475 -0.03945408 0.141781 -0.11661411 -0.24643102 0.0122626955 -0.1410795 -0.38875934 -0.00452499 0.03455562 -0.124284916 -0.16308649 -0.15984449 -0.23642507 0.020772165 -0.25032166 -0.3078125 0.06450219 0.48229647 -0.08709365 0.26579455 0.26089594 -0.14194457 0.1701148 -0.053952273 -0.19781435 -0.07648241 0.26340434 -0.06683044 0.23599802 0.26786304 -0.20239171 -0.37057894 -0.23826344 -0.2181681 -0.23973225 -0.023169156 -0.07795318 0.12312202 0.064776726 0.103518076 -0.018936692 0.24457203 0.28442103 -0.15828216 0.28668445 -0.1683508 -0.034168936 0.051200088 -0.23049943 0.017726371 0.0013373689 0.0586666 0.11475521 -0.05458677 -0.21810113 -0.26909804 -0.069849744 0.1507794 -0.42185724 -0.30637726 0.02489032 0.051910482
work 0.004075831 -0.1918833 0.021410007 0.15611 0.27745205 -0.11442519 0.3508491 -0.017584855 -0.050511137 0.3833668 -0.035652693 -0.074212 -0.14312835 -0.20995685 0.32154924 0.39478487 -0.31789368 -0.27046892 -0.18534754 0.18824945 0.022270374 0.16918994 -0.18863407 -0.57384115 -0.30831093 0.33229354 -0.14892295 0.038376454 0.10643548 -0.13566238 0.028455636 0.027808825 0.06138902 0.25265253 -0.17135029 0.29933396 0.14054413 -0.19829395 -0.076136395 0.014400776 -0.063267455 0.17567234 -0.1084344 -0.049019545 0.15318838 0.12250256 -0.36416075 -0.08284362 -0.05274584 -0.07824384 0.21246687 0.082761824 0.10612589 -0.047260504 -0.08699762 -0.150876 0.31704184 -0.23491745 -0.25149426 0.14820522 -0.21692462 0.105438314 0.24750434 0.08621354 0.22604541 -0.021968106 -0.0396367 0.13765869 -0.10013653 -0.24359164 0.008037231 -0.13184687 -0.39140922 -0.013596358 0.035587464 -0.12696828 -0.16526496 -0.15894666 -0.23485796 0.023756418 -0.2514009 -0.31054324 0.07219518 0.47269964 -0.076720856 0.24978082 0.2614217 -0.13253762 0.17715567 -0.041174285 -0.19216497 -0.08721865 0.2604564 -0.0639859 0.24293688 0.2655956 -0.20267877 -0.36052722 -0.24991706 -0.21810564 -0.2268659 -0.010497051 -0.08287062 0.118779615 0.07618948 0.10728711 -0.01456758 0.24963166 0.2776316 -0.15617165 0.3044784 -0.16966513 -0.03177202 0.05104881 -0.22217251 0.022726147 0.018349756 0.04670251 0.13208152 -0.060255706 -0.21002744 -0.26701275 -0.06432137 0.15935995 -0.41918305 -0.3022847 0.01597982 0.046866428
want -0.012408759 -0.15883738 0.023166146 0.14514469 0.2485936 -0.108985305 0.30818382 -0.006790891 -0.022085378 0.36131123 -0.02891942 -0.068572566 -0.122898385 -0.19187097 0.28317112 0.3624119 -0.2843375 -0.24203698 -0.1626346 0.18012454 0.01460153 0.14100577 -0.17547463 -0.5182761 -0.29701048 0.2971911 -0.1532198 0.025031991 0.082610205 -0.12686709 0.027944868 0.014178008 0.049975246 0.22676273 -0.15420699 0.27266756 0.12549223 -0.18743777 -0.054164484 0.022384837 -0.06863594 0.15644659 -0.103419624 -0.05879654 0.13808924 0.103581 -0.32634193 -0.07026626 -0.053951636 -0.0539956 0.18823272 0.08545747 0.10813061 -0.047556017 -0.07918611 -0.13535485 0.28999835 -0.2084704 -0.22648592 0.15426987 -0.2018315 0.107285656 0.21121687 0.088809595 0.21450083 -0.015475131 -0.028489374 0.13015448 -0.09913479 -0.21419087 -0.0007135737 -0.1276117 -0.35990128 -0.009785139 0.035344034 -0.12325599 -0.12967665 -0.13145971 -0.21945967 0.018754931 -0.23081471 -0.28630972 0.06791423 0.43699005 -0.081715845 0.23289889 0.24212457 -0.12250665 0.16099566 -0.045225017 -0.17333734 -0.08278508 0.22377338 -0.071849324 0.21171826 0.22469918 -0.18720871 -0.3422289 -0.21523501 -0.20322461 -0.22007556 -0.018456716 -0.08213211 0.109758995 0.06873343 0.10291143 -0.018287322 0.21569724 0.26203778 -0.145489 0.26885623 -0.15390365 -0.031164616 0.03698936 -0.20686413 0.008879428 -0.0029952247 0.052715 0.11655553 -0.040606163 -0.19152933 -0.24925184 -0.058826003 0.1406802 -0.39126018 -0.26538354 0.014105097 0.03347013
alone -0.010992456 -0.11418302 0.02385573 0.118261464 0.193995 -0.07672987 0.23606619 -0.005259612 -0.015961742 0.26545793 -0.02675808 -0.05431453 -0.09779277 -0.13855748 0.22662467 0.28622848 -0.20932645 -0.18946435 -0.121378064 0.13973945 0.010193514 0.112582974 -0.13366617 -0.404867 -0.22974633 0.22263964 -0.114647135 0.022165732 0.06437271 -0.0928243 0.008014964 0.0028898888 0.04903939 0.17694047 -0.13413715 0.20169632 0.09476947 -0.14147305 -0.048132747 0.016672565 -0.042238593 0.123514146 -0.08194268 -0.037692823 0.097098045 0.07669463 -0.24983978 -0.06667671 -0.04139097 -0.051713824 0.15349774 0.054972537 0.07973497 -0.034861717 -0.06616135 -0.119284086 0.20479865 -0.1616082 -0.18848287 0.1239602 -0.14614908 0.07676138 0.1608273 0.057574388 0.16077322 -0.019242192 -0.025099624 0.10216474 -0.087365486 -0.17781746 -0.00033310772 -0.09972168 -0.2714786 -0.0019474871 0.03944792 -0.09681047 -0.115196094 -0.10755412 -0.18067035 0.011527598 -0.183844 -0.21698795 0.0596466 0.33629727 -0.06597064 0.18884224 0.18843482 -0.093404196 0.121085554 -0.041562695 -0.14471288 -0.062222384 0.17698659 -0.044983137 0.16945818 0.17639899 -0.1366 -0.26577142 -0.17191888 -0.14561044 -0.17123955 -0.0041963663 -0.05080761 0.07290402 0.04958562 0.085908815 -0.017320402 0.17733626 0.20777729 -0.11916787 0.1969525 -0.120328434 -0.030182224 0.024177175 -0.15899338 0.00553132 -0.0058447327 0.048713095 0.07916517 -0.04010748 -0.13734232 -0.20022644 -0.05053038 0.114097014 -0.29351312 -0.21730511 0.016955253 0.03500045
induce -0.0014370693 -0.1449653 0.02703208 0.14863846 0.21878743 -0.10471485 0.29628485 -0.008500566 -0.042086314 0.33101147 -0.029775726 -0.07086614 -0.11514624 -0.17434983 0.28824985 0.32669026 -0.26212037 -0.22901307 -0.15640402 0.15616494 0.020298632 0.1547949 -0.16575958 -0.4717459 -0.27355278 0.28571674 -0.12758094 0.044497307 0.082788 -0.12548529 0.015849762 0.016829971 0.046610907 0.20310257 -0.16075765 0.24785274 0.1254701 -0.16547975 -0.044784553 0.022956608 -0.063648775 0.14605202 -0.08418939 -0.042255174 0.12738892 0.10507539 -0.31156528 -0.05643844 -0.03987508 -0.045513507 0.15891889 0.07719402 0.10161454 -0.03743712 -0.07770256 -0.12694436 0.25555116 -0.19993645 -0.21819328 0.13847844 -0.16971888 0.090032496 0.1930502 0.086417 0.20480527 -0.024866404 -0.03761052 0.11263031 -0.093964644 -0.20543256 0.0009003977 -0.11489803 -0.33799896 -0.00893066 0.03608959 -0.10994248 -0.14315887 -0.12404207 -0.19549789 0.027223013 -0.21512426 -0.26865032 0.06136085 0.40113086 -0.07199613 0.22217476 0.22009593 -0.11158773 0.15421532 -0.035612706 -0.16602238 -0.06967952 0.21625625 -0.049036846 0.18770501 0.22028181 -0.17127141 -0.31925923 -0.20934495 -0.17298092 -0.19979723 -0.015764339 -0.06916577 0.11759935 0.051429715 0.092211336 -0.006877419 0.19692694 0.24334681 -0.12999587 0.25126374 -0.1457989 -0.020461896 0.038381226 -0.18542834 0.016277762 -0.001859612 0.05133146 0.10907867 -0.06311191 -0.17956087 -0.21902712 -0.060414713 0.14102985 -0.36215928 -0.25977382 0.018912783 0.028509723
stomach -0.013527601 -0.18609509 0.021641834 0.18064904 0.28497463 -0.1289733 0.3739113 -0.014109006 -0.04626769 0.41489866 -0.026695082 -0.0795963 -0.13928254 -0.22273257 0.34757307 0.43105492 -0.33502144 -0.28672525 -0.19490093 0.2115782 0.019427115 0.1758672 -0.19265531 -0.6123305 -0.33867353 0.35568756 -0.17816612 0.045775358 0.10223086 -0.15408935 0.028108088 0.0249159 0.06949297 0.2763003 -0.20042728 0.31549066 0.16546232 -0.21071118 -0.06399396 0.020769052 -0.06406642 0.17887108 -0.10755385 -0.056921072 0.1703994 0.11274575 -0.39434916 -0.09223223 -0.059310637 -0.07641994 0.22183016 0.07967483 0.10846025 -0.045004804 -0.089254245 -0.17718244 0.32090607 -0.2544509 -0.2693622 0.18313685 -0.23007241 0.11636274 0.25116658 0.0970932 0.23441988 -0.019737475 -0.053595804 0.14549294 -0.12295343 -0.25127694 0.009538439 -0.14934623 -0.42030156 -0.01384842 0.05377573 -0.13734867 -0.16260901 -0.17052281 -0.24558762 0.027975714 -0.26243556 -0.3281268 0.07615922 0.49438274 -0.07506252 0.2657331 0.26874578 -0.13752533 0.19156742 -0.042523753 -0.21330534 -0.078901745 0.27541512 -0.080341235 0.25204766 0.26892653 -0.20616193 -0.38880596 -0.2684721 -0.22095312 -0.24571137 -0.006154331 -0.09837851 0.11582697 0.06606866 0.12581527 -0.022872573 0.2683967 0.3097473 -0.16255485 0.31159204 -0.18577625 -0.03473888 0.048237592 -0.24701473 0.01634582 0.011441206 0.07166817 0.1311041 -0.07191462 -0.22659832 -0.2721883 -0.07576394 0.17472462 -0.45845932 -0.3211918 0.01094156 0.03823569
also -0.0008151077 -0.17431305 0.029553527 0.1533152 0.25649828 -0.12551834 0.34208456 0.00063990516 -0.035355028 0.3923224 -0.04078569 -0.078842804 -0.119935445 -0.2159318 0.32959026 0.40498912 -0.31564024 -0.26816365 -0.1755725 0.19963346 0.030441172 0.1690195 -0.18606262 -0.5546947 -0.31710148 0.31765085 -0.15764399 0.026134646 0.10250844 -0.14713138 0.025108298 0.008087469 0.062469646 0.25645873 -0.18142532 0.2983572 0.13928215 -0.20464681 -0.074452616 0.033064913 -0.06575528 0.15802917 -0.11676913 -0.061744496 0.13948822 0.11212378 -0.3722863 -0.08762228 -0.04801415 -0.059657596 0.20970012 0.08061299 0.1057172 -0.050882075 -0.09652651 -0.16128229 0.29056868 -0.23699945 -0.25615 0.16022754 -0.2183351 0.11806984 0.24348037 0.09985801 0.23038888 -0.024863329 -0.047717605 0.14297771 -0.12105761 -0.24114518 -0.0007423215 -0.13938726 -0.393691 -0.0062211505 0.046169 -0.13112716 -0.16541795 -0.15102936 -0.24037457 0.019547151 -0.24975003 -0.30619413 0.07602551 0.48062372 -0.076837085 0.25238413 0.25348812 -0.12786037 0.17586443 -0.043903124 -0.19590722 -0.08054494 0.24801789 -0.06576822 0.24035336 0.2583444 -0.18721291 -0.3617799 -0.24487405 -0.20820507 -0.23044397 -0.0075331614 -0.08369417 0.11524369 0.05762225 0.12222731 -0.012282274 0.24074246 0.2813935 -0.16655354 0.29159153 -0.16160612 -0.04076797 0.049275808 -0.2281022 0.016117014 -0.00028762102 0.04942324 0.12566899 -0.062543064 -0.2170657 -0.2711079 -0.0748028 0.15948828 -0.41266406 -0.30299842 0.020014875 0.037069097
fat 1.7789641e-06 -0.16454013 0.019784383 0.14896628 0.2452157 -0.11069149 0.34974855 -0.009379966 -0.037819557 0.3750195 -0.03572702 -0.08344432 -0.12401412 -0.19745818 0.30342945 0.37594146 -0.29993016 -0.2639418 -0.16462858 0.17792869 0.017111462 0.16114381 -0.17701705 -0.5402139 -0.29688776 0.311128 -0.15884848 0.014804021 0.09276828 -0.13747938 0.025234153 0.019286897 0.047453076 0.24190009 -0.17513357 0.27446473 0.13577825 -0.20753688 -0.05526684 0.028816141 -0.07457976 0.15429309 -0.11443715 -0.044745173 0.14268245 0.10606843 -0.3525718 -0.08891418 -0.059127558 -0.08052369 0.19925927 0.06983979 0.0976065 -0.04628944 -0.091279544 -0.15701616 0.29626086 -0.21785027 -0.24930654 0.14019053 -0.20810759 0.11216057 0.24218914 0.09409574 0.230962 -0.022810435 -0.04269043 0.13451676 -0.10679421 -0.24092567 0.0021405856 -0.13754217 -0.38354248 -0.0012262774 0.037992366 -0.1252006 -0.14807019 -0.15107746 -0.22681351 0.022409696 -0.24955119 -0.28669342 0.077697024 0.4351716 -0.07793847 0.24296337 0.23224862 -0.13929464 0.16079499 -0.040454675 -0.18792665 -0.05986898 0.25040197 -0.076412566 0.21894577 0.24128567 -0.20012537 -0.35055432 -0.22423008 -0.19264254 -0.2095219 -0.018747386 -0.093489654 0.10206707 0.068110384 0.10435822 -0.023336267 0.24173161 0.2841356 -0.1440636 0.28100944 -0.17235133 -0.03457563 0.052007895 -0.21814123 0.026350118 0.023191448 0.05510096 0.12506332 -0.05854052 -0.20118132 -0.2560183 -0.08608036 0.14988783 -0.4116352 -0.28753826 0.015572882 0.04932454
weight -0.0061487695 -0.17213297 0.024288949 0.1509377 0.22933169 -0.108953215 0.29985508 -0.006092196 -0.03462277 0.3298639 -0.042299654 -0.072013944 -0.11654793 -0.18169332 0.28772122 0.34822857 -0.2752472 -0.22539712 -0.15395206 0.17255345 0.026951652 0.16070421 -0.16962124 -0.49780542 -0.27398714 0.2812744 -0.129364 0.041697886 0.09383314 -0.12834561 0.03373348 0.018063508 0.055691242 0.22580771 -0.15084301 0.265006 0.13070011 -0.17702064 -0.06126762 0.016056659 -0.0653887 0.14154527 -0.09737473 -0.04627555 0.13589227 0.10614865 -0.31699944 -0.07860227 -0.0451812 -0.05507558 0.1864897 0.07704057 0.09742424 -0.042489763 -0.08291819 -0.13847157 0.2778293 -0.20889534 -0.22148703 0.1310288 -0.18503562 0.09396108 0.21812148 0.08033202 0.19802052 -0.019556018 -0.040223926 0.12029068 -0.09720732 -0.20182228 -0.0065598986 -0.11531945 -0.35505256 0.0006067718 0.03428056 -0.10667327 -0.14587072 -0.13564333 -0.21209635 0.013259447 -0.2127928 -0.2784338 0.06849561 0.42210737 -0.055827666 0.22303358 0.23695266 -0.12918496 0.15707186 -0.028164525 -0.16195367 -0.08395287 0.22080784 -0.064694546 0.20668022 0.23185486 -0.18251169 -0.31601876 -0.21624759 -0.18180728 -0.19360465 -0.010675094 -0.08004637 0.09588594 0.055319045 0.09796735 -0.026229639 0.22052744 0.2514534 -0.14215796 0.2674908 -0.15682551 -0.030084096 0.047486383 -0.18400317 0.020487553 0.0052366788 0.04427743 0.10613223 -0.05007674 -0.1828195 -0.22585435 -0.055299535 0.124632105 -0.36102256 -0.26941267 0.010306676 0.034364764
eating 0.0010916633 -0.12766609 0.028592989 0.115329474 0.17757262 -0.09129944 0.2484996 0.00074021897 -0.034306224 0.27094245 -0.03261885 -0.06228753 -0.09458001 -0.15238985 0.2239886 0.2837641 -0.21006331 -0.18429533 -0.114334494 0.13384996 0.020499174 0.11461861 -0.13771082 -0.40224364 -0.2214096 0.21759643 -0.12166621 0.02894437 0.076111846 -0.096275456 0.016602537 0.012928157 0.04056065 0.18010351 -0.1287947 0.21290223 0.096671455 -0.14169692 -0.051570904 0.027799802 -0.051553898 0.11650386 -0.08460399 -0.04179538 0.0991778 0.07200265 -0.256602 -0.04939478 -0.048747744 -0.046270847 0.14089298 0.06073485 0.07021365 -0.029359106 -0.053800102 -0.11305139 0.22221252 -0.16437432 -0.18708257 0.11152242 -0.14380212 0.07946606 0.17115694 0.061882205 0.14923899 -0.016365182 -0.026139254 0.106128775 -0.08540953 -0.1624745 0.003086488 -0.0928668 -0.28104052 0.0013621649 0.025146887 -0.08510256 -0.11193402 -0.10885547 -0.17702733 0.0042097727 -0.1833092 -0.22501639 0.049034722 0.3389643 -0.05985232 0.19315746 0.18384756 -0.10200225 0.1353515 -0.02985244 -0.14439157 -0.05799956 0.17806396 -0.042340092 0.16937402 0.17156947 -0.14050865 -0.26044613 -0.16684164 -0.1420879 -0.1528608 -0.01676176 -0.05193886 0.07409984 0.05054162 0.089042835 -0.022189498 0.17976715 0.1990527 -0.11497676 0.20668417 -0.12430677 -0.031624522 0.033939626 -0.16374272 0.014031347 0.0039181975 0.040046927 0.09325184 -0.041327726 -0.14366707 -0.19816524 -0.056879587 0.10964782 -0.296641 -0.20730273 0.0059864596 0.03147428
link -0.016791444 -0.16802226 0.0364111 0.14411756 0.24371071 -0.087537035 0.3151977 -0.009175883 -0.030763628 0.3602693 -0.017628266 -0.08025087 -0.103065416 -0.19200617 0.27787828 0.36998972 -0.26165792 -0.25128034 -0.16078788 0.16430938 0.0052941735 0.13811769 -0.15510704 -0.5084762 -0.28773335 0.31135803 -0.13264428 0.032434195 0.081568666 -0.09209612 0.03743584 0.037148345 0.07201407 0.20816593 -0.17139329 0.28750145 0.15269071 -0.1755335 -0.06911839 0.009545362 -0.05548018 0.1515126 -0.084949106 -0.059746105 0.15032737 0.105858974 -0.3157974 -0.077477776 -0.046756867 -0.08800826 0.16638117 0.08655985 0.09536707 -0.048220564 -0.07710429 -0.17250273 0.2889246 -0.19970419 -0.21277013 0.15017596 -0.19698368 0.111792505 0.20061891 0.10256251 0.19796145 -0.035485707 -0.039014004 0.1319763 -0.11736698 -0.22707812 -0.0036447202 -0.13934019 -0.36971548 0.0019382056 0.053398993 -0.09966377 -0.15431154 -0.14341529 -0.2186776 -0.005122336 -0.2619816 -0.2975681 0.07381334 0.40948957 -0.045651853 0.22972675 0.21715657 -0.12246713 0.14201127 -0.04912945 -0.16825691 -0.06911396 0.23622227 -0.054471347 0.19154854 0.24322422 -0.19452104 -0.32867727 -0.20897536 -0.19511323 -0.19608209 -0.014047261 -0.06148382 0.09424644 0.07722305 0.1229498 -0.01731952 0.22267787 0.25542346 -0.11966826 0.23429 -0.15178339 -0.025020475 0.03758313 -0.2018127 0.0227932 0.004133449 0.051313657 0.11796804 -0.031122634 -0.19175452 -0.22210002 -0.06754363 0.14768532 -0.37318254 -0.25287005 0.008557359 0.043770403
thing 0.00034953858 -0.1639481 0.033032667 0.13721445 0.24909668 -0.113893144 0.3211073 -0.009216448 -0.04277924 0.37345207 -0.03289224 -0.070957094 -0.13054347 -0.19167411 0.30851632 0.36758816 -0.27891695 -0.24587332 -0.15705359 0.18499818 0.023291375 0.15221868 -0.18565686 -0.5154825 -0.2991478 0.30475202 -0.15054351 0.03931635 0.09792706 -0.12785548 0.026791872 0.02174569 0.06122541 0.23969251 -0.16511406 0.2748659 0.14001209 -0.19156107 -0.0613694 0.030223373 -0.07066631 0.15258199 -0.102604024 -0.04474475 0.1451884 0.09978188 -0.32937357 -0.07858188 -0.061150562 -0.06947503 0.18837523 0.07371056 0.099364094 -0.045165576 -0.07385558 -0.13611515 0.2849882 -0.21376224 -0.23659214 0.15163177 -0.20406206 0.10543723 0.22513112 0.092990406 0.21972966 -0.019912211 -0.032952823 0.12275635 -0.10769914 -0.2306197 0.011625118 -0.122469455 -0.37401962 -0.005338199 0.043103587 -0.12143293 -0.14542142 -0.15416439 -0.21524106 0.00914886 -0.2384845 -0.29495794 0.06300744 0.43573183 -0.08346394 0.24692906 0.2372819 -0.12755466 0.17120434 -0.037289485 -0.1798236 -0.078159235 0.24700889 -0.06237327 0.22139215 0.25050044 -0.19183409 -0.35067627 -0.21355663 -0.19418398 -0.21712264 -0.00845661 -0.08276144 0.103818156 0.056178913 0.110672764 -0.019071246 0.22052586 0.26014045 -0.14382142 0.26851866 -0.16496249 -0.033012502 0.038294513 -0.20777096 0.015852833 0.013326608 0.058401234 0.11212723 -0.05362888 -0.18981975 -0.25434643 -0.07715269 0.15379685 -0.403939 -0.27853397 0.0061877742 0.045323297
currently -0.0032144957 -0.13166809 0.022090241 0.11182065 0.21375005 -0.09380282 0.27253047 -0.013242061 -0.037034016 0.30021143 -0.01807287 -0.06779084 -0.1062391 -0.15702198 0.24123965 0.31456596 -0.23831666 -0.21011972 -0.14343487 0.14315131 0.0103101805 0.12273844 -0.1560493 -0.43432462 -0.24365929 0.24928574 -0.12273063 0.019080566 0.066834114 -0.11194179 0.02316172 0.008970069 0.044849765 0.19202219 -0.15072976 0.24121758 0.10430447 -0.15600295 -0.05734288 0.017568681 -0.051512443 0.1377824 -0.083311275 -0.035400424 0.11625397 0.09243794 -0.2894266 -0.059474044 -0.043328665 -0.05189858 0.15452701 0.05726983 0.07915744 -0.039187994 -0.06294649 -0.1242065 0.2342604 -0.19143476 -0.20371346 0.1330729 -0.16971299 0.09471294 0.17489389 0.077333674 0.18806046 -0.013583815 -0.033524998 0.113039926 -0.082120135 -0.19473334 0.004851851 -0.109363645 -0.30739018 -0.017855924 0.03593427 -0.10955378 -0.12722746 -0.12798579 -0.1979282 0.0024765418 -0.19607878 -0.24664949 0.061022688 0.35786676 -0.06467784 0.20058541 0.2055573 -0.09745288 0.13324691 -0.02764505 -0.15999445 -0.05621341 0.18999597 -0.052808423 0.18613836 0.2047872 -0.15311459 -0.28532127 -0.18147025 -0.16353668 -0.17609961 5.5969464e-05 -0.076472424 0.08281998 0.047041643 0.07596885 -0.019571492 0.18852195 0.22130474 -0.11610387 0.2393825 -0.13135816 -0.02608393 0.023837151 -0.16916996 0.008461801 0.013149336 0.05094371 0.10124802 -0.053555425 -0.15608378 -0.21564713 -0.06635041 0.12426205 -0.33588755 -0.23479375 0.004928954 0.040426377
bad -0.0119218845 -0.15767466 0.03013294 0.12947062 0.2267625 -0.09377712 0.28525555 0.00020626413 -0.041237917 0.33295166 -0.024623439 -0.06410508 -0.11979339 -0.16976221 0.27917093 0.33354452 -0.25384405 -0.21568869 -0.14908294 0.1661344 0.019470317 0.1381891 -0.16301714 -0.47716 -0.26547524 0.26496258 -0.13284047 0.035887428 0.08521576 -0.11134015 0.01315522 0.018980065 0.046011392 0.20553996 -0.14395857 0.2548891 0.11542263 -0.17727238 -0.047826774 0.021598255 -0.048214357 0.13335001 -0.09395267 -0.04313767 0.12652898 0.09817443 -0.30538416 -0.06563605 -0.051433597 -0.050637502 0.16953103 0.07581132 0.089929156 -0.035802364 -0.07999497 -0.1409044 0.26019257 -0.1998525 -0.20518105 0.13953644 -0.18273216 0.09937727 0.1993693 0.069696605 0.19512688 -0.022980953 -0.04378228 0.12771323 -0.0893752 -0.19507691 0.002488051 -0.110438205 -0.3301251 -0.012049624 0.040161107 -0.11176925 -0.14094236 -0.1240059 -0.20631202 0.020018697 -0.21690841 -0.25332382 0.058095876 0.39759496 -0.058051888 0.22193807 0.2175905 -0.11461433 0.14124301 -0.035110645 -0.15670556 -0.076873265 0.21751264 -0.051278047 0.1899276 0.21660568 -0.16925389 -0.3095555 -0.20366193 -0.18458813 -0.19588207 -0.019016052 -0.07930637 0.089552276 0.06682129 0.102840796 -0.014477639 0.20126149 0.24715953 -0.13268416 0.23650691 -0.14982852 -0.029847668 0.043777045 -0.18328649 0.028010337 0.011402847 0.052452754 0.110234424 -0.042471506 -0.1685117 -0.21432069 -0.07090758 0.1370987 -0.36311868 -0.25582457 0.0037890256 0.037797406
come 0.0050133104 -0.16303878 0.031262666 0.15277001 0.23833847 -0.103488564 0.30759147 -0.0011458581 -0.039981134 0.34830287 -0.038222462 -0.06404962 -0.12262811 -0.19670415 0.29478985 0.37590644 -0.29571408 -0.23403676 -0.16409598 0.17192326 0.030967385 0.15257281 -0.1770222 -0.52010894 -0.2793971 0.30881917 -0.14433807 0.02935415 0.09741843 -0.12586664 0.016431158 0.011075342 0.055369254 0.23542778 -0.16432755 0.278101 0.12613162 -0.18577199 -0.06173527 0.026112137 -0.0504607 0.15282167 -0.10334657 -0.055013847 0.13187025 0.10788449 -0.32505554 -0.07483953 -0.05896181 -0.059726745 0.18533084 0.0691696 0.094079256 -0.05167405 -0.08481211 -0.13946128 0.2860394 -0.20938395 -0.23850149 0.13823387 -0.19440342 0.11019992 0.22597569 0.095059164 0.2043433 -0.015155734 -0.035049748 0.1315255 -0.09832612 -0.22736323 0.0027261984 -0.12338787 -0.35881287 -0.0070624445 0.04066488 -0.113070264 -0.13957278 -0.14472 -0.2101735 0.009280785 -0.22650667 -0.29349634 0.07216878 0.42701283 -0.080566585 0.2476963 0.22923534 -0.11498312 0.15696053 -0.050307963 -0.1813702 -0.076234475 0.24580128 -0.06847008 0.21826449 0.24886483 -0.17903088 -0.32861808 -0.22759227 -0.1982224 -0.21410541 -0.016563471 -0.07697508 0.11244054 0.071699955 0.10042236 -0.017739227 0.22791743 0.27174494 -0.13688834 0.26182833 -0.16212 -0.027209956 0.036178913 -0.2055897 0.024153756 0.008148768 0.048253886 0.12178991 -0.053130563 -0.19558433 -0.24689928 -0.06907176 0.15364411 -0.38419843 -0.2689132 0.013911416 0.047139175
nutritionist -0.001449493 -0.1496347 0.014988834 0.11778794 0.21700199 -0.09617821 0.27506623 -0.010804604 -0.030751267 0.31757873 -0.031981416 -0.05406037 -0.10758958 -0.16229269 0.25602153 0.31951457 -0.24489266 -0.21389695 -0.13365594 0.15076363 0.015633218 0.13655551 -0.15500073 -0.44751474 -0.25329408 0.2615234 -0.124476105 0.022887487 0.0722249 -0.1146451 0.015273627 0.021432687 0.055804074 0.19663514 -0.15011153 0.2325437 0.111114755 -0.16615853 -0.05148409 0.030222902 -0.04819192 0.12386441 -0.09212653 -0.046929087 0.12462928 0.09961249 -0.29440576 -0.06854713 -0.039309368 -0.049520295 0.15762326 0.06734211 0.079236895 -0.044819232 -0.067162804 -0.12416042 0.25241783 -0.19411631 -0.19434185 0.13367052 -0.15925837 0.08556702 0.19338311 0.08197889 0.1828922 -0.021635082 -0.039909296 0.1090943 -0.08993655 -0.18781783 0.0054760375 -0.11235433 -0.31989235 -0.00026920796 0.021053383 -0.09453123 -0.13390225 -0.11492193 -0.19645214 0.007380314 -0.20405808 -0.25361407 0.057827145 0.37100032 -0.0710086 0.21158005 0.20621276 -0.10197334 0.13193586 -0.038874123 -0.15484034 -0.07259789 0.19629045 -0.045662344 0.18922696 0.20058013 -0.1446756 -0.28310254 -0.19118148 -0.16081369 -0.1871505 -0.011988971 -0.07489456 0.09090573 0.05907987 0.087843396 -0.007186983 0.18832642 0.22901672 -0.118856445 0.23538546 -0.1405875 -0.038608972 0.032450523 -0.16626762 0.012647651 0.0017392657 0.0518902 0.097283244 -0.04164236 -0.16296597 -0.19909436 -0.052090492 0.12532966 -0.33627322 -0.2433412 0.01301022 0.028025784
anything -0.0032240166 -0.16357657 0.028284477 0.14687005 0.22674406 -0.11468137 0.3071915 -0.005731956 -0.04099174 0.34493163 -0.033748332 -0.07414691 -0.11939071 -0.19214647 0.27404127 0.3475823 -0.27095187 -0.23463799 -0.15855853 0.16683456 0.031415626 0.1538769 -0.17141734 -0.49655053 -0.27429196 0.29076877 -0.1478148 0.03138256 0.08369037 -0.11328092 0.027838739 0.014743325 0.056762397 0.2188302 -0.15412953 0.24989794 0.13284187 -0.17399497 -0.06311393 0.029138273 -0.05805792 0.13542359 -0.10478961 -0.044747934 0.1216877 0.091692746 -0.3115386 -0.08073023 -0.05149691 -0.06955293 0.17235336 0.08251836 0.09231199 -0.046002716 -0.07348141 -0.14070567 0.27276865 -0.20092915 -0.22911507 0.13266101 -0.1918136 0.10012173 0.20675837 0.08562489 0.19196647 -0.017471401 -0.04403058 0.11817446 -0.092977166 -0.21531142 0.0026897606 -0.116717026 -0.3370196 -0.011564124 0.030116787 -0.1021678 -0.13625583 -0.13695726 -0.20256434 0.015115554 -0.2131846 -0.2736206 0.06715119 0.40856224 -0.06013259 0.21851437 0.23381922 -0.118621856 0.14725415 -0.047144886 -0.1631297 -0.076875776 0.22610171 -0.051082287 0.20529093 0.2155168 -0.17628166 -0.32732573 -0.20270267 -0.18630676 -0.20439442 -0.010091628 -0.08133053 0.1020171 0.06361424 0.10428155 -0.010695082 0.21421291 0.2534513 -0.14930965 0.24937455 -0.1560856 -0.0378251 0.045737293 -0.19325608 0.020055236 -0.0022426373 0.05540559 0.11520518 -0.048975565 -0.17907177 -0.2300921 -0.067240365 0.13821265 -0.37162384 -0.25664482 0.015549637 0.029709421
stanford -0.009945619 -0.17996408 0.027538668 0.15161002 0.27246842 -0.107789926 0.3383105 -0.01951982 -0.05344257 0.40668285 -0.035475492 -0.08761892 -0.14533675 -0.22662152 0.32595727 0.40830556 -0.32829 -0.2694807 -0.18780033 0.18637426 0.026614651 0.15607834 -0.1962358 -0.56660974 -0.3163217 0.3477407 -0.17275545 0.028536122 0.1039666 -0.14084092 0.02482211 0.020190448 0.0750641 0.25990435 -0.17797317 0.30986616 0.14582165 -0.20361681 -0.06883677 0.024782576 -0.05075617 0.16988273 -0.112392515 -0.06250008 0.16485491 0.12933224 -0.3635916 -0.08141632 -0.058189265 -0.06905232 0.20609252 0.08256045 0.09838543 -0.038102176 -0.100070335 -0.16724558 0.31462684 -0.23977241 -0.2591069 0.16343334 -0.21751279 0.105769515 0.23974128 0.09112185 0.24807088 -0.036728702 -0.038944446 0.13008441 -0.121759474 -0.26710498 0.007538692 -0.14710456 -0.40526816 -0.004000021 0.044149544 -0.12864207 -0.15903363 -0.16934954 -0.247771 -0.0014626826 -0.27365842 -0.3212175 0.071529664 0.48389664 -0.090735406 0.25669962 0.25523278 -0.1301874 0.18422179 -0.048224192 -0.20582792 -0.074817255 0.25811568 -0.0626564 0.24070233 0.2608099 -0.1977043 -0.38740557 -0.25318754 -0.2159203 -0.23239371 -0.015179876 -0.087027535 0.12775862 0.08214397 0.1272635 -0.01247965 0.2469758 0.3049271 -0.15474339 0.28356013 -0.1758711 -0.036441695 0.03996662 -0.21474051 0.029057754 0.008314164 0.06935829 0.117439896 -0.054256413 -0.20157287 -0.26389873 -0.07523142 0.16821547 -0.43901354 -0.28885373 0.024300346 0.034223057
episode -0.011091294 -0.1448729 0.02866218 0.13227677 0.22218889 -0.09595558 0.29074478 -0.0028644875 -0.033720385 0.32976493 -0.02294953 -0.059477262 -0.11064393 -0.17753041 0.2585365 0.33872056 -0.25634548 -0.22341461 -0.13937682 0.16573599 0.018907005 0.14194137 -0.16748822 -0.4742822 -0.26781225 0.26886356 -0.13612698 0.019081028 0.08860131 -0.109647796 0.019788202 0.019284638 0.05614502 0.20944394 -0.14466245 0.25440425 0.12540685 -0.16097845 -0.061226662 0.026628612 -0.051295865 0.1469138 -0.08304959 -0.03393878 0.12813306 0.102404654 -0.31049797 -0.075495906 -0.050166365 -0.06302734 0.17230673 0.075582154 0.08694177 -0.04217568 -0.06507174 -0.121889055 0.25191656 -0.19683346 -0.21170786 0.13832368 -0.18571916 0.101561494 0.19967315 0.08638307 0.19112991 -0.021477977 -0.031685594 0.10763086 -0.10071801 -0.19654976 -0.0012405483 -0.11493342 -0.33679226 0.00085251837 0.041073877 -0.10269216 -0.1424039 -0.127644 -0.21063386 0.013170696 -0.21117078 -0.25429112 0.059312686 0.39460894 -0.05745271 0.21197504 0.2129876 -0.102671534 0.14075238 -0.040319458 -0.1593516 -0.07495165 0.21600685 -0.063545235 0.20119098 0.21591872 -0.16790766 -0.304537 -0.19264144 -0.18421914 -0.19153997 -0.007869683 -0.0686573 0.10174495 0.052479424 0.10011098 -0.022928879 0.19349368 0.23264705 -0.13603124 0.24539694 -0.14930886 -0.023509445 0.032430794 -0.18927693 0.009847529 -0.0010842378 0.04911541 0.10257835 -0.04975094 -0.16892384 -0.22467642 -0.06327559 0.13978687 -0.35849795 -0.25431725 0.019591883 0.034653906
hurt 0.0038521502 -0.19048901 0.031019138 0.1717218 0.29433534 -0.13272788 0.38779142 -0.011623966 -0.045500822 0.43338275 -0.046219353 -0.082487494 -0.14260964 -0.24310431 0.3698669 0.43186197 -0.34216225 -0.30232504 -0.21085185 0.21508323 0.025857117 0.17943369 -0.21323833 -0.6255958 -0.35541043 0.37271485 -0.18599486 0.04291877 0.11217572 -0.15897566 0.031869728 0.020850502 0.06820687 0.276555 -0.19179948 0.3374024 0.16930409 -0.2307699 -0.0704379 0.028843803 -0.070133954 0.18430696 -0.12816769 -0.067518085 0.168913 0.1231549 -0.42146 -0.09324929 -0.06583115 -0.08381043 0.2301978 0.09717353 0.1156233 -0.05643626 -0.09459741 -0.18389085 0.3367188 -0.26805127 -0.28175014 0.19247015 -0.246168 0.11849909 0.2620617 0.100176044 0.26741815 -0.022570997 -0.041489623 0.14808767 -0.11474007 -0.2772103 -0.0009112793 -0.14802505 -0.43763548 -0.012225913 0.043246597 -0.13956042 -0.16683102 -0.16949126 -0.27207667 0.02724511 -0.28256264 -0.34300756 0.080415696 0.52863926 -0.09709173 0.30103847 0.29786074 -0.14333361 0.19946928 -0.056149386 -0.21328744 -0.08753945 0.29808444 -0.07987775 0.25647682 0.28411078 -0.21610478 -0.41563487 -0.27342936 -0.23676488 -0.26288757 -0.027566843 -0.09916176 0.1375551 0.084541745 0.12994437 -0.024948953 0.2693599 0.32114875 -0.18081047 0.33599776 -0.19155036 -0.042489797 0.043140687 -0.25232774 0.025169548 0.0110122375 0.074251644 0.13612719 -0.06586288 -0.24017194 -0.29911757 -0.085640475 0.18107574 -0.48539028 -0.3393214 0.012212179 0.04574446
always 0.005773304 -0.17035681 0.018768672 0.17198206 0.27086672 -0.117146134 0.3472825 -0.019417102 -0.043363925 0.3964293 -0.02977586 -0.084328905 -0.1231688 -0.22130057 0.32674035 0.39884824 -0.3113247 -0.2683415 -0.17681187 0.18106815 0.033256624 0.18035036 -0.18527602 -0.5698711 -0.32828447 0.3377788 -0.15490185 0.037666533 0.087994866 -0.14551328 0.01780589 0.014098235 0.056652922 0.25177464 -0.17260109 0.29735804 0.1417722 -0.21199547 -0.061331943 0.032430947 -0.060730886 0.16884261 -0.11225429 -0.053104162 0.15634245 0.11326323 -0.37407488 -0.082737125 -0.05068972 -0.059813008 0.1917552 0.09253397 0.106451586 -0.041986875 -0.08607257 -0.1637453 0.3189127 -0.23768628 -0.2699347 0.16333066 -0.20754175 0.11370938 0.23407274 0.10050291 0.23261173 -0.029804789 -0.030596755 0.14848536 -0.10930976 -0.2439472 -0.0036871599 -0.1397824 -0.39668173 -0.011897107 0.036043048 -0.124695465 -0.15290776 -0.16032465 -0.22910203 0.024136337 -0.24486704 -0.31100297 0.07858931 0.47199062 -0.072854295 0.27022505 0.26527497 -0.14296803 0.17139144 -0.04626161 -0.19840851 -0.07711785 0.26850596 -0.07260943 0.22566946 0.26189575 -0.2024105 -0.37088928 -0.23870637 -0.22358477 -0.2245735 -0.019030195 -0.09255583 0.13384251 0.06661199 0.101682894 -0.02292078 0.23572521 0.28781733 -0.16965842 0.28907913 -0.17446914 -0.03325045 0.037197873 -0.22434166 0.01072864 0.012186438 0.04773275 0.12356274 -0.07312375 -0.21377386 -0.2598765 -0.07223512 0.14893572 -0.41811174 -0.293449 0.023504864 0.03956569
find 0.0033714557 -0.12392448 0.01738389 0.10272745 0.19192973 -0.080456145 0.23918636 0.00217999 -0.030383205 0.27310175 -0.03265966 -0.055218205 -0.09022784 -0.14457443 0.2218218 0.2797616 -0.20706193 -0.18130764 -0.12822461 0.13222459 0.008102366 0.10695027 -0.14424354 -0.39411464 -0.217173 0.2218592 -0.10743241 0.014835792 0.064864844 -0.089182176 0.008324903 0.0016513207 0.03865511 0.18324114 -0.12417699 0.20722099 0.09338929 -0.14910315 -0.047566153 0.018871538 -0.04320187 0.11837652 -0.07514315 -0.02897221 0.10971822 0.07803229 -0.25137687 -0.062206402 -0.04502097 -0.039397746 0.15088814 0.054937564 0.078973636 -0.0319078 -0.061571185 -0.1058916 0.2160698 -0.16251765 -0.18459235 0.120403446 -0.15076882 0.06963599 0.1549948 0.057963874 0.15021576 -0.020417439 -0.024875753 0.10643783 -0.07889078 -0.16940093 0.0059786956 -0.10262743 -0.2807531 -0.0041162996 0.029451102 -0.09742384 -0.112756826 -0.10211932 -0.16995579 -0.0007521242 -0.1797921 -0.21542448 0.049698133 0.31929606 -0.054670505 0.19025084 0.18564509 -0.08946253 0.118540674 -0.032743473 -0.14423957 -0.059719555 0.17686118 -0.043539196 0.15503038 0.18107353 -0.13815802 -0.26183328 -0.17002189 -0.13810475 -0.15752596 -0.013717697 -0.062123556 0.07663434 0.04320293 0.0793944 -0.008385393 0.17240407 0.1940378 -0.12186642 0.20095788 -0.11813977 -0.025871104 0.028512508 -0.15730679 0.008802181 0.005815338 0.03378417 0.091907635 -0.034659535 -0.14181134 -0.18402234 -0.055751495 0.11115372 -0.29042217 -0.20450033 0.011221935 0.029921472
think 0.0006611457 -0.17589636 0.028444551 0.15895408 0.26431298 -0.10971276 0.33988357 -0.01900306 -0.04760756 0.36809686 -0.039840374 -0.083036676 -0.13786887 -0.20545015 0.3115092 0.37741908 -0.30354407 -0.25075603 -0.16862087 0.18642472 0.028014049 0.16649494 -0.1818015 -0.53542936 -0.30925807 0.31726563 -0.15073644 0.040174503 0.088143766 -0.13294809 0.014840842 0.015995217 0.069731295 0.23614016 -0.17475736 0.27906504 0.13000992 -0.18634176 -0.067418836 0.025315253 -0.06793775 0.1573807 -0.113415614 -0.043067362 0.1492419 0.11571097 -0.34275064 -0.07865381 -0.065261155 -0.056214496 0.1887162 0.08780174 0.11098511 -0.045152623 -0.09002648 -0.15221688 0.3006279 -0.23177378 -0.24300942 0.1478888 -0.1961865 0.10616901 0.23587108 0.08420149 0.21261251 -0.03398143 -0.04469156 0.14007317 -0.10565145 -0.22426455 0.008510313 -0.13194546 -0.37845802 -0.0020661107 0.036860563 -0.11200412 -0.16350949 -0.1489349 -0.23073879 0.016144192 -0.23423411 -0.30112472 0.066724025 0.45574948 -0.07751543 0.24605209 0.25310013 -0.13376433 0.17695655 -0.044913415 -0.18495391 -0.0772938 0.24456884 -0.06314558 0.22357865 0.25205243 -0.18815652 -0.35632396 -0.238622 -0.2135969 -0.22388531 -0.018332187 -0.08296404 0.10908034 0.056903988 0.10824437 -0.012660458 0.23337469 0.26862812 -0.1510677 0.2818355 -0.17241135 -0.034638226 0.04017396 -0.2163233 0.010067625 0.016435735 0.06383912 0.11778475 -0.049254853 -0.20261739 -0.24629831 -0.07194005 0.15924399 -0.40751958 -0.2935102 0.011139861 0.049798932
really -0.010503601 -0.12010182 0.022444844 0.10899468 0.18878342 -0.084107175 0.24778555 -0.0025100359 -0.03719154 0.27369702 -0.02349812 -0.057542935 -0.08898486 -0.15522128 0.23212796 0.27449545 -0.22026269 -0.19585313 -0.12279475 0.1362353 0.024481395 0.11485294 -0.14156494 -0.40603137 -0.2160889 0.23706333 -0.10728658 0.024021074 0.06590637 -0.09150004 0.010947793 0.011116307 0.038391348 0.1836498 -0.13357691 0.20577702 0.09849254 -0.1409362 -0.044474 0.011760806 -0.050207786 0.12416446 -0.0782721 -0.038468245 0.10567846 0.07721888 -0.26699728 -0.06196847 -0.03237114 -0.05887231 0.14117351 0.059291188 0.07498297 -0.031563215 -0.06350449 -0.110533096 0.22017954 -0.17307262 -0.18757932 0.12525915 -0.15225188 0.08454407 0.16981947 0.0774057 0.16034153 -0.0065980954 -0.029614948 0.102696106 -0.073099166 -0.16575383 0.005835562 -0.094870985 -0.2788198 0.0014258408 0.022246193 -0.08862641 -0.10353468 -0.12171435 -0.16472289 0.019917829 -0.18378597 -0.22832431 0.047340985 0.33514848 -0.06709703 0.19347131 0.18410145 -0.097085476 0.119355895 -0.038835775 -0.13245168 -0.06444247 0.18023951 -0.042438462 0.16256201 0.19476624 -0.13680394 -0.26637077 -0.17804359 -0.15513133 -0.17061108 -0.013711698 -0.06117615 0.08384008 0.04208287 0.08008688 -0.01600962 0.16788048 0.2014262 -0.102768436 0.2138389 -0.1316642 -0.022443818 0.031175792 -0.1558129 0.013934642 0.015333718 0.045054056 0.088668294 -0.03705888 -0.1407206 -0.1892656 -0.045564827 0.11228858 -0.31001964 -0.22264497 0.0052033784 0.02657117
actually -0.0037266836 -0.16220301 0.026320506 0.14397387 0.22266935 -0.11331318 0.29817438 -0.012910768 -0.029215211 0.34622917 -0.027956957 -0.07506571 -0.123117305 -0.18133985 0.28922692 0.35409257 -0.2647629 -0.23648722 -0.14768572 0.16164072 0.0146325305 0.15330072 -0.17108946 -0.5072442 -0.28099254 0.29182515 -0.14375953 0.032441176 0.08664641 -0.11512787 0.023184685 0.0024966453 0.05073384 0.22977737 -0.15629518 0.25430897 0.1352525 -0.17121789 -0.04633306 0.021452852 -0.06647721 0.14305846 -0.089207046 -0.053303625 0.13931699 0.09163366 -0.32377163 -0.080223955 -0.04483684 -0.06897944 0.18772738 0.06285083 0.095846266 -0.03774316 -0.074262515 -0.13183 0.27616835 -0.20348926 -0.21725237 0.14966889 -0.18521227 0.106831476 0.2067769 0.07183656 0.1975298 -0.02059103 -0.040710226 0.11829741 -0.09197407 -0.21687043 0.007471674 -0.11756542 -0.35204527 -0.006596023 0.041135162 -0.12301401 -0.1306863 -0.12883987 -0.21615833 0.0072250175 -0.23205663 -0.28026116 0.06834352 0.4184492 -0.0641489 0.22686353 0.22710694 -0.11540359 0.1494795 -0.047092408 -0.1660839 -0.08041725 0.22079232 -0.06338118 0.20727354 0.22037342 -0.16485181 -0.3216898 -0.21831128 -0.19023314 -0.20198235 -0.014962496 -0.06822268 0.1097661 0.066315874 0.09246282 -0.019855475 0.21467538 0.25003263 -0.14554074 0.2616672 -0.14132403 -0.03153376 0.039304957 -0.18897878 0.019356733 0.012686447 0.05093534 0.10122268 -0.051592596 -0.18887201 -0.22291276 -0.07371498 0.13919725 -0.3755055 -0.25704297 0.016252158 0.026833853
tell 0.002105508 -0.13307363 0.02269553 0.119921446 0.19523449 -0.08004957 0.24066524 -0.007662882 -0.027728787 0.28558582 -0.02771137 -0.051252224 -0.10335096 -0.16233312 0.22626998 0.2828742 -0.21115333 -0.19419877 -0.12975366 0.14276244 0.013096448 0.12189393 -0.13466613 -0.41415957 -0.22723556 0.2292521 -0.11162019 0.019446518 0.06446052 -0.08738452 0.012055369 0.020552522 0.036736593 0.18695994 -0.13531893 0.20562367 0.105009176 -0.1480108 -0.045318585 0.018126747 -0.052112706 0.116657734 -0.08133481 -0.028440043 0.112227865 0.0831283 -0.26291144 -0.05351296 -0.049625993 -0.04842987 0.14859466 0.057703294 0.072784185 -0.04168681 -0.06889792 -0.106079556 0.22820354 -0.17097537 -0.17572798 0.10952437 -0.15111206 0.08012275 0.16566336 0.0586757 0.16932918 -0.020110495 -0.037291244 0.10814328 -0.08664052 -0.177974 0.0028584653 -0.10364439 -0.29656786 -0.010074305 0.017844046 -0.09215458 -0.11884429 -0.11251002 -0.1712952 0.008781297 -0.16982827 -0.21806297 0.05471371 0.33790895 -0.056352746 0.19622986 0.19530946 -0.09635609 0.12483431 -0.034454264 -0.1415146 -0.068732895 0.18002203 -0.05732902 0.17027695 0.18474394 -0.13531807 -0.2651606 -0.17070706 -0.16087538 -0.15440638 -0.008710071 -0.0614276 0.08605765 0.052499834 0.082793914 -0.011416556 0.16712359 0.206822 -0.11578745 0.20215301 -0.12223051 -0.021364681 0.030497532 -0.15272298 0.015931785 0.0062288353 0.05057704 0.080847986 -0.049445964 -0.14483653 -0.19688283 -0.04462492 0.12033081 -0.31245843 -0.20436436 0.014758726 0.02403599
week -0.0030686846 -0.15605985 0.03251104 0.13593522 0.23426768 -0.11506941 0.29919994 0.00069724733 -0.035943456 0.3440978 -0.034366295 -0.06458878 -0.12388459 -0.1921665 0.2861302 0.3530279 -0.27971613 -0.23685195 -0.15923391 0.18110605 0.027143126 0.13869965 -0.1656836 -0.51293206 -0.2845998 0.2994327 -0.15246062 0.025419066 0.09410405 -0.1287797 0.01310204 0.025311472 0.0533828 0.22012065 -0.14846948 0.2720228 0.13799119 -0.1708474 -0.06446578 0.02670012 -0.056631986 0.1541945 -0.0944179 -0.045660403 0.1396488 0.109527834 -0.32941952 -0.07990395 -0.052027892 -0.06014224 0.17975707 0.08049516 0.10208187 -0.033769123 -0.07129589 -0.13143593 0.27839455 -0.20407578 -0.22476344 0.13877907 -0.19375534 0.09657962 0.21657333 0.08539726 0.2014814 -0.014287681 -0.026306132 0.1260838 -0.10775291 -0.22103332 0.00018264099 -0.13449591 -0.35907057 -0.009698054 0.035820298 -0.11055932 -0.14383212 -0.14837791 -0.21616733 0.006514915 -0.22412202 -0.28259343 0.07246944 0.4246694 -0.06891442 0.23091955 0.23199509 -0.11099621 0.16115658 -0.043103687 -0.18182963 -0.0745432 0.22947372 -0.058815595 0.20573327 0.23910242 -0.17632638 -0.32200053 -0.20518644 -0.19796534 -0.21584558 -0.006071542 -0.066724546 0.10787052 0.07139765 0.099166445 -0.008782264 0.20933929 0.24730928 -0.14929472 0.25961247 -0.1487361 -0.034304015 0.026816424 -0.19014181 0.01521944 0.01234748 0.05046894 0.11546214 -0.046560492 -0.18659304 -0.24048334 -0.06364671 0.13207036 -0.38431752 -0.26969904 0.018291086 0.03531256
please -0.010933269 -0.1501606 0.018329099 0.1520387 0.24679433 -0.10463879 0.31838727 -0.003483342 -0.034110878 0.36026192 -0.022847846 -0.07952101 -0.1352797 -0.19492045 0.2825817 0.36267015 -0.29054433 -0.23853038 -0.16145122 0.17427017 0.03139581 0.15031892 -0.16634946 -0.5207147 -0.28622082 0.3013084 -0.1527385 0.031415984 0.09712345 -0.1319124 0.014858331 0.008710404 0.061397675 0.23424405 -0.15994297 0.27736515 0.14081517 -0.18226855 -0.06721449 0.020574898 -0.04895477 0.14698818 -0.095525205 -0.054813102 0.14082015 0.11293123 -0.3250842 -0.08322457 -0.051408935 -0.067210816 0.19053175 0.08544188 0.08914148 -0.046661325 -0.07907112 -0.14995852 0.27719653 -0.21686538 -0.24093267 0.13655418 -0.20046623 0.103769995 0.21086341 0.07879759 0.20877244 -0.027686825 -0.045714144 0.13715164 -0.107104816 -0.23178203 -0.0056463 -0.13174562 -0.37203455 -0.014252504 0.030669192 -0.11697933 -0.13604255 -0.14162734 -0.20926401 0.007020257 -0.21823701 -0.2819431 0.057649735 0.43114454 -0.065654345 0.22657837 0.2324211 -0.12233985 0.16774522 -0.045551118 -0.17257084 -0.073121846 0.23876466 -0.06875826 0.21363974 0.22957906 -0.17547226 -0.34263027 -0.22105722 -0.19410671 -0.2050317 -0.022809079 -0.07351274 0.1035263 0.07317493 0.09301455 -0.01606824 0.22717367 0.25463912 -0.14829649 0.2767699 -0.163904 -0.03915615 0.03645037 -0.20002873 0.016301759 0.002375454 0.04346991 0.11674993 -0.044821486 -0.19319293 -0.23267248 -0.0686136 0.14272833 -0.38658798 -0.27788562 0.005175292 0.029975954
diagnose -0.010509517 -0.15065493 0.025429472 0.14017336 0.22891794 -0.11327556 0.29685536 -0.0075855255 -0.036792673 0.33782357 -0.032308944 -0.065399386 -0.11584029 -0.17192979 0.26414883 0.346789 -0.26374775 -0.2247453 -0.15697482 0.15170452 0.010127542 0.1321993 -0.16542292 -0.48967573 -0.2615252 0.26939917 -0.14668213 0.033097263 0.07538083 -0.114626214 0.027003182 0.017775057 0.06332663 0.21822555 -0.15745427 0.25568032 0.13097739 -0.17656407 -0.061487224 0.017293135 -0.055343386 0.14055985 -0.08028716 -0.051972903 0.13224584 0.10235771 -0.31489882 -0.07881319 -0.045780774 -0.054446638 0.16839784 0.07495384 0.102764964 -0.031716876 -0.06967219 -0.13688782 0.2680719 -0.18958633 -0.21383132 0.1440085 -0.18761297 0.0962633 0.20644341 0.08140889 0.18841463 -0.02132282 -0.026987249 0.1104965 -0.09436058 -0.20310813 0.0034812775 -0.12338468 -0.34956658 -0.0005300548 0.03334174 -0.12076958 -0.1280509 -0.1400793 -0.21418785 0.009707939 -0.21680155 -0.2642826 0.06707804 0.4060839 -0.07643248 0.22912037 0.22630718 -0.115857325 0.15309295 -0.03276196 -0.1608558 -0.067994796 0.21068995 -0.06799001 0.20461091 0.21084662 -0.16821119 -0.3155017 -0.20624071 -0.17390634 -0.20178126 -0.01839874 -0.0783078 0.08801629 0.06717481 0.10306251 -0.009471666 0.21020624 0.23502189 -0.12811156 0.24536577 -0.14033073 -0.021515511 0.04075755 -0.18185921 0.0060751755 0.0028538646 0.050489444 0.09992008 -0.050431002 -0.17541 -0.22653084 -0.073581375 0.12777539 -0.36556965 -0.2601148 0.018920602 0.028536025
ereatingstudy -0.011523377 -0.13576825 0.02828744 0.12812799 0.22113319 -0.09142618 0.28154576 -0.013882415 -0.04355598 0.3397019 -0.034811508 -0.07722735 -0.12829044 -0.18042992 0.2627159 0.35168982 -0.27081984 -0.22710584 -0.15378399 0.16038556 0.028898172 0.13321133 -0.15431622 -0.47960404 -0.26313287 0.2811419 -0.14967887 0.020334745 0.08583827 -0.11559525 0.022103356 0.014985866 0.062306132 0.20974688 -0.15735376 0.2581512 0.1181571 -0.16541225 -0.045326397 0.018810082 -0.05678696 0.1513942 -0.090659015 -0.056579754 0.13587329 0.104331784 -0.3144935 -0.0697423 -0.050926734 -0.063316524 0.15893462 0.07644231 0.07195547 -0.042766467 -0.087909974 -0.14365573 0.2753896 -0.18472452 -0.20705096 0.13501684 -0.17523329 0.0874267 0.20184292 0.07594155 0.2041412 -0.038102217 -0.028245727 0.117245324 -0.10452296 -0.22590043 -0.009123456 -0.117713116 -0.34313902 -0.0035898094 0.025539145 -0.11270115 -0.12682843 -0.13459164 -0.19464582 0.011149252 -0.23436573 -0.2759437 0.05606843 0.40782923 -0.069984816 0.22122426 0.21725844 -0.10262016 0.14001109 -0.050591636 -0.17726094 -0.07675689 0.21395288 -0.06548662 0.1995768 0.23081852 -0.1580929 -0.31396732 -0.20857309 -0.1671193 -0.1821988 -0.023315001 -0.073703624 0.10196896 0.074170955 0.10313272 -0.0024437879 0.210733 0.24199536 -0.122434445 0.24018514 -0.13830864 -0.03997455 0.02529041 -0.17612194 0.020819493 0.008176303 0.05458931 0.11118261 -0.046529066 -0.17378114 -0.21580277 -0.07044138 0.146103 -0.3654482 -0.25475764 0.017206928 0.030245809
read -0.009484173 -0.1235144 0.021116171 0.11177727 0.19048353 -0.08667828 0.252027 -0.0014582808 -0.01662888 0.27227178 -0.036943745 -0.06346398 -0.09898526 -0.1554328 0.2366106 0.29913622 -0.21729669 -0.19977455 -0.13484934 0.1425886 0.0093800165 0.1173099 -0.14909998 -0.4085619 -0.22527622 0.22418551 -0.11106756 0.016456183 0.066046596 -0.104762204 0.012320016 0.0016848255 0.038618565 0.18020085 -0.13061313 0.21501152 0.094066106 -0.15544844 -0.03981271 0.011957034 -0.036318067 0.12793854 -0.07628887 -0.037803434 0.09985054 0.083380476 -0.26100537 -0.068951376 -0.041312136 -0.040443666 0.14804748 0.05877909 0.08586888 -0.037244905 -0.07254845 -0.10569673 0.21913798 -0.1641535 -0.18477765 0.11283671 -0.14720541 0.07139388 0.17540333 0.06339973 0.15511136 -0.018331524 -0.032764737 0.102332816 -0.08015793 -0.17928633 0.0030832724 -0.10904855 -0.27417958 -0.016888583 0.036870416 -0.092496775 -0.12440312 -0.10783639 -0.1816617 0.014462595 -0.17828764 -0.21346438 0.050049294 0.3363266 -0.05752252 0.19586676 0.17579608 -0.09737815 0.12375968 -0.037201013 -0.13913 -0.069313005 0.18446912 -0.05914978 0.16939513 0.19692102 -0.12878795 -0.26026693 -0.17677647 -0.15928388 -0.17057227 -0.0029152355 -0.066885136 0.07211448 0.055836882 0.094513096 -0.004330398 0.16654757 0.19833852 -0.1212296 0.20146953 -0.11103587 -0.026290458 0.026846891 -0.169168 0.008400664 -0.0065050363 0.038073745 0.08923789 -0.04504005 -0.15314913 -0.19934015 -0.051533584 0.1235555 -0.29184297 -0.21261434 0.00012660927 0.02866544
vomit -0.0053914706 -0.13427913 0.014004236 0.12115707 0.20291518 -0.08614335 0.27102742 -0.009676547 -0.035059504 0.30424052 -0.03597099 -0.060949083 -0.10191068 -0.17036635 0.2601798 0.31087378 -0.24256893 -0.20699564 -0.13509856 0.13833071 0.032441728 0.12886837 -0.15143274 -0.43258783 -0.25840393 0.26436687 -0.11900413 0.039525867 0.07638712 -0.11030085 0.010173399 0.008880916 0.04900095 0.19062087 -0.13397363 0.23314053 0.10259161 -0.15064086 -0.052836936 0.007650581 -0.05043219 0.1326548 -0.08606211 -0.036465913 0.10607831 0.08121696 -0.269642 -0.049557094 -0.040712837 -0.041448884 0.14360528 0.07269221 0.08896772 -0.02703683 -0.065012835 -0.12594035 0.23423736 -0.17182726 -0.20666368 0.11699895 -0.16535468 0.08483968 0.18239057 0.06388235 0.18943079 -0.012373594 -0.021198537 0.10973278 -0.08363106 -0.1756347 -0.0052829767 -0.095107354 -0.30361563 0.00090186764 0.028112402 -0.09634062 -0.13153991 -0.11802134 -0.17164084 0.012361517 -0.19833227 -0.24119669 0.061847735 0.36964744 -0.048385285 0.20659012 0.18931928 -0.10037682 0.12483318 -0.03765824 -0.14096642 -0.06856449 0.20691945 -0.0563375 0.17861283 0.20142448 -0.14980201 -0.28199217 -0.18124487 -0.15602922 -0.16576657 -0.017769612 -0.063448034 0.10442714 0.06236244 0.07395459 -0.019642266 0.18467124 0.22903861 -0.12545419 0.22639096 -0.12580627 -0.030586282 0.026593804 -0.16525301 0.017883241 0.01043207 0.047463626 0.10047144 -0.060185935 -0.16587712 -0.20026405 -0.0576905 0.12744911 -0.33636287 -0.23588106 0.006767505 0.034123547
use -0.0030301623 -0.12670672 0.019153347 0.1282558 0.19268332 -0.080705166 0.2441445 -0.00057605916 -0.021117626 0.29087818 -0.030947166 -0.055181198 -0.08500009 -0.15662332 0.23807049 0.28716218 -0.22998586 -0.18940116 -0.13301188 0.13237527 0.01415617 0.114637144 -0.1432822 -0.40419886 -0.23564541 0.23673178 -0.11332958 0.030855397 0.06347199 -0.10020621 0.008509788 0.016284417 0.033905447 0.19322133 -0.13107559 0.21060367 0.09739329 -0.15137792 -0.057797447 0.02253129 -0.05090536 0.12788837 -0.07343749 -0.027350247 0.098187715 0.07572759 -0.2635499 -0.05535468 -0.043159142 -0.040260013 0.1415161 0.05458181 0.078528546 -0.029074408 -0.061718196 -0.11476451 0.23178907 -0.17161335 -0.1824848 0.12451326 -0.1654527 0.08844905 0.16949344 0.060615093 0.15810932 -0.016386813 -0.03251609 0.111524895 -0.068596184 -0.16803528 0.0028920625 -0.10056807 -0.29848373 0.004781234 0.035088252 -0.100820094 -0.120087534 -0.10991181 -0.17365758 0.008475932 -0.18164107 -0.23669125 0.059195668 0.34819302 -0.054755036 0.19881193 0.19530281 -0.10531205 0.1318564 -0.03579023 -0.14529642 -0.05495566 0.18555188 -0.051616102 0.1640444 0.1916323 -0.14841634 -0.26767668 -0.17797376 -0.15180841 -0.16762994 -0.004657829 -0.054714847 0.08841545 0.055636324 0.08054974 -0.016307574 0.18315968 0.21367317 -0.12592678 0.22324304 -0.12135043 -0.021908935 0.02532144 -0.15969943 0.0033603462 0.007326904 0.033077866 0.0972957 -0.055262726 -0.15422994 -0.19975708 -0.05389497 0.11042795 -0.3104068 -0.221561 0.004855155 0.036358755
someone 0.0025363236 -0.10661909 0.021545034 0.11683796 0.17326035 -0.094497286 0.22313893 -0.0117005175 -0.019915357 0.26340577 -0.034232467 -0.048399724 -0.089134395 -0.1272913 0.20663336 0.27413553 -0.20682009 -0.17614616 -0.118711546 0.1281979 0.019242287 0.10791449 -0.12729192 -0.38005745 -0.21843661 0.21020465 -0.09986833 0.010968483 0.07407174 -0.092416145 0.0240724 0.003362806 0.037208367 0.15976249 -0.11050861 0.19324717 0.09670371 -0.1429216 -0.035787016 0.020754643 -0.051269356 0.11644045 -0.074612044 -0.040862475 0.08896906 0.08163628 -0.24301593 -0.060810257 -0.03056003 -0.04756651 0.14162719 0.061436847 0.066005796 -0.021498319 -0.06309482 -0.10689837 0.21453275 -0.14781192 -0.16318907 0.116648145 -0.14414646 0.08015751 0.15936452 0.061058316 0.1577352 -0.007922731 -0.028321428 0.091117166 -0.06734811 -0.15264438 0.005649961 -0.0895716 -0.27606028 -0.0024953398 0.018858572 -0.09853796 -0.08806462 -0.09408655 -0.16952583 0.01820745 -0.18435031 -0.21102807 0.045327384 0.32227954 -0.052729998 0.17479317 0.17018317 -0.09382615 0.11881749 -0.039364737 -0.12086934 -0.062180035 0.16939633 -0.0527837 0.1457015 0.1681701 -0.13117164 -0.23736757 -0.14959283 -0.14582725 -0.15163541 -0.00045559238 -0.0485151 0.08084748 0.049005106 0.081035376 -0.002679539 0.15773404 0.18470307 -0.10278575 0.19402862 -0.10066495 -0.01590583 0.020352025 -0.13943341 0.0036860523 -0.0037031954 0.034717124 0.08630042 -0.02778314 -0.12980978 -0.18658476 -0.056616202 0.10278456 -0.28221416 -0.20109403 0.004276991 0.0217255
